1352 100
， 0.11553906 -0.08664814 0.03262466 -0.013366889 0.050602295 -0.16323367 -0.046523552 0.016360518 -1.4623537 0.039888825 -0.0373315 -0.095462434 0.070961446 -0.02429595 0.2690639 0.10528298 0.0052645467 0.023896247 -0.00047794724 -0.043521043 -0.16063705 0.039511677 -0.18703267 0.10784706 0.2129307 0.06129225 0.014508128 0.0056905663 -0.058563802 0.06528824 -0.00013784294 -0.014825927 -0.019972574 -0.016950242 0.055977523 0.043636106 -0.015733998 0.022056501 0.109606884 -0.025931913 -0.051432215 0.016697658 0.14358594 0.0009172225 0.0639145 -0.092392206 -0.05990148 0.05149602 -0.00044384727 -0.022471936 0.049493227 0.0024635796 -0.06038178 0.05493937 -0.031079743 -0.06271995 -0.040679008 -0.021552278 -0.0136677865 0.0758509 0.1427755 0.09462216 -0.07306661 0.15157877 -0.10392014 -0.08197486 0.08318971 0.09026719 -0.039790522 -0.011828997 -0.05408838 0.02578655 -0.0053174957 0.0828007 0.06807122 0.029423939 -0.28036967 -0.036237057 -0.042638816 0.29434302 0.060930915 0.0034816538 0.041405685 -0.013934225 0.04580579 -0.11380814 0.010583064 -0.053837433 -0.03589176 -0.15345484 -0.07412881 0.12153302 0.08425033 0.031649154 0.04434028 -0.06858019 0.07682891 -0.0046274774 0.039028272 0.064973034
子 0.037328675 -0.04153249 0.003279001 0.025613602 -0.05055531 -0.028537488 -0.19921751 0.015928093 -0.7310209 0.0070057083 0.05094612 -0.3371842 -0.15734774 -0.022638177 -0.2227593 -0.023107382 0.01990905 0.22322683 0.07592945 -0.054043654 -0.051724095 -0.12680398 -0.11008006 -0.1639207 -0.0315326 -0.031589188 -0.058204483 0.0052682636 -0.18207408 -0.022472784 0.050683748 -0.11480751 0.0624169 -0.066332 -0.064071774 -0.012241738 -0.026963593 0.102989025 -0.44028482 -0.07867887 -0.028327858 -0.020703811 -0.05808601 -0.06826265 0.01674096 0.086464435 -0.08990347 0.0075749354 -0.25656098 -0.057108946 -0.005434764 -0.20416568 0.035317935 0.09194275 0.05563287 0.18850924 0.07217683 -0.045118872 0.12537386 -0.14103353 0.0043926965 -0.09124505 -0.008212878 -0.58992946 -0.0076107373 -0.021302154 -0.01623192 1.3857923 -0.2834788 0.09597366 -0.07386501 -0.05303008 -0.08467912 0.22220556 -0.10316861 -0.03346438 0.49596342 0.13994844 0.071550876 -0.078999445 -0.029691398 -0.0102435965 0.03276963 -0.1610011 -0.044177484 -0.040997304 0.06511071 0.02599982 -0.05180328 0.05391764 -0.20862181 -0.05093344 0.49488226 -0.09585731 0.019388039 -0.01614012 -0.041448347 -0.09406427 -0.04139691 0.008722589
。 0.075339116 -0.089079805 -0.2900163 0.13895562 -0.05716223 -0.07736398 -0.3253937 -0.0860496 -1.1960449 0.037651796 -0.0263612 -0.20666526 0.0026009115 -0.14907722 -0.21052307 0.012919838 -0.11907254 -0.062278844 0.041920718 0.0054970705 -0.17602581 0.12645327 0.15368415 0.040559895 -0.10287034 -0.13167816 -0.036378447 -0.18903278 -0.02207079 0.06944269 0.049535885 -0.18697053 -0.07134671 -0.25058076 0.025862949 -0.113584146 0.06944369 0.047324803 -0.65848976 -0.030616056 -0.029776767 -0.0751469 -0.0022321802 -0.072343536 -0.10322448 -0.03714884 -0.10443272 0.027985923 0.034471136 -0.023251032 0.18957038 0.020532006 -0.12641892 0.011577189 -0.09682524 -0.109820545 0.11961457 0.060228802 0.11268702 -0.024024386 0.08323166 0.0016863754 0.015020753 0.7278442 0.025580065 0.09832547 -0.03532295 0.35134488 0.0003800084 -0.21691251 -0.18057302 -0.10025551 -0.005094704 0.16020289 0.02758742 -0.08354511 0.0017136423 -0.105227605 -0.0452137 -0.6510084 0.0783415 0.07026004 -0.18725741 0.040780913 0.0077868886 0.06437561 0.011720108 0.05030287 0.038545623 0.11523615 0.20202889 0.036370583 0.007962637 -0.013638242 -0.05534571 0.17270242 -0.14498314 0.08163447 -0.09282945 0.11668883
： -0.08938494 -0.024040455 0.28007138 0.08420268 0.019843679 0.0249311 -0.028419565 0.20778805 -1.0221363 -0.1548718 -0.18295313 0.10304357 -0.01915391 -0.012910783 -0.6492037 0.05232044 -0.13236941 -0.055128086 0.11310893 -0.1878169 0.00052622263 -0.01427644 0.025127254 0.05915818 0.08480479 0.11503324 -0.11718174 -0.2806211 0.07371463 0.011935583 0.045643684 -0.02022762 -0.08673063 -0.021418948 -0.028995069 0.084677264 0.030385295 -0.09103489 0.26038432 0.029021079 0.1005496 -0.027764214 0.20994547 0.120159656 -0.06387481 0.15607621 0.19752501 0.053309903 -0.007858016 -0.09196336 -0.08458852 0.08101206 0.0015174131 0.048051417 0.006058198 0.2539977 0.07494827 -0.0925087 -0.07544566 -0.045552213 0.03602869 -0.09754388 0.2838787 0.4793848 0.041298408 -0.041003358 -0.08771157 1.4166588 0.07251612 -0.054990463 0.087744385 0.04188318 0.17530845 -0.18086144 -0.09109583 0.08244913 -0.5420271 0.15418361 -0.07332174 0.17431517 -0.013963918 -0.004865178 -0.014680182 0.2022387 0.13894255 -0.00758056 0.020832304 0.0036131635 -0.05778669 -0.108006515 0.035129037 0.0777226 -0.31691155 0.08041175 -0.13155118 0.034677055 0.06637333 0.03606742 -0.03601898 -0.033308495
曰 0.03907682 0.054691877 -0.06422302 -0.02243094 0.076740645 -0.029414896 -0.22558574 -0.069661595 -0.20432626 0.09194898 0.14825009 0.37571076 0.13550414 -0.027893411 0.24626982 0.16637321 -0.052948818 -0.012314926 -0.0010383523 -0.027077416 0.23697145 -0.02853678 -0.15402028 -0.13991654 0.0025282751 -0.116198234 -0.120115146 0.14777344 -0.049624056 -0.37112838 -0.010663396 0.13516918 0.010534852 0.053219907 0.10076396 0.10668504 -0.06435858 -0.117952995 -0.66626465 -0.016629996 -0.03737714 -0.06711978 0.020200234 -0.12837657 0.024906263 -0.09477208 -0.13701692 0.09168978 0.25757647 -0.0070594167 0.31753996 -0.30250952 -0.24225752 0.08550584 0.15747258 -0.14002396 0.065044925 0.17941731 0.059560765 -0.055493955 -0.026905285 0.47609794 -0.2811126 -0.27138746 -0.2289894 -0.1537194 0.09824273 2.2515938 0.033756223 -0.15080036 -0.053749386 0.11266541 0.011810786 0.15927008 0.19477999 0.032551456 -0.086098105 0.15924285 0.06898454 0.13641441 -0.027247842 0.22527407 -0.03017452 0.19640628 -0.024165269 0.20376742 0.00919632 -0.126924 -0.010602307 0.005991 -0.08316081 0.016294636 0.4041165 0.06668843 0.13409169 0.13862592 0.16639559 0.031042779 0.15465893 -0.046928905
之 0.046216827 0.10249989 -0.24597235 0.12237426 -0.04663788 -0.10916752 0.020981288 0.077773325 -1.0410651 -0.13343203 -0.0165016 0.1667872 0.21556517 -0.044565998 -0.2984988 0.101129234 -0.019993845 -0.0045516784 0.08503607 -0.063191235 0.061801687 -0.18160187 -0.024950571 0.059293084 -0.1897628 -0.09786638 0.015491169 0.10338794 0.0056214435 -0.044160094 -0.18159144 -0.083732665 -0.0955359 0.08479608 0.013998209 0.026794745 -0.10960834 -0.0068372576 -0.81020653 -0.08064913 -0.20808183 0.28246647 0.06988154 -0.009915252 -0.14614436 0.17289762 0.0143198315 0.09027835 0.15937656 -0.04086129 0.18254878 -0.15392998 -0.18204002 0.032039184 -0.06757101 0.06278038 0.08989866 0.11955268 -0.23444718 0.08706595 0.046589334 -0.03341906 0.10956918 -0.338994 -0.20971105 0.077023715 0.0026748157 -0.071428575 0.23489526 0.07774967 0.17570677 -0.021583559 -0.027853956 -0.30216956 -0.15421472 0.20050606 0.020695603 0.09222111 0.053466763 0.06918313 -0.050067097 -0.04821638 0.029192578 -0.012800488 0.02189493 0.07383845 0.1270763 0.014978217 0.092207894 -0.119538486 0.118280634 -0.106884174 -0.1389335 -0.073979385 0.039881703 -0.16593385 0.025240118 -0.11601385 -0.09351691 -0.007399415
不 -0.35278425 -0.019707263 0.06464838 0.056855425 -0.06819637 -0.071273424 0.17533715 -0.040292908 -0.6461193 0.082836054 -0.02068632 0.2382663 -0.040096495 0.2754189 0.08444124 0.09066121 -0.107008696 0.11496999 -0.044093646 0.26926956 -0.07782649 -0.064886436 0.057402954 0.09786166 -0.088349245 0.1722359 0.22933322 -0.18731406 0.023690883 0.020092452 0.20178011 0.0073294817 0.042806424 0.055827096 0.12316437 0.08862992 0.041417282 0.027047839 -0.33402982 0.017511286 -0.05839535 -0.0124910185 -0.1683634 -0.12013159 0.15191011 -0.046235066 0.114461355 -0.009984381 -0.0294997 0.057827014 0.04231519 0.04533023 -0.2278533 0.27296895 -0.12878525 -0.52516377 0.07237185 -0.005240596 -0.066312484 0.15675856 0.10803083 0.11421507 -0.16244121 -0.3677495 -0.030177465 -0.014525913 -0.033536363 0.48608345 0.029689461 -0.036994867 -0.026984751 -0.015212359 -0.06594103 -0.12573178 0.016910098 -0.036767934 -0.792397 -0.111642525 0.039647654 -0.38466468 -0.15531576 0.059662793 0.12871853 -0.2736715 -0.2050505 -0.15383533 0.027081748 0.18325725 0.026100587 0.0682521 -0.10465613 -0.014897199 -0.029584944 0.06951603 -0.08634506 -0.087254934 -0.2683385 -0.09012124 0.08558558 -0.17940979
也 -0.14980958 -0.023228306 -0.0087154815 8.280058e-05 0.10278063 0.019927366 0.2072843 -0.0023975659 -1.1045094 0.08574488 -0.00996002 0.49417728 -0.07430734 -0.03476977 -0.20573404 -0.042386033 0.10256236 -0.18051289 -0.26596114 -0.09379209 0.05374427 0.021022076 -0.15463895 0.16983706 0.02212045 0.16855638 0.08831495 -0.07758721 -0.0071055098 0.13049853 -0.11637453 0.065558724 0.18935539 0.18667074 0.056100916 -0.04376961 -0.19491065 -0.18267514 -0.76546395 -0.010059517 0.1107054 -0.11409689 -0.16870104 0.06985389 0.10785445 -0.081826575 0.029283091 -0.22452578 -0.03863885 -0.14093383 -0.2378714 0.22865266 -0.05768924 0.03379583 0.13789307 0.34362844 -0.050908804 -0.027153913 -0.151111 -0.07830715 -0.08141996 0.34213048 0.1719791 -0.5548758 0.2385225 -0.07142199 -0.097740956 0.060894936 0.07278739 0.05371397 0.09199275 0.0470361 -0.16581103 0.0410882 0.16321957 -0.12892966 0.31866306 -0.15845017 0.03936043 -0.249521 -0.08074778 0.14362834 -0.0315207 -0.022208642 0.22421245 -0.026547177 -0.058650855 0.19304864 -0.03862041 0.023771212 0.16484831 -0.091325395 -0.16879526 0.1414367 -0.097952925 -0.1052965 0.1730634 0.22163603 0.09700559 -0.10456143
而 -0.044439513 0.040600087 -0.06362405 -0.05342528 -0.15378755 0.25573638 2.4502111e-05 0.015787784 -1.1679676 -0.12577501 -0.17927432 0.17730196 -0.11351624 0.1573097 -0.16162986 -0.024882896 -0.06707374 -0.11158512 -0.009394774 0.06319255 0.0848942 0.16402207 0.5542285 -0.15723006 -0.09724781 -0.15710214 -0.031588584 0.18989116 -0.12666395 -0.0021823044 0.21233624 0.16059117 0.021793151 0.10349508 0.06087254 -0.06496158 0.1336204 0.07707923 -0.7738925 0.018417252 0.1817572 -0.10006273 0.112086125 0.22429691 0.022843814 0.0356732 -0.12180091 -0.3080349 -0.13869154 -0.06986795 0.08590361 -0.14833024 0.01923729 0.011423811 0.054630835 -0.29755425 0.07405551 0.06061037 -0.10875859 -0.16527538 -0.032494985 0.16587603 0.15324336 -0.23433404 0.06479357 0.021014657 -0.021035641 0.12769085 -0.22041589 0.029581422 -0.22448997 0.05492202 0.08995325 0.2743498 -0.080107905 -0.11417903 -0.74941224 -0.16979545 0.0019518617 0.5422311 -0.112203136 -0.23247306 -0.13819578 0.121471085 -0.12655212 -0.1102181 -0.005839209 -0.0923951 0.020520773 -0.10740767 0.05789192 -0.05788537 -0.06803448 -0.15377216 -0.18266296 0.081212826 0.074574254 0.25442904 0.10192278 -0.09727411
？ 0.15807278 0.019394161 0.15407363 -0.16554785 -0.07973386 0.3783383 0.12494099 -0.17515333 -1.4597372 -0.30880553 -0.017831195 -0.0894597 -0.035237372 -0.46632123 0.23871425 0.088999726 0.07853526 -0.17860216 -0.12252701 -0.049930904 0.18984969 0.10693633 0.23423505 0.009455411 -0.028274404 -0.12733264 -0.19950983 0.18121706 -0.059810963 -0.11272917 0.11528468 -0.06696186 0.042248376 0.040432613 -0.07166653 0.10937864 -0.03922845 0.37537852 0.08776584 0.12946174 0.15700345 0.023680342 0.07635351 -0.159691 0.24205004 0.16396776 0.18885982 0.03587359 -0.10324367 0.02910516 -0.23992768 -0.2691202 0.42573306 -0.15436675 -0.11880387 -0.46223652 -0.080476366 0.1792935 -0.04444513 0.32758766 -0.0465992 0.10987853 0.12955944 0.5850117 0.24208714 0.04897359 -0.08428478 0.81887203 0.23029056 0.02782111 0.12067571 -0.058593404 0.1444644 -0.06645665 0.056332506 0.003326722 0.05176493 0.10036148 -0.1613266 -0.43265027 -0.1099058 -0.031324964 0.21437109 0.094160005 -0.22010446 -0.19515815 -0.25519532 0.13877401 0.07266061 -0.20984395 0.050007235 -0.16178663 0.48809525 0.033526678 -0.4065781 0.12516281 0.041965086 -0.20565954 0.0812351 -0.13242424
其 -0.21272893 0.15612142 0.086479954 0.019511973 -0.007300051 0.009629771 -0.089411795 -0.08220284 -0.94709796 0.055208076 -0.16997944 0.7546163 0.23955546 0.17110167 -0.11122847 -0.20731437 -0.036140848 -0.01214772 -0.04094439 0.058378227 -0.27137902 0.051402513 -0.16701017 0.11305194 -0.15196042 -0.32089356 0.049498286 0.56103617 0.4045235 0.14531314 -0.18927242 0.1450265 -0.09661474 -0.02763619 0.102102 0.03325409 0.076787606 -0.006953215 -0.07265108 0.13232166 0.12813926 0.033587135 0.017849619 -0.17017247 -0.053672146 0.070951775 0.0710308 0.024844768 0.13033836 -0.19891042 -0.19163539 0.08215931 0.21264368 -0.008902535 0.08627347 -0.34771502 -0.004254151 0.1547993 0.10348956 -0.28645623 -0.1203517 -0.3579908 0.08644209 -0.56351066 -0.06386343 -0.035297822 0.11313899 0.31303406 -0.10337158 0.12670912 0.06114959 0.14191264 0.07683549 0.0007996845 0.19832876 -0.04461637 -0.31040582 0.18534613 -0.30552012 -0.42904082 -0.13238922 -0.23030494 -0.02726679 -0.17492801 0.19163707 0.03953877 0.053284846 0.0616234 -0.2203464 0.10679761 -0.25881115 0.06165263 -0.0645334 0.25826672 -0.21138635 0.058957 0.16594867 0.13680907 -0.15498044 0.11513642
人 0.5394357 -0.13860227 -0.08578023 -0.21838772 0.012169046 0.048169587 -0.051878985 0.055698074 -0.59965634 0.20177947 -0.026005222 -0.18799008 0.03840484 -0.16523597 -0.024106296 0.17507897 0.054000087 -0.10335239 0.10516645 -0.33194765 0.09454643 -0.01001564 0.18450913 -0.14282142 -0.1371419 0.022009995 0.18607637 0.21410725 -0.013483865 -0.30002236 0.0048131594 0.21412353 -0.11570908 -0.025386024 0.008024705 -0.03329811 0.20505795 -0.3712233 -0.21062374 -0.15868548 0.116649605 0.13039085 -0.35702306 -0.07154601 0.022717617 0.068854496 0.36322588 -0.2779257 -0.1077409 0.1364429 0.06743375 0.10584906 0.031798217 -0.02642112 0.05770125 0.19074443 0.26433375 0.073314264 -0.15953316 -0.23725277 -0.03854349 -0.14333963 -0.20688657 -0.30997315 -0.18967393 -0.21021888 -0.4783966 0.40223488 -0.0387388 -0.051563106 0.16054927 0.1691695 -0.25751844 -0.48551863 0.22865039 0.17598233 -0.46094605 -0.03791114 0.018601507 -0.24122398 0.32621086 -0.34553063 -0.059941877 0.024102444 -0.15635699 0.08725272 -0.2197052 -0.16916749 0.15441127 0.69774365 -0.12553757 0.15888184 0.116941735 0.18588956 0.078232504 -0.11541853 0.09041946 -0.21027985 0.27757674 -0.054097746
者 -0.10311761 0.32487693 0.18852384 -0.33043194 0.19781156 0.10205775 0.054919187 0.17621939 -1.114143 -0.11916151 0.1419812 -0.062331844 0.05446329 0.03277692 0.30526364 0.044098645 -0.13713531 0.033113815 -0.061184544 -0.059807103 0.16506782 -0.10029168 -0.06313757 -0.15405892 -0.1474286 0.14129071 0.24033907 0.17615534 0.06986742 -0.3023103 -0.31255972 0.35788634 -0.19182825 0.07287071 0.08715324 0.13815701 0.08059191 -0.0052526873 -0.5339399 -0.15397005 0.12644942 -0.033807144 -0.09863996 0.006551192 0.20121364 0.2647912 -0.017199557 -0.12653431 -0.22584078 0.108741164 0.17182311 0.014930942 -0.27917615 0.07458762 -0.0027773958 0.2968502 -0.24472575 -0.34601387 -0.22718202 0.02315297 -0.035906658 -0.0016780046 0.12119264 -0.005557437 0.08880623 -0.13520707 -0.32731012 -0.24047801 -0.12351753 0.24423052 0.19915894 0.15091385 0.052445613 0.06053325 -0.20067511 -0.021757746 -0.23004483 0.2278761 -0.1637872 -0.6438192 -0.060513664 -0.21108778 -0.0048369262 0.0369366 0.03133239 0.3222059 -0.0011816287 0.29667312 -0.20475264 -0.103813596 -0.3237992 -0.14173013 -0.0055920617 -0.3130994 -0.04526284 0.27731246 0.037828475 0.14043757 0.08270562 -0.07861425
以 -0.23394273 0.17276981 -0.3943121 0.024978427 0.21830581 -0.1441594 0.20421898 0.17840363 -0.8590825 0.43968013 0.28622276 0.13931468 0.3094818 -0.2437215 -0.17494069 0.10578807 -0.11640961 0.11848054 -0.16534238 0.22228855 0.059125345 -0.13218908 0.023882143 -0.041125514 -0.029186005 -0.06126632 -0.19292021 -0.10928317 -0.16164829 -0.16038564 -0.08271949 -0.46024615 0.30417538 0.0627426 0.2700156 -0.11831167 0.019991864 0.28751406 0.0019711435 0.03988397 0.060926113 -0.110276274 -0.020627854 -0.12211624 -0.027199123 -0.024488743 -0.22272368 0.13895936 -0.3509977 0.0022010212 0.038832784 0.042082597 0.044975877 -0.051853772 -0.0326866 0.58540446 0.1006209 -0.03861259 0.2577914 0.25517195 -0.14081587 -0.035896935 0.053960692 -0.28992057 0.33990186 -0.00011760127 0.14157781 0.41506195 -0.078598864 0.22983031 0.008722527 0.31855094 0.27647284 -0.1268959 -0.13516524 -0.24380049 -0.7568695 0.08579501 0.25258377 -0.018163212 -0.434379 -0.063413195 -0.29360396 -0.2651595 -0.20524529 -0.1101762 0.039150972 -0.41527656 -0.0005447756 0.25972366 0.12375454 -0.11326856 -0.103244215 0.0026485445 0.09346553 0.04617084 0.048386864 0.08904599 0.078592665 -0.009405525
有 -0.039182052 0.025923459 0.12902027 -0.031358246 0.09693199 -0.13431837 -0.25816116 -0.11332267 -0.4582116 -0.23078305 0.07283841 0.19622691 0.26024693 -0.19192325 0.67445475 -0.097311825 0.041815236 -0.14220221 0.078076735 0.07468111 0.06402296 -0.03272299 -0.21136174 0.16458014 0.018649098 -0.23821534 0.22041309 -0.603665 0.12849618 -0.017783744 -0.09673667 -0.07774843 -0.04981237 -0.18428841 0.03008715 0.12961303 0.04459011 0.010318552 0.0067487718 -0.21765843 0.025184466 0.047635283 -0.050964665 -0.08925678 -0.28216237 0.13787034 -0.12278811 -0.166111 0.116815686 -0.14544031 0.55466926 0.4543056 0.20050801 0.008476706 0.10700665 0.05096247 0.086726926 -0.048223265 -0.32664958 0.015178168 -0.013537782 0.18132101 0.1294799 -0.19556952 0.15788217 0.13654391 0.01734378 0.62351257 0.054515615 0.04390246 -0.018862886 0.1623667 -0.10702044 -0.32828355 -0.29740566 -0.07504806 -0.19984265 0.15459163 -0.1941706 -0.1483062 -0.23303422 -0.326479 -0.28708285 -0.013723175 0.18593238 -0.051171914 0.04591838 -0.08798524 0.015449404 0.087497585 0.09935748 -0.0060793203 -0.10661977 0.0003132213 0.031487066 -0.19837068 0.1568745 -0.46585518 0.37993717 0.45360494
于 -0.44075924 -0.20837754 -0.1673702 -0.016966844 0.35920158 0.047036514 0.008591681 0.41609153 -1.1772621 0.28244883 -0.020617727 0.4777393 -0.009917766 0.050999325 0.44792125 -0.24290195 -0.14165103 0.086352445 -0.29433447 0.1997567 -0.1871492 -0.14535268 0.38325247 -0.2065191 0.0933795 -0.07556129 0.020731473 0.20142516 0.011877184 0.146098 0.117935926 -0.005139903 -0.102886684 0.05092396 -0.07022465 0.030845547 0.30890566 0.05906485 -0.122946076 0.17744365 -0.10471073 0.1757981 -0.0076560765 0.072889164 0.111407295 -0.11679099 0.4039591 0.344345 0.44331607 -0.08244204 0.33459833 -0.23775953 0.22191948 0.06877943 0.41242373 0.047768135 0.046168365 -0.32237387 0.045537427 -0.23595646 0.16239327 -0.16672246 0.109973185 0.09632519 -0.10006592 0.026463978 -0.16480179 0.7976474 0.03249754 0.066465445 0.30251503 0.0010403491 0.16374087 -0.010604815 0.047292825 -0.027260453 0.07814878 -0.05278964 0.25474522 0.24338873 0.27426514 0.20697431 -0.24579307 -0.013323596 -0.08938362 0.006954465 -0.09363671 0.23456979 -0.09666811 0.098307654 0.25301883 -0.10412659 -0.26918316 -0.17209731 0.10963509 0.22310135 -0.12051408 0.05154708 -0.029974692 0.34873575
矣 -0.12871665 -0.0790762 0.44945046 0.044567507 0.10826867 -0.060234137 0.35275647 0.27512616 -0.8760087 -0.13244535 0.15027058 -0.08496812 0.27020288 0.10284219 0.35880426 -0.09116644 -0.3869744 0.15715551 -0.09784068 0.4371274 0.251145 -0.02955067 -0.33788803 0.07835668 -0.16350698 -0.09747816 -0.053073 0.07898321 -0.2270631 -0.025844738 0.27205804 0.39694437 0.051786624 0.007914759 -0.0007768061 -0.016962789 0.085279204 -0.44553372 -0.9783636 0.11152825 0.32695955 -0.018731207 0.0025065788 0.035867896 -0.12349558 0.08338713 -0.10894463 -0.2416957 0.21412084 0.050431408 -0.12790678 0.10538081 -0.16853715 -0.49044323 -0.115415804 0.90887356 0.033557326 0.49803194 -0.087439455 -0.05810753 -0.009361073 -0.40144464 0.26230058 -0.3770134 -0.016957577 -0.011632499 0.124748565 0.43167636 0.37564394 -0.32596278 -0.065415494 0.33696544 -0.07020413 -0.28482473 0.37812582 -0.01785733 0.14466089 -0.35231036 0.19434133 -0.090463586 0.103666045 0.006085236 0.1147301 0.08874106 -0.10679551 -0.036912 0.014458203 -0.15055491 -0.09436842 0.30148733 0.062252644 0.14573616 0.17998768 -0.009921453 -0.18326592 -0.1899222 -0.40080157 0.33593467 0.16020921 -0.016489893
为 0.078868516 -0.4516078 0.023493115 0.1453278 -0.30151296 -0.30251426 0.28683445 0.02029638 -0.55153453 0.22130364 0.18670036 -0.33838287 0.19615756 -0.33510336 0.31282845 0.06564075 0.16559288 -0.100416355 -0.48754665 0.14774092 -0.011418634 -0.09856289 0.37600252 -0.13482845 -0.04745572 -0.110476784 0.010071596 0.27722353 -0.23566091 0.11360685 -0.0033205696 -0.022755582 0.3630454 -0.14664565 -0.17383699 -0.02949687 0.046173394 0.14297265 -0.12164298 0.14683704 0.117726006 0.09253317 0.2393499 -0.1470136 0.052748624 -0.07525253 0.018174868 0.023222335 0.33482507 -0.04130386 -0.23274647 0.4448761 -0.23954163 -0.090889476 0.06836929 0.4748649 0.06598586 0.18197954 -0.2337723 0.3813098 0.26269332 0.08909475 -0.10325234 -0.2679797 0.02144923 0.22321442 -0.105963096 0.845265 -0.29004326 -0.15709892 0.14377908 -0.2588833 -0.011351693 0.08340649 -0.24832098 0.18518935 -0.65021044 0.001717427 0.20887797 -0.12763207 0.10088077 0.024278274 -0.047358193 0.015097472 0.08510451 -0.124737784 0.16261974 0.26209962 -0.050258107 -0.14604837 0.12923104 -0.74068075 -0.028568938 -0.023164675 0.036908746 0.19610979 -0.017835198 -0.16429749 -0.058851685 0.03028033
君 0.3575447 -0.20630914 0.035119195 -0.07638884 -0.14903678 -0.28407988 -0.4080245 -0.013455826 -0.14758965 0.7387902 0.2601954 0.4539215 -0.03070216 0.062220495 0.24844894 0.28175506 0.2958302 -0.03955042 -0.16085929 0.06643046 0.16938952 -0.13260743 -0.09605065 -0.057400778 0.14938653 0.18380347 -0.25988498 0.2883519 0.12259129 0.22464879 -0.15764116 -0.27340707 -0.16291453 -0.05253388 -0.08849367 -0.146099 -0.17978665 0.19017705 -0.78652483 0.06846493 -0.43683967 0.08018599 -0.14452232 0.0011006454 -0.08336391 0.27497083 -0.14409468 -0.02068408 -0.3477293 -0.070522405 -0.039692998 -0.025954012 0.073997274 -0.20571929 0.112882905 0.16933496 -0.17730345 -0.20347792 -0.10080231 0.18482615 0.2799811 0.062618375 0.13298029 -0.16333792 -0.24601562 0.104723625 0.017348595 1.4325291 -0.06672736 0.00087222323 -0.24566624 -0.21580656 -0.16438884 -0.36911085 0.11086614 0.12257959 -0.020919828 -0.39284953 0.029197905 0.10062059 -0.089798465 -0.38104746 0.12142057 0.067556694 0.29497316 0.04902868 0.01055469 -0.056638695 0.13988478 0.095641814 -0.29434755 0.11538018 0.027752183 -0.17115758 -0.55741054 0.06988412 0.16670275 0.03471808 -0.07589705 -0.06536346
乎 -0.39312786 -0.012210984 0.08520242 -0.03855571 -0.23980226 0.13342664 0.3787116 -0.12784499 -1.2180045 -0.08767531 -0.45886979 -0.2771115 -0.0557984 -0.014747268 0.86360264 0.2428267 -0.016853755 -0.13540208 0.013999907 0.18480496 0.12799188 0.090137735 0.0017469252 -0.13345924 -0.30016756 -0.27387783 -0.13583843 0.21732686 0.34412217 0.11176007 -0.34050304 0.07278312 -0.041594554 0.11507134 -0.104419276 -0.0561463 0.3161715 -0.30392784 -0.25634366 -0.07626021 0.24646945 -0.31077263 -0.103220895 0.15675789 -0.08669749 -0.14637078 0.01655078 -0.16320945 0.056291156 -0.017703013 0.06743522 -0.2795869 0.3223559 -0.08485014 -0.13639115 0.33396918 0.03899438 0.093492575 0.07358841 0.2500637 -0.058646977 0.16477594 0.3634326 -0.14506447 -0.17567396 0.052032385 0.2218118 0.61485785 -0.36803144 -0.3025678 0.06338905 0.12446284 -0.09667816 -0.12200211 -0.067568846 0.0018801868 0.13906747 -0.18391787 0.15970905 -0.23489161 0.0102602355 0.24962384 0.011655418 0.23775402 -0.23221198 0.34304038 -0.115646206 -0.15989079 0.12004127 0.6797274 -0.1456365 -0.10165222 -0.4866978 -0.09881825 0.32559967 -0.09637069 0.17864361 -0.23115481 -0.005849437 -0.017046077
可 0.09702057 -0.13442723 0.077414334 -0.086983345 0.10951371 -0.088401854 0.5119927 0.114680156 -0.4878962 0.0732058 -0.02248238 0.19019563 -0.071106985 0.10438405 -0.34749153 -0.057532642 -0.010845142 0.0033721097 0.090775296 -0.16754904 0.1797926 -0.060926188 -0.4168034 -0.0014009848 -0.12284806 -0.16144392 -0.07809503 -0.090671875 -0.16043776 -0.06813999 -0.27607006 -0.1598378 0.0040046065 0.20694989 -0.22302675 -0.042533815 0.09357342 0.15291509 -1.0244732 0.32705003 0.24318841 0.25503302 0.033219047 0.052181274 -0.06511432 -0.2600497 0.1445401 0.046604574 -0.053230733 -0.34471595 -0.13715518 0.0302741 0.29312915 0.062221278 0.2637475 0.09577377 -0.17948891 -0.38920605 -0.035014488 -0.06467453 -0.08192917 0.27747673 -0.11984676 -0.24808617 -0.11482925 -0.025068056 -0.064332746 0.18425184 -0.34148836 -0.1553362 -0.21722355 -0.12726592 0.04391289 0.12889518 0.11694139 0.24803053 -1.1371716 -0.14177133 -0.17764734 0.10971798 0.12282149 0.07082613 -0.041074026 0.20165278 -0.034456845 0.07545767 -0.15995051 0.07903387 -0.08922423 0.5382097 0.031058026 0.30128473 0.43668148 0.22762316 -0.098837286 -0.2877873 -0.052988824 -0.1893127 -0.2517121 0.20600203
如 0.0321587 -0.007937392 0.08368387 -0.023501847 0.20891882 0.40176067 -0.5923756 0.3977389 -0.6091086 0.0799723 0.22621037 -0.039236452 -0.40339726 -0.10482207 0.3940494 0.051876448 0.08052942 -0.017808618 -0.4055782 -0.22155543 0.12031358 -0.16094176 -0.295997 0.14832397 -0.11760131 -0.057935447 -0.040552802 0.17243831 0.18256152 0.21753561 0.06829138 -0.039122656 0.349556 -0.419793 -0.03424703 0.34460545 0.049183052 -0.11681492 -0.7802569 0.24515337 -0.13458128 0.134595 0.5452311 -0.13204001 0.35003132 -0.054749575 0.35870805 -0.09924917 0.0042183916 -0.15754855 -0.123479106 0.07145399 -0.24143104 -0.39695823 0.14505339 0.51072 -0.33389616 -0.09499807 0.17539291 -0.11428256 0.2057839 -0.19008504 -0.12178174 0.066984676 0.12044756 0.022768913 0.21026494 0.49304214 0.34464395 0.2569922 0.40753487 0.019460093 -0.15122212 0.148683 -0.42901456 -0.04483427 -0.4314407 0.08053015 -0.07831329 -0.15341201 -0.5122962 -0.062406514 -0.12698936 -0.011682823 0.2871071 -0.31525174 -0.07801808 0.06152498 0.113130294 -0.10892586 -0.027957419 0.14068829 0.04512374 -0.16131736 -0.020480596 -0.07168882 0.21113044 -0.071069844 0.23086125 -0.08018109
与 0.20422871 0.23545367 -0.26502097 -0.08526832 0.23129348 -0.19524966 0.107611544 0.070435986 -0.5761325 -0.13961081 -0.17604181 -0.10758698 -0.17800042 0.10633916 0.5047738 -0.42102906 0.06535438 0.06791954 0.17016156 -0.23874986 -0.1455947 0.034980476 -0.002018415 0.12606552 -0.10131824 0.041563265 0.09992711 0.15465963 -0.059036072 0.19263251 -0.17939433 -0.22859965 -0.03956078 0.012221161 0.009557673 -0.22937807 -0.38624507 0.002254543 -0.58603084 0.009642764 0.049167104 0.21043697 -0.19103491 0.11561604 0.061214767 -0.052786555 -0.26331332 0.1863425 -0.12944593 -0.19627301 -0.18711789 0.16923681 -0.1100482 -0.18537796 0.12628986 0.38953388 0.49612927 -0.081259586 -0.19356474 0.1761917 -0.023765495 -0.094230376 -0.2466538 -0.22611558 0.23650078 -0.20649649 0.10401915 0.50387394 -0.298783 0.41582897 0.09892531 -0.41121125 -0.010672812 0.08396014 0.21262972 -0.25646478 -0.32959282 -0.5321913 -0.25465766 -0.3857474 -0.062382985 0.2551032 0.25422078 0.17466511 0.054958902 0.023542779 -0.13971883 -0.16539925 0.21961942 -0.11737962 0.1296594 0.06245575 -0.48169395 -0.10379973 -0.565095 0.26434097 0.2836543 -0.24655204 0.0533782 -0.43294474
； -0.23469552 0.07372754 -0.013939156 0.26868913 -0.069028795 0.027478563 -0.035861235 0.09293688 -1.4554828 0.20122874 0.17201269 0.048723444 -0.23519716 -0.09812376 0.026975004 0.1580248 0.17688943 0.055057585 0.2305665 0.2004509 -0.13268617 0.05911587 0.19863704 -0.09090178 0.050153445 -0.25373775 -0.35979187 -0.06476105 0.19968344 -0.17938408 0.18882383 -0.054974172 0.27193692 -0.12075194 -0.43970245 -0.22253507 -0.056720555 -0.025536943 -0.3584916 0.13284925 0.08506556 -0.074163 -0.2739521 -0.016694017 0.18822296 0.038704425 0.019539725 -0.07927936 0.035091482 -0.51929605 0.05028204 0.17865475 0.08050836 0.0548811 -0.04994641 0.45300016 -0.4306285 0.036836848 -0.14785227 -0.44072285 -0.25735152 0.04790962 -0.1444916 0.64085615 -0.6768561 -0.042848464 0.101626515 0.02119046 -0.0019865728 0.11955472 -0.05999798 -0.008586971 -0.069818944 -0.114022486 0.27776244 -0.10241582 -0.48640516 0.2861572 0.06382665 -0.21972127 0.10824132 -0.04726637 0.06673373 0.029497415 -0.24125427 0.2219578 0.04324213 -0.0047243247 0.10504318 -0.30569273 -0.2984627 0.037601564 -0.037877537 0.13241653 0.22491811 0.14624591 -0.17406407 -0.31171528 0.2977185 -0.08044312
言 0.52659565 0.13353749 -0.09345872 -0.014216965 0.019325694 -0.1911051 0.12694386 -0.26526245 -0.4342238 0.15502425 -0.061565977 0.12582418 -0.07608692 0.031550527 0.032814264 0.00551155 -0.18621914 0.05828361 -0.18049742 0.0677977 0.047224678 -0.20354491 0.16184768 -0.016938834 0.14547178 -0.18019372 -0.19050072 -0.3443144 -0.10963396 -0.0161444 0.024649084 -0.18859212 -0.22433862 0.34176916 0.1827996 -0.16703978 -0.018146843 -0.30065444 -0.1674059 -0.32951346 0.27093527 0.26018736 0.39742357 0.09029034 0.018393846 0.46286973 -0.14052756 0.07883594 -0.025620261 -0.07643193 0.054390285 -0.04359427 0.058741882 -0.14427868 0.40064535 0.76833266 -0.312516 -0.09232665 0.2330105 -0.13364604 -0.023670267 -0.2626708 -0.02982474 -0.28912944 -0.048611004 -0.501305 -0.14050435 0.52047205 0.07656031 0.101892024 -0.27787554 -0.4798019 -0.14011386 0.13520063 0.3033334 0.101419315 -0.5323941 0.21135521 -0.12900503 -0.20215793 -0.09874221 0.1436514 0.38798124 -0.037748393 -0.008674313 -0.017732104 -0.11173579 0.27899662 -0.07659623 0.493976 0.23044015 0.04689605 0.34323987 -0.21564345 0.16130193 -0.13056421 -0.54261625 0.40975916 -0.07986192 -0.09299615
无 -0.25430277 0.20691253 -0.1940492 0.27052763 -0.09417569 0.33675128 -0.04556338 0.055987965 -0.6809691 -0.0021427732 -0.07299063 -0.059128106 0.30597013 0.096751526 0.559715 -0.08675403 0.070738494 0.10042392 0.29150522 -0.1290802 0.24287829 -0.099709846 0.1254626 0.14219308 -0.24418561 0.0533305 -0.13143627 -0.33599988 0.27883038 0.0016530771 -0.3565462 -0.2508378 0.30469346 -0.021734513 0.36000282 0.05770344 0.081095226 -0.13816172 -0.24217974 -0.007231456 -0.28531006 0.12204648 -0.1520495 -0.024891179 0.0026218975 -0.01672412 0.0846404 0.25511748 0.6165309 0.47856402 -0.15079904 0.028664675 -0.044552293 0.26490897 -0.35210937 0.089766905 0.020125924 -0.12367709 0.033203177 -0.019828275 -0.0782941 0.30668807 -0.23751675 -0.7297574 0.095119044 0.106913775 0.3655431 0.6838173 0.16955832 -0.17557843 0.035573464 -0.09128546 0.3609815 -0.3235911 0.06556458 -0.104906045 -0.5620756 0.13106298 -0.32608917 -0.122034065 0.29328257 -0.116759144 -0.093705624 0.07592806 -0.0011431078 0.102641895 -0.2273386 -0.12024285 -0.28519636 0.109925054 -0.24277253 -0.29002324 -0.22321396 0.28101546 0.018489083 0.09386896 0.06243487 0.34530908 0.16653283 -0.049678136
则 -0.36680815 0.1700056 0.05113988 -0.03479529 -0.26260075 0.19824879 -0.2623762 0.15492891 -1.1487705 0.2481097 0.109135024 -0.13220613 0.16552576 0.3377138 0.11776387 -0.06427212 -0.23119473 -0.19856766 0.085287 0.31384066 -0.3141595 0.116676554 0.29130292 -0.112339914 0.34795454 0.0042900993 -0.3534982 -0.12458786 -0.25239003 0.050618686 -0.44461676 -0.06717179 -0.22600678 0.23264745 0.116759926 0.23045951 -0.21009721 0.26727635 -0.011769073 -0.07062446 -0.12245428 0.15863432 -0.53835 0.21492362 -0.4132423 -0.19945914 0.1643375 -0.09372393 -0.1976917 0.07928698 0.034446016 -0.46401948 -0.065748334 -0.2517333 0.03916543 0.4070098 0.1390113 0.21164842 -0.09442262 -0.08466561 -0.091178164 -0.17299615 0.20978282 -0.37056875 0.15746458 -0.025277644 0.25121698 0.2848234 0.13716465 -0.2496323 0.25208992 0.14909694 -0.035082985 0.07661966 -0.028400622 -0.046550296 -0.7628094 0.15536611 0.24202177 0.08954944 -0.1636658 -0.05068347 -0.0006366918 -0.05427787 0.0663731 0.25842184 0.06296562 0.25066927 -0.37782955 0.08324313 0.42373922 0.035182502 0.35362613 0.4283344 0.29641685 0.3824369 0.35736847 0.14809315 -0.2773853 -0.36013073
！ 0.074166685 0.17900106 0.13836849 0.046512675 0.3192809 0.06447663 0.2031488 -0.20982315 -1.1208863 0.012259064 0.03205561 -0.22957774 -0.057673458 -0.096206814 0.15644437 -0.056723192 -0.1961764 0.18657722 0.17970225 -0.049767397 0.23836312 -0.25123388 0.5109171 -0.23844984 0.04003073 0.07088136 -0.038876235 0.32341823 -0.17393684 0.14959951 0.28475806 -0.29787344 0.11045427 0.1774277 -0.5506858 -0.346656 -0.42746395 0.06915927 -0.35945922 -0.102027155 0.10422679 -0.13017629 0.58241206 -0.1620619 -0.007252138 -0.044832233 0.17327783 0.07429596 0.10052735 -0.04954083 0.0054147015 0.037355408 0.22656322 -0.23054074 -0.004995641 0.1422365 0.02031378 -0.15255658 -0.39421064 0.0038036664 -0.19614103 -0.045035645 -0.24207596 0.7509039 0.4715326 -0.15946245 -0.03830662 0.70571804 0.17582145 -0.30521372 0.060736734 -0.59417105 -0.011363085 -0.35842985 -0.11994533 -0.26249126 -0.13296822 -0.12783536 0.013094742 -0.22843294 -0.21367888 0.050076894 -0.26854265 0.0048941094 0.35120082 -0.21291728 -0.13775438 -0.10179966 -0.07105496 0.30071244 -0.03772783 0.08072909 0.44071144 0.2048107 -0.0018759877 0.08307434 0.13361315 0.030003982 -0.008962514 0.16470686
问 0.11676995 -0.27179876 -0.096698746 0.057229634 -0.01416826 -0.091903545 -0.23801537 -0.1644023 -0.5482481 -0.03485245 -0.074321955 0.4982422 0.20558453 0.21188721 -0.00064248923 -0.35944393 0.036326583 0.04970455 0.067480065 0.1326812 -0.09087966 -0.07664485 0.11698838 0.01507783 0.12382064 0.23876677 0.117826514 0.11724435 -0.11428159 0.07887108 0.020658901 0.44662932 0.17908886 -0.092880234 0.08032669 0.01851345 -0.15432404 0.00895123 0.12315576 0.2944388 0.16556807 0.04521054 -0.13025105 -0.078238145 0.2967431 0.37686494 -0.101437114 0.040064927 0.342604 0.5278815 0.4871378 0.017656026 -0.3989173 -0.21519513 -0.25342253 0.37057546 -0.1390142 0.14315307 0.089868195 0.068885416 -0.25659063 0.13807286 -0.10181025 -0.15171771 -0.18667968 0.16622187 0.09281642 1.2233026 -0.1450521 -0.1926324 -0.22910404 0.11618012 -0.017916242 -0.08585942 -0.12588817 -0.21687074 0.14807081 0.0115033835 0.18607092 -0.31626374 -0.10685261 0.25794712 -0.05075082 0.13369016 -0.24582224 0.06383644 0.03103854 0.24066703 0.20422973 0.28494075 -0.3420031 -0.118880495 0.14672314 -0.19349563 -0.091800265 0.5486772 -0.02133795 -0.065368496 0.007206956 0.100461505
知 -0.051460646 -0.10159455 0.2882941 -0.3439677 0.44837928 -0.2809921 0.016205192 0.4150555 -0.29010245 -0.0129293725 -0.05604421 0.35725725 0.057365194 0.06779748 -0.014723118 0.050328188 -0.092398465 -0.013079884 0.38908198 0.046706367 0.25668034 -0.1526878 0.15438591 -0.17644839 -0.18357302 -0.25403094 0.23391418 -0.17710178 0.037072666 -0.2801552 -0.03187449 -0.08385884 0.13994586 0.17394857 0.016008489 0.05333619 -0.1543209 0.31200856 -0.7230407 -0.15442963 -0.24058126 -0.10915592 0.3208056 0.008041846 0.14464939 0.15875913 0.18033133 0.29503974 0.19726819 0.035312872 -0.2632568 -0.09766973 -0.073540986 -0.06667725 -0.020928279 0.5465362 0.17964517 0.018648975 0.05262086 0.22402808 -0.37929374 0.40102088 -0.015743643 0.058246154 0.30732659 0.012346901 0.052808072 0.12830846 -0.280542 -0.15436858 -0.083897464 0.026440708 0.06379088 0.21568622 0.02385647 0.012770443 -0.616146 -0.14340483 0.05493623 -0.2894992 0.14408119 0.12216679 -0.08326017 -0.091110945 0.33522752 -0.018776797 -0.2647689 -0.037773896 0.08598759 0.30555996 -0.32858768 0.042513315 -0.008639515 -0.056777965 0.036687646 0.1077893 0.21596023 -0.0754901 0.2515129 0.3067499
何 -0.14705221 0.18975066 0.16145812 0.16314209 0.12064618 -0.15240848 0.29896784 0.038310565 -0.2621935 -0.025750218 -0.093297146 0.18726772 -0.08905316 -0.09314414 0.55762964 -0.36332497 -0.08729296 0.075704254 0.00048863393 -0.043815296 0.08137505 0.38490164 -0.22184183 0.01730225 -0.12953828 0.23543006 0.05049314 -0.13083072 -0.33583823 0.17493963 -0.44617772 -0.26669484 -0.35097796 0.21900767 -0.05467823 0.12872303 0.00076114445 0.10103045 -0.62371796 0.031837706 -0.36960596 -0.13472226 0.32233593 0.062182426 0.20969689 0.1710537 -0.036569875 0.3991821 -0.240212 0.1274062 -0.27466917 -0.08428494 0.05868853 -0.10630138 -0.026556548 0.100453384 0.16272965 0.15308501 -0.29285383 -0.06824408 0.55178386 0.040559366 0.035677023 -0.109046325 -0.27123585 0.010891553 -0.124076374 0.72675055 0.32235968 0.07987206 0.19349657 -0.43563598 0.1937902 0.008052074 0.19528124 -0.2574273 -0.4340113 0.4214729 -0.156558 -0.24212828 0.09923888 -7.8419085e-05 0.04315103 0.0813482 0.36535332 -0.064095 -0.26859477 0.06466819 0.43699977 0.29329693 -0.035929393 -0.3657766 0.09255061 -0.08630106 -0.06413784 0.18492618 0.24869473 -0.09439238 -0.16282482 0.3170183
吾 0.2877042 0.28290293 -0.41903847 -0.025996372 -0.19174887 0.102043405 0.14375111 0.20288421 -0.43021134 -0.56188226 -0.18509421 0.33549404 0.0077760806 0.15412562 -0.046493374 -0.13095976 0.08256987 -0.24391139 -0.21144398 0.078754045 -0.33040997 0.35476756 -0.10302349 -0.0461998 0.3809879 -0.17035848 0.14943835 -0.12408451 0.346295 -0.5483424 -0.30068877 -0.09606387 0.15622948 -0.07424519 -0.29217604 -0.43745634 0.114640646 0.19956416 -0.59617937 -0.16346806 -0.0668573 -0.07478654 -0.092782564 -0.20621519 -0.35637194 -0.43847147 0.16464883 -0.040398523 0.014780908 0.035647217 -0.18906027 -0.19321051 -0.01898478 -0.37599155 0.43959957 0.3041226 -0.17013732 0.12289218 -0.1784028 -0.034575325 -0.004249424 0.358943 0.13192093 -0.52498865 0.44946694 -0.09031502 0.28582487 0.4281183 0.03750257 0.018957006 0.015976975 0.48981166 0.3506559 0.0077599273 0.02135829 0.005369334 -0.7441524 0.1608987 -0.34259978 0.11199961 -0.32217684 -0.097892195 0.034295555 -0.036610775 0.22606692 0.05560866 -0.42587653 0.08328582 -0.22796412 0.22029994 -0.19616586 0.19944625 0.15316996 -0.04892347 0.13379477 -0.19361968 -0.2035291 -0.48402408 -0.5058826 0.08888763
仁 0.5358638 0.1650496 0.4277608 0.093522735 -0.20949772 -0.48164606 0.10866185 -0.020064887 -0.4854253 -0.5015979 0.11414613 0.2353096 -0.24621391 -0.09148722 0.0373429 0.16224217 0.14015934 -0.18069242 0.19977896 -0.09860317 -0.116351075 0.26668963 0.50838035 -0.22644354 -0.025691872 0.07324704 0.25122783 -0.22899087 0.20810722 -0.007257682 -0.045863647 -0.176871 -0.114150606 0.03353724 -0.031302538 0.030551748 -0.089487314 -0.08738319 -1.0860012 0.45713517 0.35788798 0.038577303 0.07332608 0.010577509 0.251648 0.20612323 0.36849093 0.45685023 -0.0709341 -0.38142338 0.31511712 -0.033629533 0.17811821 0.014485736 -0.3155684 0.1113012 0.19813223 -0.007001598 0.13185738 0.08082622 -0.121134475 -0.24922897 0.11042348 -0.5969229 -0.08857096 -0.20740837 -0.15158376 -0.01976669 0.07825436 -0.04853101 0.25323242 0.23505366 0.04754047 0.01902834 -0.2283247 0.21733129 -0.41082892 -0.3107288 -0.081609584 -0.3160303 0.39070717 0.19542427 -0.27133265 -0.07494645 0.16468838 -0.31004065 -0.08917965 -0.25979182 0.013748603 0.42975095 -0.2763442 -0.09215092 0.13735856 -0.23326333 0.0040291427 0.04650512 0.030320344 -0.07567599 -0.020463113 0.1025671
夫 -0.017003605 -0.17789553 0.12027964 0.1387125 -0.36893716 -0.5201576 -0.1770898 0.22078836 -0.40713063 0.25599504 -0.19643275 0.3914909 -0.07595351 -0.40116864 0.4213371 0.28143832 0.18975241 -0.076000914 -0.16670829 -0.6824487 -0.46434775 -0.19636644 -0.16733415 -0.021633463 0.54367137 0.02244101 -0.20761114 -0.024957689 -0.018517066 -0.374814 -0.055886548 0.2461198 0.0924771 0.06966347 0.076288685 0.06140478 0.16984779 -0.0011069619 -0.68526495 0.3809513 0.11187549 -0.18871841 -0.15418829 -0.23067828 -0.18135251 -0.07687634 -0.059212465 -0.23500964 0.1528936 -0.090471745 -0.11835923 -0.35094002 0.08371754 0.51121926 0.07421298 0.11613924 0.31232643 -0.16425374 -0.04254978 -0.09467072 -0.08316193 -0.09385246 0.55322987 0.024070757 0.4580841 0.31206438 -0.36839074 0.9012179 0.25229615 -0.06753266 -0.0953079 0.16849218 0.29490778 0.00086470443 0.028321646 -0.022089252 0.24034911 -0.25181797 -0.04845948 -0.5129529 -0.26918963 -0.1662917 0.08651021 -0.07761367 -0.3571578 0.09368669 0.060505234 -0.15585023 -0.2287262 -0.28015032 -0.19248585 0.18681471 -0.09055121 -0.043276947 -0.12948108 0.04072856 -0.34334528 -0.60986197 -0.07181623 0.061490525
、 -0.10437007 -0.08909937 -0.27405962 -0.23182157 -0.53860104 0.032202363 -0.3805747 -0.19306417 -1.3404258 -0.23772609 -0.086427286 0.26182756 -0.012465633 -0.034920204 -0.26108763 0.1244354 0.114892155 0.055958297 -0.3771997 0.4569443 0.15590775 -0.26404482 -0.34341124 0.21475613 -0.20057015 0.06832471 -0.26906195 0.08853865 -0.22832614 0.059266232 -0.23665209 0.24307673 0.07542072 -0.020287164 0.16122831 -0.049119305 0.17203969 -0.47459185 0.026772507 0.2556449 -0.05232763 -0.39627638 -0.49793145 0.09573833 -0.14525956 -0.111424476 -0.08130777 0.08540641 0.08405508 0.30650812 0.03849862 -0.006500776 0.3575187 -0.1818193 -0.005545302 -0.03844782 0.008906951 0.30715647 0.081540346 -0.10472153 -0.052015647 0.1576655 -0.2587801 0.17565313 -0.12753703 0.007947725 0.047668252 0.8755527 -0.043537755 0.18241176 0.06694627 -0.11511608 -0.17749923 0.11797078 0.17280973 0.05050384 -0.42599526 0.16403365 -0.17503124 -0.2918277 -0.18821046 0.02201594 -0.47191927 0.08508555 0.14146657 -0.26930442 -0.32835305 0.1316946 -0.25814614 -0.5880547 0.31971192 -0.16835797 0.12619613 -0.36221954 0.08320795 -0.17109148 -0.14129466 0.17293967 -0.017609581 -0.11791164
道 0.2596702 -0.06718595 0.2574615 -0.042475294 -0.030094368 -0.054391038 -0.15661883 -0.013908661 -0.6546603 0.1170064 -0.16029134 0.5615544 0.23329668 -0.44279072 0.17041351 -0.20609725 0.16947336 0.20285681 0.05034988 -0.34975305 0.07876771 0.265938 -0.07015583 -0.1952265 0.1352877 -0.020009276 -0.24233419 -0.07920104 0.06438581 0.10407964 -0.08205976 0.053055983 -0.1213704 -0.13126399 0.38060275 0.05053957 -0.1894781 0.49905467 -0.2968871 -0.00076503603 -0.01910144 -0.22571409 0.20144095 -0.035558302 -0.2427508 0.08369107 0.07477226 0.2355441 -0.6186668 0.37702566 0.21627703 -0.14338139 0.014836841 -0.23475198 0.2571478 0.040368345 0.11919348 -0.12773766 -0.23469648 0.0095854895 0.24706955 -0.402518 -0.046899743 -0.47001097 -0.14576519 0.03191968 -0.062702104 -0.0150035815 -0.11154777 -0.11002598 -0.19433704 0.2732919 -0.30914304 0.177096 -0.03988167 -0.22514576 -0.84143025 -0.49359694 -0.2571365 -0.16231485 0.14831015 -0.04800852 0.21412866 0.14654323 -0.16292292 -0.25914842 -0.539003 0.21347626 -0.08853332 -0.3575375 -0.5829592 -0.23815711 0.35793385 0.25450024 0.22414304 -0.038183432 -0.57492936 0.068656676 0.09780444 0.02314935
焉 0.075208984 -0.025770416 0.049347445 -0.26095933 -0.119603574 0.23017275 0.32111764 -0.03282984 -0.7772774 -0.16643438 0.37864673 0.43254802 0.26320198 0.25332263 0.44038934 0.15157428 0.08992482 -0.10957108 0.026007973 0.35359895 -0.42121673 0.21613155 -0.26284423 -0.06458218 -0.32088158 0.17462131 0.16423859 -0.0063884202 0.28044826 0.29231524 0.17937633 0.26786414 -0.0674697 0.06580433 0.030246275 0.14598969 -0.3222223 -0.2913626 -0.71172386 -0.17632493 -0.1609724 -0.0065163462 -0.13436693 -0.24052432 -0.613481 -0.33205175 -0.07862562 0.23485254 -0.1131284 -0.2923447 0.48097748 0.014019105 -0.26597136 0.5411838 -0.086996295 0.1629183 -0.07746103 -0.2694507 0.16036712 -0.32257643 -0.03274417 -0.3270398 0.4391424 -0.5854562 0.09806918 0.1866356 0.020823037 0.65101063 0.3294865 -0.15157224 0.10803447 0.25266248 -0.40025726 -3.7000667e-05 0.3382307 0.22538202 -0.13092732 -0.15291224 -0.085818954 -0.07419045 -0.05268011 0.6645326 0.04536957 0.2247016 -0.15402448 0.14374293 -0.079548955 0.0062852902 0.30765474 0.31294477 -0.12359224 -0.10363624 0.17196393 0.110607095 -0.2630025 0.3170506 0.06986087 -0.027345426 0.041006815 -0.49917844
行 0.11766719 -0.09322994 -0.06326709 0.23359995 0.12121798 -0.24591985 -0.2504966 -0.30625355 -0.45009136 0.08018924 0.10651096 0.025375059 -0.084675655 0.102530845 0.19133215 0.110155135 -0.05410214 -0.30092266 -0.07451387 -0.076818176 0.20802003 -0.16918455 0.13930091 -0.031639043 0.08085879 0.025729237 0.03906439 -0.43503112 0.2874336 -0.15652111 0.15498695 0.21382795 0.34126118 -0.015253223 -0.06045159 -0.029335622 0.11860439 0.59985363 -0.72532207 0.4859312 -0.040052067 0.19111009 0.32534373 -0.44664675 -0.11634242 0.25849506 -0.16773029 -0.2163906 -0.04962766 0.008804317 -0.11945114 0.025838995 -0.30038083 0.06539093 -0.09985563 0.20511238 0.07027632 0.0007699298 -0.46185824 -0.035459302 -0.14923403 -0.008085506 0.08989175 -0.38147163 -0.08976853 -0.1723639 0.14680728 0.20366916 -0.26264676 -0.10910626 0.119815275 0.5024255 0.19646099 0.10888447 0.37359318 0.035528794 -0.44586653 0.088401474 -0.19189736 0.0071331803 0.45703906 0.30234808 -0.5951665 0.4181315 -0.15221451 -0.13597116 -0.14230813 -0.08997038 0.051994313 0.31711468 -0.2878671 0.042944737 0.76306885 0.47632068 -0.12595502 -0.026109053 -0.3450845 -0.10580798 0.12362937 0.10716133
谓 -0.42981464 -0.029418364 -0.38162816 -0.50826246 -0.28471398 -0.3315356 0.12369088 0.14140427 -0.7467366 0.612284 0.13000393 0.5089619 -0.0565586 -0.14718963 0.30791965 -0.046757568 0.2376804 0.1745884 0.25879663 -0.44465098 -0.20546328 -0.12212398 0.11409095 -0.25299856 0.14703912 -0.07213645 0.4195302 -0.046114855 -0.81631136 -0.2831927 -0.16397704 0.41909593 -0.14927872 -0.1761607 0.025005903 0.123482026 0.28826794 -0.038791135 -0.8311715 -0.28247297 0.32403514 0.18011001 -0.1625212 -0.14600477 0.2941589 0.16499019 -0.14857793 0.02030724 0.57092327 -0.097998425 -0.056628283 0.15719515 -0.09037716 -0.095546745 0.12932092 0.4242034 -0.085459165 0.33016202 -0.23900416 0.019511044 -1.8953433e-05 -0.16378579 0.096992105 0.5779318 -0.02495213 0.06738557 0.14832345 0.62283325 -0.17540935 0.10034689 -0.025960412 -0.19327503 -0.09091627 -0.20869626 -0.39421025 -0.0064304676 -0.2049108 -0.07746164 -0.114537135 -0.4459977 -0.17807317 -0.18698442 0.16069327 0.14126328 0.06174845 -0.095864296 -0.3206488 -0.30799466 -0.4037466 0.1927671 0.4019472 -0.24473114 0.3884616 0.09869536 -0.30553776 -0.15361913 -0.32697642 -0.011073057 0.09996011 -0.38823044
必 -0.13751528 -0.05129347 -0.049057424 0.2405583 -0.39579597 0.15672539 -0.27054083 0.30649906 -0.64545137 -0.031314343 0.07253975 0.4499829 0.13000159 -0.29235777 0.20973942 0.016145676 -0.38192144 -0.06809801 0.44790924 -0.037248056 -0.016197015 0.16733031 0.0051645627 0.18218048 0.11958086 -0.15108414 -0.25195456 -0.05308565 0.400266 0.16983101 0.22319421 0.46895158 -0.017122457 -0.30186912 -0.12303164 0.1384799 0.05764672 0.38852933 -0.37326527 -0.19653933 0.25309783 -0.34956393 -0.18740165 -0.14656629 -0.21852018 0.14897937 -0.1305874 -0.18743858 0.1375922 0.16130011 0.12344823 -0.1908752 -0.0036052365 -0.11260021 -0.13566338 0.55555826 -0.14682266 -0.34950674 0.33285677 -0.16249469 -0.1644478 -0.221824 -0.48669168 -0.50586605 -0.4126356 -0.077532575 0.22497787 0.09679898 0.022035034 0.16003448 0.021494279 -0.3852568 0.13108176 -0.294393 0.33563164 -0.038077425 -0.6179472 0.5663722 0.29250956 -0.2696034 -0.002219919 0.074832655 -0.0071032136 0.2390312 0.30622008 -0.20336497 -0.1378985 0.15088014 -0.058480058 0.39603037 0.36202654 -0.12357638 0.15434045 -0.17630543 -0.38211015 -0.15282828 0.31795847 0.40448183 0.27346393 -0.029970324
礼 0.05185229 0.21680185 0.44859755 -0.2919441 -0.19511677 -0.32560506 -0.122781105 0.06584609 -0.83615524 -0.07643026 0.07774817 0.5681694 -0.373808 -0.23225224 0.077697806 0.26842856 0.30781922 0.19367886 -0.4241804 -0.14683248 -0.18893988 0.0422454 0.06310552 -0.24134803 0.30673948 -0.044087555 -0.08948331 0.0054118945 -0.72334665 -0.15998115 -0.007898128 -0.10523216 -0.151736 0.082053125 -0.17189144 0.2790154 0.007038905 -0.0014757183 -0.27745807 -0.09423068 0.19105425 -0.086538054 0.3598883 -0.0216496 -0.0021338605 -0.20396 0.06305582 0.41075188 0.10963502 0.21204537 -0.1496733 0.17631099 0.4861272 -0.58908767 -0.32716495 0.3078013 -0.24656609 0.04766837 0.3268979 0.12919612 0.2353418 0.08185559 -0.007387984 -0.6758038 0.060994323 0.25610226 0.044554014 0.0931765 0.10152679 -0.064291686 -0.19266859 -0.06414343 0.0041051833 -0.3466048 0.049323108 0.16733587 -0.5728312 0.32041258 -0.113976255 -0.03305014 0.038408928 -0.046535667 -0.088889115 0.2958772 -0.22186956 0.06554757 -0.25512043 0.22722816 0.14988786 0.5412658 -0.14091563 -0.102513246 -0.009456377 0.003308542 0.42819774 0.0021374235 0.22657342 -0.11614396 -0.00786595 -0.0036857612
孔 0.447301 0.032355666 0.2147335 0.3748813 -0.26478624 -0.0871617 -0.1880463 -0.3275908 -0.70820004 0.37953886 -0.18947102 0.43153432 -0.26308197 0.27080673 -0.057951927 0.050616078 -0.3010176 -0.24324961 0.2731263 0.04865362 -0.48125327 0.42724955 0.07246304 -0.15114208 0.058938567 -0.099429235 0.07921205 0.4827281 0.11683698 -0.3337324 -0.13833782 -0.190349 0.053838618 -0.5906143 0.08339936 -0.31481817 -0.49959242 -0.08050744 -1.3395541 -0.14893258 0.36631566 0.22508939 0.05571725 -0.14748725 -0.009828118 0.13463292 -0.06472135 -0.02805473 -0.25566274 -0.015996154 0.41841984 0.20882237 -0.058885336 -0.25691497 -0.30987123 0.18194918 0.1213352 -0.305448 0.09901913 0.15276541 -0.030033054 0.43584245 0.160431 -0.70747167 0.25443268 -0.14060435 0.018718366 1.5224674 -0.19403934 0.3121266 -0.07876808 -0.27877578 0.28521132 -0.2710371 0.029433401 -0.10843544 0.7465107 -0.12517776 0.18859273 0.06438448 0.33348885 -0.16486456 0.036100134 0.119349614 0.22967793 -0.09646826 -0.22128698 0.10128955 -0.22035506 0.29750642 0.39055339 0.0014591413 0.14365274 0.1230553 -0.081670575 -0.07434877 0.21991564 -0.11923745 -0.11162484 0.13278505
斯 0.25176308 0.0024760242 0.2695581 0.07103883 0.08055963 -0.1859741 -0.080635406 -0.008545483 -1.1331977 0.123381115 -0.4803729 0.16312517 0.04086983 0.38657427 0.17574303 -0.046657514 0.11050534 -0.12250397 0.4174499 0.68666327 -0.25177285 0.23667756 0.30727634 -0.018116632 0.13328233 -0.21860771 0.0056243055 -0.46245545 0.10082933 -0.036318358 -0.09467623 0.2212551 -0.067244895 -0.039283335 -0.4638123 -0.107414514 -0.038568743 0.08042587 -0.1726461 0.07589114 0.16161957 0.25333276 -0.27727497 0.084066816 -0.026716178 -0.05195009 0.050903887 -0.24323542 -0.17612402 0.41729745 -0.39133474 -0.3581221 -0.009801143 0.06458528 -0.18501179 0.45992616 0.07082007 -0.3692911 0.2561851 -0.058396332 -0.380152 -0.36991423 0.5004561 -0.4609972 0.226716 0.029151618 -0.31632242 0.032691333 0.17075932 0.33980626 0.08519952 -0.12186086 -0.13249402 -0.0034096432 -0.044499945 -0.026446499 -0.118425615 -0.026954921 0.10603144 -0.3090827 0.3368386 -0.3963214 -0.010888891 0.25028598 0.32319158 -0.19259499 -0.2776678 -0.35826093 0.24045205 -0.016782824 -0.23093061 0.30885863 0.081130505 0.14108416 -0.26056695 -0.07972059 -0.22114012 -0.3655119 0.18650906 0.39360917
三 0.5340724 0.10086717 0.46449307 0.050808907 0.08940081 -0.042348497 0.1120841 0.2785168 -0.4300327 -0.34818617 0.20256732 0.6661099 0.046767768 0.06905744 0.36254767 0.09656952 -0.07163592 0.12517928 0.4422773 0.27259663 -0.1868317 -0.07511453 -0.33118257 0.14373325 -0.16065069 -0.13582574 -0.2126813 -0.014202879 -0.38064533 -0.20579565 0.12329912 0.16157998 -0.079295464 -0.25069848 -0.17454757 -0.082701236 0.40518326 0.05767366 -1.0079938 0.06385338 0.015953729 -0.11824829 0.27878818 -0.04224161 -0.41176587 -0.21643595 0.435081 0.14870453 0.01973979 -0.19148158 -0.025853617 -0.023738101 -0.087149784 -0.1732197 -0.46629786 -0.20526755 0.31954107 -0.31201783 0.4742563 0.37589273 -0.4949943 -0.06871647 -0.009863036 -0.083005235 0.16677302 -0.10761893 0.15278739 0.9226264 0.09096638 -0.37679464 0.12928364 -0.36852917 0.059585243 -0.33835682 -0.02996291 -0.6018475 -0.19932085 0.12931971 -0.0764553 -0.041593865 -0.02703134 -0.14931786 -0.18072134 0.14303888 0.14711474 0.0072084554 0.384933 0.62293863 -0.13131513 -0.22288734 -0.22371432 0.020853199 -0.12000391 -0.17374133 0.22758242 -0.2610748 -0.56146204 0.4188667 -0.19696087 0.11660521
能 -0.114508346 -0.30641767 0.2007956 0.27051428 0.22854903 0.18966167 -0.22703615 0.006894541 -0.7731731 -0.17412706 0.2554726 0.57489413 -0.0070884647 0.045086324 -0.12707627 0.023953866 -0.06570834 0.18609384 0.16932373 -0.023980021 -0.38088268 0.17644517 -0.034025397 -0.090161644 -0.18765749 0.0131436875 0.10404144 0.21416624 -0.2096402 -0.1712772 0.30290583 -0.18282948 -0.048189376 -0.13021377 -0.34190094 -0.05355978 -0.08166073 0.1024084 -0.26934898 -0.5845112 -0.27920368 0.19026981 -0.30140096 -0.26867124 0.2820159 0.41551912 0.18679644 -0.035384044 -0.46257406 -0.14696568 0.096233346 -0.21749364 0.0140625145 0.07624603 0.18733102 0.46190688 -0.23501626 0.26754993 -0.23699526 0.24820893 0.17987317 -0.06934189 0.25394395 -0.29620773 0.30393344 0.35108006 0.27887702 0.1399044 -0.23592746 -0.066856064 -0.31657526 0.010336996 0.25514922 -0.12603356 0.18916503 0.14315926 -0.89667314 -0.20386514 0.34091645 0.003857292 0.08579836 0.5192421 0.08732863 0.1557911 0.031385418 -0.019566434 0.00784588 0.05349288 0.10477223 0.20723139 0.20075354 0.26637703 0.25723407 -0.07944315 -0.18355213 0.037219908 0.06989662 0.059629966 0.16022457 0.07848817
见 0.466002 -0.06943775 -0.06774729 -0.16428 -0.20713584 -0.004312177 -0.12097649 0.062218193 -0.5689506 -0.037362643 -0.30322966 0.4163397 -0.50526696 -0.02157666 0.31557888 -0.109232426 -0.0303952 -0.087677844 -0.08063977 -0.1726516 0.14095527 0.09174969 -0.102914244 0.30159986 -0.6099805 0.26854134 0.15101345 -0.68255156 0.20757732 -0.29069272 0.21754818 -0.45121735 -0.3820685 0.012785157 0.061284013 -0.079832345 0.1363033 0.031400878 -0.46711186 -0.008022975 -0.24655874 0.5233045 -0.0020628728 -0.12435573 0.5060966 0.06425729 0.5216715 0.3998279 -0.3155186 -0.14571635 0.49970508 -0.2320529 -0.15913694 -0.39982426 -0.29642597 0.40449554 -0.17107564 0.34733886 -0.18435971 -0.29778522 -0.11766203 -0.15865046 -0.2756522 -0.12351339 0.23326305 0.2313116 -0.31796706 0.59558123 -0.16619977 -0.21530749 -0.16836633 -0.048377994 0.078656346 0.0896207 -0.292075 0.2619457 -0.10360897 0.08061187 -0.45759493 0.018108156 0.66788113 -0.041025206 0.22730781 -0.18127497 0.28187656 0.16128172 -0.25161818 -0.30090874 -0.44052422 0.08680342 -0.30306423 -0.17012142 -0.0056803916 0.08183136 -0.105835736 -0.26683563 0.014458474 0.15055622 0.036318514 -0.32553133
学 0.078351595 -0.0688232 -0.13935491 -0.39918387 -0.1940155 0.06551402 -0.5020289 0.051409394 -0.35382625 -0.6639564 -0.2697743 -0.07471962 -0.13228536 -0.49952146 0.33182606 -0.09480392 0.20882593 0.4268523 0.23143354 -0.22809194 -0.4014103 0.012508318 -0.31257647 0.010238617 0.20380709 0.25044498 -0.13060258 -0.79242873 0.013939507 -0.2568239 -0.5056393 -0.19887877 0.31558275 -0.37757894 -0.49271756 -0.027615622 -0.13561672 0.011596956 -0.75160563 0.2009915 -0.10385284 0.2580505 0.22367074 -0.008388264 0.1034851 0.45914185 -0.2750073 0.08885752 -0.027914751 0.28685284 -0.06983346 0.17145106 -0.351498 0.08595772 -0.47997686 0.05480291 0.03839055 0.25647184 -0.29750577 0.135133 0.12418226 0.17292286 -0.39083588 -0.56817603 0.7793856 -0.03799471 -0.18453945 0.5827133 0.33805764 -0.002646237 -0.014281251 -0.56442153 -0.056634355 -0.3498397 0.08689933 0.19729353 -0.63380075 -0.08531704 0.14899182 -0.10703785 0.5348516 0.016145132 -0.21139462 0.05085974 -0.10342009 -0.16620204 0.28637484 0.209945 -0.008410125 0.29160792 -0.09830955 -0.013587972 0.3408273 0.08381171 -0.005278452 -0.1811638 0.36457115 -0.15469955 0.1095741 0.00028112862
事 0.008584236 0.06832263 0.086842716 -0.18972069 -0.044504084 -0.37387943 -0.38486078 -0.15459311 -0.6457534 -0.26909238 -0.06991152 0.26807213 0.31580272 0.20732614 0.17953649 -0.32089555 0.11186554 0.043025088 -0.0628655 -0.3074908 -0.14304645 -0.4959416 0.46977144 -0.114869975 0.14633548 -0.07253389 -0.16806197 0.16452853 -0.03856181 0.10997786 0.3475368 0.20242645 -0.12191376 0.047604077 -0.27702075 -0.09459963 0.30287126 0.08677985 0.28942958 0.2024721 0.1460749 0.4740496 0.27955902 -0.13451679 -0.42756525 0.38202214 -0.10890829 0.034129992 0.19818038 -0.14553136 0.65656924 -0.15624571 -0.03313811 -0.26615453 0.2656817 0.58705246 -0.14625975 -0.22188115 -0.36475444 -0.14658281 0.49423975 0.45355693 -0.17687929 -0.7478335 -0.10607339 -0.0077112643 0.4606029 0.4655815 0.025795026 0.32716548 -0.12765676 -0.071697816 -0.22969095 -0.21248427 0.09152041 -0.005895914 -0.5533101 0.17292167 0.05421647 -0.41389754 0.20189989 0.25259945 -0.6526483 -0.13703904 -0.18853012 -0.089871325 0.24970818 -0.13528033 0.07427895 -0.19319004 -0.23186545 -0.037945766 0.05000297 -0.41925335 -0.20078145 -0.041992527 -0.118422516 -0.2219242 -0.25812167 -0.20867082
是 0.06967596 0.17494763 -0.10840142 0.34831798 0.32118693 -0.23030116 0.06879213 0.2213009 -0.44040707 -0.069276854 0.15305969 0.64263326 -0.13049771 0.15889063 -0.004255393 -0.08123367 -0.21082664 -0.11596663 -0.025308078 -0.24164912 -0.11807102 -0.14993967 0.22999804 0.29843882 0.4025618 0.26642534 0.09870735 0.37852538 -0.07498067 0.31731793 0.0061398484 -0.075363494 -0.4460719 -0.24641871 -0.037826497 -0.25864142 0.09823735 -0.29896313 -0.4206763 -0.059523895 -0.26257962 -0.13460875 0.015469808 -0.34813446 0.39883745 0.07953883 0.35063872 0.041834164 -0.1440152 0.44114038 -0.003406995 0.1734048 -0.022662379 -0.30784708 -0.17536184 0.4355048 0.099374585 0.09303026 -0.17337231 -0.6910707 -0.0020497837 -0.06858405 -0.33926877 -0.22140408 0.5902844 0.30421144 0.24040638 0.6418571 0.16711038 0.3855125 -0.048214838 -0.28596714 -0.16547401 -0.39339203 0.50832385 0.11861277 -0.30514836 -0.068457365 0.037759468 0.048137117 -0.12591563 -0.034850482 0.09600219 0.13879701 0.009763331 -0.42720798 -0.34086427 0.07762791 -0.13246548 0.39055356 0.30792403 -0.2368795 0.050007652 0.40302855 0.054145746 0.19602858 0.15401629 -0.30125812 0.23052874 0.5411052
哉 -0.09686016 -0.14018312 -0.23597738 0.12682971 0.005462969 -0.41852155 0.4443735 -0.07725919 -0.89519614 -0.4825798 0.010587534 0.1756816 0.30259606 0.002400383 0.6553081 0.038024202 -0.2010803 -0.26733577 -0.15642665 -0.8269666 0.5714792 0.25281727 -0.19047965 0.034050174 -0.06784036 0.20484182 -0.1788486 -0.056885507 -0.1264537 -0.13574725 -0.024024842 0.082128055 -0.14975195 -0.20155428 0.22882697 -0.1424426 0.13667719 0.40867153 -0.5596011 -0.22810803 -0.12881178 0.04415581 -0.45919943 0.16737245 -0.47871226 -0.07892722 0.044126324 -0.013881146 0.12438379 -0.06037052 -0.14925167 -0.32862496 0.19178316 0.45953244 -0.09688658 0.9122404 0.74268925 0.12835485 -0.25410426 0.2715577 -0.06585571 0.018262513 -0.25244576 0.069009475 0.2896072 -0.06117785 -0.32473803 0.7456414 -0.24320236 0.13272844 0.46657783 0.007418048 0.042421136 -0.45110083 0.24300887 0.054016277 0.35433528 -0.11449614 -0.16027015 -0.81174827 -0.19447075 -0.20234278 -0.085712075 -0.012092575 -0.17792208 -0.35643566 -0.05850851 0.08351357 0.37943554 0.4757256 -0.21006213 -0.058092 -0.31023893 -0.03254176 -0.09360793 0.40614462 0.33091694 -0.02216615 -0.57817644 0.05293268
闻 0.42805022 0.22280885 -0.26555556 -0.32090226 0.15225826 0.36686468 -0.12318535 0.03095831 -0.59596545 0.15267767 -0.3765831 0.52874523 -0.33881557 -0.46768337 0.48043796 -0.008329268 0.005323447 0.29531106 -0.13573632 -0.11824227 -0.025796892 0.06133984 -0.016099963 -0.34139243 0.097449206 -0.014801365 0.27544135 -0.102869816 -0.1817106 -0.08246945 -0.29673845 -0.22350492 -0.3520491 0.10664935 -0.21754551 -0.036023032 0.28867853 0.37580958 -0.007814423 -0.068134025 -0.48977178 0.039496906 0.6279729 -0.14703858 0.070469104 0.14591064 0.16321023 0.047245033 0.07203515 0.34227586 0.41050002 0.3978414 -0.034936164 0.17634314 0.22531803 0.61128557 0.022036282 0.29715994 -0.043887217 0.023117183 -0.031844378 0.044412937 0.09999589 -0.255317 -0.18066563 -0.030927833 -0.33625197 0.81849134 0.23230043 0.06905542 0.19388413 -0.26282704 0.13520727 0.16340895 0.21670996 0.09284801 -0.07098127 -0.18103802 0.26999217 -0.40834942 0.4406422 0.21809877 -0.4514655 0.13079433 -0.08921546 -0.49887997 -0.17197989 -0.2240527 -0.18905507 0.1492121 0.12972607 0.06416386 0.3170205 -0.09577532 -0.020693926 -0.22981621 -0.110432476 0.12662308 -0.2367999 -0.173352
未 -0.58298737 0.38344294 -0.16692683 0.32066792 0.2615826 -0.09048581 -0.48288682 -0.00656158 -0.46051186 -0.11295795 -0.049091592 0.94382465 -0.22211494 -0.02772317 0.28024346 0.047757078 -0.13657019 -0.08853919 0.12401711 0.06985512 -0.029830402 -0.15374868 0.2396158 0.30025396 -0.11268566 -0.25698897 0.14081393 -0.12079995 -0.42046076 -0.24240188 -0.1665395 0.13047649 0.6234074 -0.10668323 0.7442375 0.06477908 -0.050515447 0.060102385 0.19667085 0.013776598 0.06184274 0.00134581 0.054635473 0.17312613 -0.13462456 -0.33532616 0.13489118 -0.07978734 -0.061729882 0.38428155 0.31568637 -0.1694253 -0.5764538 -0.024546433 -0.057981074 0.4037493 -0.0537939 -0.21983126 0.06870379 -0.5263842 0.43829638 0.008192385 0.023789573 -0.060256116 0.2995175 -0.40254867 -0.033531528 0.4483846 0.36815998 0.029148895 -0.16351032 -0.44706914 -0.037336703 -0.22452353 0.26057082 -0.5042227 -0.70237017 -0.2739244 -0.30049545 -0.6969732 0.23012558 0.093918435 0.40132105 -0.08456085 0.15349343 -0.3869976 -0.19243023 0.14210846 -0.36323535 0.38151973 0.09729507 -0.01001563 0.34477183 -0.18779814 -0.292841 0.38579422 0.15864843 -0.3689962 -0.04328126 -0.4692225
公 0.126339 -0.052447516 0.002145188 0.011986187 -0.28768593 -0.37279347 -0.38400233 0.30288392 -1.1467226 -0.043721456 -0.17869882 0.3615461 -0.40927804 0.33917543 -0.40311784 0.4661732 0.23147392 -0.11850214 0.03280419 0.2064277 0.54060245 0.2132134 -0.052209377 0.046805955 0.14390922 0.2616883 -0.052747793 -0.27919868 0.03061417 -0.5758344 0.4163056 0.08200629 0.11223896 -0.0805836 -0.11305865 0.32386997 -0.010681082 0.31340808 -0.3219674 -0.16575395 0.27443036 0.14656182 0.14668277 0.012579229 0.25797966 0.10280464 -0.17260882 -0.062804796 0.11800814 0.38768527 0.5306443 -0.13319907 0.57072455 -0.61525774 0.45612994 0.2386378 0.028755425 -0.2948192 -0.47984773 0.42881194 -0.042564526 -0.13925138 -0.26121795 -0.56493425 -0.502596 0.048907146 0.15353522 0.65435034 0.3917575 -0.11093339 -0.21416369 -0.17579508 -0.14221226 0.03386607 0.1690998 -0.06142305 0.45221213 -0.34198397 0.10164772 -0.43716216 -0.16799091 -0.21283466 -0.009493344 0.1548765 -0.07441246 0.12256459 -0.1620081 -0.041451827 -0.308342 0.6598882 0.5287658 -0.22139715 -0.014339838 0.28299326 0.104105785 0.24013993 0.28926432 0.17637855 0.18658191 0.2891882
好 -0.25535417 -0.18893756 0.17122792 -0.10788171 -0.42540556 0.13137041 -0.5691044 -0.163549 -0.70056134 -0.100309335 -0.22537608 0.12683533 -0.03289443 -0.23965786 -0.06937182 0.23506305 0.12303651 0.1350934 -0.040488143 0.05579715 0.10080903 -0.23525067 -0.1892514 -0.3972124 -0.48774925 0.11562469 0.14689961 -0.43087885 0.18955436 -0.22645712 0.04705871 -0.12433121 0.2819675 -0.09339694 0.15354352 -0.0029009331 0.029951192 -0.061044358 -0.8664154 -0.10397167 0.021227214 -0.17501417 0.22853054 -0.20412454 0.084648 0.60752994 -0.06835764 0.0019481105 0.37074798 0.28041357 0.20230198 -0.05524469 -0.25011897 0.21964383 -0.06453415 0.12223803 0.057960562 -0.45268625 0.16546112 -0.5743646 0.088953055 -0.0018542042 0.2339458 -0.4468627 0.06757548 0.08506861 -0.3382551 -0.12116143 0.16259189 0.20451021 -0.07617571 0.5711382 0.2244944 -0.046641134 -0.05684085 -0.45920634 -1.1377585 -0.22682686 0.2242938 -0.25951365 -0.20223227 0.024007415 0.41628522 -0.09649475 0.01759291 0.025705691 -0.5405154 0.04712214 0.38262352 -0.64248693 0.28860918 -0.31696993 -0.101785325 0.2645115 -0.32738745 0.10718702 -0.050473057 0.008864099 -0.04759583 0.3182403
我 0.47076118 0.03487556 0.4266475 -0.3784938 -0.002351639 -0.38018224 0.41536343 0.15424135 -0.7483715 -0.2362856 -0.042837188 0.26012036 -0.5529035 -0.12326424 -0.042416997 0.14109105 -0.19601122 -0.03457127 0.23577055 -0.2701047 0.15764669 0.23102193 -0.13867132 -0.53199416 0.0926992 -0.18256623 0.18601653 0.2039776 0.27448192 0.025098724 -0.15178192 -0.17038226 -0.03259077 0.291665 -0.38604748 -0.17593151 -0.4346716 -0.072473004 -0.6567634 -0.113778345 0.19332284 -0.09665719 0.26232916 -0.4078323 0.078702636 -0.032624785 -0.18828979 0.48965123 0.05876781 0.12674604 0.04849309 -0.37807316 0.44850546 -0.52832156 0.05703132 0.0062754964 -0.3777024 0.40424004 -0.10124569 -0.20080985 0.18632501 -0.069025904 0.021367855 -0.6240257 0.24778153 0.32971635 0.045850664 0.5709599 0.25026053 -0.32626003 0.2960577 -0.019600019 0.118042395 0.49985102 -0.09921246 0.22736041 -0.1721167 0.31983677 0.4504743 -0.023379799 -0.023015184 -0.1208896 -0.06309343 0.02885554 0.039823297 0.17519456 -0.12247435 0.62240154 0.42329124 0.17427702 -0.3163887 0.2632063 -0.061989438 0.011950389 0.4027308 -0.17673947 0.22151572 0.09271655 0.009003463 -0.14698708
路 0.2708741 -0.061494872 0.3655884 -0.60111296 -0.37324864 -0.18567711 -0.79691243 -0.68654525 -0.74340045 -0.34524432 0.1853949 0.3117539 -0.26881987 -0.040555835 0.058491617 -0.39338735 -0.22442381 -0.19085738 0.030026812 0.4934787 0.17237253 0.1318261 -0.022907546 0.09214942 -0.1343428 0.009270096 -0.1451189 0.12745856 0.12658367 0.058219172 0.41543925 0.04597783 0.5413335 -0.31180814 -0.231614 -0.12237567 0.33234417 0.64234585 -0.6944001 -0.15145782 -0.21519329 -0.18897048 0.070802085 -0.5011675 -0.23137294 0.14756727 0.18743938 0.009514723 0.10370149 0.2594875 0.281638 -0.47030136 -0.07405323 0.09323815 0.14566335 -0.093010545 -0.011685616 -0.4887907 0.13034402 0.06944478 -0.31260356 0.3681677 0.30241832 0.053824678 0.4807711 -0.26106387 0.5524003 1.3082964 -0.32529026 -0.1050524 0.1284661 -0.16033468 0.37352234 -0.33794332 0.03365719 0.45876384 -0.063041136 -0.30385438 0.14432952 -0.24014764 0.27179503 -0.44360185 0.47707248 0.003378639 0.280771 0.3148953 -0.09764747 -0.20063739 -0.25565565 -0.08742663 -0.36781028 0.105332986 0.19722095 0.016716935 0.09751125 -0.21387672 0.007693121 0.04527477 0.4215657 0.2064425
在 -0.08845394 -0.6332645 0.11219573 -0.23913428 -0.10673741 0.32257184 -0.31813815 -0.12789355 -0.6467419 -0.03253684 0.104164965 0.61676174 -0.03244647 0.31118056 0.69283885 -0.18408892 0.23074889 -0.04060163 -0.21062039 -0.15287577 0.018683048 -0.22163104 -0.16232336 0.04480466 -0.43798494 -0.06724707 -0.05234374 -0.17239487 0.5638491 -0.10844283 0.024934324 -0.5131515 -0.6281433 0.35865134 -0.07136568 -0.19654123 -0.06358477 0.27492395 -0.91401446 0.025196265 -0.17690021 0.06332386 0.043750267 0.62483484 -0.5296026 0.30723974 0.12761647 0.22197065 0.2610011 0.1778518 -0.19821322 0.14442599 -0.21339914 -0.31286153 0.53571856 0.25858375 -0.016556265 -0.44212398 -0.074994005 -0.29678962 -0.015829971 0.019554298 -0.2668837 -0.056658156 -0.11011869 0.12796572 -0.53076756 0.34697527 0.2757016 -0.06420022 -0.15382034 -0.11531283 0.31932873 -0.018872973 -0.37298036 -0.15409788 -0.1633126 -0.076876864 0.05997531 0.15198183 0.018989986 0.31192854 0.018924361 0.25077936 -0.05905638 0.037592683 0.0996672 -0.4072804 -0.28432545 -0.25397438 -0.07585074 0.10371889 0.16517107 0.18657885 -0.06436018 0.5238636 0.34503558 -0.81705284 -0.10513561 0.017947085
已 -0.17267731 0.04882109 0.08081489 -0.43333727 0.18611707 -0.17672713 -0.194856 0.16502671 -0.6762817 0.04965265 -0.30529404 0.054089207 0.18906935 -0.14761464 0.26357678 -0.15230592 0.091349 -0.26428008 0.37574923 0.014482482 0.0457411 -0.07280642 0.0077821175 0.19331257 0.051959738 0.20085917 0.115999594 -0.24659899 -0.10278124 0.054240752 0.062248483 -0.01604856 0.21506073 -0.067949586 -0.17259292 -0.16816448 -0.18520604 0.17966616 -1.2474504 0.09801505 0.19151732 -0.07152004 0.0823711 0.014470416 0.20591946 -0.08224862 -0.18038605 -0.21952756 0.02327925 0.18591042 0.03989004 0.17763534 0.39923754 0.113338165 -0.10850589 0.58828294 -0.28091213 -0.18020488 0.09041995 -0.21850596 -0.092592776 -0.07539737 0.40924528 0.52462274 -0.1689043 0.21019721 -0.0626956 0.08310263 0.37423614 -0.5807404 -0.5884579 -0.44821885 -0.3216681 -0.30653164 -0.07887101 -0.23081812 -0.42773047 -0.69583464 0.09602015 -0.7823576 -0.16184679 0.14345157 -0.17563981 0.26383236 -0.37344137 -0.15711683 -0.2909502 -0.07079184 -0.29521292 0.61368227 -0.74511886 0.14025976 0.10120996 -0.15391235 -0.3000774 -0.25494844 -0.3757965 0.3054201 -0.25203773 0.11518958
得 0.046413075 0.12214567 0.532715 -0.0415466 0.16155249 0.35470453 0.13724045 -0.07615312 -0.8150094 0.39639613 -0.045324814 0.504912 -0.2318179 0.5018053 -0.09155272 -0.26125565 -0.20033532 -0.17062205 0.5333667 -0.24783793 -0.2836761 -0.116522655 0.06425631 0.37620747 -0.46465978 -0.1929628 -0.093225926 -0.064135544 -0.20821886 -0.019972853 0.22906598 -0.5124516 0.30985838 0.19846581 0.08312218 -0.19131686 0.7441562 -0.004771468 -0.066731535 -0.1492854 -0.24285665 0.21145299 0.5666268 0.45448586 -0.04862222 0.24419829 0.110199265 -0.09873985 0.16050114 0.38955995 -0.020511115 0.13793676 0.16116121 -0.20547493 0.027686007 0.21222271 -0.11867062 0.015342905 -0.3271886 -0.0015847199 -0.13760675 -0.025879242 0.46433318 -0.4109968 -0.023004357 -0.15107396 0.10395933 0.15113182 -0.22847612 0.0911899 0.17531638 0.29094657 -0.34172606 0.093943976 -0.014799127 -0.07135119 -0.93065494 0.07905194 0.3261102 -0.23543344 0.037361 0.04136503 0.8472188 0.24709159 -0.62000626 0.4027754 0.15990467 -0.21781012 -0.025673239 0.18500401 0.0011021013 -0.06405335 0.14332747 -0.3067433 -0.30779338 -0.11736172 -0.25857013 -0.31512696 -0.17081143 0.18460594
所 0.47517753 0.56741005 -0.018436406 0.023720155 -0.32477006 0.38121825 0.37074172 -0.17714813 -1.0357865 0.017274523 0.3450776 0.47587973 -0.09622044 -0.27684093 0.018909434 0.1258498 -0.30172992 0.09731974 0.20800766 0.19962074 0.44044706 -0.36477265 0.64501494 0.14387603 -0.13703878 0.16805232 0.17175418 -0.43867657 0.0680783 0.6441524 0.0044266502 0.006905473 0.037006922 0.019414805 -0.09635681 0.21727149 -0.21837014 -0.29520348 -0.21024625 -0.7292746 0.3391072 -0.07696178 0.5408692 -0.32774433 0.11912451 -0.09164726 -0.11229446 0.5955647 -0.6052762 -0.012097124 -0.025275992 -0.16503215 -0.21871139 -0.15639707 -0.06060905 0.17744447 -0.50128603 -0.31273392 0.44710633 0.0039330274 0.30399162 -0.2231826 -0.02613879 -0.2821823 -0.017507752 -0.013399864 0.15375744 0.25467527 -0.24574344 -0.09454322 0.1797404 -0.13693 0.36350247 0.08698991 -0.13015942 -0.119309686 -0.6695724 -0.35663345 -0.36073694 -0.32872865 -0.09719025 -0.020228233 0.11552065 0.13362107 0.06277856 0.36491844 -0.091596864 -0.5325013 0.2584713 0.60389644 0.105563514 -0.33329064 0.35387006 -0.17901337 -0.2986049 0.22349577 -0.24767369 -0.6068153 0.045419227 0.040098786
民 -0.23460059 0.32292986 -0.07097209 -0.43607724 -0.23397592 0.14963526 -0.44151863 0.17586106 -0.5950736 0.12420276 0.044013374 -0.00202402 -0.030269349 0.17017105 0.3635061 -0.4767491 -0.07327432 0.027285207 0.26540926 0.18679585 0.32769725 -0.03604606 0.059965074 -0.11446395 0.13803989 -0.2951712 0.26483262 -0.020080479 -0.19946794 0.17746022 -0.024178052 0.27033314 0.17178775 -0.48159322 0.16488758 0.026093386 0.33603257 0.21176244 -0.24079199 0.013383526 0.26022756 -0.41273227 0.0043804776 -0.05461743 -0.120226346 -0.042563915 0.2778892 -0.08495409 -0.61055326 0.25602648 0.18276519 0.072762586 -0.05233893 -0.38549882 -0.2751198 0.26005763 -0.035153795 0.1543339 -0.55985034 0.14220361 0.00605066 0.16395967 -0.004499414 -0.6406275 0.3343802 -0.122087575 -0.1607787 0.45408934 -0.050913665 0.5575778 0.026975606 -0.11850865 -0.16803233 0.33143482 0.16748627 -0.36253238 -0.9934181 -0.43523186 -0.2370334 0.074781545 0.5982685 0.6353006 -0.049560536 -0.1692591 -0.41566083 0.2837987 0.10715265 -0.086540475 0.088520996 0.23452522 -0.5766389 0.19106151 0.61901385 0.26824835 0.4628956 -0.38776124 -0.183809 -0.5541141 -0.09343196 0.5575467
小 0.36266774 -0.18383604 -0.20957287 -0.5780727 -0.11510671 -0.18609716 0.47892582 -0.5902835 -0.45810574 0.30923453 -0.008423509 0.60666114 -0.24420652 -0.08003375 0.35316932 -0.11997922 -0.4970795 -0.039679118 0.017930117 0.27988708 -0.25143096 -0.63853675 -0.15763363 0.48599005 0.4757244 0.26475304 -0.436519 0.15934244 -0.1383938 0.12874587 0.46222377 -0.10983944 0.28562975 -0.026815768 -0.16532026 -0.073642634 -0.16820519 -0.061627712 -0.6414704 0.25842562 0.15854359 -0.16823086 0.3670684 -0.29527178 -0.12992762 0.042708755 -0.019607948 -0.26810494 0.06799065 -0.007263213 -0.10290805 -0.17491442 -0.11796714 -0.004416772 0.010558374 -0.112238765 -0.21143304 0.002184224 0.2769814 -0.19596602 0.23504929 -0.2979841 0.30884564 -0.49029508 0.22229539 -0.41655794 -0.18461509 0.8126767 0.24755278 0.092676476 -0.06950083 -0.04799704 0.17145105 -0.061472416 0.32656595 -0.3801828 -0.32988542 0.27637237 0.15422471 -0.022038685 -0.03344006 -0.13894881 -0.027414476 -0.0021115297 -0.19030465 0.43984267 0.3518804 -0.1771934 -0.33021986 -0.076720506 0.17907898 0.19315767 -0.14509648 0.39765242 0.03625601 0.14281483 0.25625822 -0.44763938 -0.515058 0.1493653
天 0.019012565 -0.39377218 0.3913719 0.054563206 0.25638768 0.10526891 0.5673676 -0.09357336 -0.5414403 -0.33972117 0.018146504 0.020651903 0.06692007 -0.22360583 0.33783025 0.028225103 0.34022892 0.11875844 0.44197816 -0.22669433 -0.2815746 -0.20321934 0.16347797 0.08520574 -0.029618422 -0.34896597 -0.3693634 -0.25624815 0.24123338 -0.08060926 -0.37255448 -0.2306249 0.31591716 -0.44455475 -0.003521631 -0.09997677 0.13764092 0.18805414 -0.542606 -0.13102727 -0.120386004 0.3413356 -0.17556815 -0.027211338 -0.45887372 -0.12512606 0.017806245 0.04449363 -0.07588719 0.5283413 -0.03309097 -0.025763324 0.1279226 -0.72554916 0.19192716 -0.13040414 -0.5176687 0.36167103 0.14685097 -0.27559927 0.19751352 0.12927097 0.26339915 -0.7451171 0.06884006 0.13331273 0.19156644 1.0161703 -0.16468929 0.32568067 -0.036702774 -0.080652714 -0.35365227 -0.21236052 0.55930895 0.5854621 0.057000674 0.03472458 -0.41098735 -0.37761572 -0.33413327 -0.48095408 -0.38658503 -0.18773262 0.08027183 -0.16815896 -0.15529472 0.38283342 0.07407392 0.17704551 -0.15551263 0.09048506 0.13449918 -0.5381612 -0.36201748 -0.013427042 0.23821957 0.031850222 -0.12510942 0.34848425
乐 0.44126078 -0.22270648 -0.009107812 -0.40134457 -0.23776942 -0.12985106 -0.4368778 0.16438068 -0.51634353 0.027115097 0.046275422 -0.10399967 0.010518812 0.14369908 0.4196624 0.1813968 -0.011865499 0.024435855 -0.1511797 0.14785373 -0.30910552 0.33452493 0.25287697 -0.030571884 -0.010041003 -0.13788038 0.32442608 -0.38516867 -0.03294015 0.30678448 0.23677927 -0.3387143 0.11508548 0.40137044 0.28281742 0.1451206 -0.031405568 0.22790913 -0.45007694 -0.30357414 0.25710976 0.011738143 0.13142319 -0.36736783 0.051563676 0.18488654 -0.12296468 -0.04362792 -0.013771562 0.23737106 -0.6472791 -0.09068621 0.47479326 -0.17297845 -0.32496095 0.3802846 -0.23533064 -0.3828679 -0.16930996 -0.4271112 0.016237987 0.4678262 -0.251893 -0.62883 0.09805287 0.18241735 -0.27821192 0.49336684 0.024602635 -0.023097333 -0.3331913 0.32322302 0.05120878 0.023495493 -0.1078384 0.22653848 -0.3477252 0.19613206 0.35837486 -0.32623744 -0.15257104 0.30407313 0.67055404 -0.1314403 -0.09020555 -0.014853217 0.030440263 0.017369686 -0.09444793 0.20745495 0.038209632 0.15382889 0.015061053 0.0211769 -0.20670569 0.3776327 0.019368796 0.15199485 0.2945737 0.33649775
邦 0.22074193 -0.25970984 0.033947054 0.35731813 0.008086228 0.03526616 -0.060991455 0.017033547 -0.5780588 -0.046407107 -0.38561553 0.3120502 -0.30078843 -0.5269801 -0.06774674 -0.4691155 0.09110234 -0.11210977 -0.03646903 0.058795456 0.47280484 0.11138413 0.013679937 -0.049696915 0.27709776 -0.23617408 -0.004382254 -0.29606262 0.17382959 -0.31440195 0.3673439 -0.047035746 -0.35043058 0.027251652 -0.062532544 -0.030333411 0.6001493 0.62064064 -0.46004158 0.060399506 0.45823824 0.05689276 0.36079463 -0.160886 0.21931502 -0.42839614 0.20188278 0.28622523 -0.57267505 0.22145149 0.19904086 -0.48108804 0.048112687 -0.1678132 0.3251149 0.8639011 -0.32835445 -0.17885587 0.27832353 0.5193152 0.110530645 0.46896574 0.24419467 -0.37238038 -0.17157741 -0.09463816 0.05535533 0.36911768 0.58051956 0.2838024 -0.09886565 0.24964492 -0.18278904 -0.4473252 0.3721351 -0.014879282 -0.5313848 -0.30628628 0.1795204 -0.20934527 -0.0383287 -0.22232963 0.01842336 0.35666382 0.009125558 -0.23454268 0.042884827 0.36334768 0.0011269178 0.16663773 -0.35326007 0.37878147 -0.13075307 -0.30550045 -0.04697827 -0.08465881 0.24008897 -0.17020658 -0.38090536 -0.42955673
亦 -0.032623872 0.22995465 0.070936926 -0.22555004 -0.29589638 -0.033637006 0.11008841 -0.21639685 -0.80369025 0.55900615 0.0019081192 0.118372396 -0.019723166 0.26558483 0.312462 -0.51070565 -0.38161635 -0.1569828 0.26228118 -0.059948526 0.15388703 -0.27204305 0.22478466 -0.01474149 0.125948 -0.049253542 -0.24435686 0.41431293 0.23820098 0.24981436 0.15610519 0.13801245 -0.34385163 -0.25995168 -0.008616723 0.014903701 -0.052644033 0.1264649 -0.2425019 0.18342485 -0.48136714 -0.13316976 0.3000376 -0.04408945 0.042274192 -0.1414195 0.028977906 -0.09398291 -0.14130662 0.06428392 0.37533426 -0.03259275 0.073324576 0.14947855 -0.05138778 0.07263087 0.3057668 -0.09804178 0.24001522 0.32749113 0.15087016 -0.22267136 -0.01808958 -0.32223332 0.038676526 0.18740447 0.06821374 0.7374813 -0.49234754 0.56603277 0.10187066 -0.37410274 -0.08584915 0.12692788 -0.6911037 0.060022693 -0.6554818 -0.15209603 -0.20804444 -0.63145304 -0.24219048 -0.07232672 0.13732526 -0.06785883 0.45004776 -0.20041527 -0.037942626 0.117531836 0.043267693 -0.061294343 0.3343404 0.042253375 0.2739221 0.2989748 0.14422882 -0.34391946 0.5251801 -0.043023378 0.019847687 -0.91242635
使 0.06407803 0.13366172 0.12577716 -0.59079945 -0.07217515 -0.10540063 0.0057394514 -0.19081292 -0.5988892 0.53421 0.13027076 0.15285237 -0.10769458 -0.36577386 0.076911725 -0.627881 -0.12248739 -0.33315393 0.59565943 0.048654106 0.2554837 -0.24627414 -0.010169965 -0.57022053 -0.101484075 0.36111438 0.061567318 -0.0026547946 0.49914202 -0.3846261 0.022206241 -0.043243192 -0.2662224 -0.1374236 0.27792326 0.07167782 0.11094489 -0.013491956 -0.35157406 0.57881474 0.17532319 0.2586203 -0.35299528 -0.48537827 -0.1932661 -0.10082744 0.02045478 0.2934434 -0.0127609 0.32148963 -0.21543995 0.058895502 0.051460177 -0.29932883 0.07795158 0.21376562 -0.15436387 -0.21381098 -0.26825926 -0.0070028333 0.418589 0.7868277 -0.079010114 -0.049504094 0.44529524 -0.4425589 -0.17464955 0.4598661 -0.13664241 0.34360623 -0.076887 0.06525458 0.38103527 -0.22859773 -0.1266398 -0.0029252362 -0.35856903 0.17278993 -0.5513187 -0.29327986 0.018253127 -0.010934251 0.04560708 -0.1749699 -0.07045077 -0.12811615 0.11401491 0.063690715 0.013002766 -0.042876005 -0.3172217 0.14028978 0.042676207 -0.40142313 0.1567343 0.0892895 -0.051147204 -0.005379108 -0.27967948 0.052775193
大 0.058019076 -0.40820822 0.1463074 0.36188793 -0.015856938 -0.10265691 -0.0026988264 0.14457265 -0.8238594 -0.11413053 0.039503478 0.4421511 -0.37692434 0.0644989 0.39159316 -0.032541964 -0.07814397 -0.015327312 0.33485815 0.025127219 0.17659743 0.08448945 0.015016805 -0.5282956 -0.13048549 -0.20345686 -0.15206127 0.62760836 0.22567305 0.0935069 0.057585794 -0.3944005 0.57235336 -0.191558 -0.048444398 -0.059091087 -0.4080876 -0.82693887 -0.34188244 0.08272622 0.032215327 0.13815153 -0.524804 -0.22685984 0.17619939 -0.2158663 -0.014650984 0.14407688 -0.5874101 0.3204495 0.052455526 0.21149081 0.17065999 -1.0655121 0.0026666415 0.33392644 0.057900794 -0.5470373 0.11452312 0.0072 0.046507895 -0.15720159 -0.25738326 -0.04290096 -0.292789 0.09649734 0.04101032 0.6706338 0.12184498 0.30695322 0.24309985 -0.11718512 0.16289483 -0.43701738 0.25885007 -0.084501 -0.31044072 -0.08346171 0.5371951 0.2212194 -0.05769646 0.09311942 -0.31325984 -0.51336205 0.04854395 -0.2982318 -0.3022529 -0.24114378 -0.063903734 0.012769201 -0.004086109 -0.09146522 -0.44944483 0.35539266 -0.23290195 -0.025768869 -0.13784117 -0.12565365 -0.5100414 0.0567944
下 -0.017883923 -0.07431009 -0.14829066 0.10186834 -0.44131732 -0.10567152 0.06468225 0.015164743 -0.8674508 0.119295314 -0.075252764 0.35056698 -0.2914869 -0.19820677 0.20361678 -0.17973055 -0.18452531 0.025968658 0.180954 -0.84861094 0.23747313 -0.7072618 0.2511659 0.08425538 -0.06426972 0.27486235 0.1696307 0.3166783 -0.03135831 3.490775e-05 0.075139835 0.696648 0.16494535 -0.16858444 0.38105866 -0.05872195 -0.5754618 -0.285634 -1.026376 0.15721531 -0.4220498 -0.06756887 0.13972397 0.03228985 -0.4900095 -0.18770432 0.1400289 0.14138985 -0.36749396 0.19950083 0.28938138 -0.3110792 0.29853746 -0.5151037 0.5594564 0.3329167 0.38524732 -0.015586926 -0.06954615 -0.27056322 -0.17073894 0.33885452 0.45380008 0.012867133 0.29455817 0.045446463 -0.1431205 0.19636467 -0.21437088 0.14738598 -0.2585636 0.19417375 -0.016554192 -0.7710124 -0.3853929 0.23559512 -0.5419087 0.31335142 0.4022386 -0.5012067 0.6614972 0.11748212 0.32379657 0.0566189 0.02689335 -0.22590423 0.11227643 0.80867136 0.26955175 -0.58368933 0.25695693 -0.18660633 0.33186346 0.33941516 -0.23958376 -0.002922196 0.3165263 -0.09992405 0.482681 0.50894743
贡 -0.0043982896 0.21463245 -0.037694566 -0.55661124 -0.2011327 -0.3251059 0.026454095 -0.19919032 -0.80429894 -0.16988477 -0.1774923 0.7152005 -0.15023936 -0.032241993 -0.1702435 0.4005113 -0.09391363 0.10879278 0.11478045 0.2604139 0.3241047 -0.12664746 -0.45219776 -0.13908125 -0.35985884 0.17479005 0.029809913 -0.13984354 0.22559145 0.112340115 0.37638107 0.15673308 0.15375239 0.42835087 0.15472093 0.1999548 -0.24126025 0.6686132 -0.8530392 -0.14920542 -0.082040645 -0.15378977 0.081559084 0.12364942 -0.029066905 0.33120653 0.4755036 0.04980525 -0.43469515 -0.03386002 0.7936055 -0.2953517 -0.1919788 0.44259724 0.13375905 0.1225218 -0.109128766 -0.14649975 -0.46074584 0.2969289 0.0069017843 0.23060668 0.06387766 0.07238491 0.19649911 0.11523325 -0.046617117 2.331217 -0.39617577 -0.10758505 0.0046547013 -0.36204255 0.16633986 -0.093423694 0.0049260375 0.16575012 0.16909125 0.04107406 -0.011518833 -0.6734049 0.3237478 -0.09244417 0.4534643 0.038263973 -0.027806165 0.1501103 0.17328106 -0.11181453 -0.3186258 0.1866869 -0.16196729 -0.04016099 -0.060598914 0.2872691 0.27413246 0.0048411065 0.3759639 0.31335482 0.4096128 -0.09458454
欲 0.49251655 0.042353205 0.026920756 -0.3886624 0.1859234 0.10867037 -0.21925132 -0.3866551 -0.767865 -0.00079920504 0.05614483 -0.04798489 -0.18323319 -0.20293075 0.37729976 -0.20238109 -0.18944696 0.022024916 -0.4080264 0.15318206 0.19810593 0.07973774 -0.0013544625 -0.009071806 -0.20200042 0.38796893 -0.23737223 0.30012804 -0.10021628 -0.31039798 0.12332783 0.3312798 0.33056998 -0.700277 -0.61203265 0.09754945 -0.37162155 0.76815295 -0.35815412 -0.20150301 -0.06057833 -0.087835096 -0.0064341654 0.45786217 0.04444107 -0.14324558 -0.024640294 0.38211328 -0.008170893 0.11349269 -0.08200423 0.062472522 -0.3302161 0.09005417 0.46792316 -0.20600374 -0.02717955 0.140648 0.23450749 -0.39207602 0.2686041 0.37836048 -0.19320221 -0.29746616 0.10888367 -0.27739516 -0.22370437 0.3647638 -0.2196892 -0.11831822 0.1881763 0.5373752 0.04206739 0.36574304 0.1442125 -0.29197633 -0.4882448 0.041949227 0.05999755 -0.032503136 -0.4451049 0.049148515 0.40902483 -0.2572058 -0.37949887 0.269185 0.0185868 -0.14608203 -0.11347332 0.6346588 0.3271951 0.11959892 -0.014492457 -0.082554825 -0.34478685 0.5421267 0.021932902 -0.18365407 0.48043755 0.16063498
诸 0.26274276 0.34283316 0.08045524 0.94505554 -0.08674172 -0.1041009 -0.091747716 0.30366015 -1.191654 -0.28220484 -0.00031471648 0.3202783 0.07422047 -0.04944405 0.77127165 -0.6794929 0.18900941 -0.23128685 -0.11074458 0.3439505 0.2473117 0.01480083 -0.1902504 0.18447657 -0.47323763 0.0025187137 -0.17909774 -0.13294595 0.123563826 -0.44415298 -0.17044535 0.18860054 0.33340028 -0.8529577 0.08392393 0.187984 -0.26725736 0.2786551 -0.10365368 0.6352065 -0.5001015 -0.2811117 0.041317772 -0.06795716 -0.04210996 -0.20904438 0.0033651385 -0.09171822 -0.21524131 0.32532573 -0.23734215 -0.43940943 0.51389843 0.66057557 0.84049314 0.10307492 0.6894391 -0.334957 -0.00686694 0.08749834 -0.091296405 0.19556749 0.19556187 -0.26524 -0.15074176 -0.14839046 0.074961536 0.92135537 0.5693607 0.029768642 1.6531217 0.31884024 0.005147481 0.41998327 0.15459146 0.047840506 0.1564989 -0.08796802 -0.17984737 -0.085485786 0.12983756 0.43683264 -0.61134213 0.71471906 -0.08587672 0.19775173 -0.47723258 -0.13786493 0.26700118 0.29293975 -1.1616365 -0.39852428 0.15699989 0.06822541 -0.18723479 0.11899995 -0.083732024 -0.35261703 0.3810158 0.075590335
从 0.44735152 0.26906115 -0.32882217 -0.2491607 -0.06757531 -0.384629 -0.3898802 0.417259 -0.864554 -0.11968287 0.40205753 0.5135239 0.2576169 -0.051533327 0.24984196 0.07356431 -0.22012992 0.0855406 -0.043459333 -0.21049313 0.41950676 -0.2642058 -0.09576422 -0.041296635 -0.69223535 -0.18968728 0.25474393 -0.24806888 0.2982176 0.20978077 0.003111207 0.07452182 -0.08878562 0.36116478 -0.20820066 -0.10589848 -0.3221393 0.31272054 0.5631071 0.20163654 -0.17807618 0.25550047 -0.37646595 -0.28046793 0.26122466 0.25525537 0.12526858 0.05653998 0.64516354 0.37869254 0.3857656 0.08426102 -0.11884812 -0.74708146 -0.21679674 0.601883 -0.08828308 -0.20018494 0.03775762 -0.2341012 0.31076628 0.37087497 -0.07123321 -0.5403253 0.043859143 -0.22058423 -0.022349328 0.3102428 -0.5864298 -0.16281612 -0.00080496905 -0.19786501 0.31468865 -0.15197466 -0.064684965 -0.07985444 -0.36983243 -0.60065025 -0.2175966 -0.41168982 0.25389776 -0.2888473 -0.08620621 0.036170784 -0.30935684 0.29887128 -0.41168642 0.35810664 0.06248273 0.057444304 -0.05459916 0.057347182 0.38393262 0.06286134 -0.22700506 0.19550587 -0.31336275 0.06723791 -0.46282682 0.013185348
文 0.3827003 -0.10967728 -0.20043328 0.2231841 -0.3782564 -0.2160727 0.06458423 0.5504745 -0.48353744 0.30613086 0.022035047 0.3187724 0.28364873 -0.13154973 0.016680988 -0.10340196 -0.056214165 -0.08296026 -0.19961113 0.0015941887 -0.059273094 0.21803512 0.18457167 -0.056878757 0.2970867 0.37553 -0.0933383 0.32250807 -0.43411103 -0.33365777 -0.4988945 0.44129956 0.28723994 -0.27606457 -0.01976694 0.118498616 0.09500267 0.22417395 -0.6769583 0.36277965 -0.21474467 0.120211385 -0.012913294 -0.6611431 -0.025494197 0.09398582 -0.03368765 -0.13239224 0.12692592 0.17458072 0.1954565 -0.08829949 0.49003455 -0.35221976 -0.019083684 0.087789506 0.13270718 -0.26053095 0.09289875 -0.22715348 -0.16910307 -0.3310249 -0.031951807 0.23881078 0.5149838 -0.3836713 -0.0214206 0.42611578 0.7941533 0.18151197 0.034150466 0.013395395 0.24684392 -0.017110664 -0.40944076 0.1194119 -0.16200283 0.23796101 0.11694953 -0.3645738 0.25674248 0.045952924 -0.29215595 -0.01676442 0.0041647297 -0.40983766 -0.29872823 0.44269595 -0.071637824 0.10008537 -0.14272347 -0.12387516 0.92639923 -0.6201741 0.13511878 0.070598185 -0.16579436 -0.5796062 -0.0821489 -0.1059949
政 0.650753 0.38057256 0.65299284 -0.37774706 -0.42898342 -0.379873 -0.16888641 0.15614142 -0.606308 -0.1436845 0.3085774 0.09469608 0.3284445 0.05646966 0.11018489 0.3628866 0.2223084 0.018199038 -0.008894638 0.03297188 0.16486216 -0.34365183 0.27082658 0.0037603618 0.12957224 0.07567694 0.113592215 0.48413816 0.47801974 0.114040546 -0.31665775 -0.3877119 -0.4425123 0.104037955 -0.35876417 0.0065245507 0.39647284 0.2752252 -0.7855448 -0.023678904 0.22114475 -0.2414244 -0.3435507 -0.088178076 -0.22124292 -0.10293961 0.21958539 -0.19865848 -0.03440676 0.35321078 0.33761418 -0.7295618 0.5489187 -0.38180187 0.38201705 0.8816799 -0.03713354 -0.29217243 -0.011326676 0.18865006 0.058473427 -0.018405067 0.06312543 -0.4061928 -0.21994609 0.3415661 0.0018287089 0.3255407 0.049429737 -0.010724947 0.18250342 0.21061386 0.033484526 0.32554734 -0.1938482 0.0039182575 -0.4708562 0.020360617 0.23663527 -0.28916842 0.497473 0.06347212 -0.28205714 -0.38529974 0.4278691 -0.03093658 -0.10855407 0.57568085 0.5804352 0.50364053 -0.27615055 -0.12056426 0.056392554 -0.022288403 -0.26617128 0.054786168 -0.16887307 -0.16994362 0.101815 0.37030846
食 0.46014857 -0.10113138 0.43397322 0.117450796 -0.36293474 0.1459672 -0.23065142 -0.519567 -0.46612683 0.3689479 0.1284992 -0.034199443 -0.3533867 -0.33505207 0.24215826 -0.59682125 0.2425956 0.19754936 -0.19400074 0.23332542 0.23250376 0.36610052 -0.19343138 0.38464764 -0.57940245 -0.23914795 -0.29956406 -0.3161249 0.018918457 -0.015180712 -0.018746013 0.03374361 -0.10508688 -0.24012595 -0.10119623 0.31660804 0.10151812 -0.035054952 -0.7774705 0.25523317 -0.34805647 0.32164806 0.07759191 0.0064313416 -0.117463954 0.8022598 0.1144754 -0.06040519 -0.2627531 -0.089663 0.054420725 -0.16225591 -0.000720716 -0.35660917 0.093742065 0.15964682 -0.14800125 -0.62880266 0.2533849 0.26965374 -0.56779844 -0.12026505 -0.3843335 -0.8240996 0.06542975 -0.26998442 -0.54033595 0.3935643 -0.14345638 -0.70902914 -0.069184035 -0.15341234 0.2677287 -0.0025250036 0.24357118 0.09948982 -0.40571213 0.07906858 0.4596134 -0.4366469 -0.18550438 0.13650084 0.14026658 0.036974136 -0.5064331 -0.010841805 0.23257782 -0.703795 -0.47392628 0.035579097 -0.3643353 0.04738116 -0.18924063 -0.33338296 -0.008097907 0.2896377 -0.08603807 -0.19376956 0.07739803 -0.39318478
善 0.5531453 -0.3576325 -0.1634255 0.014337025 0.2822439 0.000185288 -0.16478418 -0.34584072 -0.3836592 -0.11791112 -0.53556013 0.28579462 0.6006342 -0.3336153 0.2077528 0.0055277594 0.11425402 0.08855005 -0.13928455 0.032226965 -0.38135588 -0.010550349 -0.36497188 -0.24928893 0.030920284 -0.37779233 0.01230291 0.4331574 -0.13383812 0.24319069 0.3448302 -0.2848981 0.2658061 0.6645647 0.21034123 0.06487008 -0.29213235 -0.22608586 -0.36921304 0.3808335 0.12999564 0.1683078 -0.2095921 0.425049 0.23320037 0.42601234 0.59581923 0.23876484 0.20281126 0.27213916 -0.11484345 -0.15825064 0.22723597 -0.17309923 -4.8683527e-05 0.060560267 0.18716188 0.30745476 0.05616392 0.1601238 -0.13752407 -0.12459047 0.22869502 -0.3611863 0.023646409 -0.18125601 0.06942833 0.53701526 0.11657905 0.04693618 -0.12736966 -0.27963337 -0.07690167 0.37655354 -0.024676874 0.38989675 -0.8655352 0.32674086 0.108603306 -0.4118147 0.21241485 0.09083714 0.26259488 -0.19702742 -0.031040475 -0.11497786 0.034631796 -0.31056982 0.25911167 0.16768618 0.058256436 0.4017953 0.19124842 -0.102846235 0.393246 0.23067507 0.396548 -0.13245653 0.35776824 0.6043554
后 -0.15983434 -0.25977638 0.846963 -0.29769465 0.32089147 0.026777372 -0.25463188 0.008315392 -0.6245836 0.3179094 0.016425772 0.08465636 -0.0054790424 -0.0122566 0.34760725 -0.38677347 0.39724806 -0.39922753 -0.37545276 0.5232585 -0.29382718 0.31122598 0.112958826 -0.24318866 -0.1469132 -0.3108092 -0.16719723 -0.06816658 -0.35110155 -0.472408 -0.16358034 0.1513092 -0.2361754 0.3545653 0.0009507182 -0.21383214 -0.08196605 -0.12180253 -0.5498166 0.48729935 0.104171105 0.19015639 0.21819828 0.26722997 -0.14883074 -0.010072351 -0.07306429 0.023260258 0.12842174 -0.17508858 0.26232165 -0.42559963 -0.0011557229 0.07512133 -0.121477045 0.56052464 -0.117260136 0.709397 0.5587184 0.0024712658 -0.21790287 -0.071964815 -0.55266666 -0.5807291 -0.32609746 0.13041073 0.49530122 0.3543634 -0.14593863 0.39537358 -1.0078791 0.18091951 0.21921489 0.10645106 0.19185995 -0.28377515 -0.5341245 -0.26062968 0.086070046 -0.31647855 0.3069715 -0.5563756 -0.4094356 0.11092243 -0.2729917 -0.00424534 0.00051772106 0.2707943 0.1316649 0.35361928 -0.39291522 -0.2101444 -0.11689689 0.08379607 -0.14390543 0.33526397 -0.17470443 0.27644238 0.088605106 0.22387676
德 0.56680477 0.029594924 0.15223835 -0.29579577 -0.27948204 0.18977311 0.27779225 -0.16159473 -0.5729697 -0.09011231 -0.30698726 -0.030038422 0.2483328 -0.42937392 0.24700679 0.037503734 0.070086844 0.066957556 0.4640517 0.6353148 -0.37467316 -0.022160256 -0.13681327 0.10134234 -0.30757266 -0.24762158 0.4694868 -0.0036683963 0.16232477 -0.033498164 -0.38029084 0.06342275 0.00908864 -0.1062623 -0.19155525 0.1003441 -0.21062845 0.0667838 -0.12820873 0.29476216 0.028256005 0.12114359 -0.20925911 0.06727764 0.69577396 -0.3157511 0.12772322 0.27955467 -0.20301265 -0.14600265 0.10629925 -0.09856355 0.32361 -0.8689731 0.26741248 0.54975784 -0.24182454 0.24521522 0.030744448 -0.0077921795 -0.24253148 -0.51532763 0.19699606 -0.42218077 0.21010736 0.1391303 -0.04153849 0.64640504 0.18663162 0.2870282 -0.18937917 -0.550551 -0.081737585 0.42159265 0.21743412 0.17554335 -0.66431594 0.222423 0.05357071 -0.2793752 -0.11205348 -0.7006159 0.15568762 0.3225214 -0.2846963 0.88766575 0.30939823 0.51724416 0.50712085 0.3430623 -0.06462614 -0.487555 0.2716545 0.3899877 0.56129086 -0.14996003 -0.25928622 -0.32292596 0.15815866 0.45314786
求 -0.026864257 0.5128798 0.86588967 -0.28784633 -0.06847318 -0.13437457 -0.1742984 -0.14095442 -0.26456377 0.5390927 -0.18028508 0.14843029 -0.17903946 -0.4625219 -0.008026413 0.022019837 -0.17487003 0.022852369 0.08610448 -0.35965633 0.10723208 -0.2114331 0.08210751 -0.13621409 0.07754465 -0.1920448 -0.19261979 0.09268121 -0.45054024 0.21797413 -0.19744751 0.45495173 0.13989753 -0.009705879 0.2643219 0.27044904 -0.5309911 0.30360767 -0.3997544 0.039415017 0.20273034 -0.08934583 0.2595073 0.2871256 -0.2123936 -0.15364042 0.11076907 -0.09131897 0.08165448 0.16219577 -0.35312235 0.13080439 0.002987269 -0.5396538 0.22020987 0.63579595 -0.3316874 -0.09583243 -0.17727865 0.1868566 0.14983642 -0.01102131 0.23056099 -0.09783268 0.4964864 -0.09506067 -0.27660003 0.6168034 -0.045520373 -0.31726056 -0.14461863 0.55196726 -0.24068043 -0.4787446 0.058408942 0.40316364 -0.58649176 -0.25864547 0.06849202 -0.5176927 -0.0600546 -0.120703 -0.09754348 -0.24686417 0.034019217 0.05367284 0.17536688 -0.025435079 -0.10709818 -0.07196067 -0.47062632 -0.33451465 0.34730282 0.047958557 -0.44944823 -0.07492538 0.21956469 -0.7282469 0.25499645 -0.02916911
对 -0.06024779 0.24864976 0.048540585 -0.1942919 0.36819354 0.23108947 -0.32066908 -0.6158064 -0.8837578 0.31886387 0.046276487 0.10262197 -0.26549035 0.36020595 3.9079765e-05 0.2911202 -0.19599287 0.16640532 0.118237495 -0.27531853 0.44629994 -0.27482215 -0.24560207 0.24226625 -0.21987073 -0.034645308 0.23668896 -0.3044269 0.15674655 -0.2274703 0.7805974 0.13834365 0.12305962 0.38045624 0.10359727 0.30015743 0.14855242 0.48716363 -0.33327562 -0.039253917 0.1348887 -0.0077878567 -0.45138913 0.09918432 0.18911915 0.51147896 0.24586557 -0.017038584 0.6444466 0.049273845 0.10667321 -0.11277525 -0.17552848 0.3713466 -0.3388583 0.34504202 0.035210542 -0.3663281 0.3268002 0.39954707 0.022040395 0.45746252 -0.04272673 -0.58267826 -0.11690953 -0.26259655 0.030135619 1.8213655 -0.0086777415 -0.13873202 0.27793288 -0.38076127 -0.25038946 0.123498395 0.3963433 0.15913463 0.08907247 -0.07605379 -0.47574785 -0.51323354 -0.5349348 0.35729733 0.3805601 0.3127419 -0.13088351 0.5417761 0.14854017 0.70612824 -0.36821455 0.359189 -0.23107287 -0.66330975 0.23187083 0.08048246 0.044896103 0.21449502 -0.064796984 -0.29125553 0.4578491 -0.15152667
恶 0.30351543 -0.29558876 -0.547176 -0.020881452 0.12641922 0.09426266 -0.18218215 -0.4094245 -0.5527768 0.118519835 0.17252344 0.14493708 -0.6169298 0.2866068 0.89882696 -0.41675305 0.18928325 0.28269985 0.15263534 -0.33795035 -0.099010795 -0.49461427 -0.53691876 0.051381998 0.0057716267 -0.062818766 -0.069218025 0.1216877 0.05336044 -0.2787875 0.26742044 0.07545181 -0.17516543 -0.26145002 -0.1933103 0.12865606 0.133985 -0.6327963 -0.5150673 -0.023183754 -0.045545038 0.057091165 0.20067254 -0.48267815 0.17048769 0.04482009 -0.019824702 0.28055072 -0.6121784 -0.015287458 0.3683501 -0.3393395 0.3036974 0.28745925 -0.66154766 0.5107971 0.25156805 0.06018844 0.041468237 -0.44344875 0.0631944 0.29245123 0.3455625 -0.38623458 -0.088005185 0.3982214 -0.05585157 0.22245689 0.0619816 -0.16221368 0.40155345 0.387499 -0.24556722 -0.4271608 0.03527827 0.070897564 -0.7433246 -0.27246103 -0.20792471 -0.45738596 0.015779153 -0.24224965 0.43123096 0.1367391 0.4931808 -0.0048638782 0.032695305 -0.022970142 0.1598019 -0.4317357 0.26787648 -0.041580807 0.36452252 -0.43432456 -0.6133038 0.55705094 -0.16821668 0.23997527 -0.09073203 0.26118246
信 0.8735193 0.11920482 -0.05283622 -0.34691748 0.19092788 -0.05489826 -0.41437882 -0.058588516 -0.33815676 -0.37482962 0.018192701 0.2158961 0.2996335 -0.00202373 0.5060083 0.16798319 -0.072039396 0.30088714 0.02033043 0.48874572 0.08616236 -0.012667207 -0.04664815 0.011494605 0.35534698 0.06255026 0.25273508 -0.72979915 -0.46927005 -0.06526575 0.21474504 -0.5181037 -0.22037324 0.038659193 0.15743846 0.4098011 0.3242967 0.042046335 -0.823368 0.032207318 -0.26512453 0.22793175 -0.113595285 0.2428166 0.571704 0.18160059 -0.107130155 -0.22694308 -0.087696195 -0.027956875 -0.19478041 0.1075741 0.3330961 0.035351817 0.22880246 0.38773152 -0.38177666 0.016668748 -0.044857647 -0.11151541 -0.05431149 0.03417328 0.58893675 -0.5025448 0.38891375 -0.14928015 0.043145176 0.5421228 -0.0519345 0.0025263675 -0.122566335 -0.08427202 0.38080955 -0.2662496 0.020878594 0.009788986 -0.84264255 -0.2907072 -0.32018778 0.119280756 -0.001684161 0.39015925 0.1830816 -0.29719466 0.07577741 0.30960464 -0.26518363 0.031974018 -0.1173155 0.008956986 -0.17571911 0.18959183 0.7381991 0.2788555 0.4189498 -0.17296703 -0.067819335 0.25527516 -0.2240877 -0.211329
死 0.5741237 -0.25943756 0.18969035 -0.38319537 -0.42282066 -0.28741828 0.38136274 0.43257928 -0.48452222 -0.5682636 -0.11527395 -0.007512488 0.23242253 -0.011292135 0.3963479 -0.2366769 -0.02085867 -0.18707988 0.25005764 0.06791475 -0.43035677 -0.3671401 0.2390927 -0.041680813 0.019781817 0.03735178 -0.22831316 -0.07033644 -0.5722395 -0.029758612 -0.044837464 0.436128 0.07286954 0.3747144 0.23893154 0.080536455 -0.037399136 0.11725217 -0.433205 0.49092048 -0.12108049 -0.17889588 -0.12805294 0.26322806 -0.20665032 -0.044939905 -0.07682704 0.33281997 -0.34107488 -0.023506772 0.81520796 -0.14757404 0.2956303 -0.093040206 -0.2652655 0.8634995 0.14974977 0.24958128 0.65274453 -0.07560999 -0.0030548195 0.2445844 -0.23004672 -0.7595931 -0.21996425 0.0014099089 0.24525665 0.07084538 -0.5946599 -0.15701601 -0.0999521 0.3313286 0.33327362 0.20240512 0.29480693 -0.36777732 -0.39403298 -0.067580126 -0.5877743 -0.2677829 -0.0048424695 0.0038503997 -0.26835164 -0.15001906 0.37056407 -0.17326416 -0.31150457 0.1994272 0.27791324 0.6117749 0.05170187 0.2713113 -0.235395 -0.06850904 -0.4653833 -0.07515188 0.49807695 -0.20675273 -0.15785724 -0.17852452
然 0.005232225 0.24409886 -0.14842063 0.3151641 -0.009933182 -0.24092858 -0.22754677 -0.5676317 -0.44376308 -0.28216508 0.18586089 0.19681968 0.05018408 -0.4745427 0.32065758 -0.13212804 -0.20008041 0.03021612 -0.9683095 -0.5885206 0.07411704 0.060818363 -0.040999312 -0.42242843 -0.18625882 0.2075051 0.4811371 0.002591281 -0.021819819 -0.07843186 0.18217205 -0.36101142 0.1603225 0.36372408 0.0006566234 0.2527246 0.12720135 -0.27227592 -0.68798816 0.3104775 0.041161124 0.33877996 0.21966325 0.07188167 0.08362919 0.25644553 -0.34845147 -0.22844128 -0.04799959 -0.3054186 0.08064735 -0.41513637 0.2060527 -0.11823571 0.02307762 0.5212306 0.33986744 -0.26536116 0.12483139 -0.35283238 0.30000132 0.5678083 0.045085847 -0.1469764 -0.5010948 0.07968445 -0.13172118 0.61963254 -0.19441184 -0.47851664 0.016062006 0.29654488 -0.23136033 0.20107108 0.8778514 0.26699308 -0.5257131 -0.046606313 -0.7896064 -0.3356556 0.06913776 0.0071565704 -0.16639513 -0.10442092 -0.12678187 -0.2567885 0.48905733 0.06436011 -0.33362898 0.26158923 -0.5179531 0.32132578 0.0875578 0.7137249 -0.031485282 -0.38795638 0.46194413 -0.022645958 0.042931296 -0.029592432
《 -0.13193955 0.13647966 -0.1585276 0.64637715 -0.37753114 -0.27622578 -0.26234725 0.39326856 -0.5617193 0.09070265 0.25956738 0.45909536 0.19084321 -0.5961071 -0.16898052 -0.28507555 0.06583788 -0.28843385 -0.01581733 0.14415807 -0.068625845 0.033789694 -0.28458115 -0.3637262 0.02115059 0.040723782 0.0016429735 0.35720724 -0.33299384 0.19772808 -0.42577356 -0.11655155 0.082766876 0.3026323 0.1583418 0.008651838 0.009810501 -0.18833621 -0.34951812 -0.3874845 -0.4792623 0.13101563 -0.14361288 -0.29406518 -0.5535761 -0.046915777 0.026277842 -0.1127219 -0.0061400374 -0.092443064 -0.09741066 -0.590092 0.51888376 -0.33876964 -0.36195338 0.2481936 0.16020301 -0.8766893 0.09691368 -0.33618385 -0.06997989 0.22972097 -0.066718906 -0.44763246 -0.04152249 0.1100749 -0.0686669 1.0972577 0.74148965 0.014335396 -0.35433215 0.0036935261 0.33604747 0.55568826 0.10302148 -0.04971834 -0.31456318 0.03926289 0.04556819 0.117938064 -0.0865559 -0.24543811 0.28229788 0.31680208 0.26011 0.6932043 -0.59233636 0.3174183 0.1525065 0.7700217 0.016288733 -0.21874917 -0.29742533 -0.8563543 0.15039757 0.020159183 0.12656246 -0.25351912 0.02538897 0.35447693
