1352 100
， 0.002669381 -0.057950627 -4.0041778e-07 -0.06080214 0.018636717 -0.0008039286 -0.011732019 -0.005137813 -0.09874324 0.000308597 -0.03937661 0.014493334 0.073844664 0.1002495 0.031380054 -0.04048038 0.028479539 -0.12297736 -0.0069945217 0.21746211 -0.13465802 -6.367908e-05 0.018631343 0.05682596 -0.10060396 -0.065655306 0.0738636 0.052691735 0.01957494 -0.019597119 -0.032440465 -0.015488416 0.015646486 -0.054163266 0.0013336713 -0.058526684 0.07007968 0.11347152 -0.06957124 -0.027474413 0.0574017 -0.04301078 -0.019331798 0.0922695 -0.064188644 -0.0535048 0.001397644 0.016743546 0.035058454 0.04382015 0.023594538 -0.046674974 0.007976981 0.012700559 -0.048307173 -0.022172809 -0.03632509 -0.057974186 0.027097574 0.034214858 -0.12728107 0.016902816 -0.076272346 0.09561976 0.11246808 0.07638617 0.013168985 0.04791466 -0.028089004 0.057661496 -0.012526335 -0.12998922 -0.072353646 0.046502374 -0.05113244 0.43455124 0.027279153 -0.05562532 -0.11065523 0.091994196 0.056325797 0.07803403 0.07969099 0.0052868067 0.12764455 0.6989654 -0.04715063 -0.05714284 -1.2585438 0.00022592724 0.064849615 -0.050348613 -0.09014 0.0879719 0.12188247 0.0639714 0.011417683 0.12553816 0.074929215 -0.042865895
子 -0.030750073 0.17468008 -0.14047484 -0.13026033 0.052460607 -0.07876039 0.009889652 -0.011730029 -0.09770937 0.31730288 0.37621862 -0.19563606 -0.072273575 0.054395564 -0.09517136 -0.044261925 0.064624555 0.08237564 -0.057161618 0.2017174 0.033584546 0.19079632 -0.17285253 0.081141375 0.040378213 -0.08455867 0.08479188 0.02931867 0.11102072 -0.587077 -0.008328132 -0.039367218 -0.08970204 0.06585668 -0.062107503 -0.19139624 0.18431039 -0.06977872 -0.07965889 -0.051372305 0.055647902 -0.06953694 -0.17040358 -0.02664206 -0.103611425 0.058972333 -0.18908058 0.04172356 0.09406726 0.00021048872 -0.09547779 -0.034769423 0.09464301 0.22906491 -0.05578052 -0.065435484 -0.06495499 -0.68790203 -0.005050686 0.063394435 -0.09700298 0.05077024 0.08425688 -0.020678608 -0.07211038 -0.1486708 0.04269381 0.07745284 0.05270532 -0.13214976 0.0042790254 -0.09454143 0.20173907 0.08040286 -0.08726404 -0.5316655 0.0073506893 -0.08124287 -0.018524209 -0.21149115 0.024314284 0.12677418 -0.92762583 -0.040077288 -0.33854416 0.021669671 -0.07503828 -0.08812465 -1.092838 0.08353227 0.12707794 -0.012962513 -0.05164697 -0.08158324 -0.00893114 -0.08128886 0.043727875 0.015176398 0.08653955 -0.022923522
。 -0.08056347 0.049385477 -0.029105268 -0.0754709 0.044348285 -0.10301818 0.013555497 0.17104587 -0.027776632 -0.042866357 0.2756239 -0.14146781 0.025392454 0.03392782 0.0092816055 0.083103985 0.035539895 0.08357839 -0.050377134 -0.15877876 0.01121492 0.066160835 0.20969366 -0.14257744 0.002376148 -0.18221325 -0.13739526 0.039322827 -0.08861802 0.08722043 0.14744917 0.03292856 0.087320745 0.09249757 -0.0063158376 0.055520467 0.1397894 -0.09124279 -0.03440417 0.0588545 0.05045869 0.086637564 -0.13717209 -0.096858375 -0.078105755 -0.06612799 -0.051611707 0.011754624 -0.04512233 -0.2301971 -0.011347838 0.025908628 0.07649748 0.10567995 0.10934789 -0.21500435 -0.019369436 0.06515539 0.037225813 -0.09442207 -0.5230634 0.09173489 0.2483164 0.096560724 -0.0058468827 -0.09270854 0.07888505 -0.14043303 0.078436464 -0.11517557 -0.1103442 0.21350247 -0.015534154 -0.104135506 0.13796791 -0.11557365 0.06169786 0.006765045 -0.0045212014 -0.07726865 0.086441375 -0.001321955 0.037091542 0.03229531 -0.3833652 1.1204779 0.22564313 0.14990202 -1.2283515 0.017072959 0.006074822 -0.09471143 0.041319676 -0.06885754 0.008136021 -0.1992069 0.045116123 -0.17132674 -0.074461825 0.11851809
： 0.083407775 0.019782946 0.0341654 -0.094703384 0.03821855 0.048942216 0.10969999 0.060753547 0.05164145 -0.0070255143 -0.099883564 0.15088844 0.090091966 0.030321937 -0.04251903 0.09677268 -0.23853892 0.04483747 -0.02508351 0.25200176 -0.21000198 -0.25883764 0.22967882 -0.1914379 -0.03744218 0.17086835 -0.07991474 -0.022597672 0.084501065 0.19871965 -0.049783505 0.016886301 0.084552385 0.11291882 0.21424156 0.12958756 -0.19896442 -0.051635068 0.115575105 0.052261263 -0.006268685 0.02876089 0.08136457 0.059088312 -0.028525313 -0.019878153 -0.1020943 -0.00039586367 -0.09989108 0.055285495 0.04592724 0.14645092 0.12403944 -0.03711522 0.029971762 0.056290198 -0.1398475 -0.13886106 -0.04208105 -0.026659958 -0.3186429 -0.00726298 -0.055939216 0.14198703 -0.02308567 0.06783012 0.1128753 -5.1510688e-05 0.061283816 0.12241407 0.11637205 0.06089356 0.03803221 0.10463866 0.021442613 -0.23823372 0.08488846 0.24919154 0.08986291 0.11049188 -0.07338219 0.11611275 -0.06836627 0.14926636 -0.26921785 -0.40202233 0.057672285 0.17221321 -2.1424239 -0.013743305 -0.024586609 0.018067334 -0.037249766 0.12960984 0.09794207 0.074276365 -0.037474286 -0.016591907 0.09201942 -0.030711807
曰 -0.2083161 0.495567 0.063530035 0.12537912 0.030642381 0.017185453 -0.4713252 -0.10200444 -0.09507803 0.037566613 0.9611684 -0.108573265 0.0037581585 0.18174063 0.15307024 0.059115846 -0.18209428 -0.17197269 -0.03819845 -0.093036935 0.09723894 0.09261591 -0.31846657 -0.20247345 -0.04028415 0.030239739 -0.011112152 0.21916704 -0.09758757 -0.19903524 -0.12613331 0.0678865 0.068163216 -0.05735235 0.06108554 -0.16180478 0.22453116 0.14138815 -0.03284726 0.058971357 0.15930694 0.038754884 -0.08797368 -0.0003591465 -0.027067505 0.2066251 -0.1546137 -0.099060036 -0.23757194 0.041677877 -0.20338742 0.09842411 0.05880536 0.212424 -0.046572037 0.0015175573 0.25446725 -0.5068297 0.016627114 -0.0029902474 0.2151755 0.20473619 -0.12664187 0.038009632 0.17027476 0.031698823 0.0386698 -0.122970946 0.022351708 0.08692125 -0.24233189 -0.14297174 0.10520652 -0.059251256 0.21283281 -1.1935308 -0.006676202 -0.16206165 -0.0911578 0.11506144 0.08865828 -0.1504135 -0.1320151 -0.23373169 0.3835943 -0.10449379 0.050809506 -0.12856378 -1.5649254 0.0342684 -0.1312517 0.049822826 -0.290586 -0.20608456 0.3125824 -0.015056545 -0.08009924 -0.037650865 0.0019228127 0.07487043
之 0.018060692 0.09088072 0.10418186 0.103300735 -0.15177238 -0.11154008 -0.124901876 0.03834561 0.12915014 -0.08347963 0.24192101 0.15760215 -0.100563936 -0.18797092 -0.15118785 -0.105638206 -0.1644941 0.15350428 -0.091541775 -0.20805675 -0.06364304 -0.22917672 -0.06369922 0.025925258 -0.09828653 -0.1882487 -0.013208762 0.0042971615 0.09239282 -0.1205533 0.13449922 -0.0028818743 0.030315513 -0.10304768 -0.1329103 -0.006171306 0.010503893 0.17647116 0.033191785 -0.1071494 -0.13444918 0.10464568 0.060608264 0.02693925 -0.12483793 0.055703644 -0.11130796 -0.032159597 0.0072979806 0.09660493 0.2055933 0.016410558 0.253974 -0.046874426 0.15915957 -0.18672659 0.06600579 0.21802177 -0.12712501 0.08095908 -0.026479168 -0.08565269 0.14164507 0.061723355 0.2253694 -0.05266876 -0.17146419 -0.049365263 0.0798504 -0.040710777 0.021936985 -0.16433798 0.13595112 0.12310653 0.27135402 0.23189476 -0.13501517 0.13326274 0.032298025 -0.042611465 -0.02216873 0.04806343 -0.7095643 0.072495624 0.23230663 0.12094381 -0.029395483 0.0847724 -1.0424376 -0.15642649 -0.22675493 -0.17972454 0.096731916 -0.09390681 0.0008817563 -0.19693401 -0.10691308 0.0069995755 -0.019066123 -0.23111725
不 -0.05739357 0.19001235 -0.13303941 0.08107914 -0.16960992 0.15477103 0.04788044 -0.013895479 0.1077303 0.026972832 -0.3656734 0.11854267 0.06324229 -0.2568448 -0.12322122 0.10779186 -0.010837361 -0.23023319 -0.009966833 -0.07847906 -0.10293718 0.23212264 -0.20586008 0.02714402 0.032551665 0.15571754 0.124515034 0.04772725 -0.055558357 -0.07215318 0.11641759 -0.10188991 0.05370946 0.14020026 -0.21593064 -0.0483136 -0.013162734 0.0092606945 -0.19238861 0.19095051 -0.18862024 0.005174342 -0.13184266 0.12646699 -0.052652653 -0.2588667 0.20530465 0.11384848 0.15239657 -0.14844154 0.040234774 -0.078547046 0.14880127 -0.11959124 0.008924598 0.23941469 0.022414077 0.1072139 0.06679302 0.006771814 -0.1651545 0.0448467 -0.049259387 0.0062914463 0.043278478 -0.05559429 -0.0009630003 0.060308173 0.07926185 -0.23781948 -0.15224311 0.02567536 0.1319365 -0.2558375 -0.055415876 -0.32177565 -0.053399537 -0.09640695 0.038269926 0.070282675 0.15462922 0.005408543 -0.21454617 -0.0052603744 0.69568175 0.12160192 0.07061535 -0.1998415 -1.1504276 -0.17488399 0.10523245 0.094752446 -0.03535844 -0.10260957 -0.09401424 -0.030990632 0.09730518 0.04544799 -0.24239542 -0.00822944
也 0.084895745 0.0093560275 -0.0063786446 0.13370545 0.064988226 0.08311838 0.06125828 0.04284952 -0.08808303 -0.25399995 -0.17927998 -0.035438985 -0.02868573 -0.051687744 0.01027914 0.0315121 0.0565705 0.029927097 -0.069045626 -0.4652326 0.051676124 -0.023194337 -0.28179958 0.00086666236 0.01640668 0.1080224 -0.17317736 0.31086946 -0.12592497 -1.0898584e-05 -0.063352995 -0.03194191 -0.090730354 -0.012508603 -0.08829255 0.10196343 0.06444258 0.23477493 -0.22256617 -0.0318839 -0.07178492 0.15662846 -0.1284189 0.026975937 0.25370702 -0.079773486 0.117254935 -0.026506567 0.1496431 0.007982421 -0.05321023 -0.0022986021 -0.04521024 -0.07249141 0.2167109 0.2502152 0.0041974424 0.17451999 0.113348395 0.012419376 0.20791218 0.18338117 -0.1062032 -0.0073041217 -0.10160906 -0.03077072 -0.0014215445 0.0961246 0.08651493 -0.104994334 -0.016540222 0.12786353 -0.1159558 0.12354946 0.009475717 0.34587994 0.050588887 -0.089092165 0.13823152 0.13163248 0.011563331 -0.15986311 -1.2913997 -0.0033804823 -0.18050176 0.1965873 0.11741934 -0.02015476 -0.9959703 0.17910486 -0.13387878 -0.048133742 -0.020111004 -0.15747494 0.25294688 -0.11365957 0.0574551 -0.10854296 0.052203216 -0.040421136
而 0.030364675 0.12571554 0.1775232 -0.2681669 0.2118636 -0.13010204 -0.13616431 0.045202475 0.089321956 0.4566371 -0.36787823 0.040968716 -0.10536537 -0.034933824 -0.07532168 0.035405383 0.037402127 0.1310201 0.004099412 -0.20726377 0.034517877 0.0818783 -0.106814556 0.07359078 0.10768955 -0.13487463 0.044287086 0.07542283 0.13051984 0.054954384 -0.12706874 -0.0069174566 0.087375484 -0.027651438 0.06498184 -0.21203975 -0.21362616 -0.0646962 0.017722901 0.115437455 0.015803274 0.01803034 0.20107274 0.14208645 0.235356 0.14740413 -0.1345185 -0.13497728 -0.047389787 -0.035243098 -0.08319305 0.13211901 0.09613235 0.07071405 0.051061597 -0.015086088 -0.040158853 0.34373593 0.023868326 -0.12849672 0.27999046 0.24830416 0.14027274 -0.11876452 -0.15398176 -0.17467481 0.19548082 0.25640497 -0.14360416 0.1072309 0.20685473 0.13520235 0.024567163 -0.12306504 -0.265795 0.10710793 -0.04189822 0.14620729 -0.0929346 -0.022159798 0.24744317 0.111190975 -0.21353292 -0.09110385 0.3336012 0.27942625 0.24649782 -0.024446314 -1.3982195 0.16109335 -0.017327163 -0.1401888 0.17775327 -0.3386513 -0.08016448 -0.14851819 -0.05380679 0.20155361 -0.023923526 0.26734462
？ 0.1944285 -0.024613306 -0.08304566 -0.16862147 0.039211214 0.11520719 0.014551681 -0.026070405 -0.01326239 0.16130032 0.23671563 -0.02587851 -0.17639549 -0.10843293 -0.02920802 -0.10224879 0.025291096 -0.20662886 0.12109284 -0.10211879 -0.16838965 0.13310117 0.14921509 -0.04436566 -0.05672521 0.06907194 0.12181514 -0.10765021 -0.24283165 -0.007967417 -0.086735204 -0.062564775 -0.29767832 0.21752417 0.01676342 0.00063586695 0.19148582 -0.08554553 0.27476564 0.11404589 -0.09239049 0.036176074 0.4365717 0.08870029 0.2968446 -0.102233805 0.039523147 -0.25217855 0.2575031 0.35926 0.044475578 0.017706683 0.18346503 0.041152384 -0.15046377 0.3679152 0.034654453 0.07892646 0.20092534 -0.0617749 -0.16724849 -0.06554253 0.03628368 -0.11470579 -0.057464268 -0.099337764 -0.15608259 -0.12081135 -0.20633323 0.015152335 0.11214251 0.1256814 -0.087683275 0.051448975 -0.07131195 -0.36047706 -0.32980445 0.16530216 -0.11498094 0.027531752 -0.12780938 0.016889598 0.3468847 -0.00288238 -0.49648115 0.79270875 -0.4072531 -0.20227295 -1.5561384 0.124534264 0.069318324 0.30078286 0.012582738 0.2073641 0.12327474 0.001328365 0.06290206 -0.29206425 -0.24784127 -0.18790637
其 -0.097941644 -0.033248577 -0.05662516 -0.08842653 0.3303332 -0.07171345 0.030761477 0.022158667 0.011438098 -0.14471191 0.22250162 -0.077026755 -0.026285566 0.2271463 -0.0011873421 -0.06038889 -0.13580184 -0.20394535 0.07480991 -0.0026774427 0.20009306 0.1676352 0.034385365 0.17090382 0.11398102 -0.10624378 -0.048833568 -0.012924215 -0.11675492 -0.071601465 0.043122225 0.033209838 -0.22008646 0.0691178 0.16133486 -0.022516003 0.08121142 -0.051024444 -0.0011177773 -0.12881118 -0.046176963 -0.024235234 -0.20902695 -0.18198967 0.36305362 -0.12705715 0.045898404 0.1195672 0.091740124 0.04369271 -0.006137075 0.042692956 0.1725939 -0.11310138 -0.05778444 0.3355269 -0.124160655 0.46576712 0.04732448 -0.16264881 0.22876653 -0.06256051 0.18981136 0.21397457 0.14491166 0.06141437 -0.09302627 -0.031231795 0.11535604 0.020632729 0.10567475 0.12072735 -0.014696246 -0.022760805 -0.054027695 0.11788564 0.09758296 -0.11754489 0.032524932 -0.032934465 -0.17179397 0.04927754 -0.51813227 -0.13758327 0.6687599 -0.19226533 -0.14271042 0.06539889 -1.3358507 -0.15122995 0.01646336 0.023859696 0.20814663 0.07968511 -0.077332355 0.14313364 -0.2102505 -0.06858931 0.09036034 0.1888447
人 0.052220337 0.08625026 0.3155535 -0.34408495 -0.13371268 -0.033352826 0.0078588575 -0.18137436 0.1232573 -0.1856027 0.033454444 0.15503725 -0.11521371 0.11572703 0.042778227 -0.05905234 0.02995359 0.189174 -0.10629083 -0.0046050446 -0.0008094788 0.102085404 -0.06872916 -0.03578041 -0.045963544 0.2655562 0.14335802 -0.412139 -0.13991404 -0.394326 -0.041634366 -0.24318656 0.33427674 -0.22250874 0.38437316 0.19356252 0.14881858 -0.10433175 0.008320514 0.027568579 0.35835713 -0.061932713 0.15341198 -0.2190611 -0.12636615 -0.29037306 -0.023779277 -0.091779396 0.23140141 -0.015133963 0.17126006 0.08646276 0.10180469 0.118160956 -0.010317121 -0.07530769 -0.15371254 0.30729812 -0.028258508 0.039337546 0.4469943 0.019720435 0.0952451 -0.069464974 0.01601558 0.46463573 0.14590813 0.0549076 0.13863203 0.020587578 -0.112326674 0.10563132 0.10203182 0.39746282 -0.14231962 -0.558691 0.071862064 0.115805164 0.07566661 -0.13116106 0.00074881467 -0.022632495 -0.40071988 0.21387607 0.10561921 0.32236403 0.18891408 -0.11763758 -0.7465229 0.14846796 0.030537764 0.06080235 -0.06575218 0.14137398 -0.4123526 -0.2958176 0.23765984 -0.03464571 0.10746275 -0.106248766
者 -0.40246868 -0.025733955 -0.16673116 -0.044882767 0.06907611 -0.17328984 0.047256824 0.28065962 -0.13661982 0.37885287 0.15033956 0.08603222 -0.06979721 -0.12837315 -0.20949459 -0.010579203 -0.17127262 0.1771792 -0.027754428 0.061433677 0.21427283 0.3924656 0.08895019 -0.032510664 0.055293623 0.20165507 -0.1291613 -0.24012558 -0.08274257 -0.04751304 0.056593943 -0.21519987 -0.098411255 0.11140048 -0.28123155 0.24231334 -0.2611498 0.1883192 0.34166655 0.032925803 -0.085555814 -0.20848297 0.40098348 -0.116362624 0.17681953 -0.046429038 -0.07633513 -0.11078627 -0.13484271 0.44975573 0.035386194 0.08084869 -0.22013341 -0.17056385 0.3543314 -0.01122651 0.12372234 0.21555528 0.14542976 0.1360107 0.20353241 0.19333608 -0.19532281 -0.12034164 0.07219228 0.2877788 0.029847309 -0.006974886 -0.11757159 -0.03264585 -0.021034699 -0.026318628 0.33935192 0.22861668 -0.2283411 0.090385884 -0.074053906 -0.19751237 0.15985925 0.079328656 -0.24014199 -0.24395485 -0.7283081 0.05195477 0.23998474 0.69382876 0.0005548131 -0.12857094 -0.82226354 0.060073137 -0.054591924 0.12532304 -0.040918127 -0.006755229 0.14143763 -0.03680768 0.09944028 -0.138512 -0.084557466 -0.037985116
以 -0.1268799 0.12800738 -0.15443107 0.15672067 -0.06658527 0.025751745 0.3332215 -0.08921878 0.15054937 0.035524726 -0.42437503 -0.10321344 0.106209084 -0.053655513 0.015953762 -0.07355094 0.17600325 0.097485736 -0.074047394 -0.24205498 -0.10314822 0.20416504 0.2027546 -0.50522363 0.0543381 -0.29875085 -0.18182534 0.07533718 -0.031189889 -0.062018625 0.14229047 -0.18761204 -0.1937063 0.11548852 -0.022313524 -0.2157 0.04849531 -0.05775292 0.0012085611 -0.055334225 0.08381251 0.055722006 0.23508906 -0.15140831 -0.1412965 0.0819881 0.011151828 0.24145249 0.09050238 -0.1183145 0.33521384 -0.273114 -0.22495821 -0.020001996 0.20110443 -0.021981401 0.020560427 -0.7360934 -0.24487327 0.13561964 0.39262292 0.0056848335 0.08851648 -0.15083747 -0.09491716 -0.12721547 -0.25646222 0.15122995 -0.014111235 -0.230075 0.11816731 0.24593924 0.11477283 0.11242113 0.017955633 0.10952474 0.026464552 0.12242106 -0.10622457 -0.18384467 0.08034414 -0.054996163 -0.07615642 0.024877869 0.4875927 0.03160717 -0.089086585 0.046794813 -1.3047327 0.015301605 -0.044480313 0.1015821 0.138444 0.043564226 0.04955835 0.28644496 0.15186465 0.07784794 -0.07111479 0.14534326
有 0.081092626 0.19792819 -0.036132354 0.24048346 -0.27963272 0.040968586 0.1700249 0.36539006 -0.060379744 0.12033108 0.308438 -0.15352091 -0.19267619 -0.063503645 -0.031208375 -0.15373546 0.08210935 -0.09622405 0.028801905 -0.25756922 -0.10699797 -0.2775422 0.15185124 0.0106152 -0.117387466 -0.14445712 -0.003546095 -0.18499482 0.0995652 -0.628448 -0.0041784174 -0.18740653 0.23865075 -0.12690872 -0.01103295 0.06547989 -0.08692543 -0.03558271 0.27124426 -0.22669528 -0.047292788 -0.15164527 -0.16011253 0.16245854 -0.22345427 -0.029011467 -0.21002343 -0.21835843 -0.11321479 -0.05342577 0.05338655 -0.042286467 -0.45411146 -0.17707571 -0.10896404 0.06394601 -0.011415074 0.18870878 -0.24574044 0.008924919 0.39407763 -0.018327612 -0.20521376 0.34162787 -0.20225959 -0.05650911 0.03651791 -0.18325548 -0.058357988 -0.25755462 -0.0379391 -0.023034222 -0.14106101 -0.033449702 0.040528305 -0.1478693 0.13696624 -0.15452482 0.14807592 -0.21369442 -0.13803889 -0.12667577 -0.053015362 0.22522011 0.25361902 0.052883014 -0.0906056 -0.28639415 -1.0710378 -0.083448686 0.08318959 0.07401267 0.06817389 0.20838532 -0.009114756 0.008974519 0.17438541 -0.16760047 -0.047303263 0.059348483
于 0.11902802 0.12672076 -0.045589667 0.12731485 -0.048642106 0.33742106 0.049264938 -0.06221562 0.004381464 -0.32520056 0.5836858 0.0061720614 0.25201324 -0.048652593 0.10065492 0.13097234 -0.073847145 0.46401948 0.3327997 -0.24152416 0.06275321 0.17781556 -0.31741896 -0.08219581 0.2308059 -0.011118441 0.012825351 0.26550594 0.11994226 0.079158105 0.2139041 0.4140408 -0.13365176 0.19449371 0.11317366 0.055755813 -0.16160095 -0.02412008 0.066916265 -0.0019120689 -0.035822693 -0.011594799 -0.19951974 0.033244286 0.031985044 -0.120353214 0.19159758 0.3408322 0.007932446 0.03623593 -0.39072728 -0.04296192 -0.19758508 0.06933464 0.042749815 -0.11384402 -0.053117312 -0.04812811 -0.028378027 0.066567965 0.487018 0.081191346 -0.03083889 -0.16117792 -0.14433977 0.099800356 0.03955929 -0.007491261 0.0414558 -0.23879936 -0.03897243 -0.10389224 -0.1268581 0.20081785 -0.28573376 0.27844974 0.16008276 -0.27251855 0.116200924 0.059314065 0.092777066 0.15548845 0.21395409 0.0042568757 0.01775913 0.2084718 -0.16043304 0.14528519 -1.6845009 0.06927036 0.18075824 -0.072845556 -0.042467866 -0.015818596 -0.06881585 -0.14187676 -0.112507194 0.042232748 0.15568386 0.10064709
矣 -0.25104856 0.15403254 0.013630334 -0.16801108 -0.3172466 -0.10073927 -0.010726046 -0.32594848 -0.05336673 0.01635132 0.031801056 0.05676453 0.21364865 0.070761666 0.102440715 0.254784 0.16547966 0.27787134 0.080784954 -0.23024641 0.0087500345 0.23146093 -0.06382082 0.24092767 0.032976557 0.13889237 0.029351488 -0.16747402 0.09363098 0.257308 -0.17762837 -0.2624248 0.018909236 -0.054811645 0.17313083 0.20268829 0.07774047 0.15091485 0.18362279 -0.06204403 -0.05120739 -0.066184945 0.23810835 -0.0069546164 -0.09414213 0.16853692 -0.2894177 0.3671042 0.18089487 0.11204869 0.15872169 -0.203948 -0.115910135 -0.07475649 -0.007643159 0.054377165 -0.012022827 0.26048377 -0.06528778 -0.3594803 0.9374072 -0.2473649 0.26409623 -0.23362334 0.05253953 -0.13153824 0.009762644 -0.13379179 0.13773333 0.17556447 -0.1582193 -0.15483934 0.023210138 -0.35968247 0.18298525 0.009218015 0.010653167 -0.27057275 -0.17157419 0.33091432 0.055751383 0.097151846 -1.4482045 -0.24760982 -0.3088162 0.44087136 0.108457975 0.33235833 -0.9819809 -0.13931769 -0.050355557 0.1504575 -0.17889747 -0.0015874151 -0.052686427 0.293091 0.18318214 0.20032053 0.003199954 0.28591144
为 -0.0739839 -0.054080047 -0.0891859 -0.0649777 -0.18472092 -0.09763011 0.03233285 0.1595855 -0.17638077 -0.38364214 -0.43509737 -0.003816158 -0.12068516 -0.124953255 0.12553538 0.13848585 0.06728031 0.15880379 -0.0036912784 -0.047082953 -0.3261512 0.070421554 0.14288113 0.19937375 -0.11443234 0.28409064 -0.14309733 0.14509833 0.06788292 -0.29326752 -0.13790686 0.07673633 -0.5334952 -0.24654424 -0.0070922673 -0.06789466 -0.26133454 0.043565158 -0.039015435 0.008941981 0.093049146 -0.097342506 0.40066004 0.043029472 -0.1767426 -0.15771154 0.08223234 0.20602804 -0.19801399 -0.18737863 -0.29185513 0.0054818974 0.19258186 -0.069560885 0.13834481 -0.030589024 -0.095045686 -0.5238144 0.09690152 0.0062245713 0.49042788 -0.15648188 0.32345882 0.19905117 0.009394167 0.10569009 -0.045519885 -0.050138142 -0.0858178 0.10389475 0.3804295 0.07572071 -0.04150297 0.22510171 0.4055376 -0.5524449 -0.20831259 -0.27659568 0.015654378 0.007535672 -0.012267876 -0.04203699 0.030160451 0.075407445 0.12160476 0.6039356 0.13262442 -0.11686228 -0.98149276 0.30318865 -0.19094436 0.0881934 0.1670434 0.110539086 -0.06456429 -0.05772233 0.11792876 -0.16014247 -0.17872973 -0.05718401
君 -0.02548117 0.023727052 -0.059275392 -0.6434927 0.009051662 0.17373969 -0.2920768 0.2187759 -0.08386549 -0.14431977 0.5379109 -0.04639793 -0.32365248 0.12491738 0.08092053 -0.22099152 -0.0627263 -0.14947979 -0.085709885 -0.36828357 0.17851175 0.04506108 -0.35059583 0.41872686 0.21197395 0.2379046 0.3063139 0.19094917 0.004490556 -0.24884914 -0.19122738 0.31058732 -0.3169009 -0.13303176 0.013603184 0.27112383 0.024808 0.20546265 0.10312011 0.046201132 0.52876616 -0.10617666 -0.30380186 0.0056161503 -0.21220501 -0.061080746 -0.059333205 0.14617045 0.079565994 0.078772396 0.021131149 -0.07027352 0.32444504 -0.30233535 0.08001391 0.3858414 -0.17306855 -0.5267105 -0.08391776 0.01477638 0.09645656 0.12708543 -0.09393045 -0.21577501 0.08352672 -0.1409505 0.30829003 -0.057999846 -0.054139923 -0.3540219 0.043703903 0.41297638 -0.053791445 -0.014213254 -0.11459299 -0.81485647 -0.13108867 0.07130886 -0.040767167 -0.06497014 0.050620962 0.046175938 -0.32602635 0.079802446 0.10150059 0.027942806 0.005186794 0.10324124 -1.0888958 -0.19993766 -0.26744816 -0.08598786 0.043423604 0.20284267 0.27788547 0.0046748524 0.05380457 0.45089522 -0.20724839 -0.24650143
乎 -0.26656526 -0.39817542 0.069945835 -0.12866399 -0.042424742 -0.10768424 -0.012839126 0.07380182 -0.19622052 0.3290337 -0.09656795 -0.09499907 -0.27437422 0.03210727 0.020988366 -0.16671687 0.08341797 0.23226036 -0.094678685 -0.38223484 0.11714967 -0.02999658 -0.025102055 0.19760197 -0.0008989272 -0.020962989 -0.0987423 -0.30120322 -0.18968567 -0.047524836 0.018882731 0.073104404 0.25068408 -0.08175688 -0.04354298 -0.10034226 0.21471937 -0.27451724 -0.08029614 0.05627471 -0.54566455 -0.08797238 -0.021311076 -0.012991861 0.3439289 -0.13810486 -0.09929278 -0.032078806 -0.1095144 0.07348337 0.031451326 0.026677577 -0.19181816 0.039254714 -0.19865102 -0.114897594 0.22029682 -0.36051872 0.3404415 -0.019482706 0.815575 -0.34115952 0.30183333 -0.23403539 0.18551226 -0.07258259 -0.08547413 0.114814 0.06669613 -0.21253818 -0.35401905 -0.053276278 0.086568795 0.059028815 -0.02226014 0.13903397 -0.10241714 -0.18698144 0.18183383 0.07519215 0.29912013 -0.20233124 -0.02140475 -0.09864843 -0.1844598 0.27312508 -0.29082552 0.030765656 -1.4834766 0.024516076 -0.120529875 -0.048251092 -0.23559318 0.2309484 -0.2169309 0.12364055 0.16795723 -0.30303353 0.0376182 0.073266536
可 0.1307848 0.049592186 0.20460641 -0.15722279 0.08483939 -0.1045749 0.19863795 -0.2397238 0.029905131 -0.11340906 -0.33285365 0.14855026 0.10811087 0.6087316 -0.033924956 -0.07521467 -0.18689471 -0.12720408 -0.2316024 -0.17442538 0.0023188242 -0.34279412 -0.0811543 0.106189676 -0.044171695 0.0898279 -0.04959177 0.03631271 0.36899573 0.14592823 0.3000613 0.22159667 -0.03247638 0.096234664 0.3356222 0.06328976 0.55662906 0.008497247 -0.35102427 -0.053407915 -0.14670323 0.0021829638 0.14782086 0.42498636 0.035061754 0.13221672 0.21124783 -0.28669453 0.2580639 -0.016204236 -0.009898552 -0.207981 -0.2933951 -0.14277449 0.2179858 0.30143574 -0.2824133 -0.10224998 -0.029747514 0.03085989 0.03243321 -0.007268081 0.0006772983 -0.16463919 0.43856657 0.04078678 0.1863694 -0.100673 -0.12941702 -0.0019576433 0.2782495 -0.18650213 0.29669318 0.27757475 -0.092049815 -0.62797743 0.050274916 0.30832195 0.106068596 -0.1300127 0.22342755 -0.09951471 -0.60395753 0.20135781 0.71828455 0.3981959 0.06765661 0.05056867 -0.827669 -0.065668255 0.26210734 -0.07848011 0.01711545 -0.09674727 0.09156337 -0.3050377 0.22049832 -0.18883362 0.18309052 0.18092395
如 -0.016952291 -0.06781286 0.27643722 0.21562056 0.114007495 0.054478575 0.08096202 0.1951243 -0.17220065 0.17973353 0.07625359 -0.06969574 0.041883677 0.0056455224 -0.01429132 0.12980194 0.31118727 0.14823142 0.030573655 -0.19480105 -0.12089342 0.06066417 -0.11284274 -0.24187118 -0.13563089 5.9013444e-05 0.04134723 0.0809027 -0.22277388 0.15031148 0.13057685 -0.41396594 -0.015917234 -0.1672692 -0.11606988 0.19174893 0.03819463 -0.07544622 0.47020566 -0.25948855 0.10364345 0.15482844 0.06469549 -0.24407253 0.029107064 -0.06702668 0.06393426 -0.09481378 -0.044009034 0.1957337 -0.2483971 0.1306417 -0.05335411 0.017984023 -0.028694436 -0.06679478 -0.32534698 -0.07756264 -0.4048694 0.15992525 0.18086691 -0.40508342 -0.44883388 0.11104455 -0.33549827 0.027572954 0.02420076 0.43129596 -0.1931825 0.16830611 -0.048410617 0.11433146 -0.09633477 0.1892066 -0.06125055 -0.6656829 -0.20671532 -0.06909957 0.50803113 -0.020565916 -0.020288609 -0.16118096 -0.4774514 -0.029105052 0.26318502 0.7014808 -0.048297323 0.31989577 -0.83175915 0.20130418 -0.015668523 -0.32537735 -0.07448388 0.33493763 0.11113104 0.39083308 -0.6211754 0.4283399 -0.046031002 -0.20291507
与 0.14448984 0.114133984 -0.12292677 0.084121525 -0.35222667 -0.33138493 -0.19150081 0.3120067 0.061081048 0.09471359 -0.5819037 -0.10362128 0.08778442 -0.10442094 0.5383803 -0.18693934 0.14184985 -0.16828784 -0.17457171 -0.40754494 0.31882384 0.04515498 0.067277156 -0.06382548 0.027727244 -0.42095873 -0.18378448 -0.15172476 0.058271166 0.24968722 -0.08516632 0.2853569 0.062395718 0.1353318 -0.2119264 0.09863086 -0.09439544 0.1789426 -0.34225112 -0.50908583 -0.09388998 0.18744111 -0.0022787163 -0.12285019 -0.2266106 -0.36503258 0.10440209 0.10307824 -0.08410605 -0.032264102 -0.1688542 0.13345419 -0.031087492 -0.2392926 0.04909177 0.36924082 0.05497159 0.009790545 0.2944174 -0.03057887 0.34760278 0.3126169 0.034460314 0.21625248 0.17099829 0.2616378 -0.0058121053 -0.008124478 -0.1480294 -0.11711642 -0.08180527 -0.081603855 -0.10322133 0.3181261 -0.30933502 -0.69027543 0.041808255 0.09049769 0.048162714 -0.12805483 -0.05763227 0.12516877 -0.49899584 -0.111104816 -0.11481878 0.5041839 0.07661384 0.21697903 -0.86016685 0.023667218 -0.13983025 0.105612904 -0.048905108 0.37399736 -0.16535814 -0.017849054 0.18130094 0.09387052 -0.022219686 -0.3087743
； -0.7086658 -0.2694366 0.10914849 0.20567317 0.13841842 -0.050411273 0.33057785 0.23420289 0.2915239 0.15522382 0.0055968477 0.20258912 0.32063967 0.13672331 -0.07695024 -0.1590459 -0.050258994 0.23926204 0.11139191 0.30746514 -0.023983967 -0.3488428 0.011686218 0.09878843 -0.07331366 -0.09425288 0.07957576 -0.15130833 -0.1573115 0.093072295 0.057565093 -0.055625275 -0.2352094 0.03742031 0.01865572 0.19128291 -0.005441962 -0.01025246 -0.0643398 -0.14007305 0.13737908 0.017294057 0.25366127 0.33128485 0.039603177 0.06406051 0.14151675 -0.29469737 0.30763724 -0.37757784 0.0069247438 0.07097824 0.14783531 -0.08157955 -0.17245242 -0.1232452 0.032874063 0.35487458 -0.05110947 0.023047289 -0.019569375 -0.10718841 0.29311606 -0.007559206 -0.23054275 -0.044426557 0.06705479 0.25304955 0.22707765 -0.39902753 -0.10461401 0.2625422 0.0865088 0.04379825 0.13594227 -0.14260647 0.36745742 0.14527304 0.4071349 -0.028335292 -0.040684022 0.15955234 0.021496968 0.2137709 0.08131891 0.8807304 -0.0629199 0.030437611 -1.2692599 -0.059620727 0.15619679 -0.0045398185 0.15290415 -0.19724672 0.36569145 0.38014024 0.17166117 -0.07634652 0.20203844 -0.11435501
言 -0.045502294 0.2084247 0.18334645 -0.3418287 -0.24129073 -0.120878786 0.45581004 -0.23795737 0.34472808 -0.27941406 -0.077775486 -0.119578764 0.5935166 -0.12414749 -0.30069834 0.11549033 0.09265922 -0.07171852 0.18822278 0.22839044 -0.0017515859 -0.20024858 -0.06632203 0.14543165 0.0014485518 -0.029023882 -0.021154312 -0.043828297 0.36250234 -0.11679367 -0.20904544 -0.13333179 -0.0002583636 -0.01748379 0.20868963 0.042193204 -0.19999005 0.11095972 0.03917786 -0.17586298 -0.12199792 0.09036886 0.009864288 -0.021831917 0.08879179 0.2470711 0.060909405 0.1309767 0.32318857 0.113748536 -0.103860766 0.016091164 -0.24954261 -0.037572034 -0.13879572 0.08044998 0.022896906 -0.21381998 -0.029936278 -0.15889455 0.154663 0.17797299 0.10622088 -0.12588523 0.14458749 -0.231643 -0.05045044 -0.07019163 -0.21775809 0.22263914 -0.26261878 0.12829293 0.0897527 -0.072754204 0.107970566 -0.65799713 -0.01511728 0.5879223 -0.45160103 -0.070894085 0.11309865 0.2265584 -0.6549712 0.30557784 0.14812551 0.45248562 0.013825561 -0.06298876 -0.6594075 0.1603916 -0.09214725 -0.4710953 0.07623022 0.20598766 -0.07235768 0.4033481 0.14162228 -0.00628879 -0.097287886 -0.005929164
无 0.34953365 -0.088704735 -0.18117064 0.24810885 -0.12805764 -0.09751792 -0.013312989 -0.046567786 0.02712134 -0.25393423 0.009641846 -0.1825409 0.16163476 -0.15800361 0.23606245 -0.10919017 -0.0146041075 -0.16355251 -0.14888783 -0.29769093 0.19515269 0.1613935 0.15173677 0.1704664 -0.25444064 -0.120016016 0.19231863 -0.19012395 -0.083492644 -0.27629554 -0.14115983 0.0020125562 0.36597887 -0.018685015 0.049026217 0.521832 -0.06486158 0.09637583 -0.20589615 -0.12766695 -0.17516306 -0.06033921 0.24041985 -0.23131628 0.13099633 0.04011226 0.17568263 0.14187999 -0.17175514 0.2527311 0.1727011 -0.062377453 0.06641075 0.034454364 0.052444894 -0.3042975 0.03818506 -0.3403023 0.3700047 0.06781974 0.021713682 -0.22005557 -0.109553546 -0.40574467 -0.01139413 -0.11296431 -0.015752625 0.22623673 0.22019944 0.115439944 -0.08264283 -0.09766265 -0.30749533 -0.28282234 -0.11857094 -0.32276145 0.27894655 -0.33889505 0.020213276 0.18479474 -0.17684585 0.16703278 -0.19515242 -0.07520641 0.88084906 0.101847924 -0.048553627 0.060112778 -1.2654691 -0.1076586 -0.30080184 0.061674234 -0.15457287 -0.17658427 0.15608875 0.0007619832 -0.0032653057 -0.17807409 -0.06392075 0.098805316
则 0.06451322 -0.1391039 -0.07449099 0.06241808 -0.11882169 0.11100236 0.082799055 -0.23752554 0.097122245 -0.36131665 0.083988264 0.23207697 0.24625291 -0.0067116464 -0.18800032 -0.010210591 0.1013059 0.1635848 0.030296782 0.0537696 0.4390525 -0.11358118 -0.4458734 -0.19577217 0.27367952 0.111132346 -0.2509779 -0.34039906 -0.051180143 0.23348525 -0.15181586 0.11517236 0.2328093 -0.070500635 0.3764654 0.038007554 -0.37127072 0.009236747 -0.08005805 0.106800735 0.17651293 0.031699587 -0.12417072 -0.017712625 0.5020038 0.09316141 -0.12937775 -0.20924808 -0.011504266 0.28927004 0.2915882 0.088750534 0.3542302 -0.035416897 0.33193362 0.10329974 -0.112054996 -0.5709838 -0.1604912 -0.16298044 0.017329318 -0.08257278 0.28964853 -0.23609485 -0.05880968 -0.046308756 0.09545076 0.12944888 0.013632933 -0.033759907 -0.082722135 0.079115115 0.23243226 -0.2039218 -0.107761286 0.33167535 -0.05164999 -0.14512481 0.32039478 0.07027798 0.07663134 -0.07745748 -0.4020286 -0.15971811 0.5667144 0.65573984 -0.16918191 0.04613324 -1.1920117 0.2486593 -0.05319042 0.27948663 0.043959808 0.017572159 -0.23227906 0.16190806 0.03270998 0.02667032 0.04477274 -0.16406646
！ -0.026785422 0.10248369 -0.054851085 0.0861811 -0.20862542 -0.07309811 -0.006593228 -0.34170344 0.035003778 0.27845287 0.14125142 0.050999966 0.20996208 0.14572965 -0.10894914 -0.1567899 -0.4720271 -0.003826738 -0.25462973 -0.15216756 -0.19035375 0.0892801 -0.043800883 0.14005461 -0.10635826 -0.018221607 0.023607245 0.19423528 0.18293566 -0.025778076 -0.31395715 0.12464145 -0.071604274 0.32465506 -0.07517325 0.06307734 0.32392463 -0.13525017 -0.17666635 0.07065209 0.22619604 0.18035856 -0.08854909 -0.074260354 0.15483692 0.3615075 -0.28708294 0.3257406 0.18644336 -0.027008235 0.20648544 0.021042738 0.016522404 0.013779521 0.26073417 0.01935685 -0.30723244 0.09235285 0.0046880515 0.10385069 0.25371352 -0.048525214 -0.25730982 0.012057644 0.027105166 -0.1331051 -0.15300837 0.19153647 -0.007320953 0.0076284567 0.39543334 -0.0067845224 -0.10463728 0.15801565 -0.14203854 -0.7114906 -0.0018783981 0.33857742 0.19908614 0.24256542 -0.13142611 -0.010309663 0.5474752 -0.020551238 -0.6684293 1.103355 -0.12955041 0.12486384 -1.3180693 -0.09718794 -0.14167404 0.07531451 -0.06694043 0.0722721 0.12414882 0.08345939 -0.15395907 -0.36944723 -0.034947343 -0.11897127
问 -0.23860776 0.28123704 0.20162782 0.2746272 -0.0838425 0.4052854 0.13071658 0.07368076 -0.13621113 -0.06802462 0.39418212 -0.11683653 0.20507228 0.09993273 -0.009986784 0.072373606 0.15424101 0.20891233 0.048809633 -0.110420674 0.2044403 0.3538327 0.038407195 -0.11341051 -0.07402619 0.16100441 0.005963566 -0.35038903 -0.054641016 -0.5169843 -0.1794077 0.019230334 -0.5096144 -0.10423146 -0.12761182 -0.2354213 -0.2926069 -0.23867469 0.06244043 0.023044711 0.03993472 -0.03557497 -0.18121827 -0.0781199 0.10450033 -0.08910718 -0.13652922 0.12249607 -0.11328623 -0.04894791 0.1900763 0.13454863 0.39694884 -0.104228236 -0.0032549468 -0.30858105 0.3129788 -0.3567783 0.15958516 0.23700564 0.17854704 0.028517809 0.026412351 0.15903006 -0.071945876 0.006661861 -0.3309627 -0.45259067 0.22345442 0.12646057 -0.12095557 -0.29265735 -0.16957086 -0.14821802 -0.3633281 -0.49685562 0.082474925 0.25224853 -0.024814632 0.17094727 0.08325865 -0.04958459 -0.3002712 -0.14355394 -0.022384048 0.14715312 0.1977265 -0.07708138 -1.1187191 0.07774683 0.06832063 0.11306647 -0.3410142 0.009388 0.12708129 -0.08451439 0.005764369 0.03599167 -0.2143096 -0.109037384
知 0.07305389 0.037221428 0.13403727 0.26104254 0.31057888 -0.029867362 0.08537943 -0.07536422 -0.10701221 -0.07175764 -0.3451177 0.35977188 -0.07901744 -0.004714197 0.022716982 0.08266249 -0.38896358 -0.13572371 -0.13762398 -0.6251254 0.064325355 -0.21731001 0.00050047546 0.085231856 -0.071404405 0.07235998 -0.094845295 0.031876083 0.14405443 -0.1731127 -0.098990545 -0.04964566 0.07293826 0.54038954 0.23385252 0.10517672 -0.11158948 0.06814785 0.07391476 -0.050865877 -0.19851895 -0.20899291 -0.26002353 -0.30930707 0.03904726 0.079876505 -0.03476896 -0.13794129 0.08073864 -0.13416445 -0.17511384 0.17055818 -0.1287523 -0.21249144 0.29647058 0.029649088 0.0599538 -0.45249617 -0.11356372 0.1293374 0.47059804 0.25715506 0.17611751 0.31541342 0.042690724 0.07893143 -0.2883262 -0.1836689 -0.044143602 -0.07929893 0.28192762 -0.27444348 -0.10300001 -0.0061526527 -0.0072810906 -0.5140775 0.2499898 0.21569857 -0.05337924 0.13778783 0.07141537 0.14378771 -0.29253966 0.13357443 0.3367923 0.99797016 0.3210814 0.26838645 -0.48809862 -0.0040400117 0.33363605 -0.051873554 0.08090201 0.12505265 0.2549389 0.2147584 -0.116719216 -0.013081488 0.044627327 0.33907714
何 0.6850646 -0.23904257 -0.079073936 0.30923435 -0.1454161 -0.12798306 0.0073536853 -0.05421861 0.22571503 -0.019052133 0.11795456 -0.10760292 0.03407538 -0.2969511 -0.23106124 0.22726439 -0.27323258 -0.45636976 0.2911303 -0.3636574 -0.19721113 -0.048234463 0.021374643 0.17661355 0.19320667 0.1390079 0.16242242 -0.059947472 0.23951706 0.05742165 0.20283379 0.009206297 -0.1683542 -0.16437249 -0.03261577 0.1510991 -0.027956346 0.26919392 -0.0020360453 -0.18941203 -0.33287755 -0.15028152 0.105538234 -0.21013437 -0.16566637 -0.10067961 0.067521065 -0.1574608 -0.25636393 0.03204812 0.0268953 -0.3181946 0.1131106 0.32837084 -0.29490146 0.06723713 0.11987769 -0.39549777 0.32773116 0.2322708 0.5919662 -0.12929206 -0.10245429 0.15972906 0.24252737 0.13145679 0.31957924 -0.15815184 -0.12042292 -0.09826761 0.011154024 -0.010337477 0.091176316 -0.4196417 0.056908265 -0.643892 0.24323374 0.26623133 0.17443392 -0.14617023 0.029297523 -0.27840853 -0.25482294 -0.2352265 -0.027574064 0.39931697 0.08277771 0.35373163 -0.926354 0.1585985 -0.11935729 0.16345856 0.087414615 0.43181098 0.100367114 0.00735294 0.010740202 0.1268323 -0.07606996 -0.09578116
吾 -0.085150845 -0.22084726 -0.16811848 -0.23934567 -0.25668538 -0.19125798 0.050833184 -0.16427995 0.08444549 0.05894853 0.04061934 -0.045386963 0.0050111203 0.32078734 -0.10551219 -0.32020894 0.0875476 0.019778378 -0.20330025 -0.2719854 0.3836801 -0.3591245 -0.19864589 -0.19308896 -0.043633685 0.4460648 -0.32979 -0.21105112 0.010188766 -0.029813452 0.05254965 -0.1429914 0.24770972 0.12072354 0.03823051 -0.35364807 0.16175653 0.15197675 0.29962343 -0.035263058 -0.00753623 -0.20777176 0.028318264 0.27584815 0.104651645 -0.3124777 -0.24725953 -0.30926797 -0.108453475 -0.36312494 -0.24128796 -0.10126136 0.112313084 0.2583105 -0.049704336 0.11074611 -0.19556405 -0.11284524 -0.037109315 0.13360538 -0.034254003 -0.23648483 -0.07883542 -0.1510924 0.17109019 -0.059461486 -0.32160679 -0.18448001 -0.32655263 0.29210427 0.23185377 -0.15380313 -0.2287439 0.19281055 -0.12018427 -0.4250202 -0.016690401 0.17432189 -0.028629845 0.16909043 -0.019593563 -0.33791423 -0.62438256 -0.041119944 0.8530666 0.08418456 -0.24536255 0.4818176 -0.899085 -0.10158678 -0.21297036 -0.21993214 0.05803022 0.04665718 0.24537821 0.1301474 -0.010103739 -0.50174767 0.25434482 0.3845992
仁 0.22721708 -0.01226922 0.30577567 -0.40517545 0.032983374 -0.3126638 0.2558178 0.1713772 -0.17941555 0.016206477 0.35588494 0.16642953 -0.11369219 -0.1669466 0.25255543 0.11053361 -0.37164837 -0.27412963 -0.030358434 0.08859627 -0.07066196 -0.45981514 0.110840015 0.006434852 0.13867082 -0.06963937 -0.24484347 -0.11306679 -0.06569964 0.079171866 0.06570927 -0.0948572 -0.11124712 -0.016116384 0.004466841 -0.13208751 -0.062054038 -0.2539737 -0.014721092 0.40908062 -0.16039209 0.110918105 0.21584564 -0.14960463 -0.04969863 0.03325429 0.104246825 0.3067849 0.2029964 -0.15237258 0.057893645 -0.06859268 0.06653409 -0.20874903 -0.22958268 0.2094795 0.18368472 0.115965195 0.10672859 0.0074250647 0.29514474 0.08246537 0.20307493 0.07186917 0.5081617 0.009980619 -0.15675727 -0.093562886 -0.11925308 0.044815492 -0.2736276 -0.22077596 -0.059296235 0.22197998 -0.42340413 -0.5084737 0.034084354 0.19531587 0.38805196 0.073643744 0.24608693 -0.066092566 -0.95625854 0.18807188 0.29819328 0.41389522 0.03375765 0.43499646 -0.57644653 0.09479503 0.450465 0.16443233 -0.032377366 -0.2188829 -0.26489225 -0.3446315 0.007726206 0.09520806 -0.19929814 -0.10172113
夫 -0.040385325 0.006147909 0.2879465 0.109672345 -0.13105968 0.31675056 -0.15490764 -0.13943939 -0.22601306 0.45928457 0.9741188 0.07911983 -0.1077996 0.20508353 0.29294226 -0.1848242 -0.13035223 0.06297176 -0.036708567 -0.18821652 -0.06161835 -0.14296572 -0.001423688 -0.20236135 0.44269308 0.022980453 0.15736972 0.06867985 -0.42326137 0.30354184 -0.16334319 0.13822022 -0.4118387 0.08161728 -0.103090055 0.2124327 0.13891502 0.10831921 0.23692986 0.10184125 0.37664154 -0.1590732 -0.0822146 0.24168387 -0.013140158 -0.4383074 0.16120592 0.1233303 0.12729582 -0.042241648 0.20404607 0.20496844 0.16186193 0.06341815 0.31428972 0.23114012 -0.016371438 -0.6263426 0.061608497 -0.27976972 0.39732882 -0.33961722 -0.022111297 0.45742255 0.2932893 -0.30217245 -0.077325046 0.06497074 0.024555879 -0.13995698 -0.10879729 0.00132747 0.002245276 -0.005874285 0.067275904 -0.2336724 -0.13698968 -0.08157765 -0.24510057 0.11154386 -0.14165758 0.036485687 -0.44908056 0.13690741 0.066208676 0.10659567 -0.1857109 -0.23304977 -1.009861 -0.3738293 -0.101285025 -0.30238408 0.07002178 0.07446519 0.07525396 0.24148335 0.15946612 -0.1815906 0.16772856 0.06907349
、 0.12617426 0.2214554 -0.019351127 0.25772598 0.026976738 -0.09783079 0.008077944 0.029732442 -0.3134642 0.018816264 0.15150124 0.15974535 0.04959504 0.21205406 -0.4593848 0.06728203 0.41671297 -0.016621888 -0.072169565 0.39202946 0.4055291 0.053827424 -0.15520857 -0.120876916 -0.09713461 0.17023554 -0.02906467 0.20797437 0.15082765 -0.050418716 -0.024131302 -0.08279327 0.14926226 0.066263646 -0.0069366577 -0.15352917 -0.36951673 0.12227074 -0.014280301 -0.061248437 -0.26906705 0.33453712 0.04742702 -0.16839904 -0.15264761 0.0002518338 0.010105324 -0.10494978 0.045903295 -0.32244644 -0.32708436 0.0036659783 -0.35271314 -0.2808594 -0.17956911 -0.021596638 0.6431329 0.020622002 0.3683428 -0.077563755 0.058804825 -0.3702981 -0.20119272 0.055308394 0.021444624 -0.15308201 -0.020605044 -0.06564889 -0.05240169 0.24947046 0.25858647 0.28996536 0.06370233 -0.326769 0.5105781 -0.14786138 0.15391886 -0.040385284 0.0826647 -0.06899881 -0.34251547 0.03961563 0.1343252 0.0064498247 -0.10417387 0.5638027 -0.3293295 -0.23444486 -1.7179456 0.35038558 -0.14405857 -0.18380581 0.16245607 -0.29721656 -0.053569768 -0.16624868 0.31025013 -0.0974507 0.1552938 -0.1219377
道 0.37047789 -0.36121115 -0.031601112 -0.17067872 0.13078634 0.015259642 0.28089985 -0.050093606 0.12227125 0.26793638 0.007945923 0.16517626 0.25146982 0.09951 -0.046220016 -0.007273264 0.05793777 -0.33963567 0.40849218 0.18075097 0.2653598 0.36913022 -0.3405573 -0.050340448 0.08633649 0.22563967 0.09021363 -0.15071356 0.10677898 -0.08758563 0.1886059 -0.18111663 0.26782295 0.29027903 0.11888205 -0.1584238 0.118547656 -0.20599739 0.5170034 0.07888643 0.012615812 0.030647455 0.13938858 0.082835905 -0.08907133 -0.16334148 -0.1631943 0.043198887 -0.15023609 -0.1343968 -0.028064389 0.42984408 0.12917748 0.15350197 -0.2281909 0.33675086 0.1535777 -0.31762418 -0.2969958 -0.05866602 0.2799293 -0.14370626 -0.10938696 0.3602438 0.10558327 -0.27719542 0.09726044 0.1919682 -0.10965254 0.14865226 -0.10121489 -0.25202236 -0.48465005 0.23106258 0.15981454 -0.34659642 0.038638256 -0.027227903 -0.40786996 0.0118263075 -0.25722113 0.033585098 -0.4706942 0.254094 0.6512173 0.68729514 0.31552157 0.034057762 -0.6489855 -0.12145912 -0.18760738 0.03807457 0.0037386385 0.12511821 0.04668406 -0.53507113 0.17537698 0.14070548 -0.19506758 -0.23600319
焉 -0.06687801 0.381845 0.28270382 0.15421176 -0.26578164 -0.07453965 -0.019468706 -0.042272788 -0.39459515 0.11004806 -0.1654961 0.06151798 -0.043723103 -0.099468224 0.020425107 0.06539002 0.6779217 0.027954936 0.16148877 -0.32409924 0.058141775 -0.3086764 -0.22264722 0.05933731 0.06595641 -0.3808437 0.17811419 0.39182398 -0.4895754 0.23032378 0.054847226 0.03671742 -0.27322102 -0.083152436 0.18208113 0.13228528 -0.12611414 0.13873088 0.1343294 0.13584162 0.30875185 0.14579016 -0.17612034 0.08734922 0.15051226 -0.24621862 -0.2780255 0.43837717 -0.15034944 0.18522698 0.010032296 0.105036 0.053309515 -0.09559241 -0.56370544 -0.14605571 0.0528568 -0.008626228 -0.15587221 0.07120217 0.23657356 -0.06727159 -0.055338655 0.06816391 0.22476389 0.14333613 0.11846529 -0.29314825 0.058034502 -0.020445062 -0.4087509 -0.11429255 0.277965 -0.33426297 -0.58326375 -0.3431188 -0.09581501 -0.33126706 -0.20044798 0.024059694 0.15824383 0.046426643 -1.1554947 0.07035915 0.49058682 0.04946379 0.07984537 0.3917333 -1.0256766 0.16675988 -0.043518923 -0.014124774 -0.14981845 -0.1544581 -0.133974 -0.26453662 -0.12547715 -0.38528642 0.11082507 -0.21574344
行 -0.056392085 0.010936189 0.0813458 -0.3075043 -0.29091775 0.4042037 0.0065134005 0.033502765 -0.033266034 0.1166726 0.0687697 0.12176581 0.26307073 0.3291787 0.122516654 0.26558882 -0.12577325 -0.08790852 -0.2579261 0.031518944 -0.32626665 -0.06879497 0.13645475 -0.00038136606 -0.13868676 0.037773814 0.023262875 0.027904844 -0.290006 -0.28797197 -0.1224656 -0.10437969 0.033168767 -0.016326737 -0.035235614 0.2074337 0.2808052 -0.24114853 -0.0056148926 0.45679668 -0.23953396 0.00061847735 -0.34793258 -0.03676103 -0.374237 0.009367042 -0.2105253 -0.19067423 -0.05415713 0.037566714 0.28013736 0.21566202 -0.36557838 -0.33422065 -0.12273822 -0.040010624 -0.19105941 -0.10346971 0.17646968 0.1646198 0.39131743 0.47868866 0.17718536 0.122849695 0.09417117 -0.30569983 0.14911792 -0.17310402 0.1566624 0.24201638 0.27399153 0.09106547 0.090792716 0.1431363 0.18921544 -0.5283433 0.032731418 -0.03485257 -0.10235875 -0.28094095 0.37765634 0.064211905 -0.41617244 -0.24996825 0.53336346 0.7850154 0.1407395 0.26643947 -0.53731346 0.20179424 -0.17933352 0.22903335 -0.0028377883 -0.46297753 0.042769875 -0.19766538 -0.08643892 -0.116521075 0.24780178 -0.13885476
谓 -0.035057623 0.41462323 -0.025710901 0.17854078 0.012030329 -0.010638119 -0.26217085 0.0041789925 0.010558592 -0.37127087 0.335728 -0.48261374 0.07179333 -0.14595728 -0.03944587 -0.015290435 0.6127394 0.13689364 -0.22796112 -0.043512087 0.012445771 0.25945368 0.11515897 -0.21038392 0.048221193 0.12434381 -0.1058618 -0.022372507 -0.3171601 0.48419595 0.0890087 0.10976142 -0.4057075 -0.13762386 0.07958144 0.15772237 -0.1952743 0.059122503 0.20996083 -0.4424373 0.012652449 0.35051352 0.11587284 0.2508792 0.19035432 -0.18783714 0.06658827 0.13277732 0.16199005 0.2818596 0.2753749 -0.2216417 -0.5160929 -0.015988812 0.27996248 0.07132485 -0.07192884 -0.027738063 0.28351858 0.12615995 0.33122224 -0.2167531 -0.27769065 0.284194 0.29666695 0.16666591 -0.061992165 -0.18764642 0.32961076 -0.15692016 0.43012294 -0.33585668 0.2782411 -0.20903465 0.19258392 -0.717766 -0.029514236 0.029445004 0.15545715 -0.22542289 0.28020668 -0.008588529 -0.30741772 0.14572087 -0.17124139 0.7617512 -0.08452433 -0.115731485 -0.9837568 0.009299495 -0.22148608 -0.26580665 0.111105256 -0.14602518 -0.44323054 -0.12634113 0.06954508 0.38886616 0.066613436 0.5589034
必 -0.24513248 0.34438956 0.15462862 0.03944756 0.18936282 0.06625918 -0.11820771 0.21670762 0.07774172 -0.31085184 0.24792387 0.19376856 -0.064840525 0.018199772 -0.16963843 -0.23240265 0.05345144 -0.33094227 0.06785088 0.58739567 -0.089531235 -0.033222657 0.27243578 0.18818843 0.08374443 0.23243889 -0.46767485 0.16835196 0.03391649 -0.17657365 -0.35683128 0.25146282 0.18650909 0.13168298 -0.17614624 0.11948207 -0.1443052 0.014518479 0.19090872 -0.4495531 -0.13050279 0.12474392 0.29065162 -0.2885863 0.38861662 -0.040158104 0.20279987 -0.043656588 -0.08294979 0.030007381 0.23014031 0.009567561 0.18085028 -0.06085733 -0.069911145 -0.0007683026 -0.31451198 -0.33013418 -0.12217036 -0.17279476 0.26587167 -0.60882246 0.10239532 -0.4397507 0.010253472 -0.341766 0.24052973 -0.20455395 0.10455229 -0.1361324 0.075737104 -0.012945 -0.06783507 -0.24513853 -0.28905657 -0.20348698 -0.052276846 0.3407045 0.1022436 -0.19464229 0.29359162 -0.2644536 -0.56470037 -0.4829515 0.6418789 0.6050336 0.32367185 -0.06411479 -0.90176105 0.2034897 0.100915566 0.023587385 -0.012225946 0.20407844 0.20478347 -0.0730251 0.15897983 0.16637863 0.39182073 -0.17557617
礼 0.11950389 -0.5830886 -0.25464883 -0.51154536 0.3519611 0.075757116 -0.07531633 -0.029332299 0.092233 -0.34358725 -0.028840225 0.16831625 -0.18428123 -0.11888265 -0.17299385 0.035289165 -0.24860908 0.015406828 -0.20855772 0.08906892 0.045917317 -0.23160338 0.025820106 -0.08775514 0.09059887 0.2551255 0.08619988 -0.030114943 0.031711105 0.26143444 -0.0325541 0.046739563 0.0013333601 -0.081207015 -0.046221368 -0.117447466 0.052469343 -0.09612733 -0.14993894 0.10087844 -0.23970115 0.10543131 -0.25994843 0.07630752 -0.09419873 0.079659455 0.11242483 0.007211632 -0.21755575 -0.205091 0.17516357 -0.030335922 0.0047044903 0.07469342 -0.45261016 -0.026119215 -0.06032865 -0.60826015 0.14632088 -0.014469171 0.6039914 -0.63654304 -0.109031014 0.4261749 -0.11645506 -0.22008 -0.18760137 -0.26072988 -0.21848696 0.03079522 0.41421336 -0.034694888 -0.044074286 0.29468563 0.3311651 -0.3778892 0.0017737027 -0.1082019 0.05891941 0.0012957888 0.0920795 -0.19969173 -0.7216843 -0.10302784 0.4974365 0.5149654 -0.23007506 -0.014041846 -0.8236851 0.062156174 0.052264024 0.004191188 -0.15560837 0.19810946 -0.0943711 -0.1121781 0.00480696 0.18325964 -0.19249168 0.16934288
孔 -0.07164015 0.49092314 -0.4692018 -0.54493886 0.039624114 -0.47543955 0.03412947 -0.19257608 -0.02125163 0.54181355 1.0513668 -0.35871652 -0.005448669 -0.104042925 -0.10872572 0.08418965 0.062479164 0.0684493 -0.26441002 -0.5822915 -0.10414608 0.0072122184 -0.22203769 -0.18672575 -0.11485847 -0.23959962 0.26033285 0.024907203 -0.29987624 -0.23777224 0.12323539 0.325021 0.22296862 -0.17215206 0.13007922 -0.23392808 0.62201977 0.15753353 -0.019510599 0.18944612 0.29689023 0.05190586 -0.23614323 0.090244755 -0.1793555 -0.006914213 0.26926512 0.14907874 -0.32388258 0.17028123 -0.01352285 0.15743123 0.30437946 -0.07440382 0.30827376 0.3978221 0.00391839 -0.31965187 -0.11676869 0.022723118 0.6258096 0.27136925 -0.46353924 -0.22887197 0.05495818 0.34844792 -0.023775568 -0.2406441 0.32691523 0.11580831 0.043227304 -0.20607336 0.0021157425 -0.1468515 0.15775605 -0.29376602 0.10607078 0.31065995 0.026500437 0.033220325 0.18583421 -0.13275115 -0.9184774 -0.1272043 -0.26390442 0.14766492 -0.12986188 0.36049667 -1.2400476 0.024984239 0.009286685 -0.38845477 0.16204701 0.585146 -0.021583695 -0.07423928 0.13837266 -0.005146459 -0.14565061 0.005143965
斯 0.5536919 -0.12267645 -0.29932618 -0.60741895 0.0050875493 0.11306177 0.09884827 -0.057849504 0.006840435 0.27485582 0.241625 -0.095181994 0.34724703 0.022138849 0.24305189 -0.06245481 -0.07806598 0.12473554 -0.2209445 0.06709749 0.16755307 -0.2549133 0.34446084 0.38957873 -0.157355 0.2267921 -0.047358546 0.13137619 0.18504496 -0.28105837 0.16246666 0.021763783 0.14889216 -0.2812143 -0.17717795 -0.09055303 0.15561007 -0.3603896 0.11341277 0.08613896 -0.019298326 -0.08118433 0.012408412 0.018605517 0.047527537 -0.38043696 -0.093168415 0.06747745 -0.09507848 -0.21764386 0.36695394 -0.1225602 -0.07844318 -0.35417205 0.011531089 0.047951933 0.023048393 -0.059076946 -0.17085874 -0.09550735 0.3055743 -0.090178795 -0.035543624 0.12485935 0.40037668 0.112964235 0.013893732 0.16555871 0.010156647 -0.50684226 -0.031091517 -0.029065799 -0.46881205 -0.27670294 -0.8090654 0.30849147 0.09160008 0.39997265 0.07376861 -0.23451501 -0.32638654 0.13002808 -0.8969153 -0.31183735 0.22374251 0.45112014 0.03144951 0.32693756 -0.9402341 -0.13981342 0.38553318 0.46782497 0.22057927 -0.14334105 -0.22981973 0.3614657 0.30254495 0.2487349 0.0797216 -0.25141957
三 -0.2569565 0.27377033 -0.09050389 -0.12406216 0.065661766 0.03525756 0.18353885 0.109038554 -0.16067225 0.09545527 0.43511522 0.26145524 -0.48990756 -0.1432711 -0.3112435 -0.059732407 -0.03887069 -0.1445488 -0.27138853 -0.24380168 0.19741255 -0.1313291 -0.021465743 0.3044495 -0.30859333 0.19952372 -0.09642081 -0.43087637 -0.14943078 0.27079707 0.1389346 0.24327902 -0.22539014 0.52014405 0.0015470682 -0.2752376 0.51752955 0.21240346 -0.103387244 0.32734793 -0.22659816 0.16378388 -0.529172 -0.16206627 0.14814503 0.099765785 0.052533284 0.17104794 -0.22347824 0.07551727 -0.018043978 0.057849247 -0.13715541 -0.5415244 -0.0445456 -0.24986944 -0.5907568 -0.35103643 -0.13370027 -0.2672852 0.30555075 -0.15641944 -0.14031672 0.07463605 0.020708643 0.080148295 -0.08315117 -0.22487848 -0.14339347 -0.02908208 -0.21757916 -0.32153696 0.03688067 -0.63970274 0.11318189 -0.46168274 0.031179808 -0.0952851 -0.21496448 0.20503727 -0.11151848 0.29680762 -0.3267236 0.10814786 0.18183164 0.49244827 -0.08463769 0.30023304 -0.9266924 0.2838913 0.54099363 -0.098363556 -0.060724344 0.14807083 0.3355598 -0.2775911 0.12552895 0.20420355 -0.03163182 -0.48675075
能 -0.14755505 0.3063615 -0.02463977 0.014997185 0.1484125 0.39124224 0.12994996 0.35509592 0.24650733 0.13651153 -0.38970846 0.34254017 0.008294019 -0.23237412 0.31818208 0.13269784 -0.32538503 0.16114092 0.22982977 0.015780529 0.20338935 0.03795017 0.011289542 -0.14376907 -0.34059966 0.14519587 -0.02238657 0.35538545 0.23265423 0.091833696 -0.21491595 0.045274645 -0.15752642 0.17506278 0.36120367 -0.15230907 0.06257374 0.4601347 0.41345933 -0.016816778 0.18074094 -0.08813277 -0.20479794 0.26548773 0.39782214 0.16830328 -0.38901266 -0.19881329 -0.06442233 0.09013002 0.14152949 -0.10561744 0.2060894 0.1932841 -0.33357885 0.23383127 0.058063783 -0.054128975 0.06473774 0.024049755 -0.028540488 -0.05171317 0.20821698 0.070620164 0.03219654 -0.20651264 0.3492544 -0.21923068 0.44642863 0.16000345 -0.2719516 0.015145039 -0.073509835 0.359109 -0.1432448 -0.2369047 0.088186346 -0.01266429 -0.032074414 -0.07855634 0.0710474 0.09212921 -0.5191247 0.24765648 0.58989406 0.5355127 -0.07610448 0.009508819 -0.73461276 -0.19785507 0.019194182 0.2923207 0.35653654 0.441497 -0.0026137345 -0.08062365 -0.071255356 0.101320066 0.085220814 0.4389822
见 0.44748688 -0.0333921 -0.25393835 -0.30832443 -0.10955546 -0.15021338 0.22794129 0.054999202 0.04757452 -0.47246498 0.48315862 -0.1587447 -0.20277666 -0.10538921 0.006287061 0.071743526 0.13269106 0.13134874 -0.13633044 0.32609054 -0.40682462 0.0878551 -0.15305045 0.20369445 -0.15059872 0.021918485 0.23974317 -0.39064428 -0.18795413 0.23668168 0.13088317 0.17533171 0.008692313 0.058543753 0.075591005 -0.26775226 -0.2900187 -0.30813187 0.22791748 0.37334928 0.17296274 0.12884137 -0.17875768 -0.15729257 -0.12579058 -0.0652293 0.2503564 -0.18901694 0.24322444 0.0415419 -0.3982944 -0.19667113 -0.20880863 -0.15081936 -0.3158709 0.44277886 0.27633816 0.21189895 -0.15341584 0.16532508 -0.031636972 0.11399369 0.10862842 0.25527865 -0.018975662 -0.31812555 0.006700942 0.36166543 0.26356483 -0.09148467 -0.5353007 -0.32216343 -0.052072465 0.5538393 -0.0387551 -0.7526143 0.040700387 0.3398385 0.32507756 -0.17138243 0.004004659 -0.05935059 -0.45236367 0.10055507 0.38919255 0.55983067 -0.0710359 0.0020101676 -0.7618999 -0.17910264 -0.24169469 -0.20550542 -0.17438707 -0.13627511 -0.015139387 -0.25481424 -0.17307444 -0.042442527 0.03878953 0.043906815
学 0.46640727 -0.102432154 0.019550776 0.08209025 -0.5277865 -0.16403204 0.06939738 0.17375082 -0.049188133 -0.15132242 0.16576001 -0.04987635 -0.38789788 -0.26319647 0.7506363 0.080054484 -0.04543413 0.28839993 -0.066478804 0.000578448 -0.1581065 -0.12333203 0.47326443 0.10034639 -0.0357745 -0.21793981 -0.26043874 -0.03938722 -0.06267263 -0.336125 -0.17579721 0.12223994 0.30139893 0.13278612 0.12922095 -0.21287844 0.3339678 0.038653575 -0.024915066 -0.11882729 0.23793066 -0.22949208 0.2734708 0.059108377 0.032404553 0.1751421 -0.029274495 0.0004642835 0.043388516 0.12917535 0.18034992 0.00347873 0.4925952 -0.07797422 -0.28731284 0.16069117 0.2502936 -0.27164117 -0.1152598 0.4064871 0.023953658 -0.49102405 -0.19684654 0.8179659 -0.038345963 0.16017471 -0.12604634 0.1565545 -0.19150105 0.02489884 0.031287726 -0.1654758 -0.17703395 -0.1856141 -0.041111603 -0.90787774 0.005070413 -0.042831924 0.48733005 -0.10359953 -0.33933222 -0.05733886 -0.8506696 0.32868314 0.55853254 0.6641517 -0.089652754 -0.2390832 -0.62239176 -0.030349005 -0.11936418 0.06235482 -0.29697156 -0.44451687 -0.01952146 -0.17166142 0.07597701 0.24584055 -0.31382808 0.05775049
事 0.3254081 0.052844357 -0.094091915 -0.18296513 -0.3691205 0.42091054 0.26987585 -0.028454823 0.061496317 0.015552311 0.32724577 -0.14467035 -0.15613025 0.1728656 0.33558476 -0.26314571 -0.15534876 0.3772181 0.13214348 0.14777964 0.29740813 0.0041928086 -0.31931257 0.09580326 0.2649973 -0.11546345 -0.42893606 -0.24493949 -0.05228883 -0.38293713 -0.43662935 -0.14278127 -0.778678 -0.15810834 0.03329839 -0.11752777 -0.5907485 -0.09547899 -0.6286806 0.12392624 -0.28878954 0.2824209 -0.03205738 0.15966468 -0.014018693 -0.2519304 -0.29340005 0.017551454 0.23068205 -0.21843001 -0.23599567 -0.07822318 0.0040809563 -0.19186407 -0.24126676 -0.15382154 0.10969752 0.09391721 0.101600856 0.08126165 0.22004394 -0.025381729 0.2783873 -0.032768592 -0.15764321 0.035282973 0.053029552 -0.27915576 -0.29780915 0.36170226 0.2691991 -0.11549067 -0.2966858 0.20435764 -0.063454226 -0.6088799 -0.30842304 0.11728776 0.14392059 -0.027647868 0.05618465 0.12474712 -0.20389445 0.423865 0.682062 0.32464188 -0.112819605 -0.18690185 -0.9749774 -0.2352197 -0.2712862 -0.10419598 -0.2130051 -0.09475639 0.14131856 -0.15816303 -0.15161651 0.15959881 0.12149012 -0.32497138
是 -0.013990599 -0.01417325 -0.28035793 -0.1321565 -0.076462805 -0.28519636 -0.15993159 -0.23721015 0.3811364 -0.16788875 0.17469595 0.4201843 0.49905145 -0.42009917 0.05557823 0.05940011 -0.036153592 0.035438143 -0.20033054 -0.41851985 0.06587864 -0.16624136 -0.35159665 -0.21500763 0.06407234 -0.104628704 0.33399677 0.27307063 0.019637687 -0.23000573 -0.13077874 -0.036185224 0.08215077 -0.26131672 0.02857232 0.07012058 -0.14077021 -0.14118995 0.4090756 -0.23809516 -0.028917022 0.028685026 -0.4816307 -0.07794808 0.3130978 -0.09754374 0.16292995 0.1464293 -0.110108614 0.07165278 0.52567756 -0.28837645 -0.12151931 0.20356365 -0.032562274 0.20726164 -0.52572125 0.004329835 0.08752779 0.22429986 0.5250404 -0.45296583 -0.19287041 0.1563972 -0.38382939 -0.13738194 0.45529285 -0.17821254 -0.058784675 0.05128406 -0.22243643 -0.17686652 -0.12851137 -0.013770095 -0.19481595 -0.343441 0.10012978 0.6967028 0.30610055 -0.23059706 -0.18205786 -0.26838157 -0.40911293 -0.48816064 0.15265656 0.32143426 0.19571973 -0.16371119 -0.9046362 0.02465979 -0.010841852 0.284581 0.050026376 0.30912852 0.3424645 -0.08027812 0.07807821 -0.07948774 -0.031200921 0.23028667
哉 0.2007714 -0.15880994 -0.30424502 0.39457136 0.15734671 -0.061117038 0.02055134 -0.15242952 0.24980864 0.11284816 0.8396699 0.42899156 -0.229455 0.06424918 0.19821958 -0.10563576 0.42004204 -0.09568338 0.16281061 -0.44311547 -0.26488253 -0.025012566 -0.31396502 0.027025552 -0.114162184 -0.43673494 -0.1349047 -0.49178085 -0.23989074 -0.042288825 -0.14179537 0.032677736 0.1060301 0.02967202 -0.23036593 0.20438509 -0.12439999 0.016571889 -0.21348844 0.07955225 -0.46264762 0.21128558 0.19256699 -0.40554532 -0.22918469 -0.35283718 0.06343816 -0.35084295 -0.29220402 0.16392805 0.439027 -0.12142776 0.100201815 -0.46980938 0.57258457 0.29589596 -0.018035445 -0.20871888 0.26610324 0.16240501 0.4862402 -0.010215014 0.17514828 0.152323 0.21922058 0.042677574 -0.0024678928 0.11764028 -0.21044059 0.06509998 0.19982351 0.05249689 0.057788275 0.3950796 0.012871843 -0.53540844 0.11329327 -0.16859373 -0.3525627 -0.15131716 -0.09433376 0.2725687 -0.5271447 -0.10959945 -0.5194634 0.337559 0.11023264 -0.29318917 -1.2887144 -0.07620792 0.22881296 -0.1890502 -0.3928965 0.014505516 -0.23420216 -0.15647002 0.124784105 -0.30346975 0.113216855 0.2764595
闻 0.545779 -0.17668009 0.08712849 -0.10360393 -0.24256216 0.5714979 0.17060645 0.116973065 0.105036974 -0.16470832 0.38347134 -0.13003191 0.28277585 0.1745114 -0.15865707 0.7711339 -0.12965524 -0.19916156 0.30008152 -0.16292131 0.15261722 0.25371024 -0.04003202 -0.16229226 -0.00750711 0.17062388 0.1572665 -0.1988593 -0.107906826 0.19376056 -0.27547872 0.38480303 0.08034263 0.029805658 0.114227615 0.24325818 -0.18125913 -0.09693378 0.19134906 -0.11772028 0.22859433 -0.06679757 0.15578641 -0.12302808 0.12620339 -0.12986887 -0.15369156 0.10638862 0.4041563 -0.1496787 -0.20021951 0.13782543 -0.12761799 0.33598286 -0.23772427 -0.2045511 -0.09300443 -0.34720084 -0.08389202 0.5077917 0.16890691 0.101985104 -0.2437094 0.36704445 -0.028509028 0.12770346 -0.27893358 -0.1369049 -0.17665237 -0.13973804 0.08520665 -0.46082643 -0.17944811 0.36096665 0.32092705 -0.74836594 -0.075235814 -0.13727924 0.07164969 -0.08896785 0.36938712 0.11140607 -0.32775053 0.14664257 0.054281503 0.69403917 -0.15746911 0.0019288517 -0.8124943 0.036110792 -0.20595749 -0.2141206 0.19332555 -0.23530863 -0.25334594 -0.304966 -0.016054556 -0.14063327 -0.04380362 -0.11537485
未 0.001994851 0.045751728 0.12281552 -0.13414977 -0.24887967 -0.07699251 0.1732869 0.015911875 -0.1265669 -0.38011006 0.6336218 0.078425705 0.21565525 -0.39392093 -0.30269742 0.17001583 0.10696782 0.24923004 0.46944147 0.03743829 0.09323557 0.7407361 0.017886823 -0.52353626 0.1453383 0.3431254 0.1883349 -0.35657993 -0.0040200716 0.46239337 -0.017766694 -0.20344114 0.5195984 -0.03014461 -0.21206892 -0.12460034 0.042508997 0.09609181 0.11320364 -0.2900483 0.04414051 0.22902952 -0.02106963 -0.09282932 0.49936926 -0.316062 0.14218253 0.3121578 -0.1934433 -0.13885774 0.0665705 -0.061241325 -0.12671956 -0.13817443 0.31416595 0.48778024 0.22616325 -0.15457387 0.054996837 0.21538204 -0.24256392 0.19529797 -0.024531243 0.29960704 0.10852781 -0.15089068 0.04935148 0.05626013 -0.04971528 -0.34054336 0.17381717 0.26517725 -0.23266214 -0.26826125 -0.44999287 -0.6266104 -0.095644325 0.26439026 0.19687887 0.21112181 0.043374952 -0.35794806 -0.4288852 0.13844003 0.9291551 0.40209687 0.046817787 -0.054047473 -0.86656773 0.06531483 0.016536232 -0.03886052 -0.2534567 -0.05129128 0.15716098 0.36409864 0.3297261 0.054836437 0.06606348 0.06212705
公 0.06165966 0.7724658 -0.35395083 -0.22159806 -0.1714158 0.21805762 0.29123053 -0.15746559 -0.1293072 -0.3528639 0.45988518 0.056154262 -0.3304492 0.29331186 -0.18111308 -0.036439266 0.12777747 0.31906432 -0.25737163 -0.115680985 -0.09250825 0.23010398 0.38667107 -0.29684407 0.1568981 -0.13507193 0.21446905 0.1974234 0.31438318 -0.58949983 -0.095198214 0.1554849 0.3407336 -0.058271337 0.017338315 -0.032642975 0.06235662 -0.053245857 0.2185408 0.08864294 -0.00041112612 -0.39919525 -0.2361629 0.1374726 0.07046319 0.05076337 -0.0059133996 -0.423885 -0.21846998 -0.47924635 0.18104316 0.37607083 -0.050581053 -0.1342587 0.06519893 0.11677434 0.15845023 0.06795176 0.057938576 -0.14428711 0.35976222 -0.15687683 -0.35117266 -0.19153559 0.1350234 0.18384437 0.0077128657 -0.049928233 0.09474283 -0.28414237 -0.07018199 0.11200511 -0.24401762 -0.040858984 -0.14406021 -0.17738692 0.11212446 0.36795917 0.06462715 0.028880902 0.34542966 -0.02065528 -0.9099848 0.004866992 -0.56055903 0.4392799 0.18142483 -0.05499922 -1.091063 0.019233521 -0.28962556 0.24010576 -0.06689507 -0.17156048 -0.28678888 0.1751743 -0.28017077 0.2168378 -0.10266484 -0.059480216
好 0.21026734 -0.14473142 0.33673 0.2803002 -0.2556615 -0.41424197 0.02818803 0.4037068 0.13232043 0.74691296 -0.10654591 0.12217439 0.06965882 -0.36253545 -0.0054596867 0.10108414 0.10806587 0.17699987 -0.28230762 -0.0023200857 -0.061676163 0.3287246 0.4471399 -0.07756143 0.17728901 0.31116322 0.46253303 0.20642628 0.09819379 -0.5161139 0.2848032 -0.29406396 -0.11564245 0.30975327 0.15174931 0.19262676 0.010327899 0.05494049 -0.18498005 0.16749278 -0.0051483074 -0.1559245 0.50799996 -0.098893434 -0.11010165 -0.23305088 -0.40656653 0.42858544 -0.27789545 -0.13015495 -0.3640599 0.18974353 -0.016439058 -0.06307735 0.18121807 0.21578282 0.11364735 -0.09639436 0.12963715 0.13610218 -0.10844125 0.016974773 0.063688174 -0.12794761 0.15145274 -0.22978188 0.070322715 -0.45525688 0.31398788 -0.34776014 -0.23628831 0.20822428 -0.43447632 -0.085923225 0.12518744 0.30271533 -0.3145934 0.2906531 -0.037099358 0.12351226 0.060517978 0.09676095 -0.92147213 -0.008290465 0.8369489 0.77751607 -0.20913957 -0.09224255 -0.77229327 0.16767018 -0.07513301 -0.059860986 -0.055531453 -0.037859377 0.1439343 0.09515753 -0.3437979 0.048901483 0.18439405 0.17889881
我 -0.41387108 -0.36420596 0.15017441 -0.22345124 0.2932153 -0.056830116 -0.14055239 -0.65633035 0.08075473 0.084436096 0.40484765 0.383464 -0.24556 -0.12705564 0.09857843 -0.16950902 -0.14241861 -0.25303861 -0.2155532 0.023033228 -0.026470037 -0.54918426 -0.012764139 -0.17260769 -0.12956177 -0.07332947 -0.048693426 0.011824196 0.19040878 -0.118566394 0.3247042 -0.2441216 -0.0085732825 -0.08924679 0.064958274 -0.2989629 0.4028945 0.2031674 -0.19067104 0.07492452 0.07419306 0.006452133 0.22153035 0.03815295 0.34613657 -0.062225252 0.1374623 0.084991984 -0.32657632 -0.07558576 -0.060864802 -0.16734484 0.22359937 -0.17636012 -0.7486135 0.17590281 0.29158273 -0.12357563 -0.3057203 0.15582594 0.3373423 -0.08179163 -0.38418713 0.041414965 0.45265472 -0.07528455 -0.35772595 -0.028368771 -0.35457903 0.14505348 0.11202654 -0.11387465 0.056612253 0.038866013 -0.20980678 -0.44312692 0.111169174 0.36547375 -0.353 0.29065368 -0.15750693 -0.039535947 -0.9527505 -0.15073779 0.034765664 0.41042504 -0.12449631 -0.11962006 -0.8653445 0.19212563 -0.120599374 0.39606085 0.0011636576 0.18430556 -0.26758394 0.0075776866 -0.21669786 0.10892051 -0.07383053 -0.12587404
路 0.07716578 1.1289399 -0.1915226 -0.4079359 -0.05832445 -0.096153975 0.10042694 0.28585675 0.11906469 0.12747642 0.82622236 -0.29714802 -0.073245525 -0.049172986 -0.08932409 -0.26549608 -0.07765171 0.095376626 -0.15082346 -0.053881086 0.65728056 -0.14772116 0.013709443 -0.061394982 -0.36015418 0.21512674 0.22233425 -0.27724394 -0.30264527 -0.57124895 0.51449746 0.266059 0.18395358 0.32586458 0.36327678 -0.2943955 -0.22882256 -0.17180085 0.05723867 0.08875222 -0.06138738 -0.12295686 -0.016257493 0.064466365 0.37132105 0.49268377 -0.13282058 0.1894957 -0.069910966 0.18175769 -0.08740016 -0.20860392 0.3671669 -0.15236671 -0.26431426 0.37144232 -0.1559328 -0.3811571 -0.16094883 -0.37408918 -0.08176985 0.03751551 -0.07403618 -0.15859033 0.10038465 -0.10239225 0.15749711 0.23391291 0.31927598 0.17461616 0.32552603 -0.14121085 -0.17655364 0.26138437 -0.0754867 -0.27555284 0.17552987 0.042462934 -0.051630285 -0.116977565 -0.009061514 -0.11486529 0.035864733 0.072224446 0.06961844 0.64111835 0.19525014 0.36615953 -1.2988901 -0.21643542 0.051275037 -0.27921113 -0.17108169 -0.13306603 -0.017706048 0.06922533 -0.038028214 -0.1087829 -0.33394486 0.27905583
在 0.5556984 0.15977602 -0.11675389 0.17684254 0.10058211 -0.42150477 -0.08422201 0.4155533 -0.2649244 0.081177555 0.21188013 -0.44315195 0.37388647 0.9286964 -0.15406431 0.064944215 0.26890036 0.19836698 -0.22722434 -0.4758872 -0.072913036 -0.106804684 0.30237287 0.36023042 0.08814054 0.33122653 0.44146508 0.48045006 0.12150049 -0.030671285 -0.029864999 0.27094242 -0.28606433 0.012914445 0.08976259 0.37295958 -0.34212542 0.0058099898 -0.095023446 0.027182572 -0.567392 -0.13548724 -0.12260078 -0.07631157 -0.19464041 0.040517777 -0.0480983 -0.3528156 0.10415923 0.04740809 -0.2687578 0.22718269 0.015830966 -0.30448607 -0.056776714 0.09998516 -0.0034325442 -0.25070736 -0.49016327 0.1911757 0.60220295 0.13553971 -0.24138987 0.0519438 -0.097432464 -0.035599735 0.0963155 -0.36438665 0.40493464 0.15053627 -0.6367925 0.12503761 -0.10349344 0.3268965 -0.06723208 -0.33071008 -0.02896115 0.10774418 -0.24035533 0.34745827 0.061268017 0.1732449 -0.2061443 0.19317126 0.45578453 0.5959393 0.22232892 -0.026859887 -0.92730516 -0.1085966 0.055995412 -0.24209201 0.25670862 -0.16519341 0.10643058 0.038184144 0.54082775 -0.2960317 0.4166808 -0.3786357
已 0.16694643 -0.09318444 0.4809927 -0.40112162 0.19394287 0.0201394 0.106166594 -0.0292483 -0.030741971 0.2146927 0.10521894 0.022883771 0.32484946 0.27994344 0.044636954 0.27347553 -0.254381 0.016750028 0.12952422 -0.40225533 -0.07710193 0.1832617 0.46633664 -0.27430004 -0.23508406 0.096626684 0.2388935 -0.2077092 -0.19884889 0.40254533 -0.041066945 0.1408256 0.3400047 -0.32130122 -0.14222246 0.50213784 0.40606734 -0.019104365 0.45396006 0.092454635 0.28307238 0.27687812 -0.2989405 -0.08849808 -0.16816589 0.24330924 -0.009777598 0.44120225 0.04091563 -0.10711182 0.27407673 0.14247371 -0.32569697 -0.38228658 0.039649427 0.03828581 -0.04477174 -0.2628661 0.2745109 -0.38746262 0.57326925 -0.23347022 0.47834337 -0.28757942 0.45682305 -0.40401274 -0.15815018 -0.045796957 -0.16206338 -0.0727496 0.31935915 0.060257237 -0.06651443 -0.15432319 -0.42061052 -0.8050849 -0.07249922 -0.066459514 -0.04189926 0.0074585574 0.10603934 -0.26376525 -0.5425428 0.004093693 0.27110267 1.0167689 0.11880036 -0.093345046 -0.7395786 -0.111218624 0.25836304 -0.02768459 -0.10107181 -0.55305177 -0.19554648 -0.093716875 0.35030022 -0.37035227 -0.07280816 -0.0012232269
得 0.5172522 0.045523796 0.15182734 -0.17531085 0.13815668 0.34655312 -0.2896475 -0.16551526 -0.028963331 0.20504178 -0.09224796 -0.038616907 0.7743875 -0.15691085 -0.07712337 -0.055955775 -0.082984395 0.17810152 -0.109581515 0.08453897 -0.49920884 -0.35675085 0.013114219 -0.19431011 -0.15529807 0.2655564 0.13453773 -0.28959513 0.07885289 -0.053798415 -0.121822454 -0.104273595 -0.06882722 0.16948207 -0.115301654 -0.072037 -0.35434023 -0.3010338 -0.20867091 -0.08986656 -0.107603915 0.11217897 -0.347087 0.25268444 0.10091166 0.41837335 -0.23684397 0.27600625 0.4253746 0.072792955 -0.41472778 0.38356265 0.031152656 0.09368484 -0.19653693 0.21516068 -0.10987054 -0.055284962 -0.14744398 -0.33865756 0.26978692 0.23117718 0.3331799 -0.1830319 -0.09015659 0.08615129 -0.052287836 0.03211068 -0.11764889 -0.08224001 -0.035201352 -0.04601315 -0.35073084 0.017712958 0.0429442 -0.32942432 0.04458798 0.057587367 -0.10995375 0.21946225 0.14114422 0.18958193 -0.41490552 0.08973683 0.5495622 0.62200004 0.043354787 -0.12407241 -0.9579312 -0.24275227 -0.13127069 -0.027570728 -0.17297128 -0.07319408 -0.2495515 0.47331384 0.46836892 -0.04589636 0.33946964 0.28801072
所 0.112605594 -0.46938807 0.122638576 -0.19256999 -0.032831993 0.07559949 0.37438104 0.30628285 -0.13810973 0.3421438 -0.5073156 -0.034301903 0.06249901 -0.028990066 -0.5541319 0.033545986 0.021509163 0.2340464 0.008118598 0.11898747 0.1370084 -0.013084715 -0.19060321 0.20796078 0.13422315 -0.056118336 -0.16878055 0.39578187 -0.19220498 -0.47683895 0.60933405 -0.008018455 0.004216005 0.21609604 -0.13682316 -0.13534673 0.072822146 -0.048744928 0.013270334 0.37347105 0.29529503 0.37859812 -0.19269785 -0.1565977 0.31346154 0.42389035 0.13840884 0.36779684 0.03846893 0.062292475 0.44579163 0.25975347 -0.21099564 2.675422e-05 -0.3265279 -0.35067967 0.21492065 0.22860917 0.14607908 -0.13931604 0.34532627 0.6270606 -0.45010462 0.25803512 0.35731134 -0.20460851 0.32139665 -0.0145601025 0.17465632 0.15787096 -0.25301766 -0.41495654 0.42689136 0.3660763 0.14643078 -0.88268805 -0.4242537 0.6601013 0.2548278 -0.011260138 -0.22409816 -0.099146865 -0.23045833 -0.37241077 0.2559809 0.49321255 -0.037431527 0.43937063 -1.0851805 -0.23490871 -0.01766984 -0.02077592 -0.013135982 0.5180742 -0.07092955 0.06191657 0.35497445 -0.12896962 0.034261305 0.21127972
民 0.34881622 -0.0060761054 -0.0490451 -0.041473497 -0.24586672 0.012776951 -0.0034857905 -0.5658508 -0.038476698 0.40084416 -0.21991816 -0.35959032 -0.17536418 0.5466379 0.2536984 -0.25116095 -0.11051892 0.09768992 0.41540068 0.124690846 0.12671413 0.32629415 -0.15603127 -0.1841505 0.017963272 0.16494513 -0.039501365 -0.07029033 0.16984454 0.025608215 0.16702613 -0.15314688 0.10878901 -0.110997275 0.4718552 -0.3313085 0.2088233 0.09341541 0.12352509 -0.31942478 -0.25910965 -0.14022681 -0.11374517 0.03832772 0.24248517 -0.27374837 0.061119422 0.27447337 -0.24752265 -0.05289815 0.09914982 -0.16052318 0.028501319 0.097102985 0.17424962 0.10644445 0.31482497 0.14008741 -0.31170565 -0.28279305 0.3290867 0.15495762 -0.1395236 -0.15543295 0.12895666 -0.16599868 0.03334057 0.49730578 -0.20309913 0.13457118 -0.25057253 -0.02900959 -0.38343725 0.025062455 0.4720076 -0.7369369 -0.061096262 0.17573702 0.20067611 -0.19109961 -0.38255647 -0.17427428 -0.51544434 0.13188192 0.7267258 0.89092165 0.04994799 -0.16600838 -0.80154884 0.036253527 0.83039033 0.036663834 -0.1407517 0.027058322 -0.26984066 -0.06770663 -0.16912256 0.020233627 -0.097548045 -0.16573909
小 -0.16724037 0.17676543 0.014266205 -0.277496 -0.46199566 0.15008694 -0.079982445 -0.5860563 0.240468 0.34023485 0.50152314 -0.11535839 -0.019279085 -0.038765937 -0.12702362 -0.031074159 0.06339507 0.16469915 0.044607606 -0.06326397 -0.5844319 -0.356881 0.28060392 0.1961442 0.080509506 0.12754051 0.01783817 -0.14983103 -0.014676003 0.21781094 -0.018331438 -0.021476753 -0.21142793 0.1940195 -0.15979256 0.3172117 0.005226735 0.09506872 -0.5600381 -0.111534595 0.027395023 0.0025790276 -0.09024976 0.04093186 0.12319995 -0.05769118 0.12141132 0.2606936 -0.054144844 0.35722598 0.5547744 -0.2605636 0.34626698 0.13026065 -0.16225487 0.50120425 0.17771648 -0.030432723 -0.030118173 -0.008219534 0.57010067 0.52171445 -0.2874314 0.265958 -0.07404472 0.15491955 -0.0037751258 -0.3625166 0.24262506 -0.10269622 -0.09638582 0.061770815 0.09876175 0.012179973 0.25621247 -0.34087497 -0.097384505 -0.072133236 -0.09130432 -0.3742911 -0.15863375 -0.03099583 -0.43899602 0.16614573 0.48822632 0.12689887 -0.20327337 0.22252692 -1.0490321 0.47839212 0.08992515 0.032091957 -0.060596086 -0.17021598 0.4188698 0.4116666 -0.23835824 -0.043832175 -0.03402782 -0.07984884
天 0.081575274 0.017250773 -0.10721141 -0.5095455 0.4577937 -0.21129188 0.37120792 -0.26096535 0.5715558 -0.12836316 0.53999376 0.021854583 -0.18918619 0.18523523 0.10665475 0.14712426 0.8223653 -0.056628972 0.09978655 -0.5856624 0.24366668 0.12076108 -0.043564457 -0.20277777 -0.023190273 0.08892417 -0.08714204 -0.21412803 -0.019183233 -0.7367211 0.13220012 -0.008959754 -0.1744537 -0.15622193 -0.3947278 -0.06982118 -0.47232696 0.14561218 -0.23597984 0.12009566 0.114966616 0.3313334 -0.09968606 0.1239486 -0.068520956 -0.2600755 -0.1287195 -0.19660977 0.09062977 0.476579 -0.054837473 0.31859016 0.11290304 -0.09516858 0.065084234 0.06637559 -0.38301492 0.3538235 -0.38053313 0.064691 0.4907855 -0.39249688 -0.32455876 0.18795927 0.08260568 -0.3613414 -0.055009786 -0.08563932 -0.23028909 0.11403405 0.1008252 -0.39569506 0.3071989 -0.041293863 0.016649922 -0.6519308 0.091154955 -0.35065195 0.4526388 -0.22022465 -0.16640334 0.057206303 -0.5223465 -0.15125807 0.16948901 0.26347616 -0.30549434 -0.025354113 -0.92759854 0.19520831 0.5121761 -0.25001833 -0.3795935 0.4185861 0.51960516 -0.23847143 0.24091434 0.10173901 -0.5211877 0.21644557
乐 0.08681765 0.085978314 -0.09038143 -0.35797575 -0.11138489 -0.14327747 0.0949752 0.04440749 0.123351306 -0.13541566 -0.3388292 -0.4540345 -0.23968962 0.112094596 0.055486046 -0.07639665 -0.22764882 -0.33643976 0.1615615 -0.36324894 -0.54526144 -0.28621095 0.12401653 0.080317646 0.032903608 0.23351248 0.2914125 0.052273843 -0.12819633 -0.22079365 -0.110176526 0.21594307 -0.09252024 -0.24365707 -0.032948364 0.36454222 -0.2815865 -0.0020471627 0.3334384 0.38524118 0.29413712 -0.004585124 -0.19243483 -0.0911678 0.08799058 0.3517865 0.104237705 -0.20031169 0.018853255 0.28715155 -0.16796832 -0.3988942 0.12689593 0.16646224 0.03876619 0.14097768 -0.028450755 -0.49036098 -0.0002872411 -0.090362966 0.1504304 -0.19617094 -0.072087355 0.35359636 -0.14096463 -0.5591824 0.0111763645 -0.22217907 -0.3588035 -0.5997711 0.021611884 0.17968273 -0.2151111 0.061071407 0.13946791 -0.07157335 0.15633608 0.06230827 0.13155396 -0.16439876 0.31423432 0.21207952 -0.8733198 -0.07279612 0.5507561 0.5740082 -0.36564788 0.07527846 -0.7585607 -0.058053665 0.083874024 0.31882206 -0.031846914 0.51284117 -0.08643441 0.21237901 0.075956635 0.019145885 0.14096904 -0.10782467
邦 0.05950652 -0.26112244 -0.22728172 -0.5345152 0.014149361 0.19701792 0.094387576 -0.13785844 0.24735995 -0.23163043 0.35437524 0.06286599 -0.11764005 0.3432275 0.010321352 0.15788223 0.37639704 0.09490629 0.37409636 0.0713465 0.5881865 -0.43230137 0.18404227 -0.19308805 -0.62110585 0.30967656 0.062401913 0.12640974 0.11854525 0.058745604 -0.3342937 -0.3926286 0.24168761 0.20620362 0.19880235 -0.11241551 -0.41169852 -0.32319447 0.18935654 0.27166522 0.0016586711 0.23656501 0.07242389 0.4868923 -0.06568356 -0.19284289 -0.3572945 0.29848957 -0.40923947 -0.35864773 0.15075538 0.1806826 -0.082118265 0.117759444 0.30285728 0.16387585 -0.27987754 -0.31756523 -0.7325254 -0.055458236 0.41694078 0.34936622 -0.12105168 -0.16708957 -0.1516005 0.01825535 -0.009780693 0.22462311 -0.027523348 -0.22030537 -0.080590785 0.20788851 -0.26700622 0.28887963 -0.06270064 -0.4497343 -0.10531214 0.024791468 -0.00049454765 0.035227176 -0.21301228 0.32567763 -0.5654943 -0.12164031 0.30619314 0.51704025 -0.34056512 -0.32704446 -0.6870271 0.28654954 0.21393704 0.20667106 0.2118086 0.5280503 0.38265634 -0.22180182 -0.12898624 -0.11230503 -0.183378 0.1325419
亦 -0.031457383 0.23651259 -0.090664275 -0.26709342 -0.20666403 0.31867474 -0.011646251 -0.1605515 0.005559212 0.3830354 0.41693547 -0.16079088 0.036213066 -0.3445459 -0.04016788 0.37651828 -0.18232638 -0.19626375 0.07573036 0.09884321 0.27188262 -0.17163818 -0.44605672 0.2867308 -0.089729086 0.3500053 -0.5179997 0.34133616 -0.40753186 0.013564746 -0.25543776 -0.14183012 0.1844876 0.35189518 -0.1817619 -0.060680475 -0.10090276 -0.2813014 -0.453044 -0.30899933 0.052180894 -0.15997016 0.14905927 -0.28779182 0.25119078 0.017911803 0.32975835 0.33293545 0.1024161 0.042681653 0.4699987 0.3301082 -0.11745535 -0.32844308 0.18084832 0.2204102 0.10938068 -0.2568509 0.16726613 0.032535337 -0.07030489 -0.056733347 -0.15055671 0.45685947 -0.11025466 0.34988305 0.05328361 0.8922354 -0.31740138 0.21337259 0.21893127 0.20331708 0.5594529 -0.0118396785 0.02017667 -0.64694184 0.0017110071 -0.0655391 0.32443935 -0.18817535 0.06737071 -0.15719633 -0.33179614 -0.49889782 0.42216572 0.3627616 0.48202315 -0.22241613 -1.1490102 0.37596983 -0.21077228 -0.3105949 0.3742536 0.5617782 -0.35130116 -0.08436029 0.105543844 0.28193542 -0.09066991 0.056891754
使 0.21220382 0.11974931 -0.013809572 -0.5670902 -0.12544726 -0.19322687 -0.14766827 -0.44378704 0.0671375 0.2975053 0.4591484 -0.18630339 0.12041943 0.26116043 -0.21389559 -0.12726197 0.117331736 0.45356137 -0.5201655 0.20041595 0.2477193 -0.33174014 -0.1441256 -0.18250826 -0.20364738 0.26243642 0.06723303 -0.3146474 -0.009609615 -0.12051042 -0.12646182 -0.009654442 -0.18782164 0.557949 -0.0012706222 0.36973327 -0.1056939 0.2260852 -0.3604484 0.16717665 -0.25142023 -0.123130046 0.04409724 0.28019476 0.032529037 0.060141765 0.535421 0.33860132 0.008902607 -0.009623692 0.11376157 -0.052469563 -0.6404867 0.34314895 0.2078983 0.081731685 0.22168937 -0.06112899 -0.031011593 0.063414894 0.102007 0.31830555 -0.33250472 -0.01169663 -0.009536278 0.0644446 -0.23160397 -0.07657162 -0.035273492 -0.46482292 0.22858049 0.16307478 -0.1520347 0.15549628 -0.27898824 -0.5355224 0.28962964 0.074932605 0.09115797 -0.4747595 -0.3530237 0.23324934 -0.2414922 0.15185565 0.37999713 0.3530363 0.17736673 0.14359249 -0.91918534 0.13582174 -0.43935707 0.1741085 -0.076581165 0.08083136 -0.18387869 -0.26042762 -0.34232837 -0.029220639 -0.4479437 0.05902891
大 -0.2976566 0.06077158 -0.2753335 -0.10680055 -0.1288758 -0.4164428 0.062013734 -0.50922114 -0.13797681 0.2429212 -0.21200147 0.13376673 0.28162158 -0.076986454 0.26566184 -0.29677188 0.1897016 0.33158767 -0.07772899 -0.05661218 0.34153223 -0.06366129 -0.12890084 0.082734555 -0.17134587 -0.1398251 0.2537867 -0.08005798 0.5194665 -0.14501895 0.009670421 0.13973841 -0.094860755 0.29469377 0.3502251 0.07710415 -0.18816027 -0.111595675 -0.29838967 0.27582794 0.10899103 0.23428619 -0.24099 -0.50966585 -0.2946386 -0.3682953 0.18457203 0.030746562 -0.2610951 -0.3452792 0.070759 -0.2992341 -0.050891433 -0.042195093 0.02242183 0.07942649 -0.498561 0.14129868 0.1345979 -0.17013311 0.524957 -0.12665933 -0.14800419 -0.29678577 0.18746996 0.040315002 0.18349452 0.058185276 -0.1502265 0.04340232 -0.13080435 -0.24392952 -0.20527545 -0.094718 0.46553493 -0.33827785 -0.1506627 0.269119 0.15360652 -0.13128634 -0.026163295 -0.09366409 -0.19837643 0.12346672 0.070161596 0.2946801 -0.31756043 0.117028706 -1.282327 -0.11539843 -0.11205597 0.08788103 0.0025022097 0.35648358 0.17890343 0.3207069 -0.28352678 0.019611169 -0.45475867 -0.011606203
下 0.76319057 -0.29564646 0.18186888 0.033956885 -0.04879232 -0.01235131 0.1049822 0.1381096 0.10857813 0.40026835 0.69990253 0.62346125 0.08423157 -0.4417511 -0.16825949 0.023721855 -0.27820998 0.120121256 -0.24816164 -0.20658442 0.08248151 0.08172572 -0.2881286 -0.21222408 0.39924777 0.23517433 0.14599931 0.29266432 -0.1132095 -0.47469908 0.30518624 0.07550816 -0.39965245 0.48281896 0.24567893 0.5309615 -0.15377697 0.09738309 0.19156045 -0.23032564 0.06477406 0.2360846 -0.01608755 -0.15267476 -0.06460022 0.02993748 0.083509244 0.13928966 -0.5110035 0.26244888 0.018985145 0.13942993 0.2119966 0.25181594 0.010991809 0.16504459 -0.08568857 0.031450633 -0.17096265 -0.30520687 0.6795032 -0.3364254 -0.09557665 -0.47040054 -0.2709295 0.11323906 0.24537508 0.37983918 0.20750514 0.31090966 0.18083918 0.050484553 0.34214097 0.17174011 -0.26596192 -0.35272634 0.22761154 0.32262614 -0.26288998 0.029592926 -0.07327702 -0.032356367 -0.25295278 0.08658763 0.046214007 1.055622 0.20899427 -0.34252435 -0.8457643 0.2550795 -0.17527153 -0.076704234 0.0022099025 0.2904546 -0.21385127 -0.34946245 -0.20019345 -0.24115133 0.16826813 0.28057602
贡 0.09324156 1.5743694 -0.18966994 -0.6450144 0.20708703 0.40485054 0.09756457 0.4145349 0.40301576 -0.07177785 1.2241106 -0.084347665 -0.29443783 -0.06854969 -0.6081355 0.11285564 -0.46750373 -0.11594287 -0.12553494 0.030604739 0.526569 -0.31516284 -0.35898826 0.20829679 -0.16658995 0.021808904 0.36888793 -0.5931969 -0.25393778 -0.49499875 -0.40113437 -0.19581564 0.1429664 -0.32919163 -0.013586975 -0.0039986093 -0.37120607 0.36597666 -0.12457535 0.53231514 0.18978451 0.16459912 -0.38926113 -0.17682688 0.20352823 0.17271496 0.22157788 0.074786 -0.50790864 0.228248 0.12088217 -0.16970551 0.2564747 -0.4071745 -0.33501092 0.4795771 0.16040926 -0.64592844 0.15126993 -0.0721613 0.09331278 0.529154 0.23468836 -0.17970905 0.21426423 0.081403345 0.060713507 0.43073982 0.08868018 0.121448725 -0.28362983 -0.25500116 0.49039862 0.5421615 -0.05095091 -1.118694 -0.03195351 0.14593166 0.08979362 -0.13387942 -0.12926564 -0.027702158 -0.49099538 0.27560884 -0.45468715 0.47932234 0.32935905 0.04251533 -1.7958812 -0.16636339 -0.1778843 -0.27195975 -0.07684701 -0.32868007 0.19198538 -0.16356306 -0.041350767 0.058527198 -0.03648663 -0.08169072
欲 -0.100603476 0.8274647 0.025083628 -0.25485465 -0.1495536 0.27968356 -0.112946786 0.032545313 -0.0005680555 0.51291823 0.083123945 -0.54423577 0.26291296 -0.1899506 -0.2951856 -0.037419304 -0.2923349 -0.24965626 -0.5120675 -0.30017433 -0.06313705 0.2003855 -0.6895585 -0.24318649 -0.08108052 0.11374597 -0.15334769 -0.14556918 0.16745217 0.20302887 0.31200543 0.051776193 -0.20944849 -0.031463344 0.20934181 0.032080647 -0.09187772 -0.012835525 0.12007466 0.20728159 -0.27413708 0.04776288 -0.101600125 -0.5362316 0.05949913 -0.15962675 -0.15121846 -0.0082869725 0.027208993 -0.0039470843 -0.007003718 -0.027576026 0.4875978 0.15752141 -0.01553621 0.24456473 0.26345956 -0.21544465 0.04065609 -0.0054384307 -0.067317 0.45869055 -0.23550855 -0.18694821 -0.59678733 0.22721134 0.20001036 0.09201115 -0.01069276 0.03743382 -0.07928026 -0.04707616 0.29296064 0.6453196 0.003738523 -0.4841649 -0.12250756 -0.2915878 -0.3089437 -0.091527894 -0.101601444 0.16732442 -0.013301288 -0.2777613 0.5598889 0.7813379 0.032698225 0.06458127 -0.90803325 0.22802979 -0.19154711 -0.22369312 -0.3160831 -0.09244964 -0.43660936 0.5240772 -0.19174297 0.051309437 -0.1115965 0.3657445
诸 0.37165952 0.2147212 0.13585052 0.14201686 -0.01848014 0.18873093 -0.07151564 0.2101404 -0.11344984 0.54812825 -0.084765285 0.22627605 0.44104588 0.35951227 0.3618511 0.3651061 0.3791398 -0.37505102 -0.15138036 0.24061087 0.281008 0.03985883 0.14073603 -0.36667588 0.05395324 0.024942687 -0.09662836 -0.16772124 0.027623296 -0.20409952 0.45038587 -0.17286704 0.1285947 0.08169389 0.011061409 0.05297902 0.173268 0.14810888 0.24953933 0.49117747 0.12687328 -0.27128398 -0.04032409 0.18805857 0.36977676 -0.28863677 -0.063426174 -0.13884902 -0.28847662 -0.43423605 -0.22951862 0.047935095 0.12189366 0.17917252 -0.34473783 -0.090370774 0.3008237 -0.23249775 -0.0025848132 -0.36066678 0.46274602 -0.19999038 0.14444646 0.5481725 0.036074556 0.17690903 0.2581591 0.09698955 -0.41549468 -0.8252622 0.032542773 -0.15618958 0.25549948 -0.098161764 -0.081685126 -0.23394597 -0.08323122 -0.22728944 0.029912189 0.36023483 0.24941683 0.018345876 -0.6553504 0.019129641 -0.27341956 0.24016109 -0.10053082 0.6411082 -1.3109424 -0.108733915 -0.049642846 0.20433244 -0.33529344 0.23170352 0.6552241 -0.049581893 -0.73530716 -0.53647363 0.062157765 -0.018545168
从 0.022385353 -0.32548776 -0.048748452 0.1482102 0.04765249 -0.027849823 -0.23205353 -0.03340765 0.057131063 -0.3310414 0.21290326 -0.059209324 -0.21054105 -0.4732665 -0.06687291 -0.45331118 -0.28828955 0.3016245 0.08793443 0.2522626 -0.019166252 0.53042597 -0.18450788 -0.39540225 -0.25362256 0.55529416 -0.2509628 0.07860618 0.1593042 -0.47630572 -0.21823703 0.21904142 0.11794034 -0.015597895 0.087092444 -0.01582061 -0.77670103 -0.048520815 0.16285767 0.09696467 0.39081663 -0.09777763 -0.11411252 -0.16255848 0.03433737 -0.039063673 0.18567231 0.39405626 0.13191973 0.11188268 0.110856794 0.042130098 -0.03849429 -0.17869085 -0.18732022 -0.12991041 0.19322786 0.26816684 0.61749655 -0.19369695 0.4487837 -0.115353726 0.4133653 0.21932837 0.3271288 -0.14379147 -0.03892763 -0.36255896 -0.23197305 0.004733302 -0.09067958 -0.28086165 -0.2523565 0.401834 -0.17900379 -0.52353156 0.14829822 0.3167634 0.04274599 -0.26017323 0.07560014 0.47533953 -0.30472332 -0.13468 0.6657336 0.64910513 -0.23846203 0.10572328 -0.8803015 -0.23188153 0.076810256 -0.22850049 -0.49508008 0.15996246 0.13023703 0.010399892 0.35191348 0.24120662 0.20897081 0.4620178
文 0.22982414 -0.07962144 -0.16111824 0.28493953 0.21234041 0.12920365 0.33515397 -0.3717896 -0.16293189 0.07937184 0.579845 0.42593253 0.0024837365 0.19237731 -0.0832399 -0.099526204 0.5289512 0.156254 0.2063852 -0.014464435 0.022501808 0.24963066 -0.08581272 -0.14712088 -0.09321512 0.081287995 0.067829125 -0.028216887 0.040495533 -0.6300785 -0.20610185 -0.10473798 -0.44561937 0.051029656 0.20142956 -0.0074786437 0.34147862 0.51063395 0.30838126 -0.020899652 0.2602993 -0.20325457 0.07410914 0.092725135 -0.0655004 0.2442528 -0.12877803 0.12224242 -0.06719589 -0.082194604 -0.19499914 -0.16886914 0.15819412 0.02170121 0.42549482 0.36733422 0.23901531 -0.3841313 -0.16680673 -0.10479812 0.0959731 -0.29629743 -0.1625014 -0.35016456 0.04173242 0.14993583 -0.33200634 -0.33963653 0.039805297 0.27420127 0.09725996 -0.15291975 0.07918786 0.077627614 0.010103281 -0.3912925 -0.1398172 0.34944978 0.16821513 -0.4192153 0.42832413 0.09716451 -0.24767856 0.22629036 0.17150111 0.70378417 -0.0014599748 0.113861345 -0.7374208 0.23799223 0.011818051 0.32682434 0.31419232 -0.07807584 -0.14083831 -0.2518497 -0.10531287 -0.2803895 0.17619564 -0.2241378
政 0.15310661 -0.36330584 0.04044514 -0.1916126 -0.14347915 0.14539999 0.40586832 0.17177851 0.10663836 0.040341325 0.6815736 0.11494728 -0.19983634 0.46900567 -0.19604124 0.10479533 -0.3185319 0.13824242 0.035945833 -0.23490462 0.07952129 -0.1834752 -0.30158156 -0.091353044 -0.37863052 0.38336024 -0.15442325 0.13828395 0.27869588 -0.3786438 0.18317838 -0.029705249 -0.11906716 0.17267264 0.20047548 -0.31231308 -0.013798014 0.24919756 -0.2779219 0.3624195 -0.36058375 -0.34133667 0.18945077 -0.28141537 -0.3712842 0.022298919 -0.29558617 0.0517559 -0.017228195 0.18567047 -0.027739547 -0.059946533 0.6405997 -0.09380551 -0.41983163 0.2481013 0.65555155 -0.08034976 -0.12973087 0.1409917 0.80693173 -0.42176232 0.09231811 -0.5553222 -0.27180773 0.11378998 0.16251796 -0.15176748 -0.6069005 -0.37801248 0.02415125 -0.25026715 -0.05275731 0.052856203 -0.5249001 -0.5359098 -0.011789364 0.24799356 -0.25608322 -0.06512552 0.043410506 -0.16791129 -0.7791935 -0.018860357 0.29142284 0.7339225 0.59866494 0.12435484 -0.85296017 -0.10602824 -0.007567711 0.079563215 0.24454424 0.3741978 -0.27986312 -0.3635883 -0.59610933 0.5117346 -0.030161267 0.047933713
食 -0.076637834 0.5446033 0.073382296 -0.078705445 0.15235294 0.10869295 -0.07388326 0.18479769 -0.07626729 0.72970414 0.14885722 -0.71256804 -0.81334406 0.39331523 0.027787767 0.19951802 0.03849731 -0.41356963 0.58820766 -0.35938203 0.13270615 0.29762116 -0.20285721 -0.22814114 -0.24908613 -0.019914666 0.13125762 -0.31099668 -0.052362625 -0.08540085 0.24132888 0.2805019 0.26424086 0.22586441 0.15922624 -0.24130933 -0.18069085 -0.29996672 -0.4946093 0.100196354 0.02537661 -0.025357278 0.3351861 0.11820854 -0.21346709 -0.23929363 0.1774686 0.059913404 0.26700753 -0.42172268 0.12865567 -0.09874587 -0.058263153 0.10793627 -0.23566252 -0.15814422 -0.10126105 -0.46736327 -0.30181387 -0.12035811 0.0042443303 0.22537892 -0.068506785 -0.11129998 0.09258098 -0.05709823 0.30969232 0.009603891 0.39835688 0.48290464 -0.25083792 0.35425586 -0.42278582 0.18016039 0.144371 -0.5467883 0.15075155 0.46997002 -0.03767872 0.023537755 0.1854661 -0.13108103 -1.0462837 0.2822864 0.50845116 0.71976537 -0.47796598 0.47011808 -0.5238025 0.024311956 -0.116362676 0.29498395 -0.27614775 -0.024872819 -0.14380638 -0.21785115 0.04917498 0.30504277 -0.1725741 -0.3487506
善 -0.29835895 0.2208243 0.3108714 0.3741098 0.03767181 0.13972846 -0.19981231 0.03354808 0.11450667 -0.24610351 0.16357507 -0.08455963 0.07281496 0.28571904 0.20039235 0.2973989 -0.202204 -0.388806 -0.23420729 0.02192184 -0.14225404 -0.6615 -0.01662495 -0.10303315 0.13350263 -0.018299429 0.20664738 -0.12200632 0.5379636 -0.55025935 -0.097507834 0.08416834 -0.0036363646 -0.051220287 0.1676467 0.024673136 -0.040063273 -0.15320712 -0.28220335 0.3063008 -0.13054048 -0.05542527 0.38306955 -0.11552953 0.035650674 0.10777864 0.16160531 0.26371798 0.21408783 0.37753052 -0.006087494 -0.32205537 0.52169293 0.13429978 -0.10150635 0.32288456 0.3812316 0.19688493 -0.054927085 -0.32108217 0.2996972 -0.08207395 0.30044714 0.20683025 -0.0337157 0.15204625 -0.16400172 0.135228 -0.24264301 0.08914922 -0.12052668 0.11713025 -0.15757251 -0.07263022 -0.28492612 -0.64183694 -0.0066250875 0.22047369 0.13323873 0.10655975 -0.32012504 -0.10680976 -0.3181421 0.13157032 0.2777115 0.56113654 -0.35527435 0.45771506 -0.85896385 0.20541596 0.30449307 -0.33099708 -0.4570265 -0.13198346 0.257439 0.41615355 0.1185374 0.018745229 -0.16480914 0.04196647
后 -0.027113223 0.024743352 0.12074416 -0.27092323 0.29866204 -0.06352891 -0.6148116 0.2689383 0.4931996 -0.28796503 0.018236002 0.15931681 -0.08809012 0.7181228 -0.45703322 0.050380398 -0.47795463 0.07564389 0.11582891 -0.10195462 0.19348033 0.1617557 0.38931924 0.551528 -0.22170122 -0.080591075 0.39581397 0.07609024 -0.096216634 -0.013050482 0.13487211 -0.040270414 -0.6189585 -0.3717511 0.142289 -0.078956954 -0.6506418 -0.14444557 -0.40767404 0.5048446 0.089943565 0.16306008 -0.079262994 -0.22044691 -0.29280022 -0.23313227 -0.44687113 0.019720027 -0.22332129 0.13186692 -0.42703187 -0.4248942 0.043053508 0.09337448 0.059908066 -0.3443227 0.28374967 0.051346097 -0.005465781 0.41445675 0.75223374 -0.020385718 -0.03363811 -0.2258366 -0.23566997 -0.032819517 -0.427254 -0.18664289 -0.23598884 -0.30350396 0.3631011 0.45004106 -0.015851503 -0.7178 -0.55089456 -0.29736197 0.105961666 0.0038032755 -0.117913924 0.26129907 0.33491346 0.19499812 -0.7716738 0.28025404 0.63670564 0.5093849 0.20343614 0.0061862553 -0.8619563 0.070255406 -0.1268028 -0.26045293 0.0284165 -0.25580013 0.0078853695 0.10037387 0.006932754 -0.023936924 -0.3008522 0.2669813
德 -0.017300742 -0.19327524 -0.07144898 -0.002942443 0.13202822 -0.16132444 -0.1283817 0.3739094 0.05508647 -0.25923193 0.106790625 0.16805601 -0.20386623 0.012798823 0.06786348 0.438118 0.14604376 0.05912782 -0.06379169 0.09756728 0.13227184 -0.55657357 -0.10919849 0.32897317 0.08950631 -0.3622169 -0.18813494 -0.24847917 0.32392305 -0.48886877 0.5520554 0.33820367 -0.4238365 -0.31192344 0.3800859 -0.40016276 0.24575822 -0.35558662 0.2625825 -0.023143472 0.0771925 0.2091652 0.19911528 -0.16011962 0.08279923 -0.026218213 -0.10553224 0.3796009 0.265482 0.102443755 -0.068236105 0.5963952 -0.21461956 0.10241799 -0.10566642 -0.012234933 0.11867346 -0.18864018 0.023447907 -0.3654614 0.71890974 -0.4956692 -0.22209597 0.09740919 -0.01045488 0.5587873 0.013041651 0.0027956252 -0.36353895 0.24107982 0.3176892 -0.08835695 0.7456305 -0.19976088 0.26478955 -0.6910447 0.23843168 0.3675408 0.06730035 -0.038702168 -0.3763258 0.24941853 -0.7221992 0.110363856 0.46801367 0.80683184 -0.11948105 0.08062088 -0.63064295 -0.33576703 0.3629877 0.55085135 -0.22339994 0.041781392 -0.11229282 -0.013023445 0.034378346 0.28230336 0.12321972 0.1517978
求 0.1633681 0.044078548 0.03157111 -0.15711257 0.23439097 0.19328249 -0.0238373 0.06663075 -0.08972343 -0.04135695 -0.12782499 0.053296316 -0.12538016 -0.31859675 0.26195556 0.2401022 -0.0147373285 0.31650743 0.054440722 -0.12659967 0.0421233 0.46750712 -0.16436474 -0.20142758 0.029177174 0.028634615 0.2851198 -0.17105661 0.023868384 0.2628148 -0.047047764 -0.2635206 0.08977084 0.17554496 0.16527869 0.13472901 0.20382248 0.17248507 0.03343225 -0.12733968 0.070994146 0.39228103 0.4643414 -0.067903 -0.2411964 0.02417197 -0.04200279 0.26534623 -0.13690394 0.13967004 0.24279957 -0.112165235 0.0027532596 0.114594005 -0.2428184 0.46394166 -0.11620948 -0.61573374 -0.11144846 -0.5943208 0.3930549 0.19813594 -0.9615758 0.24774034 0.13763706 0.3383058 -0.4575791 0.1758975 -0.18972807 -0.030033108 0.2677642 -0.24016652 -0.082838506 -0.018975025 0.047084592 -0.78736836 -0.09449095 0.63860446 0.112645365 -0.042366106 -0.51609325 0.0850479 -0.6205437 0.1643493 0.2752323 0.57885927 -0.075228654 -0.15284841 -0.6847351 -0.18428479 0.19444063 0.47136885 0.17684987 -0.17553437 -0.09057499 0.1001816 0.1813208 -0.42717022 0.04222748 0.13734628
对 -0.12766042 0.76709557 0.11807868 0.25246522 -0.10709016 0.19011782 -0.587013 0.30778718 -0.05950988 0.1234561 0.26192802 -0.3159985 -0.05067678 -0.23501246 0.359898 0.34252664 -0.16411446 -0.0810208 0.35543212 -0.25170702 -0.33573535 0.55820537 -0.21781923 -0.54817617 -0.43090454 0.11361166 -0.103193656 -0.13044672 -0.2962946 -0.23350741 -0.0011646652 0.19812118 0.06628944 0.09400013 -0.20373365 0.00023454176 -0.4143127 0.26830468 0.114764325 0.13106254 -0.3511121 0.223613 -0.11508637 -0.34879532 -0.4218546 0.5153865 -0.16749167 0.068524815 -0.48336616 0.4622169 -0.16785441 0.48436764 -0.19902657 -0.05989639 -0.1996144 0.30369022 -0.15780123 -0.51572984 -0.0023215278 -0.36961815 -0.044710994 0.12423916 -0.37772986 0.16836445 -0.09978527 -0.1572254 0.0047211195 0.40207243 0.011611762 0.15553914 -0.39211205 0.0003744117 0.26878026 0.28618106 -0.49382424 -0.92288876 0.15539043 0.060508244 -0.19284077 -0.2683289 -0.21706834 0.47117865 -0.8234308 -0.07253521 -0.26210254 0.22252552 -0.28390297 -0.30222923 -1.3926786 0.10100082 0.096306644 0.044723358 -0.19869088 0.14962843 0.55061483 0.18084331 0.11903724 -0.19050589 -0.1978406 0.10983124
恶 0.033693735 -0.42521515 -0.20303893 -0.08721169 -0.4557286 -0.0068442854 0.25787953 0.5299112 -0.064994074 0.58167005 0.65251327 0.26141143 0.13980882 -0.48698315 -0.115875736 0.050566144 0.3330124 -0.5827319 0.15027064 0.17169726 -0.1996434 -0.014686433 -0.21235389 0.010447905 -0.007455891 0.20192774 0.05964152 0.50702864 -0.46120223 0.32038334 -0.037489973 0.12512907 0.21239504 0.08466007 0.20931369 -0.0751049 0.24637756 0.1294351 -0.17692104 0.187807 0.11700385 -0.20392074 0.16125336 0.04756662 0.31026527 0.096281275 -0.068012446 0.26325116 -0.07257379 0.19139315 -0.08117952 -0.38530365 -0.060782887 0.3124767 0.06964731 -0.111865275 0.22169968 0.078900844 -0.31247267 -0.3879232 0.4034286 0.30697674 -0.19489959 0.15860547 -0.2633247 0.0154301 0.46546736 0.219394 0.29773358 -0.071054086 -0.4915975 0.16509055 -0.34268358 0.21124053 -0.5677985 -0.629034 0.060363524 -0.11781708 -0.29876947 -0.26682773 0.19407079 0.12804548 -0.49128142 -0.11148402 0.44299793 0.677878 -0.5611439 0.49270543 -0.7043191 0.34928793 0.089500695 -0.24525489 -0.23260489 0.045754272 0.035975058 0.006876166 -0.2712551 0.43840313 0.16996378 0.60890293
信 0.4136598 -0.38062194 0.15830353 -0.24318208 -0.18675844 0.042420454 -0.002818561 -0.3759327 -0.20770372 -0.13787131 0.25989878 -0.21313357 -0.031536214 0.0046583964 0.19414732 0.3762924 -0.16149436 -0.024899708 -0.24246027 -0.21998236 0.088096395 -0.50026155 -0.7191259 0.12615456 -0.11692892 0.24858934 -0.18009917 -0.50565875 -0.13927858 -0.73004496 0.049019698 -0.104185574 0.43008977 -0.004573458 0.33098084 0.019474942 -0.33216926 0.040380854 0.42869037 0.036462903 0.19747609 -0.40061784 -0.11337729 0.41393512 0.17596965 0.113111295 -0.20869125 -0.2481529 -0.037223816 -0.2653357 -0.12810382 -0.013964905 -0.30566028 -0.21124576 -0.08365635 0.26300156 0.018376216 -0.008141946 0.15171759 0.17237276 -0.18296137 -0.033803314 -0.21847545 -0.17204377 0.20387644 -0.40729246 -0.3440533 0.057046376 -0.24103317 -0.27103642 0.04846998 0.34603658 0.08438485 0.46296716 -0.038047936 -0.82933885 0.41993082 0.03742329 -0.13755584 0.24817014 -0.30397087 -0.40293524 -0.6651199 0.39492553 0.7814488 0.7328087 -0.30345306 0.52975404 -0.68175435 -0.06947765 0.29782313 -0.022473859 0.108180486 -0.46411547 0.22070459 0.32912824 0.112007834 0.41831622 -0.36476156 0.49160054
死 -0.1633708 0.5759952 0.49554366 -0.38965833 0.092891105 -0.4114657 0.1755085 0.12214577 0.0404246 0.13688652 0.41856623 0.44600534 0.30932462 0.38321492 -0.04691504 0.6397026 0.09898307 -0.18217815 0.18693402 -0.47119212 -0.45140025 -0.2744388 -0.4018604 0.11422834 0.13927425 0.26644483 -0.6507057 -0.08266587 -0.30866662 -0.27200896 -0.058095742 -0.078230366 0.096317835 -0.019849828 -0.35221067 -0.09907935 -0.34713545 -0.040514145 -0.5103224 0.038634576 -0.18168283 -0.1662291 0.3365925 0.012396991 -0.11299903 -0.47650778 -0.51290137 -0.36263818 -0.013612071 0.09887582 -0.34053287 -0.21315934 -0.074734725 -0.27376348 -0.1295886 -0.094730034 0.43786687 -0.41068238 0.17214763 0.07264104 0.3212346 -0.2654504 -0.38031155 0.17768857 -0.11367786 0.12271082 -0.23551579 -0.23811452 -0.037295304 0.15353836 0.03154765 0.26162 -0.13451526 -0.41010568 -0.4413387 -0.14037202 0.07685124 -0.048693802 -0.050170776 -0.19891013 -0.32347208 -0.047206763 -1.0188402 0.01455225 0.57181585 0.5371708 0.4935624 0.32832858 -0.6530683 -0.04295659 0.41055837 -0.4350718 -0.08470909 0.16649792 0.11239291 0.20119435 -0.07794285 -0.12575397 0.123002805 0.24857232
然 -0.41285154 -0.09358279 0.31863368 -0.015571034 0.093316056 0.28499356 0.19173793 0.08378245 -0.25496733 0.037716266 0.82001233 -0.13684382 0.10967808 0.29791135 0.23426163 0.14735112 -0.69754434 0.38118854 -0.13589658 -0.41245857 -0.022956038 -0.051516227 -0.16694008 0.25829756 -0.029398011 0.21379046 0.63830286 0.054652665 -0.13862285 -0.07997796 -0.16998239 -0.268947 0.1459982 -0.21423337 0.030542135 -0.08863508 0.49026352 0.073054604 -0.049511854 -0.10252617 -0.2567068 0.09874565 0.16666883 -0.18334289 -0.5700397 0.25442997 -0.23632744 -0.48986316 -0.1953016 -0.051888265 -0.17093797 -0.51263815 -0.5614921 0.19092265 -0.4780777 0.42400742 -0.39641935 0.031967048 0.19565766 -0.009687474 0.19302642 0.2814775 0.21585575 0.37728545 0.075495206 -0.03068416 -0.28864074 0.4147945 -0.32544678 -0.20498131 -0.15311296 -0.18242359 -0.39662343 0.10535217 0.056500353 -0.41615102 -0.22349235 -0.11450226 -0.31520128 0.021881396 -0.16723624 0.020798614 -0.66077435 0.06399413 0.6152792 0.19660112 0.17253715 -0.06380747 -0.98174834 0.378685 0.25587595 -0.16099516 -0.2063191 -0.052715093 -0.12909633 -0.14551385 -0.37532339 0.18186148 0.18564302 0.053334046
《 0.32788604 0.779065 0.276521 0.35590574 0.21798886 -0.036341347 -0.15960363 -0.021314014 -0.39823848 -0.062279154 -0.041495975 0.15081358 -0.3520387 -0.0155114075 0.26591942 0.0329226 -0.18647139 0.3242647 -0.15552437 0.051453624 0.03045231 0.008598313 -0.16976754 0.20890747 0.1418714 -0.20082916 0.32296038 -0.35457924 0.03268196 -0.2751622 -0.13991424 -0.04684816 -0.060523946 -0.07669222 -0.1444742 -0.002296236 0.58682084 0.22691093 0.37874645 0.19938251 0.04554804 0.3234628 -0.13308573 0.29391077 -0.13060519 0.45589894 0.20572804 0.13202764 -0.50014234 -0.26001167 -0.046198495 -0.47039476 -0.007159543 0.07755484 0.07690603 0.24599876 0.39855793 -0.8276834 0.019029617 0.34779224 0.24164316 -0.4113472 0.39260224 -0.46290112 0.01983144 0.1770121 -0.060896516 0.02235804 0.15112388 -0.2977841 0.008807488 0.03442205 -0.32762328 -0.17557755 0.20808995 -0.19169441 -0.013557112 0.35631084 0.055909783 0.058331344 -0.040884465 0.0061864797 -0.9073882 -0.10901429 0.6473681 0.0039247656 0.01054717 0.26476526 -1.3313977 -0.07843808 0.007975032 0.023447316 -0.07359027 0.94855136 -0.29588842 -0.36023733 0.18880697 0.26145893 0.3052709 -0.14680082
