1352 50
， -0.011779872 -0.2588262 0.08663519 -0.023081657 -0.032978695 -0.15383781 -0.052953854 0.0048170774 -0.004917339 -1.7369875 0.09954777 0.041067917 0.09706816 0.0013961837 -0.06789799 -0.08900963 0.40480617 0.0047766715 0.13990642 -0.06973209 0.0730557 0.03382567 0.10168238 -0.10511081 0.12308617 -0.0021641683 0.04300525 -0.09927768 0.071605854 0.067206524 0.06282355 0.081015326 -0.114274316 0.009947086 -0.00034574268 0.13763817 -0.10491114 -0.01567648 0.06968004 0.08189516 0.0401918 -0.041409217 0.016514912 -0.054534066 0.002448555 0.19018348 0.00022932485 0.04237856 -0.0427078 -0.025187144
子 0.10725237 -0.11833217 -0.099576205 0.20737243 -0.0072625065 0.034927685 -0.1784507 -0.04227573 -0.03710683 -0.74470985 -0.010571844 -0.2516511 -0.09335986 0.06317218 -0.006742667 0.54526705 -0.54974544 0.07787052 0.008659341 0.00788352 -0.17144915 -0.10641758 -0.08044864 0.15502584 0.022648938 -0.14507014 0.044285864 -0.40847746 0.1508209 0.07008726 0.33367908 0.03533505 0.014985269 -0.11020215 -0.07276024 -0.07734894 -1.2672726 -0.28393275 -0.18080369 -0.02187222 -0.24266823 0.26993397 -0.24780813 -0.008678247 -0.044887338 0.07565934 -0.045550752 0.8502368 -0.1184215 -0.005238642
。 -0.11162449 0.23039547 0.12166309 -0.048170153 -0.04437337 0.26119572 0.31642234 0.32370248 -0.054139815 -1.693228 0.030028082 -0.45000568 0.005708952 -0.032501277 -0.064397216 -0.14265011 0.09225784 0.21699627 -0.3222423 0.04314067 -0.17260616 -0.13776952 -0.30185422 -0.19679946 0.036558434 -0.06992621 0.071367145 0.051702306 0.07346695 -0.18936619 -0.3705097 -0.12460608 -0.18375501 0.11242726 0.03492201 -0.18167652 -0.46413127 -0.1788227 0.29575473 -0.049190752 -0.13198048 0.09038418 0.08554684 0.030273411 -0.042883478 -0.1428201 0.07042728 0.2186789 -0.15156496 -0.31535992
： 0.1406591 -0.20076254 -0.23530494 -0.12711689 -0.22822002 0.088565744 0.032628845 0.034083597 0.15099026 -1.6243668 0.054274544 -0.9263573 0.049563535 0.09465335 -0.016183589 0.11045838 -0.07591878 -0.14211005 0.056683287 0.073672086 0.24782766 0.054917097 -0.019155826 -0.061527796 -0.19878274 0.20911169 -0.11662709 0.3488091 -0.47602227 0.11600018 0.48034462 -0.09561306 -0.1723984 0.14037573 -0.3178102 -0.0035343287 -0.2689066 0.087304115 -0.49400783 -0.22189799 0.18057217 0.16599093 -0.1388877 0.16934592 0.113782726 -0.091332085 -0.13059895 -0.0909669 0.13598354 0.16856302
曰 0.0019741626 -0.41524374 0.09276168 -0.17767103 0.09028813 -0.12757699 -0.18613265 -0.011771939 0.18205665 -0.7513392 0.3487018 -0.4744681 0.037939668 -0.043686833 0.10272228 1.0463107 -1.2918947 0.28329635 -0.119949065 0.10485691 0.14385045 0.120375074 0.04039153 -0.0043982863 0.18722333 0.29671443 -0.059630048 -0.015485514 0.046588447 -0.022218391 -0.3971562 0.08431891 0.19267903 0.16256744 -0.10624153 -0.1709505 -1.083099 0.20056213 -0.19123268 -0.27155888 -0.20486748 0.08272733 -0.21979631 -0.6316788 0.24421145 -0.19200072 0.111008674 0.4798316 -0.05178568 0.1414322
之 -0.2553103 -0.008424889 -0.13020378 -0.11332574 -0.021818643 0.044769514 0.1355952 -0.061585814 -0.131893 -1.051768 0.048383113 0.3019469 0.005751775 -0.3801 0.18653211 -0.08549755 -0.52508354 -0.10434053 -0.15378915 0.30331284 -0.12454981 -0.15016651 -0.2325946 0.31758925 -0.1289816 0.042455897 0.08399721 0.20931768 -0.1420257 0.04510512 0.15135227 0.24791278 -0.18585443 -0.08629956 -0.077600665 0.053035296 -0.032571036 -0.1178927 0.028377721 -0.24209748 -0.18426186 0.12864606 -0.10095316 -0.0155570805 -0.020127807 0.26573494 -0.10343573 0.51523286 0.25047705 0.033635423
不 -0.122642525 -0.12977652 0.07092759 -0.10519188 -0.20088062 -0.39073697 0.08954758 0.15189582 0.01724917 -1.0465295 0.043578114 0.15876721 0.023760108 -0.109343134 0.05622613 0.4198411 -1.0353668 -0.15485756 -0.17110027 -0.32205763 -0.002863531 -0.09860922 0.07978143 -0.2513104 0.07059652 -0.01934573 -0.12993 -0.3278706 -0.29543298 -0.13357791 -0.036731355 -0.169593 0.15894869 0.01982419 0.020959226 0.16803022 0.3129217 -0.22304639 -0.10596506 0.048162088 -0.0035693822 -0.025581215 0.11144249 0.05653186 0.066237405 0.1739151 0.23378469 -0.05885339 0.008554878 -0.24502374
也 -0.009730153 -0.08459585 0.08815928 0.029451184 0.21648149 -0.056862194 -0.10581898 0.040587537 -0.14107023 -0.9141702 -0.11535843 0.24449286 -0.016287206 -0.05340876 -0.40650856 -0.66344553 -1.5619847 -0.3439936 -0.08819419 0.1337504 -0.034444105 -0.08249636 0.10251734 -0.021979233 0.14218892 0.02318099 0.21844181 -0.0024175073 -0.21175767 0.14999723 0.20450948 -0.054839704 -0.21659529 0.13491035 -0.07263648 -0.27742743 -0.12601237 -0.18769331 0.31502774 -0.09528089 0.09164978 0.038902584 -0.058024622 -0.055258133 -0.120966636 -0.108423695 -0.17637378 0.264603 0.05008272 0.040245578
而 0.18553282 -0.16529655 -0.18423043 -0.019375017 -0.23711592 0.14371732 -0.01970002 -0.31122404 0.004231521 -1.6179769 -0.03361579 0.48118892 0.28398076 0.25620645 -0.15670837 0.25661263 -0.39588073 -0.10649961 0.014265875 -0.021819675 -0.0065797428 -0.10821782 0.05713601 -0.3198626 -0.35961965 -0.12788384 -0.12743941 0.09720822 -0.39578223 0.1072719 0.24708869 -0.030868739 0.40055513 0.042849712 0.29602194 -0.386207 0.27655515 -0.04347899 0.25168127 -0.19553052 -0.028410565 0.24864182 -0.2807852 -0.11406062 0.24983472 -0.21212322 0.041040197 0.18907797 -0.09246646 -0.2038594
？ -0.21615587 -0.018644124 0.019952457 -0.1628051 0.027935108 0.053319152 -0.34262416 0.2181009 -0.1315165 -1.5510272 -0.12536535 -0.8086821 -0.13234739 1.0078384 -0.0066048927 -0.29256597 -0.0550609 0.047677025 -0.023381507 0.003685156 0.44445327 0.3392682 -0.21456428 -0.3599563 -0.08086979 -0.062184077 0.01851542 0.028151227 0.19562404 0.13390715 -0.30915603 -0.16926225 0.2944074 -0.13834779 0.031819064 0.018397225 -0.0904565 0.093379624 -0.29871973 0.18698499 -0.19594733 0.2950344 0.057372674 -0.33508465 0.09845822 0.41080335 0.13556752 0.48225838 0.30628535 0.13514546
其 -0.049140047 -0.11955995 0.037217252 -0.24797457 0.2591316 -0.0871758 -0.24282263 -0.06674413 -0.15978095 -1.0431731 -0.04197641 0.018751526 0.123739846 0.15336323 0.331461 0.010584942 -1.0271568 0.4513891 0.10145883 -0.020657193 -0.36324915 0.047293924 0.04833752 0.021876268 -0.23462029 0.42374098 0.004626173 0.25296015 -0.4115841 0.13803025 -0.07482545 -0.019504072 0.025556527 -0.0057264394 0.117971614 0.30416143 0.5432822 0.28562212 -0.13556305 0.34751496 -0.028026525 -0.2837503 -0.3072841 -0.041150987 -0.2746309 0.094376236 -0.022645267 0.43256345 -0.48744738 0.20812097
人 -0.3395677 0.83286154 -0.10903384 0.042116378 0.016496852 -0.26173505 0.04786315 -0.1104257 0.11595838 -0.83441514 0.22324215 0.17257251 -0.4485095 0.085246794 -0.26340833 0.05575989 -0.42556193 0.060432002 -0.02302401 -0.19154164 0.48979625 -0.10527467 -0.18305485 0.0837003 -0.121964425 0.47890133 -0.32751966 0.090073794 -0.054147013 0.12797312 0.04525358 -0.09164195 0.43483418 -0.4856498 0.28963733 -0.30432776 -0.25139055 0.0903849 -0.32514995 -0.06265499 -0.1168723 -0.26755008 0.045531325 0.21375751 0.040306136 -0.08769419 -0.19708788 0.48652893 -0.3996716 0.22600672
者 -0.2899748 0.04259134 -0.08958352 0.054747157 0.10013357 0.49574322 -0.5128302 0.2942663 0.04174609 -1.1702774 -0.20015627 0.5995287 -0.14490052 -0.087138414 0.26278433 -0.14190589 -0.6727246 0.10932862 0.31665155 -0.36268997 0.32259464 -0.21275587 -0.23147063 -0.076024316 -0.2075484 0.31426945 0.17579785 -0.22602059 0.4446473 0.48074207 0.024627293 0.03028822 0.21111627 0.051027007 0.07624295 -0.3517805 0.16706726 0.23525791 -0.2210141 -0.07036818 -0.12677695 0.06901741 0.24337602 0.024733702 0.2656047 -0.24818023 -0.08325995 0.21084715 0.3879607 -0.050032057
以 0.25142992 0.0149348695 -0.22839147 0.056675587 0.12533805 0.20155339 -0.28357235 -0.040313147 0.102378 -1.2535316 -0.05530095 0.11968259 0.29238704 0.067894556 -0.17126712 0.21259283 -0.5332444 0.034116887 -0.010776995 -0.07419478 -0.035724495 0.019457636 0.15430824 0.34677523 0.30749694 -0.23200862 -0.08631819 0.0931141 -0.0007006792 -0.40554857 -0.077961706 0.2953893 -0.36843857 -0.043639515 0.07266023 0.08821951 0.012721644 -0.47178566 -0.94242966 0.22684512 -0.010506616 -0.0063894815 -0.24142256 -0.28653276 -0.19192657 -0.29192752 0.3407561 -0.3776589 0.0045696734 0.01573071
有 -0.24158362 -0.15545422 -0.57214975 -0.30537847 -0.28431815 -0.5157576 -0.0017228168 0.059103835 -0.2377847 -0.8544014 0.21760839 -0.07440971 -0.29403067 -0.019135065 -0.068430044 0.046600632 -0.61542726 -0.037614834 0.18212095 0.41010344 0.045117185 -0.10250947 -0.034694392 -0.0016641633 0.25464863 -0.067581594 0.2662827 0.09388635 0.523052 0.078824304 -0.2084156 0.078011945 0.0071154954 -0.09153101 0.17141211 0.3343328 -0.19878969 0.47185212 -0.37563193 -0.2688229 -0.31534365 -0.4531531 -0.1335633 -0.05923912 0.44174093 -0.4244657 0.08476758 0.011164555 -0.07748991 0.2639881
于 0.05924997 -0.30676916 -0.24221283 0.40386292 0.235034 -0.1398524 0.09912596 0.058578756 0.034779813 -1.4490936 0.31622207 -0.45415702 -0.1441506 -0.20278725 0.092729315 -0.23188616 -0.35870472 -0.32125846 -0.39843133 -0.3139114 -0.06127986 0.0030611001 0.25517124 0.7234581 0.079306975 -0.007256974 -0.18868971 -0.11473261 0.102276735 -0.06759182 -0.037822507 0.04713182 -0.2677096 0.41395658 0.17177054 0.02636316 0.2082094 0.37344173 -0.22339827 -0.11921518 0.7343862 0.46465826 0.03043417 -0.33172005 -0.31515813 -0.18094993 0.29639363 0.52906 -0.20626068 -0.07370653
矣 -0.06348345 0.58564264 -0.003089076 0.06083448 0.27601847 0.6767408 0.080551095 -0.15960719 0.2976569 -1.015153 0.13009422 0.2455504 0.33203244 -0.11052539 0.07701103 -0.60430235 -1.6659553 -0.16066037 0.17145407 0.26776975 0.65528744 -0.076191954 0.31843504 0.0007370177 0.20940919 -0.17994103 -0.46164486 -0.06373719 0.13689329 0.27290344 -0.02379365 0.31276697 0.32181865 -0.13143872 0.09872503 0.4525277 -0.6580385 0.064107955 -0.053546958 0.25694034 0.4949476 -0.0037718168 0.16414848 0.11795631 0.15180348 -0.12169444 -0.16286856 0.015017847 -0.3010037 -0.13431902
为 -0.3071084 -0.02893326 0.12032808 -0.11647024 0.40446046 -0.15561554 0.0043848203 -0.03131994 -0.22623186 -1.2335002 -0.018946651 -0.07092612 0.25236407 -0.29612944 -0.098505124 0.26877004 -0.31312147 -0.39985895 -0.2867725 -0.135774 0.14057389 0.6089482 -0.068781085 0.4698781 0.17349075 -0.19936423 0.11808475 0.07573681 0.09504012 -0.123698875 0.18689497 -0.48457858 0.21511747 -0.047743905 0.17030641 0.20436996 -0.46703094 0.22790642 -0.33272257 0.571861 -0.6250887 0.13087876 0.27412078 -0.26867723 -0.0022932065 -0.33570582 -0.21675056 -0.282174 0.06869752 0.09522319
君 -0.13209762 -0.015821762 0.15363105 -0.019349694 -0.0143003855 0.038728964 -0.3938549 -0.18747652 -0.2432492 -0.5784903 -0.24766779 -0.13394316 0.19992155 0.43080026 -0.29103014 0.96085864 -1.028534 -0.30310127 -0.3060107 -0.17012312 0.14420488 0.14149716 0.037801813 0.09670722 -0.045561586 0.27747974 0.30275086 0.10550364 -0.5099156 0.085539974 -0.23591788 0.004182638 -0.12292864 -0.2991547 0.528077 0.27514085 -1.1426251 0.13053757 0.29961556 0.21634789 0.038721345 0.03513908 0.3581672 -0.10737185 -0.22944047 0.18135136 0.20151803 0.5936061 -0.26721644 -0.23096052
乎 -0.26296163 0.67421365 -0.42444327 0.37013304 -0.61277866 -0.15785821 0.01677644 -0.07918944 -0.08283998 -1.1984346 0.0950517 -0.1872779 0.7132108 0.31365812 0.05994596 -0.4899869 -0.9628961 0.54570633 0.007169702 -0.29863286 0.012668748 0.16640761 -0.26926467 0.22469604 0.08042388 -0.07388397 0.1570382 0.17230587 0.63381183 -0.02218023 -0.12719506 0.2517543 0.094983056 0.09985017 0.068989135 0.12645924 -0.08779964 -0.20448965 -0.31289026 0.107643686 0.33777753 0.36087438 -0.10153275 -0.2589977 0.43732476 0.09983312 -0.39465386 0.1203728 -0.071730144 0.30495322
可 0.4892221 0.55621725 0.0017335349 0.055722047 0.30290234 -0.13250886 0.35852525 0.13086884 0.206811 -0.9898177 0.058144208 0.2088557 0.25813085 0.18551584 -0.17251804 0.5734432 -0.7241485 -0.4930018 0.023721332 -0.08948231 -0.30746204 -0.10278024 0.6246554 -0.2208291 0.057598934 0.36076233 0.031682476 -0.121880755 0.06111527 0.33643284 -0.05799616 0.024664313 -0.76734936 -0.285835 -0.001799087 -0.29308882 0.26925007 0.26382744 -0.19891772 0.22537115 -0.44454077 0.30196324 -0.031234121 -0.0053392765 0.21581142 0.247686 -0.48991558 0.25443944 -0.019414188 0.2731086
如 0.23874229 0.01941684 0.2881838 0.6541456 0.35997579 0.09709221 -0.60328114 -0.44656336 -0.17491502 -1.093871 -0.17185003 0.20267707 -0.40691242 -0.093947314 0.056306332 -0.13465708 -0.5067568 0.080589935 -0.21998285 0.48642597 -0.4435271 -0.123234764 -0.5105552 -0.26697427 0.08928363 0.08563388 -0.52615744 0.24998714 -0.0034085673 0.3056398 -0.3815002 0.057263583 -0.09067663 0.05612723 0.14631592 0.0922128 -0.6703668 0.45332253 -0.7105994 0.09764551 -0.06802692 0.19036804 0.38735637 0.15502784 0.0024031794 0.2054648 -0.22559293 -0.435246 0.39637482 -0.08451177
与 -0.15437755 0.36883357 0.26524597 0.29196265 -0.40762508 -0.37123778 0.20592257 0.44187924 -0.1403668 -0.9916674 -0.16028887 0.5262841 -0.016510427 0.14337778 -0.41386783 0.27582923 -0.68385553 0.060237538 -0.15077314 0.0013814514 0.15881917 0.18220629 0.05310906 -0.24151567 0.16858941 0.0057278485 0.34956414 0.13370118 -0.080490336 0.3806377 0.32309082 0.1508894 0.044182606 0.6887747 -0.12176914 -0.20059697 -0.5440372 0.07842762 -0.34599635 0.10348382 -0.13408056 -0.13509777 0.11527505 0.004514576 -0.64590317 -0.23978126 -0.50127715 -0.033442065 0.106408864 0.11368994
； -0.50658184 0.22536117 -0.38655847 0.20596048 0.49247923 -0.07812046 -0.17970969 -0.0033242695 0.007873853 -1.7322036 0.26046875 -0.31977934 0.21537924 -0.029219681 -0.15006542 0.14850873 0.09597749 -0.023258802 -0.35937712 -0.079968 -0.2407501 -0.48106265 -0.059351362 -0.059278302 0.11893505 0.28798524 -0.103537895 0.08495953 0.34494457 0.026878914 -0.0017888516 -0.13598812 -0.046081264 -0.23340823 0.030346105 -0.27650318 0.26347947 0.096564904 0.17761552 0.20886353 0.019965481 0.14364332 -0.8451094 0.58091986 0.20974346 -0.10434273 0.1633215 -0.120125644 -0.16898963 0.15115885
言 0.2327039 0.5370018 0.03081284 0.08195297 0.43098345 -0.1430483 0.44144085 -0.1421397 -0.023364797 -0.8692183 -0.12328923 -0.1940667 0.17537579 0.40983588 -0.080856465 0.29839236 -0.6223945 -0.291003 0.24278931 0.18323931 0.30763388 -0.24845201 0.32095957 0.004561489 -0.034967374 -0.5219222 0.17254306 -0.22346078 0.016222427 0.07265689 0.43823627 0.4239518 -0.19186254 -0.31370178 0.075781606 0.012320429 -0.35304546 0.8103404 -0.336351 -0.25158495 0.04829797 -0.20920719 -0.031854283 0.17009637 -0.3304914 0.27982533 -0.02944826 -0.33806926 0.010188676 -0.37682536
无 0.22919011 0.0044421963 -0.04562594 -0.21742642 0.1616478 -0.26836812 0.28425008 -0.11293617 -0.14719823 -1.0485771 0.22198395 0.20223376 0.43162242 -0.21713766 0.4082041 0.07013705 -0.9450559 0.06323055 -0.13096048 -0.14210628 -0.13654192 0.4909087 -0.6505132 0.14180271 0.064829834 0.6683847 0.1527391 -0.27250516 -0.0033811918 0.09685238 0.106025904 -0.3079985 0.018872276 0.00704458 -0.21354489 0.32195008 -0.1187627 -0.2432641 -0.48955473 -0.5675469 0.24224031 -0.38996834 0.26517034 -0.06513761 0.26172844 0.015474291 0.3335243 -0.39859653 -0.29146373 0.48928985
则 0.036426354 0.45869923 -0.068835214 0.051994 0.3739983 -0.11427417 -0.52006805 0.146787 0.22770725 -1.6184584 0.16138141 0.30034834 0.030280484 0.39758915 0.3046432 0.26142251 -0.04005261 -0.5650862 0.30191258 0.2378178 0.075175814 -0.5435851 -0.35710645 0.43266174 -0.1377427 0.20816131 -0.16840257 -0.040589277 -0.4325759 -0.09711365 0.13044941 0.3032018 -0.2685178 -0.22095221 0.3000393 -0.06123741 0.07434488 -0.41096154 -0.13823493 0.22170067 0.40869665 -0.45114055 0.12723592 -0.66627616 0.065772094 -0.002661427 0.16696173 -0.0047376617 -0.15759687 0.23601109
！ 0.16270204 -0.07506213 -0.22345005 -0.18421999 0.59416854 0.2694704 0.24755667 0.14642754 -0.027463349 -1.4959496 -0.07800419 -0.66573 0.2804488 0.14168206 -0.21988969 0.041211195 0.07815268 -0.5784823 -0.062180612 0.24467711 0.12831564 0.5566121 0.041653745 -0.29953748 -0.027138097 -0.17294638 -0.07874333 0.045558162 0.2422365 -0.11598316 -0.91489017 0.19775201 0.21668899 -0.023049725 -0.26242483 -0.29855365 -0.30959824 0.04736735 -0.76688826 0.1991101 0.1802138 0.39701077 -0.07096176 0.1277154 0.0014450978 0.15917297 -0.4318013 0.55803305 -0.026085012 -0.2078023
问 -0.1359493 -0.21891879 0.080846384 -0.26666036 -0.1349419 -0.1266646 -0.50314456 -0.14018251 -0.15092373 -0.81405574 0.14816874 -0.47240508 0.4111101 -0.6569824 -0.30313545 0.45485932 -0.64033365 0.45350236 -0.43701172 -0.13452226 0.19662532 -0.08924645 0.13844441 0.103142634 -0.1372384 -0.09813022 -0.10667149 -0.031204972 0.36878985 -0.08873699 0.01780874 -0.11528364 -0.081540294 -0.36256903 -0.16782574 -0.25369877 -0.7316139 0.14111042 -0.6360631 -0.04635695 0.49272555 -0.40385494 0.3528862 -0.22984496 0.061661128 -0.13526537 0.24717665 0.60447764 -0.05565981 -0.25087187
知 0.10376259 -0.08063832 -0.08740212 0.2245352 0.48005408 -0.35293433 0.19630747 -0.106774524 0.20802344 -0.83971584 0.21482451 0.4390648 0.42017385 -0.075288266 -0.22431843 0.07337855 -0.57712066 -0.18843336 0.11762718 -0.09772869 -0.13127284 0.027165703 -0.01689693 -0.4149376 -0.25880754 0.27880815 -0.0657786 -0.036374383 0.2628274 -0.65418285 -0.41212198 -0.07644051 0.07846977 0.11252133 -0.11712654 -0.3631612 -0.1894344 0.50438595 -0.62865424 -0.019725379 -0.14371945 0.18240666 0.045880277 0.09917249 -0.31493568 -0.50660574 -0.2545129 0.06792649 0.33141932 -0.13188305
何 0.023120128 0.25378585 0.3300556 0.28447425 -0.17236122 -0.24617125 -0.008404959 0.27083248 -0.21531773 -0.88943523 -0.14128101 0.009407998 0.0370039 0.33969265 0.12144993 -0.009993972 -0.7658716 -0.63520426 0.2921765 -0.04424707 -0.16394508 0.51638883 0.48994586 -0.22152932 0.16292357 0.092416316 -0.017290572 0.15869989 0.060055323 0.2430503 -0.7404848 -0.2199154 0.08844248 0.31384954 -0.57120204 0.5064793 -0.68579656 0.34335062 -0.3710398 -0.09965074 0.05600284 -0.14580762 -0.050145365 0.097978555 -0.16402967 -0.22567831 0.18779077 -0.08538268 0.4875448 0.23842764
吾 0.07133966 0.3878711 -0.029621135 0.40242156 0.2559833 -0.06558874 0.3413958 -0.5308215 0.20303908 -0.827726 0.028207904 0.16478413 -0.2738204 -0.5094229 -0.097429715 0.5743923 -0.86609244 -0.040417228 0.7033244 -0.03820244 -0.2885006 -0.07652008 -0.12298637 -0.83295614 -0.3136154 0.4978188 -0.11448322 0.1746362 -0.101815455 -0.102885656 0.23526782 0.31742877 -0.4533584 -0.47448355 0.23729059 0.4353632 0.22839764 0.18378887 -0.26779667 -0.043031268 -0.5481376 0.13908948 0.055883445 -0.58716345 0.17157295 0.21423815 0.03958098 0.25119653 0.13255416 0.65918434
仁 0.0016197576 0.7280474 -0.6262799 0.07901266 0.13756329 -0.24429552 0.33971503 -0.231663 0.06523396 -0.7499166 -0.032517467 0.09628008 -0.24039531 0.09250977 -0.4523557 0.49079725 -0.7965181 0.19169323 0.23035534 -0.4629872 -0.16571209 -0.07601486 0.0071539804 -0.08727867 -0.4190286 -0.21058601 0.07540986 0.3037035 0.042242445 -0.103765026 -0.1227106 -0.48448333 -0.21877375 0.094938606 -0.56447905 -0.54083717 -0.17492983 0.36642575 0.053278778 -0.06029226 0.11492889 0.07580919 0.1791522 0.42914015 -0.20108189 0.13620777 0.049956437 0.4534802 0.35514873 -0.06968371
夫 -0.008071256 0.33494654 -0.0049837437 -0.42421678 0.42766312 -0.001584051 0.36358234 0.050228555 -0.07077722 -0.743856 -0.09995541 -0.16486253 -0.67967427 -0.05227175 0.21252657 0.26284465 -0.61275625 0.2350036 -0.18564212 -0.3343453 0.22126862 -0.12981918 0.20374182 -0.20119955 0.36256078 0.321753 0.5653108 0.5854338 0.09395104 0.41671678 -0.06974259 0.39188918 -0.027774287 0.12916571 0.14300554 0.34441125 -0.5633695 -0.34005794 -0.27876538 -0.13718432 0.19136867 0.7012593 -0.31101218 -0.31225032 0.16362453 0.022409739 0.27843192 0.7111734 0.016204396 0.2764557
、 0.25171956 0.054762036 0.10401129 -0.7127669 0.09765454 0.38409165 -0.21565987 -0.087837085 -0.604582 -1.5192573 -0.08452279 -0.98769504 -0.107145004 -0.18294778 0.43736044 0.15120828 -0.82145846 -0.14970128 0.05684312 0.1747347 0.12113374 0.09155045 -0.57364815 -0.26426226 0.15998627 -0.1111983 -0.12612681 -0.31537786 0.44331992 -0.23672049 0.5843078 -0.0028332348 0.042153932 0.2882911 0.21129143 0.08606297 -0.035690304 0.24230422 0.5260806 -0.01962402 0.0131471 0.17962629 -0.062211454 -0.46743885 -0.12146988 0.021651011 0.18904763 -0.5050488 0.31038657 0.19165978
道 -0.04310666 0.4615453 0.5002218 -0.13594608 0.26607996 -0.6120092 -0.07671748 -0.22396255 -0.36065176 -0.8853306 -0.3948023 0.4886991 0.096182086 0.12923056 0.07936108 0.38125563 -0.25953686 0.040128566 0.45438242 -0.42503074 0.14548504 -0.36798823 0.34848127 -0.3589054 0.047114838 0.3800052 -0.07665114 -0.35912317 -0.083405964 0.070145406 -0.16660838 -0.5583963 0.03664518 -0.1351172 -0.5268075 -0.120071895 -0.3104177 0.52981794 -0.34435877 -0.11328651 0.07971554 0.535574 -0.010353112 -0.5814442 0.16634095 0.11473946 0.19822232 0.0068970937 -0.06656312 0.09562607
焉 -0.15195975 -0.17999013 0.041570045 -0.1396511 0.50826365 -0.13927984 0.3977412 0.07925796 0.70317507 -1.0024997 -0.6675614 0.28904936 -0.17011806 -0.32979923 -0.692229 -0.055303212 -1.5881405 0.8908531 0.11067008 0.010438115 -0.052057896 0.2114693 -0.49820787 0.28693694 0.06002939 -0.06500774 -0.23824888 -0.3025404 -0.27077052 -0.023963563 -0.30617616 0.33259225 -0.17164576 0.29570782 -0.026060643 -0.26529416 -0.26241413 0.293395 -0.27361146 -0.4778945 0.36690402 -0.46111074 0.16978577 -0.1555477 -0.10446322 0.27034035 0.19210951 0.07555492 -0.032288443 -0.013588754
行 0.26853937 0.114582 -0.6883529 -0.23147544 0.56205136 -0.16219366 0.49049821 -0.06658413 0.1370126 -0.9335588 -0.09938361 0.31906796 -0.11057218 0.083478265 0.2258448 0.3844952 -0.43884322 -0.14271756 0.28048337 -0.28505033 -0.01687843 -0.23101665 -0.30214456 0.08322393 0.2984733 0.52462023 0.036046844 -0.1049039 0.56017625 0.17308336 -0.16668673 -0.40568557 0.20268403 -0.21118216 -0.1670696 -0.14594369 -0.21212555 0.32135174 -0.15661573 0.3028272 -0.028612044 0.23724094 -0.06648662 -0.02336771 -0.2254915 -0.02236784 0.16094068 0.0057527167 -0.25994095 -0.482665
谓 0.10686168 0.1902332 0.2551136 -0.09336625 0.44585308 0.5873929 0.22864701 0.6572106 -0.3231379 -1.1315384 0.38591695 -0.45843104 -0.25021467 -0.11790612 0.022055123 -0.23617843 -0.83441454 -0.25724548 -0.50373834 -0.54485804 -0.031426415 -0.291794 0.16969234 -0.09344002 -0.3785565 -0.033396963 0.14028576 -0.26012963 0.2597909 0.5465783 -0.124067865 0.32949343 0.40635535 -0.3215916 0.6759312 0.5038099 -0.36503488 0.036387242 -0.85961205 -0.063255124 -0.63502824 -0.09358427 -0.23059438 -0.22688486 -0.4121477 -0.5162963 -0.0351759 -0.033672 -0.22165686 -0.24038827
必 0.14755666 0.7236802 -0.3319044 -0.28497392 0.6137875 0.16840106 -0.3970612 -0.0026887192 0.15724717 -1.1705654 -0.3428235 0.1199469 0.43015715 0.11160346 0.4158567 -0.025983986 -0.2299491 -0.04561423 -0.14806348 0.300069 -0.35781437 -0.30339855 0.34839293 -0.4023271 0.15795922 0.17110248 -0.28399467 0.03887436 -0.21118775 0.008451532 0.06240425 -0.112847775 0.2310751 0.13995345 0.29281965 0.17120129 -0.3033269 0.52097946 -0.049676497 -0.4711286 0.24246843 -0.8494471 0.11255768 -0.040871017 0.13382743 -0.06502161 0.10476965 0.5538754 0.11273242 0.36387107
礼 0.07406457 0.49476436 -0.111989096 -0.13339952 0.5304343 -0.24072433 -0.26107493 -0.006103973 -0.841461 -0.9942713 0.029590212 0.38635388 0.041856565 -0.030759286 0.26421535 0.41702953 -0.5877831 -0.2858275 0.44496787 -0.60169756 -0.19855759 -0.019585185 0.04531623 0.06704277 -0.617419 -0.2848858 -0.2902903 0.33777037 0.03083332 -0.1773595 -0.10210263 -0.05314078 -0.007925138 -0.12942724 -0.15543598 0.40198043 -0.37214655 -0.16837606 -0.22562258 0.20437422 -0.010037236 0.20214231 0.09194102 0.041965324 0.16857727 0.13122986 -0.39438707 -0.059628274 0.26560217 0.6227464
孔 0.2616199 0.089511044 0.53996515 -0.13153425 -0.34760746 0.030389043 0.10828571 0.012413212 0.25892943 -0.7621504 0.0887717 0.13332263 0.16028571 0.1748477 0.07731064 0.3398726 -1.1698978 -0.09137069 -0.105931126 0.08589823 0.51882005 -0.59829956 -0.3412972 -0.124342434 -0.24232976 0.009624242 0.10865767 -0.67566407 -0.13121091 -0.098562405 -0.49280015 0.14661981 0.07729225 0.09534611 0.16853714 0.61520004 -1.0118115 0.14127938 -0.2947363 -0.012735616 -0.18934546 0.29141632 -0.22085914 -0.076310396 -0.10702192 0.14703338 -0.33582073 2.0501628 -0.07439231 0.5498139
斯 0.032832034 0.69411427 -0.24365734 -0.0910004 -0.27829218 -0.54540753 0.12861313 -0.10415374 0.16950648 -1.0653023 -0.43509245 0.20491453 0.011584711 0.14977117 -0.33160543 0.06903767 -0.30073786 -0.006867355 0.45122743 0.11600332 -0.004953468 -0.23829575 0.22358614 -0.5616503 -0.16265464 0.11954503 0.3954856 -0.40965888 -0.118267834 0.029174007 0.12683472 0.07841393 -0.2275085 0.05212885 0.08615217 0.29111388 -0.4795623 -0.2590026 -0.2034472 0.0345306 0.8031758 -0.21394944 -0.05632354 0.15058662 -0.4981254 -0.13155778 0.30330396 0.5150979 -0.017395712 0.20665759
三 0.22126049 0.28869587 -0.34979004 -0.2897364 0.48116606 -0.002676716 0.43546075 0.22716825 -0.014095418 -0.9515325 0.020620761 -0.17126001 0.25533897 -0.45523196 -0.023244595 0.9713989 -0.7871677 0.32445848 0.5503039 0.34911734 0.4528434 -0.26664108 -0.24172385 0.22552745 -0.019107668 -0.32898757 -0.07925272 -0.0022853294 -0.08412162 0.22183925 -0.86232346 0.18366966 -0.26781228 0.6362824 -0.16921285 0.7835056 -0.08730076 0.3274717 0.4270631 0.119004466 0.18297847 0.25749755 0.12761213 0.03774589 0.6372766 0.3078034 -0.26225245 0.5186767 0.37005198 -0.13240838
能 -0.5797312 0.47144088 0.3857873 -0.1999321 0.003042866 -0.16607168 -0.25015453 -0.5966652 0.38668123 -1.00138 0.33333528 0.2340733 0.2538732 0.1722302 -0.15576902 0.15263739 -0.6002316 -0.09001342 0.110934705 -0.03647056 -0.4149901 -0.3627457 0.6607548 -0.10300759 -0.61235726 0.23448849 -0.6348733 -0.1614645 -0.23718576 -0.13216698 0.25906295 -0.19627185 0.2574789 0.23847611 -0.09053992 -0.32643506 -0.34243816 0.2448622 -0.35459885 0.053792596 -0.35243303 0.055501744 -0.14136645 -0.07625511 -0.18404935 0.0032290795 0.27085534 -0.09974735 -0.05612523 0.0430624
见 -0.1490253 0.3276928 0.08096662 0.62977815 0.4342818 -0.5588183 -0.3772954 0.20665458 -0.08702485 -1.0295506 0.38325226 -0.003288167 -0.72809076 0.17565611 -0.37182894 0.5086115 -0.42893922 0.40361947 -0.07860834 -0.15819399 -0.27169472 -0.30161 0.026475862 0.2270775 -0.27164567 0.52675855 -0.018809626 0.009043028 -0.05854531 0.06575057 0.020766592 -0.2756159 0.26256818 0.12733003 -0.04885179 -0.014858811 -0.102686815 0.25651732 -0.09796661 -0.7895128 -0.19495966 0.39507174 0.82266235 0.11089985 0.058958936 0.730203 0.05288184 0.080402784 -0.38219967 -0.36966524
学 0.20786439 0.93579215 -0.25495857 -0.03289418 0.036937032 -1.1170497 -0.13937508 -0.10046529 0.2751054 -0.9899592 0.02971376 0.01169768 -0.25907886 -0.18424368 -0.25048214 0.35788065 -0.49604577 -0.33819535 -0.66372544 0.02952873 -0.27921173 0.010127345 0.047865458 0.18850943 -0.8824304 -0.03195641 -0.065157816 -0.13098626 0.10689445 0.2182489 -0.31419522 -0.3020059 0.07686102 -0.49629483 -0.27966934 0.104610905 -1.1260664 -0.05692925 0.1509332 -0.23641473 -0.5556455 -0.28569946 0.2662992 -0.13996398 0.03202976 0.24966817 0.18084708 -0.19529706 0.49320138 -0.0017608036
事 -0.07433041 -0.18006562 -0.08629995 0.2924059 0.1489834 -0.72075516 -0.16210234 -0.3706959 -0.2934161 -1.0517716 -0.18592267 -0.18145484 -0.5886521 -0.5267972 -0.0058317804 0.8003585 -0.41653547 -0.2978064 -0.48429975 -0.16011575 0.300312 0.2050972 -0.22034948 0.18896909 -0.44026852 -0.12779936 0.11238137 0.74742323 0.66996545 0.17572545 0.60054797 -0.070414715 0.39874324 -0.01313185 -0.18396485 -0.060216196 0.20518646 0.1702239 -0.509663 0.29757208 -0.21295439 0.12615664 0.24548005 -0.26316416 -0.16705957 0.20105067 0.5829642 0.24361731 -0.073942274 -0.17366873
是 -0.27804488 0.42834225 0.21316111 -0.20328131 -0.05885396 0.13391651 0.08428517 -0.12976521 -0.3492163 -0.78660715 0.59539235 0.35486516 -0.047645494 0.42961738 -0.5288005 0.20749553 -0.65035564 -0.5356759 -0.38069534 0.049146183 -0.14566632 -0.4058175 -0.04499738 -0.23809457 -0.05673676 0.22467822 -0.28914416 -0.111348644 0.047054864 -0.025188763 -0.4118803 0.61937016 0.7789094 0.14015345 -0.53792655 -0.033515263 -0.27930656 0.39104968 -0.4894696 -0.037724093 0.40004495 -0.8166047 0.13186757 -0.19576894 0.052486632 0.37110016 0.16476208 0.60706574 0.33933514 0.6246469
哉 -0.32745773 0.66544867 0.25786012 0.49068853 -0.10758413 0.046999503 0.33334458 0.10264608 -0.08834045 -1.103117 -0.072456345 -0.337944 -0.0528245 -0.20511912 0.100353755 -0.057581164 -0.93288505 0.06424291 0.5089704 -0.039994825 0.008379429 0.9598344 -0.30343035 0.1510735 0.35118338 -0.13368686 0.14591826 0.4864482 0.22193666 0.2740861 0.13523924 0.2125548 -0.29994345 0.26925066 -0.40696475 -0.31826904 -0.24229378 -0.2528935 -0.92727876 0.003104938 -0.43840367 -0.24870276 0.047726665 -0.8041498 -0.11198702 -0.4653048 -0.3904175 0.6714542 -0.16551523 -0.32107213
闻 0.2573042 0.13657023 -0.05800695 0.39169502 0.8550602 -0.5927869 -0.03236508 0.25215572 -0.36233523 -1.015041 -0.40086702 -0.36303025 -0.32863766 -0.23671408 0.35553294 -0.29654065 -0.19006756 -0.26868954 0.1016655 -0.6156443 -0.11141488 -0.23049574 0.31230465 0.047026813 -0.07778841 0.077352405 -0.30238798 -0.12426971 0.25972745 -0.037088078 -0.3856485 -0.31219846 0.18832073 -0.197051 0.0019153435 -0.08738559 -0.7552513 0.607636 -0.48056275 -0.4692158 -0.39251462 0.5261888 0.34687537 -0.41853657 -0.20042169 0.36453292 -0.16762695 -0.056357194 -0.45210487 -0.052611113
未 -0.031494897 0.31373504 0.6557142 0.1977688 0.75099885 -0.26591414 0.047858693 0.33123177 -0.22119112 -1.0133871 -0.03620759 -0.23605707 0.05446235 -0.42187047 0.096546985 0.26306653 -0.7154637 -0.2029278 -0.27683595 -0.35549334 0.22504362 -0.93509436 -0.14556901 -0.9392862 -0.21268639 -0.148025 0.07840917 -0.042205963 -0.7420875 -0.34558526 -0.026778398 0.28951055 0.19735035 0.100855134 0.14401667 -0.39890558 -0.1248621 -0.046670564 -0.8007074 -0.36022145 0.47964412 -0.32196674 0.39838716 -0.5478301 0.21078171 0.025963005 0.48981974 0.09530788 -0.12386027 0.0005157227
公 0.2557729 0.30552235 -0.27658463 -0.048369616 -0.35194996 0.13627155 -0.35129055 0.26362404 -0.21986556 -0.90105844 -0.04928953 -0.5852594 -0.1916401 -0.17154554 -0.16199088 0.29096153 -0.72234046 -0.72293025 0.7050203 0.37745404 0.08262527 -0.478999 0.16642545 0.084845416 -0.43944153 0.5230987 -0.3700206 0.02134538 0.5285128 -0.44380215 0.2923029 -0.04358021 0.14257878 -0.54437006 0.28755885 0.30371973 -0.52277094 0.057990547 -0.06573328 0.027834136 0.25627705 -0.056415882 0.15955363 -0.23409002 -0.4043706 0.28594494 0.004338307 1.1845828 -0.6948054 -0.4178573
好 -0.47260088 0.0746939 0.13841876 -0.5010481 0.19262883 0.042090796 -0.37574345 -0.081339106 0.71224725 -1.1996286 -0.07257959 1.0328972 0.41322604 -0.09188796 -0.12729533 -0.1683045 -1.0079299 0.033032794 -0.24916135 0.40244618 -0.56864595 0.06179805 -0.01357807 -0.5186492 0.44112405 0.1178173 0.20810425 -0.06336729 -0.096950166 -0.04232248 0.13940977 -0.18581465 0.17944266 -0.36990622 -0.19410229 -0.44116777 -0.15988441 0.14358342 -0.3679328 -0.5131509 -0.2369978 0.69946027 0.5663351 0.058303054 -0.14382085 0.056381278 0.67690325 -0.11341321 0.041778587 -0.04170041
我 -0.54505116 0.08830313 0.03708275 -0.40703928 0.5841944 -0.313835 -0.3504096 -0.4850566 0.47100347 -0.89304066 -0.25053945 -0.10578662 0.060414612 -0.17169747 -0.2944521 0.48903087 -0.761648 -0.027004968 0.8408442 -0.18620251 0.013161867 -0.07863625 -0.32855153 0.15441906 -0.5064805 -0.08994042 -0.5026341 0.521593 -0.054608013 -0.42947924 -0.2555884 0.30188167 0.2291918 -0.28657618 -0.08422982 0.40102124 -0.3826672 0.09599306 0.25633502 0.14772134 -0.1816233 0.25087002 0.20628737 0.18395552 -0.12700903 0.58258456 -0.5281198 0.6095529 0.7421758 0.6659829
路 -0.18334539 -0.14136602 -0.035196796 0.08798677 -0.08743549 0.12978527 -0.051628098 -0.31890735 0.4409662 -1.1851947 -0.006311293 -0.32004383 0.10685727 0.44086835 0.24621694 0.5067097 -0.23862408 0.54152983 -0.047255002 -0.29371876 -0.52045757 -0.024607845 -0.5301855 -0.30294278 -1.3529536 0.15129542 -0.09462949 -0.314841 0.14083408 -0.4677863 -0.10541497 -0.11868726 -0.6254803 0.08577778 0.07315558 0.42513898 -0.94615257 0.77394515 -0.15530454 -0.9968438 0.39229274 0.034172334 -0.04309321 -0.6121521 0.2342862 -0.22732647 0.28739166 0.70507795 -0.4968883 -0.17229024
在 0.13383579 -0.33809453 0.034912087 0.11195245 0.21558183 -0.4310707 -0.15053084 -0.83902806 0.32392177 -1.1872516 -0.21504669 0.28184974 -0.41236535 0.16818334 0.5396872 0.70513165 -0.69440687 -0.0007638208 -0.45068163 -0.039026 -0.27252287 0.29186225 0.5226577 0.019342422 0.08197464 0.06919915 0.9345597 0.17682102 0.5444021 0.70010984 -0.25343147 -0.17316061 -0.4917433 0.048061725 0.2674267 -0.2075588 -0.3814475 0.87905204 0.37122402 -0.14852554 0.8128394 0.36022463 -0.003864894 0.07064205 -0.28788608 -0.32736158 0.04638015 0.17076968 -0.047704387 -0.1534752
已 0.30953592 0.863727 -0.17083432 -0.5018706 0.6018703 -0.06368839 0.93210423 0.3137266 -0.40260053 -0.96063703 0.2677903 -0.09579654 0.0595151 0.18707326 0.083533205 0.13678183 -1.0128396 -0.15306115 -0.08621785 -0.28442708 0.23369554 0.22010826 -0.41617325 -0.8599969 0.032919966 -0.16939318 -0.35013798 -0.051004127 0.53585887 0.59881586 -0.46897998 0.0078095845 -0.41353974 0.1071697 0.226225 -0.43379852 -0.7135344 -0.058846388 -0.41052186 0.020481076 0.16973715 0.05893311 -0.11057981 0.5581144 0.25851038 0.26260027 -0.19647734 -0.41160586 -0.92007697 -0.37276676
得 -0.04028554 0.038664076 -0.2521379 0.03989337 0.54806143 -0.46379203 0.1575313 -0.3269386 0.24399003 -1.2677433 -0.0016018414 0.40480086 -0.33079812 0.16435984 -0.19803835 0.2864779 -0.34513876 -0.17540143 -0.28567228 -0.11333086 0.782137 -0.0012839548 -0.022411922 -0.54613054 -0.17197007 -0.1613491 0.22046758 -0.13248096 -0.07802991 -0.119045936 0.5331154 0.14807558 -0.0033822528 -0.5551004 0.17770329 -0.35713395 -0.0012544082 0.4101166 -0.36200574 -0.10122612 0.48221335 0.8084275 0.084748335 0.31795502 -0.29142088 0.24582174 0.48416042 -0.28095034 -0.26206693 -0.10196975
所 0.24765155 0.19163129 0.30467469 0.4108632 0.4673136 0.20261948 0.41292083 0.009050147 -0.52471095 -1.3867856 -0.20865002 0.3975464 0.51078856 0.76831293 -0.34683722 0.99106437 -0.3388431 0.2411097 0.00016006484 0.3972852 -0.09459531 -0.21070495 0.10161518 0.51989233 0.63570434 -0.47676778 -0.030890245 -0.11969709 0.053842522 -0.20615782 -0.028456718 0.1963359 0.5598369 -0.3067424 -0.6719584 -0.520953 0.2635989 0.3982705 -0.65809417 -0.55474985 0.13177288 0.14778657 -0.16222605 -0.061753698 0.026831532 0.3258031 -0.06778915 0.07664584 0.25357583 -0.24916278
民 0.33707383 0.5620211 0.6827474 0.043398224 0.35865384 -0.7947413 -0.4699387 0.16715841 0.39684469 -1.0887412 -0.10577644 0.5265239 -0.3604532 7.31106e-05 0.41804346 0.5628676 -0.64682 0.082657926 -0.16691391 -0.075454295 -0.22078449 0.12552612 0.37122682 -0.539622 -0.22537045 -0.012872047 -0.635057 0.014900216 0.6569738 -0.21177684 0.273146 -0.27855656 -0.11962837 -0.038383342 -0.23853035 0.19246355 -0.32091042 0.02902104 0.13664274 0.2594185 0.5342668 0.114474565 -0.34061417 -0.60370874 0.25258714 -0.22171554 0.039065957 -0.18481268 -0.20720713 0.23534022
小 0.20298284 -0.48722324 -0.13482642 -0.17299101 1.0541711 -0.4215079 0.5447744 0.2993174 0.3053333 -0.9540819 -0.21299306 0.29761934 -0.19754542 0.55876523 -0.034026533 0.66023135 -0.738939 0.1677289 -0.32251266 0.3318065 0.39052752 0.16385922 -0.08445515 0.35251904 -0.03860377 -0.2486031 0.066977635 0.25445783 -0.17823002 0.30736858 -0.049702123 0.8462321 0.045421753 -0.40067503 -0.26470655 0.01018713 -0.19487263 -0.14580782 -0.1479172 0.09351083 0.2457842 0.09747286 -0.21710151 -0.19732659 -0.13164496 -0.39169607 0.16478696 0.6057826 -0.020156752 0.4835753
天 -0.20699926 0.16858228 0.22078346 0.61075795 0.087152705 -0.2222063 -0.14796758 -0.42113596 -1.0904723 -0.8112357 -0.08116963 0.08790665 0.49715492 -0.06390363 -0.11509993 0.70767564 -0.97742385 0.10868782 0.09223009 0.18922164 0.21343821 0.039598454 -0.4686414 -0.19505422 -0.13155387 -0.6866749 0.2741508 -0.02196196 0.18327838 0.8946023 -0.13688236 -0.25030345 -0.25846094 -0.2324619 0.5350734 0.36601576 -0.051886335 0.39909202 0.115397215 -0.21596125 -0.40965813 -0.4956456 0.17114384 0.30030257 0.32234052 0.2094354 0.17322811 0.813776 0.25797856 0.7360515
乐 -0.15172333 0.07438596 -0.26648676 0.07040769 0.022092808 0.12312992 -0.26378444 0.3148171 0.019054506 -0.8359225 -0.13497 0.7298702 0.07268811 0.6949978 -0.44623077 0.37851512 -0.8608458 -0.48662105 0.66994464 -0.36799017 -0.88744426 -0.1544947 0.03416358 -0.47202814 -0.2595352 -0.5941695 0.5650777 0.037382476 0.16743663 -0.5559371 0.36165985 -0.32237026 -0.59723866 -0.21760371 0.4449351 0.31815875 -0.9389877 0.57484215 -0.34223357 -0.09732716 0.21634749 0.028105408 0.24682103 0.09993611 0.2554954 0.2829611 0.3959536 0.025218304 -0.27473104 0.44243392
邦 -0.15180661 0.46356428 -0.015096167 0.6342405 0.69186807 -0.6930451 0.17908369 -0.8725542 -0.038350303 -0.9787231 -0.95127845 -0.27928016 -0.13140246 -0.24198797 -0.053082462 0.4128675 -0.5988385 0.017624784 0.15190814 -0.17787434 0.4274858 -0.31897873 -0.11498058 -0.1881613 -0.084004186 -0.52159727 -0.6314116 0.42611745 -0.024497889 0.23030227 0.12620229 -0.5354978 -0.08890731 -0.1096588 0.22136335 0.37332138 -0.48846325 -0.018349826 0.18887755 0.25637814 0.21135622 0.14730817 -0.4277438 -0.41050258 0.09143385 -0.41682124 -0.042497274 0.16208053 0.25015715 0.216354
亦 0.5674935 0.27058664 0.49987346 0.42408434 0.16725138 -0.2547402 0.28272828 0.48601753 0.15143141 -1.1880772 -0.24432954 -0.080734275 0.16048603 0.59100014 0.4576918 0.28215042 -0.68296003 -0.012153309 -0.29169396 -0.19842625 -0.17900653 -0.5748871 -0.71136034 -0.042589255 -0.24900447 -0.33237728 -0.7315837 -0.509804 -0.2669262 0.008659968 0.2488001 -0.2526148 0.36667073 0.26650262 -0.07106329 0.3285673 0.4557915 0.28769267 -0.81857926 -0.17972791 -0.7759 -0.3729949 0.0384128 -0.48049223 -0.27254003 0.040532526 -0.21500376 0.5217527 0.018429944 -0.17032184
使 -0.19435704 0.24441813 0.023773588 -0.0757505 0.65461224 0.20401216 0.047188707 -0.050634302 0.3023356 -0.8408683 -0.26098114 -0.049331173 -0.36300066 0.36233678 -0.2493533 0.8506768 -0.7264633 0.23800713 -0.24658433 -0.3950838 0.78083163 -0.47498327 -0.30596566 -0.35072607 -0.34898537 -0.0998872 0.68972063 -0.103459485 0.5146359 -0.40104616 0.3648152 -0.26931483 -0.09442637 -0.033420324 -0.2666611 0.7224655 0.28107774 -0.11778432 -0.153258 0.33752355 0.2088012 0.20278487 -0.097510874 -0.1702162 0.17633542 -0.37359592 -0.0005740882 0.5915278 0.4604461 0.10864478
大 -0.02814147 0.4034955 0.061066866 0.43768108 0.09480746 -0.13616216 -0.14810038 -0.34770343 0.14381148 -1.0767256 0.6834744 0.032409944 0.55590117 -0.15854076 -0.38380682 0.6503762 -0.6328068 -0.5195687 -0.3192078 -0.13134108 0.25907478 -0.008769367 -0.28810441 -0.15560599 0.6867564 -0.092659466 0.0067450586 0.5657807 -0.21412775 -0.5351197 0.31285512 0.17115872 0.54280454 -0.3520417 -0.3570826 0.32439703 -0.21618347 0.24058399 0.1938246 0.7689373 0.28795794 0.31489637 -0.38214505 0.24565417 -0.36344326 0.06328752 0.04991559 0.2755106 -0.03131763 0.69178766
下 -0.3142083 0.42685035 0.40843225 -0.37436455 0.8302806 0.24057963 0.07800624 -0.5345002 -0.5773178 -1.2330148 0.22824088 0.55483687 -0.47930697 0.60153943 0.6193294 -0.040489487 -0.644839 -0.61697865 -0.0040486893 -0.1429352 -0.28191838 0.36423182 -0.29283577 -0.10702793 -0.08961314 0.33637506 -0.4779991 -0.32482332 0.3093104 0.32664183 -0.27143377 -0.4224047 0.541581 -0.07163309 -0.835215 -0.4028842 0.11259158 -0.14180239 -0.22870465 -0.3987542 0.015268736 0.41300336 0.18405432 0.0888532 -0.20620191 -1.3887204 0.22597785 0.7625016 0.20177284 0.6105846
贡 -0.00319689 -0.17201242 -0.18275684 0.49236956 0.13059323 -0.5224596 0.5359582 0.24599211 0.204524 -1.2686099 0.26794598 -0.8090794 0.2048196 0.08834176 -0.43859985 0.43822747 -0.91536754 0.17870453 0.26715425 -0.4245185 0.082299545 0.07583914 -0.6418739 0.07810063 -0.2819989 -0.016050879 -0.03656524 0.0010111879 -0.20995146 0.25402635 0.21094757 0.066733725 -0.25094342 0.41813046 -0.10779956 -0.08393438 -1.003077 0.5983584 -0.11640553 -1.0124885 -0.12958889 0.092480816 0.18422815 -0.5822742 0.34616703 0.54407763 -0.17198187 1.9782596 -0.5934237 -0.50672203
欲 -0.00075325253 -0.5580995 0.25868908 0.45059547 0.2382961 -0.38794988 -0.29746225 -0.30624148 0.1982689 -1.1048809 -0.2669567 0.40069035 -0.43762296 0.4578264 -0.060565855 0.5365867 -0.31127098 0.04520813 0.16008511 0.0021808434 0.22057109 0.117566064 0.13983068 -0.2815649 0.22296543 0.17524375 -0.12643468 -0.765623 0.30382198 -0.3123187 -0.105163045 0.44117042 -0.016094701 0.1865114 0.42821893 0.058704562 -0.18214916 0.34279987 -0.6718789 0.23269492 0.45351318 0.33915287 0.16180655 -0.20829831 0.605855 -0.8974186 -0.021597436 0.50080746 -0.04249068 -0.06086506
诸 -0.3885743 0.11334269 -0.34750053 0.8683508 0.08599899 0.15523323 0.091211796 0.20469834 0.4335787 -1.2852637 -1.3706734 -0.21594177 0.35362527 -0.30635092 -0.37541792 0.5363945 -0.7215082 0.1604571 -0.33359393 0.14033566 0.21343157 -0.28604576 -0.11938714 -0.30491558 0.23526539 1.1252886 0.11838743 0.35056087 0.46376273 0.025442341 -0.418052 -0.4838278 0.3600786 0.2013638 -0.36904776 0.413778 -0.8065145 -0.100780055 0.22890903 -0.062055126 0.5005384 -0.02141582 -0.6266157 -0.7306398 -0.26950786 0.20496616 -0.15604518 -0.0064252154 0.12039928 0.5917957
从 -0.52266526 0.44884372 -0.6049929 -0.24714345 0.6343429 -0.4005145 -0.07685882 0.65335125 -0.17918703 -0.8977401 0.776464 0.48203787 0.45569047 0.09310054 -0.096195444 0.3881735 -0.26977515 -0.10982841 -0.17182764 -0.039638843 -0.008051217 0.02183832 0.07915206 0.03075899 0.15528093 -0.011583294 0.14794604 0.3890004 0.2036221 -0.0787083 0.5022777 -0.07532157 0.2654825 -0.14984901 -0.17431967 -0.17673154 -0.28568998 0.9708943 -0.7772326 -0.23082688 -0.094658285 0.031345043 0.45886153 -0.2222141 -0.19666791 0.46706274 0.14943679 0.2247339 -0.07061128 -0.17336825
文 0.3044056 0.29225707 0.2787595 -0.7384792 0.84692633 -0.092712544 -0.4146039 -0.079899654 -0.044184975 -0.8229362 -0.5571799 -0.17715721 -0.09440582 -0.1219096 0.22336106 0.32020903 -0.10966953 -0.43853337 -0.060419444 -0.14227639 0.13376057 0.2951943 -0.21143197 0.027153568 -0.028930569 0.1135228 -0.22493348 -0.11331259 0.17752542 0.55874556 -0.58380884 -0.22823782 -0.78391016 0.029539287 0.44345284 -0.12750854 -0.59246486 0.21712363 -0.40078837 0.011139098 -0.41979238 -0.011216459 -0.21603435 0.057169285 -0.48560372 0.31112587 -0.008534733 0.75147176 0.35172567 0.4012451
政 -0.32641172 0.65349466 -0.0093864715 0.21077 0.23340116 -0.34013754 -0.29704013 -0.6935991 0.14953762 -0.84580594 -0.022073148 0.28796956 0.008633456 -0.03682382 -0.2020754 0.39093053 -0.6445387 -0.49568185 0.6444121 -0.28524646 -0.09141445 0.1924072 -0.29282725 0.008397955 -0.9035216 0.10716584 -0.3737322 0.14760907 0.76192605 -0.04903263 -0.11514968 -0.95440555 -0.25109428 -0.058303475 -0.5254645 0.32278278 -0.2727852 0.21525823 -0.1780845 0.5312982 0.263449 0.24001388 -0.06826977 -0.010335742 -0.3648862 -0.28235942 0.36805806 1.197548 0.24893957 0.14565516
食 0.06016465 0.6054319 0.502581 -0.099981055 -0.04107135 0.29636294 -0.5817881 -0.47230905 0.101824164 -0.9175214 -0.69639194 0.40839264 -0.35559157 0.3505161 0.534681 0.7265781 -0.8990991 0.9968308 0.37220013 -0.38564268 0.44463402 -0.16286121 -0.018549534 0.2987839 0.43030733 0.25845915 0.12335521 0.16738166 0.018984785 -0.3822986 0.54212457 -0.3023639 -0.32394415 0.41899276 -0.25870326 0.0062955646 -0.88103706 0.85260653 -0.35312474 0.2627028 -0.41796988 0.20981014 0.26885778 0.18025813 0.026407458 0.019138305 -0.13216293 -0.17880078 -0.55214083 -0.8158202
善 -0.4816351 -0.016513743 -0.080975756 -0.40076387 0.32602242 -0.6589028 0.22229233 -0.5538144 0.33971572 -0.8003892 0.07422855 -0.24501818 -0.2075487 0.55639243 0.08887287 0.09964072 -0.91773605 -0.16325587 -0.3747007 0.31487626 -0.009354604 0.25364617 0.007348496 -0.3148632 -0.24916841 0.33354047 -0.18701808 -0.054921024 0.15613323 -0.6614171 0.07867517 0.5307707 -0.14590827 -0.2279426 -0.43548122 -0.26703754 -0.25261664 0.8607787 -0.14499304 0.71552956 0.12858984 -0.157498 0.33239445 0.53412247 0.30823043 -0.05969036 0.44897282 0.0062666577 -0.009839298 0.01740388
后 0.25277293 -0.13062106 0.1752274 -0.22392124 0.14959432 -0.22777276 0.2513494 0.09163496 -0.47589236 -1.0053222 0.19770795 0.7024407 0.9917624 -0.11690786 0.66741264 0.69205815 -0.8465596 0.4917409 0.7692364 -0.16590224 0.26920062 -0.002073808 0.22544448 -0.11559851 -0.2272814 -0.38252538 -0.0763382 0.5650107 0.39077973 -0.24533561 -0.15006204 -0.3112312 -0.6473323 -0.42289922 0.6590392 -0.41372132 -0.29164267 -0.14143725 -0.3820817 -0.33075425 0.38148654 0.123862155 -0.31761944 0.3253617 -0.47440615 -0.23212406 0.19522125 0.40397197 -0.15608823 -0.35068253
德 -0.3959631 0.820208 0.23568353 -0.17864028 0.69185656 0.07196628 -0.59400827 -0.30589458 -0.053742416 -1.0306627 -0.27541456 0.22292021 0.103652276 -0.032237574 -0.26229924 0.46603864 -0.5775599 -0.058362305 0.031098692 -0.010534791 -0.30189463 0.23807539 0.22669643 0.4377543 -0.67671376 0.28216887 0.57940483 -0.11713862 0.35061866 -0.21351056 0.08607337 0.21384847 0.33170694 -0.3184967 -0.23029518 0.76453894 -0.3680775 0.44904473 -0.11806386 -0.27337405 -0.19709638 -0.20249012 -0.0033103449 0.538799 -0.22201246 -0.23059538 -0.3068623 -0.037634693 0.55589885 0.077043876
求 0.18544558 0.06995638 0.025894094 -0.15850326 1.3211733 -0.4561584 -0.14487576 0.097311094 -0.2678763 -0.90364426 -0.4689527 -0.024603663 -0.6032998 0.49472824 -0.36902806 0.19736074 -0.70635355 -0.101149805 0.54137194 -0.21066043 0.1320968 0.22823063 0.36478633 -0.04837428 -0.35886267 0.61194974 -0.06330214 -0.14143707 -0.16698669 -0.35463667 -0.1768472 -0.08720468 0.07108828 -0.21276508 -0.029989725 0.15155753 -0.46332827 -0.22259839 -0.94697 -0.08461027 -0.19592382 -0.118399106 -0.30960622 0.2465155 0.35108855 -0.2358134 -0.19739437 -0.23868269 0.18867514 0.019240214
对 -0.28050813 -0.19577529 -0.08247385 -0.27795488 -0.002301553 -0.35997087 0.098922096 0.8485133 0.29644325 -1.0259086 -0.4191192 -0.53510183 0.0075042727 0.10829451 -0.025176153 0.23161963 -0.9673023 -0.024177004 -0.43974787 0.58041996 0.14083135 0.40121096 -0.50650483 0.09099177 -0.112025514 0.28225842 0.13423678 -0.2928688 0.347377 0.19209903 0.7197083 0.28746757 0.06379318 0.77366114 -0.042312592 -0.4908164 -1.5581255 0.41915762 -1.2862715 -0.29546434 0.053264655 -0.024454463 0.43336928 -0.45104828 0.52563846 -0.08324147 -0.53304255 0.56278664 0.3423172 -0.2411174
恶 0.10511718 0.33292234 -0.1934434 0.4673134 1.0674697 0.27844355 0.3419899 -0.1271923 0.106988765 -1.1610305 0.10798147 0.4816709 -0.14299554 0.75675416 -0.13483632 0.12535255 -0.5848137 0.92536247 -0.01919019 -0.12361131 -0.39905846 0.2261493 -0.26065755 -0.048183475 0.3201297 0.3734618 -0.2458026 -0.48303786 -0.07782087 0.4702681 0.13061672 0.05383064 0.7186271 0.40441698 -0.37692833 0.27307707 -0.6514059 0.52848077 0.076225966 0.26391748 -0.1360619 -0.19760898 0.6471416 -0.0972748 0.07978501 -0.6008134 1.1824338 0.022626946 -0.20993653 -0.31690294
信 -0.05810594 0.5204969 -0.2770421 -0.03532831 0.45769536 -0.22415935 0.07194189 -0.7251226 0.28843158 -0.84051216 -0.36564416 -0.049808994 -0.74607795 0.6491595 -0.13628782 0.73998487 -0.8438853 -0.5500276 0.2662055 0.008497495 -0.056143574 -0.46816286 0.18088992 -0.5975416 -0.39558122 -0.26590917 -0.13150711 -0.06447586 0.5291626 0.16215798 -0.3435292 -0.1963576 -0.32381633 -0.3219868 0.111277655 0.5624892 0.25702357 0.4403302 0.063896224 -1.0294969 0.15462804 0.4442713 0.4891101 0.34476092 0.5094253 0.37201846 0.120074876 0.040075704 0.1660519 -0.29257703
死 0.15702578 0.255344 0.65616834 0.20815973 0.3910091 -0.34707275 0.03651648 -0.26919454 0.3303145 -0.7550757 0.29324806 0.07805689 0.50834775 -0.27310723 -0.27106762 0.37098542 -1.042949 0.32161355 0.80681896 0.02507473 0.16900623 0.21303347 -0.20048423 -0.47117776 -0.33627748 -0.1336228 -0.014032852 0.4947581 0.3319627 0.2394814 0.17689233 -0.13527912 -0.66814876 0.35027403 -0.14848109 0.056462917 -0.16544372 0.1390089 -0.17128421 0.26358098 0.068462655 -0.5197212 0.48819843 0.54953915 -0.25340483 -0.24539396 0.20493358 0.330602 -0.11987819 0.0038216761
然 0.19922006 -0.248704 -0.7646962 0.6033566 0.52397865 -0.52568287 -0.06757985 -0.95420706 -0.17714795 -0.98162144 0.6453138 0.15964647 -0.7778133 -0.38842493 -0.016910773 0.43442833 -1.0874854 -0.067271546 0.24289538 -0.29779083 -0.2352323 0.31536376 -0.2968254 -0.23408929 -0.08100627 -0.15072063 0.18763652 0.34584406 0.38460574 0.025783999 -0.46130863 0.093990475 0.40934795 0.037369426 -0.31243792 -0.18666008 -0.8543719 0.0031422263 0.023861576 0.24191017 -0.3335678 -0.3625034 0.31279793 -0.42666486 -0.026802678 -0.24067625 -0.5919467 -0.16932666 -0.7795751 -0.21058175
《 0.4062712 0.34341285 -0.33180943 -0.47803396 -0.075564034 0.6036508 0.21831892 -0.54984254 -0.17565267 -1.093296 -0.119194396 0.48953545 -0.17021264 0.09963708 -0.02115741 0.15217632 -0.837547 -0.2296642 -0.34345216 0.66076595 -0.36620718 -0.42755896 0.06200905 0.22684942 -0.0516153 0.2824463 0.0272915 0.5099746 0.6472053 -0.5254562 -0.1231769 -0.50087327 -0.0021957294 1.0664378 0.40876588 0.15413462 -0.9696245 -0.1616226 -0.7563026 -0.6533207 -0.16946223 0.054995123 0.4021375 -0.5339018 -0.27319688 0.67041814 0.95269597 0.020348782 0.21303524 1.1210834
》 0.6110446 0.6570903 -0.2745019 0.6590517 0.52602553 0.2175004 0.34129333 0.69995606 -0.15678035 -0.86133134 -0.26914242 0.10679594 -0.15950042 0.30553555 -0.05261454 0.017974265 -1.0274934 -0.23271817 0.5100684 -0.22838505 0.09620575 -0.1033458 -0.22220024 -0.16939853 -0.5458721 -0.20033985 -0.15694596 0.4651881 0.42096108 -0.54489297 0.25645995 -0.06887467 -0.11713312 0.32460985 0.16143908 -0.2151005 -0.7204141 0.08325199 -0.46165594 -0.19693084 0.19263537 0.1395445 -0.5823922 -0.13698557 0.17478469 -0.0013675109 0.3906671 -0.21381223 -0.085405424 0.54362893
由 0.06509376 0.03516479 -0.11904746 0.35091123 0.79330814 -0.51806027 0.58014935 0.014372162 -0.32955068 -0.8388533 -0.34154782 -0.11928983 0.026052164 -0.07568328 -0.049053084 -0.043061633 -1.0594974 -0.3470583 -0.3981399 0.45279333 -0.17061143 0.10087863 0.4507791 -0.8074412 -0.2807778 0.64104074 0.023017038 0.013089199 0.22817639 -0.423977 0.32955033 0.37604666 -0.12184179 -0.25755763 0.10677147 -0.49785876 -0.46838456 0.58355755 -0.7113453 0.45159647 -0.26788113 0.16385323 0.0072737196 0.22212437 -0.111107364 -0.3562373 0.17662147 -0.26283428 0.7464641 0.17132811
仲 0.12391374 0.6497216 0.31568876 -0.14291173 0.5857944 0.5177633 0.010858196 0.030960148 -0.17609361 -0.99564934 -0.1483756 0.03283173 -0.24753603 -0.28476778 -0.50772613 0.87224585 -0.7218397 -0.49389866 0.4171558 0.79309535 0.32866126 -0.0335691 -0.16297424 -0.11285364 0.19646299 0.3678771 0.26356745 0.36280486 0.032116253 -0.6495416 0.5517207 -0.030989785 -0.4306599 -0.04532573 0.29637372 -0.3880147 -0.3889708 0.48823026 -0.38649487 0.2726439 0.32622176 -0.6998995 0.07191536 -0.23772585 0.1369371 -0.0188777 0.26546088 0.7602281 0.07310139 0.13677534
非 0.19001003 -0.4128479 -0.17680019 0.07771022 0.3495103 -0.30971488 -0.3453137 0.29755166 -0.6146208 -0.89071 0.019114338 0.1844956 -0.01465038 0.028234871 -0.030687582 0.35056645 -0.7699569 -0.24317133 -0.092378356 -0.45414558 -0.2917703 0.026454352 -0.10304417 -0.2632641 0.27424186 0.66818327 -0.18884796 0.045237646 0.1796697 -0.41156846 -0.5119514 0.037868362 -0.28118318 -0.5999493 0.16643952 -0.23697022 -0.610851 0.19679527 -0.63792616 -0.31820694 0.791416 -0.43749723 0.49384677 0.19972655 -0.29596242 0.13383631 -0.6175225 0.11908862 -0.09713242 0.45416042
出 0.16377445 0.1768886 -0.16247071 -0.13615844 0.5117258 -0.47274196 0.3549679 0.3750039 1.0231636 -0.6395995 0.3515921 0.08563079 -0.20951445 -0.33873582 0.004991403 0.7158008 -0.8605808 -0.057464644 0.63915646 0.079086825 -0.023334943 -0.5720901 -1.0157796 -0.25044847 -0.07670841 0.054077633 0.5267469 0.25556257 0.5919384 -0.17084059 0.23661743 0.044156566 -0.261656 -0.10448159 -0.20208035 0.15297976 -0.7562888 0.40126702 -0.12893558 0.62685364 -0.101379015 0.745834 0.33715364 -0.62052876 0.30496117 0.14073426 -0.06860998 0.24036336 0.4148188 -0.38546205
过 0.20366922 0.5388606 0.34371996 0.25354373 0.17838067 -0.32449064 0.4591544 -0.026285771 -0.06562691 -0.871079 0.38029113 -0.44171402 0.027864976 -0.100033626 0.5923197 -0.020678002 -0.745795 -0.42363173 -0.20020123 -0.09637363 -0.10018925 0.23288523 0.19111085 -0.11316271 -0.20379542 0.5632514 0.4794949 -0.43609342 0.1989954 1.0025573 -0.1952896 0.45955518 -0.72949266 0.10763391 -0.35823384 -0.9394313 -0.57226735 0.9235075 -0.17340507 0.24269375 -0.512321 0.007985014 0.11855059 0.4282032 -0.41601002 -0.13100994 0.46140817 0.38498527 0.380293 0.023414085
一 -0.029768942 0.45846525 -0.16117798 -0.065568335 0.19815324 0.3525516 0.40535045 -1.1601812 -0.30333045 -1.1071362 0.6104864 0.4053721 -0.15996121 -0.2307842 -0.52718455 0.5315554 -0.54745895 -0.32070574 0.05313023 -0.2926245 0.1800008 0.4001717 0.11261805 -0.12570533 0.10746126 0.089233086 0.009670585 0.28908736 -0.1465534 0.34649974 -0.40536022 -0.0062693395 0.22879736 0.53780234 0.12905061 0.7213386 0.12230676 -0.05030832 -0.12262869 -0.498055 0.59822327 -0.12143048 0.08871273 -0.46538174 0.12479826 0.5413089 0.21744011 0.43497622 -0.7136861 0.75809765
虽 0.30791956 0.3439345 -0.07231948 0.7919252 0.27801332 -0.043589856 0.29397896 -0.31322017 0.025218926 -1.0615834 -0.44517657 0.2291855 -0.46542725 0.29160133 -0.015659133 0.6424162 -0.9784038 0.57476765 0.24352996 -0.49870718 0.23468493 -0.5135093 -0.3666639 0.56965667 0.42297915 -0.3077098 -0.40360588 0.19205938 -0.6059245 0.20557326 0.7118517 -0.0970842 -0.13234502 0.1042086 -0.6582211 -0.06983151 -0.4706165 0.4003247 0.37091842 0.18515478 -0.48823705 0.35389778 -0.07213982 -0.6205851 0.18281193 0.73585063 0.25029114 -0.20049247 -0.39528778 -0.19218726
足 0.24280058 0.27047735 -0.62058043 0.16137978 0.46469507 0.30112144 0.31757027 -0.7070581 0.04807481 -1.1935999 -0.13692841 0.40607026 -0.51687133 0.6513843 -0.5237388 0.7218333 -0.7689375 -0.029962635 -0.1929748 0.37561136 -0.49949732 0.5251098 0.45730886 -0.0014781612 -0.17593493 0.50327504 -0.23155758 -0.31491143 -0.06843895 0.21344534 0.5039146 0.18842801 -0.8283728 0.4421095 0.21125835 0.14266455 -0.21942407 0.23569098 -0.031938523 0.36681905 -0.38964602 0.14353111 0.42853004 -0.041109726 0.21032424 0.3708446 0.0012277244 0.0036082522 1.0284712 0.5521304
居 -0.25706992 0.095644854 -0.09034929 0.01399877 0.46365908 -0.039373707 0.38194817 -1.0104649 -0.73046756 -0.9450616 -0.042578816 -0.08861407 -0.3670627 0.28185904 -0.36573318 0.52338463 -0.7987086 0.14707398 0.2748891 -0.5637568 -0.32363904 -0.555411 0.06141535 0.608757 0.40403798 0.33500624 -0.18048711 0.4086368 0.7340547 0.000334751 0.64944226 -0.42933348 0.10554473 -0.0011148239 0.63697714 -0.057508215 -0.16051371 0.26784244 -0.30382323 -0.10267308 -0.02328005 -0.34742144 -0.011588828 -0.15994135 0.19479322 -0.06610356 0.06339228 -0.019420126 0.32024896 -0.083811074
尔 0.19666977 0.28434023 0.22152396 -0.652293 -0.4905985 0.24546503 0.5241075 -0.86129737 -0.6672462 -1.0073074 -0.35557878 0.10234916 0.08134636 0.2725928 0.7965856 -0.34924206 -1.1140825 0.36230463 0.09932704 -0.2142815 -0.12327279 0.35423985 0.11011944 -0.50156444 -0.6151938 -0.26747128 -0.76464295 0.4282442 -0.07981196 0.573595 0.3519129 0.32784867 -0.2795829 -0.53754205 0.117283605 -0.0881018 -0.5583523 0.30301434 -0.32376528 -0.38482043 0.23652668 0.012370711 -0.3544574 -0.45414767 -0.15227425 0.3850219 0.012188717 0.5267457 0.29722986 -0.2544492
夏 0.043994848 -0.24718481 -0.5231809 -0.3743423 0.37908715 0.38767096 0.033181224 0.22096927 -0.37259218 -0.9185387 -0.20097014 -0.062904395 -0.27570385 -0.059633967 -0.27504656 0.5102664 -0.016980764 -0.3955055 0.5338632 -0.121074654 0.31295294 -0.011509503 -0.024765154 -0.15831643 -0.8003973 0.26946965 -0.04995639 0.58741313 -0.35060444 -0.31232268 -0.685396 -0.06799872 -0.22417477 0.25934812 0.6265028 0.27788806 -2.1355593 0.07965896 -1.1736449 -0.61844623 0.29078677 0.20791966 -0.24962986 -0.10229941 -0.35655287 -0.13592513 0.5033464 0.5258402 -0.28108165 0.01651661
父 -0.18170223 0.48260248 0.10248548 0.17412129 -0.03908628 -0.17298734 -0.056302216 -0.743074 -0.8249449 -1.1519715 -0.76130843 -0.37313625 -0.16281278 -0.1810841 -0.2264962 0.8417676 -0.5613562 0.286745 0.13242152 0.052226156 0.071575314 -0.33212006 0.21806508 0.6662921 -0.35490566 0.13173038 0.060586415 0.21296607 0.35179618 -0.3224542 -0.06751217 -0.5808807 -0.13864116 0.6822458 0.6690966 0.0016173166 0.07572494 0.96365577 -0.74843436 0.2573381 0.044570107 -0.4211348 0.13648869 0.373433 -0.41795534 0.050042026 0.021265058 0.6351029 0.55907685 0.3762162
及 -0.24298666 0.20367058 0.03335227 0.004277427 0.84430724 -0.17163345 -0.2662254 0.05237848 -0.23494463 -1.0484314 0.021901626 0.6021606 0.23993418 -0.59496707 -0.44477606 0.46696576 -0.7821813 -0.20426314 0.6223769 -0.318432 -0.42676514 -1.3400537 -0.55173177 -0.37793022 -0.6457599 0.24778578 0.1768534 0.32259786 0.52049285 0.8058242 0.49519527 0.02865815 -0.28413633 0.048995122 0.06294246 -0.33530876 0.19210911 0.0696019 -0.7623269 0.07349019 -0.6599146 0.3820812 0.4571138 0.5371312 -0.6937739 -0.4665415 -0.084022924 -0.5153255 -0.47627237 0.41714606
己 -0.01947608 0.5355899 -0.07222176 -0.81733453 0.5780387 -0.42563087 -0.5185407 0.27495813 -0.21485427 -1.1259251 -0.6048691 0.07834427 0.013132809 0.26347125 -0.3141843 0.8118415 -0.9495367 0.3452168 0.762778 0.3763842 -0.74373096 0.15616149 -0.20478283 -0.14736608 -0.31434134 0.2429244 -0.7514774 -0.60777074 -0.28672144 0.2544934 0.39641818 0.0056671686 -0.1906367 -0.5263238 -0.23086487 -0.018028827 0.060021814 -0.33763683 -0.12598266 0.11759039 -0.24724717 -0.024490204 -0.3337398 0.39164266 -0.2874814 -0.38942534 -0.2749929 0.02846252 0.33044606 0.53615344
予 -0.7774188 0.4505407 0.11033364 -0.46637848 -0.10503664 -0.74518675 -0.19381967 -0.441225 0.0073769707 -0.87314165 -0.33658364 -0.42646208 -0.26682624 0.38884437 0.36767712 0.29743984 -1.060357 0.13058966 0.26541474 -0.5752762 0.071691215 -0.17268659 0.50811213 -0.13152935 -0.50248814 -0.5710431 -0.20567311 0.3209238 -0.10714248 0.6822706 -0.2205093 0.04253278 -0.36644056 -0.2076481 -0.2670178 -0.0088499 0.41951495 0.23787633 -0.29250702 0.09387292 -0.55688155 -0.10556743 -0.18680471 -0.18251501 -0.1870972 0.46069878 -0.078649335 0.10989793 0.15944755 0.9094184
色 1.1119751 -0.10627513 -0.4132382 -0.27808344 0.008014161 -0.48588467 0.06385681 0.601484 0.08973597 -1.0383966 -0.40814364 1.0362285 -0.116082676 0.36050043 0.2544456 0.20945428 -1.3020583 0.6889278 -0.5200207 -0.09198153 -0.0020599703 -0.4136684 -0.35765627 0.4428727 -0.38998634 -0.640573 -0.57351184 -0.047798898 0.005794107 -0.11874631 0.1438618 -0.111749716 -0.1998824 -0.17814234 0.5534934 -0.038260408 -0.9885204 0.92459756 0.30507934 0.3111445 -0.41020292 -0.2695238 0.12292087 -0.039491676 -0.2119842 0.36452276 0.92089766 -0.17091799 0.011238108 -0.2688647
友 -0.73881376 0.48534814 0.6884897 0.27940422 0.013198086 -0.103736304 -0.32801706 -0.18382065 0.13944541 -0.8316421 0.01025903 0.001414113 1.0621197 -0.08622772 0.4341484 1.1036812 -0.9995059 -0.31399217 1.2171204 0.06071377 -0.30536363 -0.25653157 -0.27449143 0.07763665 -0.07074637 0.027589621 -0.5526995 0.33767363 1.3546138 -0.61249053 0.54197 -0.033512488 -0.13821541 0.5278213 0.24407798 -0.85063964 -0.043888453 0.56666094 -0.30286103 -0.7312403 -0.042688627 0.14895546 0.1549728 -0.07440102 0.09973555 0.2503441 -0.56637615 0.10192572 0.022115743 -0.1847686
成 -0.012395776 0.08849873 0.43540817 -0.6128046 -0.17585924 -0.28865394 0.36750033 -0.46330202 0.2623908 -0.8707401 -0.51048195 -0.018862486 -0.08068369 0.6346874 -0.28298622 0.46621004 -0.3920353 -0.09058433 0.005059196 -0.011778478 0.18067777 -0.16780816 0.3082952 0.41434926 0.080393344 -0.071168974 0.22576608 -0.18064922 -0.36053288 -0.018458104 -0.20799555 -0.44207492 -0.28233385 -0.32422698 -0.45273945 -0.03829965 -0.26002768 0.45569223 -0.6336275 0.31425443 -0.020639006 0.8581908 0.3587238 0.13653122 0.10032567 -0.31575093 0.44473952 0.8767585 0.0012676592 -0.033516534
远 -0.06995582 0.48013145 -0.11158718 0.42416418 0.32867235 -0.6243942 0.43023065 -0.14102717 0.3453407 -1.212707 -0.02060483 0.4429997 0.111985505 0.14596005 -0.16875342 -0.60042137 -0.19336453 -0.7380426 -0.2133022 0.089777164 -0.33616823 -0.1431571 -0.3668767 -0.05674625 0.76291263 -0.35371342 0.11096044 -0.29385328 0.8631325 0.04889967 0.08139587 0.35846654 -0.062349573 -0.1980344 -0.17640625 -0.09091005 -0.18932423 0.5015171 -0.4818755 0.24627696 -0.4936777 0.034110527 0.011568559 -0.47442588 0.655451 0.07557709 0.56557256 0.5997557 -0.2491986 0.33513975
上 -0.06829476 0.66654944 -0.4936793 -0.13872711 0.48488343 0.24977021 -0.060383625 0.44144917 -0.4882397 -0.7501526 -0.0636657 0.32282314 0.4506882 0.24380808 0.027931897 1.0569273 -0.82214624 0.31828293 -0.91078866 0.08649529 -0.15866712 0.33407298 0.20065708 -0.5469178 -0.6106655 0.003653492 0.14226373 0.35891742 -0.0057866224 0.10993863 -0.32259548 -0.15220448 0.032814536 -0.5320454 0.24578416 0.78476375 -0.16045888 -0.13378744 0.10322005 0.092299655 -0.3440162 0.07378815 0.13996212 1.4826542 -0.17981167 0.1568126 0.32946163 1.0041498 0.40971658 0.1377511
立 -0.07268268 0.039381098 0.251505 -0.38588327 0.17552647 -0.6270351 0.40489239 -0.44814798 -0.20119546 -1.1434226 -0.48258218 0.6470962 -0.048770722 -0.12637877 0.07452232 0.61771375 -1.066988 0.10497736 -0.06402841 0.21393369 -0.24908617 0.12113482 0.52717346 -0.44775525 -0.12503222 0.33733073 -0.053527262 -0.74255437 0.47345546 0.16230886 0.6570004 0.3956743 0.2721213 0.20889437 -0.12909654 -0.084998325 -0.12619059 0.19535202 -0.50711286 0.351156 -0.25121295 -0.012052432 0.26056394 0.068887815 -0.84064937 0.80619 -0.43133503 0.4390888 0.2859046 0.063562185
今 0.26646584 1.1195328 0.27027324 -0.18909906 0.2914965 -0.25514063 -0.42920563 0.091496624 -0.5039731 -0.97073734 -0.07008406 0.45816612 -0.15128447 -0.15087003 0.38620758 0.34777024 -0.6705412 -0.3717623 0.48038408 0.095629014 -0.18478034 -0.36716357 0.21466261 -0.61637473 0.390679 -0.07737316 0.4555233 -0.15916929 -0.7705168 -0.37986442 0.06926376 0.21901006 0.26300502 -0.1675054 -0.6345173 -0.47079623 -1.1390343 0.43831262 -0.40891838 0.51475227 -0.26024866 -0.18681586 0.412603 0.5559823 -0.5407747 0.05299758 0.0846007 0.08985595 -0.2593853 0.13566017
张 -0.3489882 0.1555939 -0.082107164 -0.75845057 0.29986414 0.0022103523 -0.18084654 -0.09213314 0.21271682 -0.9970941 -0.8395915 -0.88118863 0.4634187 0.72480935 -0.19132572 0.21414119 -0.34332842 -0.0375905 0.015604013 -0.12664689 0.038540155 -0.34031186 -0.24063443 -0.6988499 -0.6241554 0.15453272 -0.6978163 -0.13850497 0.1491999 -0.27649736 -0.52511823 0.02776643 -0.032908138 0.7189664 0.1911243 -0.0072857267 -1.0506549 0.4554376 -0.5526328 -0.21169734 -0.031677056 0.13272034 0.7033327 -0.2369615 0.6475294 -0.015887566 0.5843538 1.6322203 -0.40221313 -0.4469648
中 0.114473894 0.41416854 -0.26710922 0.66605425 0.7714286 -0.10210362 0.5617067 -0.70583194 0.23226792 -1.043851 0.25057998 0.28899997 0.07797096 -0.13442206 -0.37382266 0.715063 -0.94120795 -0.43654963 -0.2180537 0.34351447 0.022029174 -0.38666692 -0.42971557 -0.20866406 0.25725332 -0.2023221 -0.03951364 0.66375065 0.15318587 0.5931092 -0.6807687 -0.24894989 -0.18193918 -0.40928286 -0.6010981 -0.06582522 0.3795746 0.38960907 -0.0070474665 0.33317167 0.05676975 -0.19947128 -0.48209512 -0.20561214 -0.35772753 0.018636769 -0.043393034 0.21766083 -0.8123421 -0.030189166
季 -0.32145002 0.7162614 -0.21946844 -0.16563028 0.013847271 0.08955237 0.3186937 -0.17855532 -0.044695638 -0.7844869 -0.36313823 -0.5023502 0.042773508 0.5527828 -0.36183256 0.63222474 -1.2693669 -0.1365381 -0.11236735 0.48165342 -0.089530945 -0.8461107 -0.15471323 0.2811927 0.23439252 0.01908197 0.112189785 -0.5496522 0.60297513 -0.89880836 0.31954533 0.115391396 -0.09296282 0.2865817 0.079854526 0.6231251 -0.4717552 -0.24357331 -1.0061804 -0.18510282 -0.53624105 0.21186098 -0.57663935 -0.20643148 0.38941142 0.909564 0.61848605 1.0426034 0.4765743 0.032335334
臣 -0.008424921 0.8554816 0.1718074 0.49610275 -0.019852815 -0.34518033 0.043353826 -0.21728104 -0.09421312 -1.1019379 0.35516664 0.48498303 -0.37976462 0.21632634 0.28509817 0.6825532 -0.46207622 -0.4832714 -0.0025321243 0.12794921 0.31968987 0.50149477 -0.53240013 -0.24911171 -0.63066155 0.1850604 0.3000201 -0.15168993 0.14907466 0.08047538 0.45074943 0.18376686 -0.22904187 -0.62561345 0.42283624 0.2149066 -0.22246099 1.0322938 0.2908104 0.04698114 -0.097771704 0.21339573 -0.52804416 0.21895815 -0.07280433 -0.037088096 0.17327762 0.39713043 0.9211068 -0.42925948
贤 0.13104922 0.8544867 0.009100723 -0.35348403 0.34382442 -0.4187695 0.2492095 -0.17838776 0.34070498 -0.8677464 0.36988965 -0.30439714 0.12442438 -0.2365673 -0.9388809 -0.097896196 -0.8154206 0.67199767 -0.05881633 -0.2566997 0.22598335 0.9734294 -0.025887348 -0.486431 -0.49623358 -0.6368443 0.3624904 -0.12180639 -0.09000216 -0.054875508 0.47018662 0.26947087 0.15657341 -0.07756223 0.3897753 -0.2558585 -0.14004739 0.5538348 -0.74587315 0.40009454 -0.6671142 0.34745538 -0.35196638 -0.059873402 -0.3688662 0.4785078 0.44401416 0.40408668 -0.17295259 0.10261382
思 0.051127173 0.4135054 -0.1598109 -0.360572 -0.12768368 -0.25564286 -0.78757703 -0.5297295 0.24955124 -1.038321 -0.0741961 -0.15895079 0.057465713 0.67584306 -0.53460324 0.7761059 -0.8098475 -0.41821495 -0.32539278 -0.7627713 -0.3950567 0.5360609 0.24811509 0.2797802 -0.09166861 0.24429405 0.6088449 0.380564 0.72441345 0.048648402 0.25574005 0.0655467 -0.0857447 0.37532413 0.33830032 -0.54924726 -0.19066179 0.050246455 0.46250355 0.17119358 0.054612417 -0.3227643 0.010006457 -0.18609765 0.041315883 0.14536093 0.57097614 -0.4032174 -0.3496582 -0.13169783
齐 0.31983423 -0.0015337651 0.42066702 0.2446424 0.13226487 -0.63432264 0.00294095 -0.38000628 -0.38896576 -1.0427299 -1.3708876 0.3184179 -0.8600803 -0.08182044 0.04629918 0.00667239 -0.71731806 -0.016323678 0.15409844 0.12081246 0.7127282 -0.12777849 -0.04460621 -0.35585743 -0.561959 0.5944144 -0.009932993 -0.06443318 0.4068506 -0.40940514 0.53095675 0.1048848 0.53146756 -0.35961062 0.4559648 0.4393465 -0.7637196 0.5728744 -0.24446964 0.31322932 0.009411858 0.075946465 -0.7858085 -0.76086056 -0.87129414 0.6863117 0.3183098 0.09935238 -0.04479526 -0.18611687
义 -0.14010039 0.46492976 0.34424877 -0.09473831 0.8758637 -0.04672926 -0.33558413 -0.35056102 0.09301824 -0.9205588 -0.42628115 0.71648973 0.38288692 0.7684006 0.101410724 0.89347523 -0.29475147 -0.01956967 -0.2027485 0.7316331 -0.118756816 0.052633923 0.013591189 -0.25370565 -0.8819338 0.18683441 -0.24522358 -0.19439065 0.011053019 -0.12524575 -0.38602582 0.032093428 0.021431725 -0.025640368 -0.6261009 0.5228291 -0.6087608 -0.17761761 -0.37381354 -0.3545233 0.5930076 -0.095989496 -0.43128705 -0.1351645 -0.42453912 0.48518375 0.30737126 0.2323948 0.45903102 -0.5464481
正 0.16577299 0.28138527 0.12674673 0.5456719 -0.07334671 -1.2214462 -0.06759942 -0.12739801 -0.18778934 -0.8814616 0.019835684 0.19771922 -0.4833574 0.35856745 0.29825988 0.5192172 -0.66696453 0.1902213 -0.110626176 -0.12813427 0.27943718 -0.6121163 -0.28675917 -0.32775515 -0.051547013 -0.3888591 -0.19385102 -0.27376506 0.3803668 -0.09722174 -0.078295454 -0.10455085 0.16333161 0.38644516 -0.037315205 0.21748227 0.21120977 -0.13312584 -0.3591716 -0.05122495 -0.82873327 0.18493938 0.22747996 -0.04814887 -0.64245373 -0.6858453 0.010100779 -0.1214767 0.14589159 -0.024595292
命 0.09005906 0.04995067 0.096651055 -0.38930896 0.4976753 -0.48750937 -0.2931177 -0.28141344 -0.55840415 -1.3900001 -0.33954647 -0.026801666 -0.08001335 0.16210121 1.0779872 0.29447785 -0.5925978 -0.6221227 0.28774518 0.19604562 -0.17116663 0.121042214 0.043874163 0.14295945 -0.60218954 -0.41782337 0.39742714 0.15306225 0.39385495 0.3713418 0.1550089 0.4839198 0.17254628 -0.1964486 -0.5538708 -0.16965786 -0.0077602277 -0.5604242 0.07519987 0.442002 -0.6468412 -0.412094 0.4264243 0.92161983 0.4037513 -0.52215564 0.505424 0.92202693 0.30089507 0.24662966
曾 0.6714366 0.20374265 0.741047 0.26219797 -0.28727764 0.39425534 0.73749304 -0.47796428 -0.7833242 -0.7009046 -0.006972934 -0.037927013 -0.44199258 0.5864969 -0.5017531 0.4446592 -1.3625513 -0.5895992 0.5467602 -0.13487191 0.27615586 -0.35164878 -0.89979035 -0.5115547 0.48642406 0.64754313 0.5464131 -0.14268892 -0.12717316 -0.39272845 -0.084169306 0.3245243 -0.4635272 -0.07631047 -0.0940364 0.58350575 -1.4755219 0.33356583 -0.98115665 -1.011882 -0.364245 0.18369284 -0.26673916 -0.332503 -0.14698784 -0.6999076 -0.81049186 1.8933204 0.4803769 -0.23367286
伯 0.2903385 0.108866386 -0.15224515 -1.079321 0.4044156 0.40617117 0.56934017 0.2058542 -0.98382145 -0.89397454 -0.67585117 -0.36083558 -0.18724492 -0.04298661 0.39685035 0.8375248 -0.8037874 -0.40488288 -0.5217397 0.80475104 -0.18238142 -0.16520256 0.2582443 0.081090234 0.24629033 0.058399606 -0.46765223 -0.004439427 0.6475526 -0.57175046 0.34415588 -0.007938646 0.3936884 0.33474043 -0.3343193 0.8109743 -0.28944165 0.49498132 -0.5485124 0.029605104 -0.3710629 -0.1619607 -0.23601745 -0.48812872 -0.024871409 -0.5414849 0.15248479 1.2541474 -0.7208581 0.30000186
门 -0.19825609 0.69030994 0.49357927 0.51352805 0.08220422 -0.9104533 0.36464038 0.15679301 0.6058127 -0.9648669 -0.19889493 -0.10593886 0.14123936 -0.08909323 0.075930275 -0.07485686 -0.7610866 -0.5092688 0.01582741 0.32980555 0.09375562 -0.55747366 0.8304604 -0.13305186 0.30663234 0.3630346 0.06656943 -0.031032821 0.5916913 -0.34437764 0.306508 0.5011342 0.24217932 0.41426843 -0.53161895 0.38895994 -0.45997205 -0.24190895 0.037129596 0.28364265 -0.043332834 0.18466978 0.5117076 -0.027614187 -0.47988495 -0.037949085 0.67822295 1.1740973 -0.4664005 -0.23623095
敢 0.4471546 0.2364941 -0.15185238 -0.28059053 -0.17740273 -0.6479818 -0.66116065 -0.55525213 0.7291374 -1.0722777 -0.26040334 -0.4123445 0.30035892 -0.2848133 0.4693116 0.40081003 -1.0754888 -0.4019427 0.17754474 -0.083096504 -0.55427045 0.77440166 0.31419855 -0.5295072 -0.2924793 -0.38193336 -0.5568262 1.354405 -0.9488856 -0.054706857 0.29275888 0.37617278 0.43974116 -0.23678061 0.028792124 0.109165706 -0.5475389 0.6952192 -0.6631195 0.36923194 -0.35086408 0.04120507 0.055638224 -0.52946645 0.061348066 -0.15618934 -0.43479082 0.59334743 0.14778455 -0.49682662
犹 -0.011180846 0.45228863 -0.2167069 0.37689227 0.3967298 -0.90105623 -0.23216902 -0.15120658 0.62746304 -1.1951159 -0.3507057 -0.4964257 0.5285355 -0.1366362 0.045141358 0.5188254 -0.72764313 0.044719577 -0.19845052 0.27693287 0.6051881 -0.0030071791 0.22760768 0.26764175 0.31335837 -0.7713514 0.3803301 -0.410037 -0.35031834 -0.038133644 0.280279 0.28926998 0.06681568 0.6640423 -0.19033454 -0.14331724 0.4349212 -0.052673604 -0.3558607 0.055655614 0.03676831 -0.5537343 0.34084025 0.1566572 -0.8550028 -0.070557706 0.47328866 0.5194256 -0.65377533 0.8610392
生 0.23952807 -0.50930387 -0.25300014 -0.17453265 0.6101849 -0.04042806 0.34795213 0.7599976 -0.7642364 -0.93032265 -0.4466655 0.104247816 0.3873049 0.39672366 0.6255199 0.6684198 -0.8585029 -0.346148 0.18853281 0.013380856 0.45256144 -0.17458665 0.23657307 -0.28678817 -0.46315345 0.006854538 -0.1463123 0.36696056 0.0016527744 0.70162815 -0.12842394 -0.15057647 -0.0070368918 -0.091969065 0.02049878 -0.05489993 -0.7440619 0.16920519 -0.13401017 0.40869635 -0.12530884 -0.8285353 0.573237 0.61135745 -0.71595395 -0.59606826 -0.025416246 -0.6365416 -0.24793023 0.4896623
日 0.051705625 0.44885537 0.5382705 -0.6959475 -0.15781231 -0.7474623 -0.35796997 -0.04611194 0.12819137 -1.1632855 -0.1646453 -0.33339146 -0.34714878 -0.25344586 -0.81727827 0.4962417 -0.68600786 -0.30585608 0.61840105 -0.8706814 -0.9095075 -0.9847545 -0.39990193 0.5869062 0.12193627 -0.9005173 0.24868557 0.5820665 0.18264122 0.23937403 0.38575673 0.49075437 -0.045334537 -0.13110304 0.14564435 -0.14645368 0.092745595 0.32895046 -1.1395168 0.15440579 -0.09713609 -0.21473658 0.3363918 0.012341364 0.32971808 -0.034262624 0.09502065 -0.10501453 -0.35420337 0.7229841
敬 0.4886197 -0.024229394 0.015331874 -0.3670872 0.13685074 -0.57196075 -0.68525606 -0.03152551 -0.68435913 -0.87714195 -0.24011606 0.92243534 0.4800487 0.67596835 0.2629987 1.3765479 -0.37729988 -0.19098276 -0.082046114 0.7067438 0.29624185 0.11893016 -0.40842295 0.36455908 -0.46353906 -0.11714283 -0.03426739 -0.4046261 0.46624443 -0.0129511645 -0.11155885 0.44619924 -0.016383993 0.6798729 -0.080341004 -0.09009027 -0.02409795 0.43709555 -0.65527123 0.3175355 0.50539565 0.5013154 0.6458437 -0.101055846 -0.60051894 0.2357002 0.4849475 0.55628395 -0.24269302 -0.32282612
难 0.68571633 0.8169346 0.3241902 0.32486418 0.3003505 -0.22580358 -0.20000072 -0.21609119 -0.3691272 -1.1201013 -0.16416351 -0.026304318 -0.21079727 0.09971167 -0.08837456 -0.3524147 -0.9916497 -0.4113454 0.09710443 -0.8802859 0.53636676 0.54748946 -0.4958348 0.41070104 -0.8232905 0.72426224 0.6030197 0.021540381 0.36636615 0.2697031 0.0065363906 -0.32782742 -0.27776882 -0.3465352 -0.52964276 -0.47954836 0.07218535 0.07167297 -0.0072420845 -0.010714646 -0.47449002 -0.468239 -0.19638641 0.8141933 -0.093716346 -0.021461219 0.8061073 0.60068357 0.62717414 -0.44816267
直 -1.2276728 0.7152135 -0.7045202 -0.5088115 0.45825416 -0.8010649 -0.32036245 -0.6988037 -0.35291824 -0.7828765 -1.7530328 0.18242522 0.57888544 0.06941756 0.112387836 0.4240761 -0.8732226 -0.22810687 -0.116971724 0.66406125 -0.017576285 0.39127818 0.11045627 0.1374016 -0.62035686 0.19331288 -0.7311193 0.61197114 0.57700074 0.08135766 -0.09374698 0.057883434 -0.22259718 -0.18331823 0.15623114 0.41243437 -0.49889946 0.8192196 0.0095085725 -0.38338232 -0.11438135 0.17397806 0.40826154 0.79934466 -0.1561684 -0.14336403 0.59576654 -0.38551375 0.048151616 0.5666516
丧 0.5763822 0.069811456 -0.32059583 -0.23430842 0.12322322 -0.911836 -0.6934185 -0.26183623 -0.32641387 -0.7302721 -0.13621302 0.47139078 0.1683848 -0.018185848 0.19661853 -0.011916966 -0.45482457 -0.4396274 -0.2570728 0.43981817 -0.2221996 0.44398838 -0.19765578 0.10533319 -0.33575928 0.34034956 0.34313583 -0.011029771 0.37966245 -0.27867672 -0.034713827 -0.12542827 -0.25684115 0.8655143 -0.14510387 -0.20746253 -0.46309298 0.73242384 -0.64562005 0.75290525 0.09751798 0.36983395 0.68552417 0.7729648 0.26591977 -0.2290095 0.14895098 0.8410812 -0.5339561 0.6471874
说 0.24145645 -0.02009105 -0.41863996 0.22947621 0.7015794 0.029608028 0.09084873 -0.15898496 -0.012287098 -1.0998422 -0.81069326 0.7510771 -0.30693236 0.7677977 -0.44875303 0.48687974 -0.54129803 -0.48291773 -0.029265575 -0.19853021 -0.083118685 -0.025328794 0.2500613 -0.100247435 -0.35633895 -0.7254338 0.45902124 -0.40636447 0.6507398 0.20822856 -0.0944464 -0.05607428 -0.0706769 -0.51195335 0.08773243 0.024876397 -0.8248461 -0.1800974 0.13871892 0.2994148 -0.7263384 0.1675562 0.27620903 -0.20351028 0.07701046 -0.07760962 0.3658262 0.15908459 -0.779501 0.03416977
自 -0.56020737 0.40570217 0.05719867 -0.21281466 0.3870056 -0.30126435 -0.5612227 0.003710879 0.22983757 -0.78003645 -0.39385527 -0.46029505 0.10299935 0.110126086 0.13916521 0.55323035 -0.912116 -0.2688195 0.13426489 1.2561055 0.14103875 0.82261586 -0.5064757 0.99265665 0.13814387 0.23125869 -0.8820305 -0.11652411 0.2780242 0.6323197 -0.11009426 0.51627207 0.21064612 0.03101622 0.3070126 -0.46944308 -0.167036 -0.27500242 -0.24755524 -0.32800505 0.071305 0.3129144 -0.82334226 -0.30028838 0.17141747 0.20751308 0.91985726 0.30839697 -1.082342 -0.24441163
用 -0.58649766 0.136332 0.06555903 0.12027058 -0.015002 -0.4814497 -0.036008142 -0.56015813 -0.67334825 -1.5326384 0.20606117 -0.050884683 -0.31694108 -0.1906685 0.20183063 0.6433501 -0.3445216 -0.031901654 0.014973089 -0.5847554 0.21537495 -0.17306702 0.18427269 -0.5377576 0.9230453 0.0029326782 -0.91766334 -0.41250968 0.09739392 0.24228069 0.42020658 0.32737812 0.5811279 -0.9018344 -0.16701925 0.22822888 0.27920035 0.62860477 -0.33946133 -0.46542457 -0.027217953 -0.5535472 0.5360973 -0.5233036 -0.21407779 -0.25081998 -0.05613717 -0.0943537 0.6751592 -0.28447014
周 0.37393695 0.18578301 0.25127512 0.04544544 0.48079216 -0.0012136155 -0.1882019 -0.41247022 -0.13643312 -0.8608493 0.38186717 -0.08321751 -0.16668932 -0.6114192 0.2505305 0.1552749 -0.7216546 0.69449794 -0.17631467 0.28120735 0.46818447 -0.3500432 0.6023098 -0.4908804 -0.6960876 -0.5053163 -0.80930126 -0.14453638 0.3754478 -0.033437233 -0.6287066 -0.18447557 0.44787082 0.0026093558 -0.26446238 0.38793367 -0.41462874 0.26760957 -0.2901842 0.1366496 0.31790954 0.61949307 0.38629803 0.17963643 -0.10988557 -0.27201357 0.6287662 0.74992526 -0.11388141 0.08277508
颜 0.5963179 0.15330695 0.3871769 0.7232694 0.07764487 0.055368975 -0.53291494 -0.18863675 0.21898773 -0.7592111 1.0123068 -0.40541658 0.36672485 0.3853235 -0.37997818 0.56221884 -1.1952579 0.23717825 0.62990165 0.038665067 -0.15495506 -0.38989314 -0.062101696 -0.6068837 0.3904041 0.8859906 -0.26394933 -1.3254175 0.70780647 0.27830964 1.1284922 0.028408911 -0.54300237 0.2614014 -0.39621985 0.32778755 -0.84955555 0.14698657 -0.095305085 -0.26404947 -0.102736 0.20948248 0.061295103 -0.56062204 -1.0439146 -0.3562729 0.15569226 1.1604178 0.43123987 1.7933407
年 0.048394777 0.27960482 0.054360338 -0.3232847 0.6535703 -0.24891485 -0.8474349 0.10008238 0.62565464 -0.91705656 -0.6628685 0.58450884 -0.093061514 0.19643071 -0.40515235 1.0028598 -0.14297079 0.17978962 0.15500954 -0.8716914 0.49049678 -0.5057917 -0.15102851 0.21958429 0.7265148 -0.18002155 -0.4175644 0.0738686 0.012716104 0.6857132 0.3290377 0.21646807 -0.33175662 0.66309386 -0.111120656 -0.2468628 -0.8985747 0.38507965 -0.91545486 -0.63776135 -0.10073638 1.4209747 0.82927924 -0.45336545 -0.17658028 -0.94087166 0.54763776 0.6472193 0.077996165 1.0466502
告 0.25782555 0.9444518 -0.16078757 -0.90046567 0.115446344 -0.36323357 -0.10478185 -0.11242634 0.8829933 -1.1313097 -0.36800316 0.07796157 -0.6837001 0.37015465 -0.1255686 1.1459686 0.25780055 -0.7377709 0.42821673 -0.29725182 0.078864224 -0.044029817 -0.52519643 0.15627661 0.19045718 0.4093188 0.09692023 -0.41264212 0.5545867 -0.11230448 -0.6946428 0.6063891 0.3320173 -0.41980672 0.20910896 0.3432112 -1.0036877 0.24741888 -0.38878453 -0.6706226 -0.009511262 0.0040571345 0.67754954 -0.07002328 0.6995473 -0.032503087 -0.4445136 0.6975749 0.47134352 0.11916234
十 0.52964795 0.43948293 -0.5481545 -0.531561 -0.61981463 -0.1810395 0.1973167 1.0939143 -0.024105301 -0.8694426 0.07015294 0.5096854 -0.64965236 0.19263767 -0.2351 0.6853006 -0.8922387 -0.64497405 0.04476443 0.19148585 0.96528244 0.24543148 -0.072042845 -0.024165753 0.13157769 0.6908821 -0.89594483 0.27094045 0.26048937 0.646579 -0.2831827 0.3208295 -0.13435158 -0.036883228 -0.085772924 0.59332305 0.08207566 0.9597438 -0.2843424 -0.44512275 0.32000053 0.12813953 0.8556821 0.69253206 0.42218325 -0.57743424 0.6905951 0.32491332 -0.59006643 0.18791744
怨 0.041358944 0.82494086 -0.00022938801 0.17553829 -0.2797924 0.19130628 -0.12380462 -0.7398148 -0.17986701 -0.6659327 0.13156004 0.46037284 -0.0028315573 0.67187184 -0.00718331 0.26598924 -0.85291046 -0.53390956 0.29469588 0.27874497 -0.10894556 0.22934416 -0.043324195 0.12871216 -0.33711278 -0.1614707 0.07361154 0.19111317 1.0542657 -0.18335815 0.22876862 0.45432574 0.30253208 -0.4903464 -0.29878378 0.20553133 -0.58470714 0.71399593 -0.3740009 -0.20788291 -0.27017587 0.19632486 -0.47541612 -0.053297605 0.09112047 -0.17065077 0.51498 -0.42846653 -0.310981 0.31561527
达 0.39907584 0.4853639 -0.10632626 -0.2964484 0.27268797 -0.6835365 0.11268871 -0.20739515 0.15670173 -0.79512405 0.34573305 0.4235025 -0.024908936 -0.14478393 -0.23969953 0.3685078 -0.60375303 -0.6569457 0.07681535 0.42766058 0.02443499 -0.84240586 -0.07919696 -0.25573054 0.25341424 -0.025807528 -0.23037261 0.63876915 0.66960627 0.14100893 0.5583837 -0.13152693 -0.58965623 -0.37721816 -0.2430214 0.03313741 -0.4011708 0.096590176 0.19229478 -0.15028398 -0.31364655 0.36881545 0.3312172 0.7380316 -0.3037516 -0.4110766 -0.28759617 0.092528775 0.41533846 -0.03636721
孝 -0.40009955 0.66863227 -0.15467654 -0.42779046 0.47239858 -0.38109133 0.040988915 -0.5283902 0.2277556 -0.78588504 -0.3496232 -0.22002351 0.39907092 -0.024777064 0.022989307 -0.15367231 -0.8046483 -0.06614822 0.4035534 -0.5490265 0.016613543 0.033357926 0.70778775 -0.35707742 -0.11421796 0.29989788 -0.60734904 0.28497273 0.5780043 -0.26752943 -0.41288483 -0.15370443 -0.12017529 0.22430442 -0.5038379 -0.7970111 -0.83177817 0.06658957 0.15890145 0.87388396 0.06420986 -0.003928525 0.13594472 -0.28877047 -0.5821109 0.28231055 0.6152135 1.4727032 0.14609304 0.033387434
弟 0.4371971 0.224172 0.69988316 0.321947 0.64031684 -0.74621254 -0.06777709 -0.1587838 0.09989917 -1.1695935 -0.17570722 -0.5194218 -0.32680613 -0.6424193 -0.1353666 0.5955787 -0.7086582 0.33089998 -0.16972218 -0.30580884 -0.06944784 -1.0117723 0.035569668 0.096131496 -0.70659965 0.5906922 0.014937013 -0.15181151 0.6781083 0.49567297 -1.5615278 1.1130904 -0.5353456 -0.63244724 0.11726364 -0.513982 -0.7593843 -0.35295227 0.0685539 -0.30888784 -0.89708304 -0.7430439 -0.25555712 -0.34309462 0.21068893 -0.048272032 0.17107148 0.32953528 0.49377987 -0.15778093
至 0.14477158 0.28989697 0.41358057 -0.033056617 0.0313345 0.26780692 0.7072849 -0.104885586 0.63089746 -1.0036323 0.43000397 0.4926704 0.13249049 0.25235805 0.67613417 0.48366144 -0.6644331 -0.02706287 0.49202713 -0.057531957 0.24303067 -0.9563924 -0.14604256 -0.5134623 -0.6406951 -0.19974089 0.39378121 0.72637653 0.32956672 -0.17859958 0.2022939 -0.06571869 -1.0055348 -0.44355732 0.043845937 -0.12659554 -0.9808773 0.26507437 -0.5316351 0.5225655 -0.672691 -0.39474082 0.2134466 -0.4523704 0.050047036 0.36599445 0.04624896 0.015323981 -0.27435145 0.03542423
先 0.507001 -0.168028 0.19352037 0.45589203 -0.073839724 -0.07135427 -0.4587227 0.27440947 0.2604721 -0.7096944 -0.2934193 -0.19111474 1.0571465 -0.1071393 -0.19730532 0.03574079 -1.4035416 0.3006409 0.46826053 0.12142745 -0.08896119 0.2913913 0.7089203 -0.118688256 -0.3003158 0.31263214 -0.32886684 0.41628253 0.08500922 0.4794532 -0.061324373 0.15091152 -0.17267495 -0.29878375 0.20704243 0.023258908 -0.116997905 0.9227815 -0.04629014 0.0475678 -0.799133 0.042860884 0.16105016 -0.52332 -0.28714386 -0.16313006 -0.050391912 0.14181396 0.009933621 0.17238429
师 -0.53557485 0.7559226 0.0534867 -0.4984575 0.3136172 0.18742391 0.043580435 -0.04615022 -0.32516468 -0.77200794 0.7098801 0.06408454 -0.31332773 -0.13687608 0.49755874 0.27785438 -0.8234988 0.023087606 0.14059733 -0.14168324 0.95410043 -0.053518675 0.17113608 0.06941867 -0.5680169 0.4801198 0.06275457 0.47828314 0.5669824 -0.14563042 -0.28303656 0.16085231 -0.12772375 0.42857802 -0.2549122 -0.6143126 -0.5833623 -0.16882187 -0.04311554 -0.0091658905 -0.41621488 0.1660068 0.17382014 -0.2810096 -0.47634482 0.2400435 -0.083753884 0.4733321 1.3323038 0.6265655
女 0.43228567 0.39889047 0.40547067 -0.16973114 -0.12126343 -0.025592064 0.32079855 -0.54879946 -0.5464449 -0.9420865 -0.47811723 -0.29215813 -0.42042768 0.058328606 -0.41410893 0.89718586 -0.9282825 0.32396072 0.16553101 -0.021567333 0.1791203 0.012157651 -0.22518398 0.038250834 -0.49082118 0.37158477 -0.64179265 0.2844104 -0.6521616 -0.009769038 -0.9646047 -0.01819862 -0.17369029 0.19659823 -0.28725073 -0.14090441 0.43078452 -0.6718346 -0.81883 -0.58028823 -0.6449673 -0.21713784 -0.47903782 0.27823317 0.050288152 0.05467471 0.20587625 0.7745795 0.08754074 0.44447273
多 0.04504201 0.19801195 0.30304497 0.49784544 0.52702373 0.11614925 -0.4490049 -1.0742134 -0.09691375 -0.8909182 -0.06201269 0.079924546 -0.002077533 -0.33333746 -0.03628852 0.5461785 -0.7498809 0.1504225 -0.5504288 0.1085851 0.3051206 0.349014 -0.4060666 -0.116121575 -0.07587667 0.825232 0.34872803 -0.41906923 -0.1794098 -0.21218756 -0.19189367 -0.007938178 -0.29011297 0.49765202 -0.08246262 0.5167725 0.15898103 -0.08587312 0.20789254 -0.054121304 -0.64734524 0.013546991 0.74551034 -0.5027758 0.13594814 0.32660782 0.44367862 0.5688419 0.19460616 0.06670001
忠 0.12256354 0.7959064 0.218309 -0.10372984 -0.09565107 0.47885644 0.58044165 -0.69196874 0.2293252 -0.6432767 0.12630281 0.69784015 0.77414733 -0.27376816 -0.042361632 0.82521534 -1.1298121 -0.1940254 -0.28413734 0.19829278 -0.008921949 0.17139919 -0.3554483 -0.51947564 -0.48368314 0.6719446 -0.9262266 0.12961246 1.0123327 0.2537467 -0.11888453 0.034263242 0.34331387 0.38432002 -0.35822564 -0.33021164 -0.377263 0.18044823 0.07266251 0.24738292 -0.16428946 0.79848987 0.08938556 -0.38452744 0.17295855 0.46170878 0.6589192 -0.26792404 -0.11647237 -0.24294905
四 1.17912 0.60148543 -0.87083316 0.19756062 0.0689986 -1.1571875 0.604075 0.18562071 -0.13768202 -0.94815904 0.57554245 0.18408094 -0.08239809 0.10692919 -0.5652532 0.3789167 -0.51261646 0.3855311 -0.0959184 0.23420934 0.060327683 -0.008423487 0.21472491 0.26720658 0.049395144 1.0105656 -0.98446 0.3926644 0.12898323 0.38026524 -0.08125538 0.09245561 0.24486358 -0.4110349 -0.20656525 0.27815846 -0.9321376 0.24264261 0.37947607 -0.88135654 -0.29936284 -0.5310875 -0.24827065 0.06534395 -0.5178733 0.41810834 -0.06691173 0.40291995 -0.046566267 0.41376328
疾 0.1850385 0.31172562 -0.29355973 0.38107446 0.5795922 0.39883408 -0.3012901 -0.1254383 0.13536142 -0.85887885 -0.27682456 0.034595124 0.57104295 -0.16208594 -0.08173663 0.8103985 -0.38784948 -0.30730864 -0.19182236 -0.5124702 -0.5713394 -0.49263752 -0.0014269005 0.18963312 -0.015308151 0.08787669 0.37474653 -0.4213329 0.848831 1.3760318 -0.5177664 0.010845549 0.37836364 0.60439134 -0.27148446 -0.24490215 -0.5684164 0.33651868 0.030179976 -0.34837425 -0.08524445 0.6074803 0.18169591 -0.15235277 -0.14421271 -0.06937068 0.08141025 0.063741036 0.059203003 0.33236372
服 -0.052790355 0.17263712 -0.40273407 -1.0094019 -0.07683465 -0.3918241 -0.07657543 -0.21370661 -0.018626789 -0.652725 -0.036762964 0.75521255 0.020845346 0.84780276 -0.27887484 0.85235786 -0.50184256 -0.038736522 -0.56463224 -0.047692306 0.44367778 0.14772308 0.15438625 0.21065943 -0.5755037 0.75308764 0.15666458 0.107148245 0.066198274 0.3630127 -0.32509673 0.2816321 -0.25848195 0.5999376 -0.43355995 0.3797387 -0.67973506 0.22240505 -0.2989471 -0.26447678 0.13108581 1.5005697 0.9434839 0.5394425 -0.109153695 -0.01056755 0.34000078 -0.059958354 -0.92653143 -0.25241044
氏 0.5765361 0.1829564 -0.32246125 0.04020192 0.0131003335 0.58755785 0.09237812 -0.42511842 -0.03410411 -1.0245938 0.59782106 -0.13819577 1.0242594 -0.3677599 0.3521701 0.78543437 -0.51985276 -0.9279429 0.3316599 0.044925537 -0.37644956 0.8599525 0.20351751 0.3193922 -0.22601075 -0.3269651 -0.38368535 -0.8811664 0.47274044 -0.4815502 0.49386382 0.050912227 -0.5064166 -0.1910196 0.78110677 -0.18726549 -0.94125676 0.15768407 -0.68732214 0.22742243 -0.20007999 0.17929679 0.2534296 0.15682235 -0.7329822 -0.796134 0.8099989 1.362619 -0.17576835 0.08384016
冉 0.39700556 -0.24764001 0.3533214 0.43890762 0.0050607445 0.24200292 -0.4795939 0.47234088 -0.9194315 -0.37392828 -1.0312215 0.17501223 0.5177363 0.7804902 -0.018496187 0.6936091 -1.0537417 -0.13141361 -0.5643368 0.19973582 0.2931055 -0.81844467 -0.44922465 0.24197118 0.11053693 0.25924236 -0.5323753 0.14790812 0.34374726 0.45121482 0.1724183 -0.10269794 -0.70968956 0.45690343 -0.72004527 0.95664954 -0.9088758 0.49582905 -0.8776167 0.03126587 -0.5652575 0.39852878 0.23177841 -0.060493205 -0.249278 -0.96828496 0.25925177 1.0382142 -0.109964974 0.72075063
将 -0.69274163 0.18794888 0.15573631 0.21060602 0.26194692 -0.017366188 0.084913984 -0.3564274 0.4899909 -1.1815706 0.33083493 -0.16493236 0.6761638 -0.014598442 -0.32568282 0.3815046 -0.34577924 -0.8044292 0.15746365 0.08466143 0.91595227 -0.43286768 0.08074795 0.69185525 -0.5710244 -0.048707858 -0.12182277 -0.23652874 0.746271 0.42488062 -0.49845403 -0.49944034 0.27346426 0.28845415 0.24068327 -0.21359895 0.014851514 -0.012396146 -0.14979629 -0.28948998 -0.09816909 0.033812843 -0.30753803 -0.20816566 -0.26978838 0.2013212 0.5851993 -0.040247943 -0.5321364 -0.2816073
士 -0.5474786 0.3473841 -0.29006863 0.29308563 0.67495084 -0.50797576 -0.08319375 0.4034702 0.25062367 -0.4483801 -0.15914933 0.11618445 0.1607779 0.4388692 -0.029279053 0.27057537 -0.5271338 -0.5223176 -1.083045 0.029383058 -0.6565142 -0.5431034 -0.4288927 -1.1152923 -0.3267089 0.36056638 -0.40853572 1.3926355 0.068558894 0.48867893 -0.27705505 -0.033446748 -0.72223294 0.45031962 -0.32953742 0.23202331 -1.154318 0.37119555 -1.2270374 0.42410284 -0.23264325 0.24105854 -0.16383216 0.4121153 -0.7305781 -0.38348407 0.7782686 0.18730016 -0.18657424 0.036172338
丘 -0.14660464 0.21610504 0.4903652 -0.1813226 0.4156042 -0.38351405 -0.8464139 0.0013504026 0.36138603 -0.7964695 0.2835974 -0.36229378 -0.7996142 0.6364121 -0.7464845 0.22853042 -0.84228486 -0.71329683 0.8137428 -0.288939 -1.0451955 0.2850699 0.355362 -0.42809862 -0.4051735 -0.3023994 0.21215881 -0.10835332 0.39306074 0.40451297 0.38473287 0.4036705 0.42526433 -1.0577618 0.11819201 0.09409514 -1.033479 0.9121875 -0.40258178 0.06767367 -0.8044057 -0.29925963 0.6139308 -0.067020364 -0.5493289 -0.17401333 0.5714627 0.29039255 -0.32177898 0.116063185
身 0.12980953 1.1757568 -0.4620811 0.8101193 0.12940928 -0.245991 -0.1296887 -0.5646282 0.3733457 -0.9251102 -0.15832584 -0.44774893 0.52371925 -0.43668407 0.39366004 0.5687123 -1.2666206 -0.40814817 0.5739692 0.68446594 -0.15950161 -0.38012663 0.19112976 -0.7128759 -0.14579226 0.4078084 -0.1941572 -0.0047453134 0.22024928 0.4052161 -0.44381788 -0.28173688 -0.46784654 -0.5155331 -0.76601255 0.52543503 0.29456723 0.35003078 -1.035023 0.2463441 0.3344361 -0.67279786 -0.25313222 0.21132906 -0.48748043 -0.012701821 0.36125118 -0.22572556 -0.6426762 0.10416073
入 0.17195593 0.0993715 0.08914799 -0.8060881 0.20147222 -0.2379629 -0.164261 0.110571645 0.62267345 -0.8207156 -0.40850857 0.1751562 -0.30658013 -0.18829973 -0.3260116 0.7420009 -0.32703555 -0.04463866 0.103852905 0.37286085 0.5698888 -0.41640508 -0.009211244 -0.07256457 -0.5971862 0.6432948 -0.02500677 0.10888433 0.7782538 0.35296828 0.079901755 0.41189435 -0.50627786 0.40167806 0.40208727 0.013016204 -0.2442155 -0.3000811 -0.5543096 0.47164974 -0.5538132 0.029177643 0.17818312 -0.24678676 0.25172842 0.22922753 0.009256965 0.7917997 -0.23494372 -0.09673606
志 -0.36236182 -0.030657558 -0.15268975 -0.16595826 -0.044839233 -0.9831314 -0.13937189 -0.39242235 -0.35981068 -0.7094939 -0.094385825 0.002055129 0.3230301 0.11595256 -0.144398 0.657988 -0.7622541 -0.113156594 -0.6112912 0.4660112 -0.3435558 -1.011771 -0.04390973 -0.39679942 -0.58616793 -0.23255536 0.1845405 0.2884925 0.4967155 0.4185074 -0.71457946 0.48181412 0.6842685 0.3628259 -0.46986067 -0.027426012 -0.8016769 0.21148317 -0.5002071 0.5699823 0.13175794 0.10794677 0.22070517 0.7167458 -0.80999726 0.031839985 -0.039327234 -0.03954707 -0.23155512 0.19901252
耻 -0.288599 -0.10791137 0.18660994 -0.27336478 0.02100457 -0.36430493 -0.13926075 -0.95052123 -0.21507733 -0.9579141 -0.34087396 0.44964114 0.23625128 0.30959985 -0.55770534 0.30766878 -0.4252755 -0.029395113 0.60370296 -0.062908396 -0.26483917 -0.10125863 -0.25775513 -0.22907041 -0.17586567 -0.4074671 -0.60358334 -0.28106618 0.6591677 1.2358888 -0.025355509 0.03087392 -0.088874616 -0.26021245 0.2042461 -0.048909236 -1.0157253 0.34440225 0.13052396 0.07241981 0.12014323 -0.7407719 0.36132032 -0.2941638 0.032318544 -0.7835373 0.34970883 0.28062358 0.31765038 -0.46727368
失 -0.18973522 0.62886286 -0.086633965 0.6263345 0.042624835 -0.55651075 0.38890278 -0.49808344 -0.0701963 -1.1073904 -0.04908851 1.2779636 -0.06253395 0.07265513 0.01110159 0.84823155 -0.40838182 -0.7128545 -0.1648987 -0.7474697 0.32320058 -0.51375496 -0.43865624 -0.60785747 0.88330126 0.19174677 0.02871318 0.9006995 0.17813134 0.7830508 -0.21502905 0.31643084 -0.14450508 0.5011478 -0.59898674 -0.32262814 0.18069868 0.2992784 -0.5713922 -0.64204943 -1.1399416 1.0485237 -0.286808 -0.14852737 -0.420826 -0.8438044 0.77380806 -0.22580709 -1.1477752 0.5888121
安 -0.13205186 0.41503465 -0.141319 -0.22647913 0.3191808 -0.67899424 -0.111932285 -0.06664771 -0.14041397 -0.5139882 -0.2591152 0.9900144 0.16324612 -0.2271101 -0.68189543 0.20711948 -0.7143856 -0.36064866 -0.2042914 -0.9435155 0.60339123 0.69971013 -0.010622689 -0.6703132 -0.0420823 0.6125743 -0.44421363 -0.08454146 -0.5468819 0.39517146 -0.0041631786 0.337047 -0.97634387 -0.083912835 -0.4270323 0.4594183 -0.48746267 0.47557732 -0.5566426 -0.23965578 -0.21225874 1.4869819 0.24571235 0.23747988 0.3020058 -0.32141873 -0.006010828 -0.34125713 -0.59740543 0.711144
富 -0.47757784 0.69012856 0.28292534 -1.2709107 0.7076275 -0.60999054 0.14837652 -1.6399951 -0.15650429 -0.3846605 0.14554904 -0.4504974 0.3282501 0.83947235 -0.40420142 0.3964396 -0.64643025 -0.6533101 -0.2519773 -0.6734477 0.45477176 -0.6553447 -0.19725025 -0.24545969 -0.012889326 -0.16285013 -0.7656272 0.3048669 0.53715754 0.44632244 0.12563422 0.32150695 -0.5608937 -0.11028424 -0.6537573 -0.2093405 0.0057034246 0.42602545 -0.85889316 0.08484297 -0.17090772 0.28881526 0.58558524 0.5024894 0.053406887 -0.08963853 0.8681079 0.7736597 0.029088367 0.21159793
赐 0.023983624 0.10725837 -0.0024605799 -0.13419357 1.0403004 -0.6070585 -0.7052137 -0.48877668 -0.8158757 -0.5638063 -1.030171 -0.5507629 0.23383628 0.26107508 -0.4142577 1.0057788 -0.7116795 0.21627232 -0.65774465 -0.6683475 0.102484204 -0.589464 -0.06688103 -0.5892161 0.08086368 1.1320156 0.2584913 0.46885362 0.23461926 0.6712305 0.023829268 0.48905626 0.031786248 -0.09807155 -0.3907854 -0.5874815 -1.4735488 0.50643903 -0.19038717 0.03717455 -0.41457263 0.6758992 0.44872588 0.3304092 -0.14332992 -0.34910288 -0.16867694 -0.49538454 0.22457385 -0.084923685
患 0.35944006 0.44470745 -0.2134801 0.34123498 0.24076146 -0.84517384 0.009890404 -0.9877381 0.33214846 -1.2396942 0.12153524 0.4765353 0.3039701 0.7021485 0.53747886 0.6253074 -0.49876133 0.47535425 -0.9127382 -0.3379727 0.060762335 -0.08455006 0.132122 -0.11363579 -0.95848924 -0.31987455 0.27880767 0.0864612 -0.49688262 0.95621455 -0.41186368 0.18446134 0.2620597 0.017807323 -0.59698117 0.6863776 -0.23723264 0.4976441 -1.2404921 -0.40892115 -0.07637161 0.101402566 0.12891886 0.26438594 0.850855 0.24074215 -0.25935188 0.2491802 -0.5145843 0.21114987
百 0.71816206 -0.21065763 -1.0535519 -0.049399476 -0.15257694 -0.1559986 0.20600192 0.47980598 -0.13578096 -0.9129631 0.22425266 0.06622769 -0.14767857 -0.21035409 -0.31987387 0.68810266 -0.99677616 -0.20004606 0.4635849 0.20009269 -0.08038671 -0.63134235 -0.5527581 0.025884766 0.32304385 0.8986173 -0.40823954 -0.10132688 0.5608084 -0.13483599 -0.43414965 -0.10832612 -0.2194231 0.41068673 0.515442 -0.4403664 -0.5606589 0.09231608 0.06229808 -0.45204553 0.2583943 -0.37989458 0.67214966 0.79390776 0.395766 -0.70546067 0.46645865 0.67220324 0.16894615 1.0796185
回 -0.17549957 0.33856192 -0.5551125 0.6564721 -0.05693442 -0.603571 -0.106096715 0.08959378 -0.20323892 -0.9306538 0.4541363 -0.6590454 -0.23925065 0.6228798 0.04151731 0.11679988 -0.8317488 0.22618006 -0.014326075 0.01113613 -0.08598201 0.44085148 0.3043387 -0.3903611 -0.2973116 0.19828352 -0.6663204 0.073859155 0.3562359 0.46981606 -0.6222771 1.2439774 -0.06343515 0.20380674 0.36097383 -0.56876415 -0.43208182 0.86876625 -0.05247024 0.2059466 -0.56378585 -0.50443023 0.47987193 0.14108667 -0.18722911 -0.25162536 -0.2161263 0.23080665 0.27775493 0.433603
宰 -0.3274098 0.21185435 0.17986414 -0.11848669 0.21833545 -0.15750366 -0.07412455 0.41227028 -0.47803926 -0.5610836 -0.151116 -0.1718732 0.14878714 -0.10859575 -0.35215116 0.7251513 -0.6980762 -0.37084758 0.17619507 -0.8118727 0.4005087 -0.47583103 -0.46568695 -0.31894237 -0.25110942 0.0816362 -0.39319518 0.102525696 0.7029183 0.55529284 0.29154262 0.39434227 -0.7485489 0.7539112 0.28107163 -0.08078819 -0.023166548 -0.048085656 -0.56329685 -0.09639023 0.66282094 -0.13379574 0.3892721 -0.07064328 -0.27269688 -0.39897025 0.49430817 0.90841657 0.13912527 1.1028432
朝 0.76497185 0.1638212 0.7281225 -0.2790098 -0.44948763 -0.3275465 -0.4250163 -0.41804072 0.114016615 -0.72899944 -0.38478476 0.018054683 -0.20155567 -0.37094107 -0.059590764 0.49806693 -0.60433793 -0.6036141 0.2525664 -0.743138 0.18708038 -0.94865865 -0.040443346 0.3059926 -0.5902189 0.17737666 -0.1545427 0.2763305 0.5174436 -0.18498501 -0.3212733 -0.059362013 -0.7275944 -0.08723787 -0.7503948 0.18445292 -0.7618224 0.11628863 -0.5608044 -0.7876077 -0.3552146 -0.2308092 -0.02753129 0.1705965 -0.09634214 0.3701366 0.302801 0.10285795 -1.0611115 -0.42363495
莫 -0.037793428 0.6068974 -0.2165378 0.098945685 0.63268054 -0.12089926 -0.3303224 0.3948528 -0.76020163 -1.4396781 -0.50627345 0.5734001 -0.07828989 -0.2368323 0.20007017 0.9026548 -0.37016347 0.59818417 -0.11604365 -0.27013946 -0.01212866 0.47546777 -0.012384713 -0.41793546 0.84565777 0.1826998 0.0113993585 -0.64552045 -0.13169324 0.018561862 0.7396185 -0.30361652 0.22224674 -0.09438173 0.2362853 0.10257056 -0.36488128 -0.3743153 -1.4365698 -0.61115605 0.5507048 -0.17958711 0.59994066 0.06394632 0.6135345 -0.32070488 0.34602848 -0.3145043 0.3482471 0.09306575
若 0.35262272 0.22771284 0.28346118 -1.0512385 0.052421488 0.18887822 -0.2550808 -1.1153522 0.14748359 -0.7534495 0.17471506 -0.62900454 0.27346343 0.13511 -0.9945844 0.68248117 -0.5159261 -0.1441465 -0.4457645 0.029020637 0.65262085 0.41533312 0.2589428 -0.06379548 -0.3162882 0.01344349 -0.20811896 0.22184399 0.0765093 0.22520392 0.16051051 0.30458388 0.33052588 0.29863364 -0.84640855 -0.19569871 -0.015341553 0.27210322 -0.5532158 -0.9450124 -0.60233825 0.74207747 -0.5408563 -0.16525924 0.28893375 -0.12689286 -0.2675873 0.6986077 -0.115375906 1.9337225
云 0.6149553 0.35254875 -0.29640943 0.22535828 0.5046492 0.8750169 -0.27645224 0.09545135 0.11945228 -0.9690741 -0.20985548 0.41433662 -0.078891076 0.32321328 0.5435873 0.37341794 -0.8295475 0.015307697 0.38356775 -0.2786603 0.21439227 0.19762167 0.08352038 0.19141711 -0.14768684 -1.141126 -0.18088804 -0.17350535 0.23799084 -0.8017061 -1.127678 0.27139062 -0.32466546 0.3546974 -0.02180159 0.19294365 -0.85341316 0.4519878 -0.69194883 -0.37435275 -0.2469275 0.03536905 -0.15291499 -0.7968807 -0.37982738 0.12523982 -0.0060134074 0.15481219 -0.07807957 1.1576489
孙 -0.83400273 -0.17081426 0.27139717 -0.7357385 -0.1482509 0.6131227 -0.40701818 -0.60834914 0.16626054 -0.70761573 -0.78404176 0.19349079 0.1304686 -0.39484257 -0.02420321 0.9583625 -0.40312305 -1.1107444 -0.09271148 -0.5598137 -0.13989882 -0.24783477 0.023076303 -0.27323878 -1.3253306 0.5186846 -0.9353518 -0.20969649 0.6969042 0.22917816 -0.39769068 0.50015813 -0.13639444 0.94218266 -0.501501 -0.45896816 -0.7291692 0.4794154 -0.16528454 -0.8839177 -0.6053583 0.90835476 0.22844253 -0.29241395 -0.9410178 -0.4408531 -0.012668197 0.27619773 -0.80258024 0.18123783
或 -0.39228958 -0.26150662 0.27334622 -0.3604578 0.085522436 -0.70570815 0.21024942 -0.3435668 -0.030669792 -0.54138476 -0.38103664 -0.5969035 -0.11335995 0.28867945 -0.6920007 -0.25285977 -0.96191394 0.093706965 0.85158247 -0.09011347 -0.08417115 -0.783857 -0.33732012 -0.11081307 0.098315 -0.17819995 -0.881914 -0.037557144 -0.2160806 0.15965584 0.22606125 -0.19742693 -0.63347316 -0.29975513 -0.8671759 -0.12140764 -0.8519988 0.08117295 -0.42231894 -0.32709086 -0.1213427 0.44157106 0.52227414 0.39031896 -0.12996832 -0.491867 -0.15858385 0.84948087 -0.40568057 0.6615323
勇 -0.52097255 0.77801853 -0.66418487 -0.051261965 0.4761507 -0.27037933 -0.0570722 -0.7295625 -0.32096672 -0.8728058 0.025586126 0.82859397 0.6431005 0.7130086 0.38462344 -0.0070321183 -0.58627653 0.47512215 -0.27598074 0.16429313 0.15411782 -0.4711686 0.24119979 -0.79745877 -0.43515143 -0.4850632 -0.31119603 0.0755922 -0.025398666 0.6178706 -0.072882436 -0.0712827 0.0038395491 0.37467405 -0.36862805 1.117183 -0.36678934 0.7424904 -0.23111792 -0.70863426 -0.4677487 0.30676025 0.55086696 0.48766664 -0.042188782 -0.6189379 0.029846262 0.41512534 0.44038787 -0.5878353
