1352 50
， -0.28710207 -0.0046184817 -0.08328201 -0.015090219 -0.070259675 0.038551137 -0.048321962 0.04377673 0.098307505 -0.22207181 -0.07444591 0.24040626 0.04751036 -0.02283355 -0.058282208 0.12799495 -1.1946892 -0.0013826998 -0.006036598 0.095895395 -0.29087162 -0.036054984 -0.32135248 -0.12401305 -0.06991812 0.042389702 0.07052943 0.29224163 0.09330695 -0.004467454 -0.0071825488 -0.038123187 -0.06479188 0.09679846 0.3830926 -0.00030751125 0.15659669 -0.24241881 0.050378963 -0.030694174 0.15402928 0.005273005 -0.08690773 0.2826278 -0.10297064 0.043263804 0.22948967 0.20500472 -0.22670028 -0.084620215
子 -0.7375211 0.29336902 -0.12699145 -0.029589977 -0.34898126 0.034077477 -0.15856677 -0.17840612 -0.0019724837 0.18598138 0.043061715 0.23861922 0.004427981 -0.056218266 0.0370659 -0.19371027 -0.47699448 0.1765621 0.038093433 0.15817322 0.1765623 0.3098596 0.94305927 -0.0035284993 0.01674956 -0.028874908 0.34334496 0.56966215 -0.12035645 0.0961498 -0.007136017 0.2947011 0.119259775 0.27729934 -0.3450986 -0.06471688 0.16390757 0.22902137 0.31212947 0.14325996 0.18791537 0.27998802 0.3911501 0.15033847 0.980421 0.25766164 -0.24915355 0.01626775 0.015180328 0.12305675
。 -0.67104036 0.120102644 -0.150296 -0.102620356 0.2863852 -0.07033806 -0.2378607 -0.2838691 -0.057950668 -0.07919698 -0.021159753 -0.13341191 0.047447782 0.10622829 0.07493907 0.08699799 -1.3309742 0.22750002 -0.25676098 -0.0072093885 -0.14812265 0.056847263 -0.41270274 0.46290535 0.051198628 0.08596808 -0.06211689 -0.3037283 -0.11568746 0.038956482 -0.08436228 0.089304276 0.0011788316 -0.35854268 0.057010908 0.10149876 -0.13218454 0.15332425 0.04868085 0.36695954 0.14147967 0.057207935 0.21015131 -0.18722467 0.64670265 -0.010363267 -0.1437887 -0.49973848 -0.3656108 -0.06842379
： 0.038347375 -0.05055753 -0.1517303 -0.3051886 0.042015206 0.09236106 -0.09305785 0.11965355 0.32119548 -0.11228707 -0.16207777 -0.06591746 -0.2489156 0.031631306 -0.09885009 -0.22547875 -1.5637932 -0.17904215 0.16900909 -0.28258562 -0.7637509 -0.05683758 0.68686277 0.073172465 -0.08973678 -0.059085608 0.038762838 -0.13639472 0.069037996 -0.018137941 0.030150108 0.018744998 -0.07388529 -0.18244296 -0.74960464 -0.053792033 -0.19705743 -0.1670212 0.16543248 -0.69967836 -0.27140757 -0.21441133 0.033021677 -0.17186412 0.49842513 -0.25170866 0.177046 0.25267738 -0.22462419 -0.057270084
曰 0.061106566 0.14973055 0.1750966 0.1407552 0.27884543 -0.26406544 -0.15802805 -0.39580345 0.10895777 -0.10545948 0.3996587 0.162027 0.3110969 0.03285687 -0.06309091 -0.19069736 -0.35441864 -0.082190715 -0.13693342 0.43241858 -0.5806013 0.36411104 0.6903312 -0.26753864 0.29628885 0.07426202 -0.099526346 0.7069303 0.3642724 0.29535034 0.041367758 -0.15739356 0.21599029 -0.041272253 0.48210695 -0.34540403 0.3345454 0.183913 -0.1115672 -0.061095476 -0.26677108 0.44630533 0.2734018 -0.084417075 2.001791 -0.10358205 -0.48803815 0.49892947 -0.22808002 -0.115664184
之 0.29354623 -0.10755904 -0.09551077 0.26890996 -0.051319957 -0.21417336 0.108371794 0.18739067 -0.19230919 0.12115286 -0.22721611 0.1413455 -0.09343518 0.39070553 0.06471418 0.115622446 -0.8776164 0.044755302 0.276716 -0.3189251 0.014867889 0.1516098 0.19209222 0.20778729 0.02634204 0.04152492 -0.15798514 0.40652752 0.054658547 -0.016822277 0.27305058 -0.047350466 0.09507388 -0.16645384 0.17573519 0.19811977 -0.18125454 0.1517361 -0.20327252 0.35506046 0.13876289 -0.13335806 -0.053253688 0.09843058 0.43297985 -0.32228008 -0.37216514 -0.012192875 0.77022576 -0.203415
不 0.48972335 0.0836544 0.04246974 -0.37954164 -0.084822 -0.14527729 -0.017195106 -0.25387913 0.05106199 0.03697435 0.24406692 0.13429658 0.0009652351 -0.22128777 0.16408882 0.17660473 -0.8071239 -0.28702945 -0.31886998 -0.067698956 -0.33496928 -0.28164262 0.6022796 0.07090839 0.20233172 0.0810249 -0.23420514 -0.057011593 -0.026631095 0.017082268 0.11353834 -0.253847 -0.08299224 0.24183816 0.72674346 -0.108555555 -0.05820761 0.2261576 0.41723704 0.2799526 -0.12551963 0.012866884 0.41853774 0.38512263 0.05414379 0.3592791 -0.0608312 -0.11392469 0.23009013 -0.014964238
也 0.35687616 -0.16958676 0.16046388 0.033318322 0.09363383 0.28149828 0.15471298 0.075698234 0.05245497 0.07993009 0.098566085 -0.17492935 0.051255915 0.09176602 -0.32304746 -0.2924002 -1.3749995 -0.14671569 0.16008486 0.08060779 0.89757776 0.085725136 0.09421656 0.0073865424 -0.12768263 -0.13446544 -0.42135257 0.09496412 0.0037026852 0.20276938 -0.21489403 -0.25347838 -0.17176494 0.7372737 0.05450163 0.01854329 -0.11238915 0.12493576 0.09033448 0.10004895 0.027402442 0.11295871 0.06971485 0.015849937 0.44010267 0.13675353 -0.036610194 -0.25515056 0.7970685 -0.31568378
而 0.22132434 -0.23179916 -0.032735918 0.09275542 -0.13974018 0.5543735 -0.25045344 0.14615965 0.051465146 0.2779307 0.4251651 -0.35387677 0.16074389 0.068937294 -0.0851525 -0.07180472 -1.4573377 0.03715876 -0.3174811 0.10343339 -0.04946978 0.060178194 0.4854048 -0.0784099 0.2983023 0.2953278 -0.27511606 -0.023048453 -0.27017322 -0.17632328 -0.045848966 0.46195376 0.19630946 -0.3196468 0.63525414 -0.17095879 0.012772299 -0.035619467 0.015464025 -0.30110118 0.11060987 -0.21516155 0.044288453 0.32626697 -0.4382746 -0.13334143 -0.6509559 0.13530518 0.25658336 0.34279478
？ -0.50126916 -0.21473955 -0.40857896 -0.09810356 -0.17268981 0.28762642 0.31297478 -0.10208115 -0.38009802 0.26650646 -0.107756734 -0.23099537 -0.32929912 0.2377633 -0.19523694 0.28384933 -0.5978276 -0.048791815 0.16787784 0.017263185 -0.38764235 0.68190974 0.5506826 0.45642778 -0.6738687 -0.0746014 -0.11412423 0.30761015 0.29695243 -0.2816212 -0.016827568 0.1007737 -0.5361102 -0.27283168 0.6481691 -0.2624292 -0.06878691 -0.464641 -0.08176842 -0.39305642 0.109549694 -0.39446846 0.49334186 0.08290373 0.7445136 0.09614778 0.35534692 -0.041355215 -0.8130669 -0.1413793
其 0.522995 0.3216918 -0.07791662 -0.1356481 -0.30059323 0.058382485 -0.25474384 0.059128173 0.27356943 -0.038927097 -0.1811197 -0.0478786 0.32385013 0.19367163 0.2020547 0.09260734 -0.60291386 0.17610326 -0.23784058 -0.38882387 0.34319633 0.1535909 0.5520611 0.030942919 -0.20309001 0.4175023 0.36937433 -0.28713518 0.22509974 -0.339398 -0.1143252 -0.085494325 0.33147243 -0.041078597 0.79874504 -0.04381492 -0.40669656 -0.07720224 0.029579792 -0.2478826 0.005203009 -0.019246358 0.013350956 0.37369433 0.61823064 -0.13626641 0.68556714 -0.024314754 0.53583103 0.21605049
人 -0.3174504 0.38683745 0.19943136 0.53145164 -0.28514794 -0.1295459 0.0803551 -0.3035305 -0.24266116 0.2511132 -0.47358766 -0.3234581 0.016630268 -0.48722023 0.0576858 -0.010242896 -0.34365034 0.22950512 -0.1908561 0.32331425 -0.37414926 -0.282261 0.7725586 0.46226314 0.0978983 0.22340566 -0.021944076 0.40788847 -0.19260858 -0.12500541 -0.44074887 0.32808626 -0.08993507 0.42210454 0.31733704 -0.089586236 -0.10823347 0.34325373 -0.12803598 -0.380182 0.104547195 -0.44506803 -0.5382356 -0.08956355 0.055822894 -0.07837874 -0.02609733 -0.20684583 0.37134907 -0.20746282
者 -0.22165501 0.008761074 -0.09863068 0.13594168 -0.040555056 -0.1926715 -0.011038018 -0.18761304 -0.16756706 -0.32822135 -0.05355699 -0.22831674 -0.34789476 0.24400635 -0.120847516 -0.11012958 -0.5366674 -0.010304328 0.4367839 -0.73093665 0.34405243 0.16647282 -0.23468521 -0.27328745 0.047430314 0.06766958 -0.45798984 0.3942326 -0.073930494 0.06502072 -0.01369646 -0.012881495 0.03785795 0.3133546 0.9132812 -0.28063774 0.11513774 -0.44257987 0.37549224 -0.9569103 0.048055552 -0.49963695 -0.0071950085 -0.07881312 0.40383556 0.170017 -0.4501721 -0.46101195 0.31791887 -0.13487716
以 -0.3140171 -0.3740257 0.3901846 0.35403538 -0.05938565 0.19203767 -0.21423736 -0.39992008 0.5170221 -0.035565533 0.16432448 0.56706524 -0.3485492 0.028321872 -0.27636275 -0.19279985 -0.54863733 -0.3954316 -0.3431636 -0.038692147 -0.4000753 -0.4705899 0.4667546 0.19745913 -0.067963704 -0.0008084802 0.06446206 -0.302494 0.25115892 0.055697616 -0.06543578 0.27887076 0.15091081 0.28096187 0.26541704 0.2616908 0.048220113 -0.48209703 0.13004594 -0.32107165 0.21463537 0.02279842 0.39389312 -0.6655492 0.07476412 0.13307054 -0.020200493 0.113228284 0.8288658 0.12831853
有 0.11318002 0.057666402 0.029457951 -0.2181344 -0.06316327 0.20774923 -0.18526119 -0.25848338 -0.43471867 -0.10448062 -0.068599805 0.4757352 -0.4194576 -0.3292687 -0.34609967 -0.24562027 -0.19658777 0.49128577 0.18231344 -0.1694699 -0.37685773 0.078924276 0.20264247 -0.12319915 0.11190362 0.6475819 0.018175686 -0.100390844 -0.31511685 0.1514829 -0.4182251 -0.6577481 0.010952899 -0.39487785 0.361881 0.09430947 -0.18190008 -0.08376741 -0.44458938 -0.5463674 0.028690524 0.28003988 -0.008181219 -0.16618116 0.7245803 0.35570136 0.037598416 0.16605057 0.39306685 -0.6196077
于 0.3330292 -0.12830335 0.09178473 -0.35015342 -0.4189098 0.09186714 -0.07718971 -0.1618217 0.3846503 -0.24632423 0.021683106 -0.021077594 0.6797861 0.13898513 0.15578942 -0.05865582 -0.84132934 0.5062071 0.02648524 0.80043864 -0.13623472 -0.22795622 0.2579578 -0.08959736 -0.29404697 0.027890077 -0.2641108 -0.28910792 0.27980408 -0.37436312 0.03647375 0.29396856 -0.37177312 0.32313618 0.67568773 0.9280181 0.41385207 -0.4083027 0.07530805 -0.31010243 -0.26550716 0.20295788 -0.38171938 -0.5145933 1.0550597 -0.06310281 -0.0017755697 0.0105347475 0.0068535013 -0.08459684
矣 -0.38125777 -0.65019387 0.4855283 -0.19244194 0.09451817 0.0652325 0.33916152 0.41921717 0.05227702 0.39189857 0.14495812 0.37054566 0.47529718 -0.41347456 -0.027741676 0.4395002 -0.8406782 -0.39130628 -0.35877377 0.30258158 0.61872876 -0.31496572 0.0417955 -0.42126033 0.17406704 0.39983746 -0.09669054 -0.087889634 -0.2939589 -0.07623975 0.100759044 0.113325104 -0.13331956 0.24944896 -0.075134315 -0.45306787 -0.12284559 0.020938603 -0.4946518 -0.57718194 -0.03191397 -0.44030124 -0.053608235 -0.017273005 1.2594254 -0.21495453 0.21035099 -0.83736354 0.929072 0.15702657
为 -0.5862281 -0.46146953 -0.3270455 -0.5483444 0.2292527 0.27982482 0.30558082 -0.20080626 -0.07922183 0.10998098 -0.06833046 0.8818793 -0.29321307 0.389057 -0.14678814 0.11888143 -0.3255577 0.078775495 0.3169233 0.74814874 -0.75679594 -0.110799685 0.57366246 0.063713364 0.09712099 -0.19258799 -0.24538548 -0.3940184 0.12146617 -0.13798168 -0.389408 0.25148958 0.5035803 0.10043958 0.57042825 -0.5067308 -0.010909011 0.025340872 0.1940134 -0.03605612 0.35514387 0.08927025 0.30758372 -0.62867945 0.13869499 -0.19395036 -0.10181979 -0.25763378 0.3345117 -0.3118672
君 -0.0667447 0.20323017 0.5365187 -0.03401953 0.421316 -0.3022737 0.0035788924 -0.0588655 0.37670937 -0.04960078 -0.22015904 -0.06536389 -0.1853588 0.034803107 0.21323895 -0.017505987 -0.15696204 0.0024139 0.030185051 0.6688678 -0.38967294 0.040196046 0.76444125 -0.13074677 -0.46262744 0.4371603 -0.012255703 0.40836868 -0.1640031 -0.49416652 -0.22089541 -0.296207 -0.3161484 0.36484784 -0.037109625 -0.16846783 -0.7556983 -0.087878965 0.1328156 0.46446818 0.4953139 -0.1505626 0.33106056 0.30606917 1.2131777 -0.08142809 -0.6240308 0.2099787 0.064208776 0.1190871
乎 -0.72674733 -0.16445321 -0.4020114 -0.36987963 -0.31926873 0.1157799 0.098115705 -0.17279652 -0.30177006 -0.17719688 -0.2533219 -0.06889297 0.1035565 0.26720247 -0.41875276 0.1499248 -0.56232226 -0.40717626 -0.56026393 0.9559101 0.62418216 0.21749403 0.8793377 -0.3670775 0.042138387 0.0938676 0.39730543 -0.25318474 0.10565694 0.1570311 0.102294244 0.27249813 -0.341961 -0.39997268 0.82056916 -0.67061853 0.2419442 -0.533407 -0.76558167 -0.14131783 -0.26910734 -0.574961 -0.6933619 -0.077975266 0.5709122 0.4813623 0.026431534 -0.4460123 0.27616984 0.011203596
可 0.35391268 0.2920207 -0.37131232 0.360854 0.6640535 -0.07413768 0.20036457 -0.17747416 0.15246405 0.25241444 0.11985027 -0.5305766 0.103949845 0.0008951076 0.070205055 -0.2179777 -0.859324 -0.464256 -0.25570482 -0.20649642 -0.5811856 -0.21020457 0.6069007 -0.5855185 -0.15705152 0.07586596 0.5875449 0.54951596 0.013430822 0.45184538 -0.7190787 0.49989128 -0.24393025 0.61832213 0.5546789 -0.09944372 -0.14654596 -0.15003417 -0.30847898 0.481717 0.2019215 0.83458596 0.0028466494 -0.14558896 -0.0030962466 0.027824365 0.5545588 -0.45359212 0.5412459 0.10460667
如 -0.7107768 0.17830826 0.5937479 0.112471074 -0.0795192 0.37515163 0.6119604 0.57231754 -0.04596458 0.080267414 -0.016752627 -0.10738967 -0.422731 -0.0059113596 0.4669168 -0.43952307 -0.32987243 0.4972294 0.32360217 -0.22755606 -1.0328981 -0.20518342 0.09077837 -0.6116339 -0.13399623 -0.3634504 -0.6038719 -0.052451715 0.19050676 -0.013432819 -0.09898216 0.32439741 -0.18598315 0.084992945 0.3410155 0.19236256 0.3982501 -0.08062401 -0.050101057 -0.0057379743 -0.048069492 0.4559485 -0.24811967 0.08900397 0.79537797 0.22142516 -0.14964609 -0.15437068 0.79999363 0.0024377587
与 -0.27785808 -0.29388028 0.41508478 -0.41797042 0.2029901 -0.9756739 0.32461327 0.14824656 -0.13756798 -0.025259651 0.10737749 -0.64334065 0.3677701 -0.11149355 -0.34657213 -0.12620202 -0.7373852 -0.023955211 0.3226285 0.21827766 0.04652627 -0.045214504 0.4251247 -0.13880135 -0.027557286 -0.778439 -0.049834326 -0.03339264 0.2586952 0.033188254 -0.3748801 -0.025065165 0.11860486 -0.22923453 0.49893907 -0.2303139 -0.20199972 -0.2152189 0.16843197 -0.053465087 0.58756506 -0.008384427 0.6874895 -0.21166448 -0.19313084 0.40471563 -0.30641854 0.08102326 0.60631436 0.026955912
； -0.8302688 -0.2761621 -0.18473151 -0.04778307 -0.5421563 -0.00444339 -0.58063024 -0.33886582 0.4258898 -0.063170925 -0.021917952 -0.49193433 0.2663946 0.19331543 0.2959007 0.22515067 -1.0617839 0.004020492 0.028263306 -0.5585178 -0.95010096 0.15657796 -0.035489183 0.1980662 -0.31877354 0.17084605 0.06529774 -0.19605789 0.124655575 -0.074695796 -0.03248577 -0.41492093 -0.25526682 -0.4144455 0.036273092 -0.28232822 -0.02812151 -0.010044372 -0.005677347 0.13701558 -0.1887648 0.047763832 -0.6873671 -0.41489822 0.2275087 0.32850814 -0.045714304 -0.40564466 0.74813396 0.19500546
言 -0.28745112 -0.020228809 0.23815285 -0.343655 0.34998417 -0.37979716 -0.04586167 0.07910535 -0.22042501 0.39673215 -0.29425555 -0.34348065 0.17279881 0.42604408 -0.33060667 -0.43718636 -0.51336825 -0.0686239 -0.16913453 0.08222243 -0.58303523 0.4355037 0.0849379 -0.36958247 0.0184837 -0.34615502 0.6439927 0.13117044 0.23295854 0.050991982 0.103230774 -0.042927142 -0.0048988964 0.7666307 -0.38350326 0.26170975 0.003566525 0.2078022 -0.1795824 -0.7113607 0.041179057 0.049074065 -0.18383232 0.0834116 0.07027744 -0.0055520674 -0.038403545 -0.37795573 0.6283103 0.45414203
无 -0.15460159 -0.049036823 0.22554469 0.07394361 -0.020573668 -0.39980766 -0.37673834 -0.2672699 -0.05140012 -0.08601957 -0.2798535 0.5740264 -0.469324 0.42663878 -0.21362872 0.054354474 -0.46671352 -0.25580814 -0.7669893 0.32020903 -0.10849372 -0.04544092 0.734017 -0.45515046 0.43412152 -0.32192135 0.14700352 -0.24525054 -0.41233292 0.09993576 -0.061757766 -0.47034058 -0.40173963 -0.13573167 1.0101823 -0.051625054 0.20568022 0.15480924 0.32007435 0.02089525 -0.38493574 -0.1382463 0.69571394 -0.27692825 0.20604196 -0.32164893 0.3840586 0.3808559 0.76993436 -0.30609503
则 -0.553645 -0.3849308 0.24977449 0.29510304 -0.29570606 0.39698255 -0.40750647 -0.33476976 0.5822932 0.1531775 0.097893596 0.32081243 -0.087627456 0.052125223 0.46257362 -0.0037533238 -1.0562023 -0.27105793 -0.36506608 -0.014218253 0.15787177 -0.05718938 0.20181154 -0.1943253 0.024639206 -1.1511172 0.33734512 -0.32505617 -0.21518162 -0.3778608 0.3317828 0.11847039 -0.26795822 0.95893687 1.0606927 0.27005592 -0.45976785 0.14144036 -0.11429432 -0.58920467 -0.059668608 0.022156728 -0.34272674 0.20360936 0.13423946 -0.61534834 -0.2544369 0.3483067 -0.0653951 -0.060799062
！ -0.45348987 -0.622582 0.4686786 -0.2572859 -0.5804372 0.49534827 0.22401501 -0.32484734 -0.024663333 0.25556403 0.021678898 -0.309296 0.24293 0.04032149 -0.43014264 -0.08990277 -0.70262796 -0.31940663 0.020916315 0.23166619 -0.75562525 0.24878491 -0.24769369 -0.46103704 -0.68596166 -0.071003 0.54245824 0.59029716 0.27513862 -0.18490495 -0.26346862 0.67259324 0.15277563 -0.6238876 0.11157538 -0.059488513 -0.3546238 -0.3197864 0.13390964 -0.14574066 -0.18312588 0.096478015 0.32881966 -0.2712579 0.9295015 0.16949666 0.37678126 -0.80580986 -0.2706846 -0.45620415
问 -0.26959082 0.25671014 0.44427082 -0.056883283 -0.049807698 -0.59935397 -0.33148327 -0.63718003 -0.7463605 -0.31233573 0.48487765 0.5303979 -0.103391305 -0.07406164 -0.19610888 0.2033185 -0.3391511 0.07111943 -0.15811978 0.5028717 -0.23493858 0.1307728 1.0757585 0.3641262 -0.021268446 -0.16857485 -0.4874985 0.53265554 -0.21266976 -0.47337958 0.4295859 -0.7250211 0.07732987 0.22402267 0.0005784383 -0.16865872 0.54420626 -0.3312097 -0.1551746 -0.10174301 -0.07000858 0.21797691 -0.02358803 0.25851837 0.82238567 -0.2868917 -0.19035816 -0.5965676 -0.25274923 0.032640405
知 0.078597546 -0.43057227 0.17573103 -0.28691337 0.69403446 0.02516537 -0.107245974 -0.049867712 0.11573754 -0.46600452 -0.07385424 -0.113425486 0.223295 -0.09079211 0.10436789 -0.75663227 -0.39520904 0.19251476 -0.041101567 -0.31071472 -0.31525275 0.4735881 0.22304207 -0.41729468 -0.40426117 0.07390348 0.18294229 0.28288355 0.15179566 -0.03786679 -0.10129612 0.18945394 0.17325874 0.21677694 0.43524978 -0.14028728 -0.5031489 -0.30312848 -0.13465059 -0.24210845 0.009814626 0.61517733 0.3740444 -0.5249071 -0.15423784 -0.30239084 -0.1869994 -0.6808655 0.26032194 -0.1422349
何 -0.2507514 -0.07372108 -0.1263673 -0.47250232 0.59694815 -0.2664392 0.33825752 0.56961095 -0.20018496 -0.025359867 -0.013883494 0.3739593 -0.0857606 -0.7271983 -0.11802596 -0.3133597 -0.12429622 -0.30745822 -0.054231077 0.53786093 -0.57064396 0.9441977 0.29004395 0.52045757 -0.27746847 -0.24022457 -0.26496372 0.12480206 -0.2964749 0.12956733 0.50020534 0.30300277 0.05686704 -0.045454677 0.4913606 -0.1443871 -0.43754184 -0.34971204 -0.33544543 0.038640175 0.025267538 -0.19863424 0.9236683 -0.27677655 0.50978804 0.5938288 0.4245437 0.44729924 0.9061749 0.32228035
吾 0.52133536 0.29244858 -0.42830694 0.16791677 0.8866833 0.126935 -0.80834186 -0.09995144 0.59138364 -0.017010799 -0.19865473 -0.30273518 -0.21987274 0.033284143 0.034661286 -0.011129599 -0.3811231 -0.45910668 0.37600082 -0.0122213205 0.36125615 -0.112955526 0.6284315 -0.1871786 0.041518208 0.020807557 0.48754925 0.38665563 0.41686028 0.20240368 -0.5344305 -0.1522673 0.5311741 -0.34083745 1.1313292 -0.26671937 0.029540049 0.022641474 -0.27783358 -0.60654783 0.05451818 0.559293 -0.2013946 0.062167764 0.43827042 0.06731713 -0.20215869 -0.1376587 0.3270528 0.38701275
仁 -0.23268615 -0.5778595 -0.41222334 0.15724206 0.071340404 -0.43487322 0.3449752 0.4711159 -0.41033363 0.05055674 -0.27945828 -0.68955076 0.025714345 -0.48055348 0.4396296 -0.5279063 -0.5209228 -0.050851103 0.0028951205 0.24582298 -0.110483035 -0.0052302503 1.0558921 -0.22698492 -0.09364606 0.86866426 0.5057746 0.18434294 -0.008427406 -0.21396604 0.4266281 0.015130739 0.13987076 0.34121242 0.35935193 -0.15869267 -0.58882207 0.23244439 0.1975902 0.2226278 0.18985404 0.4619424 -0.049224764 -0.43775287 0.035601225 0.13625263 -0.06389286 -0.40975147 0.0626331 0.0016635549
夫 -0.21166667 -0.25882474 -0.20065874 0.017789539 0.16084766 -0.07711981 -0.627596 -0.34873167 0.21309769 0.31309208 -0.17840378 -0.45672315 -0.038956627 0.211509 -0.33344293 -0.08981073 -0.23684461 -0.1018105 0.38159806 -0.028991077 0.17438948 -1.0343529 0.23275204 -0.15613419 -0.4262119 0.63176 -0.09712927 0.29619482 0.5289044 -0.058551896 0.15707108 0.002746375 -0.14013085 0.19742809 0.09927047 -0.45527166 0.35889143 0.335253 -0.67313915 -0.5026763 0.31646782 -0.3961276 0.66560835 0.37157565 1.3566217 0.36595187 0.08834789 0.12841775 0.08957239 -0.33010054
、 -0.62171936 0.40490732 -0.38783428 0.4201943 0.12588526 0.11844464 0.21053042 -0.08869654 0.1924861 0.84320575 0.8724322 0.40538132 -0.49616224 -0.12175674 -0.63497365 0.10751685 -1.3692149 1.1968033 0.03108907 -0.17004494 0.08714565 0.25194705 0.24212039 -0.081486 -0.15455998 -0.033114687 -0.22428295 -0.75616956 1.0720754 0.14928831 -0.06808498 -0.49937987 -0.18012683 -0.5784443 0.47438473 0.84150696 0.5681795 0.23598507 0.16391757 -0.469218 -0.33069977 -0.20923387 0.29979014 -0.014008012 0.55728894 -0.025904777 -0.045852643 -0.4967669 -0.08868027 0.009407753
道 -0.26180762 0.32416975 -0.066544175 0.58764905 0.823775 0.36538273 0.2048882 0.2254781 -0.24251541 -0.047031745 0.09574502 -0.31904623 0.2760902 -0.22870108 -0.16156 -0.0048801764 -0.27679428 -0.18630196 -0.13595518 -0.0376118 -0.66949767 0.14386173 0.27754763 0.3769385 -0.27142352 0.549891 0.5990479 0.14771155 0.09120844 0.44544467 -0.07766226 -0.48240387 0.3390789 0.70082307 0.90570015 -0.11771328 -0.15233988 0.43789765 0.132233 -0.49764255 -0.09911436 -0.27055705 0.23502064 0.58220184 0.15672828 -0.14402299 -0.23990883 0.008371585 -0.086620584 0.37723935
焉 0.20702198 0.1267832 0.76490897 -0.78714126 0.38134417 0.11112592 0.3617006 0.80330205 -0.19980094 -0.0980023 -0.17893665 0.052150674 -0.2855689 0.2505523 -0.018448276 -0.2251068 -0.60451186 -0.24997784 -0.14021774 0.22333346 0.19517167 -0.2751235 0.59589887 0.54352915 0.81952775 0.40080008 0.21599676 -0.18216728 0.06676356 0.19297044 0.69506276 -0.19136645 -0.062524565 0.7709522 0.5671133 -0.024799133 -0.046671323 -0.46495536 0.4712022 0.8149843 -0.27721918 -0.010398057 -1.026706 -0.05565515 1.3817447 -0.021238415 -0.29461297 -0.21595481 0.7302909 0.2152429
行 -0.18658015 0.116681136 0.4828596 0.12506382 -0.21122195 0.25267056 -0.34058 -0.20865329 0.24173886 0.3601678 -0.005315682 -0.12177965 -0.15169589 0.08401887 0.12274042 -0.37326288 -0.6000677 -0.3812764 -0.13111483 0.26804793 -0.31890693 -0.1845712 -0.2947894 -0.44423455 -0.046989802 0.8932589 0.23592603 0.6719026 -0.02030438 0.06522992 -0.44679418 -0.30347505 1.0252092 0.16450854 0.5093666 -0.2538958 -0.12073688 0.54159313 0.12453973 -0.12450403 -0.082246125 0.518437 0.8998568 -0.16745393 -0.068860404 -0.40815273 0.32226908 -0.7318416 -0.17307742 -0.12449716
谓 -0.29964247 0.61102206 0.15313877 0.16186285 -0.4429102 -0.29647592 -0.69580877 -0.001843291 0.15126969 1.1361294 -0.344532 -0.041392494 0.07376085 0.55295664 -0.33857393 -0.047607183 -0.46080756 -0.24340464 0.44621363 -0.23780848 -0.6316483 -0.6250179 -0.06645681 0.011055859 0.1567413 -0.3613851 -0.60797083 -0.29282653 -0.6185661 -0.3232683 0.08437732 0.77297944 0.53697973 0.05935174 0.75463766 0.12432273 -0.75369096 -0.3468391 0.09235473 -0.3766511 0.70210063 -0.07639409 0.9515324 -0.35907757 1.1006238 0.31230894 -0.09462346 -0.86577123 0.005650406 -0.5227519
必 -0.83512366 0.5481511 -0.37781247 -0.09326396 0.35264376 -0.044824447 -0.66455466 0.2341511 -0.12711579 0.00019824193 -0.09778966 -0.59821504 -0.40026268 0.25212598 0.38622048 0.8335705 -0.23597164 -0.04218329 -0.2750494 0.33567157 -0.39334753 0.073123656 0.1918507 -0.18067063 -0.015783126 -0.40235955 0.02128025 -0.33522174 -0.5416509 0.23207392 -0.24103665 -0.3871053 -0.2560053 0.23299049 0.15233228 0.06859296 -0.53115565 -0.48067534 0.26910695 -0.26317534 0.67908263 -0.25063637 -0.33220825 0.36805037 0.5968839 -0.25326568 0.45283902 0.4945533 1.4228457 -0.10239163
礼 -0.25781146 0.018262908 -0.3634067 0.0074110003 0.4956724 -0.5357612 -0.10416208 0.47093168 -0.24182586 1.027058 -0.11653779 -0.3183422 -1.1040614 0.045494307 0.10563288 -0.28828156 -0.6104558 -0.30373773 0.062345058 0.5772056 -0.27833092 -0.2133698 -0.04808447 -0.42480883 -0.4276886 -0.23947804 0.11344752 -0.29626906 0.17968874 -0.69088256 -0.10622756 -0.4622111 -0.14003573 0.3749263 0.36316887 -0.08288609 -0.65697354 0.28158727 -0.35807613 -0.32031718 -0.29824972 0.35617283 0.02604944 0.16532381 0.27073017 0.050493076 -0.03478291 -0.2115446 0.25361687 0.14227995
孔 -1.1699946 -0.0036415835 0.34513456 0.5602633 0.10548982 -1.2103618 -0.14207983 0.26695278 -0.3462762 0.14902423 0.09203785 0.21966854 -0.17574462 -0.3240664 -0.66986746 -0.7151482 -0.7783094 -0.05406629 0.481999 0.262196 0.7857924 0.43815127 0.56386995 0.7095095 0.23514934 0.1395164 0.15572003 -0.02926234 0.22089514 -0.08360702 0.14638518 0.34617782 0.48004064 -0.07752483 0.27147678 -0.35436088 -0.7631339 0.19224851 -0.11671306 0.42103216 -0.011842065 0.62154484 0.2957967 0.68238866 2.2525024 -0.6750543 -0.51829886 0.8431339 0.1725646 0.42307833
斯 -0.69104373 -0.10591122 0.47829318 0.23321544 -0.21623968 -0.44830796 -0.6743353 0.7990537 -0.42319244 -0.5409792 0.107862726 -0.26785213 0.23907673 -0.54867935 -0.2300276 -0.12361141 -0.6371183 0.256001 0.055229563 -0.3084795 0.551244 -0.32585096 0.99673426 -0.21233189 -0.6707025 0.30168 0.30216467 0.17889974 -0.14595006 -0.059641257 0.16702017 -0.48229492 -0.3553929 0.15389696 0.6012312 -0.36411223 -0.4942197 -0.31439975 0.38696775 -0.06566143 0.8077363 -0.027457744 0.014299045 -0.24286471 -0.062795445 0.10734764 0.40490076 -0.3204522 0.17016289 -0.100660086
三 -0.09552752 0.052844517 0.23651692 -0.19235788 0.8010873 0.024535993 0.69214475 0.09071009 0.13309626 0.35517105 0.58194596 0.3475966 -0.060603477 -0.36310005 0.592028 -0.36025822 -0.5384504 0.10427743 -0.25622916 0.15842299 -0.15115003 -0.6146216 0.07723271 -1.0184997 -0.9308837 0.22285914 0.78667456 0.36558872 -0.253724 0.16357213 0.072962455 -0.73143965 -0.17578194 -0.95756423 0.46689177 -0.2576902 -0.29405978 -0.008882889 0.15433839 0.43376234 0.021444986 -0.100636795 0.32002735 0.38905987 1.4091824 -0.48842147 -0.13505505 -0.061628588 0.012356617 0.5708587
能 -0.2865703 0.31549707 0.50236875 -0.26824656 0.50171137 0.17394352 -0.2802147 -0.2486236 0.064765714 -0.09312966 1.1258118 -0.29547644 -0.044972353 0.46117082 0.16664405 0.16155523 -0.539811 0.28831145 0.3476756 0.35940564 -0.43830362 0.14015047 0.628586 0.49499366 0.28714108 0.16687074 0.12588876 0.31704277 -0.2805246 -0.58655524 0.1784922 0.24899411 0.498285 0.43485272 0.37777212 -0.14215446 -0.7268214 -0.5012654 -0.36050838 -0.41537708 -0.32986465 -0.102612965 -0.27252582 -0.07218879 -0.3317943 -0.025850736 -0.21518312 0.12659001 0.23819149 -0.15016557
见 -0.22599213 0.3456558 -0.2640733 0.35914406 0.107826464 -0.6130153 0.19726974 -0.24265656 0.09688765 -0.10705957 -0.30255416 -0.44071507 0.22992957 0.29479688 0.5533131 -0.11062578 -0.5836492 0.032200504 0.39512423 0.69786906 -0.48791763 0.3947536 0.8711561 0.053540263 -0.023991387 0.61375844 0.5448217 -0.3438289 -0.69741267 -0.19717732 -0.13576144 -0.22488207 -0.06819884 0.9066901 0.5005825 0.5914904 -0.07089986 0.49193373 0.073115945 0.021741517 -0.37239164 0.02082055 0.35326576 0.42585158 0.12710162 0.59363663 -0.10338274 -0.41318312 -0.57370573 -0.16287953
学 -0.6677198 -0.45944068 0.34855795 -0.11654599 -0.47128877 -1.0360862 -0.0228744 -0.1306843 0.3086733 0.85898125 0.14167827 0.1061512 -0.73699325 -0.005889332 0.42389795 -0.30763254 -0.48271257 0.1350923 0.23551695 -0.035161626 -0.61430186 0.323296 0.6420946 -0.010446277 0.26005584 0.11776952 -0.09910509 0.7761177 -0.059738386 0.43545455 0.4160345 -0.33957726 0.12684487 0.09990275 0.72499 -0.52963144 -0.5621223 0.17502339 -0.2369308 0.5643971 0.19321238 0.34898856 -0.13594595 -0.28371528 -0.051949736 0.45078346 -0.2545666 0.45742574 0.056053918 -0.8133041
事 0.70193607 -0.3530017 -0.7223276 -0.30637208 -0.051757798 -0.6091739 -0.09218837 -0.42996085 0.14789075 0.10736156 -0.48079285 -0.52669644 -0.26008445 0.25274017 0.4519805 -0.21397282 -0.56074345 0.57006425 -0.2954885 0.7064983 -0.7448715 0.24114005 0.76318747 -0.26028484 -0.027297214 0.18099 -0.04756891 0.46030542 0.14039879 -0.2083527 0.21476732 -0.5658835 1.0636876 0.16949853 0.33853155 0.2926032 0.65183634 0.11292101 -0.13446599 -0.7629363 0.8991841 -0.1175071 0.5041821 -0.21780929 -0.23529321 -0.28820246 -0.76697004 -0.19961381 0.1636504 -0.5245046
是 -0.16173029 -0.37355503 0.082289584 0.17329448 -0.26170945 -0.002208075 -0.445097 0.6899036 -0.7125814 -0.5315706 0.2267273 -0.40146452 -0.2808792 -0.5290734 -0.23142901 0.43015334 -0.36848393 -0.57611823 0.08416957 0.56449413 -0.54635257 -0.15491651 -0.1127015 0.37528676 0.65312076 -0.53421825 0.08634457 0.5448195 -0.070076756 -0.5097571 -0.36194608 -0.12615989 0.61092484 0.3019813 0.43647295 0.6872271 -0.8017434 0.2785502 -0.3618576 -0.036865704 -0.14529687 0.31305578 0.6329247 -0.1906403 1.019334 0.15434487 0.30604708 0.0011211464 0.6620318 -0.11849845
哉 -0.8035154 -0.372193 0.099389955 -0.6364755 0.5618164 -0.50791246 0.49464312 -0.71981955 -0.2938732 -0.055971038 -0.48254904 0.21166098 0.45905638 -0.1853561 -0.119098306 -0.42920855 -0.7321649 -0.3913433 -0.32580864 -0.4301336 0.9368472 -0.20803307 0.6447762 -0.12444928 -0.36416212 -0.030826025 -0.38293508 0.5767534 0.9774978 -0.15151429 -0.14359927 1.3462366 0.28604752 0.055886745 0.85088825 -0.004352281 -0.1991276 0.28426883 -0.2774568 -0.6683343 -0.4811602 -0.110488355 0.20656636 -0.5503889 0.7145209 0.7037852 0.18603404 0.36515442 0.22151874 -0.88251096
闻 -0.50476766 0.28413773 -0.045498673 -0.11725592 -0.293518 -0.04824596 0.059157133 -0.115476616 0.029122995 0.60467666 0.23292305 -0.98472804 -0.33824152 0.4087522 0.24305892 -0.3448916 -0.16660818 0.400065 0.14246742 1.2499669 -0.82868296 0.22991568 -0.4230861 0.131222 -0.05005238 0.09012561 0.11410079 -0.25003177 -0.17010778 -0.24636415 0.13802116 0.030214516 0.13916183 0.9923393 0.40345016 -0.21341248 -0.042521395 0.33401066 -0.18520296 -0.28157473 -0.010979918 0.08049649 0.16015458 -0.56039 0.872814 -0.14069553 0.26672593 -0.21803153 -0.26000684 0.11567984
未 -0.3044521 0.059301063 0.563812 -0.68946856 0.14899875 -0.28860298 -0.47064188 -0.29433507 0.056597408 -0.9117667 -0.21567501 -0.5546262 -0.5155567 -0.16237216 -0.22140686 0.15339208 -0.339751 -0.3410288 -0.6827678 -0.58879226 -0.31559065 -0.16364741 -0.16845454 -0.57187927 0.20228283 -0.11861245 0.04109929 -0.58519864 0.5268719 -0.89746 -0.26322106 -0.43211257 0.15071589 0.9419592 0.36948594 0.21291971 -0.21480541 0.17510095 0.50849503 -0.1360864 -0.08933992 -0.26056746 0.31463924 0.71365416 1.0811347 0.06369631 -0.41562364 -0.66991067 0.3411571 0.13232826
公 -1.0308455 0.83151734 0.3559934 0.16080244 -0.017048158 -0.06445598 0.3695126 -0.80363446 -0.45118907 0.50324047 -0.26560336 -0.62864983 0.4068027 -0.40274957 -0.4563901 -0.22950836 -0.62070876 0.44960287 0.05891258 0.29933745 0.26886243 0.3655179 0.583125 -0.9879615 -0.40357327 -0.16827126 -0.4995414 -0.08457813 -0.47332972 -0.41667515 -0.1929071 -0.28716934 0.55239606 0.3123617 0.05461194 0.29726976 -0.91247684 -0.37048787 0.22593264 0.081295975 -0.6743928 -0.24565324 0.029574407 0.013158348 0.81363565 -0.76464224 0.060482863 0.42715433 0.13459669 0.15110575
好 -0.10958145 0.099046245 0.189634 0.23597938 0.20290561 0.6126304 -0.30821568 0.5052727 -0.16825253 -0.62741727 0.7227374 -0.16501719 0.2681522 0.08039542 -0.000105391155 -0.19202179 -0.36511767 0.19925551 0.21359208 0.17994842 -0.6749411 1.2913585 -0.01570848 0.5263183 0.23873092 0.4217915 -0.5265074 0.10415622 0.0566047 -0.43178594 -0.82457393 -0.28353763 -0.319358 0.48638785 0.8855314 -0.38144678 0.020789618 -0.02765329 0.46801808 -0.31813398 -0.38890392 -0.21691607 0.15525234 -0.26791772 0.261634 -0.3381098 -0.32646033 -0.34332326 1.474078 0.23407808
我 -0.40745676 -0.68322694 0.19932148 0.031606417 0.105798796 -0.042816382 0.30876902 -0.2024678 -0.990911 1.1645184 0.19743988 -0.16831514 -0.3208266 0.024438564 0.085373685 0.14510705 -0.5465668 -0.24936937 0.16974932 0.042673185 0.13110687 0.31979087 0.67546177 -0.0100825 -0.484217 -0.27910647 0.2262722 0.59407216 0.8442953 0.059260294 -0.26547688 -0.20493302 0.40644997 0.1898076 0.50276035 -0.2894689 -0.5878075 -0.07866294 -0.18981278 -0.09145237 -0.87772864 0.47866768 -0.9392934 0.33556995 0.39063942 -0.33476448 0.06571697 0.45001167 0.14782634 -0.336432
路 -0.4388898 0.09979888 -0.18744098 -0.21256265 -0.2351299 0.1602847 -0.33550933 -0.46741274 0.41930875 0.053265806 -0.20153579 -0.36601356 -1.064495 -0.26406887 0.70304614 0.32111773 -0.5537816 -0.0544935 -0.23696843 0.4476118 0.05871213 -0.07081507 0.99005747 0.08365344 -0.11012282 0.2259645 0.27712503 0.800949 -0.4109257 0.114652455 -0.5202446 0.6204916 -0.53181976 -0.5793787 0.3645028 0.71743155 -0.57030886 -0.2225485 0.1663354 0.024471194 0.091297634 0.3224316 -0.0995515 0.62554586 1.6081103 -0.47012067 -0.37346604 0.4142424 -0.70604265 -0.0027001202
在 0.08014083 0.77181625 -0.28706697 -0.7876348 -0.08097888 0.07377454 0.22282995 0.51742214 -0.24170768 -0.7385558 0.26577947 -4.215527e-05 0.74924433 0.47395724 0.28654453 -0.11542331 -0.3693212 0.29484433 -0.042874184 0.1858478 -0.34482583 -0.14362131 0.014373348 -0.31600636 -0.5562359 0.6463273 0.31983855 -0.3858596 -0.45748648 0.49833825 -0.17490442 -0.5365452 0.09888509 0.12521045 0.6470177 -0.22294426 0.03408572 -0.81254286 -0.20806858 -0.0959158 -0.3532574 0.47657457 0.96479714 -0.23316918 0.500713 -0.6444799 -1.0372083 0.04747184 0.386215 -0.10964703
已 -0.41231388 -0.44925 0.9120905 0.5382062 0.34152204 -0.7188277 -0.345995 0.5730677 0.0069050747 0.281734 0.18001759 -0.67216593 0.108826354 0.54964703 -0.21612693 0.10997589 -0.5591705 -0.5626285 -1.0252188 -0.27123722 -0.7451684 -0.011838481 -0.007988832 -1.0103949 0.20075692 1.4224836 -0.17345685 0.03261355 0.32393113 -0.1748069 0.18219459 0.8039541 -0.5558628 0.46408683 0.45880947 -0.6894247 -0.36815742 0.11489609 -0.5339665 -0.16134101 0.2130038 0.044659644 0.25472787 -0.042295728 0.79634047 0.5160967 -0.56497467 -1.8352778 0.093357675 0.38134614
得 0.08670344 0.4282821 -0.10560032 -0.16495334 0.15405177 0.2386622 -0.7045869 0.37458357 0.4412035 -0.38215 0.20339467 -0.18315224 0.6117905 -0.06925571 -0.2769007 0.33300322 -0.71342754 -0.3111558 -0.023401974 0.57652223 -0.4750196 0.07372858 0.21482798 0.21983571 0.2992413 -0.0068917098 0.6487269 0.12769055 -0.32948035 -0.21593688 0.046674334 -0.2858483 -0.54454094 0.3584842 0.13649303 -0.5324881 0.14650728 -0.122783974 -0.1478195 -1.065524 0.031481083 0.56428665 0.51717085 0.5831107 -0.27152327 -0.33252162 -0.23789753 -0.93347204 0.47569126 -0.06865964
所 -0.29007098 -1.1774474 -0.27423206 0.56428516 0.41346425 0.36929145 0.09659904 0.22133416 -0.36802056 -0.21383141 -0.02413164 0.123198554 0.27040145 0.293869 -0.06252972 -0.27327275 -0.88046604 -0.08938809 0.26923805 0.12252311 -0.5714285 -0.5114629 0.9387147 0.2250874 0.2548079 0.33952487 0.8768514 -0.20029525 -0.42144406 0.44237775 0.3176378 -0.36447367 0.057880327 0.3826004 0.6405519 0.65760654 -0.56853133 -0.041377265 0.4733594 0.045176454 0.08580834 0.76123345 0.1528146 -0.36266923 0.12430817 0.51539564 0.013861606 -0.7977699 0.27677017 1.1759351
民 -0.063226186 0.651438 -0.06996337 0.32219854 0.7202839 0.068822905 0.26995546 -0.37544203 0.49915096 -0.077260695 0.5799278 0.21554102 -0.32871276 -0.63435274 -0.6170045 -0.30767348 -0.43585733 -0.24644244 -0.66706264 0.052626703 -0.7329504 -0.018999426 0.22127329 0.26995173 -0.80765057 -0.03748543 0.46839172 0.28081772 0.58017254 -0.010671785 0.14000542 -0.17958677 0.5156662 0.5310383 0.63035136 -0.085127056 0.013093376 -0.27111295 -0.7178048 0.06849003 0.24202898 -0.5550534 -0.51943433 0.8090877 -0.005784394 0.549968 -0.58750045 0.028777618 0.58997554 -0.099561915
小 0.33782366 -0.7327491 0.58838 -0.4575716 -0.18136992 -0.3233034 -0.07360689 -0.15897153 0.15421289 -0.16225483 0.12757844 -0.20254676 -0.16374427 -0.15041982 -0.23430716 0.25108048 -0.6930656 -0.6024781 0.046257153 0.3448988 -0.13997479 -0.28753874 0.09629584 0.8003208 -0.054142162 0.34418064 0.87256366 -0.024197962 -0.1805362 -0.5867998 -0.11598869 -0.17242238 0.22236378 0.72813153 -0.049063493 -0.43895862 0.48864013 -0.65125024 0.64577496 -0.12561178 0.8175802 0.6866085 0.84240437 0.42615655 0.8869794 -0.8962295 0.5157429 0.5972074 0.6899588 -0.09762275
天 -0.39210042 -0.3043328 0.09971415 -0.22436206 -0.05949872 0.06411339 0.5284583 0.11907016 -0.13817996 0.95254797 -0.17089121 -0.064035706 0.19861536 -0.10753371 -0.84190357 -0.3398014 -0.011252739 0.22354926 -0.5756041 -0.42636847 0.18592924 -0.033894777 0.8118436 -0.16370769 0.22948453 0.24232204 0.08406862 -0.050381508 0.07278316 0.03618754 -0.32836127 -0.6084632 -0.2771351 -0.04024783 0.80564046 0.32952783 0.24029133 -0.37437978 -0.2687724 -0.47970852 0.85809976 0.69000703 -0.1767602 0.5832347 0.59631157 -0.7952571 -0.4913554 0.007049281 0.45919412 0.6210831
乐 -0.5646636 0.16120219 -0.28704524 0.004858281 0.5967523 0.1690312 0.5138776 0.24593003 1.1628505 0.16337126 -0.2891185 0.44340146 -0.080483705 0.05721718 0.07919381 -0.21927457 -0.45661825 -0.07958752 0.23359546 0.7931608 -0.036145635 0.53019136 0.4067317 -0.14588998 0.24231018 0.7365606 0.037274837 -0.1749719 0.38345173 0.03504809 0.7189419 -0.48165828 -0.34359285 0.82521766 -0.1259476 -0.6558381 -0.5461563 -0.35513335 -0.71500325 -0.1744517 0.58170605 0.7419906 0.5865756 0.16968234 -0.25288698 -0.15157057 0.62924427 0.14463142 0.7414212 -0.08973169
邦 -0.18442512 0.22721495 -0.45274487 0.4355466 -0.30888894 0.24394736 0.13871235 0.3980443 0.0738101 0.47002187 -0.660063 -0.9223723 -0.7163972 0.037963513 -0.22361705 -0.15467222 -0.28280556 0.1169478 -0.8903739 0.23973005 -0.18145484 -0.35287786 0.07731457 0.18715444 -0.8378453 0.08139958 1.0404679 -0.093161985 -0.15169501 -0.013233881 -0.5447568 -0.113875136 0.663094 0.47309756 0.30457988 -0.06853987 0.2743192 -0.2824693 0.2001625 -0.7198072 -0.19030757 0.0066423314 0.021269133 -0.2389976 0.4741475 -0.1249111 -1.0680829 0.33928564 0.3053965 -0.03520411
亦 0.013032566 -0.22048956 -0.1596056 0.30235422 -0.1400933 0.015962297 -0.62382704 -0.16323502 -0.65453887 -0.35271972 0.5347766 -0.62500095 -1.402059 -0.6278119 0.41247383 -0.676142 -0.7238955 -0.34464824 0.026888916 0.33856037 -0.39953515 -0.061315212 0.29933086 -0.34673923 0.18649285 -0.595202 0.64315116 -0.053202126 0.44351357 0.20925826 0.6801104 0.8195094 0.45168898 -0.56218284 0.45761865 -0.09757105 0.07212464 -0.14416581 1.1067284 0.0062635117 0.46834207 0.075232 0.84601015 0.6345209 0.6140256 0.40207884 0.24340445 -0.072996214 0.7064918 -0.27394885
使 0.1701244 0.36077425 0.6170855 0.00464796 0.10289718 -0.074983664 -0.017994082 0.0004540063 -0.22223029 0.2707442 -0.24743988 -0.18237147 -0.5298889 0.0038342183 0.51445395 0.13421488 -0.44841874 -0.21196166 -0.34672454 0.18731244 -0.17709406 -0.3255303 0.5471998 0.1696485 0.007489545 0.01220732 1.3776611 0.037773207 0.8584649 -0.44819063 -0.39282212 0.13354832 -0.10756933 0.29905882 0.32340372 -0.003836532 0.13804954 -0.4171055 0.10175901 -0.13714686 1.4587067 0.37356174 0.09002133 -0.7600913 0.3984729 0.06256912 -1.0444148 -0.29830563 -0.20701091 -0.47876748
大 -0.2610965 -0.44814426 0.09802821 0.60804725 -0.3946694 -0.83393776 0.010527717 1.0080836 -0.4149444 0.055711802 0.018537438 0.5090462 0.65804094 -1.2556843 0.09804234 0.34521988 -0.866988 -0.95319 0.0803054 0.17833146 -0.28904897 0.40235797 0.375243 0.26155695 -0.17877312 0.15277308 1.0379081 -0.94534296 0.50560087 -0.7190544 -1.4266033 -0.05363914 0.4419451 0.1252432 -0.25999093 0.13015166 -0.18534988 -0.3083608 -0.5683886 -0.21340062 0.13249657 -0.061011128 0.09092814 -0.3303496 1.0092115 0.4841884 -0.83541054 0.3502879 0.5040568 0.40943396
下 0.03371845 -0.6628746 -0.17482324 -0.29106158 0.10652755 0.8995317 -0.47818178 0.2955025 -1.1765826 0.60251844 -0.2644927 -0.94801116 -0.21830784 -1.3423798 0.16446713 -0.19923294 -0.6978292 0.5701335 0.188535 0.43568125 -0.8169839 0.15880379 -0.6230553 0.02886757 0.4806936 -0.2847063 0.37576538 -0.43895274 -0.029230662 -0.010648011 0.4998314 1.4363012 0.3642049 0.6026138 0.4201271 -0.31691256 -0.95730793 0.088683434 -0.4888166 -0.45896074 -0.36224088 0.11118421 0.6383011 0.20401013 1.0227607 0.4581708 -0.23897137 -0.07610608 0.6197811 -0.088676155
贡 -0.123378456 -0.5240356 -0.26832128 0.016248256 -0.75943244 -0.9528159 -0.074724585 -0.9320561 0.49310738 -0.47093815 -0.12673846 -0.5656285 -0.37662783 -0.030987242 -0.035775885 -0.44040227 -1.2769054 -0.42682663 -0.18828413 0.4757223 0.10756305 0.8495962 1.3617185 -0.13642445 -0.2929097 0.76067203 0.061912015 0.59903556 -0.6388854 0.25882345 0.75320756 0.41610798 -0.18339974 0.11444163 -0.1837256 0.049275465 -0.28693226 0.48354477 0.44237596 -0.25466892 -0.5007176 0.26036808 0.8670494 0.91185105 2.115876 -0.11305985 0.11264569 0.52853537 -0.12701869 -0.27258223
欲 -0.5612124 0.6753562 0.5468004 -0.24757446 -0.48360103 -0.0840491 -0.17904966 -0.39369187 0.28996125 -0.9549464 0.7062601 -0.85432243 -0.15933463 -0.76480275 -0.34571755 -0.4038427 -0.5394513 -0.27604342 0.018181674 0.41742736 -0.27362725 -0.13273555 -0.11336459 0.34875152 0.3124491 -0.3971018 -0.3670774 0.101248436 0.1884387 0.19483744 -0.23175626 0.99123865 -0.08765317 -0.012631069 0.5884047 -0.39952743 -0.19594783 -0.68058115 -0.33050498 -0.388918 -0.2952519 0.57441634 0.7020521 0.11814 0.14089301 -0.24790801 -0.73073626 0.40729433 0.24339792 0.39409736
诸 -0.74173576 0.10896318 1.0353242 -0.21807808 0.28675604 0.5798332 -0.71775734 1.0373796 -0.3516089 0.29976416 -0.5090866 0.090256795 0.19077979 -0.8280474 -0.6618978 -0.5090582 -1.0550371 -0.16959356 -0.6203862 -0.19980963 -0.06510699 -0.35509786 0.9941904 -0.055655 -0.87118024 -0.46400326 -0.8454308 1.0892028 0.0028706416 0.84082514 0.056260623 -0.33377764 0.73225677 -0.17108573 1.0281312 0.17676085 0.8972913 0.43135348 0.17087327 -0.11128267 0.4142941 -0.50016344 -0.64332235 -0.84601676 0.9411504 -0.41232783 0.36288884 0.3052818 -0.32361814 0.38909313
从 -0.31806198 0.26249582 0.22703354 -0.65486455 0.50050527 0.044582564 -0.23048088 -1.2116702 -0.41359317 0.48518297 0.08224355 -0.012593863 0.34678528 0.11290362 0.47431335 -0.37902504 -0.25584885 -0.24788421 0.21025687 0.86769766 -0.6141303 0.09726191 0.012906446 -0.46154115 0.17908433 -0.044832774 0.4204959 -0.016290432 0.44544807 -0.658177 -0.15095721 -0.92552024 -0.06349388 0.022179171 0.31459042 -0.35669756 -0.51437193 0.09708842 -0.12623449 -0.42659387 0.39912412 -0.16237712 -0.02755681 0.44276938 0.19699165 -0.17313445 0.16835293 -0.1930333 1.0605235 -0.34396315
文 -0.5211253 0.45629466 -0.5909788 0.12110604 0.6740315 -0.19547193 0.8270884 -0.14102598 0.44282344 0.6234216 -0.5832305 -0.10295873 -0.43310526 -0.23951371 0.109173305 0.6737334 -0.072401896 0.7177048 0.5568438 0.21137881 -0.40047485 0.15291227 0.15371421 0.51832426 -0.76392275 0.6785829 -0.39471105 0.25815368 0.2667384 0.29418582 -0.2911133 1.0878352 0.88271004 1.1324703 0.30884352 -0.34015572 -0.12491303 -0.37929493 0.54147756 -0.25382423 -0.03606798 0.46968794 0.28973174 0.27427307 0.84029305 -0.55640477 -0.24263063 -0.24994546 -0.11345183 0.2290243
政 -0.63488835 0.30550215 -0.5970339 -0.52875197 0.70662725 -0.28643268 -0.23857144 0.22868207 -0.593334 0.6633403 -0.065260984 -0.6408627 -0.1267471 -0.96123314 1.1286939 0.041774426 -0.287234 0.15057287 -0.55666983 0.656089 -0.24664094 0.10397286 0.63181245 0.47551996 -0.8264671 0.3083071 -0.32005736 0.24552287 0.16885714 0.15963447 0.83702874 0.7141307 0.6210245 0.45724604 0.7290437 -0.25498983 -1.3699908 -0.023569845 -0.621212 -0.54248494 -0.0471789 0.05103836 -0.60504556 -0.364387 0.14947893 -0.5065885 -0.28416938 0.070190944 0.85221595 0.5386773
食 -1.0687045 1.0328994 0.0060386052 0.29698792 0.37610167 -0.59614575 0.6556785 0.03599294 0.018677402 -0.71617895 0.8830152 0.20114306 -0.43247256 -0.46005172 0.24324569 -0.40166083 -0.20545036 0.15625711 0.09169865 0.44569293 -0.074465886 -0.370893 0.80736244 -0.0736047 0.07443618 0.9554438 0.28726333 0.04480099 0.16295703 0.74858516 -0.046980783 -0.082184605 -0.33851203 0.02143757 0.024941372 -0.06894059 -0.225861 -0.27487877 0.5288653 -0.5597812 -0.1998895 -0.097835764 0.8490773 0.7092558 0.22148314 -0.1618478 0.26537362 -0.46948218 0.39470297 -0.14525446
善 -0.6316166 -0.911077 0.3182127 -0.36091796 -0.19455762 0.011094565 -0.19968587 0.56340265 0.23056014 -0.32569313 0.16655649 -0.577516 -0.16044137 0.27347407 0.3036898 0.2057014 -0.073541045 0.72811157 -0.4789401 0.03899048 -0.61661994 0.18856874 0.8252225 0.12724458 -0.36168742 0.3499375 -0.26295042 0.9452688 0.6905624 -0.09770425 0.186336 -0.2262208 -0.30680242 -0.09785563 0.27412066 -0.143808 0.30132085 -0.022296857 -0.5939448 0.027181074 0.13778056 0.5191112 0.041349545 -0.21207292 0.0529166 -0.15704912 0.4253865 -0.13106038 0.47158748 -0.8647634
后 -0.38182586 0.38075373 -0.17161556 -0.26080397 0.5480477 -0.77867013 -0.84246093 0.7521326 0.08689558 0.7287138 1.0204757 0.61544675 0.34294194 -0.030129699 0.0035732582 -0.24598163 -0.63280684 0.46114072 -0.85198253 -0.006041806 0.07138366 -0.0019169352 0.73909944 -0.88639635 0.43752107 0.61869854 -0.29461014 -0.22105043 0.09223455 -1.0687535 1.0786878 0.36202198 -0.14543329 0.5492187 0.7517459 -0.48526827 0.32108158 -0.2609315 0.3791398 -0.112327635 0.36900604 0.32757735 -0.1290428 -0.305687 -0.07903632 -0.27315137 -0.26484022 -0.6115246 0.51383835 1.0389347
德 -0.46003655 -0.53812903 -0.011313655 -0.6244545 0.46655902 -0.19073074 0.5030715 0.55925447 0.14581864 0.663784 -0.4424218 0.054078467 -0.17137194 -0.6206136 0.3560854 0.22679684 -0.3936216 0.26321477 0.22444683 -0.8698326 -0.4242097 -0.40184286 0.8186114 -0.17118762 0.29397556 -0.81011564 0.42662948 0.8189019 -0.4856408 0.39972278 0.039420187 -0.38459417 0.03465439 0.9367994 0.6662537 0.5852494 -0.8180547 -0.2194627 -0.6034358 0.14864229 -0.08628721 0.21303365 -0.4202059 0.17329133 0.19731002 0.21804482 -0.48401636 -0.52622694 -0.015017127 0.6529002
求 -0.51082057 -0.595265 0.31367373 -0.26407298 -0.24967037 -0.49566612 -0.057522383 -0.06285328 -0.28328627 0.47604913 -0.116263464 -0.74489003 -0.6378672 0.20011662 -0.6621517 -0.71856093 -0.009239683 -0.7062135 -0.24219938 -0.14203972 -1.2141191 -0.75261235 -0.102073185 -0.2735986 -0.40486413 0.26138446 -0.030211037 -0.0032450582 0.10187698 0.31266272 0.070439614 -0.06859982 -0.75306207 0.5998108 0.2686105 -1.656004 -0.5618064 -0.11255531 -0.23904002 -0.83422905 -0.07409529 -0.39896432 0.35455918 0.838615 0.51904994 0.39042285 -0.27628696 0.14469278 0.38954982 0.22114253
对 -0.9093815 0.84247977 0.5723066 -0.7012439 -0.28773752 0.13264516 0.109352045 -0.88582605 -0.17603375 -0.7142614 0.3191373 -0.05182393 -0.32678023 0.27751303 -0.09532166 -0.251346 -0.85502636 -0.74860895 0.14013992 0.5505154 0.09615909 0.5160425 1.2639164 -0.7732199 0.580743 0.04455575 -0.3524807 0.786918 -0.22998722 -0.43774086 0.23600894 -0.2552268 -0.41288212 0.20570575 -0.11261063 -0.051787086 0.24585266 0.0801911 -0.32906082 -0.0004840641 -0.07259742 -0.5185737 1.2145437 -0.11415622 1.070171 0.47342947 -0.10534929 0.36494094 0.18005343 -0.3529404
恶 -0.7024191 0.08777878 0.24822856 -0.08371745 1.0676768 -0.037209276 -0.28209534 1.0091324 -0.31807327 -0.2728531 -0.40582505 -0.42452893 0.15489027 -0.6247017 0.81053936 -1.1468874 -0.27144888 -0.31665272 -0.3817829 0.60770464 -0.46525726 0.14111821 -0.18153799 0.31704882 0.9904073 0.7261522 0.16252433 -0.105591364 -0.0025140543 -0.6759197 -0.18924281 0.27316642 -0.12638383 0.11118735 0.80953354 -0.5643626 1.1505722 -0.18419993 0.31303096 -0.2648816 0.10874508 -0.430171 0.14622465 0.086582236 0.96858746 0.40842342 -0.08820147 0.5243511 0.31948486 -0.22202209
信 -0.024668815 -0.46635726 0.8027614 0.31055006 0.3886905 0.4758857 0.1205647 0.106810115 0.52352136 0.7753435 -0.22618751 -0.69933337 -0.39589843 -0.19255823 0.45268044 -0.18960921 -0.19423676 -0.3075515 0.061152592 0.585557 -0.4436212 0.21878903 0.26687017 -0.059182767 0.19957802 0.7989925 0.43034574 0.4909446 -0.51608527 0.5894408 0.26190662 -0.5966409 -0.4048479 -0.016894443 0.9089858 0.73901755 -0.7041073 0.113221146 -0.6879256 -0.5016649 -0.04900373 0.613574 -0.23377222 -0.18095905 0.113383576 0.47174194 -0.32452652 -0.6610177 0.26644033 -0.6350052
死 -0.14558238 0.0836962 0.3021305 -0.92445564 0.27973458 -0.14484903 0.23455854 -0.34744027 -0.37731344 -0.04561603 0.44174677 -0.5404428 -0.46335047 -0.52986425 0.24025866 0.20362999 -0.33185068 0.5916806 -0.284082 0.14642979 0.11941974 0.28597978 0.5683179 -0.31744358 0.0027861437 1.0014728 -0.36255538 0.122653335 0.7240117 -0.37261143 0.60341525 -0.78589654 0.10475177 0.6036611 0.4681306 -0.6588382 0.075513646 -0.46676102 0.020262469 -0.5599242 0.5149271 0.38635615 -0.23632616 -0.2493318 -0.04845383 0.04736383 -0.2579406 -0.48828912 0.39996138 0.8965043
然 0.2859303 0.6618903 0.057382427 -0.21107498 0.251639 -0.58381146 0.47919384 -0.15032215 0.24326119 0.49092045 -0.8271846 0.048188046 0.19468617 0.2988244 -0.056231868 -0.022964695 -0.32186124 -0.24958695 -1.6564639 0.50384307 -0.44587544 0.042175576 0.13953827 0.21658722 -0.19258556 0.47681707 -0.014692733 0.8505793 -0.16914412 -0.33848238 0.45358923 -0.08810068 0.33385327 0.10988676 0.30063152 -0.6208358 0.15679573 0.38382408 0.26924613 -0.41520572 0.3318685 0.30652043 -0.37407324 -0.39413807 0.9605566 0.46180212 -0.47319013 -0.14065218 0.55349666 0.13396786
《 -0.25349736 0.5553308 -0.19823729 0.23451515 0.5701739 0.16548091 -0.65709007 0.47139055 0.29125306 0.15027744 -0.42027414 0.3044026 -0.227277 0.075084455 -0.32640103 0.16273911 -0.6305079 0.02217148 0.19026174 0.65281826 -0.2270247 0.2126072 1.0145737 -0.95081145 0.086691126 0.23421435 -0.80137974 0.61041296 0.62980396 -0.063555114 -0.17566922 -0.08111986 0.05776656 0.51547706 0.21301472 0.43987596 -0.9273617 -0.68548566 -0.54132974 0.5996979 -0.44182757 0.72639865 0.19151358 -0.3901752 0.67983997 0.08575458 -0.0004709203 0.44652462 1.0795944 1.479714
》 -0.7460803 0.29363954 -0.28246272 0.43772888 -0.36477777 -0.4072478 -0.28571418 0.4354965 1.2607238 0.5020212 -0.13586953 -0.1618396 -0.6668294 0.033499993 -0.11036229 -0.05701308 -0.35090378 -0.5785184 -1.2220125 -0.007723317 0.047993246 0.038551766 0.45994586 -0.9369286 0.49904782 -0.30694896 0.27073509 0.329321 0.14304222 0.13107297 0.16671708 -0.18962601 0.2208279 0.7385351 -0.1008553 0.19277501 -0.07719617 -1.1655036 -0.5700986 -0.23765469 -0.07466206 -0.12096022 0.5400199 -0.77738357 0.904287 0.46006644 0.117852196 -0.71344465 0.09465598 0.30754107
由 -0.008677177 0.48264927 0.3701367 -0.83537835 0.11209389 -0.09237071 -0.43627107 -0.14193752 0.52605045 0.18409708 0.025934467 0.017113285 0.49590042 -0.46062708 0.1537667 0.24706604 -0.21622907 0.3797503 0.00065144914 -0.4068809 -1.0881276 -0.13684285 0.2686713 -0.5001523 -0.57486767 -0.45925102 -0.16700622 0.45584148 0.9035474 -0.39444765 -0.13255225 0.8934968 0.086197264 0.21397701 0.4270205 -0.011438285 -0.036662858 0.071430355 -0.7246107 0.5688989 0.24199103 0.41760552 0.4233458 0.11605325 0.30113357 0.06680476 -0.25063396 -0.6416467 0.958809 -0.7952852
仲 -1.1916983 0.12620598 0.094719686 0.06866685 0.26351985 -0.2668233 0.7424368 0.44908863 0.07118537 -0.23426011 0.13288933 -0.40795103 -0.0062898607 -0.7816374 0.038250387 0.3985359 -0.48087975 -0.5719296 0.20610696 -0.48628196 -0.3324718 0.23761605 0.83859134 -0.27242664 0.81909543 -0.23262711 0.06086909 -0.7393204 1.5582638 0.085191265 0.007043518 0.1425851 1.0468992 1.4529792 0.0448296 0.5880329 -0.2783044 -0.029083176 0.26942423 -0.36948082 -0.13978639 0.5199216 0.18018219 -0.83391917 0.8723936 -0.7855594 -0.2164877 -0.35622767 0.20875674 0.26346228
非 0.056370843 -0.13568532 -0.07498302 -0.4540116 -0.1380344 -0.3181258 -0.06854269 0.22866203 -0.081908345 -0.20548603 -0.4556571 0.12587793 -0.22628471 -0.45701402 -0.3210832 0.1571571 -0.1055042 -0.07323002 -0.76287585 0.4159524 -0.48011285 -0.08078874 -0.15034717 -0.6603602 -0.51442283 -0.21018152 -0.46342158 0.21044496 -0.38206992 0.5532555 -0.3324372 -0.24313964 -0.66603804 0.56700057 0.25249103 -0.42817888 -0.38285154 -0.19363217 -0.18093692 -0.3986436 0.07356721 1.2764275 0.23143469 0.13915929 0.86880875 -0.3554829 0.21173525 0.45674026 0.40595326 0.1527398
出 -0.23981225 0.2767555 0.13941523 -0.6117878 0.22775272 -0.6545162 0.54861814 -0.60470694 -0.32650328 0.14923212 0.52130705 -0.12682743 -0.135984 -0.24634637 0.61819464 -0.34938198 -0.665782 -0.39111325 0.12441855 0.44914165 -0.20719884 -0.19364214 0.1856492 -1.5674561 -0.3887213 0.985867 -0.015463925 0.9344849 0.5788805 0.13305588 -1.0899373 0.08842553 0.20751576 0.44086817 -0.14258865 -0.12011654 0.16426174 0.050172098 0.0562407 -0.028218389 0.19706929 0.39627695 0.31677717 -0.3709028 0.34258017 -0.47774106 0.19606484 -0.029580213 0.1338646 -0.7120723
过 -0.81724954 -0.0047897114 -0.26025534 -0.1719023 -0.004322242 -0.8542137 -0.08100444 -0.5250594 -0.17257127 0.06127539 0.055330537 -0.67914236 1.0849162 0.26617342 -0.39383945 -0.12112991 -0.12428655 0.8430631 -0.52124226 -0.17616268 -0.5513096 0.7490266 -0.22165321 -0.46122107 0.5889494 -0.005307694 0.5055316 0.29368082 -0.03210556 0.38589406 -0.9807507 0.8880741 -0.275874 1.0035704 0.9431166 0.24913038 0.4046045 0.094576046 -0.042618737 0.16661902 0.7596397 0.93010193 0.27307385 -0.09552907 0.7145921 0.447149 0.27484635 -0.41807684 0.44881377 0.06964346
一 -0.601171 -0.4202656 0.63128287 0.14510298 0.86713916 -0.12338875 0.22641592 0.17624919 0.7357915 -0.23045051 -0.41346568 0.12885778 0.09644248 -0.02086074 -0.37711355 1.0842443 -0.277602 -0.5064572 -0.11953195 0.94286644 0.19317919 -0.26623973 1.0625055 -0.2551005 0.2386299 0.34211412 0.13038704 0.029059451 -0.52333933 0.7154859 0.77978987 -0.031091876 0.4975017 -0.5209368 0.6472031 1.1539522 -0.3942687 0.7263667 0.40193912 -0.6931622 0.29575822 0.03863422 -0.4943749 -0.031374604 0.94515353 0.14496638 0.41193938 0.15506805 0.7941377 -0.72284204
虽 -0.35893193 -0.08971365 0.3458463 0.24568018 0.57409024 -0.18546923 0.12947686 -0.0362998 -0.013054633 -0.17886756 0.24774647 0.5300219 -0.2602562 0.09781682 0.77035004 -0.43065092 -0.8102862 0.7315916 0.054518376 -0.25917783 -0.24590865 -0.61978453 0.7515328 0.26363885 0.7510431 0.6379673 1.3565948 -0.056190193 0.28775063 -0.058952194 0.462026 -0.20314403 1.0704806 0.69009763 -0.08081825 0.5710576 0.7173994 0.38569462 0.35821348 -0.5129927 -0.7760219 -0.48613805 0.64397746 0.11653628 0.567701 -0.42570466 0.053396743 0.3045655 0.6130002 0.48377287
足 -0.70956373 0.74095607 -0.13656962 -0.1927449 0.033509597 -0.012783813 0.6307132 0.3487831 0.975818 0.11116804 0.23555115 0.02377518 -0.25435266 0.19535303 0.40022966 0.009862279 -0.780371 -0.78220814 1.1529546 -0.20718603 -0.33848974 0.151566 1.1090796 -0.35323268 0.06711479 -0.16097006 0.17193088 0.41019177 0.31495133 0.2704225 -1.0258214 0.30303547 -0.92458063 0.26606056 0.8716291 0.14105828 0.3672095 0.6184052 -0.5840126 0.16495197 -0.08037283 0.7297108 -0.18798307 0.15681455 -0.114313655 0.122894354 0.0901903 -0.17628203 0.9000889 -0.0259512
居 -0.6319522 -0.106716886 -0.36568835 -0.13656811 -0.24099675 -0.28940588 0.616044 0.24706632 0.9095292 0.4088121 -0.81950825 -0.3616481 0.4940756 0.2389779 -0.9916562 -0.3085731 -0.42534724 0.20991908 0.2993026 0.3972405 -0.007165482 -0.95394784 0.28055447 0.6494726 -0.12672691 0.04065127 0.23797515 0.11988538 -0.15825106 0.36619094 -0.8125514 -0.584269 0.93421423 0.1519812 0.36461425 -0.018702652 0.26954702 0.22344106 -0.2186747 -0.6642648 -1.0302709 0.30882394 0.14760825 0.44370022 0.34401408 -0.47006908 -0.5249959 -0.26533806 0.4365832 -0.10289199
尔 -0.45680818 0.01699823 -0.9099264 -0.05573814 0.35056826 -0.04319875 -0.84472966 1.1770328 -0.34644234 0.44357896 -0.021751534 -0.8201646 -0.3879488 0.46138617 -0.62999415 -0.1923262 -0.60440195 -0.19966052 0.25732157 -0.5986233 0.6500138 -0.69465536 1.0348971 -0.31565297 0.8793166 -0.47507516 0.51248723 1.0654001 -0.26401743 0.045038044 0.8415832 0.9685153 -0.6254892 -0.2602414 0.8093886 0.24791028 0.4070099 0.69703704 -0.6249119 -0.9932614 -0.03666092 0.6967884 0.58821315 0.42549673 0.36343706 -0.00077942706 0.29097423 -0.32985812 0.57661307 -0.4718614
夏 -1.006024 0.0040991884 -0.13200314 -0.012424604 -0.48075056 0.4084936 -0.8560983 -0.11648031 0.83139336 0.08638869 -0.46764505 0.60177165 -0.21534456 0.6491551 -0.27746278 -0.88509554 0.16529511 0.3578795 -0.5709281 0.42567232 -0.9750215 0.33244282 0.744535 0.34289777 -0.51481915 0.5937383 -0.22560878 0.8061511 0.84079206 -0.54653335 0.8690066 -0.21840405 0.12842274 0.90327543 -0.59776735 -0.3532443 -0.8205676 -0.6414483 0.13758518 -0.2270605 0.1606884 -0.27332926 0.98593986 0.6415793 1.4378697 -1.3104358 0.10688829 0.29886124 0.059558157 0.41028133
父 -0.22296943 -0.19995768 -0.1379016 -0.30912617 -0.86422414 -0.22098835 -0.021778466 0.67245823 -0.27245808 -0.028866807 -1.126079 -0.122106224 -0.09341039 -0.27785516 -0.009813574 0.7606392 0.026961287 1.2945678 0.48156366 0.16525851 -1.0421466 -0.34388864 1.2592714 0.021955451 -0.42341787 -0.6952434 0.58873594 -0.22543421 0.08009663 -0.5120441 -0.068348065 -0.45736358 -0.53421974 0.27300552 -0.1814246 -0.02348257 -0.36296564 -0.7621938 0.15799375 -0.72528416 -0.64965016 0.43426773 -0.15092985 0.54765224 0.46820638 -0.8276713 -0.60564 -0.66318697 0.8611708 0.19181369
及 0.14210647 1.1855884 0.08775174 0.042455833 -0.16081995 0.16560723 -0.2140214 -0.32181504 -0.5130223 -0.22496346 -0.25053105 -0.12363693 0.07217817 -0.15977691 0.85604495 -0.13091925 -1.4026743 -0.28271824 -0.15568367 -0.45004368 -0.28644913 0.19517934 -0.3010722 -0.17506985 0.45611924 -0.32758647 -0.50866586 0.80493325 0.23004277 0.4131098 -0.13399258 -0.38473436 0.3593277 0.52761 0.31132686 0.44908997 0.04781013 -0.78656816 0.040020943 -1.0055338 0.20292084 1.1545014 0.0606945 -0.52228373 -0.5113996 0.3191903 -0.6921386 -1.3571771 1.3426032 0.039014366
己 -0.60191375 0.76383483 0.6158957 -0.40916568 1.3403604 0.6192742 -0.056515366 0.2673338 -0.7324738 0.5960616 0.38441664 -0.513804 -0.90369976 0.2535916 -0.4287796 0.28629282 -1.0613091 0.48944214 -0.15988658 -0.97514415 0.3561507 0.23802164 0.9178824 0.17717388 -1.0487975 -0.12900771 0.5776294 -0.03367093 -0.23207541 0.046399776 -0.80882454 0.88090336 0.13807824 0.59091616 1.0689989 -0.30369905 0.14348008 0.27561033 0.40850905 0.18572228 -0.35169145 0.4774365 0.3320631 -0.16429526 -0.22507194 -0.6403636 0.904164 -0.5891757 0.59773004 0.070541106
予 0.41651428 0.22508527 0.2607038 0.18667226 0.12638028 -0.40738606 -0.3732322 0.22597057 -0.17495349 1.1225158 -0.08465218 -0.039722215 -0.3777401 0.0679787 -0.20950209 -0.4314871 -0.3431076 0.11069422 -0.1630135 -0.63057774 -0.0920217 1.1323425 1.4353176 0.78638464 -0.44832402 -0.7655824 1.1409799 0.112346485 0.5994682 0.0030131224 0.1959 -0.19500203 0.2439934 -0.34978488 0.94887835 -0.20985408 0.50872153 -0.59200484 0.26222247 -0.13674599 -0.11050163 0.69863033 -0.17918956 0.84563327 0.050017267 0.23369688 0.7056433 -0.55769145 0.2630234 0.022308731
色 -0.1515932 0.2567292 -0.63327646 -0.805372 -0.56303114 0.37352353 -0.038240265 0.9495707 0.58925575 1.3487295 0.80486274 0.30047414 -0.48520258 -1.0095739 -0.91387725 -0.25021797 -0.5727256 0.33384496 -0.08411784 -0.28079778 -0.3563612 0.6954046 0.44375032 -0.79407877 0.15764679 0.6511747 -0.029147655 0.22353408 -0.849171 -1.0687717 -0.33810154 0.06574938 0.5213931 0.38421074 0.77591556 0.6883302 0.15404205 0.8923169 -0.6063322 0.55998546 -0.6171532 0.124818645 0.009841668 0.20918998 0.30568093 -0.20031221 -1.1765742 0.012585316 0.7741911 -0.10974971
友 -0.9539077 0.42297274 0.33233675 -0.25574526 0.18504581 0.32467747 -0.15673152 -0.8242747 0.8916751 -0.18281698 0.2629971 -1.1068059 -0.32408747 -0.3998204 0.79699695 0.119177595 -0.497138 -0.51698977 0.46157876 0.3568902 0.0739487 1.2812767 0.66349465 -0.7228274 0.3378551 0.9482414 0.10710474 -0.16908573 0.20835182 -0.32829398 -0.81525046 -0.7507701 1.0275364 0.112812735 -0.08690647 0.27898622 -0.10858396 -0.6580722 0.27038583 -0.5586531 -1.4524276 -0.21126986 0.07820662 0.6708032 0.050560925 0.44788325 -0.14739832 -0.6942715 0.6421237 -0.040735688
成 0.09928518 0.62451226 0.21373889 -0.43022025 0.05427053 0.3009601 -0.34080762 -0.325809 0.29753345 0.14238946 0.12860768 0.41635588 0.1197306 -0.3676201 0.19895738 -0.3583286 -0.11504067 0.026798751 0.4595425 0.7947566 -0.5859556 0.7783129 0.15742023 1.146164 -0.5248737 0.87672246 0.82175773 0.12853312 0.12095277 0.18969388 0.5032518 -0.022519574 0.15734252 0.16836557 -0.008802728 0.14731789 -0.68581676 0.27269894 0.20269676 -0.48969966 0.052993927 0.2921916 0.050805785 -0.5233481 0.4083265 -0.6381265 -0.067742445 -0.07866222 0.86788607 -0.062098358
远 -0.5361842 -0.32378435 0.11278082 0.30874175 -0.41708207 -0.5224447 -0.00960419 0.07342566 -0.62778515 -0.08977832 0.23315242 -0.3264883 0.24935584 0.14523622 -0.13084847 -0.17863825 -0.33202362 -0.67019206 -0.22992931 0.48400164 -0.15161273 0.34563932 -0.11707775 0.5893408 0.027257202 0.56384987 0.18118429 0.08305294 0.04488835 0.641365 -0.5515493 0.33018044 -0.24592318 0.24735205 0.77586496 0.36637288 0.7277442 -0.34162825 -1.3924978 -0.42727542 0.59728324 0.054173935 0.3972846 0.14319205 0.19412924 -0.11955601 0.3482759 -0.15358303 0.76109505 -0.3822261
上 0.16892731 -0.5518251 0.023483742 -0.27381012 0.11882728 -0.11130921 0.55275613 0.10514089 -0.44010615 0.5573184 -0.58465403 -0.34849077 0.6708844 -0.5941436 -0.0035607608 0.34803858 -0.3600084 0.27713174 0.05609511 -0.23531444 -0.6520275 0.35423014 0.37901753 -0.41231245 -0.057903107 -0.28856477 -0.014822654 0.038186144 -0.017671168 -0.67852634 0.014901102 0.19275507 -0.093591936 -0.42363355 0.16330394 -0.89480174 -0.88718474 0.80170923 -0.5335848 -0.02500408 0.4799547 0.25868204 0.75987864 0.36548185 0.36720014 -0.13743511 -0.63624716 -0.10047886 0.7935658 0.08945563
立 0.18457685 0.24039055 0.39201897 -0.3204864 0.7777797 0.005022184 -0.104811154 -0.5369486 -0.30059123 0.2415404 -0.33354566 -0.98796916 -0.10781518 -0.121849775 -0.6260711 -0.08730962 -0.5224566 0.5597787 0.8171253 0.43784934 -0.07527791 0.06882643 0.2560357 0.22641875 0.4038814 0.30330172 0.7026361 0.7252183 0.4466371 0.6774791 -0.15262258 0.3437308 0.16096935 0.3007009 0.66529566 -0.81659406 -0.53282493 0.25993288 0.15509647 0.59398514 0.46708956 -0.16995429 0.648116 0.55743647 0.02093386 -0.0009058089 0.21362439 -0.22255723 1.3696555 0.15397237
今 -0.60445 0.3188604 0.4551727 -0.056005128 -0.46017018 -1.1468967 0.357832 1.0899897 -0.28652757 0.013803666 0.3074458 -1.0838338 0.41777316 -0.3722229 0.3191751 -0.6043963 -0.39443737 0.3483804 0.24409689 -0.3114519 -1.1240424 0.040701848 0.16692375 0.37385124 0.55815053 0.69371665 0.22688894 -0.09164745 -0.31008667 -0.5159864 0.11370865 -0.06536287 -0.022749016 0.7172499 0.10987489 -0.31274393 -0.12046292 0.3290678 -0.06118326 -1.022298 -0.5388369 0.032917604 -0.28331625 0.14767674 0.33451244 -0.6614236 0.88182586 -0.5618691 0.7048674 -0.30108532
张 -1.3268176 -0.7679396 -0.38538134 -0.30078855 0.21338063 0.7297615 0.09050825 -0.60014147 0.71899396 -0.10594893 -0.25702503 -0.36261773 -1.2313848 -0.14056787 -0.2913037 0.19795991 -0.5076344 0.049067486 -1.0339969 0.2850285 -0.30404413 0.26355413 0.53213316 -0.37477317 -0.29690972 0.6726694 -0.2022974 1.3745334 0.44799742 -0.12088256 0.86170644 0.5678539 -0.2933486 0.06310536 0.027502801 0.5857904 -0.5890273 -0.11048374 -0.56811327 0.2303265 0.4581153 -0.02238731 0.5192127 0.7766461 1.801028 -0.063670106 -0.18964516 0.104431115 -0.65894675 0.31030408
中 -0.29905477 -0.37116987 1.2941029 0.29078186 0.64525145 -0.28827274 0.28684402 0.92634636 -0.45149934 -0.06504546 -0.008425422 -0.8876755 0.4483615 -0.31243244 1.3097413 0.45697722 -0.79490566 -0.44584766 -0.6914363 -0.7589034 -0.9612246 -0.5922823 0.33947685 0.89690226 -0.056348357 0.65357566 0.5109535 0.25751537 -0.17533311 -0.040783796 -0.08127772 -0.14850305 0.2868755 -0.32869348 0.021037487 0.05946202 0.38118625 -0.75741863 -0.5025535 -0.65392447 -0.1224387 0.6570731 -0.15261538 -0.28037226 0.13203777 -0.77961534 -0.0050606485 -0.6281241 1.39414 0.20251772
季 -1.2572505 0.6863489 0.731178 1.3186312 0.4345872 0.43827042 -0.08581109 -0.3433219 -0.552275 0.007876383 0.17838307 0.7769846 -0.21228124 -0.3322209 -1.0071149 -0.06732006 -0.70849466 -0.28147498 -0.2921285 -0.31462952 0.046050232 -0.11919405 1.5781838 -0.34644598 0.78525484 0.5599444 0.14499556 0.116121314 0.79827094 0.4877998 0.012181037 -0.0055184783 0.71280557 0.3014902 -0.16693588 0.044291254 -0.24245623 0.30818468 0.003018039 0.51756364 0.010595597 0.20449129 0.50016284 0.0018715047 0.9127765 0.28216466 0.15113793 0.33491388 0.9182168 -0.7656407
臣 -0.65122765 -0.9223863 -1.0130148 -0.5129965 0.55591327 -0.06827554 -0.14770386 -0.03992696 -0.022625083 -0.0019886773 0.8163404 0.07953716 0.21494162 0.06116767 0.6201182 0.15257552 -0.41505247 0.3568349 0.2613688 -0.37309507 -0.41500223 -0.19691628 0.6359746 -0.3090842 0.27159283 -0.051828723 1.0323024 0.21586595 0.5626575 0.06183598 -1.1168048 0.3528948 -0.97286797 0.54452175 0.39110976 0.041834496 0.12467494 0.10479937 -0.5917468 -0.5250589 0.45490456 -0.5702236 0.6165765 0.6529376 -0.0056206607 -0.7845248 -0.78609085 0.33648896 0.6810826 0.50230455
贤 -0.3995493 0.18250132 0.020116115 -0.6450642 0.06807297 -0.33338007 -0.41612142 0.5856123 0.51831377 0.24766496 0.49644616 0.1493794 0.9174323 0.14956771 0.08362491 0.95347804 0.14716017 -0.13783169 -0.061609622 -0.11999243 -0.1801388 1.1147493 1.4662317 0.95899177 0.47418112 -0.7426454 0.29262894 0.07535931 1.6073667 -0.19772746 -0.06778578 0.019694617 -0.23885405 0.0033651027 0.30421683 -0.23037092 -0.54169536 0.81989735 -0.02543536 -1.2357448 0.74888194 0.14183357 0.041294772 -0.31699297 0.54269284 -0.4642279 -0.03916352 -0.5529702 0.47812697 -0.77148765
思 -0.3537436 -0.66230005 0.14127053 0.52191454 -0.2293927 -1.000272 0.38890275 -0.7388865 1.4265909 -0.3779605 -0.628863 -0.23587896 -0.39187047 0.032640472 -0.985048 -0.40795124 -0.40487653 -0.8825289 0.016752966 -0.015052836 -0.3901277 1.3075482 0.22910446 -0.24370593 -0.5477087 0.81210405 -0.5948566 -0.6523384 -0.040374674 0.27476898 -0.15657428 0.61780715 0.52362657 -0.12750633 1.5053687 0.040644117 0.4267911 0.06775948 -0.0025340111 -0.006067966 -0.6770089 -0.04448776 0.21068741 0.27269003 0.02782072 -0.00412258 -0.8628734 -0.010061391 0.42335212 0.78006136
齐 -0.98013216 0.7697987 -0.7047232 0.9569045 0.20130573 0.112780266 0.13459232 0.964633 0.74073654 -0.1325003 0.03726093 -0.33587605 -0.1653179 0.22347537 -1.1773375 -0.5706063 -0.33724478 1.1134051 0.5281496 0.53037256 -0.35773036 0.19468844 0.2939299 0.42919526 -0.5649045 -1.0184312 0.57928604 0.4022327 0.0966878 -0.10956583 0.034994237 -0.62158036 0.42053246 0.26736063 0.33732963 -0.22224529 -0.05737335 0.60585874 0.88586247 -0.669997 0.16280223 -0.46117344 0.0038660208 -0.37900853 0.4767906 -0.47805223 -0.122168116 0.14912532 1.2117656 -0.35639113
义 -0.3734985 -0.0063421507 0.6712326 -0.24845114 0.22640237 0.07034976 -0.753876 0.69495916 0.225353 0.20680869 -0.088876694 -0.24479796 -0.6956536 -0.08593317 0.5303974 -0.06474841 -0.57998145 -0.082550295 0.92760134 0.13965747 -0.090171404 0.09203699 0.8223713 0.68209183 0.30753508 0.47835472 0.5685008 1.1976024 -0.4472306 0.08320335 0.3215008 -0.30900875 -0.4720933 0.53433377 0.37912732 0.31545132 -0.71176594 0.8108365 -0.3080546 0.034425672 0.45487964 0.042702388 1.1057426 1.2662367 -0.02374433 -0.10029279 0.14320894 -0.6678798 -0.4358178 0.4284636
正 -0.23728727 0.5875486 -0.18336467 0.019454224 -0.02042062 0.80191237 0.054649033 0.2720141 -0.06363831 0.4165421 -1.013207 -0.70518106 -0.5992295 -0.008526591 -0.40225786 -0.8990523 -0.21826586 -0.5364419 0.24251015 0.32507333 -0.24626839 -0.20210366 0.76927143 0.8822089 -0.6191292 0.1996348 -0.21857935 0.07892357 -0.122766845 -0.1462306 0.7336956 -0.85093415 0.08831969 0.06634156 0.95172125 0.20806551 -0.391003 -0.93479025 0.6417492 -0.17938426 -0.7190364 1.5906519 0.5108422 -0.5100168 -0.31782508 0.39962813 -0.10310003 -0.28834018 0.40102726 -1.488139
命 -0.43977 -0.80873513 -0.43598187 -0.64392513 -0.8955126 0.30186707 0.13838746 -0.39735216 -0.7696295 0.7527902 -0.20435417 0.5247316 0.010594869 0.07843085 0.13304465 0.0047323885 -0.5103297 0.46423915 -0.4200372 -1.0366963 -0.41797617 1.0660578 0.11650932 -0.4741624 0.49393082 0.018009096 1.2612759 0.92234415 0.037915293 -0.70549536 -0.5095114 0.4373725 0.18066934 0.78295815 0.35086867 -0.553127 -0.42754355 -0.2781258 -0.5252465 0.54735273 -0.7691266 -0.55139875 0.21072902 0.26302394 0.1793977 0.26844594 0.2399831 -0.58751875 1.000856 -0.26582462
曾 -0.7741447 0.50586593 -0.12615544 0.42828414 0.0988468 -1.0709776 0.055617373 0.29389527 -0.12381997 0.5976967 -0.07301748 -0.9578229 -0.029879484 -0.3568827 -0.7170685 -1.1721932 -1.0289906 0.9977888 0.6699532 -0.17793663 1.2200831 -0.2007697 1.2173041 -0.25406063 -0.45934606 0.8629266 0.59212965 -0.72970444 1.1719472 -0.15603635 0.11721578 0.4127208 0.08656809 0.07626953 0.020373954 -0.042307343 -0.24543883 0.8460252 -0.10455366 0.55235016 0.4692217 1.3411722 0.6583674 -0.67436683 2.0188668 -0.3111715 -0.9846303 0.5250736 0.12693648 -0.10000115
伯 -0.019268787 0.41399714 -0.27959734 0.4253401 0.39580557 -0.6442891 -0.037984926 0.17884296 -0.3127349 -0.46256754 -0.10664443 -0.54231787 0.0015447423 -0.42009813 -1.1395533 0.42895657 -0.2616541 -0.3742328 -0.034291863 0.14018391 -0.30822873 -0.078528926 0.8648409 -1.0008508 -0.8411155 0.54365075 -0.20895793 0.10120834 0.7762245 0.49650192 -0.18893637 0.18642631 1.3293499 0.03197071 0.15623873 0.78725517 -0.48253927 0.45904997 -0.038470987 -0.07196982 -0.12386951 -0.031394206 0.6809315 -0.16250338 1.3093671 -0.25075522 -0.20308325 -0.65559334 -0.035418272 -0.8144396
门 0.06943549 -0.34588438 0.62601197 -1.3273088 -0.17226727 0.1801846 -0.38436726 -0.5352731 -0.4005977 0.22820437 0.61224526 -0.68896496 0.81532615 -0.606513 0.08914989 -0.4701678 -0.58525807 0.9654648 -0.57696736 -0.20208466 0.10117883 0.6725487 1.04616 0.5061392 -1.1663297 0.17546079 0.30055645 0.91890705 0.47253826 -0.21001077 -0.45634642 -0.3385273 0.24915873 1.0778975 -0.020972488 0.5746698 0.5154734 -0.11246088 -0.37778082 0.72710913 -0.38337317 -0.07294534 0.3391913 0.36495173 0.18341364 0.0070956065 0.102046005 -0.022070574 0.39795828 -0.41710263
敢 -0.056574054 0.30365992 -0.3879814 -0.96746045 0.3270807 -0.18884954 -0.45426926 -0.5973513 -0.19181712 -0.08494016 0.45167604 -0.2396057 -0.49191615 0.61392295 -0.31702578 -0.326685 -0.44375965 0.38955 -0.12671998 0.015028078 -0.36412016 0.5834496 1.8497345 -0.38093987 0.08786784 -0.24347298 -0.18658698 0.8026761 1.5850722 0.46903786 0.9737722 0.07044575 1.071587 0.45019078 0.9411646 -0.8294438 -0.3741834 -0.47382465 0.39971584 -0.537942 0.6370297 0.6554687 -0.8311381 0.7782434 -0.07820294 -0.55326843 0.49766243 0.97624534 0.46183094 0.35823515
犹 0.15869865 -0.78516513 0.96782374 -1.1121262 -0.08423845 -0.29126108 0.3445882 0.64992374 -0.5074297 -0.05922564 0.19615553 -0.448748 0.005823069 0.20880757 1.0549878 0.7100474 -0.6459976 -0.33218506 0.05768837 0.7137098 -0.36595696 0.08447116 0.6386801 -0.014275051 -0.878553 0.5946155 -0.030093964 -0.6146894 0.7172475 0.34929934 1.1301959 -0.6946923 0.88359606 0.01736907 0.18515824 -0.82841045 -0.1046472 -1.0509163 1.1873367 -0.20860747 -0.1856069 0.17820044 0.8605556 0.062702656 0.385327 -0.22415876 0.38145998 0.1783672 0.45640576 -0.1783818
生 -0.10438939 -0.5635035 0.42513555 -0.36834463 0.11047522 -0.41834924 -0.6893747 -0.77186626 -0.41956756 0.82324684 -0.56762993 -0.95231867 -0.13777752 -0.5076507 -0.042039163 -0.25414386 -0.28456217 -0.06374446 0.675887 -0.1495076 -0.69274235 0.14926939 -0.37587497 -0.57085145 0.12101189 -0.23260546 -0.42933914 -0.13235925 -0.04573342 -0.36518368 0.29328376 -0.075964354 0.50480825 0.1181284 0.3529256 -0.4057296 0.29597524 -0.349584 -0.55285144 -0.17839533 0.14872165 0.27177128 0.256515 -0.02773323 0.45906904 -0.4054369 0.66662824 -0.50821924 0.30532125 0.636407
日 0.192004 0.733086 0.7626264 0.86986417 -1.0237504 -0.69179595 0.15974261 -0.24925229 -0.19816388 -0.03133195 -0.51858985 0.14227138 -0.334778 0.4153659 -1.1796522 0.22128321 -0.48476377 1.0417678 -0.4427123 0.62719655 -0.6399452 -0.10660063 0.867425 0.1547592 -0.55265135 -0.6592647 0.57208353 0.18005687 0.28872275 0.08447206 0.8096313 -0.1168478 0.94632775 0.8833425 0.71188956 -0.15244545 0.13831045 0.5638126 0.23173398 -1.5298151 -1.3511639 1.0222996 -0.24551773 0.55343014 0.1543529 0.853866 0.49348846 -1.3879809 0.23218438 -0.9836605
敬 -0.06117308 0.66061443 0.7974929 0.26745993 -0.19581819 -0.6119176 0.20049612 -0.1911145 0.19723408 0.051552888 0.5098559 -0.32221597 -0.76480013 -0.111412175 0.402766 -0.4799024 -0.36855713 0.022918992 -0.6950903 1.0078388 -0.99676114 0.6092144 0.31917349 0.23556086 -0.04624162 -0.14332761 0.16031213 0.11032421 -0.056755956 -0.13837402 0.82683665 0.29659736 -1.1761748 0.55928385 0.4136074 0.44475746 -0.48315352 0.25914285 -0.15697134 -0.34616706 -0.41203457 0.56410885 1.417909 0.20708473 -0.30802843 -1.0368431 -0.89429885 -0.16188389 0.5349207 0.10945889
难 -0.4614066 0.37928274 -0.32051757 -0.591185 -0.66691935 -0.467042 -0.038675226 0.49931797 0.014300022 -0.290549 -0.72879803 -0.3006607 -0.015663924 -0.19959529 0.32188517 -0.2596299 -0.33469346 -0.37349558 -0.15084487 -0.58628625 0.2918303 0.7255019 0.23609206 0.93665373 0.10836981 0.53571725 0.09286252 0.7603718 -0.06652881 -0.2096578 -0.26250896 -0.2959759 -0.23617636 0.55082893 0.6281553 -0.11552527 -0.39697912 0.4796774 0.46562085 -0.4939946 -0.62726945 -0.4655076 0.30948043 -0.26960543 0.14093728 -0.68073577 -0.35585725 -0.780315 0.60403085 -0.31203386
直 -0.9213947 -0.747552 -0.2023802 -0.7228229 0.025459412 0.07469831 -0.31096476 0.7685692 -0.0077498234 0.17177603 1.0511724 -0.806992 -0.41339058 -0.58079 0.08523111 0.7467678 -0.09348735 -0.6655075 -0.12360948 -0.4034077 -0.47264227 0.00423717 1.1241145 -0.39424285 -0.27712622 0.39428866 0.0028478915 0.6669974 -0.71963555 0.22910115 -0.48015538 -0.0797891 0.22811097 -0.050201677 0.58503675 -0.13390455 0.18270068 0.7754252 -0.2807539 0.09281873 0.52628446 0.11967765 0.113213725 0.17670003 0.71331435 -0.4520907 0.5201075 0.024284782 0.6407471 -0.66621125
丧 -0.16336514 -0.19335765 0.37512144 -0.9346006 -0.55700374 0.3470092 0.42544204 -0.15386814 -0.19671674 -0.3494056 -0.07594868 -0.32013586 0.11046549 -0.3083889 0.2462628 -0.21116194 -0.035100505 0.080157384 -0.4050718 0.57762706 -0.7509733 0.57675385 0.5466537 -0.4911734 -0.46344075 0.025912516 0.43014178 1.0359651 -0.2101707 -0.45438066 0.3421452 -0.23622213 0.28886613 -0.14382653 0.8616549 1.0376444 -0.9014536 -0.41342634 0.10000159 0.19457164 -0.14441685 0.5072105 0.044447485 -0.114062995 -0.041913815 0.1833157 -0.710529 -0.3556713 0.7029573 -0.74879754
说 -1.4884739 -0.40282008 -0.7609756 -0.080606714 -0.50747687 0.25084236 -0.82536715 0.8199387 0.3520581 0.7005198 -0.15667753 0.21841857 -0.48801568 0.43375382 0.831898 -0.087662876 -0.6005275 -0.54513043 -0.24178387 0.88875145 0.079421975 0.116571136 -0.40429386 0.4236437 0.009403509 0.16665326 0.19876307 1.6446662 0.07184995 0.57173085 -1.2677784 -0.8417844 -0.44649085 0.20604369 0.6077324 -0.23403485 0.50771004 -0.18111606 -0.50574803 0.343919 1.8417017 1.0585322 0.765377 -0.024394104 0.2903418 -0.5857457 -1.220868 -0.15139943 0.8908527 -0.09809355
自 0.28419283 -0.5913544 0.31438956 0.40045616 -0.698485 0.4044108 0.26499334 -0.4709124 0.7126092 -0.037609935 -0.27229032 -0.7859232 0.47402757 -0.13615893 -0.17296898 -0.31163648 -0.11835836 0.63881433 -0.7944189 -0.056874078 -0.29481322 0.43152106 0.7755103 -0.40218547 0.30493134 0.43140742 0.41100034 0.084473245 -1.0749428 0.17483999 0.15134001 -0.0067884354 -0.06311264 -0.43567264 0.45339644 0.01037037 -0.25263488 -0.39622703 0.9643422 0.3788652 -0.7991312 -0.7612576 0.07087344 -0.20716809 1.6640376 -0.24032295 0.21571407 -0.07451469 0.525219 -1.1863356
用 -0.30142516 -0.5078569 -0.6403499 -0.61972845 1.6223009 0.20795105 -1.2686825 -0.7305262 -0.4703224 -0.25520405 -0.32417583 -0.045348693 -0.10615234 -0.6578673 1.150567 -0.63753915 -0.5835077 0.3418608 0.3996291 -0.62706816 -0.78647155 0.28736237 0.62549144 -1.0988303 -0.2090889 -1.10294 -0.5855027 0.8077384 -0.03495799 0.015130715 0.15914464 -1.0612729 0.5342674 0.12462287 1.2369525 -0.5544958 0.26725295 -0.08058524 -0.3273534 -0.9861204 0.3874411 0.039707646 -0.0045647616 -0.5473454 -0.120119244 -0.8395806 0.9095434 -0.015337175 0.16943647 -0.3853865
周 -0.23106807 0.6473185 0.31688756 -0.2818346 1.02055 -0.20527127 -0.3464678 0.22344683 -0.11228483 0.30342695 0.65919113 -0.29547775 0.09549354 -0.20421703 -0.21722847 0.36831567 -0.4549814 0.7264355 -0.1628566 0.44136232 0.3395592 0.44155955 -0.03974371 -0.4085171 0.018442648 -0.08698138 0.24267332 0.5432784 -0.5138474 -0.8695418 0.57697886 -0.007503777 0.18833788 1.16193 0.24596632 -0.09180103 0.30960032 0.16061549 -0.68324184 -0.47325137 -0.012263921 -0.5272728 -0.61383307 -0.45952874 0.7271675 -0.39473197 -1.3141739 0.37227485 0.011895852 -1.002591
颜 -1.2414408 0.9248716 0.36742893 1.1439681 0.9236945 0.113332205 0.15280199 0.34187776 -0.49590358 -0.89560425 -0.48081312 -0.5016175 0.033646937 -0.26549888 -0.83245623 -0.61751425 -0.48903805 0.4385512 0.6325126 -0.032244757 0.34296954 0.9862793 1.2402178 -0.46794003 -0.3201063 -0.09463352 -0.39798334 0.0382701 0.4504455 -0.27194276 -0.17549892 -0.330162 0.49153265 -0.170963 0.05797284 -0.9041394 0.35932648 -0.037664846 -0.48465344 -0.8391148 -0.41661775 0.516644 0.3186232 0.46749687 1.5608361 0.08117572 0.3000799 0.2126567 0.11453944 1.363484
年 -0.17112623 -0.011736739 0.39486045 0.90630656 0.48431802 -0.11612968 -1.0482788 0.5898788 0.6178135 -0.7016361 0.28369254 0.015407938 -0.3190972 0.46810988 0.98253125 -0.324143 -0.31721517 1.2370571 1.0142676 -0.12510064 -0.93450224 0.46628174 0.93646336 -0.10115605 -0.027706172 0.70249677 0.39110318 0.1548631 -0.1369919 0.27509174 -0.5585276 -0.11230651 -0.06878691 0.90125453 0.5340008 -0.67324734 0.98939496 -0.6958392 -0.035771757 -1.5706776 0.264295 0.23739778 -0.10578501 0.8656069 0.909639 0.3065111 -0.09608656 -0.43376526 0.3431605 0.39306107
告 -0.6988081 0.7399573 -0.026347684 -0.19797917 -0.28556746 -0.91466963 0.6127351 -0.3833674 -0.5951225 0.63288385 0.5564905 -0.016327096 -0.50177014 0.49116755 0.37613556 -0.1372275 -0.1455322 -0.07368698 0.2686351 1.0660793 -1.6335924 -0.46707067 -0.0065239593 -0.083687045 0.28078476 0.19149895 0.41582367 -0.03641832 -0.7990411 0.07016087 0.28607786 0.6247068 -0.48829684 0.692156 -0.09968786 -0.0633879 -0.6600017 -0.68755126 -0.43704742 0.2539312 -0.28742886 0.23829694 -0.22009528 0.178822 0.83532655 -0.74686456 0.20801201 -0.15631914 0.27261034 -0.54635876
十 0.5556458 0.3956054 0.31520233 0.22453274 0.84460115 0.10218857 -0.54531413 0.19094622 0.4645421 0.06444809 -0.8474723 -0.541145 -0.7225931 -0.60286736 0.48961213 0.32376945 -0.21417794 0.38023004 0.2967024 -0.16010807 -0.6174034 -0.14894426 0.87159365 -0.5672462 1.0553558 0.5737984 0.9497423 -1.0153815 0.3021881 0.018535664 -0.49004662 0.3011839 -1.0309969 0.60748565 1.3277196 -0.6432568 0.24655741 0.091101974 -0.6577397 -0.18867986 -0.09220437 -0.9403193 0.13177918 0.26620892 0.7599043 0.029769626 -0.27415287 -0.35311416 -0.36971626 -0.38895267
怨 -0.8963626 -1.521304 -0.2454166 0.25242174 0.86848 -0.029240409 0.14113925 0.97690284 0.25479227 0.5211735 0.23902911 -0.5007852 -0.7507579 0.16824739 -0.14134714 -0.59721476 -0.13799545 -0.30364448 0.4058563 0.42968845 0.39909458 0.3934642 0.81322765 0.051309 1.2562739 0.6687217 0.12636344 0.120409146 0.15440473 -0.104492486 -0.6226996 -0.355831 0.02711813 0.34049842 0.5200834 0.49631125 -0.6888306 -0.43990964 -1.0083834 -0.9024482 -0.54218066 0.3371459 0.3004577 -0.09865895 -0.114994645 0.54102 -0.26009732 0.1372382 0.1263896 -1.1792123
达 -0.13784258 -0.6346063 0.36180288 0.15461929 0.18202002 -0.481786 -0.28288162 -0.1761442 -0.64236504 0.82375485 -0.7613106 -1.5031875 0.4233128 -0.70620453 0.1675069 -0.309901 -0.7307571 0.009733544 0.18030693 -0.018100776 -0.59093547 0.0047160457 -0.23417836 0.87476826 -0.09148947 0.7523409 0.8597134 0.73238397 0.69735664 1.3127333 0.3487184 -0.22596182 -0.93770546 0.9453791 -0.38687363 0.48861936 -0.18435527 -0.28850147 -1.1033292 0.122233644 0.5768536 1.6839817 0.24484663 -1.0523446 0.22239773 -0.037868053 -0.2471134 0.16823556 0.47817075 0.34084988
孝 -0.5077065 -0.10987954 0.38522393 -0.46909052 0.76573086 -0.042441785 0.5789255 0.2737208 0.38828543 0.18174641 -0.2504821 -0.15017715 0.41905415 0.1557545 -0.013544448 -0.3665672 0.127868 -0.07546008 -0.6037472 0.15487598 -0.31305382 0.8721235 0.49332467 0.35576165 -0.66044754 0.6068176 -0.13305955 1.134374 0.9693977 -0.4123008 0.41392875 0.01118106 0.5282687 0.78234094 -0.075313255 0.8332785 -0.57193685 -1.0982792 -0.3439499 -0.17994255 -0.07991891 0.83806646 -0.03650891 -0.3046195 0.5472895 -1.1632845 0.4247175 -1.0076563 -0.07742501 -0.58261317
弟 -0.55243534 0.7461954 0.8898433 0.11793998 0.62543803 -0.59112775 0.5285052 -0.3803274 -1.2381847 0.38626269 -1.3735718 0.28701344 -0.10335151 0.6728215 0.27295932 -0.19101991 -0.0924709 0.07677059 -0.39287174 -0.1753835 -0.837474 -0.33619985 -0.13351622 0.0693813 -0.2904891 -0.20157671 -0.2242027 0.9596261 -0.53679097 -0.2034866 0.15336144 -0.7753323 0.3630523 -0.36438018 0.52444786 -0.5595133 -0.49009997 -1.0849314 -0.6945008 -0.09501581 -0.39277098 0.8674945 -0.019451983 0.5724047 1.2253844 -0.7883821 -0.82372075 0.050762065 0.14963202 -0.6300974
至 -0.9420641 1.06382 -0.1261134 -0.30609474 -0.48734796 -1.0283985 0.19212878 -0.99127054 0.2908367 0.98943466 1.2295854 0.22542551 0.2908307 0.23032351 -0.30176976 -0.27863768 -0.3306365 0.33182427 -0.37324217 0.5768478 -0.2659278 -0.5616104 0.14941901 0.21885207 0.13854998 1.6594911 0.19178984 0.29732713 1.0377901 0.05370825 0.36958456 -0.07475636 1.0711244 -0.15522905 0.09347427 -1.3679634 -1.1906823 -1.055652 0.043513782 0.06522215 -0.23142333 1.4797869 -0.4581162 0.21754687 0.14209922 -0.4980369 0.10342126 -0.8110464 1.0966879 0.46865955
先 0.15379128 -0.047996663 -0.16354848 -0.78352255 0.3980492 0.6168159 0.04609027 -0.00506574 1.1708369 1.0437475 0.3047831 -0.35683513 0.1690841 -0.5672326 -0.42321306 0.46809536 -0.10065935 0.36915234 0.008745307 0.26929784 0.002803228 0.36377463 0.33806172 0.46690527 -0.12689003 -0.25227728 -0.2619475 0.23163828 -0.41151607 -0.21973875 0.08917197 -0.515234 0.3755622 0.48452732 1.1537111 -0.7941315 0.19553281 -1.4941938 -0.36017242 0.17410721 0.67126185 0.28073487 -0.40403232 -0.21755019 0.91508776 0.6921011 -0.20456763 0.30575916 0.59097934 0.85468906
师 -0.34245297 -0.34359717 -1.0271922 0.5240101 1.4608923 -1.3102722 0.88169056 -1.1694773 0.57622415 1.4845974 0.8470129 -0.1160166 0.3184898 0.038229227 0.57265455 0.44963515 -0.29286134 -0.348974 1.0335957 -0.35650122 -0.16511843 -0.5112305 0.77371424 -0.17191628 -0.7119974 -0.47354302 -0.028736977 0.10471276 -0.56905293 -0.28271294 -0.7461858 0.25288734 -0.6505378 0.45168605 0.32222566 -0.07194957 -1.426768 -0.47999483 -0.36534125 -0.7475342 -0.55853266 0.1437751 0.16957669 0.9503836 0.5076235 0.03657731 1.1479781 -0.4969038 0.93492055 -1.2227467
女 0.5019742 -0.22468495 -0.26689336 1.4289842 1.0173492 -0.11699041 0.113458134 -0.14105392 0.3366389 0.5517314 -1.0691739 -0.5169985 -0.114370145 -0.9969091 -0.3994174 -0.30737633 -0.60651803 -1.137259 0.26887545 0.06829284 -0.06636236 -0.47454044 1.8252468 0.47308597 0.17312592 -0.011277502 0.0843529 -0.43036672 0.9948985 -0.885382 0.62252027 0.20125686 -0.13630717 -0.21988168 0.9699065 -0.58856136 -0.91408134 -0.6682919 -0.18630031 0.89331096 -0.8172115 -0.22918102 0.14464001 1.4709941 0.77825505 -0.20116767 0.15269972 -0.4796523 0.09435543 -0.109236665
多 -0.5411236 0.09937711 0.61879975 -0.07782059 -0.06366064 0.47880608 -0.01460842 0.52300996 0.2537962 -0.6499964 -0.12014676 -0.4817813 -1.1162871 0.6811997 0.39334238 0.03025682 0.070316695 -1.056262 -0.077347845 0.79648477 -0.16969183 0.593635 0.3293428 0.8971844 -0.30218846 0.6900549 -0.5847861 0.7186493 0.8099594 0.02360672 0.23723793 -0.3198207 -0.34300882 -0.12097414 0.8424457 0.49499065 0.13382371 0.30954927 -0.11376799 -0.28381005 -0.21963404 0.010268082 0.184028 0.6061101 0.8085661 -0.1527272 -0.4955125 0.08044144 0.5995568 0.46525294
忠 -0.18626048 0.26919088 -0.38753858 0.6710822 1.4886515 -0.49834424 0.25298715 0.3735487 1.1451714 -0.14309056 0.14964849 -0.6695831 -0.013068497 0.18314932 0.10110723 -1.2575263 -0.45762536 -0.53348136 -2.064713 0.597561 0.40774268 -0.32149708 0.18388678 -0.21230443 0.16889858 0.040519997 1.1080451 0.44836977 -0.5119009 -0.729258 -0.049809303 0.36645746 -0.29213983 -0.4022211 0.3932605 -0.022733696 -0.21852411 0.06333256 -0.4364573 -0.11308433 -1.046343 0.41820586 -0.3503996 0.019746186 0.98825914 -0.8463035 0.62085766 -0.5217014 0.6877242 -0.74370134
四 -0.48801795 1.2437837 -0.50336766 1.0036391 -0.48532337 -1.548476 0.10396981 0.6207207 0.54721755 0.19966151 -0.10061575 0.24667357 0.10757065 -1.147202 -0.12528402 -0.1773969 -0.8829657 -0.21761878 -0.044824585 0.3082745 -0.0895838 -0.6882972 0.8786948 -0.46878245 -0.06913742 0.2948715 0.23367018 1.4177285 -1.1386876 0.16184635 -0.56602466 -0.047988325 0.5148426 -0.32432905 -0.5251719 -1.0068883 -1.2434312 -0.030430099 -0.6837228 -0.1588353 -0.46916497 0.59660095 -0.7001654 -0.10943287 0.6993355 -0.21765 0.55443794 0.27249557 1.0549179 -0.24791366
疾 -1.0717942 0.047386304 0.09083694 0.13434121 0.15619476 -0.5088561 0.02765501 -0.032140333 -0.018130513 0.113867536 0.12129242 -0.06858147 -0.30622974 0.09316137 0.48633045 0.15555197 -0.2238515 0.35705715 0.53866345 0.6230433 -0.4082349 0.41732615 -0.45259044 -0.7768048 -0.25490332 0.9364027 0.2828757 0.3588281 -0.33692017 0.79370093 0.36725318 0.85106176 0.17073977 0.24090162 0.29752028 0.39328256 1.0996283 -0.22632907 0.36737907 -0.5723209 -0.32329497 0.055490103 0.83827674 -0.27499303 0.56729406 -0.12611608 0.22681451 -0.1490847 -0.0018829618 0.08546318
服 0.026483312 0.7400327 0.8122037 -0.25294316 -0.22638859 -0.7326926 0.57874537 -0.36035037 -0.28606385 0.934239 -0.45791548 -0.31089795 0.68876874 -0.6869783 1.0164775 -0.55098397 -0.77712333 -0.21556598 0.52294767 1.9896641 -0.31514603 0.12600264 0.1137474 -0.27010983 -0.20010489 0.73824 0.5062538 0.91029423 0.030775199 0.92209154 0.16683325 -1.3160398 -0.8960606 -0.93859226 0.13407816 -1.1496123 0.3228643 0.6492824 -0.0810165 -0.33281466 -0.09158307 0.30874276 0.9333309 -0.66202945 0.13755378 -1.0409461 -0.7593007 0.56649595 0.47605222 -0.102816485
氏 0.36322385 -0.09298338 -0.09763217 0.10387492 0.5757957 -0.09078233 -0.8440792 -0.86511225 -0.54860014 0.9537399 -0.52272475 1.1780447 -0.197546 -0.99751544 -0.42780572 0.04205513 -0.2905543 0.26862517 -0.16102985 1.1911393 -0.9456741 0.9574324 0.899826 -0.48950493 0.19942048 -0.068946086 -0.5169495 1.0193322 -0.42893642 -0.14417681 -0.6040082 1.0053648 -0.10545502 0.26231483 0.12321954 0.7097728 -0.5638951 -0.16286395 0.378646 0.026474725 -0.07108075 0.5768387 0.46015215 0.25425076 0.17775016 -1.0502257 -0.22895761 -0.83528167 0.10947981 0.5754662
冉 -0.29363766 0.060019713 0.51963854 0.59009475 0.47858763 1.6724741 0.49155295 -0.23992501 -1.0756551 0.10027964 -0.48293158 -0.4129484 -0.33737773 -0.9428572 -1.2419764 -1.2811191 -0.33821923 0.3738681 -0.20177042 -0.2475373 0.14516339 0.296214 0.6969077 -0.7974697 -0.52347463 -0.25977853 0.19059443 -0.06806827 -0.5847557 0.7695661 0.24157737 -1.361964 -0.41540375 0.3905465 0.2431027 -0.14968309 -0.35981143 0.2796144 0.27103513 0.5056594 0.28666502 0.55207783 1.1103008 -0.47021425 2.0238376 -0.56818557 -0.15775174 0.19007504 0.6804572 -0.135017
将 -0.42233795 -0.26670495 0.13578556 0.3748515 0.5573556 -0.09878359 0.54078346 -0.68519956 0.5206418 0.4825745 0.2983175 -0.052645225 0.8726862 0.033960126 -0.20577832 -0.72410405 -1.0882684 -0.20506383 -0.30234864 -0.20832393 -0.2497169 0.053151365 -0.3194562 -0.5356875 -0.170175 -0.4058915 0.44250202 0.337398 -0.10289782 -0.40337974 1.3263522 -0.42268553 0.9564051 0.6104099 0.44460186 -0.3448258 -0.7165355 -1.0866275 0.54843754 -0.031861994 0.17443036 -0.9314708 -0.19800833 -0.17394964 0.36293793 -0.45381784 -0.10544223 -0.16898642 -0.34575734 -0.9304039
士 -0.5777841 -0.505401 0.12962888 -0.49610418 0.23573351 -1.1782755 -0.9121902 0.17646268 0.526768 -0.18830876 -0.1739449 0.165583 0.5370647 0.28457662 0.06807891 -1.6051394 0.12018655 0.1631669 -0.9057823 -0.13328302 -0.6704105 0.31783405 1.0315108 1.1116747 -0.023203637 0.19452652 -0.8238107 -0.02037567 1.0279571 0.19869734 -1.1267573 0.5748583 0.666143 0.39036548 0.41680086 -0.21635246 -0.70528555 -0.6072738 -0.7641523 -0.9278134 1.1121625 0.48428044 -0.17412911 0.4573174 0.606332 0.7069391 -0.1758432 -0.5820864 0.49267888 -0.122853786
丘 -0.5898946 -0.61093175 -1.2041422 0.1339399 0.09555831 -0.8516561 0.117450446 0.16315754 0.35528094 0.1290214 1.1303759 -0.4769243 0.47893083 -0.28824607 -0.11069827 -0.8062467 -0.13746636 1.1996979 0.30415523 0.5075754 -0.78609455 0.39527395 0.21493997 0.0066257827 0.03756998 -0.06478964 0.28702104 1.4468821 -0.44984698 0.86318046 -1.3436468 0.058802832 -0.08160776 0.764333 0.55273694 -0.03372479 -0.52844507 -0.015895844 0.02102866 -0.35799187 0.16556491 0.61474663 0.6407915 0.7766091 0.9926728 0.5030137 0.7899084 0.21910055 -0.00016968002 -0.537596
身 -0.088609636 0.08440779 0.59714127 0.037700452 -0.35783935 -0.08101295 -0.035931706 0.4743429 0.17099294 -0.03353504 0.10508184 -0.9661851 -0.25816333 -1.1424075 -0.0036590635 0.51691246 -0.2012092 -0.5829653 -0.95672184 -0.0036998861 -0.60625947 -0.16991645 1.5589281 0.008812861 -0.909596 0.9424847 0.29749253 -0.047100123 -0.57979494 -0.10705895 0.36887804 -0.23911074 0.2667312 0.20459534 0.36379135 -0.58748734 -0.36589375 -0.41432792 -0.31419134 -0.6026829 -0.57230765 0.18592665 -0.38180804 0.38643083 0.268431 0.6595387 1.1231599 -1.0114548 0.3325972 0.40028185
入 -0.57217157 0.5219858 -0.1744554 0.2772621 -0.27765784 -0.9454293 0.15285629 -1.0104249 -0.19627297 0.06060214 -0.041324735 0.06123466 -0.07214475 0.26870206 -0.04651628 0.7658927 -0.6801157 -0.14128737 0.24402082 0.039247718 0.18561573 -0.027862173 0.7064865 -0.7731185 -0.46436715 0.8607365 0.19176981 0.47542205 -0.027765073 0.48940417 -0.45304525 -0.058377597 0.5663199 0.49525222 0.1391707 -0.003561222 -0.3134015 -0.07794125 -0.03884595 -0.0543275 0.13569337 0.37388408 0.37084666 -0.30876753 0.06052571 -0.48756653 -1.756132 -0.2073494 0.08227591 -1.062125
志 -0.73412144 -0.046876807 0.77863103 -1.0906872 0.15282618 -0.3772495 0.9547556 1.0151787 0.12305183 -0.29258344 0.71382713 -1.3741447 0.065889694 -0.022540461 -0.1567302 0.4459644 -0.5150689 0.16838706 0.51816225 0.8035246 -0.7476555 -0.6539496 0.7190125 0.4975722 -0.1633 0.6526277 0.04264071 0.19553028 0.061798118 -0.8114764 0.04221674 -0.24621062 0.4475356 -0.1811271 0.49880245 0.24515495 -1.2398435 1.5733012 -0.73012793 0.15039152 0.3259151 0.78797686 0.133728 0.470637 0.45500347 1.3236375 0.0064125154 -0.45275435 0.52281034 -0.35369134
耻 -0.19145206 -0.8630618 0.6298391 -0.28580105 0.25983816 -0.13580628 0.6548436 -0.16075714 -0.23392372 -0.16846187 -0.1831201 -0.23461597 0.08810311 -1.162784 -0.09763179 -0.92283136 -0.4996222 0.44977766 0.3672472 0.8697958 0.027799478 0.8879809 0.14325297 0.9586091 0.03547919 0.8112035 -0.0753302 0.89142895 -1.1551123 0.13924769 0.21341845 0.39813358 -0.3654399 -0.03466761 0.7862461 0.9111886 -0.549555 -1.0367751 0.44171056 -0.09319705 -0.38863626 0.5411813 0.0047577405 1.5178944 0.23534563 0.93817675 -1.3420527 -0.52332884 0.41756096 -0.5174929
失 -0.32812777 0.07368227 -0.67257935 -0.016540315 0.32082948 0.15607123 0.8674464 0.13124889 -0.49170238 -0.31394196 -0.55094045 -0.08098788 0.9296761 -0.89844024 0.14009361 -0.68232155 -1.1411333 -0.5045746 -0.35081306 0.21085177 -0.89759076 -0.28447253 -0.36972994 0.7419838 1.1449519 0.5932082 0.2894649 0.49407586 1.0018821 -0.40055475 -0.4301969 0.023016844 0.6772721 0.2691632 0.54084474 0.29457504 0.34191883 0.0940895 0.029587548 -1.9927424 -0.3625205 0.68200225 -0.060196005 0.08763413 -0.1915949 1.0169787 -0.07158799 -0.12048291 1.9914792 0.0029022237
安 -0.28302148 -0.22985683 0.50136775 -0.14194411 0.8499096 -0.5812399 -0.12120603 0.88330394 0.062784225 0.15616696 0.24451643 0.2272053 -0.11299042 -0.54565746 0.14310469 -0.6152508 -0.29570863 0.28203982 0.14346063 0.8322536 -0.12450357 0.2513427 0.880044 0.6043632 0.54460317 -0.33618104 0.1893495 -0.3235722 0.41386515 0.0067066103 0.66048 -0.09742867 0.26696265 -0.2686414 0.30802542 -1.7003266 0.2139726 0.5631402 -0.96968734 -0.8443702 0.034581345 0.5804568 0.6347255 0.6379056 0.15265295 -0.13873667 0.9970476 -0.59856474 -0.11433643 -0.6700389
富 -0.058351815 0.4334826 -0.8565161 0.54104334 -0.5913617 -0.975083 0.07274461 0.6499228 -0.725977 0.58658224 -0.10862317 -0.65206033 0.35815448 -0.6764256 -1.0789026 0.3269214 -0.12942626 -0.2833507 0.1580916 0.33490402 -0.78614736 0.36946028 -0.16464709 0.3407399 0.76510173 -0.03560088 1.1091683 0.589279 0.69076383 0.43979034 0.51786447 -0.38814148 0.5688717 0.3031077 0.11350417 -0.45836276 0.19900098 0.26928863 -0.7301704 -0.5862024 0.26915166 0.6222201 0.48136705 -0.28884327 0.94745934 -0.96791565 -0.5568783 -1.3370464 1.0874451 -0.24240476
赐 -0.9983692 0.12749082 -0.04627059 -0.34325144 -0.5418451 0.25559363 -0.41232583 0.09307827 0.4428536 -0.67772454 0.17246425 -1.0510792 -0.39530882 1.2864814 0.023648247 -1.0018651 -0.096142285 0.16430488 -0.07902975 -0.76534694 -1.0990938 -0.014199908 0.3382647 -0.33816245 -0.7503241 -0.15375899 0.72870475 0.83323354 0.32534024 0.4710035 0.050650876 -0.55940133 -0.08194029 0.5268744 0.3621152 -0.7581011 0.17100827 0.59921294 -0.30066103 0.090683855 -0.043209594 0.47838235 1.2074566 -0.5849945 1.4295015 0.026667763 -0.9434772 -0.40783125 0.21051438 1.0084832
患 -0.058410868 -0.05810639 0.4508642 -0.2734587 -0.83436567 -0.4650956 -0.2429249 0.44691962 0.28977376 -0.33472744 -0.5194804 -0.076761745 0.12086505 0.48145223 -0.49594304 -0.39755645 -0.6761428 0.043011595 -0.58321536 0.4230893 -0.4150844 0.0074016606 0.9888601 0.8794703 0.66239107 0.19603603 1.171742 0.12611277 0.72100437 -0.62423086 0.88782704 1.4674866 0.21830793 -1.0760915 1.2607951 0.6218818 -0.20686758 0.87755316 -0.6895488 -0.8420945 0.3105998 0.7660691 0.5564936 1.433506 0.09139169 0.67773914 0.25937346 0.016244566 1.0915712 0.49178633
百 0.21011168 -0.070202194 -0.6124565 0.8831847 -0.750377 -0.80985445 -0.14754081 -0.24795753 0.88433474 -0.070146434 -0.6140456 -1.0637956 -0.816191 -1.014745 1.2207887 0.76546896 -0.69352347 -0.7447528 0.87715936 -0.35700566 -0.068325706 0.2889729 0.81380534 -0.60722655 -0.22763366 0.8228806 -0.30469677 0.2754478 -0.56921655 0.66443807 -1.4248319 -1.1473659 -0.010599917 0.60286415 0.54730445 -0.019474167 0.6507659 0.4293198 -0.6645072 0.30587837 -1.3843342 0.30230144 0.86793035 -0.01988492 1.1573746 0.13137197 0.13366488 -0.014207039 0.3956277 -0.16221708
回 -0.95475924 0.36426735 -0.7251397 -0.8936589 0.77170354 -0.2842491 0.11341623 0.38591194 -0.58211714 -0.30174205 -0.30968902 -1.3290341 0.29107615 -0.44990227 -0.20599115 0.3163852 -0.10180044 0.3529058 0.54439473 0.03400987 -0.82630384 0.49926522 0.29480132 -0.35563388 0.049628418 -0.9541542 -0.036497276 0.7392035 -0.088306695 0.04433052 -0.8508089 0.2764425 0.62805057 -0.36828074 0.7897639 0.116452195 0.62768376 -1.1368992 -0.8652811 -0.13685925 -0.48891592 0.9145346 0.012194527 0.08322409 1.0136981 0.19135593 0.22074664 0.6212897 0.45693 -0.26249686
宰 -0.4349398 -1.151566 -0.33299953 -0.44388816 -0.32359916 -0.87326926 0.47686002 -0.97012335 -0.055604696 -0.1488566 -0.6386042 -1.0583961 -0.4266414 -0.5557195 -0.5153012 -0.5298949 -0.019642409 0.30430606 -0.29459003 -0.13854718 0.541536 -0.32912627 0.55188453 -0.72170997 0.17414455 -0.8550453 -0.590808 -0.3273536 0.4162988 -0.13863695 0.115920484 0.1306865 0.6116447 0.4236606 0.55788827 0.10924965 -0.15966 -1.5097101 0.37346444 -0.3796378 0.32888612 0.8246177 0.93871164 0.7649562 0.84020406 -0.19696662 -0.37293696 -0.5212776 0.51507866 -1.8294336
朝 -0.37640008 0.00694042 -0.37490898 -0.45870918 0.048024416 0.20128192 -0.5110661 -0.49991563 0.393008 -0.026475305 -0.6919622 0.12404237 -0.11472603 -0.034399103 -0.7255976 -0.18794747 -0.27032527 0.26180223 -0.86511177 0.15143959 0.08236849 0.6192143 0.5206521 1.170016 0.6478704 0.16789918 0.12062887 1.469352 0.2525767 1.0578237 1.4087073 -0.23683798 0.7627873 0.90492207 0.44561186 -0.35977298 0.12311802 0.34770668 -0.39793107 -0.10913521 0.10666099 0.54916716 0.05984458 0.34925586 0.4249812 -0.4440832 0.09175926 0.31718162 0.38700408 -0.15436704
莫 -0.19722873 -1.2450876 1.0676183 -0.62205577 -0.14963035 -0.5129305 0.56462383 -0.24908791 -0.382298 0.4555851 0.673754 0.62088525 -0.66252565 -0.04116114 0.045129925 -0.31967714 -0.5770401 0.3519287 0.6322237 0.047857836 -0.96253926 -0.56470907 0.6633295 -0.37449646 -0.10571173 0.08426694 -0.87839484 -0.26610953 0.26355505 -1.1979475 -0.92255193 -0.18404344 -0.1618963 1.6567342 1.1706749 -0.4826503 1.1261868 -0.08484431 0.3141697 -0.87916094 0.42183107 -0.047460802 0.4198254 0.006365549 -0.1530722 0.5734799 -0.05128514 -0.28452748 -0.10030062 0.70895857
若 0.44112706 -1.0043005 -0.71280193 0.4393341 1.0939184 -0.2981982 -0.7282741 -0.16438442 -0.5674053 0.27728534 0.77075666 -0.72549236 -0.092233725 -0.6558049 -0.34515855 0.54104275 -0.8215563 0.6054621 -0.40933952 -0.3430625 -0.6211072 0.075596355 1.2632306 1.4164766 -0.08501441 -1.1930033 0.88256484 -0.26821116 1.1972693 1.2296352 0.11804017 0.7751763 0.4434384 0.36275852 -0.15872952 0.49212095 0.20210876 0.40868315 -0.23154372 -1.3625365 -0.3796147 -0.24126932 0.17613101 -0.37888643 1.2333056 0.20362899 -0.5380918 0.30692554 -0.044259124 -0.69783795
云 -0.50386775 0.16412468 -0.16801396 0.96314675 0.32014668 -0.59339684 -0.3012572 0.58083564 0.20213592 0.31444564 0.52360326 0.6485791 -0.4411821 0.752461 -0.19832177 -0.7389752 0.05795805 0.1701454 -0.63272345 0.5801135 -0.28689355 -0.21310057 0.27489263 -0.44887725 0.08666998 -0.7614004 0.38099083 0.21145245 1.1645266 0.24821271 0.27810726 0.418186 -0.33763784 -0.08332632 0.22518241 -0.09193361 -0.6549975 -1.0312015 0.19936611 -0.5091436 -0.43399778 -0.1250016 0.3327146 -0.51524633 1.5098784 0.9811212 -0.14620097 -0.38429326 0.69184786 0.5614772
孙 -0.4486889 0.38867363 -0.41926062 -0.4152652 0.8319728 -1.1681511 0.41125956 0.2456372 0.39186466 -0.26406968 -0.35386738 -0.34670076 -0.471446 -0.09200432 0.46007794 0.7587706 -0.5085889 0.7012387 -0.13646156 0.4435263 -0.32906565 -0.12779924 -0.17208262 0.502296 -1.0752453 -0.89162636 -0.7663274 0.92111033 0.09360564 1.2643552 0.57332367 0.87808865 1.3081223 0.38441074 0.4147383 0.3682967 -0.09868153 -0.7731942 0.19321725 -0.3684732 -0.20861772 0.919642 0.857267 1.6420324 0.3269594 -0.51205873 -0.8308506 -0.6182362 0.07613452 -0.1388438
或 -0.26449335 0.08418482 0.1585086 -0.12489874 -0.29643553 -0.8122747 -1.0291767 -0.02286923 -1.6670136 0.11332008 -0.19533834 -1.3280813 0.30494636 -0.81921285 -1.1002169 -0.66114825 -1.0017889 -0.044437777 0.50511074 0.11450257 0.34760836 0.55190474 0.59421605 -0.3569075 -0.080486715 -0.2720559 -0.14182521 0.62852705 0.92356235 -0.2618512 0.40379798 0.3117115 1.327454 0.63010794 -0.7096881 0.0044003865 0.06953902 0.8129261 -0.020147067 -0.36855882 -0.15325022 1.653827 -0.5140558 0.5907872 1.0171565 -0.32757896 0.48691764 -0.4209164 -0.39197448 -0.1761154
勇 -0.31668225 -0.32629064 0.7452212 -0.4627224 0.42743456 0.09845485 0.10361066 0.73548317 -1.033934 1.0212653 -0.15147002 -0.8314051 -0.58368325 -0.97424155 0.08621337 0.43133238 -0.5904449 0.13188103 1.3957372 -0.4624861 -0.6654261 0.5343864 -0.07675565 -0.6276413 0.050151408 1.1732846 0.7000544 0.39505336 -0.23089816 -0.3975053 0.53812087 0.17377 -0.83593184 -0.17184246 1.0036815 0.6501755 0.018336322 -0.500374 0.7486773 -0.3914695 0.6263726 -0.53436023 0.06863633 0.14675984 -0.027761064 0.3567311 -1.167279 0.59989846 0.8382199 0.35622522
孰 0.30592403 0.3101958 -0.3076912 -0.68657607 -0.16463304 -1.1390939 -0.18544525 0.6228199 -0.08798351 -0.49775887 0.018519158 -0.18066216 -0.73458266 1.2810897 -0.28099558 -0.42583022 -0.37583828 0.34968528 0.43875882 0.056855895 -0.1447386 1.0651728 0.73171085 -0.43805924 -1.2803768 0.0141816065 -0.25594574 1.1968986 -0.068323724 -0.79758465 -0.31613693 0.39679062 0.5073961 0.3844544 1.0112871 -0.52717084 -0.04299978 -0.4009743 1.0221288 0.4474749 0.8567782 -0.04467232 0.15281075 -0.374535 0.68905914 -0.14512943 -0.5547806 0.39950848 0.6933311 0.8246412
叔 -0.838978 1.2513899 -0.53455913 1.1940165 0.26075682 -1.3908889 -0.18828702 1.3570993 0.4597967 -1.1828882 0.10738799 -0.30359218 0.0843189 -1.0415965 -0.8475284 0.036728475 -1.0261692 0.42747423 -1.5801444 -1.1296757 0.95973384 0.5744339 1.962846 0.04574883 -1.6190008 -0.35121801 -0.5702019 -0.9387205 1.3728216 0.76013905 -0.27678376 0.61027855 -1.0967804 0.38874036 0.4687636 1.1105207 -0.502489 -0.40869194 -0.6892952 0.7485797 -0.5712079 0.37713996 0.8151271 -1.2324393 1.6740501 -0.7692066 -1.2310212 -0.78629243 -0.23376654 -0.36761424
