1352 100
， 0.005673686 -0.005520959 0.018673545 0.004710421 0.0022857904 -0.030390615 -0.021351662 -0.048871767 -0.028567586 -0.021411357 -0.025115505 -0.16346677 0.09893974 -0.05026557 0.0030584424 0.042833347 0.05457562 -0.043303333 0.0027441487 0.065535605 0.057240754 0.08815341 -0.049687453 0.020455696 -0.0096980715 0.027209377 0.016156843 0.07296131 0.032521743 0.11600002 0.025432806 -0.040027767 0.07251203 -0.13646334 -0.028352166 0.04007589 -0.061155953 -0.008324191 -0.13810344 -0.0056318985 -0.106014736 -0.11203009 -0.04948194 0.014734607 -0.1197504 0.052254777 0.039446082 -0.003144223 -0.06922416 -0.01396815 -0.23618889 0.06273745 0.00892781 0.02785065 0.03882339 0.0638278 0.0031721324 -0.0025653178 0.005286559 0.12489655 0.083524354 0.069239184 0.038659573 0.12388976 -0.073876776 -0.0146582415 0.037543878 0.075419426 -0.04243581 -0.041248657 0.03833678 0.016626561 0.07730296 -0.025889535 -0.051237278 0.07290042 0.016025098 0.83600324 0.014178689 0.050985023 0.012385347 0.023777835 0.041918796 -0.07646704 0.027664926 0.040697303 -0.025171941 -0.0049960543 0.0024238583 -0.032703187 -0.022545159 -0.035288244 -0.06752689 -0.06691326 -0.22074027 -0.033476215 0.01855191 -0.029106913 -0.0035261216 -0.046795204
子 0.095593676 0.012739586 -0.10306684 0.0646822 0.02331274 0.102756456 -0.029330939 0.10607675 -0.11968407 -0.045610964 -0.117339276 0.0014332321 0.030580726 0.13172114 -0.011757746 0.039308663 0.036708303 -0.08029823 0.08816804 -0.011112733 0.022739735 0.040410817 0.051157363 0.017633272 -0.022902524 -0.011890657 0.03628765 -0.09608131 -0.015448326 -0.0008211015 0.14630997 0.19488004 -0.027517308 -0.04571824 0.059608445 0.072948754 -0.062845744 -0.01050512 -0.041880596 -0.011595334 -0.14351495 -0.022701256 -0.053347882 0.1310322 -0.055122636 0.1513843 -0.01591395 0.028459229 -0.049077313 -0.013291626 -0.069199994 -0.031126186 -0.028830247 0.110100545 0.07859592 0.06987649 -0.04714201 0.057811722 0.03149107 0.021116279 0.09038481 -0.10738517 0.16438913 0.04009867 -0.076567926 0.07979133 -0.0029356661 0.1237283 0.06506708 0.10217593 -0.007936609 0.077102266 0.05232188 0.08354748 -0.044938967 -0.035098176 0.038044248 0.15376621 0.03479972 0.007536325 -0.0609168 0.0073381616 -0.084294975 -0.07051103 -0.037349973 -0.055886615 -0.9683451 -0.002846885 0.061676424 0.11860017 0.00030620143 0.0073764613 -0.046491668 0.0021541943 0.020441698 0.03654337 0.052596953 -0.029989863 -0.050607476 0.032019325
。 0.0762659 0.03915481 -0.04003276 -0.1171134 0.0739954 0.08216881 -0.089019336 -0.047581073 0.026363188 0.08901837 -0.10980645 0.010357488 -0.17437726 -0.041773364 0.065295324 -0.053930152 0.01932841 0.0892257 -0.0005731722 -0.20284235 -0.0640702 -0.04402063 0.049394134 0.017526934 -0.0010525757 -0.096440494 0.1673827 -0.071051955 -0.02662563 -0.070272185 0.03339398 0.18209533 -0.05661766 -0.08640201 0.03641732 0.0723425 -0.063154064 0.04153805 0.104887836 0.044265218 -0.06928985 0.025171231 -0.023030426 -0.039135166 0.10219169 0.051744297 -0.06579097 0.08611242 0.04597469 -0.003147821 0.031270865 0.05678886 -0.07666328 -0.02932789 0.039017763 0.10933665 0.020018835 -0.017938277 0.014193466 -0.020139884 -0.07974613 0.05593681 -0.04978301 0.112908125 0.027799655 0.048739687 -0.014973984 0.0417621 0.048962057 0.055400416 -0.18119921 -0.016679613 0.09371788 -0.040354278 -0.042843293 0.054922428 0.11440474 0.5097224 -0.11513365 0.050222404 0.037630577 0.078656696 -0.004693867 -0.08774112 0.027521404 -0.11183512 -0.55658567 0.115236446 -0.0045212344 -0.16664523 0.025271604 -0.07245345 0.07951379 0.06797055 -0.54025507 -0.06674225 0.06151117 0.05245048 0.026305882 0.1296223
： -0.05861899 0.035625365 0.03757243 0.14284626 -0.095545046 0.0012516476 -0.15513289 -0.028037509 0.00061753707 0.1417655 -0.029338066 -0.006707901 -0.0032854779 -0.07436832 -0.0175446 0.038530733 -0.039465018 0.115409836 -0.14811894 -0.12210328 -0.027827693 -0.11207643 -0.0070826886 0.06204009 0.053658087 0.07149916 0.05248201 0.052677758 -0.05931262 0.11373198 0.07856583 0.05376288 -0.033160545 -0.037077058 -0.11600097 -0.073765114 -0.03481193 -0.044642538 0.04093241 0.03682005 0.032799505 -0.05794975 -0.006996357 -0.073119044 -0.029704165 -0.1343809 0.05683392 -0.027742451 -0.10397381 0.046387617 -0.035391625 -0.14945509 0.010346911 0.0270219 -0.031950023 -0.13619474 0.045177646 -0.040455777 -0.04356579 0.11747086 0.051497243 0.08283518 -0.048789013 0.066838175 -0.19325268 0.0031168533 0.0151075395 -0.0788852 0.0058859214 -0.1278756 0.033282347 -0.046026897 -0.015624941 -0.082474545 -0.062517226 0.09560577 0.04720343 0.20610352 0.028699622 0.0900473 0.032323588 -0.017690726 -0.014584259 -0.11240368 -0.010833617 0.14013422 -0.8588742 0.010053655 0.051653698 -0.12277554 0.015074913 0.0022079085 -0.010781382 -0.040825 0.024798425 -0.045087993 -0.062209334 0.012769577 0.03866358 0.06045129
曰 -0.0011466058 -0.019598125 0.040433545 0.11859853 0.121090196 -0.09136716 -0.10081211 0.029206576 -0.026506394 0.059373688 -0.02335161 -0.118342094 -0.01318045 -0.06734296 0.041651186 -0.0070571937 -0.08556426 0.06584884 -0.07723943 -0.12461646 -0.002051031 -0.053475365 -0.09053155 -0.09696558 0.032071926 0.09923001 0.06605524 -0.015238952 -0.08283205 0.013641556 -0.050306182 0.1336509 -0.1107754 -0.018203584 -0.08195686 -0.039176192 -0.0049491106 0.02031815 -0.055150684 -0.033948377 0.073646374 -0.068776645 0.029131481 -0.16023658 -0.097259074 -0.07576628 -0.014212832 0.18006366 -0.09124722 0.033589482 -0.045832336 -0.10199819 -0.03326281 0.19728124 -0.031719364 -0.021768184 -0.007317359 -0.05814961 -0.010975311 0.08235381 0.08476945 0.04047703 0.056293134 0.026780609 -0.058011148 -0.020400153 -0.022641705 0.06743411 -0.017802123 -0.12051436 0.0091507835 -0.045859493 0.049611557 0.0025700796 -0.030832646 0.029154474 0.05408256 0.1379012 0.028145222 0.0669977 -0.08142114 -0.027293192 -0.02097948 -0.06311632 -0.1773876 0.1181732 -0.9755011 0.0077317497 0.007558511 -0.029478287 0.043210395 -0.015561755 -0.065474086 -0.0037307742 0.09938182 -0.039824884 0.020208457 0.037655592 0.03323496 0.06535947
之 0.09874696 0.028484287 0.026975594 -0.074155256 0.09448892 -0.044638205 -0.300381 0.08687398 0.02603932 0.074958965 0.08764032 0.06817999 0.0507582 -0.20526119 -0.04531402 -0.06087403 0.039298914 -0.06544988 0.21218108 0.107260905 0.008395784 0.018479276 -0.017269684 -0.057896044 -0.002973566 0.016919369 -0.13485658 0.010996983 -0.06602321 0.1456713 -0.06716937 -0.118509844 -0.042717256 -0.080314174 -0.07086065 -0.04665278 -0.055688187 0.14744176 0.013506925 -0.012251664 0.009372303 -0.0047950787 -0.1248213 0.11010343 0.09343833 0.0046963682 0.065201834 0.132625 0.043080263 -0.10915188 0.021153128 0.088088095 0.10400574 0.27949837 -0.10147487 -0.092376366 -0.15748124 0.12531476 0.0645106 0.05761084 -0.04281847 -0.12906264 -0.03838507 0.016184695 0.07658838 0.103841424 0.17235571 -0.017123511 0.046095982 -0.07545476 0.0530832 -0.026273906 0.06692661 0.00823799 -0.06929781 0.027646625 -0.03478799 0.6058981 0.089981616 -0.0398695 0.03423676 -0.06873158 0.15412958 0.04688303 -0.09644888 0.051177714 -0.29891965 0.008793071 0.018296234 -0.055285826 0.16098288 -0.0076740887 -0.020418223 0.046399236 -0.028415382 -0.09553539 -0.100078315 -0.13891658 0.09956699 0.043484047
不 -0.046498485 0.015079097 -0.06571488 -0.043612953 0.17770533 -0.07570759 -0.051024515 -0.16328481 0.09029041 0.048849713 -0.11533526 0.05950974 0.060053684 0.033291187 0.07604843 0.061165567 -0.045630682 -0.07565075 0.10954884 -0.22370602 0.14684626 0.044073585 -0.03717033 -0.014670315 0.10990889 0.052816767 0.07741245 -0.22783718 -0.111738235 -0.10516564 0.14152318 0.13067846 0.038378414 0.10065012 0.025841651 0.17149399 -0.018870585 -0.14934844 0.10920851 -0.07694334 -0.023312934 -0.0042405124 0.14037362 0.03617553 0.040948365 0.029741852 0.106313296 0.07213191 0.20300727 -0.021468572 -0.11072673 -0.12574632 -0.112990834 0.21888632 0.022479838 -0.16573 0.0476622 -0.09966482 -0.054012902 0.123116575 0.09453365 0.03411068 0.06401287 0.20257014 -0.12668724 0.085304245 0.0072070225 0.03995039 0.04536019 0.014912191 0.0021489598 0.033606686 -0.03259525 -0.070465356 -0.07833901 -0.04346575 -0.032538358 0.80505437 -0.10584133 0.11209893 0.053869486 0.07065076 0.009369666 0.10996114 -0.1032498 -0.14862686 -0.06488895 0.037200518 0.0062415726 0.013542051 -0.047909368 -0.035118245 -0.002025111 -0.07184059 0.2561147 -0.0079636015 0.14322639 0.093394965 -0.036216296 -0.02301923
也 -0.12585203 0.00033393037 -0.021741405 -0.009926873 0.09105592 -0.08964594 0.06176401 0.062954806 -0.17315942 0.04278507 -0.13335277 0.0105807 0.027457612 0.14704162 0.054344587 -0.037967004 -0.05999751 -0.08288441 -0.045030136 0.25129777 0.0035184536 0.124784805 -0.26324138 -0.035691578 0.028863424 -0.049320232 0.010346525 0.06752209 0.03089527 0.17952761 -0.03158812 0.17821178 -0.10876379 -0.109319 0.06147366 -0.0075527644 0.027212523 0.09202962 -0.030394247 -0.004383368 0.012890574 -0.21249934 -0.06731541 0.019990291 0.23603813 -0.08747782 0.12083275 0.023069462 -0.063263744 0.07051732 0.17444803 -0.000448648 0.07687155 0.0025857158 0.089714445 0.0090985065 -0.057635456 0.008559738 -0.13275698 0.006672905 -0.12820967 0.00241806 -0.013624476 -0.08128302 -0.043863844 -0.0025795395 0.18542506 0.068137616 -0.0033872204 0.028405894 -0.024229093 -0.002680544 0.04966195 0.057551987 -0.04430986 0.03289006 -0.23885383 0.5469786 0.07031802 -0.034903843 0.15603426 0.020636555 0.12339174 -0.16132224 0.15332676 -0.2670797 -0.3760139 0.07638018 -0.06700643 -0.07064887 0.09244545 0.03302543 -0.019905638 0.024121238 0.08398952 -0.027205868 0.15786436 0.15054964 0.1347109 0.04517019
而 -0.004277651 -0.01840736 -0.1594164 -0.09281078 0.18080603 0.016513668 0.030382523 0.13892104 -0.046422977 0.06871233 -0.16677172 -0.10682439 0.13122024 -0.10479414 0.27290735 0.00022443391 -0.074094005 -0.01387267 -0.13801293 0.24084622 0.04803473 -0.14490794 0.12488878 0.04943897 0.21933486 0.0063644177 0.0019570517 -0.09861109 -0.109100364 0.06736858 0.15312283 0.11904419 -0.13158543 -0.16229661 -0.19750196 0.0017380577 -0.124093644 0.0199828 0.17370637 0.11839723 0.05650047 -0.030300966 0.17075913 -0.055633873 0.011704751 0.091604285 -0.09505766 0.13369575 0.12808971 0.03786883 0.024230776 -0.09517775 -0.04492162 -0.14632662 -0.11306107 -0.010410298 -0.0008022059 -0.08310341 -0.09337642 0.010490402 0.16721456 0.13192607 0.20232692 0.09010867 0.11534013 0.12886819 0.07263009 0.0816204 0.046570405 0.21187918 -0.014458321 -0.13570635 0.08660428 0.024430975 -0.07107374 -0.008161585 0.11265792 0.79844207 0.04778829 0.015151108 -0.038193054 -0.121471584 0.12275669 0.18489449 -0.07924419 0.13604395 -0.10951115 0.08462743 0.018168194 0.21102038 -0.048969008 -0.046332505 0.021032661 -0.02594329 0.054033484 0.14515309 0.061757326 0.044372715 -0.24360563 -0.10072881
？ -0.1768043 -0.13558564 -0.087140135 -0.04813968 0.056422085 0.07808879 -0.01751846 0.00023500242 -0.098105334 0.0074826065 0.0034676741 0.06996909 0.09181119 -0.23788357 0.05664338 -0.08259944 -0.04776158 0.04493948 0.05784086 -0.03918385 -0.044754602 0.10519504 0.021097727 0.10278819 -0.06286549 0.057077438 0.13360757 0.09258554 0.26191562 0.043084614 0.06231746 0.2526624 0.12589549 0.20782918 -0.05514838 -0.025061658 -0.093911394 0.04173422 -0.058138426 -0.22945385 -0.119186066 0.09498203 -0.035466846 0.052685156 -0.37409133 0.122584775 0.17331928 0.16644375 0.08558078 -0.17572697 0.10739612 0.24928167 0.019878602 -0.3401373 -0.16150783 -0.16763887 0.23942414 -0.1730751 0.07906514 -0.050985355 -0.11090266 0.23531884 0.115725584 0.07472107 0.15219313 -0.027779058 0.062443722 -0.048206583 -0.115514904 0.046373684 -0.061576802 0.015497564 -0.08993355 0.17509703 0.07244882 -0.0071332683 -0.04030255 0.31386647 -0.06850256 -0.01838103 0.11358772 0.0074765403 0.04744718 0.13135241 0.08619099 0.35679337 -0.7744047 0.044185866 -0.11378836 -0.07751434 -0.14334276 0.075135335 0.0910515 0.0028309575 -0.18639709 0.01798926 0.055401344 0.070395246 0.0011148239 -0.116447456
其 0.035972632 -0.0696697 -0.021928104 0.18653013 0.06503053 -0.12468962 0.064173155 -0.03449028 -0.0900188 -0.15431228 -0.061323833 -0.16145046 -0.25230056 -0.0015508954 -0.024169095 0.022434298 0.031422257 -0.021216422 0.054297972 0.12101493 -0.13280599 -0.14107975 -0.1455976 0.11408775 -0.062073532 -0.0031608776 -0.31926012 0.013629763 0.17373934 0.1982246 -0.07357946 0.23045486 -0.15809327 0.05778243 -0.054129113 0.08112792 -0.062396444 -0.008528975 -0.12669826 -0.010562607 0.040394377 -0.12090242 0.017589988 -0.039079204 -0.035176683 0.1275032 0.026812004 -0.13108024 0.038997475 -0.011739948 0.18738289 0.023565559 -0.08309171 0.2336485 -0.07147435 -0.24092436 -0.0754481 -0.024942733 0.078382365 0.036739875 -0.017894486 0.061880928 0.06888146 -0.08081672 0.18539655 0.051403854 -0.16602787 0.064442866 0.0139830895 0.0081718 0.13154164 -0.019739294 0.043649554 -0.18198279 -0.04142844 -0.057752866 -0.03998116 0.7387356 -0.09801585 0.13012964 -0.036195524 -0.00077693886 0.32129073 0.11200934 -0.07454449 -0.038991816 -0.15780568 0.12272646 -0.010847008 0.020983296 -0.042580657 -0.11484456 -0.13696173 -0.0021183921 0.16549934 0.019418 0.08732063 0.055730484 -0.022480888 -0.054541674
人 -0.05011957 0.010485282 0.15607715 -0.1556798 -0.17968269 -0.05311758 -0.1173485 0.08854561 -0.1486329 0.026072415 -0.06494623 0.041303787 -0.17182943 0.080209814 0.11689891 -0.14403997 0.14539537 -0.050900232 0.31948146 0.13443494 -0.03930849 -0.1737651 0.09262535 0.27214333 -0.088155456 -0.017944707 0.2838205 -0.32880902 0.09479074 0.06316389 -0.033201955 -0.04290432 0.044399757 -0.12586236 0.06234255 -0.13070016 0.15603471 0.10985444 0.0776704 -0.12931906 -0.06820221 -0.14775729 0.12737612 -0.015459277 -0.04940385 0.045679703 -0.049732294 0.043170035 -0.095259465 -0.07209611 -0.07576963 -0.0923518 0.002609893 -0.0005037205 0.07298705 -0.14794044 -0.07690019 -0.12372249 0.043434303 0.07205413 -0.12691715 -0.024370836 0.03904859 -0.21374476 0.041285597 -0.25852534 0.02935486 0.0048375675 0.020321285 -0.14828591 -0.098880336 -0.045811713 0.06442257 -0.043772142 0.09359607 0.041987002 0.21725093 0.6123147 0.10810973 -0.16188788 0.019505776 0.05065317 0.085148185 -0.021453092 0.015844297 0.0700587 -0.2852637 -0.03637621 0.16875027 0.18167914 0.010237148 0.038298257 -0.10461445 0.095782444 0.17278662 -0.1418582 0.09248267 -0.02364594 -0.0039828727 0.12997797
者 0.0013867387 -0.025590196 -0.06831931 -0.026404027 -0.24711303 0.054099724 -0.11274226 0.082304195 -0.26598898 0.18661569 0.122905195 0.18471049 -0.13928778 0.06300351 0.23422791 0.124945566 -0.09173229 -0.12909082 -0.03553365 -0.15150471 0.014221972 0.15714656 -0.04995275 0.032516476 -0.033510506 -0.077261716 -0.11330893 0.28333333 -0.14426781 -0.011295883 -0.04133699 -0.09778622 -0.009649096 0.07055547 0.026304478 -0.16163538 -0.23623912 -0.021868797 0.028883692 0.06747235 0.10668582 -0.026457142 0.15283564 -0.0014943792 -0.03300213 -0.020843225 0.015722277 0.24393255 -0.05432051 -0.04132663 0.23058987 -0.30493695 0.08694904 0.042319637 -0.10904093 -0.36658853 -0.00761018 0.07984028 -0.15427457 -0.09535237 0.19064689 -0.023305355 0.17957434 0.17532748 0.23079054 0.07555508 -0.22800012 -0.018568095 0.06516218 0.14970526 0.15383181 0.17454968 0.001284483 0.13320515 0.12226193 -0.09065678 0.035163563 0.74993646 -0.13005213 -0.027396645 0.14801764 -0.09977043 -0.045550693 -0.04925406 0.10005271 0.043923233 -0.18154801 -0.06414733 -0.15827572 0.09745652 0.1910968 -0.09761743 -0.09964994 0.024296843 -0.050896533 0.003977173 0.119439974 -0.04359592 0.1352597 0.080451794
以 -0.113799974 -0.076841004 0.11326867 0.24954228 -0.05210692 0.008021072 -0.11392773 0.05392189 0.05804025 -0.06959358 -0.120016605 0.22182404 -0.0028748675 0.108126976 -0.03388208 0.18619905 -0.019086448 0.054379847 -0.14155996 -0.13105299 0.25189745 0.09768425 0.07832649 0.10884474 -0.010148993 0.22594187 0.016477672 0.029052721 0.21698402 0.035233784 0.27903056 -0.15252355 -0.085534245 0.14503188 -0.16235635 0.077119455 0.082880065 -0.19246969 0.039116595 0.09323294 -0.16858824 -0.0014916066 -0.21456912 -0.07500736 0.1464341 -0.17218351 -0.18585536 -0.036414113 0.015371908 -0.06794254 -0.111326344 -0.049879126 -0.001202788 0.1129239 0.015832832 -0.12904833 0.0474131 0.1386697 -0.027854683 -0.13022605 0.11962515 -0.2380162 -0.12277796 0.10852107 -0.27096438 -0.18217728 -0.040738713 0.06341438 0.042075496 -0.2334613 -0.21749394 0.06650754 0.18977305 0.28905228 0.07509921 0.14776063 0.06644986 0.8220005 0.16814129 0.016794585 -0.06588775 0.1391552 -0.15772007 0.08204563 0.12364237 0.27900183 -0.22406998 0.0033609583 -0.00029552425 -0.110719346 0.06696365 -0.12306583 0.037175566 0.037702426 0.0018330235 0.27522236 0.06244086 -0.059349637 -0.2774093 0.18007682
有 -0.015635543 0.0820646 0.055868678 -0.041560538 -0.3409809 -0.009300847 0.14562866 -0.12219029 -0.11161119 0.06637256 0.07979377 -0.07956279 -0.1218695 -0.035159204 -0.0051774266 -0.021916077 -0.12968007 -0.20907228 0.02483889 0.009846621 0.03447976 -0.071368195 0.1469003 0.053643133 -0.12787516 0.024969278 0.0111775445 -0.015303281 -0.099499576 -0.2381159 0.01868496 -0.16118416 0.12783585 0.014130082 0.12893108 -0.046851266 -0.054668073 0.044021774 0.025191331 0.015016081 -0.047967575 0.036646713 0.01475682 -0.07850511 0.03147676 0.015076388 -0.021365099 0.08659514 -0.22302495 0.00013245048 0.041111294 0.3255283 0.0067760684 0.02931658 -0.1079111 0.040604483 0.022218965 -0.09097368 0.052269895 0.13939057 0.07442552 -0.063697 -0.1631141 -0.040918425 0.042225722 0.28644314 -0.3761122 -0.00536889 0.21979855 0.14292583 0.14635123 -0.14093351 -0.049565166 -0.05126339 0.26301524 0.17297103 -0.22141537 0.49427894 0.21390092 0.26467672 0.2653175 -0.018655552 -0.118772686 0.111035146 -0.13406435 0.48325276 -0.5051476 -0.17275964 -0.16333303 0.0069888225 -0.046895824 0.17202154 0.042530395 -0.15695061 0.025912853 0.0070289676 0.09016707 0.19722264 -0.020279083 0.18897006
于 -0.0051275324 -0.055510197 0.27056524 0.38831577 0.191987 0.092237145 0.15680952 0.116760984 -0.1057521 0.16557726 0.011673477 -0.0923379 0.031695627 -0.0066992063 -0.11348586 -0.006109935 -0.10303168 0.010097552 -0.02401084 0.1715321 0.15251441 -0.2148862 0.07985953 0.14420477 -0.18495782 0.16073392 -0.09714474 -0.1276431 -0.14476039 -0.05881608 -0.018653909 -0.38154262 0.09944568 -0.028400302 -0.16071719 0.074873805 -0.26805937 0.22773246 0.13710786 0.006776771 0.14928086 0.07127646 -0.013949706 0.05565232 -0.15415542 0.10079885 -0.11067567 -0.08312923 -0.028102215 0.13794881 -0.18129598 -0.32981655 0.22723703 0.15451162 -0.011755582 0.22575332 -0.013440559 -0.081979096 -0.020762447 0.07722614 -0.11686668 0.1363536 0.09066697 -0.13235329 -0.18220085 -0.045787897 -0.061113674 0.04458911 -0.1534382 0.05494546 -0.117885634 -0.15113439 0.09932032 -0.096696906 0.15689513 0.025902543 -0.2942514 0.63489556 0.12054532 0.04517777 -0.16378327 0.15817626 0.027938586 -0.078051165 0.19404365 0.0052880473 -0.31893674 -0.031074261 0.033885803 -0.003207901 -0.07178714 0.19564156 0.093911596 0.06642789 -0.27898097 0.025830088 -0.026798028 -0.09967996 0.044118855 -0.08687262
矣 -0.11614856 -0.17785342 -0.07776724 -0.09797274 -0.15276434 -0.2646755 0.16818294 -0.07784981 0.23162979 -0.013413082 -0.079784036 -0.0928625 0.13886097 0.066896565 0.17557871 0.055568464 0.17072786 -0.13004087 -0.045359574 0.102896936 0.05856938 -0.13383514 0.08385127 0.03436325 -0.046837687 -0.25845134 -0.17223388 -0.07783101 -0.083385214 -0.056017254 0.036882937 -0.10008065 -0.053269807 -0.046280686 -0.101275906 0.25342128 0.13975823 0.049937576 -0.10911443 0.22120123 -0.0073366244 -0.06978634 -0.16727145 0.001057206 0.0590823 -0.07184575 -0.34531048 0.030073956 -0.16590494 0.04479809 0.45497054 0.051610697 -0.19828394 0.1422731 0.05965699 -0.17637308 -0.12534244 -0.109403536 -0.15739529 0.041525483 0.20735367 -0.053019326 0.072083466 -0.17674756 -0.19529492 -0.18577713 -0.06603401 0.09688749 -0.24620576 -0.02417336 0.11457349 -0.118460506 -0.2762949 0.14222664 0.04021244 -0.025638498 -0.06088872 0.4697213 -0.20292452 0.017041385 0.12960336 0.041810136 0.0617232 -0.123449266 -0.08064753 -0.21247873 -0.539944 0.060853776 -0.023976287 0.0065094866 -0.11896252 -0.016768929 0.20302959 0.16275762 -0.38117632 -0.11472345 -0.21481347 -0.06835729 -0.011282446 -0.14676718
为 -0.49584648 -0.17438856 0.045569893 -0.36493722 0.051661305 0.15940103 -0.19916354 0.090529256 -0.16148472 -0.06270366 -0.003799256 0.052565493 -0.25695625 -0.0008658156 0.24554318 0.2318242 0.039325505 0.16546471 -0.06260304 -0.11603214 0.091601506 -0.14134242 -0.1687468 -0.020293502 -0.038060542 -0.07911293 0.057777967 -0.118444294 -0.027368715 -0.11569897 0.014446749 -0.24489467 -0.038866714 -0.05138426 -0.08089751 -0.073420726 0.02289364 0.11754988 0.24202932 -0.037085094 0.0864071 -0.020687057 0.058760438 0.20616633 0.08613412 -0.09439832 -0.109693535 0.060112588 -0.24637982 0.113238715 -0.31963915 0.14513396 -0.07776929 0.08958916 -0.1598181 0.16006906 0.22289486 0.06054638 0.12712272 -0.3212473 -0.23959066 -0.12492961 0.07676536 0.12551586 0.14299755 -0.07186185 -0.07540058 -0.07019861 0.08409903 -0.07403895 0.16211993 0.09327079 0.02713094 0.24235582 -0.058288336 0.0049380786 0.12655368 0.5798028 0.021405913 0.06583171 -0.18396138 0.012621051 -0.025016595 0.3147986 0.047899947 0.09091529 -0.43798187 -0.004515442 0.024675347 -0.08044631 0.09553714 -0.08056983 0.012103751 -0.1937524 0.18489622 0.0020456077 0.04517679 -0.12776653 -0.054205675 0.08135766
君 0.053015552 0.11616379 0.01950745 0.00426616 -0.20834662 0.016383508 -0.02208388 -0.06916862 0.1391397 -0.02607942 -0.09871234 0.17051458 -0.17086263 0.08920652 -0.039944146 0.10122986 -0.020597696 -0.030870393 -0.12073411 0.19912349 0.045637712 -0.09222867 0.020286461 -0.15149137 0.13576712 -0.07596047 -0.08063672 -0.01775289 0.25397176 0.017456332 0.16134672 0.20465341 -0.053566445 -0.26160082 -0.11684654 0.2787437 -0.084486365 -0.14063658 0.24204859 0.24148083 0.048582338 0.017672217 0.040229168 0.33794186 -0.06633115 -0.072046004 0.27153912 -0.24416636 0.019645507 0.056869373 -0.12972602 0.1582232 0.19817051 0.0009424127 -0.082785815 0.107994005 -0.033127498 0.14707857 -0.022990886 0.09116012 0.020496132 0.034615304 0.18080406 -0.17899501 0.15713231 -0.1887849 -0.09977079 -0.12680838 0.31074524 -0.00028138285 0.009682569 0.029153518 -0.028446518 -0.125501 -0.2215148 0.051852547 0.019776767 0.4189159 0.029212382 -0.12968463 -0.08185022 0.20293635 -0.16277556 -0.036174096 -0.021989793 -0.11526687 -0.6440534 -0.19274053 0.1195596 0.15621136 -0.15425116 -0.027453475 -0.10459028 0.019234272 0.26708275 -0.06909907 -0.10411511 0.30765346 0.001949767 0.025744587
乎 0.006393913 -0.15349993 0.06930143 -0.14330076 0.14775755 -0.07954611 0.08890669 -0.05986491 -0.104056686 -0.03573847 0.14700481 0.007529162 0.08324704 0.17429888 0.079945736 -0.12769283 0.07269879 0.2574306 -0.06517945 0.0931025 0.092959195 -0.0011432213 0.10794589 -0.11648327 -0.173557 -0.10782033 0.04365789 -0.046869535 0.09312768 -0.07649738 -0.31135845 0.18660383 0.015439645 0.030228416 -0.23070382 -0.017963404 -0.058262218 0.17218912 -0.06043965 0.11993526 0.32260424 -0.26035926 0.039313838 0.03615722 -0.21995226 0.009529498 0.045976438 -0.086721964 0.29480836 -0.24452235 -0.14444868 0.026163688 -0.23422852 -0.3558886 0.1174747 -0.16501257 0.036815047 0.1041485 -0.08738508 0.03828354 -0.007607632 -0.1405275 0.10439281 -0.019518977 -0.14159146 0.090744555 -0.27963156 0.14999525 0.091803804 -0.07637518 0.05207288 0.010361429 -0.09910617 0.12099339 0.33599654 -0.17008777 -0.0070998417 0.3817691 -0.060562905 0.07241738 0.16600455 -0.15625934 0.16448827 0.3543261 0.19497468 0.22466113 -0.68465847 -0.06128172 -0.03513462 -0.0729691 0.0776337 0.040001974 -0.013928532 0.1543096 0.14194247 0.1297557 -0.17192687 0.023357427 0.11499256 -0.3593607
可 0.085458875 -0.37417546 0.024171486 -0.12119226 0.27806762 0.016855808 -0.07245157 0.0015772197 0.18499637 -0.1771486 -0.07083292 0.02099408 0.01314494 -0.16504121 -0.28143117 0.06615558 -0.07023151 0.2582676 -0.20607582 0.06310092 0.19549121 0.104851484 0.023442212 0.15871213 0.08971313 0.0014530591 -0.05087502 0.0488864 -0.019141957 0.123563826 0.079531714 -0.031128962 0.13462679 -0.100986704 0.12127874 -0.1697968 0.12805268 -0.1935475 0.20940334 -0.12665454 -0.0047384542 0.027562598 0.0767166 0.1828849 0.10239944 -0.24767448 -0.15466689 0.3831015 0.07242603 -0.3552276 0.049572412 0.030838963 -0.09926365 0.01658684 -0.20881823 -0.2039243 -0.14877285 -0.06926628 -0.14747183 -0.057817694 0.08080641 -0.120504215 0.14762944 -0.26351506 -0.011171904 -0.055667285 0.038267158 0.055951826 -0.02766787 0.061035905 -0.17073189 0.06420449 0.22331266 0.021832226 -0.054488786 0.23016822 0.0036591012 0.7509258 -0.17356421 0.098603666 0.054496575 0.011758164 -0.11891809 -0.12530899 0.22416592 -0.31557623 -0.16104127 -0.09028679 -0.11968842 -0.048167825 -0.16979349 -0.044410467 0.12642573 1.7591792e-05 0.16195263 0.07468605 0.099474594 -0.08548887 0.16641249 0.012579236
如 -0.20949914 0.24294658 0.15850067 -0.16147943 0.21712455 -0.06393533 0.16953184 0.056934368 0.29434785 -0.10184347 -0.06737542 0.11608024 -0.07665441 -0.07587364 -0.079249725 0.09276001 0.15135837 -0.09699544 -0.019639825 0.13959812 -0.17781419 0.2702323 -0.23384266 -0.14891265 -0.030098254 0.018130274 -0.14994472 0.087836094 0.12423998 -0.052768584 0.020176051 0.050684653 -0.042027973 -0.040443998 -0.15379605 -0.2986107 0.09346034 0.06502949 0.22450696 0.061938286 0.2403689 0.13987327 0.06409633 -0.06383509 -0.078065075 -0.027161809 0.12704656 0.03750545 -0.3933558 0.22260302 -0.06698485 0.07458461 0.32070693 -0.05168936 0.089773335 -0.08738612 0.04231092 0.028676804 -0.26859105 0.03814524 0.17758751 0.036762588 -0.102298036 0.15350051 0.03514334 0.03910856 -0.0630478 -0.06764301 -0.372557 0.11343786 -0.112393185 -0.056120653 0.05052223 0.23177738 -0.17476423 -0.25316566 -0.055834662 0.6485155 -0.1302015 0.2439073 -0.03298248 0.16840026 0.18581806 -0.027389621 0.11801152 -0.14016637 -0.3547176 -0.26938167 -0.0051961876 -0.087053135 0.054023422 0.11631848 -0.05596617 0.13709724 0.23532979 -0.022278603 0.17227644 0.089935586 -0.19886768 0.20151103
与 0.038625263 -0.085873775 0.12522665 0.012868927 -0.019716859 -0.020080797 -0.25761992 -0.008486046 -0.16189323 0.090114295 -0.24633905 0.31715414 0.08268447 -0.20082119 0.0056476546 0.0047707674 0.10901163 -0.10032677 0.23690845 0.17437099 0.14174998 -0.017378395 -0.27497044 -0.11898283 -0.29821742 -0.19413003 -0.05867639 0.2747739 -0.05047967 0.06463003 0.0035707883 0.011710356 0.1776965 0.06063172 -0.0514801 -0.08297843 0.090497866 0.22263573 0.31728974 -0.02998229 -0.05272945 0.006889063 0.04660767 -0.22728805 -0.08221056 0.05319528 -0.1752581 -0.20705897 -0.015944568 -0.07615188 0.13697214 -0.07132953 0.11427316 -0.12401803 -0.42446792 0.057891514 0.14553753 -0.19140144 -0.1597643 -0.39065453 0.02208077 -0.08820212 -0.10297668 -0.035598382 0.12205297 0.017963937 0.16368602 0.06497626 -0.17839053 0.20154738 0.1973622 0.124604486 -0.3001564 -0.22505309 -0.03945847 -0.16293901 -0.109753914 0.55358994 0.11276657 -0.25125462 -0.037656456 0.16556966 -0.23990193 -0.06436473 -0.025723305 -0.05873684 -0.40914083 -0.076509334 0.10393467 -0.17566675 -0.12789984 -0.09301871 -0.022052286 0.0474053 0.10736502 0.025422594 0.26123905 -0.33621272 0.104578435 -0.045954745
； 0.050065905 0.15205313 0.023589553 0.083387256 0.07760741 -0.058646094 -0.09142937 -0.08387467 -0.02374862 0.0799326 0.18363813 -0.16115709 -0.2585005 -0.069207706 -0.105326705 -0.11008723 0.09310773 0.13784842 -0.11665385 0.11814152 -0.084590085 -0.14558163 0.22335234 0.22858445 -0.16704269 0.025755007 -0.11012688 -0.071577854 0.2339298 0.23219821 0.06238653 0.2713401 -0.05263959 0.14645131 0.112064764 -0.0018906688 -0.014969953 -0.17190504 -0.07252925 -0.24589118 -0.06904912 -0.120626695 0.1613988 -0.017858896 -0.18835114 -0.2554195 0.10119094 0.1198139 -0.26890653 0.15861472 -0.11790485 0.015899722 -0.016203076 -0.13477494 0.14732213 0.12667604 -0.047656808 0.19945355 -0.12771057 0.15280809 -0.36272928 0.014765119 -0.06552232 -0.025549095 0.15128772 0.20922638 0.211484 -0.061973184 -0.1388426 -0.1146485 -0.1578722 0.08470481 -0.06955298 -0.016857963 0.03228632 -0.072902456 -0.01854362 1.0920585 -0.1940759 -0.035342343 0.10745624 -0.04840203 -0.096278906 0.052076392 -0.063582964 -0.07350784 0.058639657 0.30490136 0.032461897 0.012967923 -0.021144822 -0.27050176 -0.22788784 -0.07017803 -0.28082696 -0.07542881 0.11897882 -0.042742234 0.13876313 -0.046756882
言 0.36494786 -0.24110484 0.03185678 -0.11374229 -0.085826114 -0.38863933 -0.07619985 0.21517046 -0.24769245 -0.022431806 -0.11634684 0.07933087 0.09467519 -0.109044455 -0.07462776 0.08611193 0.25908265 0.3560663 -0.25573525 0.07743479 -0.08343368 -0.09091417 -0.13570264 0.004123527 0.1073217 0.13393293 0.14130665 0.1909135 0.12748043 0.07258953 0.023640962 -0.06801365 -0.041448954 0.06508031 -0.016202187 -0.17261831 0.077711016 -0.043985993 0.054467466 0.028754983 -0.006186291 -0.29275954 -0.17033717 -0.22200595 0.05270728 0.13514897 -0.033471953 -0.17385095 -0.045314886 0.029002035 -0.16276422 0.24667831 -0.04348302 -0.041125633 0.123761065 -0.016637377 -0.103816286 0.011440825 0.08072996 -0.34666625 -0.21272558 0.056814197 -0.25826597 0.12198609 -0.27723205 -0.08413302 -0.037158314 -0.15736377 0.07626899 0.30666146 -0.09197158 -0.16266413 -0.12134115 -0.0032715767 -0.15309542 -0.17442934 -0.09117467 0.7136466 -0.18774688 0.17323467 0.29460835 0.07227177 -0.22031216 -0.24255 -0.11704756 0.04568186 -0.28359196 0.17728539 -0.0686599 0.08561188 -0.104941554 -0.10912919 -0.022280276 -0.056600522 0.2430004 -0.072454825 0.1237949 -0.0028030572 0.13849536 0.1149223
无 -0.14285852 0.16322003 0.06959654 0.056901775 0.35278007 0.12759836 0.13529694 0.24912886 -0.017679654 0.048183233 0.28344682 -0.0025316784 -0.14308995 0.0071834438 -0.02034666 0.18874739 0.029725887 -0.05565483 -0.035628106 -0.1432857 0.05278329 -0.060034823 0.21664876 -0.26229483 -0.11691125 -0.20001997 0.017763762 -0.22950909 -0.0048391 0.02177941 -0.066985756 -0.09430154 -0.041960772 -0.14569792 -0.032492485 -0.04784588 0.044700135 -0.06989111 -0.06679112 0.19854051 -0.12614077 -0.23738772 0.11730342 -0.17306799 0.014154264 0.11486245 0.11624545 0.16773082 0.062591664 -0.13404138 0.07717047 0.12488472 -0.115387775 -0.2346424 0.22062893 0.008612825 0.09198118 -0.16340502 -0.0067533753 0.049674194 -0.023290591 -0.28018263 0.18037163 -0.366224 0.03066852 -0.11680287 -0.0771073 -0.03559352 -0.041018654 0.11167403 0.05079129 0.058174867 -0.12233252 -0.057556115 -0.13318196 0.088288926 -0.115338564 0.71046275 0.07527246 0.06864282 0.07433213 0.039831124 -0.13719265 -0.0028154019 -0.38511172 0.19465016 -0.1395606 0.005209534 0.20866194 -0.1632486 -0.24257678 -0.057524085 0.27105913 -0.2640741 0.180788 -0.11729128 -0.0033633437 0.05115859 -0.08337557 0.17359126
则 -0.25432378 -0.021623995 0.0106424475 0.16634965 0.12197795 -0.012220592 0.2669427 0.07346487 -0.039360072 -0.0966178 -0.078653455 -0.2398957 -0.14514108 -0.09184321 0.34002826 0.14588922 -0.24323289 -0.072537534 0.16972609 -0.046967685 0.06540147 0.032703795 -0.018667081 0.11131738 -0.24415998 0.0020561083 0.01402706 0.27932018 -0.18181041 -0.0017593061 -0.028121788 0.11974424 -0.13356689 -0.060232487 0.13242227 0.3164024 0.060042042 -0.1868863 -0.06094191 0.011649522 0.23079613 -0.3642895 0.114225 0.017035842 0.04798455 -0.09351165 -0.07461016 0.11078195 0.088369645 -0.07877754 -0.08798965 -0.04931554 0.20901792 -0.2402027 0.070240825 0.07319986 -0.07228461 0.08108063 0.17757905 -0.16388956 -0.34590226 -0.08307421 -0.22323045 0.009427992 -0.29154578 0.30914015 -0.11373625 0.09463834 -0.19000705 -0.15287368 -0.07053319 -0.2657179 -0.077429846 -0.0037994916 -0.085520074 0.10793029 -0.025434583 0.825915 0.13887669 -0.19560999 0.0882404 0.10925487 0.03586904 -0.11147577 0.018457055 0.043143973 -0.08154367 0.051402695 0.13221931 0.17807584 0.18297116 -0.21204722 0.020002306 -0.05262329 0.29511538 0.120173216 0.04263442 0.06800011 -0.111779004 -0.054562036
！ 0.11887686 -0.16264005 0.24161905 -0.17283696 -0.15646541 0.05070179 0.0037257255 -0.0033155542 -0.15786704 0.10506445 0.00034806284 0.14041267 -0.22222461 0.029707123 -0.20141286 0.22582264 0.09757642 0.16692454 -0.036059868 0.017828915 -0.0073179184 -0.044270877 -0.18709669 -0.2962393 -0.1227864 -0.2974644 -0.034564514 -0.17996359 0.15243271 0.07655868 -0.13384676 0.22189917 0.29904872 0.15811555 -0.1919936 -0.115166515 -0.08863377 0.046681203 0.06596662 -0.2237505 0.04880685 -0.119027935 0.22426428 0.034228858 -0.24155827 0.020077202 -0.1315697 0.018843988 -0.12001372 0.10399628 0.11925801 -0.093580924 -0.1288811 0.032604128 -0.059334375 0.028114058 0.16057242 0.08729995 0.063456915 0.019603783 -0.2627054 -0.06988575 0.1086787 0.017920014 0.024762062 0.10900166 0.094017655 -0.063038655 -0.19267029 -0.12366706 -0.097653456 0.055894382 0.025152568 -0.45215413 -0.04445581 0.10182314 -0.19990502 0.37177625 -0.17667864 0.08695306 0.13051999 -0.0039041075 0.00053463894 0.2689057 -0.011719612 0.118460275 -0.80305827 -0.037041727 -0.06076885 0.2028636 0.08918117 0.08662629 0.008388874 0.019150032 -0.32355437 0.22467123 -0.13556944 0.26418853 -0.014335775 0.13064359
问 -0.1588995 0.14726669 -0.06259074 0.35189158 -0.10573415 0.063083775 0.15453368 0.020250661 0.06250413 0.08811699 0.18516457 -0.1637906 0.06634772 0.16830377 -0.08254044 0.2722372 -0.22507404 -0.09289452 0.107975185 0.17997237 -0.024724381 -0.043985806 -0.2604224 0.20198861 0.025188547 -0.10528448 -0.01823758 -0.14364502 0.12113623 -0.07871191 -0.07892425 -0.33296427 -0.014349111 -0.05085143 0.07169142 0.15354824 0.004134659 -0.0027192286 0.029527374 -0.045739945 0.0036957238 -0.19058773 -0.041203126 0.022205856 0.2472053 0.07285138 -0.026605206 -0.1435267 -0.056314 -0.17649859 0.028442092 -0.050872203 -0.014630484 -1.9461237e-05 -0.09083034 0.26164493 0.17196587 0.0735047 0.048744824 -0.4913178 0.18842354 0.18714048 0.021262389 -0.24976571 -0.14497808 0.13188143 -0.16035555 -0.20534584 -0.22022879 0.0007665695 0.20044193 0.04243756 0.19507654 0.2558259 -0.08857985 -0.084235966 0.014235774 0.3838357 0.10484457 0.08180257 -0.23249128 -0.09798578 -0.10425619 0.0131084435 -0.079326704 -0.030402264 -0.8789471 0.117919385 -0.1823852 -0.03200668 -0.019907523 0.059538476 -0.19476631 -0.050760217 -0.25747842 -0.18553802 -0.045382585 -0.021511326 0.14925969 0.00036386074
知 0.08260614 0.17898715 -0.08251077 0.0943533 -0.10469121 -0.083939515 0.09893138 0.020909369 0.17994729 0.08048309 -0.04986588 -0.0015336461 0.039344106 -0.049996417 -0.085114986 0.28962138 0.19556078 0.2608196 0.0477814 -0.05822291 -0.07176578 -0.07188305 -0.2954426 -0.10324037 -0.105066665 -0.17432511 0.35000953 -0.013065414 0.03329259 -0.29760745 -0.15954325 -0.064337134 0.1071206 0.016929967 -0.19916186 -0.032165956 0.081342876 -0.08539236 0.1731038 -0.03208154 -0.0028911086 0.045979165 0.073398165 -0.08553991 -0.048664674 0.115269884 -0.105975226 0.09003799 0.031307504 0.05179324 0.33774704 -0.31225604 0.057899076 -0.07579328 -0.16972956 -0.19575176 0.050233163 -0.22014995 -0.03830691 0.04706666 -0.064514905 -0.23248155 0.004579036 0.41556093 0.11654375 -0.2664998 0.23183377 -0.208156 0.056683227 -0.18676274 -0.08670487 -0.061046973 0.14955549 0.096637994 -0.22798696 0.09208875 -0.09095035 0.6328862 0.010931972 -0.1583248 0.1386275 -0.005190738 0.053114835 0.16011713 0.064559236 -0.25527793 -0.2785341 0.014807183 -0.019213645 -0.082616806 0.104650944 -0.032670047 -0.058194533 -0.31910223 0.12779157 -0.037426513 0.017969383 -0.036241014 -0.0024483001 0.04250792
何 -0.33716846 -0.025757061 -0.19151261 -0.053385686 -0.064570814 0.042369083 0.069265775 0.101887666 -0.11689729 0.03289962 -0.0008765851 -0.16834332 -0.0023351894 -0.24310292 -0.14185745 -0.1819769 0.1202304 0.12838027 0.37254542 -0.14590897 0.17950325 0.42399752 0.019821996 -0.08907558 -0.13065358 0.03215799 0.012666908 0.16948546 0.21218818 0.042989053 -0.10658461 -0.11531015 -0.052972335 0.25466928 -0.16870305 -0.11069223 -0.08763501 -0.3147048 -0.001964601 -0.023985017 0.008867738 0.10544728 -0.11144583 0.03463159 -0.1003627 0.049131252 0.2578479 -0.17202717 0.119204536 0.0075229607 -0.07623594 0.2567206 -0.13772368 -0.03479045 0.08096507 0.042261846 0.2025455 0.23161371 -0.23416348 -0.059604544 0.08465678 0.031836763 0.12219888 0.08411392 0.10604067 0.018121837 0.14533804 0.013183668 -0.044464704 0.0475924 -0.07992388 -0.09432267 -0.01828794 -0.018730016 0.29099914 0.18598479 -0.079179004 0.4206559 -0.23756534 -0.44213554 -0.099115215 0.24691446 0.19835481 0.033787444 0.1249217 -0.04950326 -0.6226328 -0.12058104 -0.13109404 -0.19298229 -0.09550691 0.18042763 -0.08059898 -0.18174838 0.10065734 0.004119139 -0.07363414 -0.09834696 0.013320194 0.09809846
吾 -0.06706782 -0.29459646 -0.04846029 -0.025885692 -0.0027003426 -0.06914528 0.05493748 -0.0987483 0.19549036 0.015594502 -0.04028579 0.18398507 -0.08256631 -0.0155286165 -0.16643237 0.0029818546 -0.09599693 0.035550132 -0.31296846 -0.45327654 0.0069519486 0.33669096 0.11560613 -0.21446532 -0.11223265 -0.13477668 0.0184266 0.25241673 -0.1113762 0.07654701 -0.26276165 -0.09735647 0.023844369 -0.2085446 -0.0050813365 0.17641053 0.09411417 0.068868734 -0.26857096 0.06817303 -0.11901066 -0.029844912 0.05404881 -0.011898696 0.043048408 -0.26123193 -0.010192849 -0.0019802912 0.039904483 0.024551526 0.0932383 -0.1631632 -0.015745653 0.07869807 -0.13482706 -0.087469175 -0.08087348 -0.10958251 -0.07368149 0.27702758 -0.079615556 0.18743822 -0.11160756 -0.11061452 0.12453534 0.11005115 -0.028988287 0.23982914 -0.12906803 -0.017327368 -0.05070282 0.06550094 -0.18771516 -0.15546538 0.08782775 -0.40428975 -0.012343585 0.56038374 -0.07729967 -0.29594982 0.14744669 -0.13032877 0.1112516 0.060774647 0.04130343 0.078676924 -0.3869756 0.20827343 0.1569761 0.12732312 0.15281847 0.21974523 -0.011627661 -0.3471111 0.0742182 -0.11584314 0.07810314 0.078330204 0.08888975 0.22212915
仁 -0.19218801 -0.10850949 0.19853045 -0.15664838 -0.27618366 -0.17837423 -0.035509143 -0.02803819 0.13615592 -0.065359905 -0.028873174 -0.2015375 -0.089679666 0.02533907 -0.018677881 0.0715472 -0.11799228 0.08601044 0.05284974 -0.11270869 -0.017186368 0.14139944 -0.2044136 0.038132656 -0.05103722 -0.21095954 -0.015498374 -0.016261142 -0.24727678 -0.08623251 0.029186055 -0.009130905 0.40542117 0.06863595 0.051656257 0.07552621 0.027667366 -0.016243147 -0.26877618 -0.21563338 0.056061767 0.019827345 0.054434847 -0.055091437 -0.13769047 -0.00063415186 0.13236062 -0.2439008 -0.025588289 0.24534363 0.2682224 -0.058414154 -0.30049545 0.026588574 -0.04775376 -0.047356047 0.083775885 -0.033002246 0.3631109 -0.120274484 0.11921002 -0.19313066 0.33542845 -0.03655723 0.07027036 -0.25933543 -0.09804718 -0.24210425 0.015056432 0.2617539 -0.108479016 -0.089288 0.11869238 0.27206856 0.091516644 0.07140685 -0.06356248 0.54391325 0.051193647 0.06104246 0.0966007 -0.076256484 -0.057258867 0.040702846 0.32860798 -0.19094327 -0.2983998 0.12061215 0.10212825 0.02709408 0.21589892 0.090226546 0.14575659 0.24972358 0.0598516 0.041875467 0.0105816 -0.13540018 0.11840978 0.017153144
夫 -0.051846843 0.100208074 -0.012539206 -0.06044591 0.09324663 0.043229952 -0.08850846 -0.31409442 0.030425722 -0.4233529 -0.10023517 0.1187693 0.02593996 -0.07824545 -0.053534854 -0.13244659 0.03133151 -0.0014516818 -0.088914976 -0.14922352 0.19908607 -0.16723943 0.07352411 0.20463239 -0.45112488 -0.25228107 -0.265023 0.17668684 0.10311327 -0.03652572 -0.1669645 -0.24838495 -0.07634216 -0.17096502 0.13452671 -0.054535456 -0.16789754 0.07579136 -0.38992244 -0.05929014 -0.093383916 0.02491274 0.1170789 -0.2035366 -0.058898114 -0.0029899904 0.023736153 0.13659467 -0.12141265 0.33326483 -0.07823976 0.13370539 0.24646008 -0.3443015 0.04246594 -0.3436506 -0.031507745 -0.088906854 -0.23331285 0.27712205 -0.005343876 -0.011854262 0.13822882 -0.00681794 -0.07477863 0.014374969 0.21887402 -0.09543958 -0.0492248 0.20587447 -0.1869622 0.19402756 0.13896829 -0.06698697 -0.17112987 -0.14003831 -0.099809736 0.39141104 0.034388535 0.07681951 0.05065052 0.18378551 -0.08385342 -0.077581264 -0.13309404 -0.13728838 -0.64295185 0.10643807 -0.020045396 0.44673976 -0.10794987 0.10815854 -0.113323525 0.04887222 0.047770552 0.041990202 -0.09133434 -0.1344695 -0.17752032 0.07009282
、 -0.2724453 0.03250782 -0.0032287594 0.13087705 -0.062602475 -0.28937182 -0.60838836 0.012666606 -0.1355852 0.13992445 0.100545645 0.3560989 -0.0357472 0.22465901 0.074491605 0.030533014 -0.090173356 0.057136636 -0.09932873 0.3049369 -0.3194684 -0.062863484 0.0319378 -0.0002449737 0.1373544 0.13832688 0.06610664 0.1483932 -0.09901728 -0.23237275 -0.21822149 -0.028017264 -0.055750336 0.15059727 0.24138275 0.08435863 -0.08050975 0.10837248 -0.018601801 -0.1601213 0.15311712 0.2706537 0.12732847 -0.14698172 0.20744136 -0.13204429 0.11383655 -0.078527935 0.0046535414 -0.028354092 -0.05177889 0.2873904 -0.17345616 -0.13252895 0.048418004 -0.056657054 0.30645242 0.36475757 0.016068215 -0.028081821 -0.060298283 0.11508715 -0.25158447 0.04353159 -0.48269227 -0.060618777 0.11991654 -0.06846296 0.058051676 -0.07640891 -0.19625725 -0.023188388 -0.09233474 -0.091084115 -0.028085854 0.020118987 -0.03639349 0.7877747 -0.0037353835 0.43271446 -0.17874496 0.00486943 0.0522772 0.10771684 -0.17700307 0.0671141 -0.46571127 -0.100543015 0.3809509 -0.17229107 0.006119602 0.094747394 -0.067036465 -0.02228434 -0.37751797 0.08743709 -0.0138006285 -0.07206542 -0.041428704 -0.037113775
道 -0.12282513 -0.15972185 -0.18594594 0.19572301 -0.025509628 0.21247296 -0.29605556 0.120607965 0.095100924 -0.03321633 -0.1593818 0.034846243 -0.074210204 -0.19322078 -0.008427305 -0.10660378 -0.10870311 -0.03102077 0.021372786 0.11917215 -0.10769173 -0.07142379 -0.2549739 -0.098263286 0.13304113 -0.0877893 0.052139908 -0.19370213 -0.22476664 0.13225816 0.17741202 -0.23974608 -0.088000834 -0.052308787 0.11014001 0.15948273 -0.033759195 -0.09272061 -0.041499995 -0.1597314 -0.06439533 -0.05310311 -0.25986683 0.04057125 -0.2259234 0.04729036 -0.12204345 0.20523073 -0.06887228 0.14326303 0.062715136 0.06216767 0.23389184 0.06280548 -0.17072016 0.46717316 0.22928633 0.007183925 -0.1428831 0.034708034 0.017861633 -0.1822711 -0.056115698 0.0058938405 -0.067207396 -0.0017344202 0.023884874 -0.029809225 -0.14196318 -0.021485554 -0.085441574 0.14554268 -0.2574821 0.03458365 -0.037494306 -0.13044704 -0.19877088 0.63062346 0.116515644 0.01137913 0.35214472 -0.049334824 -0.2605757 -0.028491937 -0.09846042 0.16977534 -0.24205828 -0.20560372 -0.09205783 -0.024278663 -0.1512408 -0.26088402 0.19224362 -0.14856364 0.20720494 -0.21386655 -0.1985355 0.010378619 0.27110088 -0.3265798
焉 -1.4304431e-05 -0.015928062 0.14328386 0.108713046 -0.16194409 -0.32423377 0.19456226 0.10280634 -0.060479384 -0.038414206 -0.015594077 -0.12962711 0.38293305 -0.009139627 0.019257924 0.024139317 -0.07606006 -0.33428985 0.27361977 -0.09430075 -0.18288773 -0.073247574 0.0057176678 0.002180096 -0.2544915 -0.1925145 0.01313463 -0.20040551 -0.39817777 0.09336396 0.13783358 -0.016463924 -0.06466419 -0.061531782 -0.09852031 -0.30694836 -0.040110573 0.07994263 -0.08877392 -0.14770113 0.2296376 0.31935555 -0.05527152 -0.11913018 0.068148136 0.03775307 -0.04530206 -0.17805153 0.10001728 -0.06269486 0.27331713 0.16205399 -0.098209195 -0.108903736 0.03825165 -0.21049264 -0.067167215 0.019709975 -0.06254159 0.2418337 0.1075881 0.035435818 0.21899202 0.037884355 0.20825078 0.011752979 -0.008473533 0.24569637 0.13515499 -0.13784823 -0.026723918 -0.24444832 0.20106402 0.10818777 -0.1101086 0.32474002 0.10000723 0.63713515 0.11089436 -0.09777273 0.20137283 0.09747473 -0.054958336 0.13432068 -0.11304289 0.10932051 -0.3163419 0.02176954 -0.158238 -0.34609568 -0.35766113 -0.22110115 -0.1581409 -0.33566585 -0.025794275 -0.047039732 -0.33561778 -0.06778733 0.039414052 -0.0011269422
行 0.16094881 -0.08297529 -0.2473232 -0.05140976 -0.12240916 0.09055898 -0.16525072 0.094568886 -0.13882466 -0.15883318 -0.120823815 -0.03930876 0.13761197 -0.048870817 -0.15445897 0.26458326 -0.08753306 -0.15447848 0.009807858 0.16104157 0.2704587 0.2582064 0.12882338 0.18149324 0.1211415 0.18191788 0.16914548 -0.1008467 0.07859895 -0.25328463 0.16512077 0.031711906 -0.41043237 0.072255716 -0.07507361 -0.0504851 -0.05395639 -0.19504188 -0.27367 0.17722474 0.118570216 -0.010037276 -0.26101992 -0.040324904 -0.14872047 -0.0024622555 -0.19793206 -0.22841874 0.13549185 -0.12424142 0.21284385 0.109180145 0.011769045 0.014629827 0.0029068412 0.29077807 -0.13708383 0.16275194 0.03230967 -0.14837594 -0.21092792 -0.11630971 0.13841464 0.024792327 -0.033630703 -0.08113092 -0.018780386 -0.02054981 -0.25517297 0.20659798 -0.03165473 -0.22716697 0.11129024 -0.29606193 -0.052675616 0.0072154617 0.270305 0.64060116 0.22940777 0.11639215 0.44062868 -0.080968186 0.09460168 -0.18614535 -0.060888693 0.115562916 -0.31332204 0.18178539 -0.09374936 0.085260406 0.08531288 0.0020132053 -0.11174287 0.038300935 0.14384265 -0.31475893 0.18966351 -0.07954394 0.09889526 0.22196583
谓 -0.100254275 -0.21377447 -0.21611223 -0.05590613 0.2341139 0.28704983 -0.12805513 0.019345883 0.0629382 0.2295579 0.09858183 -0.11166563 -0.35712925 -0.29482168 -0.07027556 -0.06638306 -0.020202525 -0.10548031 -0.01991154 0.23358259 -0.24094653 0.019473149 -0.00035864883 0.01756032 0.057938386 0.036238898 0.10368002 -0.086364485 0.11265011 0.14438426 0.107679 -0.28208053 0.005417367 0.23038253 -0.055487342 0.14450382 0.08392164 0.14970246 0.12735626 0.057179466 0.22372381 0.0063583427 0.042674772 -0.014824326 0.18224281 -0.05645692 -0.28068948 -0.018072847 -0.35555708 -0.31875658 0.3389337 0.2417733 0.08450619 -0.20896037 -0.16189449 -0.17545699 -0.2412839 0.15292482 -0.3314434 -0.30798477 -0.023133682 -0.11757163 0.22613807 -0.09607705 -0.10081807 -0.11269574 -0.019512432 -0.04464265 -0.11346465 0.3002948 0.22687249 -0.14011802 0.30309418 0.0023139773 -0.2106192 0.22195478 -0.035856757 0.4174336 0.016595904 -0.112985894 -0.14573765 0.011885057 0.12289513 -0.06279413 0.25970268 -0.08676976 -0.62991863 -0.021241529 0.17197351 0.03620109 -0.09163849 0.38263822 -0.09237244 -0.4723665 -0.08220876 0.26188442 0.066036336 0.20033972 -0.21485789 -0.030823415
必 0.1273755 0.28204283 0.21099606 0.016492125 -0.14193164 0.03988601 0.37470493 -0.06476124 -0.076440066 -0.09676936 0.038102727 0.100910045 0.11061535 -0.08198731 -0.09056819 -0.3309043 -0.06659448 0.17437825 0.033390902 0.18851744 0.014648239 0.050508052 0.17076561 -0.05847629 0.22349675 0.1128949 -0.17621711 0.04293427 -0.3015768 0.0013310494 -0.089979015 -0.06434288 0.09701607 0.14225681 0.37442562 -0.0038831597 0.053093057 -0.19366075 -0.07343821 0.11290658 0.04164687 -0.15196086 -0.09495119 -0.22512911 0.0051535983 0.124725506 -0.04088871 0.23920107 -0.27323556 0.056939837 0.21242271 -0.005958075 0.2511929 0.049927104 -0.23140347 -0.057850204 -0.1429941 -0.058750767 0.003295232 -0.17042705 -0.19210383 0.096112974 0.21317625 0.33612064 -0.16358662 -0.046127833 -0.0027203716 0.23515661 0.11701858 0.28378966 -0.1709559 -0.09369606 0.13116324 0.15748201 -0.041424718 0.011118826 0.10451082 0.78373814 -0.13950133 0.28789192 -0.014793661 0.2034123 0.116724856 -0.3397878 -0.11302639 0.29153377 -0.18172096 -0.12172366 0.1658555 0.09922786 0.30029455 -0.18291023 0.013969144 0.11140986 0.06224148 -0.05721074 -0.20772143 -0.0746213 -0.028170316 -0.14052005
礼 0.01826997 -0.3380229 -0.16968423 -0.01759845 0.19144152 0.15971027 0.2959627 -0.33496374 0.03023605 0.11398578 0.12673882 0.010127278 -0.1444029 -0.21862297 0.11046436 0.14472473 -0.119376495 -0.15258929 -0.031041866 0.085634656 -0.24553315 -0.4499453 -0.018398847 0.16417862 0.1468575 0.008626815 0.0066029434 0.097053126 0.08674564 0.12087977 -0.08269165 -0.058366723 0.121495195 -0.04650054 0.1403551 0.057559337 0.056217927 0.2507703 -0.08406449 -0.15165542 0.051055517 0.26610923 0.0067523625 0.08504421 0.21948795 -0.14733548 0.07628792 -0.22654355 -0.0059468 -0.23271862 0.113115445 0.06612166 0.19691904 -0.25485447 0.30644476 -0.15031305 -0.018903768 0.09135253 0.28085375 0.13027002 -0.027635604 0.051503535 -0.23243238 -0.010221728 -0.1591082 -0.17205153 0.013259766 -0.20978926 0.15161431 -0.15099521 -0.24716544 0.08946266 -0.19179705 0.0597164 -0.08406962 0.2538173 -0.13723682 0.8160267 -0.13928144 0.11650353 -0.16582833 -0.07443825 -0.1865353 -0.032244854 0.34164616 0.13723412 -0.10934113 -0.04920565 -0.10586408 -0.1808621 0.18580127 0.15294452 0.059135318 -0.21042366 0.38173732 -0.050161354 -0.33275232 -0.0131059 0.14517917 0.09355854
孔 0.14487767 0.1262547 -0.24898072 -0.08927984 0.21417156 0.3208398 -0.010281904 0.13731138 -0.007037751 0.31796843 -0.1940123 -0.35244006 -0.036034137 -0.32611835 0.28466135 0.28637695 0.037671156 -0.16939065 0.13804342 0.20201346 -0.16661346 -0.06316551 0.0577176 0.058089428 0.038425133 -0.13945574 0.025258014 -0.006238993 0.16533329 -0.09079716 0.07424962 -0.14516713 0.22026977 -0.39186952 0.107777596 0.1459758 -0.13397056 -0.30415195 -0.0024741392 0.14100929 -0.35734838 0.12900072 0.03992261 -0.08850055 0.1451708 0.27783814 -0.24411087 -0.16603467 0.099591136 -0.15631968 0.29435527 -0.06970992 -0.16985868 -0.28276786 0.17615613 0.004989312 -0.13213243 -0.10871634 -0.1124382 -0.4397569 0.2132486 0.22183885 -0.0076256194 0.06355327 -0.13531028 -0.10029217 -0.11452495 0.24890952 0.051812295 -0.24085271 0.09609121 -0.06925847 -0.09440899 0.3150022 -0.15259561 -0.24670702 -0.049464725 0.38149393 0.033013128 0.22890095 0.054080684 0.028860845 0.15305963 -0.012602628 0.099766396 -0.05657275 -0.9448548 -0.0744146 -0.04906977 0.25373134 -0.25411108 0.48876473 -0.3404643 -0.011953697 0.049077492 -0.2584038 0.2654201 -0.1299496 -0.26997983 0.22567466
斯 0.20395994 -0.14287107 0.03557173 -0.108948596 0.07880772 -0.24190074 0.2379522 -0.117814735 0.33867818 0.061153207 -0.06156236 -0.3346251 -0.16879953 -0.113297895 -0.119924225 -0.09662878 0.06088968 0.17598873 0.1765743 0.24297546 0.23059243 0.30223715 -0.01078317 -0.010969654 -0.13212374 -0.13889535 -0.254 -0.07337266 -0.011588631 0.038793914 -0.018789668 0.021293428 -0.19349733 0.3651284 -0.09504084 0.026679188 -0.25327978 -0.12904684 -0.030687697 -0.013563766 -0.3818835 -0.0881622 0.025731286 -0.18963568 -0.020492401 -0.05700601 -0.05820706 0.31271607 0.12708819 0.31046784 0.3556952 0.13911492 0.1475117 -0.13437028 0.16044904 -0.025917131 -0.12886341 0.041657068 0.20912002 -0.078223094 0.26348907 0.0024243563 -0.048239637 -0.18105863 0.23746347 0.23726566 0.0402724 0.01926487 -0.15275943 0.08254462 -0.061766163 0.021635307 -0.19342026 -0.28399426 0.3476377 0.41948432 0.2169533 0.61925894 0.2232784 -0.027701648 -0.17984541 0.09974166 0.043180857 -0.122212075 0.2501068 -0.13909522 -0.3429165 0.2930914 -0.15192269 -0.032085847 0.2825682 0.031013507 0.035854414 0.19751635 0.19199423 0.40370342 -0.047688358 -0.12853561 0.027232468 0.037169944
三 0.31323656 -0.07697312 0.030389111 0.3304298 -0.29978478 0.17475072 -0.13940448 -0.05327441 0.41971517 -0.2528836 0.1503985 -0.13427024 0.13126025 0.011235938 -0.0061194133 -0.011018702 -0.16780867 0.11606749 -0.05098469 0.2684094 0.15221809 0.13848461 0.16181332 -0.12139252 -0.05133524 -0.29247427 0.07889637 0.16032368 -0.15142846 -0.10354817 0.006150209 0.024108954 -0.0026776341 0.00861377 0.16690877 0.10820808 -0.4116636 0.1691167 0.015169689 0.08232149 0.004187133 0.096973464 0.09383605 0.12511252 -0.036274213 -0.21422438 0.012796286 0.46394944 -0.2270972 0.06890968 -0.19027649 0.09296662 -0.31592336 0.054817896 -0.06890222 0.08020464 0.21844229 -0.072183475 -0.0029111418 0.25144053 0.29031056 -0.043637615 -0.1252081 0.11574897 -0.15323748 0.09115259 -0.07324734 -0.19553861 0.06178961 0.06938767 -0.05488672 0.11322764 0.09239697 0.066564925 -0.03576978 -0.15887816 -0.2523631 0.6780643 -0.12439818 0.097982496 -0.15798596 -0.14846417 0.11778214 -0.3622032 0.10423104 0.08651682 -0.42005673 0.30621907 -0.02649388 0.16362478 -0.24548075 0.039716948 0.14955068 -0.017265987 0.14823027 0.17389724 -0.04754639 -0.24741139 0.10947759 0.14722349
能 0.04364377 -0.0016905859 0.09168677 0.26397255 0.28040546 0.17165774 0.08021093 -0.17249766 0.0868216 0.0007036404 0.026515918 0.07049462 0.49434614 -0.024118176 0.370534 -0.10139406 0.043279577 -0.052304186 0.2869835 -0.13911964 0.0033043935 -0.10636561 0.059542418 0.113991864 -0.1897599 -0.15160781 0.064266376 0.081009634 -0.18061677 -0.09182024 0.26418722 0.08066661 0.063200645 -0.19766127 0.07090915 0.096250914 0.13953571 -0.30793235 0.05569586 -0.19255002 0.16562098 -0.14703606 -0.24031754 -0.046175487 -0.30716798 -0.18187645 0.22622332 0.117743954 -0.112187944 -0.0663951 0.07444179 -0.13149826 0.22592571 -0.101615906 -0.31178728 -0.24482723 0.02335477 0.05517633 0.099862196 -0.042334594 -0.21297579 0.015363288 -0.2116957 -0.23110706 0.011038608 -0.15546289 -0.10103676 -0.10326103 -0.13596185 -0.0192343 0.18542692 0.040965166 0.05726527 0.023603346 0.16580054 0.082931295 0.27239272 0.730851 -0.31469193 -0.05864096 -0.18643005 -0.08451243 0.061717656 0.15194757 0.12523618 -0.109357685 -0.21051358 -0.072759606 0.13555661 0.016616466 -0.09663073 -0.06815808 -0.030518454 -0.029807309 0.31485918 -0.18748668 0.23399642 0.39798555 0.042352267 -0.07278596
见 0.13698119 -0.14745201 -0.30566305 -0.0152046755 -0.073888645 0.04419189 -0.04414711 0.25274065 0.043769978 -0.09661164 0.014795949 0.10111925 -0.3194752 -0.022063015 0.25892127 -0.39720747 -0.04789448 -0.13133386 -0.081812516 -0.092676975 0.08874271 0.09877067 -0.23230034 0.09903164 -0.08201928 0.067598484 0.018707417 0.047052816 -0.18287484 -0.33663678 -0.048311166 -0.02510079 0.13294578 0.110812806 -0.09855068 -0.11173248 -0.4230848 -0.05955245 -0.14718877 0.09461509 -0.22645001 0.32051808 0.12875466 0.06674255 0.21277381 0.117328964 -0.077403374 -0.22759093 0.112238124 0.19977039 0.13098888 -0.10805173 -0.3897097 -0.30845484 0.18387388 -0.1784572 -0.29787573 0.058649447 -0.1631313 0.014713762 -0.24851753 0.13562268 0.27464506 -0.2173951 -0.21411087 -0.12789693 -0.020836316 0.31138828 0.051052034 0.06769945 0.26936468 0.20385088 -0.02231811 -0.13900883 0.07422161 -0.11743136 -0.14797886 0.72427684 0.19604957 -0.117917076 -0.027132086 0.04729665 0.122418776 0.062346935 -0.073424265 -0.17008206 -0.25917277 -0.22403201 0.06596354 -0.11683049 0.09412419 -0.03903464 -0.046320654 -0.06802147 -0.057187054 -0.16304281 0.49740568 0.088790596 -0.039984062 0.237239
学 -0.20138296 -0.3236748 -0.03377299 -0.093799286 -0.17343816 -0.042977482 0.20792842 -0.20670804 -0.025870217 -0.13394028 0.13915707 -0.09012754 0.18173291 -0.33753487 0.17755428 -0.056414098 0.04215619 0.12159351 0.040283374 0.05128778 -0.012754494 -0.12517115 0.021759959 0.20676103 0.35529137 0.011553729 0.37030742 0.053241257 0.04674365 -0.06705998 0.26879695 0.16159813 -0.080033295 -0.27429193 -0.18872227 0.13647346 0.36619776 -0.098100565 0.028860848 -0.17678131 0.058405355 0.022116339 0.13288157 0.0973217 -0.091646284 -0.073606625 0.31897822 -0.03539745 0.12697892 0.09048396 0.331507 -0.2448788 -0.033090446 0.085953996 0.23138863 0.34875384 0.121569686 0.11992521 0.027310107 0.17640103 -0.18307172 -0.12612472 0.029970504 0.18484317 -0.3318186 0.0371469 -0.122160316 0.015638422 0.11412626 0.0062696873 0.022515463 0.02884218 -0.15017587 0.006172925 -0.095148005 0.04177034 -0.2788932 0.66221935 0.18363713 -0.021365566 -0.033299692 0.052164663 -0.052453358 0.008867988 -0.0888349 -0.30155066 -0.35363996 0.23484819 -0.3811527 0.017784812 -0.08062934 0.167505 -0.025966275 -0.210473 0.10749471 0.23794638 0.29411048 -0.27667788 -0.14034693 0.0051106126
事 -0.05042406 -0.2405476 -0.100022815 -0.13004045 0.03421834 -0.022625128 0.00079246756 -0.020061027 -0.011239617 0.050337467 0.2061343 0.11831584 -0.20860447 0.1577864 0.070048735 -0.29537368 -0.07937076 -0.13291374 0.08753623 -0.08127524 0.24272802 -0.14957283 -0.019294962 -0.05280974 -0.0074085384 0.14160958 -0.23578891 0.15087761 -0.17309368 -0.43151817 -0.09996212 -0.17179886 -0.12215878 0.08486119 0.060914177 0.1475208 -0.012569958 -0.033115696 0.10060931 0.056207143 -0.07016133 0.3792796 0.0942847 0.09506593 -0.12152785 0.059453454 -0.043899618 -0.46349022 0.07610159 -0.029332945 -0.332296 0.016721444 0.2670075 -0.1117744 -0.07416622 0.45550093 -0.18408263 -0.15813239 -0.26526552 -0.16902529 -0.21341544 0.1752784 0.10323724 -0.2684558 0.009611222 0.024949808 0.16418763 -0.41417953 -0.2707948 -0.133633 -0.0731281 -0.109280966 -0.022641685 0.09846196 0.32317844 0.17922483 0.23458514 0.74352133 0.2112214 0.2596022 0.18900935 -0.07319708 -0.06388511 0.10130267 -0.35152248 -0.14691089 -0.30743814 0.26135212 -0.17391096 -0.08591953 -0.044066742 0.016408583 0.015160907 -0.071695305 0.048652586 0.08416331 0.1892155 0.05884484 0.3054409 -0.022285845
是 -0.19955593 -0.12861899 0.11934077 -0.086475044 -0.12097988 0.29088527 0.07861224 -0.056159083 -0.43732837 -0.13451745 0.10376113 -0.062082075 0.01981168 0.14355637 0.1323759 -0.1317353 0.34418124 -0.08428243 0.20786014 -0.042244066 -0.16972592 0.24472706 -0.016088849 -0.19020742 -0.4514984 0.07713566 0.26555744 -0.043540142 0.13069724 -0.04646989 0.2529739 -0.29628098 -0.14444074 -0.1395983 0.01845031 -0.0016022332 -0.03812279 0.10238733 -0.0140755465 0.025937907 -0.16345297 -0.38926435 -0.16418546 0.17326504 -0.12032358 0.05676368 -0.36962643 0.2909771 0.2881539 0.3169677 0.10315071 -0.25147384 0.038123917 0.44296557 0.06788512 0.020777645 -0.12942836 0.025150454 -0.030668573 -0.13309324 0.013280439 -0.034614395 -0.0015532622 0.089635596 0.26902908 0.09728836 -0.130567 -0.0989806 -0.10372348 0.13578425 -0.002770896 -0.030632347 -0.29438213 0.15100642 -0.12472855 0.0014306352 -0.25467965 0.5717678 -0.40666133 0.08228312 -0.041854475 0.12332211 0.09052053 -0.09828538 -0.03354344 -0.09589813 -0.4403957 -0.12832057 -0.17647558 -0.14476587 -0.21431832 0.081395164 -0.23023823 -0.10780173 0.1356576 -0.01979315 -0.030362653 0.15498054 0.21313232 0.13754357
哉 -0.04307645 -0.04839494 -0.13144358 -0.22420345 -0.15966007 0.09392112 0.045692153 0.13311717 -0.26085037 0.32427087 0.11599909 0.037112948 -0.22765702 0.35166737 0.2601523 -0.18391564 0.16406743 0.29537237 0.10307043 -0.1215164 0.3027316 -0.26348382 -0.111574925 -0.1646887 0.06755534 -0.24286404 0.2497634 -0.03997339 0.25136012 -0.12124853 -0.24846733 -0.16426589 0.22495207 0.21249403 -0.05183169 -0.13052282 0.03038459 0.0777129 -0.20812252 -0.27423975 -0.39158806 -0.16027543 0.012782926 0.16340573 -0.0010602658 -0.27514657 -0.22510408 -0.103208385 0.16734514 -0.27161625 -0.04081734 0.19252458 0.19999184 -0.3104588 0.051344037 0.055592213 0.10487141 -0.084293924 -0.3660419 -0.007162227 0.083527245 0.2719785 -0.10058559 0.08762113 0.02359243 -0.20502539 -0.10791799 0.12805678 -0.65645534 -0.061089095 0.18992996 0.00884735 -0.1580894 -0.06994821 0.02269516 0.37665373 -0.1499726 0.3276962 -0.04389565 -0.0011804504 0.3392084 -0.31035897 0.1854566 0.12943022 0.16050194 0.27474427 -0.87243205 0.015087894 0.046857383 0.0056174467 0.011552087 0.034229107 -0.15116242 0.15776265 0.14727119 0.24060053 -0.31479266 -0.08319702 -0.020803854 0.13211882
闻 0.13306725 -0.010767814 0.16974556 0.0451089 -0.1571552 0.12965788 -0.128134 -0.25624096 0.28921065 -0.039155673 0.17383637 0.11970439 0.23992959 -0.17740022 -0.11176267 -0.2397235 -0.14619246 0.1976273 -0.1724161 0.17909686 0.3443904 0.114845835 0.2426397 0.005718339 0.23362862 -0.100342184 0.08340658 0.046858966 -0.05642792 -0.017444888 -0.008197502 -0.26854697 -0.47974303 -0.21647939 -0.18140377 0.004468357 -0.01176098 -0.22321986 0.16914041 -0.10614872 -0.053374663 0.043691803 -0.064467266 0.1570746 -0.00013165358 -0.20788226 -0.04296511 -0.09710928 -0.4433555 -0.32330543 0.39903232 -0.11610766 0.0057056523 -0.18370193 0.12120226 0.13713415 0.20482461 -0.0747534 0.035916004 -0.00051290216 -0.24733038 0.014964218 -0.14807492 -0.21722053 0.4323726 -0.037413694 -0.08768271 -0.17048036 -0.01513059 -0.20277843 0.020744074 0.005603359 0.12546359 0.33305395 0.22958548 -0.040229585 0.052124158 0.54140705 -0.01892313 -0.19260725 0.17770368 0.13084473 -0.01518968 -0.12634963 -0.06927273 -0.070432365 -0.48280412 -0.035693113 -0.001992931 -0.23634481 0.12474932 0.13314699 0.034862824 0.03672493 -0.040139515 0.048271332 0.6390338 -0.22803466 0.021610858 0.0005547968
未 -0.02967884 -0.11094134 0.14814998 -0.21411759 -0.02851849 -0.040777087 -0.025131987 -0.24900651 0.31560186 0.009531664 0.19163705 -0.37801835 -0.19726825 -0.16032031 -0.0057988944 -0.04000991 0.056556232 0.06572718 -0.02964352 -0.24643883 -0.2316347 -0.004896838 -0.25577974 -0.09752426 0.033954263 -0.022413762 -0.207955 0.003306476 -0.29822147 0.24802546 0.24858628 -0.07502766 0.251308 0.48817784 -0.0896362 -0.1282868 -0.20122671 -0.07693688 0.18615548 -0.0027598068 -0.35132313 -0.36886796 0.09921569 -0.08296444 0.23301543 -0.04782914 0.12868525 -0.16200103 -0.17281789 0.21257728 0.44937813 -0.15700153 -0.02004075 -0.29781184 -0.1582255 -0.026193645 0.046304155 -0.07197319 0.06625372 -0.030090911 -0.292204 0.2154537 -0.18550408 -0.30239478 -0.024846287 0.006740212 -0.043091897 0.021943282 0.06295609 -0.1062115 -0.09664139 0.116733 0.100338496 0.08524566 0.0723725 0.10580132 0.0020676597 0.5319825 0.124377266 -0.091215 0.28511515 -0.18658687 -0.03572178 -0.3850876 -0.09549269 -0.07911474 -0.40603364 -0.016425258 0.11134505 0.028625937 -0.07100773 -0.01988066 -0.038392793 -0.21640125 0.14569111 -0.17296351 -0.0035476943 0.3433096 -0.19746196 -0.31903535
公 0.23851626 -0.34171867 -0.2717104 0.16284321 0.26296058 -0.04503171 0.18417217 0.0032929159 -0.10565881 0.18727909 -0.33668944 0.042037718 0.2586821 -0.24830727 -0.08558626 0.24240871 0.10736534 0.13584015 0.13868594 0.1038762 0.1826783 -0.08359635 0.06568021 0.024878237 -0.104092516 0.36677974 -0.14323625 -0.1619356 0.2613393 -0.1559626 0.28817716 -0.43301964 -0.05852167 0.077840045 0.15083535 -0.32096207 0.019196173 0.14797464 -0.044305168 0.22616622 0.23612115 0.061567668 -0.027103351 0.13415144 0.37023646 0.16889021 0.3917717 -0.078791946 0.054047097 0.115583256 0.10501317 -0.38676125 0.08461319 -0.309859 -0.09868949 -0.04358509 0.0036200173 0.038296316 0.24052504 -0.0991955 0.27141696 0.27934083 -0.15713757 0.17042285 0.0085176965 0.17012295 0.08805247 0.18224585 0.006936009 -0.056712616 -0.027477892 -0.14750217 0.3721102 0.042985804 -0.049512796 -0.023887789 -0.17838351 0.51450783 0.09978362 0.09634995 -0.08943359 -0.07288496 -0.26412722 -0.036100514 -0.4916604 -0.06513887 -0.7549262 -0.29089826 0.14355329 -0.00081114133 0.17397366 0.2610691 -0.2060659 0.22961491 -0.37825832 -0.10164812 -0.0010217514 0.16347168 -0.032722354 -0.069575004
好 -0.10658744 -0.07494308 0.20274448 -0.2436069 -0.20268509 0.043896776 0.31996727 0.09192313 0.05366048 0.19424483 -0.0050360095 0.13703384 -0.13503945 -0.41731498 0.12712242 0.035404593 -0.1487108 0.026814235 -0.07582876 -0.09113302 -0.02367273 -0.24761406 -0.042480454 0.044778764 0.3553013 -0.059222944 -0.07425797 0.2265136 -0.20291704 0.04091716 0.32956913 0.29715937 0.23642623 0.35071346 0.33215493 -0.116670884 -0.13660264 0.34584287 0.24965584 0.036600716 -0.20973934 -0.20503645 -0.26026848 -0.022905363 0.0025979357 -0.3637936 -0.037516706 0.10508023 -0.06440228 0.055189196 0.3771765 -0.17952192 0.4183677 0.012762658 0.12998737 0.14521742 -0.11450135 0.24637996 -0.23972444 0.31457704 -0.06809206 -0.17356297 0.10132275 -0.014819431 -0.21898925 0.029734846 -0.023500381 0.09491282 0.25921887 0.06453689 0.026298486 -0.14109313 -0.16226278 0.19870608 0.26914075 -0.0843416 -0.13001803 0.923476 0.092715375 -0.18721578 -0.31071943 -0.3509621 0.13077743 0.33184096 0.039551627 -0.51495177 -0.08351218 -0.06347724 -0.06678787 -0.018452011 0.37461746 0.08295377 -0.35447958 -0.20732526 0.30154815 -0.22212143 -0.009314148 -0.07695907 -0.2524091 -0.04508157
我 0.25180754 -0.30680552 -0.2018506 -0.2011609 -0.30337274 0.06507841 0.17188755 -0.10061271 0.05972711 0.08950706 -0.21841125 0.033788253 -0.102648586 0.054640815 0.11866212 -0.04837692 0.1977345 0.006508521 0.08076026 -0.24329974 -0.22678366 0.09651942 -0.06985947 -0.144884 -0.19234075 -0.12125491 0.033945832 0.32294708 0.0032480122 -0.2685357 -0.2371374 -0.34766594 0.0032580453 0.16437538 0.2846385 -0.24417031 -0.30598357 0.12795582 0.21545324 -0.13077664 0.13718909 -0.12796044 0.03806489 0.15961188 0.098509975 -0.06205354 0.055510078 0.0095675755 -0.30061626 0.23156863 0.0032645466 -0.20099571 0.22216852 -0.15247379 -0.043425184 -0.088710085 -0.021785235 -0.20465088 0.39800385 0.05425801 0.27301523 0.024050644 0.01010516 -0.3511477 -0.0471159 0.033717193 -0.11343715 0.10907278 -0.13077475 -0.07447655 0.029127646 0.14049105 -0.0851504 0.23138271 0.028297529 -0.14823705 -0.12901405 0.5137 -0.0452941 -0.058701873 -0.21491818 -0.018111171 0.6248818 0.26741025 -0.13183421 0.19532186 -0.4981946 0.11441086 0.104472116 -0.14630462 0.11909049 -0.21303141 0.0054448177 -0.08776399 0.027879095 0.17372726 -0.033486128 0.09362453 -0.044826135 0.22430876
路 0.06398805 0.003220446 -0.10611613 0.38004425 0.22579388 0.12771992 -0.091495745 0.16876394 0.04571665 -0.30544955 -0.00086444465 -0.017835354 0.0739807 0.19814534 0.13516092 -0.037681602 -0.040733997 -0.20430695 0.18833067 0.10422406 0.04479589 0.404225 -0.20996214 0.26301527 -0.072055265 -0.14961538 -0.15943497 -0.35735944 -0.105036 -0.10387011 0.47375125 -0.07641081 0.3196846 -0.09249394 -0.27341855 -0.08538081 -0.1376 -0.4762993 -0.008924412 -0.10146489 0.28225234 -0.033811435 -0.08403047 0.024958802 -0.0641641 0.29542127 0.19275862 -0.07163774 0.09101436 -0.23373261 0.19914111 -0.31711388 -0.0587071 0.06343903 -0.023313243 -0.119724855 0.20406917 0.05473086 0.020476652 0.13087358 -0.19652535 0.14958574 -0.028653998 -0.34623146 0.7191782 0.24276534 -0.09629931 0.041281242 0.04239479 0.034501053 -0.058837794 -0.088748075 0.004579095 0.048802882 -0.10908811 -0.09309735 0.12186125 0.25073987 0.16445287 0.2931442 -0.092416875 -0.38254425 -0.46591762 -0.15697445 -0.14096826 -0.12638062 -1.0075411 -0.16855995 0.009167807 0.49405074 -0.024246844 -0.04738079 -0.13664716 -0.046450436 -0.004738194 0.110913366 -0.062373985 0.10535751 -0.018524637 0.25323877
在 -0.17059693 0.04171793 -0.08016904 0.0889029 -0.11192234 -0.01876562 -0.06409944 -0.23600908 -0.50704134 -0.061844967 0.21280111 0.25120628 -0.26753896 -0.27362135 -0.20654227 -0.13684157 -0.0719485 0.03370327 -0.17925291 -0.17248207 -0.080337726 0.036516912 -0.099254474 0.11928493 -0.1514589 0.48442233 -0.065275155 -0.008209861 -0.07737404 -0.16885045 0.11478646 -0.15669931 0.0119341975 0.14839444 -0.30317676 0.18929705 0.09462406 0.039090566 -0.24758516 0.21336628 -0.023934728 -0.015081686 0.04135469 0.04915793 0.4810247 0.47322527 -0.37117442 -0.38190353 0.058689423 0.33990118 0.01692286 -0.04403123 0.17303754 -0.089617856 -0.12259014 0.15050934 -0.11747652 -0.22018716 -0.12958203 0.19053952 0.17138703 0.03516691 -0.2111127 0.2721245 0.25138617 0.4758637 0.14957884 0.03350842 -0.002585628 0.22383854 -0.4539367 0.009714159 -0.043646093 0.012736293 0.25328037 0.018837253 0.030939188 0.7910677 0.11404285 0.21905583 0.34686133 0.13508432 0.38440228 -0.14839002 -0.39235738 -0.01601095 -0.3204799 0.025223259 -0.29208088 0.06917222 0.01554438 -0.08574992 -0.07390864 0.13286027 0.09093656 0.18421842 0.061543737 -0.24261467 0.2744825 -0.11279693
已 0.011773466 -0.046669878 0.23845151 -0.19897106 -0.048174977 -0.08614732 0.14947923 -0.09544652 0.039859816 0.01680064 0.4040073 0.13808914 0.058120713 -0.2864089 0.09414243 0.2639042 0.11632117 -0.05525584 -0.37018496 0.2327143 0.18205321 0.09096168 0.13946013 -0.061683763 0.18134293 0.13674107 -0.11619031 -0.13240638 0.17059419 0.12946428 -0.0892909 0.26579708 -0.065927014 -0.00026006845 -0.6318984 0.28842077 -0.13364914 -0.17230797 0.09164589 0.033606853 -0.14323507 -0.011980577 0.09642585 0.0001200672 0.063208684 0.34040198 -0.021238873 0.065434076 -0.14892216 -0.20929858 0.6238992 0.25264895 -0.2497729 0.03650654 0.052731734 -0.04360704 -0.10397591 0.37056676 0.13567367 0.04534847 0.04219412 -0.041361496 -0.025731975 0.08480084 -0.023576459 -0.18200558 0.20095848 0.27164948 -0.33954418 0.3117059 -0.09540547 -0.20626311 -0.044845782 0.24882759 0.24087064 0.30984297 -0.16606617 0.45799395 0.3483744 -0.069294944 -0.045303527 0.012537739 -0.03380965 -0.08086312 0.33779094 -0.6451501 -0.61037546 0.18228951 0.11449169 0.3491998 -0.038494203 0.24416934 0.20043002 -0.14482468 0.20491666 0.28843662 -0.29737583 -0.0531033 0.1276772 0.18335909
得 0.008686902 0.15891261 0.0614403 -0.14584593 -0.042100035 0.008938811 0.019845475 -0.1676544 0.10527264 -0.09996798 -0.029264178 -0.3335652 0.2875715 0.038666986 -0.24732888 -0.112404495 -0.09904345 0.23396523 -0.0238687 0.20620929 0.31847468 0.17337005 0.32033068 0.2536746 -0.10005819 -0.12714277 -0.24609348 0.016899934 -0.016757056 -0.09644166 0.18715946 -0.035228163 0.34736285 0.11984586 -0.24299264 0.13686697 0.20752865 0.040577568 -0.26755252 -0.031012436 -0.062285673 -0.12605013 -0.10033263 0.10172885 0.08259269 0.06484977 -0.16363882 -0.22806832 -0.1067608 -0.16342565 0.40837914 0.17145944 -0.12409184 -0.20354098 0.025173001 -0.020952621 -0.14298312 -0.14220735 0.2795627 0.1902992 -0.32605737 -0.1983816 0.033494297 0.17525873 0.058303956 -0.03276264 0.089795776 -0.1269789 0.2859951 0.33043382 -0.069805555 0.30730137 -0.29625896 -0.08496044 0.14675869 -0.15787639 0.2296687 0.7081379 -0.26067445 0.019967448 -0.25375733 0.06678157 -0.10511628 0.20361148 -0.63864446 -0.33088264 -0.17268579 -0.033101443 0.017589282 -0.23008053 -0.14433317 0.17889543 -0.16926078 -0.12553708 0.26856118 -0.01969948 0.017633738 0.26849172 0.031212322 -0.047587145
所 0.21914947 -0.016915182 0.08080744 0.2429398 0.1475675 0.24850768 0.252085 0.020524913 -0.041104462 0.34631705 0.15304999 0.25800696 0.11369122 0.016417481 0.13354036 0.013580491 -0.13546784 -0.09421179 -0.08918743 -0.0061372095 -0.2108112 0.13540712 0.37321392 -0.11853771 -0.12366585 -0.3156279 -0.16337666 0.26637697 -0.07031314 -0.19457729 -0.29107484 0.13789028 0.21533819 0.20691803 -0.17703329 -0.14885263 -0.29458183 0.036997024 -0.13200748 -0.10482569 -0.08476633 -0.04616007 -0.10292937 0.38826373 -0.018883048 0.08233339 -0.16623774 -0.12586255 0.20812337 0.002896212 0.24143031 -0.17391092 -0.075726174 -0.18584393 0.37271714 -0.17257303 -0.061673816 -0.16710208 -0.12530349 -0.0003308414 0.35151967 -0.2775714 -0.27173492 0.04365325 -0.11429224 -0.096990116 0.0044085397 -0.021507595 -0.118479975 0.17649123 -0.27756044 0.035285804 -0.11243289 0.0038778756 0.06379336 0.21671422 -0.13176419 0.87545514 -0.1686218 0.22426094 0.02808036 0.20811108 -0.0054781195 0.011253214 -0.008013559 -0.11024706 -0.09033418 -0.013755097 -0.036085516 0.08770176 0.10073272 -0.23107709 0.024366444 -0.0813199 0.37733093 0.08858675 -0.35049587 0.18840075 -0.048037972 0.32428774
民 0.32090157 0.35601825 -0.03928484 -0.027618326 0.18982863 0.14678875 -0.048721835 0.20289965 0.013229073 0.14271247 0.12149837 -0.08083473 -0.3561787 0.15379527 0.05885428 0.33936405 -0.2628648 0.08566674 -0.289238 -0.27249464 -0.19023867 -0.43249536 0.28749627 -0.38216507 -0.14792891 -0.10889533 0.2911141 -0.1927293 0.2915648 0.09025772 0.12637559 -0.08176302 0.04047477 -0.017402457 0.24007519 0.07194193 0.15121968 -0.026845748 0.20256254 -0.051989727 -0.050053354 0.32906935 -0.29058227 0.39038402 0.04609249 0.084997885 0.07123824 -0.120808646 0.07554966 0.20800894 0.10188253 -0.3340268 0.18092166 0.03199861 -0.13359179 -0.024399282 0.02982059 0.13025689 -0.21093702 0.0139187705 -0.28523138 -0.050412215 -0.02749952 -0.133322 -0.23043835 0.23567536 -0.24518394 -0.21389426 -0.2886645 0.030935155 0.14761078 0.03023726 -0.08532198 -0.15884699 0.008221435 0.3191838 0.15293527 0.96444494 0.071912676 0.15270582 0.29157546 0.091623925 -0.017507158 0.25238806 -0.1337639 -0.05047838 -0.118639305 -0.08901486 -0.3721822 0.17370784 -0.26821995 0.10977646 -0.16755204 0.2731279 0.12816437 -0.112749614 -0.16529244 -0.19078736 -0.20867302 0.012832731
小 0.0047018183 0.0507162 0.37395033 0.10938974 0.095781 0.019942725 0.3571036 -0.17444381 0.05657427 0.15745404 -0.05585374 -0.0023244242 0.20495115 0.029139822 0.052676145 -0.08026173 0.10575824 0.13512348 0.19808762 0.14114656 -0.055336732 -0.03632421 -0.21583071 -0.18988748 -0.43937647 0.31399316 -0.15206237 -0.2726458 0.074436806 -0.22364876 0.13318853 -0.08767348 -0.15078147 -0.38163018 0.25764623 -0.23003004 0.09043191 -0.089641154 -0.0841348 -0.03711643 0.035233602 0.12605034 0.29404947 -0.0044553005 0.04222863 -0.042860795 -0.10532661 0.10636877 -0.068293005 0.062237304 0.0401721 0.06583562 -0.12500057 -0.14015605 -0.05920817 0.07270283 -0.26557645 -0.1553395 -0.21169089 0.11423427 -0.15319328 -0.3783281 0.17515737 0.0857774 -0.29196662 -0.257655 0.20469336 0.033930365 0.2620337 0.01731962 -0.100826494 -0.30426878 -0.12771034 -0.049693067 -0.17799029 -0.28455222 0.27420905 0.7524099 0.13474162 -0.67008036 -0.012050169 -0.24550208 0.039660193 0.11431125 0.14551404 0.112795055 -0.32791588 0.20275703 -0.22169042 0.0895892 -0.0053488123 -0.27223846 -0.16545139 0.13949853 0.041785203 0.10708592 -0.09715523 0.13818225 0.0020914152 0.20946807
天 0.032361228 0.12713344 -0.25499308 0.33433613 0.13322747 0.16391808 0.33034167 0.23561879 0.0586712 0.19094849 -0.06513581 0.26712215 0.07113734 0.5344414 0.09309501 0.20187607 0.4000719 -0.12481571 0.106823765 0.2081092 0.0012398112 0.078304544 -0.12838635 -0.21367931 -0.08378695 -0.15279454 0.36989224 0.28337988 0.17548862 -0.05169149 -0.1946927 -0.30674607 0.097515345 0.11416451 0.029244099 -0.07954055 0.1242205 -0.058664132 0.064948715 0.13712382 -0.08604636 0.14128979 -0.3155962 -0.17103885 -0.06618129 -0.16528152 -0.34158954 0.2417527 -0.15953752 0.09995652 0.0031547402 0.050619647 -0.10110647 -0.07507461 -0.20852247 -0.12477432 0.044759586 -0.021546155 0.15225708 0.17521141 -0.009820911 -0.25884506 0.1352516 0.1262472 -0.15132567 0.46896204 0.16553703 0.1748834 0.16347359 -0.015828513 -0.010122829 -0.21083523 -0.33212975 -0.28471792 0.06014627 -0.11997798 0.1156433 0.6505772 0.18888077 0.017021187 0.38973066 0.059399966 0.107081585 0.28727454 -0.3298951 0.26885703 -0.4633139 0.30986294 0.35180956 0.12470575 -0.013279646 0.5160841 0.10101528 0.15993616 0.24604799 0.13326365 -0.09578284 0.16314602 0.3078035 0.12830232
乐 -0.042685155 -0.107483104 -0.15070319 0.048575386 -0.011412231 -0.057613686 0.057975434 0.116183095 0.079840235 0.16313052 0.27422053 0.4536323 -0.13244647 0.3431055 0.14651649 -0.0042715184 0.16710599 -0.1632068 -0.39733687 0.09004456 0.30699906 -0.15128703 -0.13771692 0.17760524 0.035197906 0.054377545 0.1464918 -0.12458691 -0.03996521 -0.022571389 -0.063745975 -0.30717453 -0.12518708 -0.083811164 0.14481655 -0.21834733 -0.09705667 -0.44604823 0.030209444 -0.30319047 0.30136585 0.043818835 0.16601036 -0.025094347 0.09767436 -0.3862918 -0.05686116 -0.10837671 0.66060144 0.11435537 0.31562766 0.24435064 0.20568423 0.36595708 0.28272238 -0.29127452 0.15955544 -0.019030979 0.019376265 0.21376137 0.1732043 0.16047834 -0.07837439 0.2272334 0.4034131 -0.19124927 -0.20471554 -0.29597884 0.053815585 0.16643538 -0.30881926 0.016686194 -0.060479954 -0.14324723 0.34169817 -0.17597221 -0.0019881728 0.80116206 -0.38566062 -0.14749783 -0.57127804 -0.1568443 -0.113544956 0.040393904 0.39655155 0.26751214 -0.23024727 0.15274139 0.07535028 -0.18197396 0.052505456 -0.06608216 0.23923859 -0.29337752 0.23204798 -0.15555368 -0.17127956 0.052129474 -0.17042963 -0.053433456
邦 -0.16832082 -0.27192944 -0.10832723 0.3980158 0.05685459 0.079106696 0.30688637 0.09887257 -0.011375006 -0.07982828 -0.38221014 0.3573006 0.087690555 -0.17944142 -0.12117347 -0.08706251 0.00063844334 0.19967651 0.11944259 -0.04445488 0.1824649 0.18400058 0.16429095 0.07790007 -0.08372733 0.054994695 0.16516456 -0.16691993 0.032488808 0.019416125 -0.021951647 -0.22338875 -0.15489306 -0.053322624 -0.107848056 -0.18613796 -0.21046972 0.17770363 0.2857456 0.104074806 -0.011228892 0.0759376 0.11168657 -0.27046907 0.48109993 0.05947179 0.2788828 -0.09199885 0.053084135 -0.033153404 0.017214907 0.48513585 0.16326374 -0.12286219 0.18608311 0.3423508 -0.16841762 0.1559386 0.1762804 0.3185012 -0.11738808 -0.044330508 -0.025727801 -0.2410453 0.44008094 -0.088096775 -0.42205948 -0.21455428 0.0657979 0.070659064 0.06611392 0.023784291 0.13556266 -0.39590895 -0.09259976 -0.09396945 -0.13859071 0.7408894 0.19092321 -0.12452573 0.36001906 0.22228745 0.08609715 -0.15396845 -0.044004668 -0.031941157 -0.35493788 0.15951554 0.07775885 0.118618116 0.13293271 -0.15790163 -0.37471807 0.17548405 0.12573516 -0.06806103 -0.24250741 0.29924005 0.0020736142 -0.20900469
亦 0.1313237 -0.25114244 -0.15721433 0.20714746 -0.18760863 0.18033177 -0.16709773 -0.17396718 0.40369597 0.2572154 -0.061239384 -0.062879555 -0.22726233 0.3048232 -0.39574647 -0.081444144 0.13927865 0.13940679 0.19678622 0.07948036 0.19420032 0.015397248 -0.09892497 0.12300492 0.07411689 0.06492561 0.2330118 0.104515515 0.001064069 -0.029825846 -0.18266249 -0.06566673 0.11394793 0.050265107 -0.34580052 0.2173032 0.17033947 -0.023128584 0.11421375 0.050708704 0.110716954 0.10870313 -0.42346132 0.08050977 -0.11364384 0.11073244 -0.11436623 0.2016091 0.053640287 0.11111334 -0.29442862 -0.009779686 0.17226626 -0.08167402 -0.041674625 -0.38797882 -0.072194554 -0.035087805 -0.25812724 -0.17243004 0.04651755 0.27944344 0.19137211 -0.26538232 0.031559344 0.5480682 -0.0088120345 0.28905368 0.18395297 -0.3326841 -0.23281862 -0.28830704 0.016245235 -0.083819784 -0.40582073 -0.12147506 -0.24240276 0.6980486 -0.34648946 0.09445956 0.12735036 0.3188362 0.12585382 0.077925004 0.20297998 0.01778932 -0.33839402 0.123182245 -0.23196207 -0.122151256 -0.035206992 -0.08328311 -0.088307485 -0.067465715 0.52605766 -0.018342128 -0.4693104 0.20483427 0.0838529 -0.045981407
使 -0.10215631 -0.23401569 -0.123836145 0.066561215 -0.07305462 0.3937012 -0.5085274 0.40039033 -0.2825608 -0.1783048 0.13764332 -0.13898584 -0.06218501 0.45688143 -0.10578115 0.14870556 0.15519322 0.21606764 -0.16215047 0.25244772 -0.032389298 -0.039645784 0.008806764 -0.36821827 -0.040611826 0.08563299 0.10397681 0.12001781 -0.08356539 -0.0150210885 -0.027569115 0.042170167 -0.27551123 -0.21503274 0.2673692 0.136164 0.019801954 -0.033676293 -0.094922505 0.13247032 -0.09569298 0.5263399 0.1033527 -0.100801654 0.0029618856 0.17304179 -0.003574704 -0.009492154 0.08039596 0.047920324 0.0015334062 0.064907424 0.118431926 -0.16680163 -0.17656256 -0.15450339 0.055266846 -0.19625233 -0.19614035 0.07396135 -0.17204802 -0.08082267 -0.29058567 -0.586375 -0.061655283 0.045544516 0.013372999 0.14292444 0.32231963 -0.02792335 0.28155765 0.09787632 -0.0319161 0.21755373 0.26400355 0.18856981 0.083288796 0.73371446 0.19138701 0.3047085 -0.3164231 -0.09456645 0.25125444 0.27819562 0.15316273 -0.5438722 -0.31335 -0.17546722 -0.24305484 0.08760598 0.15668948 -0.031867314 0.088399336 0.0331588 0.058899403 0.20712982 0.119395286 0.2189958 -0.26583225 -0.07830042
大 -0.1410925 -0.10860443 0.009604168 -0.183191 0.1973598 0.018804472 -0.011448506 -0.092475995 -0.017840965 -0.3168841 -0.05154179 0.06111416 -0.18688023 0.15825352 0.1999689 -0.23218809 0.32330686 0.18693101 0.17483868 -0.29204538 0.046374384 0.12140416 0.02814125 -0.19983336 0.11555165 0.02903601 -0.41983747 -0.22237165 0.119493745 0.14266127 -0.26781777 -0.3739059 0.015396882 0.22488882 0.105101734 -0.16295475 -0.03927655 -0.04817725 0.11933821 -0.051910587 0.010784892 0.16436428 0.29575774 0.28120494 0.08572557 0.095425025 -0.15099965 0.12881796 -0.05384639 0.14095618 -0.10602291 -0.19501908 -0.03833039 0.009576582 -0.246977 -0.07914072 0.24630708 -0.11305326 0.23231468 0.12913293 0.23078245 -0.09223381 0.05871863 -0.0629123 -0.19173616 -0.17562135 0.46437874 -0.13457225 0.17804378 0.16700709 -0.13043895 0.12448128 -0.05479609 -0.092578895 -0.03344292 0.29932776 -0.22889495 0.63097954 0.23232147 -0.11027888 -0.011313907 -0.094909646 -0.12055294 -0.22955097 0.226206 -0.1401672 -0.3545688 -0.23443732 0.36770838 0.23063552 0.13234974 0.08792661 0.27141204 -0.27584448 0.15207997 -0.34748265 0.1253116 -0.1136224 0.06534473 -0.059937723
下 0.07414459 0.07194352 -0.10714823 0.006946074 0.1109795 0.13954179 -0.047869507 -0.14918599 -0.1928132 -0.069402814 -0.33467865 -0.0409307 0.10836463 0.23359652 -0.09213813 -0.21009827 0.14226054 -0.25286618 -0.12337561 0.09574682 0.01330929 0.12066805 -0.038442396 -0.14280476 -0.35389048 -0.5336214 -0.23758858 -0.0045378953 -0.057644732 -0.016853431 0.02590277 -0.39114052 0.298492 -0.12309627 -0.12650843 -0.36068562 -0.045765977 0.1644699 0.4811134 -0.12991448 -0.1059854 0.13974567 0.22627743 -0.11330924 0.012128709 0.026371947 -0.2047291 0.2066298 0.009988329 0.11317011 0.3280356 -0.12047362 -0.15074314 -0.105960734 0.43549892 0.3944538 -0.41035274 0.36103404 -0.15740071 0.017880257 0.10535696 -0.27382138 0.28434512 0.17524557 0.0013641912 0.13751894 -0.20189947 0.028000979 0.29201478 -0.12816477 -0.23524426 -0.0582362 -0.051633205 0.0132279415 0.10908322 -0.08560801 0.09605774 0.80596197 -0.20233043 0.3583271 0.0413834 0.2144506 0.16066676 0.17844637 0.00026412422 0.1767688 -0.18885902 0.021318676 0.23098165 0.31037652 0.1531327 0.10049843 -0.24464703 0.20672823 -2.4785395e-05 -0.011117539 -0.14992118 -0.44018957 0.11967436 -0.041373774
贡 -0.2451843 0.005091212 0.009483683 -0.09965155 0.1323197 -0.24615623 -0.08419291 -0.19393757 -0.3403645 -0.017302122 0.18029277 -0.1899214 -0.20930076 0.0715905 -0.5068195 -0.05359336 0.22548105 0.03992346 0.46518904 -0.2686566 0.050452076 -0.00612892 0.3907049 -0.23811327 -0.1248647 -0.14512677 -0.191096 0.34517914 -0.16367781 0.05824888 0.18265373 -0.35245174 -0.004739199 -0.04167913 -0.0031032842 0.30189747 -0.056529824 -0.205721 0.15464652 -0.18612029 0.33084345 0.002313392 -0.064092554 -0.30254254 0.21403125 -0.10163507 0.12782535 0.10040987 -0.22603954 0.03830761 0.20072511 -0.09287879 -0.020424776 -0.07391714 -0.33981812 0.16191214 0.22077107 -0.18915015 0.28696403 0.43407235 0.32672808 0.093216985 -0.004209736 -0.29244196 0.13511059 0.04465882 -0.07947164 0.2892384 -0.031421717 0.37284943 -0.12018828 -0.01603001 0.033287276 0.19693242 -0.22870897 0.24118856 0.089619115 0.10379465 -0.065034166 0.13694036 0.1348459 -0.07651291 -0.23579344 0.120427236 0.10269459 -0.16721006 -1.3916655 0.35677457 -0.07209683 -0.24360862 0.006622325 -0.3145768 -0.20479977 -0.17845589 0.05583098 -0.0122345025 0.0015032669 -0.31963664 -0.027764823 0.2872126
欲 0.089271545 0.08509175 0.036589105 0.2968814 -0.356625 0.13822089 -0.03817231 -0.058306493 -0.060923763 -0.0617845 0.08603312 -0.23632932 0.11021181 -0.16444513 0.23161697 -0.2911481 -0.0129069835 -0.2826674 0.38489026 -0.5664429 -0.3135925 0.08307762 -0.25311834 0.047556553 -0.24043898 -0.06759339 -0.021423204 -0.13388863 0.21033649 0.008449226 0.09008476 -0.07489334 0.18403496 0.11554567 -0.58287287 -0.16151977 0.06212617 -0.13230726 -0.085152686 0.049873088 0.037886754 0.19613788 -0.31403345 0.24241568 0.17189285 0.37698027 -0.13262624 0.020162221 -0.07247552 -0.13063483 -0.20612082 -0.02756291 0.18929046 -0.17917895 0.14440288 0.054681093 -0.16059215 0.10226376 -0.11450775 0.1787498 0.02861164 -0.30750975 -0.15694995 -0.15874892 -0.28230602 -0.097957715 0.31856334 0.29074997 0.053683892 0.29955986 -0.3460578 0.16884257 0.1712559 0.104747124 0.014847301 -0.15162854 -0.14371015 0.6417605 -0.15183817 0.00015691033 -0.10250155 -0.2489452 0.073852494 0.29093412 -0.14355028 -0.1365557 -0.37501386 -0.22445294 0.09611037 0.15395051 -0.3660318 0.09899938 -0.03225943 0.15195104 0.2899597 -0.0892626 0.21254161 0.29584262 0.012936543 -0.008395437
诸 -0.030556958 -0.32794362 -0.00014214232 0.038865518 -0.19361998 -0.09929611 -0.0574077 0.31505722 -0.3819192 0.18669295 0.09975344 -0.44464105 0.48569244 -0.26084256 -0.17308228 6.7951914e-05 -0.057122737 -0.24750647 -0.0003669517 -0.26088053 0.051893547 0.20060152 -0.06821752 -0.43255615 0.15607359 0.28147408 -0.25984067 -0.38515192 -0.1453999 -0.037665628 0.19829969 -0.025872115 -0.37511888 -0.060639672 -0.0049542 0.3288207 -0.1605333 0.31740212 0.07948962 -0.31076753 0.29084045 0.07851376 -0.16724207 0.033618573 -0.026295334 0.0866186 0.015987195 0.17084517 -0.1541305 0.21418194 0.2653813 -0.21089344 0.36726665 -0.48417062 0.12587175 -0.15236162 0.12748152 -0.02402594 -0.03320863 0.22540495 -0.051196776 0.15507121 -0.15660979 0.032831136 -0.18848608 0.0063126422 0.33383304 0.112768106 -0.10790726 0.0009125263 0.30734545 -0.02906308 0.48076114 -0.2437506 0.3946196 0.015106423 0.4854947 0.5100441 -0.111751415 0.032871485 0.13355105 -0.15126483 0.010593977 0.2883021 0.28633946 -0.04409928 -0.575149 -0.14775828 0.2529093 0.15437604 0.51599115 0.008196807 -0.26109114 0.053199466 0.14576194 -0.15435049 -0.20806096 -0.3350909 0.2611828 -0.4027091
从 -0.21609682 -0.11059509 -0.25264537 -0.3505164 -0.22196512 -0.028484697 0.026230615 0.07632568 0.030193001 0.0646698 0.021841966 -0.47301224 -0.12802826 0.23483357 -0.19806185 0.18977179 0.27829245 -0.038873978 0.18720223 -0.21365702 -0.22068357 0.04431299 0.3179154 -0.066990525 0.26330948 0.004290525 0.09792899 0.24713404 -0.26324424 0.08940134 -0.100154206 -0.313102 0.125818 0.057533417 -0.1323903 -0.18769397 -0.05672353 0.039453395 -0.47749603 -0.1770605 0.1869961 -0.26568073 0.4300517 0.3296463 -0.075804584 -0.12520668 -0.031034462 -0.0022646408 0.08337398 0.14751948 0.1737163 -0.12566645 0.046689045 -0.115471415 0.008036207 0.01026197 0.032446943 -0.02064051 -0.24147834 -0.41732496 -0.05265264 -0.04125834 -0.05770189 -0.063762695 0.2755135 -0.05928144 0.20559786 0.018934082 -0.45168325 -0.23266885 -0.20282795 0.33969563 -0.21961631 -0.04354185 0.03545243 -0.55390674 -0.14417942 0.58370817 0.07958832 0.031549215 -0.40834197 0.2505814 0.11674746 0.007311907 -0.08364387 -0.19941662 -0.29635966 0.14902608 0.15304859 0.24131066 -0.29331735 0.20401976 0.108503595 -0.07740014 0.08946494 -0.36146715 -0.1128487 0.12660323 -0.15491718 -0.24979517
文 -0.54418325 -0.17728756 0.002565031 0.18732262 -0.12150109 0.42777818 0.067555405 -0.034058403 0.12461938 0.08779751 0.08879555 -0.013450435 0.06514129 0.14851937 -0.011949605 0.090281844 0.29448864 -0.22896919 0.06426137 -0.0026065717 0.011105255 -0.11705193 0.20021658 -0.2886066 0.30188164 -0.11617221 -0.0828198 0.0651351 0.18520965 0.22287868 -0.2701871 -0.46388495 0.067847796 0.23727536 -0.048239365 0.46187487 -0.42026794 -0.045295734 0.26789722 0.039396774 -0.08991974 0.24221897 0.27271658 0.12639935 -0.12576957 0.18430994 0.11022797 0.23839766 -0.09466973 -0.11483366 0.1002458 -0.11812597 0.24217333 0.31295165 -0.015267362 0.0068603805 -0.27263927 -0.04088179 -0.0946457 -0.084310375 -0.17235647 -0.055892766 -0.24887553 -0.10060218 0.14207776 -0.10549058 -0.08693539 -0.25477356 -0.079567835 -0.34512448 -0.09055886 0.11767601 -0.095528536 -0.15058103 -0.23324306 0.0013117669 -0.13261053 0.5530148 -0.08105909 0.01751352 0.16644569 0.06986283 0.0015164069 -0.10347509 0.044658516 0.16741125 -0.5176771 -0.19111316 -0.17273487 0.20046715 0.33369827 -0.14730613 0.15687951 0.2785676 -0.08465205 0.16031486 0.2656226 -0.07814506 -0.17761597 -0.14871092
政 0.123187564 0.04845946 -0.107584685 -0.058208805 0.107985355 0.06785214 0.056964304 -0.036066618 -0.057692185 -0.05814729 -0.46430728 -0.285442 0.11186772 -0.17728288 0.3187746 -0.34312385 0.18564764 0.4470772 -0.07210949 0.12531374 -0.014011686 0.27193955 0.10325993 0.13601923 0.008518996 0.1150816 -0.009466613 0.3236835 0.50270724 -0.08387704 -0.028060686 -0.38247797 0.12380226 0.13034785 0.36947724 0.120177776 -0.084823 0.24086215 -0.15625937 -0.00421298 -0.010507037 0.23922773 -0.21460822 0.11055015 -0.19772816 0.4344438 0.14478683 -0.08778229 0.05970108 0.17641822 -0.09417212 -0.18388267 -0.051882513 0.24372041 -0.055438496 -0.08725953 0.05812533 -0.07883571 0.18436387 -0.29746702 -0.08661939 -0.15148169 -0.024535723 -0.2827967 0.17981184 -0.23044012 -0.022637652 -0.022254394 -0.10365444 -0.2246384 -0.010763739 0.19058207 0.06610641 0.029324757 0.12578265 -0.06431533 -0.058312684 0.47805607 0.34605193 0.15310398 0.23809813 0.22241472 -0.036558427 -0.0055526597 0.47468907 -0.09859572 -0.71436954 0.1446753 -0.10466867 0.110552825 0.1346862 -0.09417016 0.18966272 0.39399967 0.13862778 -0.070267364 0.16100045 -0.06993655 -0.2883122 -0.052491788
食 0.21478043 0.8952604 0.10406522 -0.15391274 -0.24509285 -0.0747198 0.06419403 -0.19527899 -0.16639328 0.06532255 -0.35565946 -0.018134287 0.11067608 -0.1265519 -0.12624577 0.06842719 0.25719622 -0.17981528 -0.06102387 -0.10232039 0.2451918 0.20058398 0.22981066 -0.012868168 0.07281677 -0.29221046 0.1861433 -0.15660213 -0.028580131 -0.11634218 -0.4027816 0.10226961 -0.1831823 -0.20907895 0.03781118 -0.023574056 -0.09543149 -0.5104538 0.062131993 0.20881446 -0.27509984 0.58354664 0.06934111 0.22499067 0.35908148 -0.07823992 -0.21057938 -0.024647161 -0.15023787 0.17439055 -0.14671314 -0.070048794 -0.5346696 -0.16748708 0.10482297 -0.2033705 0.18377225 0.3289252 0.2762801 -0.18823718 -0.01211651 -0.05521091 -0.22512506 -0.23659779 0.1986363 -0.13050184 -0.39577746 0.50450057 -0.10665492 -0.15143123 0.03668688 -0.43631583 -0.274362 0.07192041 0.18232647 0.07553857 0.10808044 0.8832864 -0.12858137 -0.14547855 0.37477058 -0.23146974 -0.25635132 -0.34435484 -0.26041058 -0.0076009957 -0.3943256 -0.017985584 0.010824726 0.05750234 0.05322857 0.16291696 0.43150595 0.23421657 0.37555692 0.12062387 0.08891684 0.2283785 0.19559723 -0.44124418
善 -0.27981433 0.117312044 -0.07736353 -0.06749751 -0.16517739 -0.29251233 0.021834498 0.40747097 0.1580652 0.2510356 0.2884367 0.13711287 0.07180319 -0.07194146 -0.09533031 -0.1899884 -0.009638931 0.14574212 0.2906439 -0.08220202 -0.16443914 0.25960246 -0.02057452 -0.09473888 -0.18652993 0.2485717 -0.09893686 0.054573845 -0.3989281 0.0959091 -0.21738416 0.06567845 0.23701794 -0.5316996 -0.02491785 -0.08620452 0.17721795 -0.15100802 0.37979344 -0.15939194 0.042195037 -0.21777616 -0.42483705 0.19234917 -0.088120125 -0.15148221 0.28151107 -0.09912282 0.12887402 0.11622242 -0.08303923 0.0038645617 0.079141185 -0.051548198 -0.08228293 0.014779866 -0.07265728 -0.040948562 -0.03382842 0.11774711 0.05279564 0.01012375 -0.16581124 0.07375177 0.048301835 -0.20418696 0.06797713 0.28143197 -0.13354486 0.14030905 0.063318886 0.08850394 -0.2766751 -0.14494999 0.04020198 0.03632006 0.24188364 0.6971873 0.02252205 -0.033518214 -0.06819011 -0.035368588 -0.09100837 0.31190872 -0.087854326 0.04835844 -0.4078072 0.105149396 0.059750885 0.27723464 -0.06361216 0.30216357 0.07522371 0.40983543 0.1263639 -0.30490726 0.3583945 0.085762426 -0.54985577 0.24003762
后 0.160769 0.20836213 -0.70474076 -0.060995787 -0.111816145 0.05167143 0.020309582 -0.06957768 -0.06178553 -0.06970606 0.20710485 -0.01507171 0.16745253 -0.07370683 0.5216375 -0.3706131 -0.28866363 0.4288057 0.14396396 0.07129249 0.24803099 -0.22129083 -0.024957715 0.24651344 -0.014074696 0.028735448 -0.47562572 -0.10977326 -0.13535926 -0.02489419 -0.0097009875 -0.13645786 -0.15772538 -0.106370375 -0.0097839935 -0.25468946 0.32386103 -0.260306 -0.16358732 -0.0062599685 0.200813 0.14752299 0.102963544 -0.12772493 0.09241273 -0.055924613 0.08806424 0.036099724 -0.011955525 -0.047766868 0.12382895 -0.2341024 -0.13847396 -0.006792567 -0.37466475 0.22111571 0.5150715 0.031847864 -0.19652055 -0.034075174 -0.3222554 -0.17430973 0.22516622 0.10077887 -0.121311225 -0.1721115 -0.08608667 0.06185739 0.1065682 -0.1031984 0.25474215 0.14185756 -0.03447589 -0.104927935 -0.36354062 0.35999525 0.04495505 0.66209555 0.0036160639 0.09485649 -0.14527875 -0.19060265 0.022597281 -0.33039242 0.06428873 -0.17142971 -0.34262165 0.093374714 -0.03378382 -0.19665888 0.244365 0.36339527 0.034909926 -0.22502144 0.14400077 -0.104906715 -0.1887463 -0.17124102 0.14498506 0.06396864
德 -0.18172273 -0.1846849 0.09497859 0.10251736 0.25179046 -0.106122375 -0.2936045 0.4572309 0.020836575 -0.018186636 -0.14615124 -0.34441313 -0.16939986 0.028417801 0.14131232 -0.12769423 0.18066904 -0.20213662 0.072539575 0.08431182 -0.019399753 0.07870839 0.0935 0.28377715 -0.061168637 0.25212824 -0.079368494 -0.004937957 -0.022580493 -0.08832063 0.002996674 -0.37141335 0.11972769 0.21106078 0.14769486 -0.332671 0.15146719 0.0072054015 0.11117529 -0.36653388 -0.17614229 -0.20426151 -0.09816214 -0.20714112 0.103318386 -0.03411311 0.11315207 0.031742543 0.074579164 -0.20399557 0.06879324 0.33649626 -0.076737724 0.27335668 0.03150209 0.28519887 -0.057577312 0.06264411 0.03659045 0.03017608 0.28864336 -0.027233427 0.19893628 -0.13564977 -0.26414084 0.01792424 0.108970046 -0.3340279 0.09015554 -0.066433355 0.0037088578 0.37190595 -0.22066256 -0.025589883 0.08744984 0.28280115 0.23568982 0.5663659 -0.36567095 -0.43913776 0.15230618 -0.13517813 0.029680885 0.42856038 -0.21208902 -0.4268574 -0.4322147 -0.023959594 -0.37106058 0.012140469 -0.09570054 0.09892466 -0.06892365 0.03829284 0.04163839 0.0067922315 -0.12258668 0.12640183 0.0624416 -0.041532315
求 0.17547376 -0.18893784 0.11054982 -0.40858254 0.11574871 -0.14130524 0.0059505384 -0.37549117 -0.2644834 -0.3158857 -0.1501243 -0.061366335 0.07451444 0.39175367 -0.38558573 -0.085250735 -0.009621154 -0.1650443 -0.03349727 0.007648749 -0.27239767 0.39822567 0.0693395 -0.37241617 -0.020582799 0.044439532 -0.11428654 -0.041960057 0.021392696 -0.15684362 -0.1613446 -0.30477563 -0.13916215 0.0024874622 0.045463074 -0.5226626 0.2130976 -0.007153561 -0.082685545 -0.068106666 -0.024581697 -0.08267715 0.019167889 0.16364896 -0.2081105 -0.31314948 -0.110930815 0.10248598 0.16777992 0.2140941 0.5162996 0.082139015 0.17410246 -0.23294063 0.17044869 0.49575314 -0.015620518 -0.5324972 -0.19582362 0.0361402 -0.47096545 0.010045011 0.20358509 -0.17471337 0.142328 -0.32964596 0.3336898 -0.12974079 0.015618358 -0.12553313 0.12830901 -0.45987627 -0.032967247 0.03632025 -0.051272012 -0.019030493 0.31837997 0.41464484 0.1323263 0.2680843 -0.28682542 -0.08241876 -0.19170012 0.22014342 -0.06872722 0.029859176 -0.49657956 -0.041102394 -0.22757411 -0.25469553 0.17007202 0.05375885 0.40402412 -0.35321897 0.12867057 -0.18106581 0.04198342 0.03475859 -0.31678286 -0.60175955
对 -0.03281075 -0.2717682 -0.19801724 -0.19584496 0.118439175 -0.098811515 -0.0058284043 0.17711592 0.064170085 0.19103982 -0.022656312 -0.15145211 0.32842645 -0.16884805 -0.31129488 -0.272194 0.02676895 -0.10050582 -0.19685122 -0.16848506 0.083989166 0.08013573 -0.16749156 -0.059432667 0.20232894 0.076627515 0.059978418 0.45618817 0.057558384 -0.5105348 -0.13214101 -0.05127074 -0.3584483 -0.22660361 0.07419628 -0.19291702 0.10532711 0.10086363 -0.20701398 -0.2121209 0.058050476 0.17831224 0.15768892 -0.08927097 -0.44062743 0.008952188 -0.194982 -0.033992875 0.22306232 -0.4669753 0.22589526 -0.23388095 -0.072599985 -0.010624941 0.17186949 -0.3381807 0.03540586 0.031092621 0.012841282 0.042368025 -0.17562398 0.07733765 0.031049844 -0.146576 0.018179992 0.09499409 -0.0031651147 -0.10604859 -0.20766377 -0.19348559 0.4141851 0.32417747 -0.18928975 -0.02379145 -0.2531575 0.09069266 -0.13531551 0.25499392 -0.07388464 0.122694395 -0.09405625 0.20261659 0.10891262 -0.05613141 -0.08237052 0.46652204 -1.0502095 0.008838744 0.0037742876 -0.35947683 -0.1028171 0.18146189 -0.28375566 -0.0478673 0.070039794 0.04557749 0.109540775 0.11747092 -0.0014387066 -0.17286068
恶 -0.38310483 0.13710652 0.023208797 -0.22375694 -0.044590663 0.07146215 -0.013555571 0.2689924 -0.030130636 -0.22604291 -0.35530987 -0.1803303 -0.16926233 0.10794394 -0.24440539 -0.30510628 -0.04813781 -0.2386818 -0.28913417 -0.33426958 -0.34437147 -0.18914777 0.113535084 -0.20308565 -0.3572808 -0.07349715 0.31044045 -0.31993997 0.0668522 -0.12031709 -0.07841569 -0.11129758 0.6165309 -0.066257745 -0.030843157 -0.027038071 -0.09207198 0.07051733 0.09486673 0.054169577 0.1489859 0.3462456 -0.054201752 -0.17377637 0.024870202 -0.23404144 0.09522015 0.07758834 -0.11100038 -0.17186357 0.12039045 0.27231666 0.22086863 -0.055941015 0.045780648 -0.14659645 -0.17426613 0.13451256 -0.47390157 -0.13362785 0.23562181 0.09344587 0.42881736 0.16608833 0.12936483 -0.31278414 0.11213983 0.07726602 0.16802408 -0.037307832 -0.14025125 0.011177139 -0.10966539 0.32904932 0.3938994 0.11491337 0.08171465 0.88156176 -0.13575786 -0.0041982685 -0.13821095 0.20083858 -0.010610657 -0.088533394 -0.21192 0.34551528 -0.06633589 0.13056506 -0.23195049 0.30523363 0.20262948 0.24445674 0.40690488 0.17673062 0.4997284 -0.21766089 -0.14120093 0.1892774 0.15442057 -0.23123904
信 0.11098095 0.032482363 -0.23345023 -0.116760515 -0.06515826 -0.02878615 -0.20924805 -0.2300241 0.018751774 0.57892954 -0.08657729 0.11556316 -0.29434672 0.11960128 -0.015876075 -0.20862524 -0.39463338 -0.10012467 -0.19083725 -0.2418825 -0.034007248 -0.18815541 0.12498021 0.08676367 0.07936943 0.2697528 -0.18106575 0.039234117 -0.35228986 -0.24864474 -0.039155066 0.058636613 0.10614334 -0.033456836 0.0860195 -0.41487828 0.18095042 -0.31302586 0.21965492 -0.29842827 -0.023025297 -0.026660727 -0.07775799 -0.14355502 -0.16092017 0.0444307 -0.05190193 -0.0014256755 -0.20148835 0.110491544 0.23829484 -0.0073300507 0.11070976 0.3764009 0.09909384 0.30210945 0.0385091 0.18063338 0.060629018 0.104031265 0.1402769 -0.26707387 0.16643414 -0.26830846 -0.063680515 0.16622265 -0.042477015 0.3895071 -0.1333963 -0.20519754 -0.1119834 0.16207154 0.10214977 -0.21315898 -0.16062169 -0.10377353 0.23809738 0.8889549 0.15703167 0.039418012 0.08912814 -0.33020583 0.011699116 0.06252671 -0.1552623 0.14016868 -0.12543264 -0.17791812 -0.084319755 -0.07071862 -0.3746551 -0.21297611 0.038509402 0.03377322 0.3566063 -0.26018813 0.0094050355 -0.10594835 -0.41158694 0.11601422
死 0.11495301 -0.027721135 -0.042694952 -0.007770447 -0.35814586 0.06621047 0.15590706 0.15686017 0.02400645 0.13216926 -0.09419974 -0.012521085 0.15994065 0.046054203 0.5527684 0.44301432 -0.1223925 0.21178982 0.005248524 0.053739004 -0.14128315 0.020361643 -0.16592313 0.2507102 -0.113265924 0.08165208 0.37473017 0.25851315 0.031474356 0.52362525 -0.23668028 -0.14934552 0.2050667 0.17978536 -0.49805325 0.04807076 -0.070303 0.025409715 -0.050997388 -0.10767773 0.18530013 -0.093039915 0.21939108 -0.17592162 0.066343874 0.03592409 -0.07611414 -0.2492166 -0.16569744 -0.057964943 0.19162342 -0.074078396 -0.08974011 0.1548586 0.105926804 0.28280693 -0.37662902 0.1485159 0.23565175 0.24040174 0.05852817 0.099784985 0.061639667 -0.23163652 -0.10486587 0.044598732 0.17174944 -0.02752295 -0.09439641 0.49634367 0.21315959 -0.028989067 -0.103250764 0.27391154 -0.19977106 0.001367667 -0.08709816 0.66321254 0.024580989 0.21654017 0.3731543 -0.15755512 -0.084682316 0.0870436 -0.09473311 -0.14522035 -0.3132556 0.34449273 0.18343009 -0.12783954 0.0684353 0.11518013 0.103318326 -0.08546813 0.048531182 -0.19500746 -0.17768422 0.32592225 -0.035353385 0.20032525
然 -0.10107539 -0.047618236 -0.3327473 0.21047679 -0.4233395 0.091038175 0.31343645 0.18315244 -0.037279118 0.048156127 0.21583186 0.31364697 -0.01284045 -0.02144312 -0.14328569 -0.038448732 0.18728992 -0.14829737 -0.17974755 -0.20261109 0.09664289 -0.26426002 0.20203346 0.31122646 -0.10326837 -0.033639837 0.00060772017 0.030414786 -0.0747022 0.47285938 -0.509312 -0.20330869 0.39649588 -0.04572964 -0.1540367 -0.09262882 0.10829501 -0.29353446 -0.18347797 0.1463928 -0.016551407 0.09147405 0.21683608 -0.066725336 0.26440307 -0.05091278 0.066680245 -0.2658131 -0.09209065 0.044215288 -0.08756095 -0.04571371 0.17852807 -0.15618952 -0.23500375 0.08905423 0.32538125 -0.24304898 0.2017873 0.08066899 -0.1719224 -0.049071282 0.20807451 -0.10981185 -0.0028705238 0.082826644 0.32120028 0.4940216 0.022715613 0.30014375 0.10883188 -0.22522464 0.054836903 0.21639399 -0.3221005 -0.1803445 -0.2423313 0.5152422 -0.005342572 -0.28326252 0.10359103 -0.31783256 0.14798035 -0.28014284 0.084843755 0.40272838 -0.6549747 0.2875608 -0.27706105 -0.10937351 0.3228716 0.030807897 -0.057133064 0.15476349 0.070168756 -0.31601822 0.05205788 -0.15645617 -0.20455891 0.3273247
