1352 100
， 0.022252265 0.009572143 0.022087203 -0.03500952 -0.09030145 -0.05819152 0.0115085365 -0.0030345481 0.020169403 -0.033106837 -0.11283993 0.06839333 -0.071426414 -0.029640362 -0.0069725662 -0.002633111 0.048106667 0.12833093 0.07049511 -0.008779413 -0.038966913 -0.024628766 0.07303951 -0.016796326 -0.03041637 0.023499448 -0.046188142 -0.041204866 -0.008740087 0.021930518 0.034140613 0.021503963 -0.3610552 -0.06655675 0.02889969 -0.024009831 -0.017306836 -0.06802636 -0.7320961 0.047396127 0.064707085 0.024072627 -0.008274803 -0.07599256 -0.0647865 -0.00043753037 0.018815871 -0.040178 0.071547255 -0.028732944 0.03280308 -0.13824095 0.05488179 0.01182674 0.056891404 0.04175647 0.053774346 0.052925315 0.024479702 0.041854173 -0.01525829 -0.088632755 -0.07738942 -0.0011165164 -0.1375532 0.017621879 -0.04281817 0.05104312 0.02740386 0.0052459654 0.015028406 0.13038749 -0.031564496 -0.008814941 -0.0014679597 0.028460005 -0.03630644 -0.038722243 0.027665103 0.07996866 0.0043154666 -0.026345031 -0.009614194 0.03403813 0.021719538 -0.072051816 0.00610241 0.031507496 0.04677957 0.012408131 0.05599947 -0.011903749 -0.104135014 0.08661267 0.07730479 0.04934343 0.010340394 -0.04289054 -0.08422146 -0.026908962
子 -0.060673963 -0.04834728 0.009319207 -0.058145463 -0.05912947 0.022155121 0.0062534967 0.0914298 -0.05553448 0.010763779 0.06065338 0.024985312 0.0069359187 0.021516228 -0.106157936 0.08518589 0.11013783 0.15724772 -0.010534401 0.085489854 -0.06763238 0.09051283 0.12105831 0.05538249 -0.050501466 0.021624643 -0.04329925 0.064699374 -0.03016216 -0.032768812 -0.09628897 -0.035510447 -0.19233972 0.0057101804 0.049477868 0.04645911 0.0518394 -0.022530194 -0.017194137 0.10092195 -0.009964203 -0.034376446 0.0353687 -0.05666222 0.14677162 0.0014894445 0.11304117 0.015110974 0.0585907 -0.06974986 -0.0026723235 0.11338777 0.028578745 -0.03588615 -0.069997504 0.017456826 0.009231123 -0.00034094477 -0.0022688312 -0.6981509 -0.07568913 -0.014312105 0.04821344 -0.038891185 -0.1301303 -0.062147807 0.065254666 -0.024804877 0.020800313 0.02892465 0.029047849 -0.035681583 0.05648788 -0.117029406 -0.052971363 -0.04334943 -0.008536651 0.13963786 -0.02490887 -0.05340503 -0.01647148 -0.004644947 0.052647147 -0.020617316 0.01146969 -0.028233541 0.014629129 -0.050980985 -0.008438343 0.03410167 0.0004694297 0.02022324 -0.027930051 -0.0701933 -0.11886712 -0.08147 0.13363227 -0.05771861 -0.06903726 -0.0026606463
。 -0.024992045 0.004510905 0.01852439 0.03721053 -0.020368757 -0.009639951 0.042390637 0.03173943 0.028123157 0.010274341 -0.0209003 0.012696077 0.004329138 0.054486617 -0.060064077 -0.07166168 -0.1252598 -0.046578035 0.060368452 -0.030607758 0.06106152 0.053364586 -0.032684892 0.06915495 0.0058107795 -0.04027725 -0.016648185 0.061467245 -0.009175828 0.052933905 -0.058762267 0.08460735 -0.08985377 -0.0057507036 -0.059040826 0.074097514 0.11346204 0.055640593 -0.20396417 -0.083145656 0.14698358 -0.07446167 0.12400184 -0.046080403 -0.031661063 0.06971266 0.06039086 0.010943409 -0.03887893 -0.03324018 0.052919034 0.16322136 0.040631194 -0.0049386653 0.06657837 -0.008388436 -0.15611279 -0.03486091 -0.006866265 -0.40615547 -0.051963862 -0.0014701674 0.076037906 -0.095946655 -0.036601648 -0.014155131 0.035296943 0.072019234 -0.050081205 -0.020333853 -0.0060057403 -0.10146683 -0.018976126 0.0034052865 -0.03759509 0.036644887 -0.0029798553 0.005661376 0.022478737 -0.07283582 -0.0017822 -0.0060969964 0.12043486 0.07951219 -0.031369094 0.005661649 -0.013197028 0.040803928 0.013278859 0.14266792 0.116124436 -0.079100445 -0.02386071 -0.045318577 -0.096060015 -0.1275551 -0.028577214 0.052017733 0.086473726 0.05566274
： -0.041850384 -0.008760949 0.054792177 -0.017440034 0.04372592 -0.037171267 -0.042937428 -0.033899557 0.03382077 -0.01582868 -0.037221685 -0.0019497263 0.036379173 -0.06520861 -0.017552579 0.01381495 -0.097983524 0.0016497297 0.01739305 -0.017908296 -0.04304382 -0.014974802 0.025634464 0.017417723 -0.048605196 -0.02215615 -0.14001253 -0.026293462 0.01330514 0.015735118 -0.067173645 0.07565559 -0.1071176 -0.053824574 -0.0049795695 -0.054980326 0.03256379 -0.045817327 -9.801763e-05 0.011087996 -0.028405294 -0.05272361 0.017875748 0.048748724 -0.017777935 0.01940196 0.0736884 0.09128894 0.070525765 0.0023782414 -0.0848956 0.03916141 -0.050487027 0.018154673 0.035571814 -0.05760933 -0.04702357 0.008556526 0.044157166 -0.6335627 -0.0343424 0.014856709 -0.014035575 -0.027012894 -0.024682209 -0.0018257116 -0.055046212 0.0428112 0.05279686 -0.005559515 -0.012722167 0.02516975 0.0041710124 0.111515425 -0.038849365 0.036502015 0.011754722 0.03388395 -0.057315096 0.024901286 -0.040750276 -0.009845295 -0.03201992 0.06409814 0.00881119 -0.022063803 -0.000682557 0.04717583 -0.018047914 -0.0032303059 0.036428776 -0.033090737 -0.062470984 -0.015710259 0.02605628 0.02469059 -0.114551015 0.008906817 -0.15428947 0.10124339
曰 -0.06019451 -0.037062775 -0.047491636 -0.011307039 0.007915548 -0.034934822 -0.022838749 -0.048337758 0.021323793 0.027070466 0.009207246 -0.03054837 0.072185 -0.070681036 -0.032847695 -0.03322381 -0.112378575 0.023731612 0.021953989 0.011698941 -0.031370256 0.024506817 0.007501085 0.008630682 -0.028122643 -0.0066559995 -0.12381979 0.012317903 -0.028689131 0.0013208543 -0.07046834 0.06055287 -0.06350886 -0.06310483 0.0037625907 -0.0020848094 0.032336026 -0.082267866 0.024619175 0.0023548147 -0.012184178 -0.055493955 0.018925082 -0.0012742373 -0.008312752 0.0427476 0.047680005 0.07574187 0.0027487243 0.01904811 -0.06570962 0.06875917 0.0051302705 0.04497658 0.02901663 -0.07174746 -0.019291654 -0.02550303 0.07353088 -0.6635939 -0.004816906 -0.0016468359 0.0329214 -0.018623292 0.01593839 -0.0010927235 -0.031754892 -0.001976564 0.05142644 0.004475333 -0.0010338327 0.037888195 0.0006111584 0.112103246 -0.045695532 0.02457446 -0.0012801476 0.0116244275 -0.08169365 -0.0043396875 0.015507044 0.011732003 -0.06369925 0.042801093 0.018446248 -0.04945212 0.0044675125 0.056555163 -0.012825244 0.05583622 -0.0024835619 0.0085450215 -0.06230642 -0.08520562 -0.010187708 -0.008218396 -0.05640278 0.0026941735 -0.10183516 0.090206206
之 0.13858755 -0.07110883 -0.07688864 -0.031364452 -0.008011083 -0.23410884 -0.027047904 0.16522816 0.034543473 0.11126652 -0.054283198 0.084491864 -0.055563934 0.14398278 -0.005247837 -0.1083866 -0.15004335 -0.045174025 -0.0950305 0.059977945 -0.07643918 0.016621148 0.12945646 0.016913954 0.058445856 0.018322539 -0.032688297 -0.0112098325 -0.054985035 0.03837016 0.079569764 -0.027161762 0.048714876 -0.03141569 0.076628566 -0.10802153 -0.031039609 0.0027863842 -0.32217976 -0.046473574 -0.021200707 0.031055126 -0.056711484 -0.013762934 0.012602639 0.10834829 -0.012638981 -0.0017155231 -0.22955544 -0.11686089 0.1801683 -0.036777448 -0.012745192 0.05060472 -0.031083472 0.14378399 -0.05921767 -0.03665855 -0.12653926 -0.2671439 0.1417094 -0.12780783 0.019206924 -0.023956671 -0.17535843 -0.104860455 0.0027994835 0.00932152 -0.022811254 -0.0050588762 0.070841566 -0.011537938 -0.013838697 -0.0962925 0.11744833 -0.035447363 0.162716 -0.034350034 0.10783539 0.054928213 0.11875089 -0.10740559 0.101835944 -0.18840556 -0.079810835 0.049078178 -0.030783817 0.06383046 -0.11548339 0.08955399 0.08968197 -0.04450873 0.0021748778 -0.08678977 -0.08674064 0.09726007 -0.1756909 0.03867873 0.013119502 -0.11240963
不 -0.14797473 0.11266949 0.11536948 0.038668133 0.02502911 -0.001947263 -0.052815687 0.1271092 -0.017015556 -0.031708516 0.020198744 -0.037511967 0.017395414 0.039202083 -0.12866095 0.02807763 0.043453492 0.030804377 -0.03488924 0.115810476 0.17159757 0.06610356 0.025543887 -0.092861585 -0.07535613 0.047037516 -0.15431346 -0.06825251 -0.010355533 0.018420825 0.15584557 0.026801739 0.11013612 0.06703088 0.08835949 -0.13879454 0.1655027 -0.053379152 -0.48422948 -0.089137815 -0.05183742 0.036847997 -0.022785995 -0.028378926 0.12720107 0.0141604515 0.008031626 0.2035898 -0.18704857 0.07286776 0.048120093 0.23325725 0.036731336 -0.0836628 -0.03786904 0.037725497 -0.03529634 0.16080844 -0.0275949 -0.16328102 -0.06787091 0.07520705 0.1585442 -0.13640477 0.061494038 -0.003971502 0.022181015 0.1621638 0.115667395 0.046077408 0.10967691 -0.16210574 -0.11832136 0.018065054 -0.023205979 0.0073233987 -0.099749684 0.15748589 -0.060033336 -0.10164681 -0.09769254 0.013681008 -0.04194292 0.008886175 0.33757287 -0.0092964545 0.07768828 -0.024136672 0.0853859 -0.009265756 -0.13281024 -0.09682362 0.092285216 -0.12140861 0.038871847 0.116745375 0.12138006 0.11807566 0.00027930125 0.052856177
也 -0.040554173 0.09509054 -0.060910705 -0.050379183 0.068305604 -0.06493875 -0.115361646 0.09304672 0.12502736 -0.06918685 -0.04342517 0.026030056 -0.11903859 -0.067956604 -0.031986047 -0.06928087 -0.064716175 0.03109422 0.13688083 0.06935651 -0.04221323 0.08846429 0.0473205 0.0039554867 0.15326957 -0.11054079 0.008051773 0.053812884 -0.15404077 0.06075779 -0.14746405 0.0001581418 0.14000143 0.06930623 -0.05040823 0.00097229535 0.08919343 -0.037092138 -0.25817615 -0.12754923 -0.06161109 -0.14277416 0.10688966 -0.039079055 0.085412234 0.013194656 -0.004442254 0.16377412 -0.095415935 -0.17801689 0.0071788286 -0.0033106497 -0.043611657 0.11264795 0.13393365 0.1636639 -0.012968388 -0.14421065 0.073961265 -0.34766886 0.035821218 -0.12662531 0.031838052 -0.100554615 0.08099984 0.027780397 0.09816462 0.0114964815 -0.017101599 -0.09386198 -0.024549617 -0.0069735786 -0.17510799 -0.12882571 0.090587914 -0.062183123 -0.08459373 -0.25183925 0.07758739 0.051634826 -0.0067621153 -0.12134888 -0.08435916 0.034171052 0.11155856 0.06107177 -0.06434884 0.05031819 -0.08723988 0.079389036 0.15421791 -0.032830697 0.11182219 0.17089097 -0.047133148 0.028082639 0.001026274 -0.028475419 -0.020751536 0.042931102
而 0.03140678 0.018758006 -0.03834768 0.012425034 -0.03535118 -0.11998569 -0.025124444 -0.027423771 0.08556946 -0.007444822 0.010480014 -0.022137182 -0.06903045 0.014451866 -0.2709738 -0.1323401 0.08416373 0.026703382 -0.1026351 0.046422787 0.104507685 -0.035952277 -0.016563032 0.115520015 0.15046063 0.020750772 -0.015919639 0.05884199 -0.0927032 -0.06850829 0.08870234 -0.06099519 -0.06070308 -0.05495925 0.087158434 0.14766157 0.1142862 -0.023460941 -0.4530865 -0.002189249 -0.059522063 -0.11104335 -0.040380757 -0.0052316403 0.06418862 0.0028122542 0.012358288 0.008539289 -0.040453497 -0.0069925603 -0.104636766 0.33135334 -0.069495775 0.09253938 0.02426337 0.09147184 -0.04886905 -0.08862905 0.12615973 -0.23617013 -0.11372926 0.031405754 -0.07330014 -0.13334736 -0.07993449 0.030678112 0.078783765 -0.17282125 0.16365176 -0.09539636 -0.07353582 0.019279487 0.016646145 0.14371353 0.041260187 0.0045472616 0.10241269 0.13170992 0.06780918 -0.16739169 0.030151187 0.08009356 -0.09365889 -0.10896618 -0.058596514 -0.041126247 -0.030848192 -0.040695425 0.15131238 0.019434327 0.039995644 -0.04686961 -0.070596606 -0.20647983 0.20786513 0.029362684 -0.042584937 0.054862745 -0.08623243 0.033392232
？ 0.059940107 0.11347701 -0.10884397 -0.024400055 0.059627905 -0.1812963 -0.060741838 -0.15061378 -0.103931226 -0.056097172 -0.06202953 0.06074371 -0.004204303 -0.07035513 -0.037637345 0.080640115 0.14465344 -0.013152848 0.08742137 0.068740234 0.083184026 0.10134931 -0.06123073 -0.009436483 0.019763744 0.009129018 -0.030774927 0.18223234 -0.041148547 -0.044119168 0.15172559 -0.05309718 0.08310884 0.059236396 0.1894897 0.0011336766 -0.06647377 0.04020205 -0.02189421 0.20158653 0.05394744 0.00037908615 -0.18892376 0.11780727 0.051859595 0.03737348 -0.056070775 -0.018795064 -0.2341982 0.08742774 -0.06754059 -0.24265948 -0.0007457499 -0.15012912 0.012819593 0.034491394 0.15050067 -0.08951601 -0.0058810576 -0.6420699 0.083464146 0.11198327 -0.12891236 0.039342895 0.18942323 -0.080240265 0.14878678 0.032189474 0.025735654 0.057861414 0.074004315 0.14661606 -0.05854708 0.018522663 0.10844481 0.096876495 0.07746257 -0.034506835 -0.16582857 0.09108388 -0.029870234 0.06507216 -0.017481117 0.0038548342 0.16580978 -0.013818264 0.110790975 -0.08011643 0.062497504 -0.06400434 0.11703932 0.06525013 -0.06671422 0.012231687 0.196093 0.26547843 0.071312636 -0.0567381 -0.14989363 0.07061784
其 -0.053409602 0.09148827 -0.22592892 0.16031073 -0.004864795 -0.020823784 0.014426845 0.05625884 0.04004885 -0.016109148 0.19550067 -0.028555032 0.13069417 -0.14779313 0.0062716287 -0.029767163 -0.08197428 -0.2140499 0.14068268 0.020875772 0.023034463 0.23368123 0.05852099 0.11229916 -0.055095874 0.10964403 0.028731106 0.10719257 0.046352334 -0.15491082 0.00011976651 -0.010020165 0.19507337 0.034331746 -0.0965611 0.13862038 0.21439327 -0.20472781 -0.34569433 -0.17857052 0.063988514 -0.029615786 -0.101102 -0.17951043 0.011766662 -0.02094683 -0.03679974 0.21783847 -0.10640096 -0.2440146 -0.2052846 -0.022569064 -0.15994047 -0.022174152 0.08081437 0.09252982 -0.053030584 0.0018457533 0.08209833 -0.18637882 0.03682226 -0.11586451 -0.0055218753 0.06931183 0.049650006 0.07687361 0.08884493 0.02349452 -0.07791969 0.010336548 0.020157225 -0.028303761 0.05570422 -0.090752855 0.06017471 0.023400905 -0.09088732 0.011268118 0.08174509 -0.058194388 0.11488742 -0.005611573 -0.029152129 0.024342118 0.2329804 -0.056097012 -0.031713255 0.022233075 0.18034169 0.056144014 0.04833799 -0.07969944 -0.27780843 0.014271366 0.11899324 0.07947017 -0.014783102 -0.106255494 0.11461441 -0.0463596
人 0.08292756 -0.09280435 -0.103387356 0.007031262 0.014977261 -0.24705128 0.13237208 -0.23697081 -0.029226704 -0.032656237 -0.12317125 0.254765 0.06776074 0.09049898 0.05887415 0.002859644 -0.04293071 0.1154708 0.052607447 0.016094487 0.07690834 0.06960977 -0.093139425 0.04099291 0.086298734 0.12168204 0.04916835 -0.0041792924 0.13881719 0.11141034 0.04604342 -0.18983461 0.017642934 -0.05957065 -0.00539736 0.08006054 0.027609428 -0.027589882 -0.32835796 0.027869834 0.14048722 -0.09425129 -0.12445597 -0.21752323 0.17645754 -0.112089805 -0.11645187 -0.17945407 -0.096936695 0.105181806 0.06622093 0.13550025 -0.08035167 -0.12878226 -0.010567094 -0.0029723635 0.021461714 -0.11531076 -0.04099981 -0.34590402 -0.26629946 -0.23576288 0.08561596 0.07396634 -0.027917005 -0.069116585 0.075706504 -0.17871267 0.14728613 0.085811354 -0.04974013 -0.013009066 -0.12663141 0.0075833607 -0.13016257 -0.059588157 0.04643334 0.06475508 -0.038201723 0.075806566 0.059726372 -0.26978958 0.08712916 0.0014194901 0.08222054 0.23035473 -0.0904476 -0.023809982 -0.17170872 0.12122548 -0.042420413 -0.099201255 -0.0700731 0.20079072 0.009184175 -0.21662503 -0.07668361 0.0030847676 0.06757415 0.040859386
者 -0.2006052 0.035605595 0.05286804 -0.03853104 0.055520564 -0.023887085 -0.1443864 0.06869749 0.008387353 -0.03819349 0.017733343 -0.056974225 0.071256846 0.13030693 0.058142226 0.0024049252 0.1618524 -0.16091861 0.22314247 0.07951856 0.044324867 0.040412568 0.1088861 0.02899629 -0.121927194 -0.06142679 -0.034611333 0.27143896 -0.15623881 -0.27988383 0.24778624 -0.1938452 0.069053076 -0.12902398 -0.103954576 -0.08234235 -0.052853588 0.06986604 -0.3460133 0.01399911 0.30601612 0.12110627 0.008685735 -0.094310366 -0.16311826 -0.19346118 0.07807201 0.07264442 0.017578444 -0.007591475 -0.023388965 0.040005103 0.104628906 0.14644478 -0.12557341 0.10404772 -0.10094838 0.0442475 0.13801795 -0.28078815 -0.1389411 0.10316603 -0.10009818 -0.090395845 0.3119615 0.039244127 0.05581608 0.02473787 -0.060043428 -0.04841926 -0.30646348 -0.0051830485 0.023586305 0.20107642 0.10516113 0.013492709 0.14490159 0.06839633 0.07002222 0.13305537 0.13643098 0.17991039 -0.048178975 -0.088797934 0.13581704 0.05422471 -0.11422084 0.035925433 -0.048574988 0.26251844 0.15054633 0.12749064 0.13094509 -0.00979422 -0.31106848 0.21447313 -0.09872304 -0.13019302 0.0999273 0.14752795
以 0.10545289 -0.012196758 0.10463287 0.29807648 0.1781166 0.18345232 0.053148072 -0.06888213 -0.038999088 0.16512008 -0.19979107 0.091079965 0.1783846 -0.039060924 -0.026684282 0.20347758 -0.049343187 -0.102748774 0.06681244 -0.008623446 0.0713619 -0.021249853 0.16865979 -0.03663947 -0.10212638 0.09167347 0.0050032167 0.117048 0.15873629 -0.19992417 -0.21361478 0.010331048 -0.057841495 0.04018476 -0.0077942014 0.045002017 -0.09985885 0.13422857 -0.46901703 -0.0029883604 0.018604623 -0.1657298 0.15797217 0.1348194 -0.11583482 0.12614924 0.11596274 0.09747712 -0.27132446 0.09776462 0.21119426 -0.073536195 0.055789288 0.18625703 -0.11565042 -0.07443468 -0.059105396 -0.08035114 -0.26808482 -0.27250054 0.026333185 -0.017741142 0.17101096 0.260575 0.017469283 -0.18546778 -0.1742842 -0.0626509 0.18491425 0.10237406 0.025503306 0.054411635 -0.016191114 -0.122252434 0.0011355974 -0.040838145 0.12585756 0.024115577 -0.04012904 -0.118889205 0.028916765 0.12546767 -0.06153935 0.1839755 0.024621444 -0.021373237 0.14178781 0.05786405 -0.055205677 -0.10382627 0.062093105 -0.008492709 -0.023321187 -0.0492459 -0.0352691 -0.27137128 0.16594467 -0.11976188 0.07623967 0.0977192
有 0.027026527 0.12610783 0.17491762 0.029321281 0.2405943 -0.32328826 -0.07652229 -0.006219877 0.07598518 -0.030076632 -0.03721894 -0.16676034 0.17146042 -0.10901001 0.2610993 0.1548093 0.13270944 -0.12100355 -0.0018778329 0.029375393 -0.11092921 -0.023345372 -0.15851794 0.0034746076 -0.16586079 -0.21151076 -0.037812293 -0.06724201 0.033711106 0.015011962 -0.001985092 -0.015426502 0.11475119 0.04341389 0.08409358 -0.052126754 -0.11797389 0.014624263 -0.21858914 0.16046661 0.054154612 0.06150004 -0.046647202 0.065857485 -0.047613233 -0.26466835 0.056036703 -0.15239835 -0.022837495 0.16245267 0.007003901 -0.041392684 0.1832934 0.115564264 0.08692124 -0.05907624 0.04938277 -0.073357455 -0.04622938 -0.38090435 -0.29703784 -0.015924886 -0.08422042 -0.136979 -0.032779053 0.15925516 0.050199945 -0.023200467 0.028370883 -0.25468847 0.05745586 -0.05757539 0.023739424 0.06486494 0.0027793085 -0.10331756 0.316336 0.21459465 0.11182484 0.22711505 0.07068688 -0.011988218 -0.039489154 0.030012224 -0.017198222 -0.039104216 0.21989945 0.20610464 -0.0118564805 0.04470287 -0.040338088 -0.07454559 0.03726983 0.08878585 -0.046555154 -0.17331116 -0.0630765 0.24599613 0.12812352 -0.1502816
于 0.15928032 -0.14586431 0.08753622 0.03114984 -0.02452578 -0.0374286 0.36934465 -0.056390494 -0.07038371 0.07791123 0.12704639 0.0032194545 -0.10760837 0.023200043 0.10386544 -0.12145176 0.005159364 -0.089334644 0.2047671 -0.1703013 -0.07313581 -0.065099336 -0.061498262 0.054477353 0.1938993 0.09232629 0.18532018 -0.11233576 -0.25441778 0.012948173 0.3768223 0.13001944 -0.09896739 0.20299974 -0.10212665 0.0071733776 -0.037080053 0.063629024 -0.26881233 0.01807325 -0.05182895 0.14903906 -0.105461605 -0.1272338 -0.063702986 -0.2210148 0.32173038 -0.03406484 0.02684289 0.0048283115 0.09396934 0.1610498 -0.02759967 -0.007463672 0.122490525 -0.00069299596 0.025754018 0.039248396 -0.064144045 -0.38915724 -0.06269391 -0.22516759 -0.20880035 -0.038958564 -0.022385811 -0.13785534 -0.053379156 0.08542605 -0.022318374 -0.056199 0.08799055 0.07522193 0.29106614 0.1913703 -0.12044178 0.101919994 -0.055868074 0.0023259844 0.055449087 0.21226208 -0.16451338 -0.0144502465 -0.05007052 -0.099120095 -0.115538135 -0.1644856 -0.014708779 -0.051509757 0.121675275 -0.0056960694 0.09563646 -0.12991647 -0.10552879 0.1007336 0.05646536 -0.20231442 0.042421017 -0.07422375 -0.0062077018 0.053044986
矣 -0.130104 -0.07055709 0.24428977 -0.12764601 -0.14365004 -0.11761154 0.016104598 -0.013457382 -0.09052841 0.04371262 -0.015545739 0.0019801196 0.044702403 -0.041384228 -0.10301807 0.105780326 0.03229844 -0.2502575 -0.01644568 -0.026744688 0.07457333 0.110442124 -0.15211396 -0.3451732 0.090421766 0.15186977 0.08712522 -0.08470992 0.05094073 -0.022815779 0.10549811 0.33210185 -0.051847406 0.083076306 -0.07428644 0.2190913 0.058813483 -0.04109355 -0.2088095 -0.035236 0.07820423 -0.09689169 0.21377832 0.0882595 0.12951964 0.19832669 -0.05973705 -0.11684997 0.10808201 -0.023095705 -0.10789676 0.10323116 0.17862967 0.15774843 0.009694064 -0.12452664 0.13791758 0.17577152 -0.06187988 -0.4688019 0.2691446 -0.26206517 0.08173287 -0.0090892855 0.0625976 0.011144876 0.14869405 -0.012733935 -0.048219465 0.05801631 -0.028494982 0.0055536926 0.020955063 0.1756428 0.06436088 0.26426494 0.051063623 -0.103907906 -0.118945256 0.111345336 -0.08498402 0.122819856 0.039306376 -0.005984477 -0.165251 0.021067042 -0.0007398678 0.33139396 0.077838846 0.013522865 0.040373422 0.14972486 -0.11629253 -0.0682366 -0.031608537 0.15721922 0.03836551 -0.001650128 0.0842119 -0.08318752
为 -0.08069396 0.016922833 0.22765729 0.12253607 0.030169908 0.16744648 -0.041548453 0.02971638 -0.08964552 0.09249999 -0.04898774 0.10338662 -0.03722751 0.02400503 0.02597881 0.10257401 -0.06419368 -0.0106458105 0.12678233 0.16949455 0.177121 -0.16605055 0.026524248 0.11585517 -0.09846713 0.0062756976 -0.15041558 0.14307019 -0.03816532 -0.14212646 0.12606646 -0.27010554 -0.0749817 -0.0006522961 -0.029053215 0.019783504 -0.21397468 -0.054816343 -0.22742017 -0.021356666 -0.21788226 -0.07203868 0.0068013035 0.18846385 -0.31852147 -0.11070047 0.05276994 0.055111155 0.01976175 0.17336614 0.11198096 -0.051179312 0.14513217 0.07448182 -0.033472296 0.17848007 -0.16071525 -0.03650933 0.17272027 -0.519962 -0.083638795 -0.014321627 -0.0855757 0.029028896 0.11366035 -0.17134312 0.25786674 0.052250944 0.36303782 -0.03701415 0.1186708 -0.060882784 0.050913308 0.07248834 -0.00615547 0.0811469 0.14196606 0.06294443 -0.078545175 -0.07194399 0.10466607 -0.24028893 -0.06972276 -0.007447867 -0.0758668 -0.030763434 0.113567084 -0.04061134 0.00087323465 0.1171705 -0.24681562 0.025007375 0.0070691886 0.20581605 -0.08785462 0.059900958 0.16611767 0.10567365 0.093053885 0.18060158
君 -0.047867563 -0.13299489 0.15908252 0.15015708 0.07783256 0.008957236 0.11895077 0.04211569 -0.07900353 -0.12665963 0.030676793 0.051530145 0.11716718 -0.21857007 0.021627923 0.032421883 -0.026403489 0.1212145 -0.24771039 -0.011913904 -0.12817542 -0.17101653 0.14156482 0.045879163 -0.038639262 -0.003100382 0.2697249 0.02545224 -0.01037761 0.14750028 -0.13800071 -0.17153677 -0.024499597 -0.090682395 -0.19003583 0.108673215 0.09199842 -0.062802084 -0.18334979 0.01772854 -0.19915049 -0.11056269 0.049021192 -0.04434262 0.17903426 -0.05384682 0.09686472 -0.015054356 -0.029411849 0.0189632 -0.047331046 0.13308692 -0.1893198 0.008848191 -0.21033774 -0.10358302 -0.12852281 0.083178 -0.04415941 -0.5236178 -0.07223224 0.14139995 -0.0132350745 -0.023245942 -0.10533837 0.035756487 0.083695285 0.0070411614 0.024451965 -0.01810588 0.022003032 -0.17317803 -0.034150604 -0.11194721 0.13771671 0.01853629 -0.070986114 -0.025366494 -0.20426701 -0.10251403 0.19981259 0.11906033 0.2049362 -0.117161155 0.020868396 -0.08871895 -0.024377896 -0.02929113 -0.02307991 -0.1484679 0.107928194 -0.0051313727 -0.27594915 0.031231923 -0.10320513 -0.17336895 0.38903013 0.05941421 -0.11416147 0.034408845
乎 0.0823713 0.18716037 0.06567222 -0.013307529 0.10433927 0.011562974 0.027895238 -0.33412215 -0.181417 -0.05978698 0.11239461 0.06059802 -0.085537866 -0.022594966 0.08023529 -0.02022608 0.21796651 0.116200864 0.08923218 -0.13526045 0.01166807 -0.40795738 0.15805931 0.045861516 -0.00913398 -0.0132740075 0.009541547 0.0320993 -0.009729374 -0.20143634 0.2176492 0.139118 0.1569274 -0.027861623 0.052019596 -0.03157052 0.022489406 -0.049976185 -0.087240286 -0.046951644 -0.107479334 0.3248884 -0.043807644 -0.016733887 -0.013024033 0.103572235 0.10232681 0.089265585 -0.11191599 -0.0034899001 0.09777522 -0.020803541 0.10320222 -0.23874225 0.0077098673 -0.097068824 0.12098747 -0.11023668 0.1762556 -0.54830974 -0.07673651 0.09557351 -0.11783546 0.012981149 -0.08207523 0.04332468 0.053414077 -0.00056555157 -0.13154334 -0.027616763 -0.13272719 0.10990962 -0.06231606 0.036997326 -0.04361725 0.006541355 0.045634236 -0.11210924 0.22048244 0.3727531 0.18060623 0.09897295 -0.25156033 0.023569148 0.040435474 0.29854318 0.13136819 -0.070489354 -0.11492281 0.044334874 -0.110306874 -0.038225673 -0.19199213 -0.13536468 0.26744184 0.10943318 0.08757042 0.09108842 -0.021960206 0.0036639224
可 -0.14241803 -0.14179909 0.13865946 0.11515857 -0.19162789 -0.21061629 -0.34682852 -0.070757724 -0.020863097 0.045152076 0.08810558 -0.16917333 0.020386258 0.10996869 -0.21355902 0.057990924 0.030074712 0.19615677 -0.1993408 -0.081946194 -0.022591393 0.086549714 -0.02860435 -0.1291161 0.036186427 0.0800356 -0.060005423 -0.053006686 -0.030811593 -0.045019135 0.13754165 0.22399169 0.09456441 0.12502821 -0.06604384 -0.087709434 -0.023639245 0.14560439 -0.38783702 -0.13176331 0.0020964646 -0.18710668 0.24663511 0.09772665 0.07003214 0.098111294 -0.098387286 0.22741207 -0.11415409 0.05334357 0.047905266 -0.15724893 -0.21813357 0.1978492 -0.13230734 0.010868965 -0.12626855 -0.31822255 -0.2784239 -0.3008342 0.03806656 -0.18921791 -0.14721964 0.2361221 0.13286762 -0.07531912 0.026388649 0.027114322 0.12129148 -0.034998354 -0.23102829 -0.086891554 -0.24323241 0.044012774 0.09756026 -0.069821656 -0.09013133 -0.10302603 0.2063064 -0.05864004 0.048463464 -0.05487018 -0.07993913 0.0897987 -0.06854346 0.018499196 -0.0039177695 0.033927158 -0.10075397 0.05622661 -0.15472706 -0.06332589 0.009781541 0.059492886 0.089715965 -0.07562553 0.17172031 0.12669006 0.027489057 0.06822344
如 0.15058434 -0.09087531 0.055780772 -0.18338086 -0.21131778 0.15161286 0.09970454 0.32575944 0.3417868 -0.17652997 -0.21063364 0.27420998 -0.29297456 -0.034607634 -0.1197753 -0.028757527 0.15009461 -0.116504654 0.035449643 0.010583622 0.034388565 0.04844055 -0.16111445 0.004890743 -0.2638603 -0.0027764472 -0.07206673 0.20812978 0.0963113 0.08717896 -0.00797949 -0.06456828 0.18158413 0.028794646 -0.08208647 0.0170853 -0.22986476 0.25900838 -0.2781585 0.18171893 -0.14777912 -0.07336184 0.018651227 -0.025370462 -0.16480711 -0.04344274 -0.13692285 0.063807026 -0.21402992 -0.23322211 -0.17724444 -0.123110525 0.22949645 0.20154311 0.118591614 0.034317356 -0.025827011 0.012367851 -0.1237407 -0.3864508 0.052845825 0.08403429 -0.01610733 0.2150265 0.14864846 0.018995943 0.03987196 0.053011406 -0.12939583 -0.1297938 -0.02571946 -0.06936779 -0.018073102 -0.069079466 0.09217878 0.08787103 -0.1797995 -0.010334706 -0.04825903 0.26093966 0.17139582 -0.017715896 0.12077456 -0.17544217 -0.034787744 -0.032510247 0.01588325 -0.15760201 0.21134719 0.010784501 -0.0527918 -0.2678112 0.14793125 -0.0034793695 0.10368562 0.09431222 -0.18285088 0.107578486 -0.06657587 -0.05143583
与 0.091519624 0.0431073 -0.38190156 0.13842489 -0.13116293 -0.17348197 0.21621315 -0.04864412 0.018644385 -0.25477764 -0.05981195 0.01746638 -0.066982135 0.26525563 -0.052525077 -0.15865117 0.005134238 -0.001118893 0.048464496 -0.24483928 -0.16574289 0.22467044 -0.0354735 -0.25153208 -0.113527685 0.07146414 0.19301753 0.12807915 0.011111797 -0.03599154 -0.06171934 -0.17105106 0.16108108 0.049778473 0.028001681 0.038430773 0.0027198805 0.32713154 -0.24718727 0.029826337 -0.18722655 -0.12810303 0.07588334 0.019571664 0.25059834 -0.057847884 0.028614517 0.19589926 -0.08442704 0.14139354 -0.04937516 -0.07881628 0.18071407 -0.2132909 -0.05452539 -0.071392596 -0.06479396 -0.047147222 -0.016154597 -0.40184432 0.1281736 -0.09585272 -0.14563678 -0.03621751 0.14379695 -0.006482321 0.3298414 -0.06605097 0.3141734 -0.10641381 0.11458672 -0.0054572024 -0.12096574 0.19384453 -0.07684869 -0.119451314 0.0041557085 -0.027314233 0.068430685 -0.086418 0.3143325 0.10370097 -0.06258841 0.07779975 -0.20723385 -0.1535167 -0.05667358 -0.099257275 -0.26847816 -0.007256284 0.15871774 -0.17186886 0.19596173 0.15159893 0.07226585 0.15330814 -0.17005548 -0.16391236 -0.088352665 -0.18891917
； -0.18371308 -0.09335008 -0.10470685 0.01565602 0.0015152832 0.0330356 -0.04067023 -0.0010972252 0.073701724 -0.018166278 0.051917452 -0.084059194 -0.029083304 -0.21731591 -0.08310853 -0.18560702 -0.036202636 0.02672867 -0.055208273 -0.047271702 -0.07381296 0.20993692 -0.046663802 0.137492 0.098521724 -0.08176442 -0.028050538 0.020945936 -0.14303692 -0.119185 -0.018931212 0.22992249 0.39188144 0.060054608 -0.115265906 0.10389757 0.24012898 -0.06821622 -0.8130929 -0.015553926 -0.26332772 -0.15425241 0.025272418 -0.17306563 0.28078994 -0.0838349 -0.09979104 -0.022018556 -0.5876429 -0.012775032 -0.06475694 -0.009859899 -0.068143435 -0.10657965 0.10685077 0.05356665 0.068338394 -0.13108596 -0.086482465 0.15782677 0.044107176 -0.119869776 -0.0587391 0.12938385 0.0018235293 -0.17332949 0.21886216 0.15637583 -0.10363081 -0.03596178 0.031080818 0.10906918 -0.0022012803 0.10415527 0.0687187 -0.042755704 -0.01995385 0.023925513 -0.019465484 0.23114689 -0.07496936 0.008207777 0.17399254 0.09572875 -0.09208494 0.14920188 -0.04670796 -0.0015958681 0.039228864 -0.007961464 0.03875699 0.28275946 -0.26912728 0.06831537 -0.23247343 0.20281073 -0.10541687 0.12770912 0.12550715 0.098988496
言 0.3106533 0.04343594 -0.049797595 0.44691998 -0.08717916 -0.20551722 -0.28707963 0.1348704 -0.05109495 0.120485894 -0.13258375 -0.2561821 0.0022775354 -0.25636405 0.095104255 -0.086372815 -0.07421894 -0.02229518 -0.036377575 -0.06573192 0.1682615 0.18501456 0.004088531 -0.14714514 -0.25899214 -0.084782496 0.1328562 -0.22726436 0.032428283 0.18473534 -0.062500656 0.2406477 0.22959891 -0.24372084 0.009848392 0.023849592 0.14807913 0.0028161441 -0.33320335 0.014314679 -0.10192853 0.096086875 0.23594211 0.0076262783 0.15591756 0.055704266 -0.06473502 0.083890945 0.06275327 -0.13104907 -0.12100109 0.12783653 -0.022725683 -0.11724019 -0.08680857 -0.21312827 -0.018247578 -0.014893262 -0.04854046 -0.27107328 0.1207776 0.25830093 0.1427708 0.13083749 0.0021751958 -0.12396938 0.07677612 -0.049408227 0.23778342 0.10024448 -0.056212567 0.018540753 0.06116342 0.23976073 -0.2780937 -0.16920525 -0.15548575 -0.15681793 -0.005943187 0.2221816 0.116064824 0.2289069 0.048842978 0.015517725 0.12622768 0.0043626516 0.1121019 -0.08805114 0.0542784 0.23764086 0.021692105 -0.16600737 -0.06045326 0.18301557 0.040013563 -0.04616132 0.09254924 -0.114941835 0.034850195 -0.014656357
无 0.107884035 0.16843498 0.12219601 -0.14459333 -0.036483802 0.13546751 -0.20516893 -0.08424842 -0.022628922 0.042736102 0.11383914 0.027178813 0.15066941 -0.06335031 -0.07921358 -0.09249257 -0.042452764 -0.0049243947 -0.12809175 0.073147275 -0.047481302 0.27372047 -0.34143376 0.21282634 -0.24752533 0.050232343 -0.07288117 0.043482885 0.047188777 0.053973995 0.045339055 -0.1314889 0.18676895 0.07581407 -0.2177231 -0.04827417 -0.049582686 -0.044089172 -0.47191834 0.21353355 -0.035387337 -0.16392864 0.050048463 0.11311018 0.011542396 0.15357836 0.30209807 -0.010968778 0.10436173 0.22153638 -0.00027178111 0.29948443 0.16898544 -0.015305272 -0.0905266 -0.16899942 -0.12366368 -0.08292587 -0.003399278 -0.19617642 0.020528305 0.122061506 -0.015447396 0.09377698 -0.041701697 -0.0883854 0.0703668 -0.06480439 0.0014810045 -0.08121773 0.055666033 0.054487314 -0.18455485 0.033707846 0.19633883 0.07693651 0.30667835 -0.027375465 0.034408353 -0.13123775 0.05556625 -0.07064356 -0.17199963 0.14186329 -0.11726324 0.07683474 0.03528031 0.0716233 0.020565206 -0.03743357 -0.12981562 -0.030907296 -0.36658016 0.12556468 0.06815697 -0.07027666 0.10769438 -0.037924938 -0.049282532 -0.11944174
则 0.04585946 0.018998412 0.20095196 -0.09494907 -0.011339198 0.023344256 0.100420445 -0.13911475 -0.07718267 -0.0070347562 -0.12734322 -0.050851967 -0.071200304 0.19828 0.02481752 -0.21198374 -0.24497543 0.22836998 0.11465677 -0.19754203 0.16677517 0.31213433 -0.09620306 0.06909676 0.20943485 -0.0796017 -0.081959404 0.25543076 -0.08027971 0.098900825 -0.07121023 0.065591626 0.09655608 -0.24441546 -0.03575306 0.009333618 -0.017488178 -0.035973184 -0.56895703 -0.115452655 -0.29338822 -0.046021927 0.06454328 0.19778782 -0.005851664 -0.09018047 0.07434512 -0.08754948 -0.1346101 0.14166428 -0.031638384 0.100089416 0.08253403 -0.1349141 0.016438585 0.16271806 -0.020961616 0.016552666 -0.08454271 -0.17936005 -0.114830546 0.03313228 0.11456409 0.028424364 -0.013126639 0.13449341 -0.004256764 -0.22059913 -0.26982537 0.16553153 0.1482475 -0.04959608 -0.18534039 -0.08743603 -0.19800924 0.15913752 -0.112769775 0.015735965 0.17110726 -0.0799712 -0.19292052 0.08348034 -0.1418982 -0.17835961 -0.12722205 0.15069391 -0.15557621 0.15442155 0.11651754 -0.039581735 0.11509402 0.20353524 0.048568435 0.12610894 -0.026212994 -0.28837892 0.13907857 -0.015013758 -0.012681613 0.026173422
！ 0.17769451 0.13344756 -0.03082405 -0.10928736 -0.0011176664 -0.10435419 -0.079249375 0.10379156 -0.13661881 -0.106836855 -0.008926577 0.120624244 0.1485247 -0.021494415 0.04878978 -0.024616154 0.09693285 0.033908814 -0.06260718 -0.17956263 -0.18712936 0.022501564 0.03645924 0.1751955 -0.034190048 0.09466701 -0.01828168 -0.029854866 -0.00829031 -0.3072639 0.02447289 0.1636458 0.12781174 -0.21338405 0.08078033 0.059455965 0.11148126 -0.23976187 -0.07973249 -0.07511919 -0.030707411 0.39322242 0.1099265 0.0020648066 -0.27467087 -0.024976507 0.052479018 0.044602156 -0.18210141 0.006970352 0.049677134 0.059990223 -0.11471191 -0.07387117 0.038659975 0.004348749 -0.08238282 0.2707479 0.21407393 -0.59447956 -0.029837105 -0.07116929 -0.029829191 0.052766412 -0.11904334 -0.014517889 0.05801044 0.2090737 -0.18327682 -0.092221215 0.0645835 -0.16906413 -0.10469711 0.14242023 0.07858926 -0.18692213 -0.17761704 -0.063013166 -0.051400326 0.10087242 0.28050232 -0.03539698 -0.36006707 -0.28595927 -0.0639715 0.20775835 -0.10158999 0.031416137 0.066162735 -0.079615116 0.06396729 0.13093406 0.009059394 0.26176983 0.10080691 -0.14108816 0.12912755 -0.038104553 0.043261334 0.017617682
问 0.23820956 0.040753786 -0.16424493 0.109192036 -0.05690932 0.13373704 -0.0019610133 -0.059038952 -0.17917846 0.3295247 0.056398064 -0.14797701 -0.034185912 0.30897766 0.22292086 -0.0048491713 -0.07310131 -0.05529137 -0.013051534 -0.080590546 -0.16267402 -0.13885476 0.06768806 0.040540416 0.027733546 0.09590953 0.09156934 -0.056307275 0.024647657 0.15656357 -0.102367714 -0.053574678 -0.2703816 0.114002995 -0.022048945 -0.086107574 -0.043098144 -0.07190793 -0.13663802 -0.347979 0.10916153 -0.034607008 0.20814359 0.1577753 0.13426788 -0.17574266 -0.13630877 -0.07636563 0.1050055 -0.023800235 -0.067823574 -0.0950376 0.13665898 -0.012178515 0.16036417 0.1310899 0.26244795 0.009115443 -0.008414581 -0.707332 -0.29443982 -0.086460546 0.0041630785 -0.033814237 0.024696505 0.086455755 0.060520437 0.13789138 -0.019121584 -0.08791736 0.050674878 0.086818345 0.10874568 0.070630595 0.07402849 0.09687766 0.07107362 -0.057696514 0.09563342 -0.29763395 -0.14286874 -0.14642052 -0.017747046 -0.17109503 0.024815058 -0.06490895 0.22809625 0.09091594 -0.091584496 0.34755975 0.14627016 -0.12077897 -0.030484645 -0.13743404 -0.023831422 -0.027420916 0.089047015 -0.066581964 0.12926167 -0.16893457
知 -0.19105093 0.35227254 0.09351086 0.19205739 0.22465132 -0.045507032 0.06398861 0.007584899 0.18051924 0.11268675 -0.09606034 0.0045613255 -0.018550895 0.0326856 -0.14836986 0.234171 -0.07578599 -0.15000395 0.03223387 -0.085138634 -0.12360304 0.086011484 -0.020714054 -0.099984944 0.11526215 0.15078756 -0.19683403 -0.06434642 -0.052821256 0.19921066 -0.14074792 -0.19579278 0.121383905 0.078465514 -0.51973057 -0.0024054886 0.14690116 -0.08005714 -0.30545884 0.06908952 0.03292404 0.22311111 -0.07864099 0.14411461 0.15739524 0.31181592 -0.14615606 0.086588934 0.021864543 0.068546504 0.13048135 -0.014036355 0.066407524 0.14356121 -0.10800354 -0.14520131 0.05637229 0.18925618 0.10431912 -0.37505656 -0.2233456 -0.020442583 0.09629801 -0.014004275 0.10077163 -0.083390996 0.023811001 0.01893488 0.1659029 -0.18729883 -0.18880494 0.048175007 0.041635484 -0.058374837 0.02565486 0.047510464 -0.09221176 0.2017368 -0.07609568 0.19662695 -0.052825328 -0.0016483816 -0.2169855 0.03261167 0.12258134 0.06119161 0.12262697 -0.061742548 -0.16379002 0.069258474 0.018818177 0.036322385 0.3794058 0.039879713 0.1372022 0.068030246 0.021328794 0.0994174 0.073442504 -0.30541524
何 0.18131489 0.05948886 0.029695665 -0.1519372 -0.018844398 0.041031282 0.22287889 0.18909994 -0.17223035 0.19126554 -0.09918503 0.018870104 0.17211221 -0.04528357 -0.051148113 -0.17587067 0.15669337 -0.063139096 0.2113115 -0.06454254 0.059381552 0.00537861 -0.14238541 -0.15325186 0.009200516 0.16759029 -0.0864722 -0.09403989 0.23569445 -0.06533564 0.15733692 -0.14471199 0.22823676 -0.029046979 0.2178589 -0.18751341 -0.12764001 -0.10691838 -0.079070054 0.21709304 0.24922618 -0.025988577 -0.26549822 -0.26800907 0.004389179 -0.21581708 -0.1679829 -0.061792012 -0.15594098 0.015308522 0.0917448 -0.19331892 -0.024242444 0.20376068 -0.019615652 0.07199674 0.090144075 -0.058381703 -0.27460805 -0.6525107 0.30989367 -0.046710186 0.039645728 0.045963302 -0.10137258 0.03013602 -0.03793149 0.1980727 -0.08536975 0.087668404 0.11221473 0.17245093 -0.027171938 -0.17372988 -0.1461599 0.0039981357 0.044490553 -0.24394475 -0.16979869 0.11629644 -0.22597192 -0.10991827 -0.114083074 0.04752089 0.09969256 0.037931737 -0.1239495 0.038531817 0.047176678 -0.085405655 0.15820481 0.019197896 0.09321647 0.027179498 0.21162654 0.2905042 0.14226885 0.09844529 -0.29617265 0.13117467
吾 -0.054785725 -0.10530641 0.016250791 0.0019345722 -0.17136537 0.1306549 0.14272971 -0.13107212 0.053291794 -0.05682832 -0.02580064 0.028389672 -0.15246986 -0.07394506 -0.3135959 0.1971082 -0.31004286 -0.14635137 0.14090452 -0.07760112 0.28981504 0.06631352 0.07505537 -0.21191676 -0.15543154 -0.23250619 -0.13454941 0.17700772 -0.16272555 -0.1289943 0.16897579 -0.014628544 0.19314666 0.16849442 0.121803515 0.0041031823 -0.0034144395 -0.16559109 -0.20085816 -0.21011972 0.043984964 -0.03879959 0.11169933 0.0026996366 -0.133959 0.008716612 -0.056446325 0.09298885 0.045691736 -0.15845741 0.22751927 0.12279463 -0.042911973 -0.10244899 0.056242038 0.05276181 0.117257535 0.053492796 0.22096537 -0.41708827 0.06477351 0.23658071 0.1301823 -0.010344681 -0.0057211835 0.23081061 -0.23765399 -0.02909687 -0.13778742 0.08706295 0.120344035 -0.0461861 0.15285787 0.17583503 0.19643304 -0.06281639 -0.12234861 -0.12683865 0.036279045 0.1176821 0.27607518 -0.033085987 0.010445658 -0.19336781 -0.23574868 0.09485656 0.00045169954 0.07743084 0.16602074 -0.26403606 0.21583416 0.06844473 0.18396077 0.2757859 -0.03431134 -0.09667647 -0.12939505 -0.11276535 -0.07740762 0.34386876
仁 -0.0036197114 0.1493506 0.0050198645 0.22654034 -0.05575737 0.38749278 0.12046841 0.07065391 -0.07660183 -0.024065377 0.09192756 0.03745285 0.1300112 0.36314917 -0.011319444 -0.062467147 0.24638583 -0.24887793 0.29303542 -0.13960463 -0.10324056 -0.08397507 -0.1395769 0.0059580086 0.058023486 0.08769894 -0.075895935 0.032323778 -0.034334052 0.010637849 0.041646555 0.014164793 0.116783686 -0.01852945 0.06018453 0.053115252 0.046511393 -0.21422519 -0.24107683 -0.124735445 0.15994117 -0.10513756 -0.025281897 0.09669958 -0.1356921 0.015742155 -0.0802207 0.07076534 0.20004891 0.1668065 0.07394446 -0.031170644 0.071970485 -0.1324617 -0.021398295 0.092929654 -0.10013198 0.054837946 -0.11776159 -0.422482 -0.13177462 0.071057804 -0.18209115 0.04212462 0.15158284 -0.26808807 0.14381137 -0.013617368 -0.01153636 0.13938077 -0.2870858 0.31347442 -0.123828895 0.25373673 0.1330388 -0.13728842 0.08333344 0.10898794 0.02933907 0.1687236 -0.22864243 -0.18102108 -0.03922821 -0.08536515 0.097045615 0.05901093 0.26849082 0.021743087 -0.023602149 0.059769638 -0.06881887 0.19366604 -0.02336235 0.06405929 0.023416257 0.0004271742 -0.119290665 -0.014231914 0.12714484 0.028555783
夫 -0.19047722 -0.3626455 0.095812574 0.12369159 0.033493612 -0.3104786 -0.04587579 -0.07404149 0.24772869 0.014607204 -0.14313936 0.024604876 -0.032412004 -0.04650076 -0.07203105 0.31655574 0.057084262 0.058052346 0.15280494 -0.07139231 -0.038333297 0.12735167 0.011232918 -0.1897478 0.0010074447 -0.055778593 0.11311175 -0.037590355 -0.20458022 0.21111852 0.055940237 0.072739184 -0.053802397 -0.32790095 -0.014008555 -0.063976996 -0.077760056 -0.21421845 -0.13416955 0.028856698 -0.12760134 -0.1330324 -0.10798716 -0.082857944 -0.05548222 0.01533551 0.22750968 -0.057421625 0.046833735 -0.1553756 -0.008525357 0.09569034 0.046507448 0.14301598 0.116671994 0.13296472 -0.01650058 0.00047949422 0.12090527 -0.5747226 -0.046069857 -0.08345772 -0.088358246 0.24360596 -0.08548048 -0.039867908 -0.08682906 0.13564816 0.050913747 0.05869181 0.3213942 0.09268217 -0.041186072 -0.08704718 -0.045385532 -0.09060058 0.002081428 0.042412166 -0.18617107 -0.10638237 0.098738514 0.10885889 0.07282937 0.011267265 0.11634342 0.05039597 -0.001278959 -0.19798097 0.11976069 -0.11770452 0.010070732 -0.004798149 -0.10896199 0.21990605 -0.17386852 0.06316376 -0.22952525 0.016692864 0.30090135 -0.22117858
、 0.123248465 0.05303406 0.45449033 -0.04677548 -0.032187365 0.10302478 0.21032062 -0.19914219 -0.1847964 -0.08533283 0.16560872 0.0048543443 -0.043270983 0.319064 0.39167273 -0.06625366 0.019466773 0.06922159 -0.049627244 0.010139939 -0.0842828 0.052524827 -0.078410566 -0.052842703 -0.36836585 -0.035298005 -0.015351492 -0.2132241 -0.28588742 0.4235954 -0.08238194 0.3717177 0.17270948 -0.29620513 0.036685295 0.014036579 0.100558296 0.08143549 -0.3065853 0.21952009 -0.06765324 0.124382466 0.037223008 0.16613416 -0.14982799 0.22426978 -0.21452159 0.17071468 -0.32206082 -0.09453104 0.15327169 0.23473011 -0.12937696 -0.19192465 -0.0708898 0.29626113 -0.062058967 0.25882813 -0.13582154 -0.4984686 0.01345803 -0.09845209 -0.28331187 -0.15085565 0.07092386 0.050923016 0.04858221 -0.009822817 0.116839245 -0.06100724 0.200846 -0.20591308 0.47496977 0.001987299 0.013746721 0.17938225 0.076703236 0.0633125 0.17283049 -0.09251309 -0.30905288 0.061455835 0.27601668 0.58761317 -0.18119453 -0.021383349 0.048468634 0.1787324 0.08778147 0.23473804 0.23740159 0.0122618275 -0.1843337 0.06936851 0.03032929 0.16898045 -0.47394243 -0.11741289 -0.092781834 0.0044159093
道 0.15524323 -0.15832545 0.09925992 -0.1523828 -0.15103997 -0.1042658 -0.102256894 0.17150716 -0.11355717 -0.1275073 -0.03079748 -0.19358878 0.10714261 -0.2569239 -0.04479624 -0.18912335 -0.13062425 -0.15747711 -0.13136429 -0.028012758 0.0005052468 0.2147854 0.08886462 0.09539658 -0.054318793 -0.10875677 -0.165852 -0.23170792 0.015639368 0.26539364 -0.030569097 -0.13307577 0.22976638 0.13273485 0.016465016 -0.019032203 -0.066343956 0.23737423 -0.36418146 -0.27176446 -0.120857164 0.014277195 -0.05300941 0.27663514 0.06953661 -0.29453754 0.22648667 0.24987315 0.100312054 0.25420213 0.15498503 -0.034541395 0.16772719 -0.13051017 -0.33043227 0.023080593 0.2672084 -0.35090232 -0.034423266 -0.28350085 -0.14046288 -0.062300112 0.068080686 -0.1874273 -0.16046017 -0.0017319227 0.14298518 -0.16870889 -0.15917857 -0.050036147 -0.004089244 0.0048104143 -0.034816347 0.11657633 -0.0842295 0.12963058 -0.04404009 -0.09539032 -0.09372925 0.06926282 0.044010054 -0.02758257 -0.15640216 0.09547752 0.17965506 -0.09091107 -0.08685673 -0.08525407 -0.22235644 -0.11272501 0.1532749 0.16314611 0.071421914 0.013989982 -0.113527626 -0.056645084 0.25482544 0.23364538 -0.15089466 -0.016066771
焉 -0.15595274 0.2021306 0.1987191 -0.09845748 0.18467197 -0.20740207 -0.048342746 -0.19731121 -0.016843934 0.028526794 0.19038181 -0.13797 0.13436592 0.037887312 0.03512783 -0.06889455 -0.021511305 -0.21797572 0.10480437 -0.09269461 -0.0679198 0.05836993 -0.080848575 -0.06609745 0.195128 -0.38813964 0.05107643 0.00471217 0.105700865 0.33405924 -0.11034519 0.035304576 0.005347559 -0.2717634 0.14837547 -0.22423272 -0.053466927 -0.025468618 -0.30288494 0.08955867 0.06959753 -0.18566287 -0.3882684 0.15819496 -0.110372104 -0.17030072 0.039166097 -0.30946 -0.049346082 -0.18822116 0.0069999956 -0.015052063 0.10352102 -0.035391748 -0.09252012 0.031148667 -0.1588937 0.06713081 0.07553387 -0.41389477 0.09447477 -0.061577138 -0.06400562 -0.030429428 -0.1252721 0.25907955 0.37336892 -0.027401548 0.05712532 0.4395081 0.005072064 -0.083910465 -0.08329818 -0.031289257 -0.036566213 0.10484473 -0.14363839 0.1344278 0.18305476 -0.14770639 0.23004968 -0.11632632 -0.1821376 0.11974754 0.0027722102 0.13625465 0.13006952 0.0067040264 -0.099210635 -0.10825496 -0.18206394 0.108359426 -0.0017959066 -0.07966913 0.31105286 -0.084325835 -0.055726513 0.2049963 0.06477832 0.20186743
行 0.175585 0.114321455 -0.21719536 -0.05932954 -0.53572756 0.014340082 -0.046300992 0.070344634 -0.09871035 0.08231418 0.0173787 -0.1510332 -0.10344781 -0.1947222 0.15200636 0.07024816 0.10747338 0.058783453 -0.15078194 0.1769509 -0.1735036 0.2791556 0.21282639 -0.17913772 0.043971036 -0.0558156 0.16326614 -0.07706868 -0.029919485 -0.2286864 0.03325469 -0.057730347 0.08572232 -0.108299546 0.022140175 -0.1315355 0.03705672 0.01498684 -0.42833376 0.0019330806 -0.101317085 -0.02318018 0.07998666 0.075906076 0.11078199 0.2693946 -0.06883628 -0.08192982 -0.025621938 0.13869621 0.0134281 -0.11941299 0.045102775 0.15980887 -0.17772259 0.04800596 -0.17481484 -0.12667215 0.05598748 -0.19746421 -0.085628174 0.25624308 -0.005804614 0.12299425 -0.028986752 0.16047066 -0.04264554 -0.184725 -0.23600717 0.31243482 0.055291545 0.019441301 0.13255703 0.1762423 -0.10833986 0.083051085 -0.1422263 0.148593 -0.33554637 -0.11470646 -0.1403846 0.04151522 0.012819412 0.14845659 -0.20381962 -0.14038838 0.11786947 0.1936217 -0.2540966 -0.003647935 -0.2048809 -0.0015011018 0.035204988 0.025527475 0.22486588 -0.13950016 0.1517535 0.023922976 -0.018531838 -0.096990496
谓 0.1748654 0.053644087 0.06417804 -0.033904348 0.23353198 -0.018757468 -0.0063768243 0.07652745 0.25151685 -0.19157828 0.10669823 0.125651 0.12388585 0.14781654 0.17640369 -0.28082368 -0.035531417 -0.06778375 0.018692933 0.16565877 -0.046279926 0.09427977 0.09157347 -0.13379054 0.24926719 0.3411929 -0.0053650234 -0.27079892 -0.05063201 -0.22130476 -0.17654313 -0.031257413 -0.028117549 0.039656978 0.012846439 -0.11053147 -0.18517305 0.040874753 -0.05000816 0.020445593 -0.20327048 -0.19430664 0.23145665 -0.007439787 0.104714565 -0.079876766 -0.21499088 0.16403545 0.031301804 -0.21802975 0.11274257 -0.16577788 0.17926565 0.1496394 0.016329896 0.0030081638 -0.27305236 0.015488218 -0.32691744 -0.6680012 0.016280383 0.120209515 -0.008190822 -0.09349842 0.09993654 -0.06652538 0.008285468 -0.06978137 -0.023175206 -0.12614436 -0.35593566 0.24238251 -0.16618474 0.23220094 0.20055923 0.267459 -0.17928207 0.05629166 0.10894876 -0.07945582 0.06413281 0.061793864 0.13127482 0.143812 -0.13242653 -0.3809722 -0.07577911 -0.1187889 -0.20152411 -0.062900126 0.09487649 -0.042848457 -0.054319013 -0.013875144 -0.000760938 -0.15950587 0.04447563 0.23896241 0.049972795 -0.08873703
必 -0.041869532 -0.24642752 -0.14811201 -0.09874667 0.34222823 -0.11871925 -0.12550747 0.17424582 -0.11809013 0.1507186 0.031047992 -0.12811752 0.11132669 -0.014220368 -0.0072159595 -0.05182658 0.1372103 -0.045459773 0.3187336 0.09279267 0.20974687 -0.22587928 0.10113976 0.06990039 0.15899393 0.06728495 -0.01672855 0.020201674 0.04191389 0.038994905 0.21814223 -0.09281328 0.22441556 -0.1905621 0.21134877 0.20945765 -0.11665076 0.19383128 -0.38117638 -0.03967109 0.022609228 0.018627968 -0.15362234 -0.21026918 -0.10556189 -0.08619827 -0.35064998 0.34006193 0.033174176 0.13249332 -0.16437754 0.15955645 -0.013233108 0.09629167 0.08733636 -0.3535784 -0.2090794 0.07242216 -0.08909913 -0.21471004 0.009150106 0.16871129 -0.42497894 -0.08738409 -0.30936077 0.07086419 -0.2721385 -0.035306934 -0.3188361 -0.13817616 -0.16245674 -0.073938295 0.2423037 0.19656672 0.022773782 -0.066025496 -0.03674323 0.111151636 0.07305299 -0.13650915 -0.098009355 -0.117755115 0.058977183 0.10108674 -0.2867783 0.08847092 -0.058728214 -0.14110728 -0.15993015 0.0786192 -0.15461046 0.05618423 -0.15783633 -0.103750125 -0.32247117 -0.2020142 -0.16110621 0.115577824 -0.025551628 0.053929
礼 -0.10459596 0.1915428 0.13415432 0.110359415 0.2462185 0.09793036 -0.1321976 -0.33887407 -0.003194341 0.18339074 0.16390696 -0.031819016 -0.20835683 -0.090941995 0.022912258 -0.058136676 -0.055233803 0.047653496 0.021725858 -0.14669752 -0.0047572334 -0.22174273 0.077898316 -0.124454126 0.13332067 -0.16508175 -0.2750506 -0.03791615 -0.1958258 0.11678443 -0.095336765 0.011297246 0.2196303 0.003549814 -0.21847044 0.30350682 -0.10272666 0.18580395 -0.5521782 0.09146159 0.17492221 -0.07837478 -0.26413336 0.55195457 0.027939362 -0.11702911 0.02846423 -0.11184119 -0.16868907 0.085377656 -0.20183119 -0.08504662 -0.12866592 0.084068835 -0.05644852 0.049466588 0.10694234 -0.2174655 0.033175096 -0.17702456 -0.092175685 0.33561674 0.033146963 0.17026208 -0.07580577 -0.24147053 -0.21704549 -0.0033157163 -0.0051321266 -0.23857541 0.22215723 -0.028211862 0.029396385 -0.1243874 -0.07887015 0.022102304 0.103773154 -0.12833993 -0.19993338 0.04750949 -0.038560934 0.11861104 -0.17498958 0.23823407 -0.22764613 0.03774172 -0.021494463 -0.23625553 -0.07669418 0.24911217 0.24258046 0.23389407 0.07225539 -0.0012308348 -0.051570278 -0.19431627 0.20543638 -0.23614505 -0.15013511 -0.024748554
孔 -0.035106372 0.31650457 -0.013045307 0.16886418 -0.1090555 -0.22814758 0.20888521 -0.20185614 0.28561658 -0.018534811 -0.11967273 -0.09194231 -0.27882162 0.09457753 0.06715504 -0.2921862 0.23545353 0.05378297 -0.21252127 0.018700264 -0.046391588 -0.2186482 -0.14333664 -0.1314256 0.09357716 0.082334496 -0.27302513 0.12280941 -0.07922621 -0.005770056 0.2775278 -0.20574556 -0.16605861 0.045670297 0.0044195494 0.16124262 -0.07006689 0.028334856 -0.103890345 0.16825108 0.2213875 -0.08142105 0.16853148 0.14805688 0.21598381 -0.29319403 0.04611738 -0.0070212167 0.0860859 -0.0297541 0.084157094 -0.0591504 0.0034080904 0.0086483 0.050698917 -0.09344197 -0.002626163 0.24136366 -0.17073122 -0.7743805 -0.1812364 -0.27186665 -0.16269965 -0.3074818 -0.08161222 -0.11745237 -0.032823723 0.041480575 0.2176195 0.33943078 0.089297764 0.047006756 0.14824226 0.088290684 -0.26803413 0.03363955 -0.19300042 0.07975274 -0.26028514 -0.027050167 0.026718762 -0.11107404 0.003437402 -0.15526839 -0.25125837 -0.043139867 -0.09580884 -0.0082700765 0.035764106 0.030672053 0.085795715 0.19250159 0.19748658 -0.30519482 -0.21467887 -0.23279648 -0.050962817 -0.358451 0.18630542 -0.07108926
斯 -0.003400459 -0.090075016 0.19657321 0.1611698 0.21836886 -0.02929574 -0.059025466 -0.16666758 0.08633488 -0.051134907 -0.1215209 -0.0012354725 -0.062700026 -0.049991574 -0.29021347 0.11614863 0.12707898 -0.255525 0.018794984 -0.12130381 -0.075360835 0.045366906 -0.21860957 0.036621857 0.3825566 0.07010866 0.16842024 -0.046743117 0.12607454 -0.047110587 0.003399668 -0.15093143 0.047683727 -0.068489306 -0.029726652 -0.18558331 0.18965498 0.18947381 -0.28025666 -0.0037243967 0.03365935 -0.053447004 0.07563136 -0.05333424 0.13314602 -0.0072862813 -0.15179649 0.18978387 -0.047589682 0.281736 -0.30826956 -0.19135326 0.10080828 0.016074998 -0.18765138 -0.012372542 0.3493252 0.1051563 0.02709509 -0.4782409 0.13537608 -0.06792669 -0.13105983 0.0022610582 0.18480721 0.07803524 -0.21728984 -0.475888 -0.19582339 -0.08648865 -0.12704124 0.27415612 -0.060817588 -0.0722975 0.08751751 0.16126148 0.15235135 -0.09592558 0.06590574 -0.16274367 0.2849776 0.030120896 0.39716604 -0.49082807 -0.17557444 -0.15848283 0.053552862 0.23871773 0.07316859 0.22125411 -0.014156897 0.026761902 -0.106740266 -0.058724426 0.07118645 0.19587415 0.11797704 0.4589905 0.41001576 -0.09221662
三 -0.14745575 -0.040351994 0.11640577 -0.17207178 -0.008512877 -0.17384987 -0.012966394 0.0047618356 -0.24452297 0.2907049 0.16698298 -0.17737576 -0.09701092 -0.06490272 -0.011631133 0.16446255 0.14630081 -0.1376787 -0.18466662 -0.17484854 0.08370145 -0.11505653 -0.10077114 0.085802734 -0.09495342 0.045504037 -0.12659597 -0.123983294 -0.2786352 -0.055211827 -0.16343196 0.08133393 -0.036687046 0.13714081 0.09889485 -0.04889884 0.055239964 0.18652779 -0.32422188 0.10664423 -0.11835884 0.16143936 0.13718124 -0.054054607 -0.2616964 -0.006941395 -0.060723748 0.24868463 0.08298278 0.009193055 -0.033182908 0.075209916 -0.13715611 0.21116196 -0.15811649 0.026683828 -0.26056248 -0.008142313 0.09093896 -0.36935768 0.053663604 -0.20588806 -0.08554695 0.15656637 -0.14192802 0.10748262 -0.41723415 0.32946208 0.05874472 0.12949927 -0.19607729 -0.06269015 0.02881161 0.080340095 -0.21353237 -0.056430075 0.38946962 0.04087107 -0.046797983 0.26247773 -0.2625643 0.12630546 0.0064182603 -0.03349806 -0.083909094 -0.11840353 -0.0964589 -0.16218553 -0.057812158 -0.02633576 0.19408327 0.023677405 0.020959504 -0.20046689 -0.417264 0.16275159 0.06349887 0.23800814 -0.23805982 -0.15461184
能 -0.15090105 0.06689893 -0.05684058 0.10317963 0.21148609 0.1042121 -0.020219604 -0.2253819 0.13277678 -0.18525587 0.2501844 0.010334553 0.17328377 -0.2872101 -0.0011065779 -0.3121298 -0.026985785 0.04672628 -0.05046026 0.20224376 0.16949207 0.09820115 0.031160297 -0.09310782 -0.11379966 0.0127345435 0.19138333 0.31120145 -0.28543654 -0.101245545 0.058879472 -0.07887232 0.17945158 -0.08491265 0.030787932 -0.3247258 0.022959288 -0.14393942 -0.41814628 -0.15244016 -0.26655972 -0.20961437 -0.16861822 0.21722835 -0.06985243 -0.12585284 -0.09744824 -0.019095354 -0.049446553 -0.079134054 0.09532402 0.050877336 0.14560203 0.20497973 -0.106742166 0.1618873 -0.012978695 -0.1558475 -0.044200856 -0.2119384 -0.20602733 0.041647464 0.05132077 -0.102515325 -0.10338299 -0.061768048 -0.044860844 -0.040302046 0.085264854 0.30277547 -0.15454185 -0.1212762 0.1378185 -0.13322553 -0.030804534 -0.16940373 0.0056179697 0.0799141 0.13648687 0.16422343 -0.14315115 -0.011849265 0.0055425446 -0.093605265 0.15281889 -0.08928767 0.20244448 -0.28614348 -0.060460147 -0.15125616 0.15366921 0.011967244 0.11305654 0.17422988 0.10499309 0.38044176 0.024457712 -0.14530958 0.0028743201 0.057286285
见 0.12652442 -0.072336845 0.18139063 0.062458124 -0.25701243 0.034723405 0.05898098 -0.08544157 0.25139403 -0.21517794 0.072689004 0.2752734 0.141265 0.38371876 0.001486729 0.2424323 0.2007736 -0.06271157 0.12402935 0.17483546 0.0027049938 0.023893207 -0.013288245 -0.07218374 -0.07117208 -0.0021895494 -0.058883775 0.45825467 -0.25453907 -0.02255027 -0.010801682 0.1371125 0.18978648 0.24878165 0.09594557 0.19653496 0.20140915 -0.024572415 -0.40305874 0.05267212 -0.010446769 -0.05715298 0.22061168 -0.14136352 0.074472025 -0.19240603 -0.0953752 -0.17862637 0.089213856 -0.25515482 -0.14510222 0.24185699 -0.12860107 -0.016018722 -0.0034175948 0.18182759 -0.11907882 -0.24730632 0.14107308 -0.2564184 -0.017547186 -0.10738501 -0.036606144 -0.13630958 0.040143803 0.044139963 0.10037662 0.23561403 -0.4772728 0.11846321 0.082982525 -0.0026675633 0.020143228 0.3246038 -0.06846652 -0.06147481 -0.36415333 0.17230071 -0.010068495 0.1402938 0.26987422 -0.02140583 -0.19923651 -0.031242661 -0.09586722 -0.120335795 0.25659996 -0.050360173 -0.041985832 0.11963464 0.182828 -0.06811687 0.039407436 0.08869679 -0.063339986 -0.0021807477 -0.13396342 -0.11823708 -0.124004215 -0.20950784
学 -0.27652368 0.04155876 0.19324243 0.2544602 -0.14505278 -0.013268997 -0.14401291 0.042819634 0.291562 0.16771427 0.18348175 -0.01333878 -0.18118079 -0.394135 0.0011341807 -0.07140225 -0.24038541 0.1273001 -0.16226193 0.0932489 0.12431148 0.057598468 0.01578107 -0.21196847 0.13473961 0.27336696 0.017440286 0.5170037 0.0231371 -0.09543446 -0.065623455 0.05904237 0.050115492 -0.1475914 -0.1501991 0.28917903 -0.032272626 0.121527635 -0.38236153 -0.18199271 -0.10427259 0.12771122 0.043248035 0.019643662 -0.0381737 -0.123507634 -0.037942786 0.050407123 0.1398921 -0.08771296 -0.27911705 -0.11255186 -0.24892764 -0.20147707 0.2018831 0.09616481 -0.07502864 -0.16436656 -0.039529134 -0.31642002 0.06525248 -0.1719309 0.17873938 -0.09076419 0.18057495 -0.07045217 0.25818095 0.018640392 -0.19008051 -0.24148583 0.20356154 0.06915931 0.24451172 -0.09365445 0.09175418 0.16547166 0.096845806 0.40890738 0.36092559 0.15865193 -0.35783052 0.034937 -0.1075861 0.008059938 -0.025570206 0.14821078 -0.17737746 -0.0810716 -0.08142106 0.1980398 -0.19142237 0.017414307 0.21963504 -0.12954961 0.120893836 -0.10326246 0.047821634 0.049475178 -0.16018125 -0.011043237
事 0.069346234 -0.15621854 0.0077060377 0.15375528 0.12834586 -0.016170027 0.012965495 -0.2200811 -0.13006136 -0.017598473 -0.3281033 -0.11223005 0.069350034 0.22143212 0.04993699 0.12646946 -0.14175354 -0.05904822 0.08105849 -0.08092565 -0.039101657 -0.029702011 0.08652208 0.34731624 0.22077756 0.04256614 0.2700991 0.25664347 -0.24388021 0.08770229 0.019919561 -0.11938225 0.047900874 0.14517847 -0.11252912 -0.53440535 -0.07386073 0.21867782 -0.46706197 -0.107304536 -0.3019966 -0.3129391 0.1291174 0.100761935 0.3277205 0.01664625 0.080553494 -0.24063578 -0.056730773 0.14441486 -0.15531538 0.025760937 -0.15567936 -0.10845071 0.15715308 0.011837986 0.024331065 -0.25125515 0.059291914 -0.29286733 0.11702022 0.08894533 -0.022969794 -0.13419545 0.06473524 0.058917936 -0.04417072 -0.003249441 -0.24769786 -0.08827636 -0.034230184 -0.09453106 0.197303 -0.12619519 -0.080143094 0.004593146 -0.091827594 -0.22062425 -0.038992673 -0.107417464 0.035958722 -0.14079528 -0.12288676 0.12456866 -0.055824503 -0.20006539 0.12278638 0.22743051 0.3110745 -0.26947954 -0.12292804 0.09419079 0.028916936 -0.14913 -0.039058395 0.10502499 -0.19949761 -0.025328195 -0.122492485 -0.18201968
是 0.43795085 0.082254566 0.12542583 0.11333208 0.029936053 0.17765467 -0.02604258 -0.24624285 0.039981656 0.21735044 -0.36720258 -0.22534928 -0.35457486 -0.18931656 0.15832435 -0.25167 0.09458118 0.18834637 0.0415104 -0.17103775 0.18441322 0.17097618 -0.18038753 0.011549628 -0.005530953 0.124329865 0.4083976 0.3953177 -0.34053835 0.18960312 0.061045103 0.01947705 0.16241784 0.08551404 -0.15749545 -0.025368303 -0.19386889 -0.14983799 -0.27180144 0.024992539 0.15630089 -0.16268447 0.058355242 -0.24700198 -0.10809164 0.014466253 0.17678463 0.18804486 0.10029296 -0.07622399 0.026081579 -0.05233242 0.10311426 0.3750268 0.25353676 -0.051636893 -0.1961433 0.22003204 -0.40184653 -0.46375066 -0.1253437 -0.10951939 0.18780385 -0.09322217 -0.10210445 0.18960026 0.2036812 0.08781694 0.23083821 0.07909945 -0.099862225 0.0026283648 -0.26521108 0.015815485 -0.12218663 -0.21417947 0.014568264 -0.12582196 0.020824613 0.038071804 0.08101156 -0.1482262 -0.07247871 -0.14293933 0.17000593 -0.23160161 0.15177812 0.082838446 -0.028283296 0.005603969 0.02383363 0.13952607 0.1718719 0.24836633 -0.11933527 0.09666807 -0.3245932 0.25281695 -0.21361537 0.0017040729
哉 -0.06616439 0.21717702 -0.18126145 -0.23477437 0.23213261 -0.12835076 -0.09253125 -0.21232401 -0.16893493 -0.33767867 -0.3245934 -0.03831197 0.16172606 0.21816634 -0.029689208 -0.04117996 0.0016156739 0.17326304 -0.19226159 -0.20524096 0.065642595 0.07143447 0.13266371 0.0051889843 0.058124453 -0.0075267334 -0.09662109 0.12131233 -0.033502363 -0.030538976 0.12433484 0.054957744 0.20093541 -0.058107175 -0.06513162 0.10764052 -0.19316617 0.09890596 -0.05751026 0.13010414 -0.07087499 0.16087565 0.36193407 0.044241473 -0.10818942 -0.23244381 -0.139793 0.089196034 -0.08759305 0.056047574 -0.06983462 -0.09690407 -0.030968336 0.04184462 0.11766465 -0.15682667 0.25548622 0.120248266 0.36917788 -0.7217136 -0.14048073 0.07588172 0.072095044 0.15226093 -0.21446182 0.21370599 -0.07990998 0.12553991 -0.115821935 0.13087633 0.04274726 -0.06740741 0.05446805 0.46842974 -0.1140326 0.092605844 0.08596301 0.009768875 -0.020510213 0.044876985 0.15275878 -0.5637738 -0.26963672 -0.05007995 -0.23038337 0.3448388 0.2588347 0.1491877 0.193515 -0.2861304 0.021165073 0.119969375 0.015036271 0.28793138 0.17218295 0.017252455 0.14198652 -0.02974172 -0.067550816 -0.009162985
闻 -0.12169446 -0.31393725 -0.10658822 0.09247343 0.15412387 -0.23036796 -0.059570912 -0.22986895 0.06102818 -0.008755885 0.13123439 -0.073092535 -0.052307058 -0.0376759 -0.21603453 0.30497304 0.024550185 -0.078215964 -0.059192415 0.13189566 -0.24253012 -0.006742432 -0.47135806 0.08362705 -0.013634341 0.2295041 0.11726772 0.46420535 -0.45955715 -0.02690107 -0.36114237 0.06739808 0.121497065 0.24606796 -0.04002163 -0.34719178 0.0013486563 0.29136375 -0.28987244 0.051005296 0.039653797 0.09807538 0.12205787 0.16101658 -0.0099845845 0.057224635 -0.32710898 -0.108080536 0.15029843 -0.041926347 -0.07809872 -0.21078137 0.0074789114 0.14660943 0.2890112 -0.084632926 -0.13377123 -0.12697305 0.26667616 -0.37223732 0.19031638 -0.001121307 0.09497603 0.09628292 -0.19402653 0.028248718 0.03841759 0.03533841 -0.15577872 0.10441979 0.174698 -0.015687358 0.124888845 -0.032694165 0.19883211 -0.049714908 0.2432016 -0.124815755 -0.026372908 0.08984654 -0.07772858 0.084357545 0.39141646 0.01945786 0.20797518 -0.24290611 -0.010235172 -0.1521915 0.019605773 0.11772785 -0.1086949 -0.22599633 -0.13708599 0.109615795 -0.2562565 0.097034246 -0.008609715 -0.01946444 0.3073364 -0.08654285
未 -0.13549036 -0.033278115 0.19831833 0.3643745 -0.0749528 -0.14705303 0.11177765 -0.03756334 0.16060042 -0.029035363 0.04799522 -0.12140904 0.0673976 0.23251525 -0.318545 -0.12680683 -0.1819622 0.09920575 -0.056458883 0.13128808 0.0787823 0.15736581 0.03386622 0.27142036 -0.07073579 -0.04579177 0.108991824 0.00056173326 -0.04968353 -0.1106015 0.10789498 0.062962905 0.23674278 -0.25028366 0.014435774 0.018401489 0.088387795 0.15193427 -0.34705344 -0.11465376 0.110289104 -0.026209824 0.078442864 0.09329919 0.29333818 0.20608959 -0.081093706 0.014214712 0.15214644 -0.091538586 -0.053323317 -0.06859348 0.095153645 0.2220063 0.08316383 0.07110752 0.14627697 -0.073783405 -0.1364668 -0.2662031 0.0919213 0.28235352 -0.378853 0.2867767 0.21248198 0.18942712 0.1360384 -0.10933478 -0.35660568 -0.086317174 -0.16755559 0.08572495 -0.03241505 -0.05172393 -0.042492192 -0.18941754 0.009801353 0.04410454 0.050979123 0.2460138 0.113910995 -0.29269776 -0.21109821 -0.030114723 0.071319416 0.10414117 -0.32201865 0.23754422 0.049909454 -0.31994876 -0.05230522 0.2757939 0.12318009 0.0120582245 -0.35641974 0.046264958 -0.115404524 0.109593354 0.0043794876 0.12349441
公 0.13547532 0.18167466 -0.2034118 0.05534488 -0.106338486 -0.09313267 0.24413624 0.1061879 0.1495425 -0.15278675 -0.120669745 -0.33612186 0.093460575 0.00081430766 0.4000952 -0.1639409 -0.03521004 -0.049654037 -0.25069845 0.16205405 0.26150185 -0.164785 0.36460108 0.0104996795 0.086550206 -0.2453915 0.13847889 -0.303895 0.19867435 -0.057880376 0.14909197 0.17340256 -0.19142345 0.10726586 0.07058917 -0.106880076 0.27076012 0.086328015 -0.15044184 0.070090756 0.13145505 0.07023524 0.088732906 -0.035095204 0.44019458 0.18348032 0.045815486 -0.05255443 0.008177832 0.2702157 0.167895 0.069507375 0.12998517 0.14610451 0.34768325 0.15472876 0.038891856 -0.011732133 -0.016754035 -0.68343586 -0.08033327 -0.070807606 -0.110265 -0.25604025 0.08790869 0.09421326 0.013447316 -0.13882542 -0.034089953 -0.18646713 0.13311231 0.079550795 0.22533487 0.0302318 -0.09217282 -0.11673908 0.23557095 -0.15965222 -0.10830852 -0.113297366 -0.059059408 0.1593953 0.22405595 0.18699616 -0.018683536 0.20256813 0.019690132 -0.4476666 0.39888445 -0.1634558 0.16902861 0.041450914 0.009838411 0.18019561 -0.006228982 0.24986416 -0.057147577 -0.069707155 0.055050857 0.16481785
好 -0.09089798 0.2854519 0.2182226 -0.32913867 0.13592164 0.19251592 -0.17708269 0.35826525 0.07106199 0.12767291 -0.39127347 0.2534414 0.19179915 -0.12454786 -0.020847473 -0.30482262 -0.3905467 0.13554627 0.27734697 -0.14592996 -0.09072098 -0.06415984 -0.20142175 0.011908832 -0.059576806 -0.06191 0.09183417 0.21270071 -0.024509594 0.072655894 0.107091025 -0.019125473 0.19126883 -0.1332258 0.003979403 0.21318543 0.044723336 -0.15183268 -0.57015955 0.06330985 -0.23052244 -0.10695639 0.015997738 0.18096356 0.37553114 -0.24032147 -0.27866298 0.054581232 -0.06845428 0.03358426 -0.31059805 0.03744753 -0.20925854 0.14710858 0.0450012 0.17224322 0.03396171 -0.115493685 -0.058706284 -0.26077008 -0.076722115 -0.049699105 0.12274372 -0.2750367 0.20641983 -0.052581146 0.37032038 0.14829731 -0.20476358 -0.24429467 -0.22414958 0.006876065 0.26477847 0.07590755 0.083812885 0.23789328 -0.12679513 0.4548328 -0.085556895 0.13149261 -0.10410981 0.055883653 -0.16658887 -0.19224301 0.02680518 -0.040978245 -0.3309492 0.006891554 -0.3603159 -0.04390103 -0.08821932 0.14567956 0.4916421 -0.20002547 0.18355076 0.245389 0.023231227 0.17412475 0.08904383 -0.098688446
我 0.02392284 0.28827342 -0.09223199 -0.051735345 -0.041225605 -0.10100923 0.071514666 -0.055484515 0.11700439 -0.13503563 0.1715169 0.005446008 0.12443795 0.18770182 -0.14277545 -0.12203903 -0.18932344 -0.21176304 0.31724814 0.10219787 -0.1985293 0.1891764 -0.21624875 0.008132533 0.05160158 -0.19463992 -0.10357878 -0.017198868 0.0065302565 0.10660419 0.2598577 -0.18373296 0.24366292 0.08074927 -0.19659886 -0.048844513 -0.09605448 0.26312926 -0.16000381 -0.10637543 0.0953567 -0.31429103 -0.35760933 -0.1686244 -0.31353852 0.077846274 -0.073809154 -0.2241232 -0.014896706 -0.26048973 0.032447796 -0.097504854 -0.016166447 0.38020286 0.06171161 -0.2502188 0.12926498 0.23845387 0.15901366 -0.5167376 -0.017893646 0.29734778 0.06993404 -0.108273275 -0.5284092 0.044817608 -0.15821826 -0.0076888134 0.07121628 -0.271584 -0.058658287 -0.10866662 -0.05553485 0.2020546 -0.19395474 -0.14228188 0.33294868 -0.003389867 -0.05218399 0.10636757 0.106405266 0.19886638 0.0001627306 -0.3956017 -0.080445044 -0.012379807 -0.003953739 -0.009296069 0.3892349 -0.09755095 -0.15604708 -0.15264578 0.115355484 0.07013049 0.067373335 0.13645948 -0.0959029 -0.2904326 -0.0067162183 -0.0753402
路 0.011004328 -0.0038469948 -0.049917635 -0.012360398 -0.1761458 0.27342013 0.04879644 -0.3799182 -0.20953143 -0.16927427 -0.07158286 -0.2011524 0.13892326 -0.06823671 -0.15833719 -0.07253632 0.19071516 0.040578105 0.12717417 -0.10059532 -0.26652023 0.11573407 0.1405908 0.1166829 -0.16536282 -0.26062307 -0.074120134 0.085000746 -0.29635042 -0.121134765 0.00013293943 0.23140362 -0.14174879 0.10834298 0.5958156 -0.45323184 0.35797772 0.20774661 -0.17548473 0.113388404 0.16501474 0.04518606 -0.12117657 0.09388434 -0.08684572 0.037073813 0.051061843 0.0014229555 0.11326932 -0.19866309 -0.1729076 0.19484504 0.15317856 0.12792078 -0.023825219 0.41304997 0.16248481 0.041442666 -0.053190548 -0.7484289 -0.25111026 -0.17812099 -0.41526502 0.027418215 -0.0994681 -0.04021924 -0.09308642 -0.17089052 0.051986672 -0.28219184 -0.050277278 -0.39538902 0.0486188 -0.20349547 -0.08091572 -0.08044535 0.11192303 0.10054673 0.044730633 -0.3978155 -0.02292596 -0.30305326 0.05527209 -0.11749989 0.040439006 0.12349892 0.13679837 0.06257542 -0.3261153 -0.1942277 0.026155194 0.13141914 0.11089469 -0.25814095 -0.030488107 -0.04694017 0.06187557 0.0108346855 0.09526418 -0.05043487
在 0.114911616 -0.081721574 -0.18887605 -0.11278636 0.06893149 -0.1226042 0.19591773 0.28383204 0.008218821 0.028127735 0.10164931 -0.095192865 -0.31807852 -0.13354424 0.15410325 0.15722258 -0.22622661 0.012920634 0.038653374 0.00076743774 -0.060294665 -0.1557376 -0.17672457 0.02824417 -0.21013592 0.41523802 0.111647114 0.14098606 -0.09650917 -0.13873003 -0.056225136 -0.010920651 0.13678941 -0.061575126 -0.099122934 0.16202658 0.01417893 0.010316531 -0.42113882 -0.03732804 -0.16841187 0.14512219 0.15589577 -0.30067593 0.0842194 0.30394748 -0.037657622 -0.13619992 -0.14017849 0.4198472 -0.4685625 -0.0059639853 -0.19954838 0.050000057 -0.111822374 0.11587247 0.017116135 -0.10453264 0.01400492 -0.21582744 0.060751345 -0.097302966 -0.2957711 -0.1398954 -0.14024113 0.07370558 -0.12381159 -0.00016001449 -0.53544337 0.122597724 0.20422098 -0.23263974 0.20502524 0.109980926 0.0939136 0.07148114 -0.19952612 0.039497267 0.230509 -0.26369604 -0.2034252 0.18620025 -0.00846144 0.094291456 0.2065817 -0.013249762 0.15973057 0.27827254 0.32456505 0.3091871 0.15930004 0.013127018 -0.06094725 0.10591242 0.0005278008 -0.27015707 -0.18715166 0.26222843 0.13202798 -0.052477084
已 0.070612274 0.2301269 0.058379345 -0.076891355 0.01766825 -0.43846118 0.2830437 0.08508688 -0.34289068 0.036094658 -0.1746162 0.11617103 0.08547766 -0.15511048 -0.26182193 0.053501703 0.2826446 -0.08942784 0.0014787342 0.17302121 0.020312635 0.000948493 -0.35436618 -0.13246694 0.25926518 0.12388215 0.21577802 -0.016632589 0.05560469 -0.24238738 -0.22641285 0.24364415 0.09410408 0.16368997 -0.13839485 0.08713123 0.18367484 -0.012522581 -0.121188484 -0.12813985 0.11833713 -0.19973235 0.09356946 -0.08691787 -0.09940667 0.4380682 -0.24589364 0.26639837 0.2920839 -0.15960671 -0.06760768 -0.12313503 0.010270036 -0.20114343 -0.07884017 0.18475766 -0.08541634 0.12565024 -0.16707501 -0.5674318 0.014977565 -0.088365436 0.039129637 -0.014576317 0.11535427 0.09465096 -0.027049582 0.04507895 -0.072975546 -0.023459531 -0.152765 0.24779376 0.0038761562 0.06023943 0.25082284 0.13510588 -0.18799786 -0.086481765 0.1732012 0.121602155 -0.3325925 0.2873952 -0.0700707 -0.07536117 -0.3062238 0.03964412 0.13674209 0.16727269 -0.007053142 -0.03047284 -0.076397344 -0.11415116 0.11439913 -0.20356624 -0.07471945 -0.030911265 0.0478365 0.26149932 -0.23355573 0.053577
得 0.20330036 -0.12046066 -0.047377087 0.24513315 0.17908245 0.1830591 0.1312284 0.17101116 0.13638958 0.09912764 0.09591802 0.10162678 0.21386197 -0.34569293 -0.013861204 -0.11910793 0.15880428 0.050693862 -0.03149037 -0.040339395 0.06700077 -0.07926643 0.09811978 0.3110122 0.06722684 0.2050259 -0.2566266 0.004756047 0.06325393 0.24856296 0.12010254 0.19739023 0.30152822 -0.13530265 0.02538066 -0.10294344 0.3344355 -0.23748812 -0.39261812 -0.09842859 0.048058536 -0.04089163 -0.0556616 0.40047517 0.22916937 0.01642543 0.1726656 0.035372924 0.0620961 -0.21224502 0.18585841 -0.00054135075 -0.02053177 -0.27243152 -0.02332665 -0.07278282 -0.15118456 -0.19737616 -0.10329345 -0.18280919 0.17962214 0.090239994 -0.078583896 0.037634145 -0.15249279 0.16156314 -0.03638751 -0.1559276 -0.11365116 0.19562903 0.20203216 0.19010793 -0.45254853 0.02125433 -0.20966305 0.026218165 -0.22425236 0.23842995 0.15547717 -0.00492578 0.24308985 0.32123387 0.13125794 -0.08079634 -0.106825106 0.019084206 -0.09617516 0.101897396 -0.14299929 0.073379524 0.06702328 0.16081457 -0.12718266 0.20427297 -0.01278384 0.07434558 -0.26250544 0.0040066354 0.06581569 -0.36569023
所 0.06423071 0.07743954 0.18697734 0.15603003 -0.08978678 -0.10154118 -0.13770105 0.24342513 0.008589242 -0.12934941 0.11412536 -0.0007718097 -0.06900917 0.055536736 0.13975511 0.14976157 -0.069016464 -0.31122142 -0.22387338 0.027128972 0.027052235 0.110630795 -0.2887313 -0.06423376 0.050328407 -0.051486164 0.2535933 0.43152738 -0.26576898 -0.044513546 0.0116578005 0.13334267 0.23247719 0.19141266 -0.20893617 -0.0048348997 -0.17297387 -0.21398127 -0.41138914 0.4956058 0.37505668 0.17406833 0.09891771 0.2289659 -0.21758042 -0.02722002 0.33964342 0.27226838 -0.051146403 0.11234623 -0.1645965 0.14040084 0.024393946 -0.1627725 0.02881428 -0.22232297 0.04529257 0.31745756 0.04589818 -0.31794122 -0.07782486 0.08786246 0.05379021 -0.09045127 -0.12373806 0.007130686 -0.3459342 0.16602135 0.11321703 0.07350291 -0.081313245 0.20975758 -0.116617054 -0.34338856 0.1525532 -0.14946589 -0.011636479 -0.12071952 0.20026025 -0.0853065 -0.121808164 -0.09236058 0.14789535 -0.22656775 -0.16615479 0.2622613 -0.33085707 -0.265898 0.077327654 -0.34233046 -0.09570985 -0.19775616 0.0012604288 -0.009134712 0.24595714 -0.005314948 -0.068967804 0.13941495 0.14643338 -0.44380876
民 0.22518727 -0.20376144 0.25438416 -0.44576958 -0.13369334 0.1917484 -0.22668177 -0.06696073 0.04653534 0.08912674 0.01722869 0.18727836 0.13930698 -0.068104625 0.043165613 0.22040959 0.092847094 0.25154948 0.1418705 0.11361208 -0.1548914 0.26878184 0.12347999 -0.03855235 0.15355948 -0.05554776 -0.07861074 -0.00058117503 -0.22334187 0.3184342 -0.3175498 0.29708487 0.2611115 -0.107795596 -0.15735364 0.25487915 -0.087422796 -0.21565288 -0.50404406 -0.4532925 0.19831064 -0.1699063 0.063466474 -0.0080224415 -0.007340403 0.17361856 0.14156727 -0.23636669 -0.12183786 0.12058879 0.0064457147 0.17767823 0.006622439 -0.18227631 -0.11439438 -0.11495125 -0.11430711 0.2806464 -0.36985224 -0.16848603 -0.45987144 -0.028336458 0.12783113 0.42996916 0.18249436 -0.024377938 -0.09085157 0.15372212 -0.2344772 0.072191656 0.05566062 -0.25482276 0.50705034 -0.27217573 -0.00030284212 0.0052253767 -0.08379974 0.062334377 0.23787923 0.13650586 -0.097593084 -0.042432178 -0.09229532 -0.35436228 -0.16558805 0.009817422 -0.043983757 -0.097827755 -0.023356551 -0.014725014 0.12244343 0.115812466 -0.011610515 -0.16788788 0.106456175 0.048026655 0.093069755 0.39137867 -0.10481018 0.13699944
小 -0.16078548 -0.0053337505 -0.11646705 0.004952774 -0.10831545 -0.19613986 -0.17735623 -0.19181225 -0.13068525 -0.25606847 0.11394315 0.19657971 -0.032185316 0.14868931 -0.09196324 0.14587694 -0.3552502 0.078152716 0.24634956 0.07676547 -0.12618698 0.08384498 0.25017497 0.04168643 0.0701542 0.070932455 -0.11423391 0.09836137 -0.032595664 0.10937193 0.014510691 -0.19307666 0.132985 -0.016834587 -0.23989302 0.048769332 -0.06859658 -0.30462715 -0.4350679 0.37535992 -0.15994345 0.120483555 -0.07232207 -0.34382808 0.27885738 -0.16090563 -0.40150145 -0.3438107 -0.01098702 0.2643635 0.044428837 0.22180521 -0.089091994 -0.18124843 -0.57120454 -0.2896897 -0.26183954 -0.052190956 0.26609394 -0.39380208 -0.07265167 0.2253543 0.28286842 0.020452498 0.22987676 0.14750633 -0.056648694 -0.22346126 -0.10708409 -0.17689711 0.16262029 0.0666661 -0.32766372 0.034180876 -0.097539134 -0.034100424 -0.18731171 -0.18581639 0.16083263 -0.090802714 -0.16811399 -0.31453174 0.13068561 0.10018066 -0.095892124 0.1404802 -0.12979174 -0.09591997 -0.14987451 -0.12600252 0.04047009 0.17429943 -0.13863996 0.15968536 -0.05569555 -0.18136701 0.11074406 0.2986934 0.0913578 -0.13278075
天 0.061972138 0.22339019 0.3940606 -0.013281154 0.020262854 -0.22012885 0.09376641 -0.029279016 0.14744276 0.04261421 0.26891688 0.14327817 -0.18236521 -0.20348196 0.03377379 0.023363441 0.18016122 -0.16622788 0.07521299 0.067590736 0.0490755 0.29470405 0.2136963 0.1834934 -0.103816226 -0.066064514 0.19403225 -0.2875602 0.6552236 0.1360054 0.064623326 0.18861932 0.19160876 -0.09904935 -0.035605103 -0.0030171948 -0.004456678 0.14668429 -0.37416017 -0.0905066 0.113444984 0.116254196 -0.24303034 -0.031777687 -0.2463871 -0.1249336 -0.13331167 0.21438867 0.10713636 0.38521555 -0.21003455 0.0461924 -0.028379729 -0.06092147 0.47989807 0.002889349 0.023110643 0.25426877 0.092101425 -0.29547244 0.028503126 -0.15544851 0.14407867 -0.06642515 -0.024581308 0.012172395 -0.03906896 -0.122663304 0.19255929 0.09666584 0.0625448 0.03122814 -0.27965635 0.17931835 -0.117824875 0.19981699 0.3760312 -0.08578022 -0.067833096 -0.009190539 0.049713567 -0.0027885737 -0.16322257 -0.3915065 -0.1595522 0.06500652 0.17079021 -0.14210585 -0.22329248 -0.048183627 0.4589472 0.100693 0.0996822 -0.003231968 -0.20811518 0.0708611 -0.14913863 -0.003715943 0.024405833 -0.15937708
乐 0.111366175 0.07208872 0.28503525 0.58685815 0.119774334 0.1284106 -0.15442199 -0.08234332 -0.053940624 0.044770043 0.41808388 -0.340664 0.12289262 0.055781692 0.092821434 0.20244949 0.027676074 0.48750564 -0.08865572 -0.31924155 -0.16304494 -0.070743434 -0.1582942 0.122228466 0.3440172 -0.03990426 -0.35037524 0.029875053 0.02873592 0.3616585 0.09891232 -0.038007952 0.34317738 0.057972327 0.046023313 0.24783993 0.095442414 0.5091621 -0.6048749 0.35582662 0.18357924 0.020244973 0.15390095 -0.13385862 -0.26148677 -0.1413705 -0.1245739 -0.11341086 -0.13308935 0.027562326 -0.1446437 0.27567774 0.10560051 0.008640089 0.18430129 0.2376358 0.09104932 0.2237008 0.15585946 -0.16745855 0.16084088 -0.059124585 0.30423933 0.3014703 -0.09645548 -0.018327005 0.007746541 0.06624507 0.10215746 0.30699044 -0.1724353 0.12907128 0.051279053 -0.08812945 0.23641232 -0.112705834 -0.17856579 0.14362293 -0.27662024 0.2423991 -0.039319605 -0.00034697662 0.21520439 0.15767229 -0.019744119 -0.42792195 -0.063162714 0.17536232 -0.105531715 -0.055003274 -0.03298019 0.0581163 0.12098622 -0.0056913025 0.13001753 0.19609407 -0.14201264 -0.23397376 -0.06334508 0.1900307
邦 0.27575505 -0.05147813 0.17754294 0.085308045 -0.11514071 -0.43786445 -0.15316388 -0.5699526 0.04808304 0.07055097 0.21917503 0.025217496 -0.26801646 -0.21456456 0.15217903 -0.35130996 -0.031131757 -0.343096 -0.018550584 0.21771774 -0.20212096 0.09274554 0.15446025 0.20945889 -0.22223651 0.15665552 -0.077640764 -0.06100271 0.15886588 0.22555979 0.14512527 -0.3798293 0.31709433 -0.068797834 0.3883465 0.1299838 -0.026068324 0.22759818 -0.39212883 0.16226444 0.0193325 0.23068763 -0.043643136 -0.041926417 0.14168647 -0.06844366 0.25910228 -0.103358656 -0.05694862 0.16100658 0.06590365 -0.2579049 -0.12282939 0.016309425 -0.04547462 -0.23914292 -0.27494562 -0.16541328 0.083084404 -0.2622435 0.14271572 -0.17298779 0.099473186 -0.16609016 0.17178808 0.38330403 -0.13130291 -0.12599969 -0.1983335 -0.10318874 -0.009483795 -0.22597621 0.21093719 0.05094698 0.2565498 0.029146666 -0.040899746 -0.2083075 0.23673141 -0.123822905 -0.0025134613 -0.16762482 -0.08279776 -0.2285763 0.08981623 -0.21548514 0.14627834 -0.047210358 0.33274335 0.11085783 0.06753843 0.049104113 -0.24638984 0.13778874 -0.20389633 -0.3598579 0.20681584 -0.16539234 -0.030978957 -0.10508315
亦 0.28115237 -0.085729845 0.24598122 0.04147297 -0.04038612 -0.30259696 0.14429112 0.096770324 -0.024322776 0.027472364 -0.028268043 0.039448388 0.16812985 -0.09986142 0.23515458 0.22268645 0.09764584 0.049646255 -0.18091829 -0.33605796 0.024262935 0.03720404 0.11806481 -0.11029812 0.22758493 0.0209598 -0.028254598 -0.031242281 0.3928861 -0.23617429 -0.017399404 -0.21610424 0.05214851 0.615807 0.12840925 0.219223 -0.032636672 -0.09015403 -0.29869685 -0.046765972 0.09557788 -0.008597603 -0.2614167 0.044075117 -0.08351119 0.030898003 -0.35232317 0.22851798 -0.25798947 -0.18080528 -0.22914767 -0.22099024 0.055469766 -0.029173303 -0.014199908 -0.11107665 -0.24168433 0.11943594 0.2891354 -0.45952392 0.04575186 0.24089214 0.085255034 0.02306909 0.22857377 -0.20260696 -0.27176774 -0.053377535 0.08167878 0.0013603031 0.06717551 -0.26705894 -0.022255898 -0.007669751 -0.15627527 -0.105533406 0.051271964 0.11366497 0.085644476 0.17610903 0.06128657 -0.1416789 -0.06563581 0.042677153 0.2059275 -0.05513494 -0.049011867 0.4976331 0.0036460406 -0.22127348 0.043491233 0.19971018 -0.4896036 -0.17350593 -0.2987325 0.011197931 0.30654913 0.29888386 -0.083971016 0.25554866
使 0.0019866466 -0.23899111 -0.05466036 -0.44130477 0.18377326 0.28439602 -0.035429507 -0.19919813 -0.27037886 -0.10053182 -0.4630779 0.2220874 -0.12562239 -0.09402729 0.026329003 -0.09862878 0.015356313 -0.15157498 -0.1021495 0.22216761 -0.3901299 -0.022217087 0.005994778 0.023792246 0.06364647 0.0021049024 0.07327924 0.12860072 -0.2675738 0.12347866 -0.03661052 -0.23093584 0.19490255 -0.24006109 0.07196139 0.06686489 0.14703904 -0.28502235 -0.27051488 0.06043457 -0.20672832 -0.07510473 0.038119406 0.049347226 -0.27964532 0.08771378 -0.25845006 -0.21388729 -0.09197715 -0.10980241 -0.11288892 0.0323206 0.15601249 0.10862832 0.39118057 0.21812893 -0.054797374 -0.06434123 -0.05041641 -0.38733628 -0.07130135 -0.08503795 0.010792223 0.13557151 0.40914285 -0.15515317 -0.15791449 0.065956816 -0.097050935 -0.1684632 0.029624982 -0.29545143 0.15856427 0.13606365 -0.11472114 -0.013317672 -0.15510525 0.18078153 0.25046533 -0.36139482 -0.021632839 -0.27492133 0.026435545 0.33034754 0.18116216 -0.31355366 0.052187588 -0.25908393 -0.08436905 -0.528826 0.022432042 -0.2941424 -0.06301131 0.07907608 -0.13132763 0.022867309 0.4334452 -0.068398185 0.11739434 -0.11884369
大 0.18689555 0.025908418 0.13383842 -0.06619508 -0.034813512 0.3219691 0.14129883 0.041276645 -0.063052334 -0.0031156822 0.11626852 -0.023085127 -0.30876642 -0.07058178 -0.42977625 0.4409176 0.070886545 0.18241006 0.12567991 -0.05960453 0.1947294 -0.04197905 0.27065763 -0.37220028 -0.38480863 -0.086885795 0.17853613 -0.28849706 0.19783859 -0.042339128 0.24719985 -0.21964239 0.3211799 -0.22333297 -0.20460461 -0.17342277 0.08502442 0.10542313 -0.404265 -0.01633299 -0.026086131 0.25317365 -0.0054509374 -0.22664808 -0.008179657 0.061846234 -0.14088675 -0.41463575 -0.2156733 0.38487354 0.19431621 0.08454296 -0.09953597 -0.0626568 0.026048297 0.28216726 -0.33972916 -0.05871861 -0.10141974 -0.2516673 -0.15725881 -0.25351086 -0.015102976 -0.021876356 -0.023732135 0.043567397 0.1261312 0.119483404 -0.09992856 -0.078873135 -0.0011109778 -0.062114865 -0.23845775 0.027032195 -0.0063292957 -0.05930592 0.048573684 0.00863823 -0.015215804 -0.1474942 0.13629238 -0.07757146 0.007545811 0.28370154 0.02807547 -0.13803971 0.008918393 -0.015364977 -0.1132236 -0.07331414 -0.13321324 -0.0020908387 0.10183835 0.17895475 0.032271046 -0.08517692 0.037071057 -0.23475108 0.05888972 0.0407818
下 0.013380195 0.027898042 0.31491488 -0.023540948 0.061089482 0.107035905 0.117251515 0.092887394 0.19032167 -0.349229 0.11211641 -0.2508878 -0.5226917 0.13103545 0.0010574849 0.28757977 0.01516295 -0.12036318 -0.2084873 -0.12534547 -0.25436908 0.39376482 0.13609795 0.068979144 -0.1323592 -0.07751603 0.047213722 -0.18939412 0.28983074 0.12686972 -0.15013368 0.09072686 0.30805716 -0.12510875 0.09430027 0.38823193 0.17255944 -0.097471684 -0.52911216 -0.026785372 0.3656479 0.06800659 -0.2839598 -0.20749967 0.008696099 -0.013185199 -0.0589839 0.052146144 -0.010052575 -0.17862488 0.05067839 -0.015923223 0.15847242 0.1688006 0.4090455 -0.070299774 -0.0020671338 0.09475248 -0.015455328 -0.19323649 -0.30344823 -0.15398842 0.034128834 -0.17130049 0.0035164943 -0.24901272 -0.21504124 -0.07052441 0.19309574 0.29551753 0.13788791 0.04419911 -0.0009350048 0.33539882 0.13922065 -0.08441161 0.04731211 0.040391143 0.14760135 0.00568272 -0.17922392 0.28250852 -0.027861984 -0.19101726 -0.5207418 0.018423527 -0.27589417 -0.107937254 0.22482394 0.05719684 0.11893223 -0.24665904 0.29464915 -0.07875582 -0.23427677 -0.09155413 0.100020595 0.2662946 -0.07772057 0.21993493
贡 -0.18831167 -0.15152012 -0.20238142 -0.03758402 -0.07650493 0.04888482 -0.0858226 0.07023831 -0.27412778 0.14400485 0.15465029 -0.04900923 0.022056593 0.1237246 -0.0023351049 0.17497358 -0.24839497 0.06556091 -0.15612224 0.041815467 -0.05469074 -0.10443769 -0.20513113 -0.02494237 -0.18316151 0.1204351 -0.061039384 0.047154043 0.021031277 0.3913704 0.27030033 -0.01593876 0.002514463 -0.10517374 -0.102588855 0.08580478 0.28225622 0.027820386 0.10387744 0.18239449 0.2525137 -0.38688025 0.09909476 -0.047997903 0.045813635 0.14531256 0.31823674 -0.069134705 0.00806313 0.19499835 0.22644196 -0.075699225 0.25676268 -0.045474946 0.0673054 0.20250972 0.34140724 -0.21809119 -0.01774004 -0.9138899 0.040423084 0.011161032 -0.20363545 -0.03441335 -0.019827537 -0.19955827 0.100655004 0.29721722 -0.22150041 0.04039276 -0.028449431 0.22715467 -0.16219273 -0.08647643 0.007014115 -0.3272312 -0.029166495 0.23658225 0.09499579 0.15492085 -0.098444834 -0.035091333 0.022881104 -0.20333233 -0.0016424159 0.06740481 -0.18468909 0.004020249 0.19794852 0.06853868 -0.12891383 0.14835274 0.015939066 0.33464104 -0.36153373 -0.17539866 -0.020013759 0.042880066 -0.05146597 0.08125096
欲 0.062831774 0.29470894 -0.22663343 -0.039638743 0.15487102 0.067616664 0.5641565 0.10052332 0.3851287 -0.5564284 0.023241257 0.15053724 0.3586251 0.0364356 0.10022941 -0.13996084 0.22699176 -0.019098327 -0.08191163 0.07787236 -0.15018779 0.5129224 -0.046911582 -0.21203221 0.06375131 -0.13092257 0.11401598 0.18234076 -0.30674934 0.28491572 -0.039183777 -0.0783278 0.21607397 0.35156724 0.25043753 -0.12667869 -0.11328974 -0.41185626 -0.4054586 0.3483476 0.23102719 0.11385429 -0.13736512 0.09326352 0.1543712 -0.053942896 0.056135908 -0.35075492 -0.112438 -0.08782444 -0.031767275 0.15071687 -0.15834719 0.27438775 -0.13306099 -0.009398388 -0.014070016 -0.04741879 -0.122974426 -0.32906 0.07222086 -0.12097247 -0.09244152 0.16689047 -0.22741088 -0.056989934 -0.23022959 -0.11587633 -0.087827414 -0.0066854013 -0.18499424 0.08570878 0.008425532 -0.074902944 -0.080682136 0.05886334 0.019660989 0.19804057 -0.05434568 -0.19949381 0.16221151 -0.05245641 -0.3905803 0.14349101 0.07999333 -0.016653504 -0.20002995 0.20448168 0.14405356 0.3831809 -0.12708771 -0.029624011 -0.023700442 -0.0750621 -0.07092739 -0.22824559 -0.11768045 -0.117556006 -0.093233824 -0.07734892
诸 -0.11339033 -0.14973766 -0.48858994 -0.009804401 -0.10236239 -0.11976538 0.1348735 -0.46609986 0.10847675 0.32606235 0.098141655 0.18118814 0.25558534 0.0646661 -0.13175374 0.03249775 0.06195268 -0.017818067 -0.1030127 -0.19958875 0.20001595 0.08876421 0.19188756 0.16736208 0.19864023 -0.0118163675 -0.10762463 -0.035228502 0.004135347 -0.037264574 -0.19302414 0.1984231 0.06552206 0.043078396 0.37066445 0.06809825 -0.3674623 -0.18100761 -0.22780852 -0.17720404 -0.082245015 0.5530391 0.17434831 0.06255845 -0.07054501 -0.22328082 -0.38947353 -0.47165602 -0.19158602 0.18988761 -0.04228664 0.15122126 0.2289625 -0.16169176 -0.16554302 -0.16714412 -0.052137993 0.045676365 0.32928035 -0.5725913 -0.12803109 -0.08874099 -0.36997804 0.21524781 -0.3314321 -0.070178054 0.046587255 -0.5981443 -0.12758762 0.044047844 -0.29406863 0.22119622 0.29832733 -0.5778853 0.23301584 -0.16866502 -0.10909862 -0.34324586 -0.42173523 -0.14205523 0.0419827 0.18568036 0.009913195 0.10076825 0.2668331 -0.23171127 -0.12789458 -0.12905331 0.082931526 0.1907346 0.0052475757 0.11802404 0.12812622 -0.14005816 -0.022590457 0.36969838 0.121314436 -0.059733022 0.1881469 0.17773312
从 0.20985264 -0.2669134 -0.16188861 -0.22987098 0.17017524 0.24429852 0.03505522 -0.012002656 0.2389621 -0.033630718 -0.038478293 -0.17967252 0.016295508 0.08120507 -0.12305143 -0.025851663 0.57508045 -0.07676434 -0.17691706 -0.21754308 0.24766319 0.16558981 -0.024974132 -0.3596722 0.23440084 0.26824388 -0.1518808 0.025859302 -0.10783543 -0.26135433 0.2215101 0.16431771 0.32576963 -0.039513238 -0.26419246 -0.25720915 0.033973847 -0.04572701 -0.35192505 -0.08301091 0.08506254 0.097217195 -0.1532765 0.08189841 -0.14789711 -0.07649715 -0.3386502 0.07696689 0.14448395 -0.4146419 0.2939336 0.14042151 -0.002091674 0.18550153 0.30723676 -0.024866967 0.29940215 -0.2865286 -0.2561925 -0.31680864 -0.32244 0.22683375 -0.31938225 0.2066337 0.0058345664 -0.24615732 -0.019195557 -0.21191016 -0.2279599 0.15819575 -0.047359463 -0.05876979 -0.1484239 0.38624513 0.06632543 0.1188014 0.014098384 -0.047108043 -0.018004563 -0.21535595 0.26430705 0.095790684 0.09709487 -0.21749587 0.17991066 0.13571303 -0.29652068 -0.016174667 -0.13780943 -0.08009883 -0.1955402 -0.05614232 -0.13826604 0.067639574 0.17431411 0.00574414 -0.0069530797 -0.14516887 -0.041421965 0.1010542
文 0.2600074 -0.23265706 -0.17666525 -0.043999165 0.12381471 -0.08419912 -0.014098546 0.22299045 0.067125 -0.16498405 -0.12458732 -0.25878143 0.14198837 0.08836887 -0.030820383 0.034452986 0.17570817 -0.23851994 -0.04099401 -0.11425632 0.02676463 -0.19596837 0.0791988 -0.06438202 0.14113186 -0.0046240753 -0.054783374 -0.14915942 0.2036522 -0.13875704 -0.12605233 0.0021497775 0.18404979 -0.113743 -0.18830635 -0.49485907 -0.030030128 0.34964082 -0.2952961 -0.18951066 -0.3387532 0.3585759 0.07468084 0.36377272 -0.27235556 0.103829816 -0.12376587 -0.13553613 -0.025743295 -0.047923483 0.29417416 0.01278503 0.082939565 0.08655705 -0.12973894 -0.09601027 -0.08560006 0.2695069 0.10940417 -0.48917523 0.0710707 -0.045729466 -0.018943595 0.14067236 -0.026729085 -0.4094514 0.25946146 -0.2790344 -0.1706783 0.04053108 0.11353952 -0.09720018 -0.04383343 -0.2260299 -0.13479601 -0.03688791 -0.10118397 -0.017831922 -0.059484307 -0.018890044 -0.36681333 0.05945628 -0.043630473 -0.15212272 -0.24736787 -0.17479149 -0.0057078204 -0.09978661 0.60803926 -0.25618514 0.16112888 -0.23922141 0.28319648 0.23915751 -0.05457315 -0.25414062 -0.055129487 -0.040975165 -0.19766761 0.16934632
政 0.10836786 -0.26628205 -0.09508034 0.3088366 0.20650561 0.28601435 -0.19474538 0.018040305 0.2562545 0.16789736 -0.20670879 -0.40877673 -0.2010394 0.11467859 0.36699247 -0.082242884 0.30556217 -0.051398024 0.36188567 0.10030348 0.17227821 0.01019538 0.03382626 -0.15314656 0.100638665 0.086942405 0.115742125 0.10647969 -0.06791246 -0.047396205 -0.06659614 -0.21088177 0.12540019 -0.0037589718 0.24030143 -0.071907714 0.1696475 0.23646128 -0.15691037 0.043551907 -0.20706432 -0.05921955 -0.27000406 -0.16014826 -0.33366287 -0.04855084 0.23165101 0.01206126 0.0043267296 0.026835768 -0.009421591 -0.3972762 0.05568857 -0.20728943 -0.014369286 0.23938306 0.28063366 -0.23555909 -0.32223228 -0.6270514 -0.19049677 -0.08436108 0.024320746 0.08441565 0.1133584 -0.1472693 -0.2592063 -0.03563466 -0.118755415 -0.019172138 0.15080659 -0.30136687 -0.13466515 0.030646881 0.24177016 -0.20978427 -0.23191112 -0.0025068608 -0.25644776 -0.0039581098 -0.18443893 -0.23536468 0.24390993 -0.09319626 -0.27230653 -0.27541107 0.07238915 0.07254891 -0.046134252 -0.13462433 0.25780022 -0.25898066 0.004825546 -0.14779663 0.238259 -0.19406483 -0.1072169 0.079523474 -0.08076088 0.17908306
食 0.0077069495 0.23479979 -0.07417991 0.051162213 0.1967534 0.3857136 0.043987118 0.25847384 0.038226113 -0.18049945 0.14225847 -0.046056785 0.32367802 -0.06688153 -0.039758753 0.14540145 0.26952323 -0.20522796 -0.49686083 0.1029172 0.1003001 -0.08228048 -0.102238484 0.11903358 -0.1995002 0.0035830396 -0.13132343 -0.11131891 -0.09702399 -0.03451008 -0.09516185 0.18554129 0.14000075 -0.22523397 0.042090822 -0.23171198 0.13154344 0.101616785 -0.6003195 0.15196477 0.24664548 -0.38516322 -0.19786584 0.19369166 0.0050656023 -0.13058487 0.030994754 0.15733622 0.046803165 0.0016451403 -0.07596621 0.049154576 -0.014087731 -0.2383497 0.3254739 -0.040610872 -0.006018561 0.11847795 0.35296586 -0.21253902 0.16907372 -0.13280404 -0.15091373 -0.07614687 -0.039075978 0.28019238 0.27652916 0.5711036 0.15741445 0.16240463 -0.39539185 -0.430448 0.004854212 -0.114849016 0.3454913 0.21194173 -0.14196636 -0.16279155 -0.26587978 0.22074096 -0.030757356 -0.16038817 -0.076255135 -0.13197948 -0.12394694 0.08151223 -0.31580228 0.10928135 -0.011918139 -0.080112256 0.15301277 -0.07132856 -0.29705444 -0.1386347 -0.27381307 -0.07009542 0.0071556945 0.013395703 0.1317105 0.24724494
善 0.0036068265 -0.15887672 0.07565027 -0.053603906 -0.015878769 -0.018696913 0.11844209 -0.18284898 0.31941733 0.11759937 -0.30745932 0.046291165 0.18497291 0.018668987 0.19307968 0.02412329 -0.01451628 0.014016536 -0.16462938 0.07182881 -0.074599266 0.034521315 -0.2728806 -0.40932512 -0.10515955 0.1586126 -0.07477761 -0.15431663 -0.075884886 0.22962601 0.418649 0.19132526 0.19645403 0.17324631 0.20171714 0.25728217 -0.0161954 -0.17978868 -0.3185545 -0.029277941 -0.036173683 -0.222115 -0.19743231 0.1415671 -0.109131545 -0.008652999 -0.08540906 -0.103609756 -0.006900907 -0.18798806 0.31880197 0.27877802 -0.04287303 0.12714593 -0.294147 -0.044998888 0.16906102 -0.07563796 0.33457866 -0.3467575 0.036020976 0.10609553 0.11560902 -0.06772342 0.08051235 0.15788913 0.10084289 0.0928293 -0.11496549 0.24029756 -0.29765436 0.0009841245 0.28752628 -0.22727177 0.0750651 -0.1686664 0.08605198 0.54883456 -0.08028951 0.11673524 0.3844782 -0.10325314 0.43240222 -0.21255209 0.24890696 -0.06243537 -0.31198472 -0.13018902 0.20158117 -0.107076235 -0.19661091 -0.09145011 -0.054276254 0.06908501 0.069991685 0.15792884 0.022341209 -0.16792457 -0.41901857 0.18256226
后 -0.11491504 0.042898912 -0.118887246 0.16227725 0.002223881 -0.111872174 0.23470972 0.38495168 -0.080334954 0.047749527 0.029341502 -0.25745764 -0.20833996 0.019978678 0.059594378 0.09112069 -0.02211274 -0.07110416 0.23374362 -0.19380866 0.06757552 -0.35365447 0.26081544 0.11978488 0.27606773 0.26878467 0.33347484 0.08018714 0.036403917 0.1627925 -0.065437965 0.1193747 0.067952305 0.09519228 0.015474383 0.3357786 0.13692376 0.2115919 -0.36227804 -0.09590692 -0.040499486 -0.10494583 -0.22372985 0.4176317 -0.109903194 0.18772651 0.045209847 -0.30699262 -0.097276665 0.0952436 -0.17756312 0.3216926 -0.24918592 -0.25421822 0.04207763 0.099348076 0.29156122 -0.33389482 0.03280442 -0.39719674 0.11453482 0.039419107 -0.059998594 0.43267772 -0.3822566 0.03358739 -0.06424962 0.24126266 0.0031479658 -0.29544097 0.019812312 0.09544114 -0.041783664 -0.3322996 0.04888109 0.020273617 0.2086745 0.31325972 -0.28074777 0.035312213 -0.25190225 -0.056334883 -0.2049105 -0.17916366 0.0535178 0.0676448 0.13583781 -0.1268533 -0.391032 0.089465044 0.03236739 0.25280005 0.06619658 0.35647514 -0.030527368 0.012002311 -0.13821508 -0.0476025 0.32507828 0.13639162
德 0.05200347 -0.11682195 0.18919876 -0.06938015 -0.33514377 0.2354626 -0.14170219 -0.1380492 -0.30162057 0.16272132 0.0904915 0.0033605327 0.31682086 -0.018751139 0.22576928 -0.08617465 -0.4633862 0.15844552 0.22293961 0.2415985 -0.060521726 -0.14905721 0.3939129 0.0051592644 0.0047738994 -0.023387637 -0.18574746 -0.12566562 0.0030457682 0.09487909 -0.3457698 -0.05446155 0.11595129 0.08044787 -0.08838011 -0.06815391 0.031403013 -0.49959284 -0.3078672 -0.0047239154 0.113024935 -0.090576924 0.2057533 -0.3336449 -0.096749455 -0.08522477 -0.033729244 -0.10990039 0.08413815 -0.13243854 0.17339431 -0.040008694 -0.22901641 -0.031867515 -0.09285719 0.055769324 -0.072168075 -0.10020706 -0.4251009 -0.3676282 0.3397583 -0.37630737 0.016380291 0.1960291 0.11792425 0.18809457 0.32101354 0.005958424 -0.28899574 0.15694962 -0.36570847 0.050740205 0.1473034 0.18865424 -0.21679863 -0.03897799 0.15696642 -0.21460174 -0.2655812 -0.052653357 -0.12674573 0.34372273 -0.3637602 -0.37759328 0.30074897 0.48342317 0.12009002 -0.24883328 0.014725617 -0.024741191 -0.1648847 -0.061630405 0.035257034 -0.2090605 0.032551903 -0.11099713 -0.14814988 0.02183075 -0.14845707 0.0078606205
求 0.16971584 0.09685647 -0.22324911 -0.07320848 -0.20959966 0.33874163 -0.041662853 -0.09824697 0.29678744 -0.08909228 -0.31039324 0.11805894 0.164286 0.28096464 -0.097969465 -0.13134319 0.2859662 0.279599 0.052111045 -0.11790929 -0.14185877 0.11116662 0.018086798 -0.19193146 0.15216406 -0.048773736 0.005017016 0.16590394 -0.021774633 -0.11664378 0.12378872 -0.21244964 0.3080788 0.013644793 0.17682236 0.14260088 0.01725521 -0.012087591 -0.24733223 0.013503856 0.089154415 0.13092417 -0.0036514197 -0.09497183 0.33493352 0.12586363 0.1566273 -0.10035257 0.19621472 0.10601939 0.31422564 -0.31460986 0.038173188 0.20674938 0.3459753 0.10139605 -0.17330359 -0.18634799 0.34231234 -0.48408926 -0.046807863 0.049965054 0.2192412 0.1985393 0.017379427 -0.09575233 0.16130304 -0.06889829 0.39286357 -0.06802777 0.0308738 -0.050455652 0.10489492 -0.091283746 -0.15060067 -0.091280736 0.3493058 -0.23387143 0.14998095 -0.14542156 0.10103013 0.054844454 0.35322708 0.2416931 0.096246704 0.011527822 0.116835475 0.06692012 0.049431328 -0.24726532 -0.17214563 0.32818434 -0.025161441 0.3116795 0.1125496 -0.13755086 -0.21178976 -0.07034505 0.27150264 -0.08184183
对 0.091090575 0.22807436 -0.15341485 0.20484535 0.120224886 -0.14107026 -0.27164236 -0.07293328 0.045149665 -0.1398152 -0.2150732 0.016489724 0.0091037955 -0.019874968 -0.07533346 -0.058777303 -0.080523364 -0.014195463 -0.026276324 0.2060925 0.05626409 -0.2805413 0.028175617 -0.22829214 -0.13304155 0.16054167 -0.13369936 0.33185032 -0.4282028 -0.21752638 -0.17212571 -0.15772288 0.13696173 0.03675482 0.13280347 0.02825478 0.11086476 -0.0034862703 -0.0012148358 0.08995377 -0.25502658 0.16717815 0.10370042 0.11306539 -0.10136338 -0.082282916 -0.38473132 -0.20732 0.010878169 0.04874141 -0.15099344 -0.17497206 0.16828775 0.08633825 0.14900559 -0.05535171 0.2115036 -0.30065095 -0.22666782 -0.7831177 0.18130243 0.33816466 -0.3769769 0.39466968 0.26254216 0.11577855 0.010352366 -0.27779603 0.06261766 0.17195606 0.22290751 -0.14150828 0.11152253 0.27384585 -0.043390304 0.19139539 0.0030569264 0.19232142 0.07381224 0.07929191 0.021976944 0.09996621 -0.24554223 0.124445446 -0.03391059 0.09011601 -0.38804638 0.16518083 -0.014678524 0.10787984 -0.19071303 -0.2545718 -0.24881719 -0.039308626 -0.23938441 0.14518581 0.058277763 -0.1410229 -0.24349087 0.19454874
恶 0.093545295 -0.0063448926 0.14721172 -0.036925625 -0.008437485 0.05277234 -0.28501058 -0.0308591 0.217822 -0.1932055 -0.10486406 0.22305676 0.18703161 -0.175971 -0.04996159 0.18223196 0.20545699 0.20715107 0.009552066 -0.009054659 0.048129193 -0.27951527 0.019682726 0.50632155 0.07058111 -0.26521286 0.11293975 -0.1704538 -0.006655693 0.22631496 0.09544568 -0.13509153 0.25718278 0.00643717 0.005704516 0.11552625 -0.08850654 -0.09101167 -0.5407423 0.007361943 0.45191905 -0.3037576 -0.3088947 -0.22846419 0.029899776 -0.26873466 -0.007320566 0.25054365 -0.059123747 -0.23618491 0.10969032 -0.013321515 0.09782548 0.19208613 -0.41733137 -0.15304697 0.022957087 0.08007871 0.12164815 -0.23482737 0.0007665185 -0.11017405 0.16947666 0.050338447 0.23793226 -0.3254876 0.116278835 0.18758161 0.19679704 0.06032735 -0.2612318 -0.07082016 0.43995988 0.047741503 0.28313813 0.36417297 0.6139708 0.032496534 -0.11632064 -0.054630704 0.07937432 -0.12933752 -0.13238536 0.20314255 -0.02443491 0.096440956 -0.038310796 0.06507876 0.042621568 0.016736459 0.29781044 0.06441414 -0.08103219 -0.45086658 0.037445486 -0.16984972 0.06628254 -0.150705 -0.1375831 0.1156254
信 -0.21023491 0.054764908 0.029181683 -0.12669021 -0.4026961 -0.06778325 0.1415104 0.033196293 -0.08382951 0.013010546 -0.2253442 0.009555372 0.22929378 0.07604336 0.13270897 0.4702048 -0.29720142 -0.102676444 0.34098324 -0.23730604 0.1687306 0.05724935 0.16188298 -0.04469598 0.13570192 0.1361502 0.010221548 -0.19356304 0.032695543 0.24476029 0.03073007 0.01565584 0.053159557 -0.11085525 -0.096962646 0.041687887 -0.20263892 -0.011814507 -0.50207615 0.15429193 -0.40250647 -0.42067963 0.056197856 0.36184525 0.027174871 -0.23470846 -0.3492034 -0.16144791 -0.013047353 -0.061158426 0.2686836 0.07151928 -0.11420266 -0.21680292 -0.19918452 -0.041396767 0.14545424 -0.2558967 0.16233908 -0.2563314 0.11220989 0.20516129 0.14225651 -0.2126386 -0.069180876 0.24290799 -0.1915284 -0.06273741 -0.02501122 -0.14337793 -0.16157581 -0.685108 0.24023244 -0.09841534 0.34500772 -0.08105632 -0.12548707 0.1829336 0.20335603 0.08076094 -0.30666682 0.19512503 -0.052647453 -0.26238272 -0.075522505 -0.105942786 -0.061661877 -0.08638075 -0.037913125 0.2149841 -0.22663897 0.025754597 0.12646626 -0.4298761 0.21292889 0.1347772 -0.05504688 -0.031167096 0.109464444 0.15436003
死 -0.12827666 0.17701069 0.024485126 0.12690865 -0.2718098 0.33977884 0.058739275 -0.09009679 0.017333891 -0.20133337 0.13740076 -0.08240816 0.046268303 -0.26778284 -0.03804187 -0.3257537 -0.16384916 -0.111798465 -0.25942373 -0.2506663 -0.15100737 0.32851064 -0.018406553 -0.043120854 0.2774423 -0.027826287 0.0035603817 0.020713894 0.2036732 -0.23853861 0.207692 0.124905325 0.07016203 0.02256715 0.25789747 -0.34686947 -0.15918906 0.022716444 -0.45116827 -0.36467424 0.16110127 0.24402128 -0.40860605 0.072442 -0.261865 0.3739786 0.08036565 -0.34393713 0.04386076 -0.2949003 0.11202479 0.21517007 -0.09552345 0.04015837 0.435651 -0.29718333 0.24018392 -0.055500433 -0.07509628 -0.27604005 0.1944414 -0.070498794 0.1273645 0.12392699 0.0892049 0.011847393 0.16713321 0.11473892 0.14991084 0.0351398 0.19028479 -0.03435164 -0.14519957 0.020084998 -0.026235105 0.05352915 0.08305407 0.22633639 -0.016142147 -0.17451498 0.26141766 0.034259908 -0.24750333 -0.08060664 -0.06181834 -0.047706753 -0.016409425 -0.10532613 -0.013477093 0.19252966 0.31623954 0.20664154 -0.056276347 0.31921157 -0.372113 0.12143059 -0.21112053 0.33566007 -0.1965705 -0.24395774
