1352 50
， -0.0030663023 0.036259238 0.020751702 0.03517419 -0.109673016 -0.0023979803 0.16299167 -0.0029406406 0.18828881 0.07807488 0.08436435 0.032255817 0.0001922641 -0.017749673 0.012492185 -0.42043146 -0.013260315 0.03323914 0.062229782 -0.19398251 -0.120204434 -0.014040849 -0.04318487 -0.055611152 -0.03656148 0.28639877 0.16988607 0.016032225 -0.08863843 0.10096104 -0.02458041 0.013988409 0.14498293 0.075160675 -0.11520145 0.04189951 -0.044455316 0.0065548997 0.093267255 0.005788349 -0.009155433 0.030208187 0.0051997025 -0.04903947 -0.011252839 -0.065379925 0.033746645 0.0054877577 0.028508088 -0.06590871
子 -0.05275776 0.030795887 0.02839614 0.025074702 0.08589525 -0.019279694 0.15442982 -0.032219045 4.8934176e-05 -0.062469084 0.12905481 0.1138474 -0.011160795 -0.053807054 0.055059347 0.29492983 -0.015424197 -0.13589127 -0.05861698 0.18486439 0.061646678 0.00054271996 -0.09544093 -0.024662003 -0.028130608 0.6787736 0.02184313 -0.19848011 0.028445207 -0.0879252 0.07752753 -0.042602323 0.090434864 0.013159988 -0.07715387 0.08299773 -0.0713836 0.11495654 0.044710774 0.006523188 0.002170669 0.1078725 0.02923734 0.031073293 -0.121792234 0.05309522 0.027335245 0.05840104 -0.042580992 -0.018530456
。 0.05906423 0.054146063 -0.007023283 0.078846395 -0.06852352 -0.037444156 0.22062097 -0.02327227 0.019225443 0.024740394 0.043079965 -0.030205278 0.08214304 -0.032860033 -0.072137624 0.016989471 -0.06856599 -0.005066373 0.09862038 0.08068493 0.040055986 -0.09817915 -0.06115578 -0.039909925 -0.036874298 0.5167491 -0.020893803 0.029092796 -0.033124518 -0.04491538 -0.06397612 -0.09140273 0.016650083 0.011804992 0.089083195 -0.06669898 0.04002668 -0.047163993 -0.011469961 0.09137401 0.03779969 -0.07347422 0.12693529 -0.12596717 -0.04405367 0.06214461 0.010882325 -0.0029915504 -0.039214376 0.080310866
： -0.04859273 -0.0064637964 0.04793039 0.09275649 -0.050898537 0.006511159 0.008492897 0.010243937 0.0073487847 0.047737814 0.04294494 0.05586276 -0.016112994 0.008013315 -0.09229341 0.29188988 0.006194977 -0.023258178 0.07625544 0.07690867 0.088619724 0.082129374 0.001250497 -0.06581765 0.004271511 0.6228832 0.08555183 0.118935436 0.10496056 0.002300028 -0.00043769533 0.0018488063 -0.040863164 0.0118373055 -0.054320242 0.0161139 -0.0017691191 0.011822302 0.03087471 0.04516819 -0.07718696 -0.06835842 -0.044053115 0.058408886 -0.090193465 0.011478588 0.08416673 -0.022687985 -0.0107784625 -0.044937346
曰 -0.06486633 -0.006817768 0.059124243 0.10659631 -0.043117538 -0.033107203 0.05256952 0.018449696 0.004263535 0.0012095119 0.0011828783 0.056753784 -0.010462822 0.030932907 -0.015635012 0.3024082 0.009216788 -0.048632845 0.06756814 0.083872415 0.069461554 0.05977978 0.015020093 -0.072895706 -0.033398394 0.6591076 0.04883384 0.077223584 0.08014127 -0.027334388 0.035061397 -0.046618298 -0.08833913 -0.051040612 0.008667837 0.03984229 -0.01272879 0.04886931 0.025469642 0.03528917 -0.117138036 -0.060894877 -0.019018631 0.08186388 -0.02500036 0.0097340485 0.08260325 -0.07521834 -0.02786391 0.009198208
之 -0.032542963 -0.0053816573 -0.13122652 -0.10373861 -0.2053973 0.063935675 0.019782348 -0.18407057 0.053140733 -0.117986575 0.004012233 -0.13304189 -0.04276173 0.0052790716 0.04660855 -0.16384926 -0.17025602 -0.19640651 0.03190733 -0.1972996 0.015196819 -0.05229372 0.058649212 0.012741056 0.04180399 0.44669724 -0.051588517 0.18407488 -0.058358 0.065080956 0.16544572 0.06588785 0.122646354 0.10984861 0.013472358 -0.019618426 -0.029972728 0.0080973925 0.026848262 -0.047269803 0.122534856 0.08401298 0.21909852 0.062975 -0.006458578 -0.07997286 -0.043093167 0.036510237 0.059906572 0.10955879
不 -0.029270353 -0.09293477 -0.020431552 0.10315181 -0.036230873 0.087477185 0.01351404 0.08793244 -0.16658324 0.08473884 0.07672621 -0.15400973 0.0023642895 -0.018171377 0.13163933 -0.31743762 -0.088926025 0.07382359 -0.1484423 0.04410929 -0.11503171 -0.21535726 -0.12011156 0.13711074 0.12096473 0.41796416 -0.07716135 -0.05747457 0.14721793 0.17975935 -0.06819166 -0.3252521 0.004334139 -0.03900883 0.24779485 0.04838743 -0.16206107 0.08714418 -0.008469049 0.032386877 -0.13098356 0.006162853 -0.07669101 0.15225656 -0.05740309 -0.023098273 0.107620016 -0.019189663 -0.07059026 -0.17413871
也 0.071164005 0.043675907 -0.1340516 -0.01204898 -0.20194732 -0.09054592 -0.085435316 0.06636258 0.052400555 -0.0799637 0.14813273 -0.13951775 -0.056423943 -0.0025886118 -0.107648976 -0.069401816 0.10752018 -0.23539928 0.054560993 0.010484766 -0.006228491 -0.12522116 -0.050258897 -0.018113302 0.03405887 0.50765115 -0.06955026 -0.11639319 -0.15931809 0.123833776 -0.019437773 0.09993658 0.14878863 0.02387303 0.11196987 -0.15058786 0.12258041 -0.17439038 0.06686501 0.0836065 -0.16178806 -0.03737861 0.007774411 0.09695931 0.13468173 -0.024566108 -0.01768287 0.07202172 0.0028578062 0.07375351
而 -0.08590453 -0.10524363 -0.10553805 -0.02133174 -0.04642332 -0.055042703 0.3314948 -0.096434996 0.07358314 0.16853622 0.21305144 0.13421884 0.20462334 -0.0668393 0.10108149 -0.2532093 0.015195013 -0.02887533 -0.0040063607 0.06998501 -0.031519752 0.05821331 0.14369163 -0.013851298 0.05254774 0.47958452 0.078615434 0.079797365 0.036299016 0.027233994 0.021807343 -0.04238641 -0.12426656 -0.052960508 0.14531156 0.039350577 -0.23389477 0.18788992 -0.01384094 -0.054548655 -0.12323763 0.042305477 0.052831918 0.07415178 0.14170624 -0.027225686 0.092308536 0.055979 -0.11928246 -0.08586042
？ -0.05401546 -0.13126986 -0.096846506 -0.085386544 -0.015078421 0.096773915 -0.38074332 0.12369026 0.22070535 -0.060219653 -0.1072475 0.08737395 -0.024813643 -0.23443455 0.21229884 0.19141337 0.15538813 0.059714828 -0.06235851 -0.11279683 -0.11930979 0.15487355 0.1722753 -0.017153384 0.018921705 0.60858893 0.19300498 -0.049483966 0.16638033 0.12150105 0.17502274 -0.07164988 -0.041793015 -0.117919825 0.010549724 0.06932899 -0.11315524 0.04153292 0.033401586 -0.07029532 -0.07245094 0.001897974 0.036706474 0.07643118 0.26246992 0.009607419 -0.017852062 -0.18821192 0.017902942 -0.20726372
其 -0.16736649 0.022629678 0.23394407 0.0028505311 -0.080126144 0.057453442 -0.089979574 0.13509303 0.02560619 -0.0742239 0.09086374 -0.20312501 -0.09907695 -0.011516776 0.123709805 -0.25574327 0.15206194 -0.12763503 0.105274856 -0.032514602 -0.052743703 0.081912294 0.093190566 0.16842172 0.029480457 0.40081307 -0.050519153 -0.16772668 -0.24268645 0.14425598 -6.333899e-05 -0.06993661 -0.10667847 -0.07743807 0.17392169 -0.34321442 0.18020858 0.06931402 0.054533217 0.08616166 0.037576806 -0.0131658 -0.00070997165 0.06028587 -0.02103622 -0.013892541 -0.01399052 0.09282274 -0.02771844 -0.0038019633
人 0.086231254 -0.11335532 -0.02192772 -0.13868295 -0.13628332 -0.1378435 0.19730957 -0.049827576 0.30397248 0.033083778 -0.052619077 -0.007156242 -0.077843025 -0.27859107 0.07107519 -0.16592367 -0.15612288 -0.014683206 -0.011528355 -0.1095868 0.08141921 0.07424042 -0.21209474 0.027582379 0.11318789 0.48851925 -0.068803445 -0.05833812 0.011083159 -0.08203278 0.09651491 0.08440127 -0.08876988 -0.17964604 -0.025002187 -0.14608932 -0.026098104 -0.34290925 0.16335806 -0.012790644 0.026946295 -0.007874511 -0.060554855 0.041775372 -0.14864117 0.1781196 -0.33452424 -0.14121884 -0.17422694 -0.06656468
者 0.118385315 0.111035965 -0.025430435 -0.025125321 -0.3210028 -0.06602974 -0.047475073 -0.12016257 0.024614751 -0.12095307 -0.0069260993 -0.00942144 0.13267988 -0.13196102 0.053327944 -0.17719847 -0.104117505 0.038809013 -0.061179098 -0.024031995 -0.039449714 0.19861297 0.31464645 0.022851007 -0.050102763 0.44476157 -0.08618761 0.052924056 -0.06354946 0.00093583093 -0.19815171 -0.19664113 -0.03303037 -0.08748951 -0.009064835 0.20469743 0.009782871 0.121493146 -0.14015518 -0.045578536 -0.22391045 -0.021609377 -0.10056319 -0.12498744 0.079488955 -0.14133725 -0.29198086 -0.021089831 -0.13273841 0.032957118
以 0.047145154 -0.30460325 -0.13084628 0.15901746 -0.16072397 -0.069392085 -0.059078887 -0.10517136 -0.008787547 0.023694035 -0.27307975 -0.16765389 -0.29474118 -0.12634732 -0.007305843 -0.19700868 -0.15915968 0.055075124 -0.0034027305 0.0070760394 -0.18745175 0.0031741855 -0.091916986 -0.07866415 -0.06808298 0.47365808 0.1274143 -0.26193565 0.10160496 -0.24931805 -0.12306342 -0.14853178 0.26402298 0.29004434 0.11022289 0.17577454 0.19018477 0.08304204 -0.1402615 -0.0048775086 0.11824203 0.008064098 0.11367369 -0.27761036 -0.29511207 0.047609635 -0.06651288 -0.1287878 0.20740919 -0.1580613
有 0.19764376 0.08866541 0.033849355 0.11952069 0.044616114 0.16794436 -0.03517645 -0.10024541 0.19389144 -0.17312773 -0.09911795 0.2634486 0.13969561 0.08995074 -0.21454842 -0.056679346 -0.10049573 0.14591712 -0.09063062 0.08336542 -0.035175502 0.27788353 -0.15227325 0.058440637 0.038866863 0.47142586 0.048891038 0.1772754 0.18522353 0.24442245 -0.114249356 0.06509386 -0.03076571 -0.1956282 -0.05222579 0.044545647 -0.12803817 -0.14623411 0.06886941 -0.025624895 0.07239614 0.19818318 -0.089001425 -0.13129395 -0.10614337 0.065370426 -0.23868564 0.031019244 0.16919535 -0.08941469
于 0.08889843 0.025162479 0.1708823 -0.018647382 0.16961794 0.074114 0.14251496 0.0810385 -0.0046459967 0.066141635 0.041268915 -0.03418256 0.24246913 0.077476315 0.13831782 -0.07610121 -0.080590166 0.17645961 0.08030046 -0.04117135 -0.20294192 0.051203735 -0.09207813 0.058314763 -0.035689127 0.5007559 0.29659066 0.055602066 -0.011798526 -0.12760046 0.09560809 0.189683 0.27948 -0.030360695 -0.05918381 0.0025991092 -0.03344595 -0.0067104567 -0.1727054 0.0228786 0.0844171 0.005190638 0.3877363 -0.03742648 0.07716525 0.14027804 -0.2545034 -0.013473004 -0.23752716 -0.0030172684
矣 -0.09469638 0.24685954 0.14503881 0.08970596 -0.08790388 0.1758662 0.085227355 -0.07099907 0.025768638 0.08181876 0.22326761 -0.17904904 0.0058358056 -0.159036 -0.13306671 0.030483656 0.025594875 0.15235625 -0.050524846 0.064262904 -0.27541703 0.03722111 0.03524306 0.083009645 -0.29263413 0.54308444 0.0714006 0.18101265 -0.04570718 -0.022450052 -0.15671137 0.03095534 -0.28033894 0.1674824 -0.06240367 0.0064728176 0.095723644 0.23972625 -0.06957057 0.23270185 0.105615154 0.008340122 0.026581211 -0.2528273 0.1526127 -0.13917994 0.009303225 0.07370266 0.25440538 0.09761808
为 -0.16217068 -0.010434751 -0.030919066 0.058657978 -0.033727195 -0.15233734 -0.13117105 -0.20596017 0.10377007 0.18683033 -0.20955144 0.06313677 0.030738162 -0.024612676 0.2752148 0.0014530546 0.07917467 -0.09198903 -0.17338222 0.01897192 -0.25153318 -0.12945215 -0.090749025 -0.054943312 0.24031278 0.5582809 0.2836271 0.20523518 0.24482523 -0.03220383 -0.035026185 -0.013756786 0.16036353 0.17790037 -0.0006714255 0.2926926 0.22843513 -0.024727097 -0.25074846 -0.121750794 -0.1755187 0.082061656 -0.3254177 -0.10004749 0.049365107 0.25411767 0.011065144 0.047761727 -0.047149133 0.09500108
君 -0.108655594 -0.11659501 -0.03432938 0.09475393 0.20924819 -0.040864684 0.11768125 -0.025487894 -0.13085967 -0.17355797 0.20345177 0.1107473 0.045288928 -0.133013 0.11169002 -0.008910945 0.0098862 -0.0014005943 -0.1504153 0.07958921 0.12514406 -0.001072314 -0.3446811 0.10166055 -0.067140944 0.5820588 -0.061187755 -0.14965211 0.048977837 0.19224706 -0.111877136 0.07130383 -0.08166073 0.300863 -0.08901321 0.107709095 0.14107834 -0.0039169667 0.10660561 -0.054583192 0.15706564 0.16468474 -0.08238337 0.22644801 -0.20109506 0.12447738 -0.010179094 0.16473672 -0.07703056 0.07135949
乎 -0.16540797 -0.11077063 0.061132744 0.0021140028 -0.01991041 0.034630075 -0.3679996 0.016601156 0.13198635 0.12081341 -0.011152345 0.2797088 0.17578155 -0.1525015 0.13207975 0.093613714 -0.050246093 0.32262075 -0.24091358 0.02277421 -0.24091913 0.17817782 0.118756816 -0.013326036 -0.05319368 0.52548987 0.024286814 -0.03919295 0.10431061 0.03094932 -0.070786685 0.15100428 -0.06013351 -0.020035349 0.07127589 -0.021275923 -0.111976184 -0.037540916 0.02828609 -0.123703435 0.07225467 0.17596479 -0.07465644 0.1704613 0.11514476 0.07576765 0.1002654 -0.13786297 0.07148464 0.11699927
可 0.044978905 -0.07776708 -0.26418656 0.20198917 -0.23176715 -0.09204651 -0.11581225 -0.12535809 0.027318733 0.16941196 0.12422988 -0.39575827 -0.2144276 -0.21443884 -0.07920707 -0.12003313 -0.03578568 0.004354469 0.10765778 -0.024102755 -0.49239203 0.05745876 0.0031550745 0.017758891 -0.032352474 0.5042929 -0.17628038 -0.12191325 0.08495134 -0.070834786 -0.018035553 0.07957358 -0.10231554 0.1973746 0.035369575 0.13136093 0.12361348 -0.21595326 0.071539305 -0.02256779 0.09325756 -0.109686606 0.16588277 0.1084245 0.13160016 -0.074994996 0.25556222 0.025599858 0.16043642 -0.18842316
如 0.15741275 0.030711036 0.046314143 -0.28989163 -0.04730691 0.06673225 -0.37081265 0.2891909 0.022551758 -0.026033541 -0.089977674 -0.07023667 0.20737982 0.25641105 0.19912112 -0.07366033 0.03278074 -0.07311654 0.014463195 -0.23000197 -0.002662511 0.0016896938 0.0025813757 0.07070258 0.14129871 0.49565777 0.11897916 0.059238892 -0.23533884 0.12377796 -0.22102292 -0.04197271 0.2609579 0.07153368 -0.021384062 0.114816144 0.20318997 -0.008538782 0.479883 0.18397188 -0.28473675 0.0179129 -0.13705194 -0.12416627 0.07722429 -0.06744036 0.18124573 0.041425742 0.11018155 -0.18031363
与 0.039919022 -0.01866498 -0.40860784 0.04322146 -0.44074565 0.052998446 -0.168894 0.15053385 -0.017443953 0.2876014 0.00295245 0.20389661 -0.23694418 0.20652723 0.17438535 -0.0740757 -0.031383816 0.11811488 0.1452944 -0.032198526 0.15153775 0.26158774 -0.11482693 0.17958789 0.11375228 0.49007112 -0.14544143 0.245977 -0.11810387 0.09839463 0.26925594 -0.004541857 -0.11280335 0.23618859 0.079268225 -0.04409587 0.07102577 -0.0045464337 -0.04821975 0.09364256 -0.05356922 -0.1503058 0.18877442 0.025317194 0.28457868 0.011680834 -0.19798 0.014019285 -0.10259202 -0.042092994
； 0.053590566 0.064688854 0.1105735 -0.108407825 -0.22184858 0.11843073 -0.099071145 0.22235033 -0.07344323 -0.027804963 0.10522568 -0.17820089 0.027954591 -0.231497 0.08438513 -0.6784341 0.034317505 -0.20425674 -0.26214862 -0.1662544 -0.1525527 0.07286593 0.057065766 -0.101411805 -0.22595786 0.36109415 0.052244924 0.020502012 -0.0032559587 0.14215171 0.05236263 0.27965644 0.024673518 0.09988971 0.35267642 -0.03659906 -0.02373491 -0.044435363 -0.008419056 -0.015653197 0.12774737 0.19720833 -0.005793146 0.045259383 -0.11462564 -0.23387535 -0.121972874 0.07834768 -0.04104227 0.16221847
言 0.20017442 -0.22986282 0.0794044 0.13222292 -0.26137683 0.3536265 0.02729347 0.2506107 0.06959924 0.08931294 0.111752264 -0.20864925 -0.33759132 -0.045793246 -0.0183493 -0.25681186 -0.011266326 0.22965823 -0.022562219 0.11035223 0.08112375 0.061720952 -0.10478301 -0.065537445 -0.045212124 0.4466872 -0.115453534 0.13936818 0.16116683 0.06288991 0.20049822 0.2060585 -0.229049 -0.0021924926 0.009049443 -0.022790262 0.22060882 0.15118757 0.09637148 0.057782166 -0.15136784 0.12690493 0.18120155 -0.20011093 0.07635028 0.13166052 0.27411497 0.109086685 -0.021107906 0.025874736
无 -0.15064768 -0.0040548397 0.028204989 0.20123026 0.2225252 -0.08918756 0.03634826 0.012475212 0.36481908 0.06614275 0.09122631 -0.045742866 -0.17940125 0.1669063 0.22483742 -0.39360484 0.00890461 -0.11654174 0.0070045115 0.14927563 0.018150177 0.20184156 0.012706713 -0.037339058 -0.24836238 0.44388458 -0.03203821 0.08327129 0.2408507 0.027798994 0.0253817 0.28819436 -0.086607486 0.019867895 0.13750672 0.11109985 -0.14766136 0.02931986 -0.09599965 0.07186946 0.037056226 0.1703703 -0.11047665 -0.2515802 -0.06781994 0.07519838 0.16824527 -0.13171034 -0.010115846 0.079447724
则 0.18722248 0.068653084 0.101251096 0.031290233 -0.16620056 -0.14618897 0.08688129 0.0608944 -0.03837458 -0.12560816 -0.32816678 0.04006203 0.21896492 0.031965118 -0.27017736 -0.39247468 0.0655324 0.056834716 -0.14124492 0.13560015 -0.08377887 -0.18484573 -0.36588255 0.077123426 -0.040268004 0.44472304 -0.002346419 -0.014087972 0.17001796 0.018536653 -0.1410183 0.49704772 0.29934523 -0.03566672 0.23090364 -0.13111728 -0.16272153 0.09345155 -0.13559248 0.0556931 0.08335797 -0.10051321 -0.23879658 0.020108955 0.24186496 -0.18897627 0.061466094 -0.117626406 0.11081197 -0.067761675
！ -0.26423398 -0.10270004 0.08106726 0.053134494 -0.26967928 -0.06280442 -0.3396493 0.10625495 0.26138914 -0.007404821 0.049111504 0.1131144 0.14712627 0.31822756 -0.022657562 0.22378086 -0.12168344 0.21438041 -0.25837404 -0.0937051 -0.09145033 0.15161413 -0.26242653 -0.031256933 0.01902632 0.62215143 -0.12653828 0.03350333 -0.19319016 0.06787284 -0.000910942 0.13705677 0.051919 -0.14888673 -0.012791737 -0.15624149 -0.09106737 0.15910771 0.1105981 -0.08521981 0.1814272 0.05136336 -0.23702744 -0.04641048 -0.15755935 0.034129396 -0.1447056 0.18837985 0.104398884 0.31331235
问 -0.03773267 0.18587768 -0.04078982 -0.006611956 0.04713622 0.19548628 0.19443294 -0.010036518 -0.1251717 0.44587874 -0.06288171 0.054008707 0.04803648 0.11257716 -0.004939305 0.18355793 0.30872664 -0.01887082 -0.039158914 0.057759117 0.2623976 -0.0372076 -0.21788126 0.041236985 -0.07447602 0.6895476 0.16572441 -0.029716644 -0.15259561 -0.13951634 0.23814487 0.20690913 0.095420934 -0.09385018 -0.2465575 0.09909863 0.049393617 0.16634235 0.07038047 0.069987416 0.031147595 0.14720702 0.46357325 -0.13992572 0.09784738 -0.11452158 -0.08878695 -0.21304671 0.056045745 0.14204453
知 0.13654892 -0.2168931 0.021015814 -0.24571083 -0.19035198 -0.0911952 0.032348517 -0.06907735 0.058417097 0.13029692 -0.17693956 -0.36331707 -0.265469 0.1640828 0.2940945 -0.18753792 0.19886261 0.24162133 -0.10148629 0.24814677 0.22096084 -0.15603438 0.122844376 0.31368762 -0.035387076 0.50873506 -0.10585894 -0.048330788 0.028220436 -0.18798345 -0.057713203 -0.25882882 -0.030668123 -0.14337142 0.0054749055 0.3072216 0.15733512 -0.03267419 0.052935813 0.06727779 -0.019791957 0.07069817 -0.16245042 0.15064873 -0.0058211293 -0.23570342 -0.13015465 0.110118054 -0.03544532 0.13842739
何 0.105517425 -0.09862828 -0.11833377 -0.2580154 -0.033095744 0.094458744 -0.35286903 0.04076153 0.1748629 -0.21537803 -0.15601836 0.0365711 0.116981275 -0.06324708 0.0051792804 0.17653091 0.061847944 -0.03158743 0.044120237 -0.23866437 -0.11520686 0.026085243 0.2643392 -0.010313351 -0.20426528 0.5850876 0.01950617 0.13610068 0.02898641 0.06903688 -0.0048393165 -0.26341805 0.18730898 -0.21795854 -0.21785612 -0.016418304 0.1966518 0.013993459 -0.03689747 0.22786893 -0.068404965 -0.0693176 0.19163397 0.2290939 0.12138624 -0.010831646 0.03408482 -0.10009824 0.032903478 -0.41619697
吾 -0.1107331 -0.13636054 0.31725875 0.068140514 -0.041916568 -0.2893932 -0.18884857 0.12978522 0.023152191 -0.10226538 0.057626013 -0.0774044 0.28476274 0.2325035 -0.34957466 -0.0038098996 -0.21304958 -0.21837059 0.14466396 0.0016132861 -0.033429526 0.030552309 -0.041607104 0.08424802 0.033836305 0.4491813 -0.14963928 -0.19243042 -0.07904357 -0.10413563 -0.12519608 -0.23716159 -0.061487652 0.17067176 0.046555474 0.01888286 -0.17504475 0.038267676 -0.19926915 0.09411655 -0.036112145 -0.40679467 -0.37863082 0.13927676 0.30383375 -0.013956848 -0.086099505 -0.040438157 0.09611854 0.14956623
仁 -0.033011906 0.24943912 -0.03282436 -0.26137355 -0.037316676 -0.25349042 -0.13935798 -0.1597157 0.083759636 0.09949346 -0.13531701 -0.3781146 0.09179135 -0.14644127 0.2666074 -0.03111672 0.011721989 0.31608823 -0.05485307 -0.036786333 0.17731932 0.03963224 0.017153217 0.06950153 0.04837397 0.495421 0.04788051 -0.2248752 0.075784445 -0.0904747 -0.3643884 -0.14226483 -0.1794132 -0.17740206 -0.29473573 -0.1086563 -0.017334944 0.07230567 -0.21632814 0.0534537 -0.20109236 0.23231268 0.049364835 -0.36321095 -0.0505039 -0.07078676 -0.079608165 0.07557963 0.023318326 -0.08699729
夫 0.21023534 0.23448034 0.03534042 -0.281806 -0.18792868 0.24652682 0.09142892 -0.017045975 -0.009249146 -0.27098176 0.057972062 0.0067425827 -0.44758773 0.07287284 -0.041685082 0.09518299 -0.2430703 -0.055030078 0.095318235 -0.05522731 -0.33068144 -0.006519936 -0.22935653 -0.022034109 0.108889095 0.59794766 0.01998322 0.014587602 0.12105723 -0.022249628 0.027477177 0.1540373 0.048688795 0.1290256 -0.1336116 -0.13157885 -0.20983554 0.24573594 -0.06931505 -0.09267932 -0.15490694 -0.11348329 -0.13678485 -0.11064831 0.087859154 0.11130556 0.08108813 -0.11224991 -0.19587624 0.24708527
、 0.18763614 0.47623572 0.0909317 0.35717037 -0.053124417 0.28727573 -0.029299468 0.38599947 -0.18960404 0.17274086 -0.0804979 -0.05718165 -0.041299064 -0.14309521 0.0016059449 -0.012329771 -0.26281747 0.18915153 0.01607837 -0.03112498 0.21281731 -0.26179808 0.4367973 0.021218782 0.34949356 0.63886863 0.08870376 0.45405173 0.1753029 -0.028076611 0.004585786 0.023528388 0.4010186 0.4945441 0.09617759 -0.4122589 -0.24543338 0.00475702 -0.11676914 0.08296583 0.60797554 0.39620063 -0.12546283 -0.33792225 0.14585656 0.018633813 -0.026977932 -0.22547404 -0.3864008 0.042197213
道 0.14018685 0.27240476 -0.39596403 0.15329164 0.095652945 -0.19967152 -0.16752177 0.12641782 0.088599056 -0.16460773 -0.043532595 0.12045106 0.01169779 -0.16271222 -0.057329603 -0.30813742 -0.08817778 -0.14369436 -0.044542268 0.20881118 0.090980105 0.034611244 -0.29847592 -0.1275952 -0.15161635 0.4469568 0.04398233 0.031945053 0.17081484 0.2005983 0.11449527 0.32806653 0.02784141 -0.015680667 0.13622221 0.1866037 0.054871038 0.20250444 -0.16788703 -0.0095979115 0.02223439 -0.15323845 0.07325915 0.21893127 -0.25267014 -0.1780304 4.2670254e-05 -0.12625267 0.145774 -0.061900306
焉 0.027318697 -0.06254403 -0.060972225 -0.20345968 0.013474989 0.04849191 0.1491877 -0.07679794 0.3511172 -0.0052396543 -0.23750016 0.13854782 -0.034602094 -0.42145082 -0.109725006 -0.097004205 0.13461739 0.14292271 -0.042197514 -0.1235451 0.0019350499 -0.042413995 0.13575079 0.07694406 0.07800026 0.5405345 0.014319411 -0.08305768 0.31965896 0.21004002 -0.00832526 -0.028607655 -0.14104013 -0.096318446 -0.033744924 -0.09112939 -0.32007018 -0.038136728 -0.2881451 0.22381018 0.0835775 0.1725415 -0.18289378 0.07916084 -0.0033472867 0.02722862 0.06760318 -0.18697426 0.28898472 -0.081815735
行 -0.075384825 0.057450533 0.11121273 0.09667512 -0.077339515 -0.07390265 -0.13996635 -0.05536496 -0.092883535 -0.052698616 0.20800799 0.05525216 -0.32670212 -0.09418217 0.019447291 -0.26591325 0.096469045 -0.13342826 0.048983112 0.09011703 0.26156372 0.026716836 -0.34998643 0.22109035 0.0058176164 0.39260226 0.24832948 -0.014412872 -0.09902371 -0.17052667 0.089426726 0.16307683 -0.1340703 0.08427708 -0.02975879 0.26343843 -0.49972406 0.20665748 0.023706088 -0.015020104 0.30354232 0.13739383 0.22955927 -0.16691627 -0.073114164 0.04938073 -0.023098204 -0.07545681 0.29863888 -0.23298004
谓 0.21745563 0.038493194 0.004725765 -0.023518784 -0.14242458 0.01808488 -0.16204344 -0.28240338 -0.028292939 0.19641158 0.016376965 -0.15970132 0.101842284 -0.040757127 0.16361052 0.22065678 0.1926403 0.027585305 -0.15018858 0.1184045 -0.07007873 0.15277858 0.10187051 -0.11281216 0.30120015 0.63008964 -0.17180257 0.03885869 -0.4713986 0.30386186 0.07125631 -0.0069189006 -0.05390314 0.084815614 -0.08938987 0.19122651 0.31112885 -0.24498245 -0.14344043 0.06112613 0.35043514 0.23885512 0.21203443 -0.10865895 0.08294652 -0.25082842 0.2013495 0.1613287 0.15967612 -0.19637196
必 0.25360096 -0.037735976 0.112494 -0.22725363 -0.22681606 -0.15291408 -0.039610114 -0.18249664 -0.24595043 -0.31073797 0.107439145 0.29739633 0.111533634 -0.0017057343 -0.43277928 -0.3242895 -0.049823664 0.03999799 0.035161063 0.06624605 0.29861605 -0.06029109 -0.042627655 0.054839477 -0.023037523 0.34934807 0.0034843946 0.27645525 0.34604928 -0.028706409 -0.030852031 0.032191906 -0.103222705 -0.031730168 -0.053872332 -0.022099525 0.07032245 -0.07229621 -0.016505908 -0.06872454 0.06519827 0.0006689473 0.2014412 -0.13148245 -0.22190478 -0.22770499 0.4349288 -0.14923157 -0.17273355 0.45875007
礼 -0.044159923 0.013433158 -0.15646103 -0.032187577 -0.032600876 0.1920122 -0.14888705 0.26547176 0.019377818 -0.17189756 -0.20733519 0.20365128 -0.20790686 -0.021377113 0.05338197 -0.46449476 0.09570819 0.19484155 -0.20733956 0.10315117 -0.017887708 -0.13666114 0.11766117 -0.3120826 -0.11923698 0.40720826 0.22924665 -0.16408768 0.13294989 -0.39050215 -0.051619194 0.21617985 0.459661 -0.17357267 0.1361639 0.23430732 -0.08442841 0.10966477 -0.23006843 -0.22261721 0.0020796715 0.09876725 0.06463854 0.06487643 -0.11139121 -0.23852728 0.0064010774 0.03476806 -0.164572 -0.09948566
孔 -0.21860874 0.24221495 -0.09452427 0.26183128 -0.043829713 -0.04321704 0.19725557 0.1763997 0.09590886 -0.17372006 -0.08275925 0.02466952 0.1461488 0.026471728 0.058541816 0.21602285 -0.09339774 0.14268099 -0.04140195 0.030970475 0.069912404 0.06839546 0.12802856 -0.11856756 -0.31695032 0.7389837 0.25356752 -0.1455617 0.02788146 -0.03266264 0.45682862 -0.16958584 0.07764657 -0.12029758 -0.3424156 0.18959309 -0.29223546 -0.21941578 -0.07004598 0.13919123 -0.27869058 0.16312404 0.27734786 -0.028591447 -0.12193376 0.09426026 -0.32697743 0.07809682 -0.10539969 0.2465893
斯 0.2666863 -0.01584392 -0.03516975 -0.30340922 0.11927736 0.022553593 -0.16990475 -0.32399192 -0.19349982 0.0030609225 0.2890671 -0.23674667 0.0945595 -0.37255052 0.11639752 -0.08413432 0.0776022 -0.07456121 0.14274734 -0.1961217 -0.16013284 0.27014023 -0.2285297 -0.22481263 0.13226174 0.5181261 0.04149821 0.14802372 -0.4252833 0.066517115 -0.26901883 -0.008546465 -0.3452062 -0.12768939 -0.150654 0.3055233 0.07968027 0.2043672 -0.046924666 -0.1371693 0.18753728 0.057251785 0.005038179 -0.123221226 0.38282222 -0.17197765 -0.09209922 -0.2653608 0.30099902 -0.08203649
三 0.051974226 -0.11178812 -0.07745341 0.14393987 0.015768137 -0.12189665 -0.07349994 -0.07451135 0.035321575 -0.07283327 0.3439661 -0.13060156 -0.017988723 0.35965058 -0.52154297 -0.08904482 -0.36123732 0.24771783 -0.107383795 0.0696041 -0.28679585 -0.054827187 0.0815651 -0.4169248 0.08505743 0.48309046 0.12775601 0.22356907 0.24852656 -0.25111374 0.01775854 -0.09986278 0.039676245 0.2773358 -0.100214124 0.24515195 0.06454415 0.22244398 -0.13313493 0.023759874 -0.18323386 0.17336757 0.22018145 0.1106522 0.012672592 0.07676375 -0.06062663 0.17565612 -0.22716512 -0.18271188
能 -0.31708306 -0.05007428 0.20646228 -0.018628597 0.088071994 0.028507778 -0.119758315 0.16972674 0.056156706 -0.19961818 -0.323119 -0.09941665 0.12428641 -0.23541345 0.16343637 -0.2279305 0.21693228 -0.12559478 0.0067399275 0.023292989 0.09433632 0.0838114 0.013077556 -0.15077847 0.18918222 0.46225038 -0.020147786 -0.08694397 -0.09136438 0.23574843 -0.14331074 0.068533406 0.117593996 0.111411035 0.042567972 0.032916673 -0.33762965 -0.16614836 -0.3748353 0.14371072 -0.17222239 -0.058794275 -0.05344894 0.15495619 0.099277064 0.08530987 -0.14407955 -0.06313029 -0.00096137356 -0.17766742
见 -0.2138605 0.36457884 0.3114992 -0.2686768 -0.20522748 0.1928675 -0.013651703 0.26930898 0.099188395 -0.25997275 0.17895468 0.0046416256 0.18093349 -0.00069813605 0.07915782 -0.23305546 -0.35570723 0.013520866 0.011034388 0.13625315 0.09608183 0.19321096 -0.01885411 0.38182148 -0.16587208 0.4256129 0.24064285 -0.35122162 -0.3468345 -0.11277014 0.14137335 0.0053507234 -0.19573373 -0.14295518 -0.1807449 -0.24814484 -0.047379486 -0.1233067 -0.015619562 0.36961532 -0.14578146 0.2549019 0.031843893 -0.256161 0.18288189 -0.031319045 -0.26873168 0.030606069 -0.03333443 0.13477336
学 -0.29928866 0.049369663 0.10249737 -0.21314678 -0.17257528 0.17087615 0.20700625 -0.07910412 -0.020329347 0.17049216 -0.124420695 0.046294477 -0.09903364 0.14148867 0.14002712 -0.2546535 0.19813065 -0.08888493 0.0740899 0.5586389 0.014012994 -0.16358647 0.03503278 -0.2806418 -0.22982806 0.5365386 -0.060119994 0.11715945 0.19435243 -0.0959329 -0.21075441 0.04021635 -0.10795695 -0.04765651 0.1964588 -0.06942137 0.003835418 -0.33283567 0.35843801 0.009947545 -0.08595775 0.04805648 -0.04444849 -0.015653582 0.1337337 -0.18180558 -0.098215126 0.22587726 -0.23288082 -0.46233582
事 -0.3316835 0.07434041 0.19218111 -0.06265349 0.022559239 0.0724164 0.22469796 0.1541866 -0.47349688 0.07584437 -0.17348312 0.12634513 0.22417772 0.018318688 -0.16608839 -0.2854121 -0.093450785 -0.16664499 -0.048869174 -0.3082419 0.042926528 -0.047039747 -0.26731414 0.08600589 -0.041870516 0.4601061 -0.075051256 0.043219805 -0.13059178 -0.003814082 0.13846238 0.2083696 -0.04852753 0.070177674 -0.08871419 0.21247633 0.04184576 -0.044544116 -0.44956133 -0.1364909 -0.1488451 -0.14752862 0.17934096 0.13037625 0.1239045 -0.2150341 0.034597114 -0.1221674 0.32693923 -0.26276976
是 0.14022847 -0.11679968 0.07582494 0.10487904 -0.07426352 0.20122057 -0.04352122 0.07146769 0.186596 -0.08205665 -0.1965817 -0.44534892 0.19604173 0.04568888 0.07667478 -0.052885022 0.14321269 -0.072764084 0.25419548 -0.14629236 -0.121901475 -0.0028953452 -0.18292318 0.10841513 -0.13482033 0.6051847 -0.27266687 0.24501133 0.20343 0.2385848 0.22097997 0.08326034 0.1350018 -0.044543263 -0.11120707 0.038595695 0.12831694 -0.10900769 -0.1542438 0.075612195 -0.45614243 -0.2656789 0.23190865 -0.11473274 -0.0019103792 0.096818194 -0.1392887 0.2146488 -0.10875895 0.2504388
哉 -0.24007119 -0.14640021 0.18334626 0.08642903 -0.31024387 -0.06356597 -0.24606417 0.35564908 0.4670574 -0.23792793 -0.03553559 0.23825276 0.21499637 -0.1675 -0.28669366 0.2969828 0.1100417 0.31398192 -0.49305463 -0.2187524 0.048159424 0.20755225 -0.11551415 0.21378551 -0.10387877 0.73479486 -0.30385694 0.16728334 -0.26627225 -0.08891588 0.16944988 0.29212466 -0.11414531 -0.0984638 -0.26856297 0.035816945 -0.15742028 -0.058566596 0.17210081 -0.16977184 0.13512993 -0.13997534 -0.22132254 0.067836046 0.108493485 0.084734365 0.17636804 0.05313717 0.0604601 0.057864577
闻 -0.124959156 0.09324118 0.037909165 -0.4816592 -0.022155786 0.3935633 -0.064831614 -0.07119583 -0.12012766 -0.22169703 0.012332906 0.004186418 -0.29242364 0.1925652 -0.05183041 -0.19306022 0.0960216 0.18659112 0.394142 0.21245377 -0.12604806 0.2418364 -0.15055929 -0.14636698 0.069948144 0.50133765 -0.20407252 -0.050174817 0.088338755 -0.028347638 -0.0125247175 0.022510787 0.106945485 0.23817448 -0.17116345 0.24902019 0.06548831 -0.16256197 0.16086762 -0.3227432 0.24733196 0.014978674 0.31359923 -0.38277924 0.17469391 -0.2501675 -0.08202859 0.01977725 -0.03453634 0.19738705
未 0.0005913622 0.2850431 0.00502362 -0.08856263 -0.17209512 -0.11212239 -0.0627968 0.35041445 -0.16525958 -0.15392026 0.03798714 -0.25756866 0.18702465 0.04433517 -0.08641173 -0.19739285 0.05601755 -0.16938357 -0.039503057 0.3053776 0.029275367 0.18560836 0.23603433 -0.09157831 -0.09514204 0.4381622 -0.34797075 -0.10955622 -0.12561384 -0.03676667 -0.09630956 -0.005341097 -0.093394205 0.028134396 -0.10124811 0.18888725 0.16683662 -0.057238616 0.19918779 -0.21337293 -0.062027033 0.04001926 -0.0013879605 0.109704986 0.41445136 0.0030553727 -0.10855478 -0.015537042 0.31091106 -0.009647567
公 0.26557752 -0.1392895 -0.19041549 0.23803495 0.2588141 0.50511324 0.1831418 0.09709712 -0.09848105 0.040895794 0.04894574 -0.090476565 0.10309551 0.21589416 -0.20825745 0.11213187 0.3361616 0.026846273 -0.05300983 0.10395761 0.2071898 -0.3095563 -0.14641339 0.29773578 -0.13014354 0.6368623 0.3642331 0.1819585 -0.21585043 0.1428436 -0.039274815 -0.12575606 0.27190048 0.003746384 -0.25008443 -0.12906459 0.06354068 -0.084452115 -0.15688029 -0.41811338 0.16854587 0.15500967 0.2376694 0.11185126 0.21810938 0.25228125 0.13333228 -0.23085412 0.027634794 0.17745094
好 -0.44091344 0.20523371 0.21917129 -0.067166924 -0.37101036 0.17788117 0.03071611 -0.28553727 -0.26683372 -0.174523 -0.31977746 0.02931216 0.41118348 0.16147262 0.15246633 -0.524436 0.11621881 -0.19200481 0.013039611 0.15001726 0.2371164 -0.257508 0.24607594 0.044785574 -0.07186591 0.5078525 -0.15307987 -0.08424927 -0.14768688 -0.050725065 -0.0917102 0.12620181 -0.22007133 -0.1975291 0.34962273 0.016507788 0.12487448 -0.2834795 0.23401858 0.13574249 -0.34533295 0.15415825 -0.4741902 -0.11087057 0.102188475 -0.14600375 0.08440117 0.30130336 -0.1772995 0.03602434
我 -0.1059833 0.06748601 0.25024548 -0.057441454 0.0068118097 0.1561339 -0.012644147 0.0573262 0.22023866 -0.4042434 -0.2800435 -0.10241227 0.28659114 0.16977122 -0.03657136 0.01464448 0.12989835 0.18390307 0.1417127 -0.19966702 -0.37061277 0.041283235 0.12956232 0.04872338 0.16988437 0.5602846 -0.23789783 -0.007854708 0.29027757 -0.31639934 -0.13207488 0.091616094 -0.018440293 -0.30780047 -0.17968412 -0.048449427 0.062458724 0.17425981 -0.12407756 -0.08179442 -0.1357167 -0.22104633 0.03366356 0.11998509 0.13980357 -0.31289834 -0.32034385 -0.23046009 0.16121525 0.11145206
路 -0.081034824 0.051457345 -0.041985486 -0.16163683 0.16914995 0.10020797 0.11894264 -0.044246424 0.19229332 0.07191167 0.14108306 0.015976425 0.1771973 0.18492326 0.05993826 0.1912604 0.21481462 -0.129285 -0.08658048 0.25156015 0.04783076 -0.011951163 -0.103886224 0.1807899 0.052593358 0.7167561 0.11484291 -0.14875877 -0.11296036 -0.26771712 0.0028040754 -0.035388004 0.19439997 0.45041552 -0.18893334 0.087905906 -0.48676464 0.06389301 -0.047577336 0.110609174 -0.016747013 -0.037725117 0.1488224 -0.3528141 0.21253175 0.45402563 -0.24981111 -0.19967239 -0.10608619 -0.2155283
在 0.05968981 0.22162698 0.58279145 0.042182885 0.083561026 0.021498239 -0.101682335 0.09169511 -0.33169493 -0.2039329 0.02329088 0.2905802 -0.027348593 0.02216271 0.114912085 -0.35682437 -0.25800088 0.100514986 0.21034564 -0.11979159 -0.16303869 -0.0017626636 -0.1796 -0.13338195 -0.13299404 0.42347822 0.18831292 0.33170387 -0.25458157 0.18884496 0.053160664 -0.18654226 -0.14880809 -0.07617804 0.268873 0.032043513 -0.005193947 0.23547556 0.38083225 -0.0003697776 0.47513974 -0.3800893 0.38380048 -0.030122353 -0.15162942 -0.234144 -0.22663343 0.12862079 -0.07285784 0.17103833
已 0.09677283 0.17058119 -0.18295704 0.1091957 -0.3826429 0.038962346 -0.23878437 -0.3694208 -0.13629782 0.03318634 0.37918428 -0.15348567 0.11418318 0.047393523 -0.13087398 0.097238615 0.34950238 0.09450583 -0.028231144 0.42441818 -0.3823581 0.1230481 -0.044749983 0.024062162 -0.2285063 0.58748925 0.14647666 0.030058572 -0.2601019 -0.08129779 -0.44888952 -0.14959767 -0.2227146 -0.021978106 -0.06512859 -0.10061044 -0.19587389 0.082098365 0.114391275 0.33575395 0.09261193 0.09745622 0.013074995 0.0982558 0.10167763 -0.39938065 0.36324495 0.104049236 0.20062585 0.10492956
得 -0.30707735 0.3535433 -0.1947601 -0.12225012 -0.10217184 0.18683362 0.013904915 -0.15818432 -0.07067389 0.017993594 0.05009965 -0.10852865 -0.40691075 0.3160667 -0.117447376 -0.46835145 -0.13644293 0.13648905 0.07470943 0.087251246 0.22063449 0.23582458 -0.122824356 0.026607314 -0.07900319 0.3040059 -0.09126092 0.120152935 -0.006449487 0.0862861 0.13254942 -0.30040982 -0.11212067 -0.089126796 -0.04572817 -0.5868922 -0.21447971 -0.2801641 -0.089275666 0.24277166 -0.06857742 0.31024647 0.005571918 0.13995819 0.2584276 -0.22176579 0.0344787 -0.10294716 0.3481339 0.0031814342
所 -0.22498414 -0.18437943 0.23905924 -0.11391361 0.21482532 -0.34297866 -0.17798081 -0.015566732 0.30476916 -0.09495364 0.18700397 -0.22396474 -0.3447251 0.090829335 0.046531063 -0.30507967 0.091025986 0.28530437 0.13294186 -0.017723592 0.031658247 0.31653002 0.18639974 0.07289351 0.08594737 0.4802743 -0.2960903 0.3422871 -0.021772796 -0.17061861 -0.21607162 0.021592433 -0.045696735 -0.024732562 0.11514394 0.05819202 -0.17939791 -0.0047768313 0.18434812 0.2431907 0.0054129325 -0.00764071 -0.022586664 -0.30111215 -0.21257232 0.05599666 -0.025044601 0.23554006 0.15543473 -0.086024955
民 0.122096 -0.2563452 0.00786286 -0.24467815 0.19844063 -0.1662225 -0.0067211147 0.01722121 -0.140666 -0.103604764 -0.104418166 -0.25700817 0.4529364 -0.23173848 -0.23436145 -0.37627193 0.08408945 0.03215673 -0.28213373 0.1352793 0.12859726 -0.0801803 -0.16586778 0.27823427 -0.21649727 0.43033144 -0.08769314 0.2567959 0.09249613 -0.23477855 -0.14585207 0.2373082 0.36512923 0.14373802 0.015162066 -0.4066472 -0.21485977 -0.14360365 -0.07716759 0.21734549 0.21634151 0.037127912 -0.17607255 -0.31325045 -0.48032662 -0.24043578 -0.14368656 0.34548584 0.06496146 -0.30404624
小 0.17203645 -0.10803266 -0.051734738 0.23485805 0.037126407 -0.38573462 0.1774939 -0.5871724 0.11644871 -0.076319 0.046002895 0.37747478 -0.21108899 -0.45174044 0.2108699 -0.15516748 -0.0056233453 -0.167038 0.14267454 -0.12092941 0.0680597 -0.16185758 -0.46882525 0.4675624 -0.045872025 0.67235285 -0.19931628 -0.066702306 -0.17192858 -0.023541559 0.061288744 0.421058 -0.35173658 -0.3290183 0.12701133 0.24573228 -0.04911607 -0.22579184 0.067181766 0.30533794 0.10553525 -0.011621596 -0.5635594 0.17351021 0.02961124 -0.14184333 -0.23267084 -0.15840544 -0.122234456 0.14101404
天 0.36074224 -0.2054896 -0.18146458 -0.14098193 0.19708855 0.16858043 -0.3937771 0.06546818 0.3240607 0.14359595 0.31504503 -0.09422824 -0.11525122 0.03393022 -0.11074325 -0.26275042 -0.29783 0.20869602 0.1974834 0.22609387 -0.3093152 0.11256183 -0.14799853 -0.07556997 -0.26923627 0.39614916 0.03395797 0.70902324 0.12907575 0.083211124 -0.30498818 0.19979614 0.06838836 -0.1830392 -0.12387649 -0.23056427 -0.10306888 0.25134835 -0.15263069 -0.03841722 -0.009341312 0.14987616 -0.29843235 0.16387706 -0.20002964 0.1708186 -0.54675573 -0.023537142 -0.061247844 0.23062623
乐 -0.11042655 0.36114565 0.26973796 0.35107273 -0.06615227 0.23804532 -0.14138174 0.08905046 0.005491693 -0.15286739 -0.04935515 -0.249336 -0.32127532 -0.08999162 0.038734403 -0.52178276 -0.08572143 0.4795377 -0.4007121 0.0298329 0.31655174 -0.14271146 0.2417138 -0.23503497 0.24169573 0.4516274 -0.07700466 -0.29376033 0.17637312 0.18792197 -0.0809917 0.18861702 0.2556264 0.056540266 -0.015857194 0.15447862 0.33711618 -0.17678791 -0.23159057 -0.3772939 0.20523942 -0.29926395 -0.16547395 -0.06998791 0.14806218 -0.4197391 -0.16637012 -0.078552626 -0.65472937 0.25912657
邦 -0.0022130702 0.09964029 0.12843566 0.054358784 0.24478973 0.10154728 -0.22055995 -0.0016707836 0.51339114 -0.41481698 -0.19557843 0.1288807 -0.2129218 -0.1811313 0.11193175 -0.38200504 -0.0894906 -0.16922426 0.035105485 0.3174207 -0.05429493 0.018873585 -0.44661698 0.04018979 0.17079788 0.40367943 -0.04332087 0.1777431 -0.15965152 0.27185622 0.0553584 0.27251533 -0.053093456 0.06675007 0.13200529 -0.061201192 0.053411607 -0.24163026 -0.23463558 -0.29524067 0.28063467 -0.11827612 0.30109134 0.0101186205 -0.21279645 -0.21370773 -0.16152062 -0.26832068 0.043497898 0.5101392
亦 0.0548397 -0.61695576 -0.17184126 0.3902523 0.09314865 0.24218866 -0.22457866 -0.29017854 0.06501765 -0.008992217 -0.044766553 -0.030654434 0.07808003 -0.21223779 -0.036953624 -0.23094337 -0.097362265 0.14651322 -0.29655743 -0.07445685 -0.12964275 -0.07698226 -0.12838608 0.39417878 -0.0057318085 0.48216024 0.09680043 -0.0077854465 0.08689931 -0.057768907 -0.09245086 -0.09292663 -0.22470611 -0.17403245 0.273125 0.12410302 0.38998422 0.19377604 0.096485876 -0.25319943 0.22000735 0.21504825 -0.1482435 0.44489515 -0.022303564 0.0115195615 -0.15544295 -0.025382161 0.3637386 0.013242644
使 -0.054217476 0.014909582 0.12670466 0.062766686 0.09865311 -0.4479818 -0.1942684 0.008712748 -0.023654416 0.058707017 -0.059486683 0.29858053 0.0006064245 0.12149358 0.038519714 -0.1277343 0.3855667 -0.16586645 -0.098309964 0.28132427 -0.24644083 -0.09501879 0.05206384 0.32149234 0.3798532 0.41718304 -0.030122025 0.2111463 -0.1472679 0.035712797 -0.17101017 -0.087828994 0.14313838 -0.004594494 -0.026701208 -0.24625182 0.10438199 -0.45798266 -0.030663509 -0.35426697 -0.009952773 0.13339174 0.2372584 -0.21710613 -0.07665654 0.028558444 -0.20387474 0.33664796 0.039560277 -0.5352518
大 0.38047862 0.032779567 -0.014457842 -0.11292483 0.182271 0.06664216 -0.082931824 -0.07521378 0.1047146 0.052501533 0.15742934 -0.0068237414 -0.13380605 -0.15340963 0.27868792 -0.21114144 -0.41871762 0.14482677 0.31021857 -0.22238852 0.0073816204 -0.27306762 -0.056309767 0.42240998 -0.4247908 0.44875973 0.015705582 -0.13762805 0.1391137 -0.1725099 -0.14373602 -0.0474323 -0.02648474 0.080123484 -0.106634095 -0.06334627 -0.17661984 -0.3801334 -0.014710274 -0.11639173 -0.11966116 0.019077197 -0.3879736 -0.25080234 0.21342108 0.1978383 -0.28569293 0.32476154 -0.101967536 -0.09405512
下 0.3923937 -0.093089655 0.08993884 0.36444187 0.020395635 -0.20725389 -0.20596434 0.11754558 -0.016486399 0.2344529 0.1387058 0.02292803 0.38608685 -0.012449174 -0.20533295 -0.27657795 -0.55673766 -0.38011733 0.114571795 -0.02572723 -0.016921803 0.12127687 0.25558943 -0.09118265 0.008774135 0.4062697 0.27087238 0.37763017 0.27003106 -0.13748106 -0.26347858 0.28031257 0.1361344 -0.2520309 -0.014508503 -0.26467565 0.05603672 0.13715723 0.10305653 0.06788951 -0.26830286 0.15470356 -0.15930174 -0.13818179 -0.04650184 -0.16273373 -0.42830288 0.21528524 -0.07438085 0.10429129
贡 0.22848053 0.26037034 0.0076134624 -0.16914092 0.19697224 0.11257735 0.012930507 0.118435524 0.16899511 -0.18802142 0.13027239 -0.21416406 -0.20807244 0.09597524 -0.17665581 0.40594688 0.03482067 -0.04660137 -0.14289036 0.089870304 0.18307239 -0.17356497 -0.24738416 -0.31008658 -0.2714721 0.85153794 -0.2398117 -0.19505747 0.36349404 -0.050304756 -0.07234509 -0.08470471 0.08737539 -0.3887122 -0.27849597 -0.05972027 0.31011984 -0.03828529 -0.05253398 -0.15014562 0.051484242 0.31412727 -0.08798759 0.07523875 -0.13949546 -0.34223136 0.0496564 -0.05406424 0.20156832 -0.01771293
欲 -0.17827305 0.1483051 -0.22744653 -0.035022866 0.05241695 -0.15977529 0.3739508 0.024002695 0.1190391 -0.4129689 -0.033699926 0.08047021 -0.19209789 -0.22071113 0.13620892 -0.31482974 -0.019035062 0.024527539 -0.13371143 -0.09054193 -0.009057045 0.22088847 0.37012953 0.40179622 -0.12024007 0.49208343 -0.14651716 -0.011268928 -0.21781828 -0.19280183 0.12476687 -0.34920833 0.14149408 -0.053316727 -0.2845029 -0.41778257 -0.18480226 0.2709885 0.00400016 0.029631369 0.0054981727 0.13316858 -0.03445811 -0.33985785 0.061258603 0.35389787 -0.2754371 0.039705813 -0.11894888 -0.45817915
诸 0.0010228356 -0.25717142 0.14835693 0.15041128 0.22014143 -0.101673745 -0.04647582 -0.3480501 0.034888882 -0.32212797 -0.17470324 0.5659854 -0.533791 -0.3493111 -0.139219 0.019222137 0.33997747 -0.06758632 0.22852111 0.02932014 0.20172386 0.14982952 0.038640868 -0.18611236 0.19738138 0.5550341 0.123706646 -0.03479316 -0.44803178 0.09796448 -0.12755153 -0.07556202 0.15929826 -0.06505404 -0.08787658 -0.17412007 -0.42903236 0.18102317 -0.098674044 -0.57671416 -0.07982488 -0.42853388 -0.19141258 -0.26850942 0.22526574 0.33745468 -0.101991706 0.053994294 -0.07368559 0.050000302
从 -0.2670955 0.3499045 -0.14870322 -0.28199676 -0.19445986 -0.17577223 -0.31987908 -0.07782729 -0.4392581 0.19918709 0.017981397 -0.056649987 0.37660643 -0.09668899 -0.021067442 -0.1401619 -0.35462415 -0.13269915 0.26577348 -0.28671962 -0.24979398 0.30610046 0.33681694 0.34273276 -0.059223443 0.42964017 -0.27333364 -0.17062904 0.019598352 -0.1739639 -0.2370871 -0.006189293 -0.26358896 -0.21122125 -0.19743696 -0.10424873 -0.1706669 0.19451496 -0.19328532 -0.41563836 -0.27410743 0.14477873 0.23806123 0.061014377 0.2824647 0.22637351 -0.020697046 -0.09333989 -0.09701842 -0.14316814
文 0.17706369 0.026041154 -0.4201408 0.18489935 0.026857832 0.040595215 -0.2011284 -0.0016779766 -0.16052209 -0.41066682 0.06196034 -0.010175234 -0.05697458 0.2219302 -0.06474485 0.0553284 -0.02043482 0.090869956 -0.2791442 -0.04718304 0.29173583 -0.10267441 -0.53625727 -0.13678937 -0.011483657 0.587307 0.1737702 0.04891894 -0.21616733 -0.10301646 0.031671178 0.0013637684 0.3540394 0.3667818 -0.095042 0.050265636 -0.15399785 -0.04629758 -0.04998465 -0.3133342 0.33252996 -0.19500412 0.029845215 0.021204542 -0.17545186 -0.3609455 -0.29796454 0.19212529 0.17892346 -0.2822209
政 0.1600255 0.23413105 0.10872552 -0.16909325 0.25088552 -0.248354 -0.47476518 0.30928445 -0.37275913 0.37562674 -0.065847784 0.01980401 0.19002083 -0.00141153 0.2569651 0.15569489 0.006894753 -0.10823936 -0.10374686 -0.11016121 -0.29696694 -0.1836719 -0.1224157 0.08415765 -0.31250548 0.51430756 0.33487716 -0.24885868 0.038967483 0.054497242 0.18262331 -0.048412286 0.2683447 0.08035496 -0.50086135 0.10874693 -0.50595623 -0.32867262 0.027295105 -0.08949907 -0.33768585 -0.50892097 0.37415555 -0.15945657 -0.21604924 0.06324219 -0.08972563 0.00027094036 0.1648504 -0.065929145
食 -0.31825873 -0.0153009975 -0.05277131 -0.34610456 0.091611646 0.14157271 -0.23275378 0.5170866 0.037345506 0.04010526 0.3954831 -0.05227161 0.24190457 -0.06901706 0.22462294 -0.4845302 0.11170812 0.04348368 -0.11921362 0.039615147 0.33769765 -0.016930109 0.2941894 -0.18695669 -0.07974395 0.43522754 0.04994408 -0.020182522 0.34983888 0.4430333 -0.006137082 -0.42789698 -0.1305855 0.09627598 -0.020945726 0.1898766 0.013019215 0.09061211 -0.39355958 0.13371411 0.27057096 -0.063657865 0.4400753 -0.28473073 -0.39418492 0.39763469 0.18609944 0.30303243 0.32243404 0.269278
善 -0.5388469 0.11181815 0.10581483 -0.05638177 0.1424155 0.38405457 -0.055568106 0.11815733 0.26436725 -0.3475401 -0.24002692 -0.22654508 0.13539991 0.09436585 0.09965656 -0.22985122 -0.3455392 -0.14304508 -0.10614057 -0.11857294 -0.011788842 -0.08769242 0.038931582 0.058105513 0.03740816 0.51329607 -0.1797683 0.15573628 0.031182395 0.16730952 0.10221289 0.010400592 -0.24960466 0.07876439 -0.0111873 0.07345376 -0.019194264 0.1912365 0.086571775 -0.12672968 -0.07955995 0.00074738683 0.09778629 -0.32819912 0.1513336 -0.057301454 -0.09929722 0.20555262 -0.51371264 -0.47093514
后 0.17174968 0.06155611 0.11406891 -0.8200499 -0.061320327 -0.13760424 0.028312868 0.051268097 -0.20475607 0.22647963 0.23810554 0.14161128 -0.31115752 0.063674934 -0.27221277 -0.1985556 -0.05483586 0.03867415 -0.4509524 -0.15323654 0.2475542 -0.27255672 -0.08848445 -0.15763989 -0.18945454 0.45332065 -0.05028101 -0.2544684 0.09774593 -0.4570975 0.3165729 -0.10763977 -0.1389923 -0.37824005 -0.051889878 -0.21078144 -0.19614951 -0.0068318495 0.019563533 -0.11208456 0.25860792 -0.37628222 -0.05805248 0.025026882 -0.000843723 0.1672942 -0.12449128 0.16863383 -0.089044355 -0.429989
德 0.077726014 0.37753478 -0.07278265 0.26427892 -0.0221279 -0.22513431 -0.008891301 -0.2378542 -0.09244289 -0.16133592 -0.14987865 -0.012077092 -0.077167414 -0.29068786 0.21090282 -0.075844005 -0.042244695 -0.24499886 0.086803146 -0.14233963 0.0554645 -0.14626616 0.36984858 -0.24586628 -0.11795081 0.5103077 -0.22988032 -0.08440919 -0.29027772 -0.08392208 -0.033942636 0.12710346 0.011759315 -0.30098996 -0.13699384 0.05322015 0.24409321 -0.06931464 -0.14685303 0.35526273 -0.018316146 0.07002572 -0.25360548 -0.10057058 -0.4994327 0.10121659 -0.18720299 -0.2970655 0.39811072 -0.007005886
求 0.08269987 -0.14831512 -0.18661694 0.13721217 0.085466966 -0.3714363 -0.1269705 0.09396627 -0.23240173 -0.14597741 -0.08176902 0.082886 -0.29468432 0.252651 0.55287397 0.0331857 0.08122355 -0.14994307 0.5912632 -0.2382489 0.046541423 0.018383896 0.06078906 0.1354456 -0.0076930067 0.5532204 0.08334291 -0.121338435 0.013100177 -0.09942427 -0.15083013 0.17890728 -0.12862603 0.021625077 -0.19945519 0.052326936 0.044433847 -0.16095012 -0.10265317 -0.38256168 -0.3087729 -0.05778481 0.15523611 -0.09548672 0.15480307 0.25995117 -0.05018355 0.10254743 -0.18228918 -0.079671726
对 0.13764857 -0.05520606 0.013187489 0.27397606 -0.0015999523 0.39952722 -0.29219845 -0.09909184 0.0279869 -0.3053385 -0.5192253 0.12860611 -0.055451527 0.17833726 -0.23351349 0.34632102 0.45453575 0.019636095 0.15116851 0.35303807 -0.2280084 0.255305 0.32881597 0.077551804 -0.028964588 0.8117735 0.065657 -0.0010077879 0.12804961 -0.10168586 0.03440078 0.09246028 -0.13377272 0.17671837 0.047596887 0.33876255 0.03025407 -0.14860943 0.52848405 0.23301841 -0.4245288 0.31117636 0.06091263 0.07454339 0.42018554 -0.12989554 -0.17845961 0.033573728 -0.028044526 -0.18293427
恶 0.00038071966 -0.36785787 -0.224106 0.10679971 0.11510241 0.24776226 -0.16586284 -0.2578175 0.11036468 0.27096584 0.19992709 0.09408185 0.17063181 -0.5908257 0.1082751 -0.42269874 -0.014307706 -0.058760278 -0.15651397 0.31836316 0.33915317 0.3563233 0.6489003 -0.076517716 -0.25366023 0.42450362 -0.16680694 -0.098321594 0.031692352 -0.00831019 0.018079815 0.06633791 0.041266866 0.17022903 -0.0024949266 -0.105106845 0.28069076 -0.10941597 -0.11882077 0.03322869 -0.1666351 -0.10524949 -0.18920307 -0.117149256 -0.68231034 -0.2557368 -0.45628873 -0.049418226 -0.3504414 -0.010336615
信 -0.09416856 0.2925231 0.13810207 -0.00978294 -0.21300624 -0.036500067 0.3065277 -0.15261759 -0.12616274 -0.15699403 -0.37861943 0.037376713 0.22213025 0.0011632452 -0.02671956 -0.52501965 -0.07757572 0.06058544 -0.27879763 -0.09275797 0.33276477 0.1008843 -0.3425529 -0.044908874 0.123603486 0.43392667 0.112141244 0.09959229 0.36367276 -0.044423223 0.14659795 -0.11284758 -0.12243038 0.20654102 0.057253607 -0.053361967 0.09048869 0.38523012 0.3738882 0.2942421 0.22888324 0.06365665 -0.49818283 0.085368834 0.039498445 0.04107183 0.2484262 -0.09619928 0.016029002 -0.34830415
死 -0.48203704 -0.18046984 -0.36204103 -0.13969077 -0.037901167 0.44959798 0.07869284 0.1748059 0.34163684 0.17288601 0.052774902 -0.18206938 -0.06300819 0.30232257 -0.05586683 -0.3614242 0.054468513 -0.5071678 -0.14749502 -0.101577125 0.04832826 -0.09785581 -0.014309888 0.057398178 -0.17585142 0.44027552 0.00036884798 0.009553432 0.021738203 -0.2356113 0.09167458 -0.0827537 0.050763655 -0.327502 -0.12592682 -0.21360913 -0.09925261 0.12621102 -0.06298336 0.07796848 0.21174552 0.2714848 -0.1281006 0.004662393 0.20398578 -0.015016563 -0.3309152 0.23429394 0.24361517 0.20136905
然 -0.07543778 -0.0050032884 -0.14703633 -0.5316211 -0.14021347 0.2582763 -0.14596461 -0.14255837 0.04575136 0.013912718 0.16167654 0.0746684 -0.215749 -0.051494386 -0.047994398 -0.08562298 -0.18741 0.010225339 -0.3550908 -0.16237715 0.27016205 -0.10965459 -0.18006527 0.18802431 0.02695752 0.5212521 0.029166354 0.27244383 0.20565617 -0.045551717 0.48785028 0.12741552 -0.17797141 -0.18957077 0.0047939643 -0.29408485 0.0038128018 0.12902454 -0.13794465 0.30788583 0.26212338 -0.36327416 0.06756339 0.46550757 -0.09469501 0.25472566 -0.03727812 0.3314365 -0.08741909 -0.21854784
《 -0.39694828 0.10369074 -0.00037060902 0.030880157 0.03509013 0.31305978 -0.11980916 0.14504622 0.10894404 0.037610337 0.2902534 0.2096875 -0.26546475 -0.26860446 -0.20623866 -0.09135401 -0.048266686 0.19000758 -0.0006525519 0.09251155 -0.18466787 0.010189508 0.49217954 -0.6626587 0.46165147 0.6543743 0.188514 0.0789347 0.16653626 -0.18244536 -0.38941887 0.18043216 0.18601972 -0.25258493 -0.10197501 0.13159768 0.090777665 -0.17999355 0.20100541 -0.035877436 0.19811569 -0.0337681 0.20632792 -0.35192418 0.07227277 -0.30863228 0.5790674 0.20149392 0.009183096 -0.12323853
》 -0.4012993 -0.10074389 -0.02530292 0.09209311 -0.08493509 0.3036179 -0.32012066 0.085952766 0.16529247 -0.06330742 -0.009709876 -0.2414432 -0.047442835 -0.26240203 -0.14378981 -0.1719877 -0.091632366 0.42088905 0.10504754 0.097097024 -0.015487242 0.02247072 0.5807543 -0.6207019 0.21347642 0.6210502 0.20760114 -0.023507515 0.13527527 -0.30934253 -0.15806572 0.13749023 0.27551576 -0.1849674 -0.043218907 0.08851244 0.13266197 -0.116305314 0.5269383 -0.10887249 0.4362313 -0.21302266 0.067874804 -0.28803378 0.050604902 -0.27366337 0.5952779 -0.00026850024 -0.28332815 0.07282554
由 0.32155424 0.29902518 -0.39778456 -0.026750926 -0.40140158 -0.2532035 -0.24963431 -0.19597375 -0.23891841 0.3325206 -0.043179113 -0.041409776 -0.22624558 -0.15513879 0.24674991 0.044350997 0.60329443 -0.03566766 -0.08023115 0.17238764 0.2378252 0.13840814 -0.023445465 0.16193317 -0.09842976 0.5736019 -0.20519635 0.20934698 0.111030295 -0.27466545 0.07244726 0.43046594 -0.011614191 0.09539668 -0.2348137 -0.10133539 0.043971635 0.17825052 -0.11336615 -0.2584695 -0.35157257 -0.11060812 0.074166626 -0.18207432 0.2330254 0.34734637 -0.14719707 0.18791486 0.41543907 -0.066544
仲 -0.11813143 0.2670326 -0.14550534 0.21283685 0.09921923 -0.0703393 -0.113815695 0.29527578 0.04687807 0.53097045 -0.16163786 -0.35920164 -0.29619363 -0.05003125 -0.038185976 0.30381867 0.16487993 -0.14057654 0.22924037 -0.34071994 -0.0718403 -0.123439714 0.12211592 -0.0127403205 -0.14981425 0.7342804 0.02488303 -0.24518485 0.022278802 0.10034804 0.3401486 -0.10651972 0.15081851 0.5025166 -0.34048647 -0.3309913 0.038051486 0.0114937825 -0.18421088 -0.23211479 0.4450043 -0.23500825 -0.24076197 -0.23541892 0.13069269 0.049563184 -0.076874875 0.1216032 -0.058545556 0.18708189
非 0.101182595 -0.026918167 -0.17395094 -0.3147656 -0.115952514 -0.09791874 -0.23476604 0.35759088 0.22407402 -0.17802362 0.084739946 0.28768778 -0.5642085 -0.010735604 -0.15835634 -0.3011422 0.33009213 0.11959724 -0.02641203 -0.27312142 0.43709233 0.19165654 -0.16198665 -0.019004766 0.31492013 0.54816526 0.029998 -0.07868789 -0.38358387 -0.064752735 -0.016298007 0.15385221 -0.11194154 -0.05800607 0.11782416 0.15738653 0.3523802 0.22175936 -0.03363365 -0.21764243 -0.1425538 -0.12581599 0.019473862 0.05120692 0.029788606 0.17104553 -0.1340351 -0.6888318 -0.1314395 0.016362578
出 0.5446945 0.2706173 0.24824104 -0.22975467 0.23033942 -0.07857326 0.21569483 0.070561215 0.098111905 0.12814462 0.3761544 0.21517108 0.19596969 0.084209144 -0.24807876 -0.25146273 -0.05723637 0.008399484 -0.25864464 0.31914032 0.013513724 -0.010761145 -0.18329303 0.0729247 -0.06197603 0.420608 0.07958627 0.5987978 -0.5629329 -0.29901695 -0.080777206 -0.28024238 0.21269643 0.042877585 -0.23637469 0.2796305 -0.1109579 0.30947962 -0.2885032 0.4280076 -0.017195417 -0.2578322 -0.23804258 0.0023365454 0.37969792 0.07822781 -0.11557734 -0.29037055 -0.034019887 0.055362105
过 0.06363048 -0.049309406 -0.10468895 0.21533385 -0.42213032 0.11507601 0.0671663 -0.3114564 0.29649368 -0.02683246 0.19097552 0.3070441 0.063493185 0.45831993 -0.1756036 -0.26196033 0.05382999 -0.11671994 0.18263955 0.19147316 0.03292947 0.13155702 0.027534949 -0.08827006 -0.24803893 0.47485286 -0.13144663 0.24536137 0.043753862 0.10351257 0.15953828 -0.20427747 -0.24482113 -0.6658005 -0.020261556 0.03373891 -0.2928374 0.28125402 0.099880666 0.11401856 -0.114177465 -0.27560017 0.22467414 -0.2371808 0.12158322 0.14935656 0.15317169 0.36712155 -0.02717145 -0.45155683
一 0.09583182 -0.05717694 0.07000672 0.098580815 -0.10076569 0.1324242 -0.4577852 0.5212708 0.36578065 0.47099438 0.22832648 -0.19923325 0.031050174 0.042683564 -0.28242463 -0.30992427 0.21738367 0.38419655 -0.010058878 0.36671188 0.07282131 0.31516275 -0.08208807 0.09586291 0.0807199 0.43452564 -0.010521969 0.16131613 -0.06743004 -0.25968584 -0.3413036 0.07966978 0.02722115 0.0050757797 0.16246355 0.38826638 0.025742069 -0.047024924 -0.14184187 -0.3384426 0.062408965 -0.3480752 0.4823195 -0.34462368 -0.20924444 0.18484385 -0.37923855 0.017915593 0.06711179 0.14295615
虽 -0.15013534 0.0075848955 0.07125433 0.24712178 -0.09557003 -0.07382287 -0.017628431 0.17849019 -0.23986922 0.072503 -0.120500565 -0.07890615 0.4521898 0.20601065 -0.138358 -0.5367477 -0.020312518 -0.19696696 0.037870463 -0.46039408 0.22922164 0.19557643 0.12072935 0.43548393 0.15152128 0.3860853 -0.293238 -0.44651127 0.016472168 0.12426798 -0.17902754 -0.14269105 -0.39581442 0.13743186 0.23328398 -0.022674058 -0.0050087636 0.07725149 0.17648655 -0.25154978 0.56172836 0.01997937 0.15530159 -0.3719322 0.2799221 0.30254814 0.01754933 0.09850147 0.32557935 -0.20374942
足 0.15924546 -0.085642464 -0.19271244 0.37535402 -0.048701443 0.09534083 -0.3860367 0.2342259 0.10618827 -0.14509173 -0.1325669 0.22039035 -0.4330475 0.41158122 -0.3733392 -0.2325963 -0.14685844 -0.20594347 -0.14116468 0.06087329 0.5477186 -0.017858503 -0.235442 -0.12833747 0.24922197 0.49589682 0.056655116 -0.09832376 0.09426246 0.335794 -0.11401861 -0.14499266 0.25695223 0.0006436608 0.04340938 -0.065932795 0.57602227 -0.035066932 -0.23015821 0.26247653 -0.39921433 0.09762787 -0.5204332 -0.28141218 -0.29397452 0.15354924 0.08091561 0.39596292 0.2714916 -0.5957606
居 -0.074645 -0.27213806 0.22333218 0.16292822 0.14848357 -0.35813063 0.06387346 0.34994414 -0.026904944 0.05239328 0.23483208 0.2220778 0.43187696 -0.22399732 -0.06788969 -0.17359462 -0.38728184 0.09648926 0.28719229 -0.14770962 0.11461684 -0.39708063 0.35924488 0.2953495 -0.23658802 0.48247454 -0.021362588 -0.072627775 0.1703191 0.06866736 0.22938555 -0.17496015 -0.04788904 0.15068959 -0.04244511 -0.09620423 0.2507489 0.23778622 -0.11735652 -0.32602412 -0.038405806 -0.37299353 0.060758512 -0.33801478 -0.013235308 0.020214286 0.21427047 0.16302946 0.40017068 0.25984278
尔 0.39904475 -0.39719906 0.08697954 -0.04893331 -0.13264863 -0.41954124 -0.28379032 -0.11937131 0.23106083 -0.030754004 0.051378213 0.12439981 0.21613815 0.35190728 0.35558796 0.07728041 -0.003964448 0.35439798 0.4851127 -0.24085796 -0.14678404 0.21535258 0.15906091 -0.4028843 -0.44243813 0.5437202 -0.34194642 0.4406057 0.24897793 -0.20557152 0.22581908 -0.09633949 0.0011132084 0.0038252994 -0.33858144 0.039474275 0.124734424 0.1141199 0.52758473 0.06117201 -0.03037263 -0.25183895 -0.44629014 0.0844862 0.47314888 -0.09124471 0.4113691 -0.05851034 -0.070584014 0.038063303
夏 -0.13658066 -0.04271597 0.21240424 -0.21949278 -0.3534635 0.26997137 0.07912782 0.13398302 -0.026001323 0.28670228 -0.32719895 -0.14428836 0.05571695 -0.1717523 -0.255819 0.25738448 -0.04598154 -0.31868088 0.19700424 0.20377563 0.08034203 -0.16927727 -0.09291872 -0.20883574 -0.15675762 0.78719527 -0.4088696 -0.10770968 0.26951617 -0.01753211 0.2599061 -0.040902372 0.036744915 -0.093342505 -0.14773786 0.35313222 0.11373982 -0.1516838 0.355341 0.023203366 0.18094377 0.22633772 0.05703545 0.09797725 -0.03701357 -0.33853596 -0.12061807 -0.10715038 0.0156183895 -0.34177053
父 -0.15320008 0.28297916 0.28646567 0.29844597 0.14608432 0.24327612 -0.24532272 -0.083234906 -0.38386583 -0.00014207386 0.18793532 0.26351416 0.00951525 0.16520788 0.46180424 -0.13041946 -0.021789012 -0.4735764 -0.06260697 -0.16568093 -0.3797896 0.18455322 -0.3203526 -0.045540363 0.15515985 0.49768722 0.0009029302 -0.073322505 -0.03366521 0.18610762 0.14436768 0.4023453 0.03476557 0.067964755 -0.2653457 -0.3706819 0.36130992 0.30202612 -0.3887082 -0.19315268 0.28058186 -0.030729828 0.24809165 0.4806801 -0.66692245 -0.21963158 0.21915618 0.3301233 -0.32754752 -0.16383609
及 -0.4758111 -0.25457805 0.04204443 0.12713175 -0.044684004 -0.009113873 -0.36864936 -0.08470584 -0.14813548 -0.29865047 0.2361556 -0.57837045 0.011964287 -0.012297434 0.09340413 -0.30854553 -0.095798515 -0.2758262 0.2772826 -0.20105611 0.16552426 0.06985361 -0.36294907 -0.3478785 0.18028614 0.49618104 -0.12711596 0.1395602 -0.39911276 -0.24265032 0.20596375 -0.24536243 0.008964951 0.10992308 0.1477408 0.029621018 -0.06440542 -0.42564344 0.23591888 0.22410902 -0.1608858 0.15557657 0.004392027 0.4103522 -0.06480014 -0.04260318 0.060254976 0.401399 0.012963783 0.10865273
己 0.03252326 -0.1626652 -0.15944462 -0.10285769 -0.44479904 -0.7296356 -0.16066064 0.07636942 0.17819789 -0.0027238962 -0.45883036 -0.18058985 0.13971162 -0.03372591 0.36727574 -0.41234088 0.08732911 0.44872078 0.04554638 -0.021819305 -0.17274322 -0.11035342 -0.03384855 0.11280949 0.3660995 0.43761712 -0.14552875 0.112843856 -0.028557573 -0.4580154 -0.20415229 -0.40102786 0.13544986 -0.3612634 -0.04220901 0.1528737 -0.1910354 0.26968542 0.19859964 0.04482092 0.21121615 0.34302443 -0.251681 0.19469841 -0.22338833 0.3502135 -0.068257235 -0.29364368 -0.25551394 -0.19451706
予 -0.1502833 -0.2955945 -0.40017334 0.2415741 0.20669441 0.0953095 -0.7232729 -0.0815536 0.44322976 0.2188542 0.28436106 0.20723848 -0.2998044 0.576655 0.3133897 -0.04516225 -0.062165912 -0.0042626103 0.28639966 -0.08383445 0.26663855 -0.17357548 0.026484039 -0.34301564 0.21068531 0.5223212 -0.12470049 0.2959901 0.12460657 -0.34518367 -0.29678324 0.13575177 0.22743519 -0.46595097 -0.027325403 -0.06179924 0.27657887 0.5305385 0.09107519 0.17586419 -0.07070791 0.1252114 0.049487844 0.3232153 -0.27149332 0.017616363 -0.18430752 0.1971208 0.3540419 0.1186997
色 0.36137477 0.013746465 0.31238395 -0.05249195 -0.45019734 0.044587214 -0.08495107 0.22771148 -0.09660856 0.023722589 -0.045680102 -0.17302884 0.5933927 0.20972429 0.01440327 -0.2943027 0.10651075 -0.06866964 -0.19174516 -0.004551367 0.3338074 0.036648672 0.012798198 -0.22031318 -0.303118 0.52650464 0.53442824 -0.028136868 -0.3214307 -0.027481822 0.16539331 0.23078513 -0.15994653 0.03433024 0.10607138 0.18849024 0.5117043 0.0818228 -0.15529194 -0.19347788 -0.06050114 0.24845953 -0.057804164 -0.71292704 0.11053427 0.06545628 0.69349396 0.5240578 0.2971568 0.13648824
友 -0.31223902 0.7364986 0.037388347 0.58475184 -0.1787272 0.14941442 -0.17302854 0.068706386 -0.12199489 0.23295695 -0.46751237 -0.14657341 0.2785225 0.21833472 -0.39972144 -0.4602184 0.10798545 -0.04860778 0.012190835 -0.123491324 -0.018878533 0.7900765 0.25671697 -0.15896788 0.12488755 0.4701362 -0.3768833 -0.07222851 -0.074303396 -0.013258 0.05549947 0.28156906 -0.13424638 0.8805738 -0.05952269 0.36075103 0.10196626 0.5499385 -0.4095523 -0.0733037 0.29159138 0.005140489 -0.12973693 -0.21711867 0.26530623 -0.24902824 0.20228332 -0.2834392 -0.42566118 0.1623414
成 -0.17673235 -0.20812953 -0.007688828 -0.27582088 0.112693116 0.10995848 0.14415686 -0.18624821 -0.1452189 -0.19902062 0.30152562 -0.17845437 0.10808771 -0.1994094 0.18067876 -0.23401994 -0.07643598 -0.039854165 -0.54151946 0.014945211 0.3100116 -0.06919665 -0.29795846 0.25992733 -0.29216665 0.5480453 0.14650875 0.2189975 -0.1562104 -0.21380042 -0.017362911 -0.16326897 -0.063975275 0.45741495 -0.13527541 0.11961388 0.3174256 -0.4805279 0.22385152 -0.5805124 -0.17308126 0.072604924 0.0553428 0.073879085 -0.012738738 0.029030312 -0.07290814 0.118376285 0.19623841 -0.45487496
远 0.54786754 0.059258893 0.27639407 -0.484794 0.07299368 0.048478793 0.16955896 -0.12059203 -0.20210515 0.2770445 0.088506244 -0.22441982 0.123796634 -0.505145 0.10721274 -0.017456207 -0.023457624 0.1247664 -0.033013407 0.005965591 -0.115966596 -0.02401244 -0.19212545 -0.3341246 -0.20208132 0.5791942 0.08209564 0.0033308761 0.2692515 -0.23669226 -0.14101146 0.13191159 -0.1617643 0.24226609 -0.123809524 -0.18358521 0.05831582 0.16147994 -0.053960305 -0.13635497 -0.12624238 0.1551087 0.1637287 0.21687266 -0.20786515 -0.41441837 0.06384186 -0.30476776 0.259405 0.2890155
上 0.042177316 -0.114360146 0.08680984 -0.008448012 -0.22874151 0.2015988 0.010343669 -0.2892528 -0.45968646 -0.11421367 -0.027849764 -0.059949264 0.24722238 -0.08111618 0.24637066 -0.38610688 0.082056664 0.029663399 -0.02829519 0.07451029 -0.12506935 -0.00621007 0.093309656 0.2223859 -0.31831303 0.45433423 -0.20964804 0.018192112 -0.110843904 -0.4222615 -0.45945066 0.2528536 -0.011305828 -0.02086898 -0.039765842 0.24406688 0.08507421 -0.14450648 0.423264 0.10508601 0.13540629 -0.06872724 -0.5049229 -0.3812826 -0.30608854 -0.18055968 -0.52793974 0.23366944 0.19515277 0.38690358
立 0.054888457 0.22306482 -0.5428974 -0.009548853 0.16088308 -0.21606243 -0.2078682 0.15850732 0.30364248 0.06875312 0.34800866 -0.090932 -0.13938574 0.08070173 0.08689389 -0.6702435 0.1356716 0.18828057 0.058373146 0.19041592 0.44755092 0.6883745 0.016118927 -0.17038962 -0.18389621 0.38907287 -0.115467 -0.11117528 -0.09946308 -0.71898913 -0.07761403 -0.6660423 0.3115981 -0.30223414 0.15029034 0.05629235 -0.27819052 0.05244517 0.3720639 0.22317377 0.22300783 -0.057304773 0.18850973 -0.430464 0.29927668 -0.09215957 0.07839874 0.010075351 0.035678215 0.020537753
今 0.34553376 0.18434656 -0.16448846 -0.3141589 -0.41627482 -0.3552583 -0.05410897 -0.49450868 0.03226106 0.46310875 -0.103469335 0.21279976 0.25788188 0.12826826 -0.057436597 -0.18880537 0.10065772 -0.29977953 -0.38807467 0.13513225 -0.13673756 -0.3980192 0.3597696 -0.18578029 0.22360963 0.44407672 0.22655293 0.13108845 -0.13502945 0.308153 -0.12729177 -0.010571724 -0.064888 0.23223558 -0.016728532 -0.19374792 -0.2724616 0.09276657 -0.13191706 0.083121754 0.0781345 0.067512065 0.024969151 0.4433007 0.27622613 -0.28750193 -0.31198075 0.4684024 0.023497697 0.08906241
张 0.32078505 0.5086452 0.45785072 0.013694157 -0.01656363 -0.13075624 -0.1497098 -0.07020101 -0.37051183 0.4700197 -0.046180632 0.13935617 -0.30109444 -0.33061722 0.05804147 0.34947667 -0.010154632 0.10114937 0.0044557946 0.32853255 0.20344742 0.22230214 -0.064918935 0.036534026 0.1772969 0.71884406 0.29840586 -0.14872013 -0.23867767 0.15927418 0.08609335 0.017030913 -0.06305287 -0.09505638 0.03888938 0.072936386 0.09641827 -0.2776934 0.0653043 0.13845412 0.10384032 0.26202887 0.21053554 -0.016829625 -0.027745465 0.24693263 0.34821457 -0.021207191 -0.30749837 -0.08045963
中 0.34694284 0.29834145 0.5111124 0.27596486 -0.25341326 0.30383092 0.14160779 0.15557165 -0.12929097 0.011757441 -0.06756397 0.06300615 -0.17872073 -0.44783357 0.28638893 -0.65026975 0.3176826 -0.17356572 -0.08427535 0.21966587 -0.2481885 -0.2259822 -0.09927309 0.14604698 -0.44406652 0.40833065 0.0835192 0.018790366 -0.07201439 0.037758756 -0.027323829 -0.0074500106 -0.094645984 -0.13454491 0.18315281 -0.06918564 0.31570286 0.5018755 0.3022442 -0.18003955 0.24052162 -0.24049859 0.4690681 -0.2628898 0.21542673 0.3502572 -0.20193946 -0.057084285 0.26210377 0.32233208
季 -0.43616855 0.16358572 0.046432562 0.27980763 0.15621646 0.3310572 -0.058679342 -0.31277502 -0.23909341 0.3304219 -0.16832721 0.181961 0.40116048 0.07320811 -0.35625502 0.10957428 -0.010518657 -0.041892085 0.09546086 -0.1610851 0.11305284 -0.27326813 -0.5978237 -0.2689856 0.2745446 0.68021697 -0.14446434 0.056778423 0.08307564 -0.033025958 0.36324915 -0.3105933 0.48559728 -0.54834944 -0.26991156 -0.091062196 -0.51070416 -0.44717386 -0.67678005 0.04078781 0.22113684 0.48636183 -0.20339587 -0.3153911 0.31109145 -0.049581327 -0.020470778 0.116638005 -0.112863466 0.26134092
臣 -0.22670498 -0.06816258 0.017688228 0.29560757 0.07575615 0.4188871 -0.45403275 0.071169116 -0.26605824 -0.15037401 0.035636593 0.39886028 -0.09580869 -0.08649868 0.12849414 -0.1604943 -0.13592324 -0.32130778 0.1104357 -0.35140166 -0.15593122 -0.33184 -0.16537856 0.28181395 -0.20660594 0.4558942 0.25870204 0.29762557 0.065766454 0.2188948 0.378811 0.061800584 0.24899523 0.13029039 -0.1561042 -0.09250034 -0.10585666 0.10179044 -0.06001168 -0.3708358 0.07138923 -0.10232218 -0.4239652 0.2352137 -0.29296115 0.091456026 0.12761359 0.33553284 -0.108435616 -0.14096127
贤 -0.070331804 -0.18424661 -0.0025122685 -0.38132167 -0.22578408 0.31888512 -0.30476022 0.21955751 0.03800689 0.2718541 0.29074392 -0.1250943 0.16216764 -0.16681288 -0.14939538 -0.06746774 -0.085242435 0.16713941 0.23807321 -0.009425384 0.2215164 0.084301904 -0.21279277 0.28333062 0.0021173388 0.5557696 -0.19396402 -0.41112953 -0.011904275 0.2845648 -0.027006807 -0.059232466 0.027934343 -0.22647291 -0.24249244 0.014182004 0.13353029 0.28442705 -0.005685903 -0.15049207 0.049486343 0.46052015 -0.3016604 0.04783262 0.70652753 -0.18004899 -0.19226255 -0.1253203 -0.42889658 0.30814064
思 -0.45491526 -0.005746248 0.14392598 -0.41399744 0.1129092 0.18553855 0.36619842 0.44571722 0.03451164 0.43345168 -0.16245697 0.3617129 0.07012134 0.64975476 -0.15862165 -0.43964607 -0.017050182 0.43462098 -0.04501978 0.25398237 -0.12099743 -0.101617925 0.050765462 0.053915266 0.30870628 0.38374534 0.12058697 -0.0063452953 -0.44753614 -0.20072456 0.66773635 0.05029565 -0.43721503 0.3867205 -0.38619876 -0.19114865 -0.2024725 0.34459302 0.11384761 0.3442476 0.12899764 0.34473366 0.100296095 0.049930364 -0.1642251 -0.4396773 0.34636885 0.17678161 0.48748842 -0.095037796
齐 0.7138341 0.13057238 0.07574059 0.25873682 0.19164795 0.06612941 -0.1657689 0.034292564 -0.3955354 -0.10163509 0.39791396 0.31975627 0.3479996 0.020837137 0.04923509 -0.24513651 -0.06469017 0.36849195 0.15552449 0.015644351 0.5007518 -0.005572053 -0.14207636 0.39999977 0.10533307 0.4230829 0.52732277 -0.256882 0.10996551 0.35059482 0.119412586 -0.5426754 0.032169506 -0.2000121 -0.15286978 -0.425447 0.43589953 -0.68772435 -0.49309868 -0.24083884 0.34221667 0.10709338 0.2618927 -0.13238512 0.12143461 -0.24586159 -0.20636734 0.098694414 0.15003736 0.2638966
义 -0.43234593 -0.13031174 -0.15067068 -0.18074135 0.17072192 -0.22369441 0.07421058 0.38053575 -0.28116125 -0.043622736 -0.048133034 0.098600835 -0.107789665 0.15716448 -0.11403623 -0.63346803 0.105812505 -0.17292714 -0.0768654 0.06226471 0.25990966 -0.19235589 -0.49530804 -0.08662371 -0.07372482 0.38822612 0.45245034 0.049852546 -0.016910095 -0.00064447033 0.27755806 0.18490109 -0.16524115 -0.2236179 0.12826374 -0.12626678 0.38228744 0.062244646 0.13731235 0.6327469 -0.023680607 0.2388341 -0.13193752 -0.10571021 -0.34798327 0.15709 0.08957688 0.0026686073 -0.41904736 -0.2615045
正 0.4628497 -0.18827403 -0.05990064 -0.08384253 0.0063641085 0.3819234 -0.49076536 0.08911943 -0.26132756 0.32617605 0.08942608 -0.07998082 0.102710985 0.3340186 0.55214953 -0.19217837 0.3961298 0.115296714 -0.31045413 0.2277932 0.16694698 -0.2140687 -0.3329638 -0.32442155 0.117626175 0.45289978 0.09587306 -0.48112667 -0.02214512 0.4856552 -0.0123141175 -0.13146175 0.043415137 -0.40214494 -0.06241749 -0.101646245 -0.49244094 -0.44952902 0.23913759 -0.10770646 -0.07598442 0.08025526 0.56255436 -0.15403087 0.1941271 0.22550762 0.70572025 -0.39305001 -0.2758337 -0.1439207
命 -0.038263302 -0.5151936 -0.21023396 0.03235222 0.113099314 0.54043764 -0.16114633 0.21211469 0.04238429 -0.27249587 0.2436319 -0.13057865 -0.015284602 -0.30394232 -0.07070423 -0.21455565 -0.09840723 0.48344642 -0.094517924 -0.25301194 -0.3800479 -0.45484722 0.35841468 0.47829446 -0.46445984 0.4662695 0.81023335 0.11378964 -0.43509933 0.011202181 0.0032422608 -0.10614528 -0.19630992 0.16047879 -0.27640325 0.32216343 -0.0047004404 0.09839195 -0.0014322241 0.8048366 0.14886732 -0.0002955104 -0.34037855 0.028560754 0.034942374 -0.08895335 -0.093789555 0.16108343 -0.070379935 0.08802001
曾 0.1543821 0.22800983 0.24816269 -0.23549096 0.005808942 0.19635406 -0.042904206 -0.04825621 -0.16566922 -0.2341269 -0.12592548 -0.09450216 0.1783179 -0.16728672 -0.43115532 0.27848008 0.0200843 0.20162219 0.27457806 0.086874776 0.37930134 0.017042313 -0.3006218 -0.03685213 0.094101906 0.6784193 -0.15902218 0.04844411 -0.08963705 0.08683986 -0.21951248 0.32032824 -0.17670237 0.02235891 -0.39729568 -0.086149305 0.15056105 0.42654988 -0.6812104 -0.02697981 -0.07427545 -0.07865347 0.08934498 -0.1281501 -0.021436647 0.39793548 0.19613485 0.5660649 0.14846276 -0.22239411
伯 -0.17747015 0.14912263 0.13224551 0.104154766 0.14891192 0.27300525 0.081662424 -0.03965942 0.01721186 0.335453 -0.009820412 -0.21355706 0.1630746 0.05641156 0.11792505 0.21302268 0.21572906 0.030532131 0.03315608 0.19217633 -0.22654673 0.22384553 -0.32979614 -0.21109496 0.06892652 0.68492806 0.48891205 -0.12140309 -0.1603761 0.29201424 -0.06653146 -0.2089684 0.030750223 0.0592449 -0.52154696 -0.54491633 0.39804336 -0.13389187 0.07523665 -0.4902915 0.71645105 0.24290182 -0.008157159 -0.28608048 -0.54172695 0.2520637 -0.67728806 0.16262802 -0.012400757 -0.2380023
门 -0.04538966 -0.025479319 -0.25895444 -0.098617285 0.20573315 0.31534487 0.21756926 -0.12102938 -0.20109735 -0.17215553 -0.21760987 0.27308494 0.09755955 -0.13108301 0.034743194 -0.14421593 0.3390159 -0.37609372 -0.091061294 0.050727915 -0.3260723 -0.03345086 -0.17704888 0.60983676 0.37140596 0.6488335 0.30453587 0.098525144 -0.38383597 -0.13394095 0.3432051 -0.14449663 0.09966659 -0.4905792 -0.019261671 0.20804581 0.0007319066 -0.03505036 0.7517814 0.7317739 0.38183248 0.17243451 0.29882312 0.35718182 -0.06657949 0.4266386 -0.28946665 0.08099438 0.15176389 0.20989837
敢 -0.044026814 0.2972159 -0.42305705 -0.38069788 0.08199086 0.5624195 -0.4102568 -0.34395102 -0.11808302 0.35878545 -0.5170361 -0.06381354 0.40810406 0.16156393 -0.35260764 -0.23559538 -0.113364644 -0.23533875 -0.2859099 -0.082658075 0.020930415 0.047396604 -0.44856742 0.15286374 -0.22331013 0.50766915 0.21166377 -0.19911596 -0.337436 -0.2686432 -0.15136303 0.23570353 0.25371116 -0.21725589 0.010708494 0.24856488 0.29387236 -0.16584675 -0.2564467 0.46339568 -0.10734664 -0.3598765 -0.50284076 -0.20286615 -0.50103617 -0.02881353 0.034630638 -0.11605321 -0.48400348 -0.31906745
犹 -0.24099684 -0.004870139 -0.28516072 0.06049059 -0.5992207 -0.21665302 -0.34655163 -0.5030478 0.22761697 -0.52077353 -0.091937184 -0.059792865 -0.092642374 -0.17610312 -0.29405314 -0.06175594 0.04637699 0.20917456 0.35555646 -0.110338554 -0.019203007 0.078382514 -0.37357724 -0.078966424 0.12523557 0.60482943 -0.24700901 0.28131518 -0.7894296 0.14975905 -0.07687993 -0.6301643 0.43618917 -0.13912955 0.058796786 -0.48703772 -0.12538227 -0.08392338 0.16736121 -0.15969281 0.5377068 -0.2480754 -0.2824994 0.01008522 -0.1739999 -0.010251205 0.24637827 0.040638685 -0.05320407 0.16447939
生 -0.35621348 -0.48064917 -0.4511762 -0.15968631 0.009274308 -0.03532817 0.020704964 -0.29266864 0.20876552 -0.18710713 0.024178214 -0.4080458 -0.49747047 0.06092993 -0.123788536 -0.25901344 0.29286265 0.15347251 0.02190346 -0.025409915 0.21609867 0.05043933 0.3003374 -0.16044216 -0.5683782 0.51315135 0.19716214 -0.3389768 0.080889024 -0.0430393 0.07536833 0.19579983 -0.1016728 -0.2455606 -0.29280758 -0.0914799 0.022066955 0.25617796 -0.39465475 0.40196183 -0.12204807 -0.25060272 0.14991476 0.17300388 -0.2693602 0.060983364 -0.1623794 0.077190846 0.05763461 0.1990562
日 -0.33498654 0.124467045 0.23620075 -0.04736909 -0.17396796 -0.31379315 -0.32267526 0.2318821 0.096919924 0.12094962 0.29916498 -0.15719445 0.27950862 0.17314246 -0.21884497 -0.28117326 0.37952796 0.35746258 0.2499574 0.14784351 -0.13474698 -0.34287587 0.16446644 -0.072659045 0.0024190152 0.41014716 -0.11704386 -0.1582373 0.34845024 -0.27994096 -0.16624998 -0.37280145 0.33770922 -0.102568515 -0.1706162 0.02400964 -0.3738086 0.0021746152 -0.19586588 0.2655065 0.039223623 0.17445552 0.16144133 0.042307243 -0.059536275 0.22240335 0.4720303 -0.085056245 0.38744265 0.01687467
敬 -0.550314 -0.038164467 -0.007514987 -0.13747631 0.40784144 0.08348472 0.030230982 0.028403902 -0.5976088 0.41015393 -0.4218752 -0.16421941 0.16668181 -0.07980822 -0.06860136 -0.5060135 0.24280185 -0.0095111765 0.15156333 -0.43484545 0.1843594 -0.10593047 -0.0938519 0.032309018 -0.059814174 0.37243304 0.26253036 0.1267623 -0.039223596 -0.2627434 0.4042966 0.17970756 0.106052265 0.47243586 -0.1168379 -0.21932563 -0.26818877 0.11215823 0.45975602 0.13244805 0.28563774 -0.03289945 -0.30857056 0.07915231 -0.15506749 -0.17836846 0.04708717 0.13791567 0.39414868 -0.07890191
难 -0.39653894 0.391603 0.18930234 -0.13807052 -0.40313077 -0.39479163 0.026504999 -0.16885182 -0.16438584 0.36000782 -0.174625 0.037688907 0.08536912 0.24819769 0.40288603 -0.20538631 -0.16928838 0.21573618 -0.45105374 -0.040403415 0.3164961 0.010938757 -0.15817463 0.28943714 -0.44718996 0.51099336 -0.293153 0.18535717 0.24397229 0.27669692 0.34928325 0.26222345 -0.31444573 0.1598641 -0.2499626 0.08850053 0.07105219 -0.18607438 -0.09406248 0.28629106 0.045413535 0.25183928 0.2373366 0.62581575 0.07946766 0.018489888 -0.16439201 0.109890476 0.12311117 -0.029190578
直 -0.54276115 -0.22116113 0.22986782 0.48425803 -0.4805568 -0.2621807 -0.234661 -0.40559658 -0.46738508 -0.43153268 -0.42041463 0.24020578 -0.21399015 -0.16147752 -0.03367494 -0.31240273 0.27870154 -0.32478833 -0.05574279 0.21474455 -0.114127204 0.18459049 -0.030589871 -0.68005776 -0.020260556 0.44737187 -0.18312946 -0.27296594 0.041673668 0.037185922 -0.19714826 -0.07183533 0.03560364 0.2019296 0.0035395115 -0.018270923 0.29214132 -0.026129501 -0.19986416 0.12438663 0.21116838 0.24151088 -0.20669696 -0.09578737 0.49574742 0.26302227 -0.31148863 -0.057778314 0.04700777 -0.08663035
丧 -0.22562425 -0.18931133 -0.2915384 -0.41193593 0.16555357 0.35928884 -0.5486821 -0.19564651 -0.3532276 0.040260337 0.13730437 0.07239404 -0.009369174 0.5809076 -0.35650963 -0.33907756 -0.15086049 0.23444721 0.02885111 0.38586202 -0.0039339913 0.25164366 -0.41018096 0.19509226 0.13996305 0.34547618 0.015664538 0.42098638 0.06318666 0.11369157 -0.105340205 0.6243771 0.59482116 0.51540077 -0.27261907 -0.008694782 0.115895 0.24955879 0.01115436 -0.20281324 -0.13947275 0.010703987 0.19531323 0.010516888 0.029513147 0.16502342 0.12993921 -0.054703765 0.2477301 0.40988097
说 -0.42782074 0.44711047 -0.35436043 -0.057464313 0.17361258 -0.18616134 -0.16601972 -0.19298558 0.02271116 0.25891086 -0.19230515 -0.0056892876 0.19488484 0.19235076 0.19303481 -0.17072305 -0.24602124 -0.59223276 -0.09424606 0.23048045 -0.11040081 -0.027570516 -0.49052548 0.09305736 -0.22780117 0.5408974 -0.33038965 0.0056505897 -0.22620443 -0.35350522 0.12907556 0.023001434 0.047556736 0.48680812 -0.05982027 -0.032476578 -0.1167936 -0.15759173 0.21341164 -0.23682763 -0.4164198 0.35201445 -0.013758228 0.5574726 -0.0076001645 0.32165667 0.18005726 -0.094196044 0.48613137 -0.45089504
自 0.3953067 0.04778155 0.26798657 0.0501066 0.33002436 0.14861336 0.18037061 0.02868621 -0.2669284 -0.13865958 0.12785812 -0.032935258 0.037517413 -0.38343897 -0.45466495 -0.030390134 -0.1562055 -0.21514474 0.081430405 0.2560633 0.047069844 0.05604228 0.13245091 0.1179156 0.146707 0.534261 -0.00023002444 0.55182844 -0.031559803 -0.3344798 0.041886028 -0.11838214 -0.010730752 0.1731827 0.07408279 -0.14315361 -0.3989186 0.033938378 -0.15763324 -0.4984203 -0.4248024 -0.42306557 -0.6466515 0.4509455 0.32633457 0.14101619 -0.19182883 -0.1729824 -0.029629653 0.16113637
用 -0.19738534 -0.015928935 -0.17730877 -0.07139979 0.11601104 0.14265335 -0.103188 0.06997377 0.5599131 -0.12775216 -0.43750876 0.0051990314 0.18958184 0.34598702 0.26827282 -0.14158824 0.69719064 0.11199357 -0.03375289 -0.021415213 -0.25332418 -0.25983348 -0.107207894 0.1007946 -0.27154312 0.61795896 -0.11445054 -0.41256186 0.22470753 0.15657967 0.039424136 -0.10124576 -0.19749847 0.09485519 -0.0011435716 0.009505667 -0.18451183 0.57428145 -0.1927634 0.017008848 -0.02094246 -0.29663113 -0.22098063 -0.15322012 0.061309654 0.3558046 0.11942942 -0.11465874 -0.09730681 -0.41885507
周 -0.07577639 -0.03531518 0.12992935 0.095795564 0.10373155 0.078329116 0.11187945 0.16885403 -0.36584884 0.16825058 -0.1938551 -0.095536575 -0.11272922 -0.2192513 -0.5682945 -0.14760429 -0.4010836 0.13006338 0.19090849 0.08350089 -0.08375404 -0.033100598 0.07131251 0.16719316 0.36529252 0.50681186 -0.117167756 0.12528916 -0.52988684 0.035234764 0.028523928 0.0640474 0.08132238 -0.5423237 -0.038577832 0.038420327 0.7306083 -0.5006187 0.3645007 -0.25814846 0.28179 0.085530855 0.23797187 -0.11077066 -0.04013233 0.25460544 0.01543439 0.20840819 -0.097737186 -0.035566
颜 -0.084670536 -0.12577315 0.30906987 -0.20863888 -0.16989891 0.47991833 -0.39475888 -0.47172657 0.6427914 0.15407565 -0.078611635 -0.044128615 0.36481777 0.4138863 -0.0724485 -0.13874349 0.14363675 -0.43983904 -0.20483963 0.043184116 0.60930234 -0.22774108 -0.18161573 -0.3212223 -0.05893049 0.47402614 0.1273583 0.10380932 -0.23907375 -0.32137558 0.040191468 0.39104092 -0.30972907 -0.029931435 -0.055071414 0.0037830784 -0.20986792 0.23780824 0.1143983 -0.02728895 -0.2753679 0.032479543 -0.04410304 -0.40910828 0.26871717 0.010853021 -0.07589365 0.14891057 -0.035140187 -0.07167963
年 0.012404914 -0.120248854 0.2223716 0.47420892 0.33423924 -0.044970386 -0.18332373 0.002499034 0.019376114 -0.42326537 0.43498623 -0.4439963 -0.34020814 0.45235607 -0.0821974 -0.3290492 0.11243076 0.0939226 -0.2971855 -0.028209735 -0.5137552 -0.025097864 0.0070355455 -0.12007414 -0.05704521 0.44182882 -0.1382773 0.40318096 0.23121564 -0.40676197 0.2058273 0.13380443 -0.23429622 -0.19327536 -0.10937992 -0.10250117 0.30882555 -0.4413858 -0.5787193 -0.29782957 -0.00024718093 0.21972905 0.20553455 0.43053734 -0.5416598 0.031507447 0.17077024 0.366667 -0.14075749 -0.44552046
告 -0.28571638 0.4128464 -0.40537056 -0.243165 0.15587033 0.07453502 -0.03015793 -0.39262244 -0.2645733 -0.45786268 -0.040105972 -0.17860162 0.433355 0.2070793 -0.10731944 -0.05340733 0.017762996 0.45565557 -0.11181688 0.208812 -0.15816124 0.0687108 -0.04332516 -0.055543892 -0.4633226 0.67944485 0.48359755 -0.5286872 0.24125893 -0.40428668 -0.2020884 -0.6219025 0.516021 0.018172974 -0.38330927 -0.07897101 0.011945623 0.4138114 0.19318083 -0.3813509 0.124026135 -0.12256069 0.11422862 0.04893436 -0.526733 0.060012445 0.011768078 0.09802914 -0.55008334 -0.09485198
十 0.37709877 -0.25026664 -0.2036684 0.13051488 0.12884842 -0.09650451 -0.14114448 0.39590755 -0.062473997 -0.09885251 0.24033263 0.18224134 -0.02413553 -0.09770903 -0.037637137 -0.30497772 -0.07847538 0.099364795 0.57212055 0.3745757 0.053731315 0.065219946 0.14998542 0.4775838 -0.050483726 0.42398888 0.39828387 0.3745225 -0.043232847 -0.1407274 -0.2446613 0.2139797 -0.20103994 0.2660119 -0.17569521 0.18513983 0.19405435 -0.122215174 0.1520921 -0.28750476 -0.27971655 0.31156784 0.040441655 -0.047174133 0.054748427 -0.15700799 0.1368342 -0.09358612 -0.63109154 -0.32760882
怨 -0.31118926 0.06918438 -0.18985802 -0.12370744 0.3447092 -0.26237085 -0.1573924 0.33771896 0.42692396 -0.23373216 0.15327618 -0.18170334 0.10451074 -0.56320477 0.30084652 -0.22162966 0.23548701 -0.1390467 0.041044723 -0.208712 -0.18268774 -0.24999323 -0.36287552 -0.20267849 -0.11712582 0.60597426 -0.17065349 0.22923297 0.69278854 0.021752205 0.091893695 0.073028415 -0.15478809 0.34140396 -0.2626006 -0.40660676 0.17078562 0.22837737 -0.07524115 0.004144785 0.20374572 0.36509785 0.13942519 -0.08283195 -0.47295964 -0.14876908 0.36277178 -0.30683836 -0.03701642 -0.21735124
达 0.33502123 0.17857672 0.14990164 0.1526997 -0.039495617 -0.5544937 -0.2621934 -0.076393634 -0.33632663 -0.043349836 0.016818691 0.23228632 0.21522278 -0.11908559 0.11565438 -0.14702651 -0.033010617 0.004290146 0.5289723 -0.018112253 -0.027396848 0.05595369 -0.09417215 -0.27842817 -0.33348796 0.42419305 -0.028272053 -0.013554269 -0.10327999 -0.07903401 0.25828728 -0.028130937 -0.1397596 -0.058296654 -0.17660344 -0.087773874 0.00442162 0.065738834 0.48379865 0.068214744 0.26447996 -0.30029055 -0.12836249 -0.41768917 0.31862003 -0.23774081 -0.45189333 -0.060422063 -0.49691406 -0.18867195
孝 -0.2689951 -0.2410315 0.43999335 -0.19344349 -0.18964396 -0.06883569 0.32612634 -0.11441598 -0.1607289 0.6722077 -0.46234497 0.21498819 0.12134811 0.23965499 0.06989284 -0.07352804 0.06134424 -0.09248248 -0.2924766 0.17303985 0.116301686 0.28022847 0.33463848 -0.6134093 0.17935573 0.508017 -0.09401228 -0.04266725 0.2636967 -0.052608207 -0.20494923 0.3383983 0.0289981 0.17523138 -0.27053684 -0.19100171 -0.07039779 0.07635631 -0.14648771 -0.015783068 0.60348886 -0.16711023 0.1505115 0.103224985 0.38605168 -0.19295336 -0.1864846 0.08867435 0.1288243 0.23526523
弟 -0.07461386 0.44435495 0.3097397 -0.01203995 0.058724035 -0.062282346 0.2717021 0.112404704 0.039537326 0.31449482 -0.24132615 0.009402396 0.3770546 -0.055630594 0.15907453 -0.02816045 0.25592223 -0.6994706 -0.33153543 -0.047347516 -0.58133495 -0.0547411 0.14386411 -0.3691075 0.29860887 0.6492498 0.07772653 -0.15386936 2.8684008e-05 0.003800172 -0.06948434 0.30030167 0.15577753 -0.06581824 -0.10153471 0.14067759 0.037085883 -0.61721694 0.121672235 0.39671654 -0.11696417 0.21514116 0.35343212 0.65177536 0.12597829 0.54109836 0.20660579 -0.1346001 -0.1277878 0.16920239
至 0.21252151 0.24252485 0.04606815 -0.07900569 -0.3495621 0.12604636 -0.25663257 -0.024582384 0.12851994 0.25934845 0.52132255 -0.41201365 0.4551717 0.17898573 0.17850439 -0.13288383 0.22978535 0.1235042 -0.09892515 0.30797234 -0.36198053 -0.52766305 -0.38250422 0.16970941 -0.4423516 0.52082485 -0.15130924 -0.09910511 -0.05099055 0.16780221 -0.06129984 0.23375031 -0.27147183 -0.57521147 -0.06608537 -0.022228798 0.1381425 0.08382261 -0.4284935 0.1764888 0.13606802 -0.34591055 0.4163641 -0.119472206 -0.16558032 -0.21070412 -0.15488759 -0.23056965 0.30701524 0.1287333
先 -0.4015355 -0.074229844 0.08978974 -0.5030738 0.41041923 -0.2515834 -0.0018677848 -0.06389184 -0.25311327 -0.36736974 0.34963343 0.22470735 -0.0863777 0.04359341 -0.47029877 -0.16024512 -0.08545617 0.22656156 -0.2564413 -0.32505476 -0.07347742 0.18916525 -0.053410277 -0.21924283 -0.102117434 0.651169 0.3019785 -0.50276387 0.07439443 0.4197605 0.20370147 -0.12066551 0.13709235 -0.44388378 -0.11903794 0.30308867 0.049374323 0.0074884873 -0.22939625 0.10905971 -0.11102625 -0.21554948 0.09625893 0.001957173 0.22321175 0.32271615 -0.20042627 0.27330136 -0.06479401 -0.035747726
师 0.20988797 0.36005744 -0.30182323 0.41379678 0.0467123 0.02292977 -0.09948247 0.30098957 -0.0930265 0.0578449 0.13386174 0.043991625 0.14431757 -0.4517563 -0.24103029 0.18683374 -0.37320766 -0.009309928 0.28143594 -0.3835612 -0.12200167 0.26366463 -0.11128045 0.10695805 0.47571546 0.6604491 0.30465338 -0.21731023 0.19917658 -0.11067048 0.23033401 0.23132965 0.033046536 -0.08248487 -0.44791925 -0.031713936 0.073494576 0.014218604 -0.342121 0.03970385 -0.14119156 0.042330418 0.5997481 0.35797742 0.19436587 -0.3945942 0.113335185 0.62738097 -0.24802752 -0.091327585
女 0.13008414 -0.12950225 -0.0015281051 -0.062446587 -0.15924777 0.07944995 -0.2946737 0.4576446 0.17818165 0.3763626 -0.3023017 0.10685011 -0.058408543 -0.025426408 0.31979012 0.3396538 0.34505224 0.23451604 -0.09432639 0.328765 -0.035451673 -0.34316424 0.010903079 -0.3266903 0.23908001 0.69077027 -0.11102736 0.04983383 -0.05803138 0.15946925 0.03133612 0.09687157 0.13889776 -0.24340244 -0.13143304 -0.20513989 0.24666767 -0.3966762 0.08705949 0.07276295 -0.20211683 -0.24045117 -0.28161508 -0.06316337 0.24815674 -0.062172398 -0.25558928 0.050957926 -0.004901652 0.43672708
多 -0.45632607 -0.4238892 0.48980004 -0.1906285 0.3028227 0.046448432 0.04867974 0.52368635 -0.23884834 -0.010532196 0.019063493 -0.2908631 -0.0066998587 -0.42901433 -0.18587488 -0.4185786 -0.075134285 0.07156938 -0.17725357 0.08708305 0.076161765 -0.30280775 -0.028094968 0.049825046 0.10493825 0.4137851 -0.28455094 0.10322469 -0.22247915 0.15193789 0.26101464 0.2952294 -0.056828007 0.615527 -0.17205411 0.24645072 -0.2219175 -0.22169101 -0.19223395 0.15343678 -0.12923363 0.07783161 0.22839561 0.16366608 0.6640716 0.46098405 -0.22799475 -0.21058354 -0.09179676 -0.038381062
忠 -0.15636118 -0.14337327 0.20717789 -0.14840394 0.16537458 -0.00033908343 0.19732608 0.35420826 -0.0022013863 -0.18695755 -0.6106875 -0.21784693 0.29498497 0.032980148 -0.05754308 -0.3539698 -0.008938056 0.0114499135 -0.05594516 0.20627114 0.62593913 0.020629788 -0.18434182 -0.102947555 0.28262293 0.44749364 -0.2509738 -0.0532324 0.14420974 0.073680125 0.2631636 0.2535366 -0.28629324 0.22126207 -0.4562751 0.01519865 -0.0026398893 0.5045457 0.05730167 0.10668068 0.42426986 0.054840807 -0.18451852 -0.1599139 -0.14499119 -0.41228545 0.53188384 -0.24978544 0.08246507 -0.7603663
四 0.6596264 0.23638776 -0.09416984 -0.12902528 0.084419526 0.31757715 -0.14387599 0.3279854 0.1373436 -0.28834468 0.24864116 0.04233301 0.27628 -0.37776428 0.0142266685 -0.36483338 -0.38146615 0.018490287 0.2707947 0.09578308 0.14353605 0.14010982 0.10015635 0.121157184 -0.43943253 0.44592524 0.2917534 -0.1044338 0.027040232 -0.17908442 -0.036343984 0.14080207 -0.102072276 0.16509539 -0.019662611 0.017222198 -0.026205996 -0.12218821 0.105938904 -0.08053456 0.08307217 0.257829 0.12485678 0.15121728 -0.33643624 0.049277395 -0.20346203 -0.5039217 -0.375533 -0.71699554
疾 -0.09638447 0.051910426 -0.31145838 0.12760188 0.02748305 0.16445307 0.4381608 -0.14536022 -0.53282255 -0.18790688 0.26448435 0.35861757 0.25943276 -0.03229343 0.32625142 -0.14917256 -0.00042678794 0.034001004 0.16467896 0.03937623 0.050450232 -0.146327 -0.096907414 0.12546724 0.18703087 0.51966816 -0.02773647 -0.20958357 -0.29382572 -0.037284207 -0.18007834 0.16623199 -0.07028746 0.41096422 -0.21129087 -0.07455863 0.07973304 0.31839138 0.117343776 0.23425235 0.039088327 -0.32386822 0.08962264 0.043450303 -0.055387754 0.73185474 -0.056684013 0.3033303 -0.23819113 0.32361287
服 0.1850618 -0.43959904 0.3070939 -0.2591314 -0.0034172738 0.013663216 0.11364859 -0.32154384 -0.4763082 0.17670031 -0.6260745 0.22464813 0.6399092 -0.42982325 -0.27663118 -0.42279896 -0.085551925 -0.33732393 -0.16164473 0.10791957 0.38420886 0.034219142 -0.14699368 -0.3960352 -0.09642372 0.46141827 0.37454352 0.071533084 0.11257223 -0.2879611 -0.12941629 -0.5526516 0.74174386 -0.18879633 -0.0278759 0.10329044 -0.15231042 -0.97348976 0.103263475 0.007995653 -0.059793103 0.09169 0.30142903 0.0028235936 -0.06799851 -0.25108308 0.054891665 -0.26601154 -0.2452006 0.08195116
氏 -0.3425855 0.113057405 -0.014607442 0.18556641 0.02358987 0.19825314 0.1587295 -0.2717141 0.22283548 0.18635213 -0.39390773 -0.05099349 0.12380294 0.13914743 -0.23740608 0.041331224 0.1282785 0.08390412 -0.062090956 -0.34501728 -0.026906261 -0.20196079 -0.38307315 -0.113858074 -0.026903452 0.6842554 0.03234236 0.35256955 -0.07249673 0.20797934 0.63627213 -0.18363501 0.41810614 -0.25037265 -0.6494761 0.012719043 -0.0971294 -0.883067 -0.20955868 -0.33663008 -0.072916076 0.25183442 -0.4377252 0.43391123 0.16205151 0.21912926 -0.536044 0.11032677 -0.006618708 -0.227958
冉 0.29555866 0.22620924 -0.15724331 0.043391652 0.2988611 0.11000321 -0.060187496 0.10278335 -0.14283462 -0.05443039 0.03194846 0.5309421 -0.24483784 0.10196502 -0.14986247 0.34381777 0.3022643 -0.24624033 0.4895281 -0.22041093 0.043875214 -0.104450576 -0.020420127 -0.068235114 0.13275611 0.6705057 0.23292302 0.22831316 -0.0075637135 0.09581811 0.05459737 -0.22635786 0.113885105 -0.017927129 -0.48879087 -0.27974403 -0.29981765 0.050387137 -0.2920939 -0.5544401 0.1674791 -0.20261985 0.051697727 -0.47460032 0.3611652 -0.037104722 -0.1726758 0.078558676 0.12394009 -0.19059928
将 0.016766809 0.24951439 -0.07172605 -0.1521492 -0.29134446 -0.022096183 0.030476697 0.17529817 -0.09054298 -0.333198 0.039794486 0.24163227 -0.013395867 0.24012719 0.10091291 -0.2780986 -0.1324979 -0.09371865 -0.07147697 -0.03221071 -0.26775298 -0.11888988 -0.40208364 0.1563342 -0.21630399 0.4742648 0.4305497 -0.03159399 -0.009625929 0.58585036 0.5317489 -0.16636164 0.20270318 0.05902747 -0.43797183 0.37049878 -0.13076107 0.382632 -0.3124535 0.52725494 0.22085708 -0.2575053 -0.114557035 0.48615563 0.60896426 -0.05504646 -0.3410307 -0.047668785 0.30352584 0.52864677
士 0.25817597 0.16163118 -0.39333078 0.30683613 0.30944154 0.0026731978 -0.17783464 -0.36302623 0.07472897 0.50351954 0.14848958 -0.3542091 0.44626895 -0.27312756 -0.15913631 0.04348196 -0.60015696 -0.18000537 -0.101140656 -0.16680534 0.15091692 0.06332308 0.41293052 0.13838693 0.110285915 0.5727514 0.24409649 -0.10837497 0.074108906 0.11030111 0.07688526 0.17263877 -0.37434277 0.25606441 -0.27953082 0.24372001 0.511517 0.35308412 -0.06398028 -0.07052651 0.2423017 -0.12834623 -0.000561114 0.094653994 0.4579336 0.1594857 -0.29494542 0.22280182 -0.15005356 -0.28950948
丘 0.43990058 -0.0002612871 -0.43574637 0.42255118 0.12624581 0.25368175 -0.31187707 -0.47047663 -0.036826495 0.031226214 -0.11542152 -0.43549132 0.33392766 0.083026804 -0.41327372 -0.05847561 0.17301464 -0.42598325 -0.14746253 0.08285827 0.09330167 0.18998173 0.22026421 0.14685151 0.12360903 0.56902194 0.023713231 0.5716941 0.09333307 0.19750622 0.5512386 -0.04599042 -0.14621592 -0.05132144 -0.07107876 0.16483103 0.02515463 0.21102427 0.20468873 0.6561186 -0.273405 -0.2277014 -0.15070294 -0.15360186 0.055101186 -0.044643063 -0.53782654 -0.18160178 0.031217935 -0.21921887
身 0.117310874 -0.20574604 0.34503135 0.4458152 0.0020332308 0.35869297 -0.24237739 0.27249452 0.33536923 0.29343495 0.013875151 -0.29740965 0.14763835 -0.17648318 0.25455946 -0.44476116 -0.09467392 0.23195346 -0.40523857 0.076393045 0.2933642 0.40574318 0.24711129 0.4544485 0.35181975 0.41219202 0.44442412 -0.38918883 0.39698225 0.54378396 0.14783408 -0.5906086 -0.16485062 0.46588334 -0.16222353 -0.071299404 -0.38574663 0.28784427 0.25752917 -0.20458664 -0.47332516 -0.47828853 0.72618663 -0.4875518 0.019419305 0.18413192 0.1253864 0.1310154 -0.05017824 -0.32079315
入 0.58664626 0.5330096 0.07668624 0.21184929 0.08039761 0.44693673 0.46339235 0.33405876 -0.086763136 0.20252472 -0.19464168 0.7229601 0.054903146 0.20408513 -0.006037899 -0.31762818 -0.399534 -0.11236967 0.0036832958 -0.065301485 -0.2435127 0.092788056 -0.567925 0.48246494 0.075580925 0.5095921 0.13345963 -0.5409973 -0.19343112 -0.045187157 0.053981535 0.22386625 0.04555066 -0.18864961 -0.15945119 -0.13208382 0.42842907 -0.13793056 -0.24926408 -0.053648375 0.5007774 0.106454656 0.060989063 0.2454171 0.14852439 0.0013007402 -0.013339295 -0.14370939 0.32567686 -0.024345407
志 0.3032218 0.22611636 0.42662576 0.23358147 0.23279448 0.29405788 0.13314068 0.2313706 0.23773189 0.057650305 0.18095544 -0.56971544 -0.0105103515 -0.18092887 0.060751375 0.01139772 0.1422747 -0.11766989 0.06393481 -0.020826671 -0.25576004 -0.041395597 0.04602115 -0.05232817 0.29745275 0.57619494 0.080022655 -0.03911662 0.10811583 -0.32290488 0.038413554 0.16005583 -0.37004954 0.3508061 -0.20889862 -0.75332546 0.5123083 0.2076086 0.21477923 -0.04204886 -0.28088138 -0.27502257 0.19757248 -0.065427326 -0.49549624 -0.01756314 0.5078908 0.013608104 -0.28438807 -0.59761053
耻 0.1281069 0.3400275 -0.58942497 0.20674287 0.40907684 0.034498867 0.007828263 0.11614156 0.59594214 -0.20732675 -0.16273701 0.017199501 0.5017448 -0.44696224 0.18834451 -0.6878099 0.21405408 0.11771464 -0.37791723 0.5638249 0.3442741 0.048162058 -0.09261778 0.2698044 -0.29277715 0.29987013 0.19210728 0.5666301 -0.18373281 -0.12714215 0.15736087 0.45681274 -0.11617522 0.27560893 -0.17845899 -0.4024925 0.2995773 -0.079116814 0.023441786 -0.029940268 -0.5139842 0.077621326 0.04984046 -0.29721257 -0.3434891 0.46705863 0.04600742 -0.3696946 0.23876812 0.0665651
失 0.36303374 -0.5614685 -0.16043262 -0.26869762 -0.2006443 0.19059685 0.06768265 -0.11361725 -0.28513664 -0.063148 0.25425526 -0.5357423 -0.16936651 -0.5323042 -0.19623807 -0.39525348 -0.19990022 0.30669162 -0.19059402 -0.01941967 -0.045016218 0.20733632 0.023083692 0.19566426 -0.028138777 0.58011484 -0.0957821 0.46522924 0.305788 0.028625565 0.15146752 -0.13302736 -0.10440449 0.31353638 0.05886902 0.14740768 0.08128326 0.07171537 -0.07215826 0.24032283 -0.109683394 0.058266297 -0.11855132 0.052013174 -0.3792353 -0.09662941 0.2793913 0.52449495 0.042683184 -0.014733448
安 0.14070383 0.14980292 -0.08396608 -0.023330253 -0.19105913 -0.6079891 0.093173854 0.031337373 0.108633384 0.20024127 -0.5970329 -0.10432491 -0.6760906 0.16238251 0.19287363 -0.36553153 -0.050674506 0.32708406 -0.16001613 -0.049416143 0.24053967 0.10424076 0.29121324 0.23123221 0.26494345 0.46667132 -0.013889467 0.4551179 0.22194394 -0.1663074 -0.3784479 0.10057151 -0.19651088 0.46039844 -0.10031764 -0.22599617 0.2538777 -0.30180383 0.071753256 -0.17930269 -0.534651 0.53083664 -0.39234078 0.23816434 0.48525706 0.46041495 0.010921833 -0.544428 -0.16499417 0.18123944
富 -0.559342 -0.38608554 -0.43982655 0.14205682 0.5884127 0.24168473 0.10640235 0.080535494 0.28694713 0.1693462 -0.34556192 0.08958099 -0.32196215 -0.018174183 -0.20767692 -0.3520521 -0.30993003 0.1926968 -0.025244085 0.14378877 -0.22655581 -0.033592325 -0.19191855 0.29864413 -0.17320815 0.43773517 -0.066041574 0.28962693 -0.048214514 0.46002606 0.06323872 -0.22471309 -0.2226439 -0.4010625 -0.24263732 -0.0014123977 -0.08509371 -0.24849413 0.31318557 -0.21950169 -0.07813514 0.15434471 -0.07506218 -0.33894998 -0.14529271 0.22198574 0.16776815 -0.15581794 -0.06832434 0.37364864
赐 0.32921878 -0.15214857 -0.5199539 -0.14676203 0.22291349 -0.37245446 -0.6081698 -0.5719175 0.21352167 0.2842996 0.6308965 0.06580561 -0.16965142 -0.029600931 0.28509226 -0.007996227 0.37845886 0.044846185 -0.12368626 -0.14910923 0.20211391 -0.05579703 0.20625815 -0.037319746 -0.28849685 0.644684 0.47851396 -0.20602685 0.3234285 -0.07217608 0.002330105 -0.27996978 -0.07284877 -0.29950547 -0.021662164 0.10659381 0.2204083 -0.7208372 0.1486643 -0.32029486 -0.09277684 -0.3635527 0.3797026 0.18735795 0.14468743 0.18474814 -0.09031186 0.010523546 -0.24348995 0.5985204
患 -0.016626732 -0.07726562 0.1033289 -0.31210384 0.058105048 -0.22862121 0.15539005 0.34423107 -0.04382758 -0.22325522 -0.1939432 -0.55295646 -0.45121107 0.2393969 0.4785697 -0.36021328 0.17878419 -0.35799316 -0.1754838 0.11074052 0.16287158 0.26650575 0.15869902 0.31363204 0.123859346 0.69536024 -0.29745007 0.5765806 0.24906887 -0.077881545 0.10329495 -0.51189625 0.4613167 -0.20353372 -0.13673389 0.07870823 -1.0017349 -0.3382657 -0.4110902 0.30580816 0.14329444 0.20828687 0.25354236 0.11465971 -0.4330761 0.1404699 0.6417806 -0.025755366 -0.32993263 0.24619097
百 -0.4029463 -0.09145662 0.059261553 0.27243066 -0.6405254 -0.14021541 -0.019973017 0.12904355 -0.15031095 0.20554802 -0.37852567 0.1731151 -0.48227066 0.2041236 -0.4099865 -0.23992053 -0.37780732 0.46172756 0.3707088 -0.014799271 -0.014425109 0.06547203 0.18681695 0.004300939 -0.14274149 0.43036634 0.3487368 0.15081373 0.41076913 0.14096367 -0.03272638 -0.0915744 0.007560863 0.55284035 -0.21728864 0.08872325 0.20444918 -0.33276165 0.395805 -0.29231864 0.3154575 0.35433435 0.052250706 0.3510102 -0.5114443 0.6435094 0.22451228 0.0029385148 0.21182765 -0.12478994
回 -0.22755897 0.43662104 -0.008695742 0.05264676 -0.15353313 0.346726 -0.7938854 0.060831226 0.38608763 0.056082502 0.1684812 -0.0029303695 -0.41595104 -0.055596996 -0.4428279 -0.0042832326 0.67863333 0.22607668 0.050936386 -0.060059886 0.35646382 -0.48108274 0.013521137 -0.057866216 -0.033617124 0.602888 -0.22417003 -0.17926255 -0.07468021 -0.04529146 -0.20515698 -0.1926847 -0.11713215 -0.43998146 0.13071875 0.014402696 -0.05966807 0.08725954 0.14493579 -0.24200079 -0.2851974 -0.23212337 -0.08938157 -0.11101877 0.124967724 0.318315 -0.23815478 0.13513017 0.078863144 -0.089399375
宰 -0.20294058 -0.014624317 0.49896654 0.32440653 -0.12789567 -0.0007527529 -0.38506997 -0.08393902 -0.15158126 0.3114529 -0.410818 0.3961586 -0.24391855 0.8881702 -0.12688781 0.25249514 0.4000584 0.30152094 0.2986057 -0.18243507 -0.6740257 -0.2573181 -0.38163385 0.1984633 0.450444 0.7097255 0.28371492 0.102559686 0.32765487 -0.7630746 0.17646748 -0.53579766 0.3395315 -0.33376825 -0.33727467 0.08390279 0.4521825 0.13358805 0.1964383 -0.17026861 0.44070628 0.06055401 0.03279378 0.115114525 -0.41409644 -0.0835709 -0.083119206 0.29388428 0.40916264 0.39557496
朝 0.0507048 0.042373188 -0.4152618 0.049467776 -0.1806254 0.38744313 -0.014540101 0.07866581 0.48045862 0.1589575 -0.3222937 0.5545472 0.24787216 0.042204555 -0.122398816 -0.09432695 -0.31293803 0.42852718 0.26340395 0.15880364 0.061689164 0.38568348 0.2246332 0.15196396 -0.033111352 0.481389 -0.1257889 0.12421754 -0.3281007 -0.19935277 0.14679785 -0.57937634 0.01785418 -0.2575904 -0.51160514 0.5126983 -0.36841568 -0.2554947 0.27128693 -0.005803144 0.5166455 -0.18594523 0.7971834 -0.28745776 0.17116868 -0.14104587 -0.276797 -0.20718819 0.023133239 0.3549199
莫 -0.20057406 0.104058236 -0.4942885 -0.58361995 0.07136236 0.015585608 -0.5193346 -0.12869881 -0.30838376 -0.15253544 -0.3555213 -0.35420012 -0.16160157 0.17665236 0.6726334 -0.36794174 -0.11244671 -0.17101315 0.23111627 0.41513726 -0.61837506 0.15903 -0.3430185 0.23325631 -0.033895697 0.45546943 -0.13075307 0.11278222 -0.35433492 -0.047609843 -0.0847531 0.295193 0.25493565 -0.22968026 -0.004758766 0.037077155 -0.14464961 0.12992498 0.2648354 -0.5133806 -0.079048924 0.08799271 -0.3536481 -0.26350522 -0.15939654 0.13589755 -0.15901302 -0.0349829 -0.4433409 -0.32810786
若 -0.106570736 -0.12439203 0.01690977 -0.050017513 -0.30998337 -0.19242366 -0.05251211 -0.3927876 0.25663838 -0.13896766 -0.16434906 -0.4314946 -0.22217163 0.34682807 -0.06916882 0.046218853 -0.20150213 0.1695539 -0.30450824 0.053795278 0.1747029 -0.33686018 0.21008931 0.2815654 -0.35969055 0.62899595 -0.7165939 0.095832214 -0.02926392 0.1814458 0.5247385 0.20473726 0.114464715 0.34963864 -0.30216435 -0.20207372 0.57308054 0.061485812 -0.59538954 -0.3297143 0.087934494 -0.4434871 -0.32840395 -0.17024788 0.23144235 0.5999448 0.5625307 -0.005441295 -0.13521259 0.2703162
云 -0.096937604 -0.050345078 0.49720404 -0.034051806 0.09562583 0.18383805 -0.28003427 0.5156739 0.44759095 0.023976274 -0.040034495 0.42340872 -0.24344492 0.60223526 -0.47386605 0.17332229 -0.16133213 0.6988706 -0.34413686 0.047279514 -0.25970915 -0.2461681 0.41147286 -0.92811406 0.23201807 0.8344023 -0.55118006 0.15554184 -0.10330836 0.08237166 -0.39178643 0.67776895 0.40233633 -0.70545536 -0.5581509 0.6730594 0.38553452 -0.23015025 0.0844375 -0.0026272396 0.3844642 -0.32097855 -0.38693073 0.13086621 0.19160709 -0.4397235 0.99019283 0.034140434 -0.060644142 -0.1218494
