1352 100
， -0.03207449 0.0063478188 0.014288447 0.11241164 0.1494329 -0.030528218 0.05284685 -0.014571033 -0.0048268167 -0.07759745 0.0382605 -0.106767625 0.0018795031 0.1159464 0.024835575 -0.0798231 0.05852851 0.05173031 -0.076982856 0.10171184 0.005771574 0.07638782 0.05349181 -0.032639854 0.063098826 0.026221897 0.022906704 0.021701457 -0.043431003 0.0036828273 -0.15063673 -0.04851637 0.070587724 0.06944804 -0.0005933844 0.025922222 -0.0077290875 0.045875814 -0.0302203 -0.15760137 0.013199617 -0.056966476 -0.023298515 0.03411216 -0.06424736 0.10977414 -0.09516798 0.012943089 -0.08725305 0.029613465 -0.013785214 -0.28475904 0.0911563 -0.0363674 0.047458388 0.04604441 0.014232684 -0.032604516 -0.0020542021 0.025155032 -0.00093648647 0.022477634 0.023216315 0.04554112 0.052829966 0.0065220697 -0.007900821 -0.021778217 0.021437865 0.01658455 0.1114095 -0.035810996 0.038418822 -0.047680374 -0.008212934 0.031047005 -0.023104925 0.7061755 0.026367506 0.0134853795 -0.014997813 0.069796614 0.04622934 0.060166378 0.052303527 -0.13131516 -0.018326724 -0.04145849 0.015549492 -0.06215809 -0.053057637 -0.04940938 0.07821815 0.042241164 -0.0075043323 0.048710015 0.035980403 -0.068866506 0.095559426 0.024106443
子 0.09753172 0.02584378 -0.023733065 0.004507151 -0.0030629986 0.0009948374 -0.035331316 0.053640444 -0.019492289 -0.08599081 0.127067 0.19052948 -0.009360637 0.066313915 0.0840686 0.016419712 0.039926767 0.036767386 0.06519924 0.06997849 0.03322134 0.031829957 0.10886338 0.09964777 0.10585824 0.013972819 -0.058687996 0.16167006 0.10297579 -0.012044124 0.014948736 -0.09434293 0.11220389 0.055334482 -0.11819311 -0.07716264 0.06176625 0.031361517 -0.044168692 -0.6687323 0.028307589 -0.02677655 -0.0065073897 -0.035314146 -0.019594008 -0.58383584 -0.03502406 -0.06787223 -0.039233416 -0.026192661 0.08055112 -0.15132754 -0.009217883 0.07027412 0.07651273 -0.013623448 -0.08030494 -0.044591833 -0.085933186 0.09898815 0.14584436 0.11101269 -0.027509943 0.013337415 0.024277793 -0.027633449 -0.0050626458 -0.15196623 0.05245591 -0.05268757 -0.056561552 0.03591305 0.108297974 0.057155605 -0.15520163 -0.05938222 -0.09273539 -0.072200514 -0.086666524 0.10527208 -0.08773121 0.02458262 -0.093335345 0.101024896 0.168053 0.0044626147 -0.050085217 -0.059017844 -0.022142436 -0.09799306 0.021250738 -0.064468674 0.091219984 0.02004717 0.038935184 -0.042709507 -0.06595967 -0.029617872 -0.10704126 0.07734732
。 0.21524432 0.10053301 -0.015901187 0.09530899 -0.09459192 0.03172439 0.02293433 -0.0395909 0.045714293 -0.20493549 0.056911625 -0.05452708 -0.047760103 0.006202335 -0.008704759 0.13768093 0.0647 -0.07486724 0.07338659 -0.100348085 -0.024105102 0.059946485 0.091894574 -0.0012419375 0.15227863 0.009266833 -0.007660277 0.33091635 0.01574509 0.11222067 -0.093928225 -0.12687427 -0.040068075 -0.054347333 0.17442182 0.018742686 0.028175123 0.13781357 0.16935307 -0.49235195 0.015027247 0.098759495 -0.020504218 -0.057866033 -0.05496116 -0.29173216 -0.056413364 -0.11406993 0.04161528 0.04496681 -0.10192675 -0.15951934 0.04366955 -0.11394409 0.16251154 0.11756845 0.006999549 0.046316028 0.09757448 -0.13260256 0.0078120786 0.058575347 0.016833933 0.222476 -0.047746614 0.011147404 -0.1373876 -0.010381319 0.027710535 0.05135692 -0.013388502 -0.04572907 -0.13358234 -0.10053059 0.02350856 -0.05638852 0.04026623 0.20682846 0.06420629 0.0875519 -0.2159738 -0.16546759 -0.16928007 -0.06994882 -0.099218406 -0.08675154 0.105517566 0.2876475 -0.28401682 0.0047789933 0.16716586 0.04319933 0.02796632 0.0723284 -0.023841519 0.04752341 -0.10627698 0.013503625 0.014233465 -0.1011817
： -0.17424633 0.030963773 -0.06528753 0.12717795 0.13522492 -0.03695547 0.016101006 -0.01609918 0.011055506 0.056901075 -0.122944556 -0.16144992 -0.007938294 0.103739664 0.024077585 0.059155285 -0.024309428 -0.0065399576 -0.1777043 -0.05681341 -0.067359686 -0.0071583935 -0.07254297 -0.122324236 -0.03596511 0.112868264 -0.02711399 0.03759687 -0.017626625 -0.039112624 0.100118585 -0.0031664 0.047300365 0.045962412 -0.052172765 0.08097764 0.057935737 0.050320543 -0.085394934 -0.6104843 -0.0048430176 -0.0024273766 -0.043236274 0.08293665 0.11812895 -0.5646446 0.018264093 0.007516312 -0.0750694 0.068168774 0.043935448 -0.21334425 -0.16339546 0.049734253 0.0031261705 -0.017130127 0.022680972 0.09600291 0.045391433 -0.0077654077 -0.016762966 -0.011421753 0.07490536 -0.00785621 0.0057413075 0.105187915 0.02473941 -0.07202582 0.02836268 0.051384054 0.034604635 -0.08439089 -0.09247581 -0.12258228 -0.071158536 0.10984652 0.016351676 -0.09612478 0.09469252 0.06078601 0.054083463 0.022236513 0.06963387 -0.15316203 0.017939096 -0.09596972 0.14502326 0.10036421 0.09423223 -0.035136387 -0.035114296 -0.030135805 -0.04308788 -0.031643823 -0.09526851 -0.040774148 0.018727684 -0.12366006 -0.09223938 -0.013746916
曰 -0.08874714 -0.0040038447 0.06719387 -0.003725054 -0.071192935 0.008177759 0.04476681 -0.14542545 0.04116823 0.07908542 -0.092856675 0.0058316165 -0.033917625 0.02395941 0.045850605 0.027468743 -0.08287928 -0.023384403 -0.20411883 -0.01618143 0.01439631 0.0045859027 -0.044781733 -0.079176575 0.08563942 -0.04656735 -0.034965303 0.12929271 0.0072112787 0.15157261 0.09352728 -0.07126934 -0.02489074 0.06398679 -0.07049971 0.031976804 0.014271654 0.071251854 -0.06372443 -0.71888435 -0.080466464 -0.123633005 0.03730222 -0.0141550135 0.05668114 -0.57605064 0.07039987 0.06421089 -0.05436028 0.11889555 0.010325107 -0.17407785 -0.067031175 0.009331497 -0.027155215 0.06932789 0.029507587 0.07460509 0.0682448 0.06492715 0.08360496 -0.05568306 0.061729223 0.09817474 0.098482296 0.036840998 -0.019907782 0.10356897 0.076103784 0.038508963 0.0036803847 -0.042291358 -0.08839971 -0.035095714 -0.07772482 0.05623743 0.046978805 -0.13177395 0.017734703 -0.017444255 0.012639972 0.13502572 0.06526846 -0.065431945 -0.012422114 -0.075004436 0.10835606 -0.056426536 0.07236984 -0.06899484 -0.059340995 0.09820581 -0.021803888 -0.026684524 -0.020874344 -0.038329065 0.03505061 -0.06455397 -0.052361615 -0.012363497
之 0.013424486 0.20131966 0.04504542 -0.021187965 -0.08688182 -0.06469795 -0.07682253 -0.0012072178 0.004954056 -0.07810497 -0.15849052 -0.16476552 0.07462804 0.1099907 -0.061023008 -0.07955757 -0.20629473 -0.15163624 -0.15853222 -0.11360635 0.11687283 -0.061401922 0.1555154 0.10856869 -0.009837314 -0.08847793 0.06598375 0.11837452 0.1154663 0.050809845 0.13362722 0.0482251 -0.1228096 -0.0939884 -0.047685593 0.13341826 0.072360076 0.01783741 -0.019505993 -0.43017614 -0.030126967 -0.006077752 -0.057780296 0.067999475 0.106288455 0.014083983 0.097201176 0.13556655 0.0012579166 -0.045537744 0.09898465 0.02349778 0.006156913 0.03707144 0.07276748 0.072781414 -0.05356075 0.055135064 0.023825841 -0.13650821 -0.09559145 -0.035368085 -0.045063417 -0.14305337 -0.05318745 -0.12009776 -0.024259396 -0.028306296 -0.17219783 0.0017024917 0.1787465 0.06687616 -0.05567138 0.3057945 0.17248747 0.0096274875 -0.21093592 0.48225808 0.05847372 0.12949184 0.03870976 -0.048696205 0.20716095 0.05460858 0.22044009 -0.020319466 0.013330846 -0.08513511 -0.11690921 0.03414824 0.06463572 -0.0014535347 -0.05911134 0.03699167 -0.10148824 -0.06346392 0.006956187 0.11732791 0.027124517 0.13674985
不 0.034268048 -0.03773727 0.14364973 -0.16277942 0.10550626 -0.041105747 -0.040223494 0.18208395 -0.058276046 -0.007914441 -0.012956078 0.05800258 0.040086433 -0.044234753 0.06438635 -0.05039644 0.014707853 0.03711848 -0.053309385 0.034220234 -0.061597247 -0.10431872 -0.0368254 0.070214905 0.008449495 -0.17424051 -0.1860073 0.24658044 0.084369406 0.20372961 0.086336866 -0.10655192 -0.06583583 0.004623417 -0.12947923 0.051407356 0.06793611 -0.011200546 -0.045129668 0.0994018 0.08655642 0.035243962 -0.063560285 0.029364735 0.05086833 -0.39931476 -0.05495482 0.027246531 -0.021977983 -0.051612496 0.1509816 -0.089555204 -0.17880781 0.08258339 -0.07077564 0.25762835 -0.07406159 -0.21447153 -0.18818176 0.11569388 0.009982199 0.08892534 0.07040772 -0.08460918 -0.16440398 0.10315726 -0.070454285 0.05509146 0.082506746 -0.095895 -0.10447579 -0.21313758 -0.030817011 -0.11128472 -0.013613293 0.07935195 0.027163139 0.68568236 0.099315315 -0.17734139 0.19709443 -0.07162506 0.028621936 0.028804012 -0.124416 -0.01813464 -0.10491454 0.15418275 0.06822057 -0.018241832 0.06970795 -0.049911525 -0.06027424 -0.009621798 -0.0450823 0.027268639 -0.041047428 -0.09488566 -0.11330555 -0.16860543
也 -0.058996268 0.11086074 0.07342254 0.024540437 0.17289697 -0.01592963 0.010950135 -0.1632046 0.0398049 0.07113569 -0.004743342 0.10201942 0.061263084 0.09225897 -0.20918342 0.058594972 0.0994641 0.23610495 -0.026305776 -0.09416125 -0.12920901 -0.14574166 0.040792283 0.014739115 -0.01575479 0.072714426 -0.023103291 0.34982994 -0.0769794 0.020676091 -0.020563474 -0.14206074 -0.06887759 -0.031856906 0.09161788 -0.053085517 -0.1576993 -0.1626202 -0.038756877 -0.63528085 -0.09745071 -0.10597042 0.026780456 0.04937274 -0.20073555 0.04043941 -0.015344191 0.026662674 0.040652897 -0.07889219 -0.057253525 0.30147457 -0.007306909 -0.1249727 -0.15250427 -0.07452278 0.010431507 0.15917863 0.07096773 -0.024167642 -0.12826629 -0.13738267 0.13915327 0.27050203 0.041382425 -0.060382783 -0.032614104 0.07504804 0.049621284 -0.07035734 0.049831033 -0.114868395 0.0563506 0.10751994 -0.08734407 0.017684676 -0.056865368 0.3941 -0.02398552 0.065962695 -0.070995554 0.035861436 0.030651858 0.05368563 -0.045704678 0.08842363 -0.09581179 0.048197255 -0.07509031 -0.065179095 0.047268976 0.024417548 -0.006549988 -0.01495006 -0.16904722 0.065364845 0.10016524 0.058891397 -0.08777248 -0.14618833
而 0.015077126 -0.09272243 -0.094893605 -0.15078187 0.20652844 0.015963448 -0.14472754 -0.095491014 0.00793969 -0.04076176 -0.075268894 0.07432356 -0.15288883 0.04014067 -0.032144196 0.1759825 0.052900646 0.045609295 -0.0074826665 0.06799437 0.05704311 -0.0054682363 -0.106401145 0.14245884 -0.14717339 -0.17534359 0.08015794 0.31979397 -0.021188736 0.11435144 0.049248368 -0.03213311 -0.14039327 -0.014840984 0.00061725074 -0.092561044 -0.20806512 -0.16158731 0.09247328 0.25939178 0.07264975 0.07951053 -0.2510384 0.09786022 0.061355017 -0.54060906 0.14458136 0.04153068 0.08261958 0.061490096 0.018186117 -0.15799092 0.040082376 0.20625012 -0.031109942 -0.0071312836 0.048712447 -0.1689489 0.046771634 0.029612405 -0.10473179 -0.14623357 0.06889745 0.030572712 0.00853271 -0.13317384 0.025604831 -0.06685052 0.13291408 0.2135157 -0.120592244 0.1035692 -0.19730286 -0.07593746 -0.1217588 -0.024190977 -0.23327918 0.7046935 -0.022917831 0.050818793 -0.16890596 0.08889139 -0.078613825 0.11480866 0.014435638 -0.16874874 0.16871428 0.008518158 0.008813395 0.0953207 -0.2662567 0.1412679 -0.0026610987 0.038896885 0.08735071 -0.08085612 0.10050272 -0.087763265 -0.15974961 0.22025928
？ 0.06952974 -0.22382528 0.10982035 0.005159408 0.19917563 0.10059371 -0.09115141 0.106924415 -0.11774503 0.19332586 0.31207392 -0.017120335 -0.06533943 0.12770459 0.05919747 -0.03437234 0.038597327 -0.10908131 0.14415438 0.36514992 0.3339839 -0.118257575 -0.16167653 0.029020159 -0.05175338 0.08350774 0.11126652 -0.18700625 0.07687375 0.11638186 -0.05381391 0.046133433 0.07004941 0.22125359 -0.05869022 -0.1284847 -0.016241655 0.13699251 0.048895996 -0.65106875 -0.12593246 -0.0639042 0.008880909 -0.02190909 -0.051599402 -0.23336492 0.19514409 -0.017956825 -0.06267952 0.18160012 -0.23244758 -0.33952403 -0.10912593 0.026947007 -0.024507396 0.003204395 -0.10522807 -0.16417336 -0.028471049 0.0020975843 0.07820464 -0.034613945 -0.21615404 0.032570496 -0.08952795 0.019409705 -0.009159585 -0.12432362 0.05443457 0.20146947 0.28918195 0.09716871 -0.14734848 0.063633464 0.07943586 0.022401633 -0.030764805 0.2550942 -0.049170297 -0.24889112 -0.17839682 0.0858157 -0.08364418 0.03058106 -0.27063766 0.031343188 0.21972631 0.104510725 0.12583901 0.08770394 0.24585807 -0.008385678 -0.11465316 -0.049410198 -0.0031853735 0.052581623 0.39625996 -0.032455124 -0.09343021 -0.071740136
其 -0.032869995 0.18275532 0.09836549 -0.2155269 -0.24205515 0.04564602 0.06721261 -0.13501705 -0.019736674 0.040121455 0.018888405 0.049401138 0.1720397 -0.034676727 -0.05816819 0.04400962 -0.14742146 -0.012522888 -0.037216607 -0.31458738 -0.10841156 -0.27125826 0.23665644 0.08470226 -0.14498694 0.03227669 -0.15464412 -0.13008428 0.0306452 0.15540554 -0.03217149 0.13926043 0.026126798 -0.034049835 -0.12930214 0.014722293 -0.33687368 -0.11842361 -0.022806842 -0.07821126 0.16882814 0.031312473 -0.07121206 -0.10716344 0.05033153 -0.25534925 0.10620448 -0.04343096 0.14901486 -0.16535988 -0.24375719 -0.1343244 0.0012875412 0.030924868 0.00056744815 -0.00090577186 -0.11799752 -0.07805048 -0.11784636 0.110868044 -0.089119084 -0.17685321 0.0918918 0.084892586 -0.04636503 -0.039775953 -0.019148372 0.1171801 -0.03773566 0.028983014 0.19815572 0.10002881 0.097245075 0.26229444 -0.38408786 -0.15832111 0.2620313 0.6741866 -0.008944508 -0.04341758 -0.19734605 -0.028597707 -0.033831283 0.023044351 -0.06724122 0.097720444 -0.16832516 -0.15752111 0.15967335 -0.16636682 -0.25292444 -0.15019986 -0.20695671 0.05780848 0.031474713 0.13500515 0.24015823 -0.19267291 0.041678905 -0.089641236
人 -0.20116465 -0.040590275 0.12350246 0.015580582 -0.28971276 -0.10087905 0.23347847 0.18268025 -0.03293226 0.10926195 0.11783162 -0.1689747 0.06813762 -0.014347983 0.21907367 0.0048803478 0.2265996 -0.064311184 -0.17228192 -0.14283971 0.02787653 0.039073873 -0.3170951 0.05788344 -0.08071855 0.011939681 0.0993475 0.25842443 -0.10905033 0.026578577 0.12990063 0.33528462 -0.24815175 0.07461956 -0.001102613 -0.0123425415 -0.116108336 0.012615108 0.004288135 -0.34542808 -0.09778759 0.16923997 0.24062048 0.12809446 -0.10318246 -0.13531467 -0.12942664 -0.035319958 0.13340387 -0.0673185 0.08926063 -0.00038624578 0.03164332 -0.19854987 -0.16645566 0.035750765 -0.07485565 0.16338049 -0.0006348776 -0.058970522 0.060775917 -0.08139327 -0.22301482 -0.13335356 0.061740864 -0.035134323 -0.04652075 -0.026093893 0.0051420117 -0.1125537 -0.16172118 0.11126751 0.020449253 0.20740478 0.14459181 -0.0534837 0.051399857 0.5378461 0.062978186 0.21658945 0.020670978 0.027031502 -0.16043162 0.12549993 -0.036238264 -0.059549574 -0.1275507 -0.15947142 0.05337035 0.09549295 -0.03482082 -0.07615138 0.048324514 0.042304657 0.30640206 -0.079476275 0.10001985 -0.10805013 -0.3849011 0.18344215
者 -0.03864703 -0.11148456 0.20319128 -0.10362722 0.1701292 -0.2639956 0.089358605 -0.029661968 0.057546195 -0.08555865 -0.29403058 0.103604704 -0.0015679977 0.27939206 0.0002802048 -0.09910035 -0.15886799 0.041686103 -0.11689814 -0.07993599 -0.21113825 0.026076654 -0.12979807 0.23960136 0.32572353 0.09680212 -0.13676248 0.17325455 -0.04237005 -0.29647556 -0.042959735 0.2483112 -0.14875413 0.35743377 -0.059556033 -0.092924155 -0.14764227 -0.021135574 0.07409293 -0.12667388 0.1899652 -0.002142058 0.17686917 -0.2380538 0.02753714 -0.27072495 0.26194963 0.034645516 -0.15065728 -0.17789273 -0.08922122 0.25318733 -0.28549746 0.21911438 0.2675219 0.17105208 0.05699677 0.03164831 0.15180333 -0.064848 0.11684208 -0.10261794 -0.24132395 -0.004311651 0.037150178 0.035237502 0.0017565184 -0.2620592 -0.09426829 0.14558347 0.13916072 0.05747326 -0.13783295 0.11777122 0.032939926 0.15827765 0.23101 0.5929246 -0.029225457 -0.008818227 -0.028200438 0.13237844 -0.01583412 0.09021436 -0.284725 0.025281496 -0.024627265 -0.06438725 -0.10847507 -0.096757196 0.063969396 0.21421565 -0.07344398 0.050438404 -0.2853134 0.0021818248 -0.026091745 0.02880252 0.08629814 -0.10885607
以 0.117706485 -0.26890296 0.06980701 -0.10275449 -0.16965197 -0.049995776 -0.028503977 0.061013173 -0.019415963 -0.06430397 -0.18330364 -0.103855744 -0.35049215 -0.09116553 -0.11694075 0.014449316 -0.023278847 0.33965445 -0.046414528 0.03241291 -0.055138253 -0.025051717 0.15604791 -0.008290228 0.011258206 0.1675231 0.11045461 -0.0041095573 -0.0517106 0.057916723 0.3749229 -0.11519556 0.35461304 -0.17200617 0.352128 0.16554631 0.18721038 0.1900886 -0.29519534 -0.19442636 -0.14608759 -0.06081109 -0.120973095 -0.115981266 -0.00782856 -0.40609515 0.16768806 -0.18011196 0.16392405 -0.19776893 0.001008247 -0.23447892 0.194424 -0.03662151 0.08202761 0.06849589 -0.111123435 0.0030426488 0.062226266 0.019496612 0.1145447 0.13924734 0.018564252 -0.16790992 -0.026465515 -0.000202956 -0.08772019 -0.061019294 0.16358389 0.010100725 0.048009653 0.07362089 0.2607622 -0.15342237 0.35168993 0.07813287 0.10390518 0.59089506 0.0324558 0.094362706 0.08360062 0.19441374 -0.01289113 -0.14405085 0.15279573 0.32166597 -0.06656829 -0.009872374 -0.007827892 0.029218005 0.13053836 -0.021234347 -0.26078564 0.14707184 0.046996 -0.22673179 0.052919157 0.29149252 -0.056192495 -0.09138636
有 -0.16184412 -0.2675101 0.17103492 0.0017287141 -0.072995484 0.14821959 0.08088523 0.12090332 0.009855612 0.13400376 0.009563123 -0.09926251 0.121090725 0.020876687 -0.21140605 0.12395214 -0.2361836 0.2296322 0.12638818 -0.27200413 0.12742461 0.2949339 -0.027230958 -0.093103506 0.1238203 0.15429376 -0.18735671 -0.31243184 -0.03541269 -0.43509486 -0.0921917 0.09722333 -0.15408778 0.15335074 0.08810324 -0.08565048 0.10364235 0.19153138 0.06788731 -0.24794337 0.113266446 0.049681526 0.18498865 0.21212128 0.1562388 -0.5226645 0.12317316 0.034238305 -0.01608657 0.14758228 0.09482745 -0.1453338 -0.18548618 0.19114858 -0.20026165 0.0025603601 0.26335114 -0.08988514 -0.13829698 0.024111174 -0.2153066 -0.071627 0.16447079 -0.07545062 -0.15130791 -0.09033486 -0.079493865 -0.08287949 -0.25280154 0.08734192 0.020064767 -0.0869398 -0.12296701 -0.05355058 -0.02101768 -0.11542885 0.009050736 0.27254358 0.19447428 -0.022530803 0.20642424 0.20280117 0.1693111 -0.08234539 -0.12550014 -0.0010049891 -0.1012773 -0.0939465 -0.20579948 -0.10988074 0.046511784 0.17676494 0.23689671 0.18156408 0.21055852 0.10024151 -0.16217616 -0.0488025 -0.069436885 -0.008717258
于 -0.2106619 0.12569512 -0.09728032 0.20381756 0.0299445 0.047481775 -0.24066362 0.01449023 0.17495371 0.18580557 0.13176732 -0.23229577 -0.18320036 -0.17010209 0.15830241 -0.074220836 0.06009555 0.0059302007 0.092678845 0.13174129 -0.31110767 -0.0071079885 0.2686343 0.21028578 0.17853068 -0.15374544 0.12570478 0.0015715869 -0.0383364 -0.14631796 -0.29741374 -0.054078937 -0.120415494 -0.15068126 -0.04939728 0.25912312 -0.07398203 -0.054795716 0.040971864 -0.107688986 -0.0054193526 0.12878259 0.2783004 0.12614323 0.15851025 -0.4094731 0.0643277 -0.15125726 0.20082925 -0.3305789 -0.09493303 -0.25163174 0.17375524 0.14953259 0.22645357 -0.1337004 0.31202003 0.14807788 -0.033117812 -0.24587372 -0.06569165 -0.32693937 -0.03761093 0.24485254 0.09374744 0.06449823 0.021125507 0.0072574643 0.13550772 0.01754131 0.13610996 0.014166074 0.35419965 -0.06943864 -0.08500776 0.32450804 -0.16356573 0.40362972 0.0910382 -0.18071184 0.1501942 0.39522088 -0.23451594 -0.00878541 0.100960776 -0.14146133 -0.038444288 0.04745153 -0.015388295 -0.017667407 -0.046651136 -0.05201548 -0.2421916 0.06963804 0.1122206 0.09320083 -0.15769178 0.04844758 0.14080974 0.10961516
矣 0.048184775 0.004433084 -0.054787584 0.2488186 0.08446764 -0.07868578 0.24316104 0.06986646 0.18514673 -0.19125322 -0.16244131 0.0070476932 -0.036376383 0.047178075 -0.20827073 -0.115501516 0.14412986 0.21727028 0.3056064 -0.11572815 0.13206346 -0.10521145 0.050644573 -0.26180485 0.20005162 0.11176422 -0.103575744 -0.20568821 0.06796962 0.3200547 0.08967066 0.2677946 -0.3101739 -0.2412658 -0.26263753 0.2554528 -0.029951457 -0.24430007 0.21330616 -0.5348856 -0.041667234 0.05019427 0.13331346 -0.23281766 -0.017253626 -0.35002348 -0.22032823 -0.18186982 0.04907455 0.18000449 -0.053641517 -0.03126954 0.05450311 0.07900404 0.18181299 -0.11082313 0.19993937 0.048642512 0.04035034 0.081737325 -0.032379746 -0.0797083 -0.1297355 0.11083334 -0.004368185 -0.30385524 0.129498 0.010842909 0.01638873 -0.12809351 -0.02309796 -0.07301083 -0.18610565 -0.24865712 0.07993645 -0.13774253 -0.12694307 0.22696042 -0.16294533 0.19365154 -0.24975638 -0.32025194 0.033259846 0.3133474 -0.26497307 -0.1675554 -0.44469586 -0.07096672 0.082236834 0.103311144 -0.029284187 0.1344857 0.046419274 0.21288352 -0.16461833 0.0765014 -0.016084764 0.061826725 0.019715793 -0.27095097
为 0.19105755 -0.08565558 0.03662754 -0.43565547 0.10033734 0.023044586 0.35636306 -0.25401965 -0.191046 0.079286546 -0.3037832 -0.31316602 -0.12750648 -0.15715937 0.15629308 -0.08171782 0.03341417 -0.20589095 -0.048564088 0.31109032 0.05161303 0.10096845 -0.017194789 -0.070632085 0.08692872 -0.41293398 0.008973072 -0.134701 -0.048090152 -0.25125656 0.23059165 -0.036811177 0.079509355 0.2381297 -0.14910376 0.054462243 0.07905294 0.24219592 0.17920983 -0.48337802 -0.09373426 0.20791098 0.23184901 -0.0171534 -0.123124756 -0.198048 0.2531208 0.012155366 -0.16020687 -0.2880954 0.07468046 0.1372508 0.1537413 0.052761257 0.039077416 0.23717771 0.0057406914 0.15598981 -0.03160995 0.13958332 -0.06509439 -0.070940025 0.027316889 -0.28713635 -0.08736711 -0.2580289 0.04124497 0.10942063 -0.020105032 -0.09536814 -0.21923807 -0.19058819 0.064833686 -0.06632711 0.06298871 0.029593963 0.15831183 0.36662075 -0.048316594 0.24372582 -0.1386781 0.20349622 -0.06027686 -0.037405144 -0.07811848 -0.029381264 0.17529894 -0.039217982 -0.30039304 -0.1262214 0.00014955115 0.10340762 -0.3200439 -0.115680926 0.15991223 0.10116312 -0.12890232 -0.0036276588 -0.19999538 0.04170251
君 -0.055376876 0.13221204 -0.122336954 0.067973025 -0.25511324 0.16125229 -0.118957214 0.12264977 0.023676485 -0.07334216 0.022992533 0.040807527 0.13921049 0.18136695 0.10257808 0.03988715 0.18989111 -0.058316626 0.024689652 0.055350535 -0.10524861 -0.029992802 -0.26323047 0.34665504 -0.024266416 -0.11932699 -0.08518814 -0.017151043 0.0151617555 -0.07818315 0.22865146 -0.28648928 0.21282063 0.11030321 -0.07354699 -0.092444085 0.14485028 0.13161051 0.2680644 -0.67524093 -0.13523619 -0.052531026 -0.040875085 0.13241373 -0.04887287 -0.18906178 0.05246337 0.076065876 0.086554036 -0.23545738 0.009543584 0.0032924553 -0.040597305 0.12207468 -0.25055674 -0.2512643 0.0020886082 0.010511007 0.008426182 0.13636914 -0.09172365 -0.05436816 0.19204524 -0.36002606 0.12328093 0.16712269 -0.041729774 -0.045439903 0.050854575 -0.06791806 -0.34488365 -0.12196021 0.18595913 -0.080434196 -0.13358977 0.0119227 -0.0191469 0.28293058 0.29436323 0.110164106 0.0022209964 -0.023676582 -0.104706645 0.15628919 -0.11566116 -0.006732257 -0.04045068 0.18965112 0.06861212 0.28871834 -0.2004987 -0.351962 0.22122018 -0.0520469 -0.07667222 0.09271371 -0.058748722 -0.027780997 -0.068701304 0.09226162
乎 -0.050486363 -0.22542131 -0.21753527 -0.15013152 -0.020035565 0.05459836 0.37984464 0.0930581 -0.0816418 0.057373323 0.1557956 0.38619867 0.09050186 0.06444453 0.13797419 0.11992463 0.022900136 0.11126051 -0.022110017 0.07264977 0.09943629 -0.06913706 0.30885735 0.18232988 -0.12612776 0.04494752 0.11193595 -0.32265672 -0.24163173 -0.057987522 0.19908121 0.20837249 -0.15790707 -0.029979914 -0.33262658 0.02872843 0.053883314 -0.0885915 0.16801324 -0.24171606 -0.08227721 -0.26179948 0.1329335 0.2551902 0.024172558 -0.52776486 0.017002108 0.017925175 0.0032207656 -0.18626675 -0.07409067 -0.15422001 0.023619758 0.12883718 -0.031826247 -0.0998184 0.06240598 -0.11988284 0.068935774 -0.00060495647 0.17426607 -0.16851525 -0.1250842 0.11852849 0.3089005 -0.31168303 -0.18489943 -0.009285853 0.17465967 0.16664389 0.038400196 0.022342369 0.08548559 0.11471975 0.15687354 0.21546963 -0.24153164 0.27295083 0.10585905 -0.07304536 -0.05310999 0.103756644 -0.009814941 -0.011983885 -0.173849 0.32412457 0.33968005 0.19749302 -0.115000166 0.05221744 0.15250131 0.2728872 0.0488533 -0.27280644 -0.10216026 0.24185851 0.28919473 0.060602438 -0.18701525 -0.24979047
可 0.0071766316 -0.072785914 0.2521501 0.072469614 0.03430646 -0.014796157 -0.012694769 -0.3196752 -0.095900714 -0.08998196 -0.31154165 0.1127038 0.07763507 -0.2880422 -0.0059983567 -0.24151754 -0.06343254 -0.004318969 0.029182866 -0.138432 0.07328646 0.07785395 0.101470575 0.07185319 -0.033393167 0.11652114 -0.01573176 0.018753482 0.087556645 0.1565175 0.16435078 -0.052278996 0.013978794 0.122238174 0.16709197 0.049137797 -0.041888665 -0.1251815 -0.2563693 -0.38840583 0.18400815 0.15407568 -0.024104703 0.056965716 -0.10293749 0.033774894 0.17274474 0.06188657 0.119841166 0.08436889 0.15085405 -0.04189852 0.15675074 0.06418429 -0.23293817 -0.010293981 -0.19191287 0.02705846 0.06157651 0.18350938 0.12453537 -0.118553475 -0.29167327 0.23011054 -0.086572625 -0.10391332 0.03971172 0.186828 0.282034 0.1195352 -0.18404762 -0.043589376 -0.09325591 -0.08448211 0.14139864 0.06199718 -0.46324116 0.68499285 -0.31007293 -0.152509 -0.007005761 -0.17819756 -0.022506235 0.058656823 -0.115464516 0.26161507 -0.28911322 0.39182225 -0.088960685 0.34996778 -0.17222601 0.06574237 -0.137356 0.136377 -0.16544047 -0.17453401 0.048317257 -0.01465944 0.048651077 -0.09559375
如 -0.22074972 0.026482359 -0.20678511 -0.40749782 -0.07658132 0.079954095 0.057696085 0.044096883 0.13409124 0.18759264 -0.12148905 0.22092795 -0.1001419 -0.083618745 -0.21376532 0.045546766 -0.086073935 0.20834348 0.08219841 0.10527223 0.04643853 0.029520681 -0.209302 0.08284561 -0.52502775 -0.03894092 0.10236519 -0.13644426 0.10459539 -0.10687475 -0.27243367 0.042167943 0.015577544 -0.27195242 -0.016397042 0.023059595 0.15712126 -0.110159226 -0.2084742 -0.7851781 0.14242631 -0.3019256 0.30468705 0.21073031 0.08473206 0.18246855 0.03468503 0.0069185616 0.17688537 0.03580614 0.027111175 0.16653119 -0.04190077 -0.13294207 0.25991827 0.27856728 -0.050529588 0.0678167 -0.010239486 -0.09765203 0.13422596 0.04878253 0.2940486 -0.091464415 -0.114816815 0.41046384 0.061427888 0.13184494 0.019205404 0.11149563 -0.054833118 -0.25820357 0.073286444 -0.011031347 0.054821018 0.14604428 -0.013622187 0.48163995 -0.17024353 0.25016105 0.035575397 -0.10262488 0.19878101 0.25138465 -0.11794865 -0.17781584 0.020158852 -0.20131755 0.12830032 0.009493903 -0.17642963 -0.093368106 -0.283761 -0.12199699 -0.20101796 -0.085356414 0.0383515 0.15292858 -0.015514936 -0.046492565
与 0.08209787 0.23792998 0.44293398 -0.24608724 0.1365526 -0.093079545 0.06282917 -0.22953299 0.032701172 0.24900308 -0.09204118 0.041428402 -0.16123007 -0.39518398 -0.051852994 -0.016038513 0.051589943 0.037319116 0.11424722 0.3999323 -0.25491136 -0.108821474 -0.025124302 -0.107699126 -0.0673494 0.22813876 -0.07153064 0.15446052 0.10833897 -0.37652588 0.047033805 0.02048226 -0.025962168 0.014776731 -0.34026507 -0.20043895 0.2722146 -0.1611562 0.13466148 -0.5831966 -0.068761505 0.18738697 -0.07055378 0.090159066 0.172412 -0.027963834 0.09651807 0.27356324 0.16349971 0.18547681 -0.024151737 0.17758946 -0.1727264 0.20264545 0.13363715 -0.26647002 0.19881737 -0.05188537 0.12149167 -0.055510025 -0.14182027 0.26880544 -0.09415187 0.17383683 -0.0703938 0.17892596 -0.13108991 0.15402739 0.19604827 0.001276536 0.17829327 0.2291166 0.025573453 0.039646 0.36156806 -0.20407039 0.016482554 0.42587885 -0.2773444 0.07531737 0.03636998 0.23583704 0.17287503 0.1493982 -0.09904022 -0.18047999 0.12576674 0.048498224 0.17967598 0.1158111 -0.20100488 0.17647283 -0.12033338 -0.035884265 -0.1713718 0.010353601 0.1346806 0.13147923 -0.03445384 0.25483748
； -0.12435264 -0.33796236 -0.34889233 0.07046331 -0.054629706 0.011192663 -0.19344196 -0.007081101 0.1487839 -0.13198945 -0.10343905 -0.004153568 0.13014242 -0.09497037 0.028183205 -0.06958208 -0.10472996 -0.117798455 -0.053731617 -0.24717101 0.06814347 0.0049331496 -0.22522968 0.09926679 -0.084601805 -0.014378656 -0.003591215 0.10402342 0.05667814 0.20104253 -0.09400233 0.021443125 -0.03781605 0.021733709 -0.14546119 -0.32108647 0.07049506 0.39666864 0.1271168 -0.1872261 -0.08878474 0.00075307616 -0.031799674 -0.13544613 0.21401547 0.32820082 0.22473799 0.022912527 -0.10995802 -0.0657458 0.13167846 -0.17555256 0.31874734 -0.22930089 0.015716245 0.006011596 -0.06351241 0.18112738 0.34849343 -0.21732308 -0.18754438 0.21174148 0.0750428 0.18958393 -0.123186335 -0.01989112 -0.29212302 -0.1355498 0.0071342853 -0.017709073 0.19948451 -0.17513868 0.12108213 -0.12005921 -0.33116254 -0.29128855 -0.047129948 1.1042185 -0.038938493 -0.05336564 -0.19943184 -0.07868472 -0.14742823 -0.35819218 -0.1268433 -0.22260015 0.07345611 0.20649637 -0.10311027 -0.27692544 -0.2071695 -0.09847963 0.1556311 -0.30518788 -0.25331172 0.20110638 0.08798136 -0.002698719 -0.17091997 -0.14469491
言 -0.20336191 0.013979607 0.20984124 0.089005694 -0.07029374 -0.299578 0.089682296 -0.087654114 -0.022315001 -0.060801644 -0.007305759 0.18192966 0.031356543 -0.2959896 0.06777795 0.4374518 -0.06558423 0.27616817 -0.2691731 0.1357138 0.011288458 -0.14790455 0.1015656 -0.09986085 -0.09081172 0.029971182 -0.15366934 -0.19098958 -0.11398157 -0.017684152 -0.023078596 0.15988287 -0.11349119 0.06563509 -0.29210848 0.23486093 -0.12038705 0.19537148 -0.21803804 -0.2504541 0.0033512583 0.035908293 -0.32578856 -0.13638991 0.45041078 -0.15973386 0.08343239 0.064619265 -0.18148394 0.08810219 -0.115031175 0.17822011 0.08964803 -0.17570178 -0.048513353 -0.07382178 -0.15680812 0.3408322 0.22689782 0.31920135 0.32639253 0.054032106 0.26930708 0.29243106 0.24391265 0.04588685 -0.40844384 0.26940808 0.06404763 -0.023001377 0.10796977 0.049046185 -0.1396447 -0.26883873 0.084327236 -0.20174736 0.16635758 0.54370004 -0.034201957 -0.1581748 0.020379355 -0.0116657615 -0.046591073 0.046455536 -0.29325268 0.2598701 0.13341817 0.072962016 -0.24838233 -0.05834844 0.07283668 -0.10314884 0.122044496 0.06699936 -0.0693191 -0.22028314 -0.29418245 -0.049793053 -0.047648378 0.10889561
无 -0.16030793 -0.08486486 0.016066223 -0.11802382 -0.18500929 0.322272 -0.22977622 -0.106292754 0.1533192 0.2166522 -0.053221803 0.14103454 0.16336274 0.10730916 -0.04362235 -0.09578853 -0.09333796 -0.085293636 -0.011976268 0.023822416 -0.14844817 -0.085966915 -0.0906258 0.16661951 0.06410618 0.06798882 -0.17939022 -0.11398129 -0.17465225 -0.050631635 0.08092756 0.08019795 0.2022014 -0.053397752 -0.033792056 -0.044995666 -0.220602 0.028843656 0.17605667 0.14051367 -0.1557406 -0.09123181 0.10320437 -0.07978607 -0.01346911 -0.59679353 -0.39841467 0.03892334 -0.08004099 -0.0027447795 0.031194279 -0.15704118 0.07932315 0.09928344 0.062006675 0.09321492 0.05679757 0.25365293 0.22220127 0.1901275 -0.20953976 0.14094934 0.22327757 0.1683505 -0.10884781 -0.101120114 0.122738294 0.11740978 -0.20151688 -0.011888727 -0.22949392 -0.081467055 -0.026807997 -0.069864154 0.07414413 -0.011733301 -0.18778037 0.6079841 -0.33008787 -0.03472669 0.053081326 -0.086660594 0.3773419 0.1904484 0.0417744 0.2626784 -0.10654908 0.28191423 -0.33399966 -0.14620376 0.019296154 -0.08349818 -0.044463594 -0.039455127 0.25565022 0.070270516 0.13102587 -0.25606406 0.011119013 0.02727586
则 0.09887561 -0.08561581 0.12349965 0.088308394 0.068861775 0.2059999 0.0358803 0.014440508 -0.25324836 0.2806268 0.004007157 0.13161707 -0.28929085 0.19744615 0.21593925 -0.33145776 -0.2554286 0.12954587 -0.18660356 -0.1938572 -0.09620295 0.0020122146 0.018199177 -0.16123769 0.10396771 -0.33817598 -0.058867387 -0.0052103917 -0.077699214 -0.025321487 -0.13810685 -0.19330357 0.07793455 -0.3802352 -0.010058574 -0.0026841003 -0.036228757 0.08179769 0.2011512 -0.07759033 -0.21230003 -0.11119064 -0.011316735 -0.3049207 -0.30082908 -0.23063686 0.1580727 0.21803421 -0.02082383 -0.2673813 -0.15210365 0.08738729 -0.14521949 -0.16518542 -0.2600492 -0.25651363 0.041714117 0.1770732 -0.029743122 0.05907345 0.24657114 0.11271529 0.11535155 0.29853064 -0.2087142 -0.20250075 0.18638742 -0.16523443 -0.23568743 0.042952448 0.0057074064 -0.0011498141 -0.023158543 -0.012090674 -0.06605714 -0.20012307 -0.22897357 0.7935981 -0.057203777 0.13773239 0.045659956 -0.13723925 0.01851013 -0.24001637 -0.093928196 0.280311 -0.26516652 0.09240516 0.22250834 0.05525949 0.10222087 -0.113111116 -0.05183306 -0.23507737 0.09498426 0.14823404 -0.21224616 0.07556384 -0.25021562 0.32797253
！ -0.05986848 -0.40029675 0.040218458 0.20434782 -0.20684199 0.2111169 0.19653079 0.09790526 -0.04885199 -0.059296116 0.3354296 0.07858562 -0.02095396 0.00764504 0.36163563 -0.059356887 -0.1561641 -0.074420065 0.20355782 -0.24473 0.058256432 -0.014393242 0.40903082 0.2280488 -0.002056411 0.10734214 -0.121177115 -0.046005983 -0.13591743 -0.00727185 0.12630436 0.05515433 -0.25867322 0.05801708 -0.34497488 -0.17372769 0.16801688 0.1740627 0.1969563 -0.97953093 0.22160539 0.12687607 -0.068539895 -0.0071655205 -0.18600483 0.029641943 0.035535544 -0.061748836 -0.04265344 0.11819192 -0.36544433 -0.14142948 0.0003368053 0.21207765 0.13277404 -0.2076417 0.33952078 -0.02949161 0.31097984 -0.25016025 -0.16160883 -0.07243016 0.048177425 -0.10534976 -0.022533339 -0.11907283 -0.09115056 0.031566378 0.05400627 0.06259862 -0.19586357 0.26109564 0.15855472 -0.2134003 0.26185542 -0.020388264 -0.012911459 0.14618698 -0.048088614 0.18165104 0.057331026 -0.056617517 -0.10586787 0.09967135 -0.029920233 -0.14365895 0.029529372 0.33985162 0.08667249 -0.27397174 -0.058944236 -0.017954215 -0.18056722 -0.33835882 0.14373037 -0.114414416 0.104683444 -0.47828075 -0.114411965 -0.12774868
问 0.39690205 0.16993237 -0.08177388 -0.13505779 0.24048913 0.09546262 -0.18869214 0.1879994 -0.18899539 0.075180724 -0.10896337 -0.3306388 -0.15662502 -0.10299145 0.07957303 -0.1984999 -0.05401941 0.11881824 -0.005226709 0.2589582 -0.055844788 0.006903891 0.09720542 0.08924616 0.34530294 0.19252805 -0.051469654 -0.23469822 -0.12588407 -0.15546118 -0.062676094 -0.09529081 -0.09679633 -0.2423441 0.24182916 0.17155638 -0.4619062 0.1369052 -0.11849764 -0.6963735 0.18934976 0.04245539 0.3074737 0.19986884 0.2529426 -0.5526872 -0.07293722 0.08355768 -0.3027164 -0.1392527 -0.14705922 -0.08976335 0.16559166 0.259266 -0.04110412 0.010723824 -0.10559275 0.14757802 0.17257367 0.12325166 -0.27136666 -0.1126377 -0.17804278 0.08359999 -0.037718378 0.2024114 -0.009268358 -0.029008972 0.21670601 -0.14440274 0.0528103 -0.12905723 0.29229683 -0.031586707 -0.06580571 -0.33807108 -0.10881671 0.009630852 -0.070734024 -0.0005087816 0.031172274 0.032231968 0.073967405 0.011478218 0.044411868 -0.06905898 0.034545537 -0.38898808 -0.036727138 -0.07101651 -0.14219515 0.13597858 0.5747982 -0.14135833 0.15624098 0.13918938 -0.14534818 0.092029214 0.042810176 0.069456734
知 0.038282126 0.050802227 0.15747574 -0.20361052 0.1815594 0.09569637 0.05072999 -0.0030390837 -0.28996757 -0.14196262 0.25786924 -0.1044533 0.06812367 -0.0149344625 0.15465915 -0.08538399 0.046032563 -0.059825644 -0.18197992 0.16348878 0.028567065 0.044734925 0.17666584 -0.19766471 -0.06573304 0.40564516 0.021606712 0.24798276 0.08325143 0.015422748 -0.22321925 -0.057401825 -0.104047365 -0.2233771 0.3375882 0.020295916 0.04681771 0.14455439 0.019536119 -0.2456869 0.2772373 -0.02059933 -0.045679633 0.084924646 0.034859862 -0.44950587 0.080609985 0.07854358 -0.10490241 -0.35228848 0.09905558 0.5279182 0.11563107 0.20974709 0.20286503 0.19824098 -0.3592869 0.23962739 0.18901955 -0.37912205 -0.021608718 0.10381427 0.022993816 -0.26054272 -0.016633926 -0.12155885 -0.016016323 0.13344263 0.14661902 0.06220648 -0.28768137 -0.15690622 -0.23521106 -0.11956606 0.19404031 -0.082022175 0.009621069 0.48136082 -0.08433189 -0.03348243 0.11055362 0.010155443 0.12760383 0.040112738 -0.06134749 0.0726415 -0.0124667585 -0.20199627 0.11122868 0.29304028 0.15751466 -0.112607025 -0.22544096 -0.30913338 -0.06914771 -0.0018039164 0.24545509 -0.29008764 0.02245733 0.08366557
何 0.008389473 -0.12509736 -0.15568814 0.0651692 -0.0053392667 -0.08954033 -0.026553405 -0.15992232 -0.09427356 0.24850577 0.23748213 0.13951248 -0.044790704 0.003708274 -0.20593187 0.04798419 0.12830673 -0.10803049 -0.37608242 0.39263123 0.17984694 0.10532267 -0.4258412 0.15060951 -0.14363958 0.015100435 -0.014298065 -0.08982794 -0.007600397 -0.222262 -0.18059534 0.17981154 0.15781976 0.10092884 0.15419587 -0.071214005 0.0112401815 0.21790765 -0.014402384 -0.66115254 -0.2606022 0.061120946 -0.08664822 -0.1849638 -0.026009088 -0.15157677 -0.026855437 -0.42667156 -0.09753302 0.1468683 0.03560424 0.06465564 0.025684327 0.46250692 -0.051315777 0.1199317 -0.19211982 -0.18491195 -0.1967654 -0.039023522 -0.4903188 -0.042054225 0.0018702473 -0.095978856 -0.17337231 0.16745028 -0.00019291109 0.29832557 -0.1923715 0.07338965 0.19329935 0.055046156 0.05223756 0.2844189 0.0068947417 0.082116626 -0.07599123 0.3194805 0.20132941 -0.039503355 -0.07916376 -0.14194186 0.17649737 0.11384862 0.026778197 -0.05384638 0.1269457 -0.06340849 -0.0046971235 -0.1773114 0.021695808 -0.04299171 -0.22365178 -0.3008485 0.020261468 -0.0045788046 0.21104968 0.16979186 0.24222343 -0.24810776
吾 0.036207423 0.17684463 0.15792291 0.117350176 -0.04212038 0.33141175 -0.26377004 0.07843223 0.12553973 0.23746468 -0.42563856 0.29140523 -0.022628995 0.36687568 0.11064333 0.26685625 -0.12724502 0.075424656 0.047105934 -0.21717493 -0.25002813 0.23766798 0.30729824 -0.26894322 -0.09031329 0.03526779 -0.11307633 -0.09887008 0.04724984 -0.06333329 0.16489697 -0.037742525 0.11765554 -0.010298689 0.16643767 -0.15229133 0.024161305 -0.02484279 0.083340004 -0.42077544 0.030739233 0.060328167 0.033042736 -0.46450323 -0.09942758 -0.1907112 0.0028466731 0.024891894 0.0783646 0.33389565 -0.05612387 -0.010176141 -0.021663047 -0.053773522 -0.09388959 0.14456137 0.25395572 -0.25167763 0.037926473 0.21086125 0.056800462 0.017492507 -0.18303414 0.13239048 0.21959196 0.04987821 -0.047911398 -0.12315565 0.072749205 -0.016435187 0.14794433 0.07225067 -0.23146261 0.039211094 0.04911348 0.11285024 0.21191265 0.44825724 0.2589479 -0.12620728 0.2665426 -0.105936006 -0.13914667 0.15482806 -0.030620933 0.38877755 0.20011379 -0.17306244 -0.18764898 0.19063427 0.040212594 -0.14760157 -0.42748985 -0.45913124 -0.08577592 0.023386883 0.247888 0.10472275 -0.014562649 -0.07810839
仁 0.05322169 -0.09947924 0.13500285 0.084717475 -0.012185151 0.040353544 0.16506085 0.2215641 -0.042404618 0.040782925 0.2083688 -0.17581151 -0.1927575 -0.018303746 0.18170545 -0.21121278 0.30438823 0.1712666 0.118796945 0.09477906 -0.08356171 -0.026321882 -0.04252695 -0.018739177 0.14322695 0.09694999 0.23311262 -0.02362526 0.1022373 -0.020118559 -0.24396484 0.32991982 0.076188274 0.20626973 0.14919636 0.26779395 -0.054787237 0.26918477 -0.09213773 -0.12386242 -0.040361173 0.37886915 0.119504035 0.22310542 -0.16486469 -0.49764013 0.044467896 0.051464695 -0.35966307 0.019223064 -0.23113792 0.42888767 -0.15110946 0.1424198 0.12638295 -0.25261524 -0.26872548 -0.16865736 0.11701496 -0.1447573 -0.20180959 -0.1727321 -0.07513393 0.14844567 0.19465466 -0.11037128 0.12309617 -0.06502362 -0.07649921 -0.06482738 0.16163754 0.02983257 -0.08293097 -0.23875451 -0.0024233432 -0.0583156 0.19377106 0.36062297 -0.028970068 0.111222856 -0.17127053 -0.19338308 -0.12855634 -0.09347549 0.006836368 0.07850891 0.07489578 -0.2391706 0.38971984 -0.120511316 0.28295925 0.16382432 -0.24293 0.043011516 -0.08972263 -0.06835367 0.45015207 0.01805817 -0.054991003 0.026445605
夫 -0.049352016 0.08087886 0.030864669 0.26627263 0.000571277 -0.11048514 -0.059268143 0.110629424 0.21371332 -0.024304803 -0.057359006 0.10100014 -0.08222009 0.07975703 0.12776653 0.33817115 0.11391203 0.12411076 -0.015544078 -0.24211054 0.100178294 0.028785741 0.080505766 0.15874866 -0.12020975 -0.14326544 0.13229416 -0.16935012 -0.032940507 0.011127072 -0.52041787 -0.175465 -0.036010653 0.38667968 -0.14775437 -0.44210207 0.106546775 0.012720538 -0.06287596 -0.8442296 0.23595656 -0.019289518 -0.2878995 -0.101969 -0.13993302 -0.14611928 -0.1549595 0.28287435 -0.06742812 -0.23950079 0.25734067 -0.05938313 0.03118803 0.12793711 -0.06957582 0.14820215 0.10003613 -0.17809506 -0.104831316 0.17668378 -0.0868496 -0.02940837 -0.22384316 0.09251528 -0.017263161 -0.1911165 0.34013125 0.09167418 -0.15398164 0.2867669 -0.09310437 0.121528484 -0.038304985 -0.11909127 0.07162025 -0.06149551 0.065206386 0.2075108 -0.13021746 -0.08846094 0.028466163 0.36921373 0.19368501 0.06738595 0.10364331 -0.05703808 -0.49928874 0.14444396 0.12424649 0.09482919 0.017779559 -0.39463502 -0.16552137 0.0580149 -0.35857797 0.3334205 -0.15097061 0.18226886 -0.20492008 0.28166464
、 -0.31991345 -0.21896148 -0.4106588 -0.045037035 0.15620069 -0.014322437 0.06969063 0.22101732 -0.020790666 0.22936302 -0.19596067 0.20262103 -0.09639717 -0.10303902 0.11396162 0.26002544 -0.20212997 -0.1612763 0.0039018912 -0.16861522 0.07686721 -0.13808504 0.15082446 -0.024348335 0.35130128 -0.21912342 0.041468438 -0.3052022 0.2299224 0.16596301 -0.38078374 -0.010608397 -0.14787777 0.04996713 0.15654203 0.3898587 0.11237853 0.11289807 0.13728653 -0.5737794 -0.07002342 0.052867696 -0.12889548 0.31911296 0.30705497 -0.11035516 -0.29708594 0.118148305 0.11197131 -0.3773916 0.14545265 -0.16024113 -0.2197512 -0.04688477 0.04863631 0.10342734 0.07921219 -0.14437398 0.3789495 0.20111145 -0.12825567 -0.05736841 -0.41760603 0.27185088 -0.41787755 0.12595773 -0.11282197 0.032060705 -0.17195292 0.011905684 0.19001636 -0.14999633 0.40903458 0.023816315 0.15727746 0.13097909 0.102616444 0.45320576 0.030063996 0.43666655 -0.110307224 -0.12755439 -0.0019393726 -0.23243465 0.08075565 -0.17360696 0.40992352 -0.056759436 -0.09081534 -0.123642236 0.1915185 0.06584992 0.0980608 0.10252435 0.060823094 -0.36972854 -0.33704895 -0.21759468 -0.1901871 -0.15263328
道 -0.048624348 -0.11459375 0.093799375 -0.2670259 0.07472055 0.024736898 -0.10754266 -0.40906996 0.044592883 -0.20458366 0.26288033 -0.1628052 0.022858374 0.15224558 -0.042852394 -0.13676167 -0.14754282 0.081416234 0.2253959 0.14358468 -0.034906745 0.0454421 -0.058853198 -0.1393793 0.340294 -0.19494383 -0.14062639 -0.0141150225 0.12630399 -0.10816729 0.059717316 -0.0019026351 -0.53688186 -0.116089895 0.22217524 0.16136354 0.2492841 -0.31797355 -0.026457923 -0.24372229 -0.36270645 -0.020172551 0.15698734 0.05391123 0.17431009 -0.3540603 0.1864174 -0.20689367 0.18350525 0.3016024 -0.08681003 0.106695615 0.10435698 0.13387986 0.11544694 -0.27085122 -0.103222325 0.1500864 0.11150605 0.06754459 -0.07263296 0.07839399 -0.14724816 -0.43369916 -0.041411705 -0.005298983 0.05002516 -0.18881764 -0.19059098 -0.29522854 0.22112828 0.14255974 -0.026902033 -0.0038637219 0.13760191 0.0075516435 -0.013306772 0.40356246 -0.27912757 -0.19197738 0.2630231 0.16723096 0.13745487 0.0018800519 -0.04309905 0.0015629838 -0.23528261 0.042470567 -0.099916264 0.16612191 -0.0016042488 -0.3884021 0.25188443 -0.11626518 -0.035224944 0.014289983 -0.011185473 -0.38173723 -0.090823054 0.11486553
焉 0.1616744 0.120416954 0.35031334 0.18471347 0.30289054 0.40892342 0.19433211 -0.42126134 0.02767617 -0.08628785 0.2933584 -0.17617327 0.3215845 0.000758037 -0.111765444 0.029741785 -0.08921252 0.22791384 -0.03869476 -0.27440768 0.23797013 0.105329044 0.09790053 -0.039629467 0.06063733 -0.20145218 0.17653212 -0.0202396 -0.002793909 -0.13596185 -0.19554159 0.20751055 -0.10345109 0.05150296 -0.011482186 -0.26582873 0.1023147 -0.0011126637 -0.05827508 -0.20041971 -0.114290126 -0.21606472 0.3002335 0.44333014 0.046498485 -0.61993873 -0.2323039 0.16610436 -0.038526848 0.054986935 0.16089965 -0.18468831 -0.03345423 -0.025630351 0.010942492 0.21313168 -0.1788156 -0.1938378 -0.04630509 0.1471016 -0.45036098 -0.12867583 0.002799622 -0.15635274 0.01919536 -0.08220905 0.21370204 -0.065656684 0.02326655 0.31026337 -0.1829423 0.36416462 -0.11919438 -0.2475296 0.17971857 0.01092487 0.087545194 0.39458445 0.11789376 -0.18593767 -0.3127088 -0.23276503 0.068484314 -0.14888817 -0.047691748 0.101852275 -0.2910584 -0.16433185 0.21106172 -0.09843899 0.05499851 -0.043200728 -0.13022342 0.09302443 0.25448772 -0.09399966 0.26975253 0.11276977 0.21561421 0.1751094
行 -0.01362196 -0.07658334 -0.17190461 0.077971235 -0.15539363 -0.020170359 -0.0045301626 -0.3225843 -0.11918164 0.29691964 0.12654892 -0.2553388 0.04268306 -0.30582199 -0.24213414 -0.16215004 0.38152856 0.06602607 0.3180688 -0.0491636 -0.0392944 0.18242323 0.040935654 0.03608846 -0.0578747 -0.05955735 -0.15396737 0.049281113 0.28039923 -0.18689795 -0.040620808 0.22889167 0.05386699 -0.16884145 -0.24237211 -0.20246032 0.05182139 0.0660751 0.19177194 -0.24573876 -0.14170027 -0.06286069 -0.054425724 -0.08205386 0.14141507 -0.45809528 0.22034362 -0.03907641 0.03203362 0.35861424 -0.132235 0.0741629 0.004007261 0.14443591 -0.27355385 -0.12980643 -0.24199109 0.32684746 0.32059813 0.042238034 0.35910353 -0.10843996 -0.07421314 -0.14616172 0.015008934 -0.09017323 0.11948799 -0.11568575 0.018850919 -0.007822176 -0.14886409 0.4867707 0.10193263 -0.20111789 0.08028437 0.11445295 0.25148857 0.4914596 0.39189994 -0.2376709 -0.15993859 -0.30391136 0.1262397 -0.03542184 0.19277684 0.083031885 0.05692627 -0.46879724 -0.13403337 -0.115853764 -0.024461068 -0.1874384 0.31670767 0.120730236 -0.41333628 -0.19068313 -0.20042028 -0.00561577 0.030108284 -0.050649304
谓 -0.027945053 0.1799152 -0.029294172 -0.46714014 0.18287355 0.08088684 -0.077760994 0.24481785 -0.1558032 0.07340874 0.044291362 0.114928804 -0.20098938 -0.016452972 -0.0060889493 -0.042363215 -0.084076434 -0.08045437 -0.013552564 0.11363515 0.005205862 0.2073937 0.28748086 0.34162796 0.10655451 0.26356444 0.24208133 -0.1752943 -0.05419692 -0.0053671827 0.34490633 0.39641264 0.08570007 -0.18404436 0.06907806 0.0045284377 -0.23903379 -0.052434333 0.15850571 -0.9822171 0.043865204 0.29772267 -0.08156824 0.43401816 0.019717919 -0.0029903967 0.1849708 0.019791633 0.06995859 0.2287534 0.061232757 0.19123787 0.11147231 0.12809548 -0.15806052 0.12648486 -0.3797122 -0.16435656 -0.23017426 -0.18882515 -0.30059445 0.00048770872 0.29178455 0.3948149 -0.16861767 -0.14442237 0.23457097 -0.1765351 -0.33297464 0.28776506 -0.18298501 0.12025666 -0.27470833 -0.33099988 -0.15929425 0.13675284 0.04787701 0.29236218 0.17577344 0.11187012 -0.08165445 -0.10134661 0.1828478 0.064180925 0.0083004795 0.026325809 -0.244636 -0.05390862 -0.11707879 0.052918904 0.13022737 0.10865577 0.15191919 0.3033329 0.04262314 -0.0073612854 0.07901531 -0.004455348 -0.18333933 0.23461959
必 0.04862084 0.2905528 0.14394595 -0.25324374 0.10634033 -0.034334324 -0.17915611 -0.10479738 0.25265807 -0.25411806 0.12867364 0.40142286 -0.0004990905 0.024726482 -0.2183518 -0.12739731 -0.17089699 -0.32638422 -0.14189875 -0.17079517 0.11282341 0.45682627 0.08727731 -0.25456244 -0.033321634 -0.2308297 0.033147603 -0.24205631 -0.38335034 0.05390777 -0.1064452 0.0671963 0.09637522 0.05535446 -0.06980397 -0.03832528 0.23867139 0.22464179 0.05419177 -0.10416971 -0.13063087 -0.18861654 -0.20536223 0.05482993 0.14756939 -0.29932913 0.09652715 -0.33141816 0.058662053 -0.28729302 -0.040118802 0.20559473 -0.09054399 -0.15290315 0.15243335 -0.18572748 -0.20813191 -0.02195059 0.2748879 -0.1578302 -0.036760986 -0.27663952 0.3165376 0.06509075 -0.206657 0.3176746 0.09488463 -0.19965902 -0.014234111 0.004478679 0.25850496 0.2583715 0.036753807 -0.23178948 -0.13466853 -0.2614342 0.07181526 0.6879246 0.029520497 0.26859763 0.17079389 -0.030487437 -0.08976906 0.2960827 0.009797391 -0.044314023 0.005077205 -0.5118 -0.12321265 0.25358683 0.2545993 0.12264431 0.2341256 0.07710562 0.028632218 -0.28685242 -0.104029536 0.097591706 0.13112503 0.006289263
礼 0.015651938 0.4450483 -0.2687945 -0.15276648 0.0059167887 -0.037298333 -0.015950702 0.08866051 -0.08890264 -0.03221504 0.13632494 -0.08701595 -0.19398232 -0.31122133 0.0661039 -0.051983386 -0.2080138 0.11991956 0.046828162 -0.19441903 -0.061831757 -0.32940418 -0.0806797 -0.24643135 0.021098927 0.079619735 0.25520477 -0.26617813 -0.2269612 -0.33263296 0.054377932 -0.03317216 -0.31010982 0.23137577 0.37385398 0.08136253 -0.026227526 0.014310145 0.11191283 -0.082921684 0.0052564503 0.2108027 0.13381708 -0.078054786 -0.085298896 -0.23475873 -0.12238935 0.14645027 -0.12391097 0.124331474 -0.0053390237 0.0906356 -0.032741196 0.03539246 -0.22336753 0.07884848 -0.35034916 0.08436675 -0.017533306 0.3254247 0.32253096 -0.12626529 0.17168854 0.059816834 0.14398149 -0.07499431 0.2889987 0.049871743 -0.008847614 -0.05096273 0.071363546 -0.01683342 0.05529271 0.36208487 0.027504709 -0.008185951 -0.24717927 0.6549286 0.14048879 0.1453883 -0.026560454 0.44898456 0.022785347 -0.39167118 -0.042971406 -0.06541252 0.07547673 0.5067685 0.33338362 0.14421034 0.17666979 0.23155378 -0.027380954 -0.4665022 -0.07238746 0.040364478 -0.04764979 0.061357446 -0.3570015 -0.25711685
孔 -0.30703217 0.0061795427 -0.27018073 -0.17639042 0.07356478 -0.028464288 0.061758667 -0.019033082 0.18482079 -0.0845855 0.02842249 -0.06804993 -0.060849883 0.26435253 -0.055490002 -0.11226127 0.14158219 0.02586648 0.31064412 0.59352124 0.099313885 0.08095101 0.14442939 0.04676413 -0.076688424 0.120865665 -0.0557617 0.09735828 -0.45459023 0.0024631638 -0.046635583 0.038523246 -0.10620968 -0.22743309 -0.1280369 -0.10555312 0.08201586 0.15155488 -0.0874601 -0.82853353 0.46122804 0.18986335 0.22072102 -0.24993753 0.22820641 -0.61881936 -0.28000244 -0.08976527 -0.30190358 0.31769967 -0.0015565081 0.0896283 -0.11464828 0.015286232 -0.21923964 0.297626 -0.34860593 0.18650897 -0.095289774 0.022357684 0.13150553 0.2883636 0.2087306 -0.042524956 0.084462024 0.34115952 0.031190574 -0.14387006 0.35465127 0.2597983 0.11574711 0.6493432 0.057451025 0.14317578 -0.34627214 -0.22570297 -0.2594977 0.12919673 -0.2514035 0.37030756 0.018633682 -0.3085234 -0.01581464 -0.026619937 -0.059762444 0.08575703 -0.11599207 -0.051085904 -0.3446704 0.46932968 0.018928368 0.254369 0.08538724 0.19726987 0.09650915 0.11937211 0.09314461 0.10737795 -0.29501766 0.3048708
斯 -0.09775974 -0.18684681 -0.10518819 0.17718986 -0.015931288 -0.16570082 -0.22946443 0.28541723 0.20132017 -0.02247155 -0.08401362 0.26521814 0.13403334 -0.3916225 0.0042194407 -0.05677469 0.07055686 -0.027671665 0.11670877 -0.38044015 -0.2853675 -0.025168637 0.23288079 0.014972666 -0.19205467 -0.22017409 0.2760069 -0.013246366 0.15485758 0.09587437 -0.19906485 0.1934148 0.46747 0.14639717 0.12661806 0.06286104 0.12957416 -0.06793506 -0.18569405 -0.43556565 0.2696592 -0.22063437 0.059044756 -0.061356217 -0.39127254 -0.21989116 0.17439258 -0.43667388 0.0788273 0.29581904 -0.2602824 0.18458903 0.29670212 0.2708254 -0.41221184 -0.023232242 -0.15823554 -0.23114517 0.0029654182 -0.16850983 -0.09742071 -0.008441821 0.08714475 -0.29991984 0.39922637 -0.38677084 -0.100960776 -0.06618365 -0.08066261 0.2851665 0.13299406 0.061962254 -0.06417133 0.019537603 0.043612562 -0.12394384 -0.06829291 0.6212364 -0.044368938 -0.04125357 -0.23057099 -0.24760225 0.1295993 -0.015391979 0.10830737 0.21152826 -0.0797092 -0.29844737 0.3001149 -0.11271843 0.21568297 0.24049786 -0.0066669877 0.27102163 0.059402287 0.3124634 0.056007512 0.21988055 0.2339138 0.21096253
三 -0.08857512 -0.043335777 -0.26902878 0.3142828 0.16401502 -0.08751723 -0.13979495 -0.20049049 0.4345209 0.16516283 0.17724803 0.06800892 0.007933876 0.25349742 -0.117893346 -0.10059953 0.12842356 0.25143144 -0.26107058 -0.10413025 -0.1925071 0.47784722 0.16671994 0.07556689 0.018562203 0.14884803 -0.17622072 -0.2623179 0.33383718 0.28256276 -0.03920996 -0.21848722 0.006147052 0.08889638 -0.11148842 -0.021232978 0.09849553 0.43998924 -0.24464922 -0.23032008 0.19432291 0.024779316 -0.09584415 0.112470075 0.03144291 -0.388273 -0.07786832 -0.030066842 -0.06561245 0.003434201 -0.013883951 -0.042608645 0.2810216 -0.0030715342 0.061282128 -0.09751916 0.05541055 -0.12217356 0.20530446 0.2929278 0.28752744 0.04558466 0.049392696 -0.6115521 -0.008637509 -0.032553796 0.36397508 0.07412728 0.2157562 -0.21955633 0.14015633 -0.23526828 -0.21181159 0.005332179 0.34139693 -0.21234676 -0.15891312 0.50223815 0.054753177 0.090167284 0.3319267 0.213745 0.014099319 -0.009709479 0.21707344 -0.2891498 0.13613065 0.1963346 -0.08625694 -0.044989493 0.19485924 0.31602848 -0.14012519 0.23915955 0.07523617 0.0553517 -0.19898519 -0.1259434 0.059981484 -0.16925567
能 0.27430493 0.3817528 -0.052562416 -0.29001838 0.0006200883 0.56125635 0.1475355 0.16485037 -0.2813367 0.12522788 0.17928451 -0.18094744 0.19421951 -0.12600216 0.17796122 -0.25889063 -0.16901071 0.103518225 0.034886576 -0.043564107 -0.11445616 0.08255768 -0.18812597 0.08593629 -0.5927174 -0.21185696 -0.20108645 0.14885342 0.058176 0.23169132 0.12087096 0.15190017 -0.05897773 0.03484459 0.045858845 -0.07517709 -0.02935763 0.1902635 -0.2052699 -0.1814882 -0.35869068 0.08248039 0.12997659 -0.10019088 -0.020242225 -0.33531275 -0.23284893 -0.07731207 0.22803478 -0.18100458 0.025304068 0.16609658 -0.17855695 0.052445482 0.0037652485 -0.13033123 0.10290226 -0.30508238 -0.03335985 -0.09453916 0.048696432 -0.25301927 -0.36331484 0.17726152 0.08372466 -0.051662683 -0.0060125645 -0.3164271 0.036056224 0.075548574 -0.1495646 -0.0051200166 -0.036576454 -0.10543609 0.1384019 0.2708162 0.024976933 0.6511411 -0.24400058 -0.3512327 -0.13767397 0.27108902 0.16616663 -0.035344277 0.31897795 -0.22596054 -0.27216005 -0.08499128 -0.06627607 -0.017198198 0.33003396 0.062155783 -0.0949638 -0.15894032 -0.034823176 0.12927215 -0.049282875 -0.047487378 -0.1401083 0.045315396
见 -0.34603637 -0.21340857 -0.005192878 0.25007138 0.064315505 -0.03226603 0.06956168 0.08354726 0.0971008 0.13409682 0.10618826 -0.058794215 -0.41739488 0.21840468 0.21089219 -0.037629027 -0.3466758 0.25510007 0.13113195 0.010357993 -0.19110925 0.32945415 0.08342694 0.31108958 0.3822347 0.09886204 -0.010670301 0.01513129 -0.06749845 0.072275005 -0.105968915 0.18434496 -0.242273 0.12342902 0.18508673 0.025901632 0.008174062 0.032882653 0.45971522 -0.34970078 0.26375276 -0.14532192 0.06534228 -0.23773038 0.1730315 -0.2539714 -0.21377993 -0.088283755 0.20618919 0.06032171 0.1443627 0.044151474 -0.22936346 -0.021411132 0.26781318 -0.17290582 -0.07234371 -0.31139353 -0.3875619 -0.077298015 -0.14644845 0.25276306 -0.089531206 0.17810617 0.27231276 -0.166135 -0.09484237 0.47629675 -0.14996445 -0.04343653 -0.5007009 0.09177509 0.10710252 0.3515107 -0.3133528 -0.042752832 0.4528331 0.5249837 0.078081004 0.2588151 0.15744142 -0.29892686 -0.15329908 0.14704598 -0.0837642 -0.19044782 0.027325006 -0.070092574 -0.04080387 -0.20577808 -0.19906603 -0.08877435 0.09616794 0.26349878 -0.34367633 0.018427148 0.33804062 0.15584746 -0.2205909 0.03563858
学 -0.06423241 0.17660277 -0.02049523 -0.13212357 -0.019677628 -0.13689485 0.14736022 -0.08092834 0.23438081 -0.06225054 -0.06766153 -0.20469196 -0.19211356 0.019789582 -0.071856365 -0.13775748 0.018252375 0.31431773 0.21399671 0.16431916 -0.011654313 -0.08383308 -0.25539315 -0.32142526 -0.055061888 0.41150835 0.24969448 0.2970171 0.025253963 0.04377986 -0.012479341 0.16636606 -0.002783362 0.0668714 0.35701773 -0.5421905 0.099111155 0.34736308 0.049475852 -0.3294697 0.095516734 -0.0475933 -0.052831765 0.20440564 -0.06416694 -0.43016925 0.20997964 -0.06495249 0.21181382 0.12935445 -0.08926499 0.22663899 -0.052994125 0.12033261 0.13125224 -0.093808025 -0.18011773 -0.12466647 -0.14718309 0.2675796 -0.073503576 0.18096174 0.028157344 0.15733086 0.20641705 -0.58771706 0.048236076 -0.070093565 -0.14334388 -0.2826206 0.10899486 -0.16568603 0.16626357 -0.19257498 -0.2721376 -0.13997011 0.038861573 0.4999052 -0.08074086 -0.12958638 0.1388684 0.0038512738 -0.026111014 -0.4117832 0.023358213 -0.16517285 -0.061953254 0.06392389 0.23486236 -0.17144243 -0.3168629 -0.074285224 -0.20113628 0.28878263 -0.2320014 0.074422285 -0.26855582 -0.35600707 -0.013419621 -0.100792944
事 -0.0040685977 0.034881093 0.042619422 -0.06567133 0.06672649 0.22836876 -0.09205969 -0.052240416 0.13389573 0.15597302 -0.25339797 0.11506791 -0.16436176 -0.1978973 -0.028826306 0.07368875 -0.10448952 -0.21953085 0.028621282 0.37091705 0.030874144 -0.07446394 -0.24775484 -0.21237248 -0.034425233 0.01256746 -0.22303373 -0.05963696 0.044225253 -0.09524904 -0.44497785 0.42563164 0.041135043 0.19362122 0.13184895 0.13384138 0.15540527 -0.2562819 0.31173232 -0.1964834 0.2067437 0.28529072 -0.07752416 -0.39832336 -0.21761134 -0.36744875 0.075546764 0.0056813173 0.12530969 -0.39991096 -0.032679226 -0.33230054 0.15864918 0.0006705104 -0.2640162 -0.5140764 0.3134826 -0.15762854 -0.28418815 -0.13571763 -0.20764683 0.105331354 -0.010915906 -0.42530027 0.14104033 -0.1079997 0.08943534 0.017182605 0.2629679 -0.4317613 0.08172958 0.22296241 -0.10769017 0.1393108 0.24871522 0.19178188 0.06498267 0.5864496 0.21526767 -0.42905536 0.096224256 -0.14089891 0.018975366 -0.17375806 -0.047694243 -0.08945489 0.24351954 -0.09600335 -0.03574466 0.03320033 -0.11538429 0.0812297 0.6084914 0.17000954 -0.2275913 -0.005827773 -0.23052739 0.3675347 -0.50460416 0.17106438
是 0.10530033 -0.08532492 0.3061045 -0.0016606785 -0.2581763 0.05318033 -0.08995742 -0.23975156 0.1873031 0.23265252 0.40457603 -0.28600553 -0.09743105 0.18581207 0.14974391 0.20086052 0.37801382 -0.120894045 -0.43797988 0.23259588 -0.097724766 -0.12313277 0.19268215 0.0012721902 0.123334706 -0.15988709 -0.38139027 -0.018537654 0.0466584 0.0018096373 -0.0013340015 0.10104229 0.15519698 -0.12142669 -0.18645212 0.07050517 -0.24895467 -0.11257879 -0.0170926 -0.53232133 -0.13939106 -0.32492802 0.43614486 0.03875138 -0.19022523 -0.19997619 -0.21723077 -0.021199908 -0.341076 0.06596516 -0.010076848 0.19032945 0.21383655 0.012543319 0.11247326 0.07682728 0.0262233 0.18226382 -0.012725681 0.07305395 0.02803173 -0.286039 0.36981252 -0.12516433 -0.064884424 0.006236089 -0.43358678 0.03801307 -0.045114726 -0.10173888 0.13010997 -0.09437837 -0.080421165 0.2715641 -0.06296491 -0.10854847 -0.14230853 0.45841682 0.16263685 -0.25614893 -0.04246971 -0.08110545 0.074155554 -0.14118285 -0.06377858 -0.26137912 -0.5935786 0.06851013 -0.095753044 -0.31826147 0.105679214 0.029619966 -0.21468005 -0.043634716 0.105420694 0.12934648 -0.12226638 0.16286306 0.12170999 0.049701925
哉 -0.1951664 -0.24708703 -0.34828722 -0.16270171 0.0005201982 0.31573328 0.015686234 -0.045459572 -0.0942131 -0.2302719 -0.10864136 -0.13725008 0.06464556 0.114356026 0.31173667 -0.32371134 0.13291563 -0.20098315 0.1542437 0.3006361 0.19080348 0.055783253 -0.18420935 -0.10984808 0.055610996 -0.11661205 0.035306375 -0.48853013 -0.34406847 0.28290462 0.112306476 0.120540574 -0.18051305 0.21080999 -0.3554059 -0.16479313 -0.23136313 -0.11923585 0.08896972 -0.8349074 -0.043101147 -0.21586066 -0.10711112 -0.17987922 -0.14373787 -0.35349372 0.17567176 0.2638159 0.16306953 0.12929362 -0.11443848 -0.023042558 -0.09121951 0.134428 0.016268555 0.13487111 0.01665769 0.0065362724 -0.17379184 -0.14520234 -0.04876688 0.06381935 0.060138665 0.24509984 -0.045430522 -0.30822426 -0.5730583 -0.08454737 0.13411729 0.18378896 -0.08338676 0.16622008 -0.034202833 0.20033911 0.42137596 -0.08461407 0.09818421 0.123085216 0.2974157 -0.2686643 0.19497262 -0.09721936 0.24145122 0.021599635 0.1477372 -0.044861227 -0.35122257 -0.03481834 -0.023956697 -0.04463457 -0.045823146 0.30354992 0.16559397 -0.6408471 0.104268484 -0.19758078 0.13447642 -0.14523959 0.050583947 -0.2205174
闻 -0.2389075 0.022142941 -0.1168216 0.03540031 0.19229876 -0.29156893 -0.08927017 0.15174656 -0.09239389 0.32018185 0.35937667 -0.28749081 -0.32444683 -0.23122402 -0.18543327 -0.2328686 -0.2985356 -0.102336034 0.13309857 -0.2500119 0.26129904 0.16394877 -0.025587622 -0.1483205 -0.2947564 0.49671385 0.35992795 0.14295895 0.17987524 -0.015114681 -0.12885588 -0.08839937 0.115772665 -0.05407146 0.2610683 0.05487645 0.13427307 0.3202229 0.076846085 -0.5607192 -0.24965428 0.1841413 0.15502141 -0.37698677 0.12106118 -0.3428929 0.14069381 -0.19658504 0.121789694 0.22021712 -0.09508258 0.41334116 0.05776475 -0.31584927 -0.13636592 0.12228932 0.05666373 -0.016555177 0.24303646 0.07225517 0.29706645 -0.22532076 -0.17068054 -0.24519624 -0.015955899 -0.13961272 0.12044178 0.22275276 -0.0055160206 -0.1913565 -0.13671154 -0.132607 0.27493352 0.21401776 0.18539998 -0.061095364 -0.2825479 0.3253633 -0.45453036 -0.06336642 0.21528399 0.06275958 0.23278472 -0.04735847 -0.14346984 0.27631658 0.03441306 0.2017271 -0.46705088 0.029640304 -0.23462787 0.065270066 -0.13642816 0.08188026 -0.2180978 0.15903676 0.007339478 0.12784901 0.25025344 0.1028243
未 -0.22111325 -0.076480344 0.103630506 0.31475553 0.025293428 -0.37275448 0.10565579 0.40305853 0.11219488 0.0846622 -0.28373855 -0.095439576 -0.013420621 0.09468188 -0.056614906 -0.48228654 -0.1506864 0.25726673 0.24220936 -0.102293536 -0.36213738 0.16952571 -0.4123697 0.03167099 -0.071517244 -0.050106306 -0.18310201 -0.25195262 -0.4353907 0.47445598 -0.04520534 -0.18302059 -0.12485246 -0.32412547 0.15251766 0.11187473 0.046796616 -0.203247 -0.06862874 -0.43439335 -0.006335293 -0.06707055 -0.011709634 -0.266061 -0.129279 -0.46850362 0.18517548 -0.15986343 0.07025134 0.28676915 0.25806877 0.21205294 -0.040460024 0.0960832 -0.040369418 0.1538165 -0.13315195 0.083670676 0.012171065 -0.36733034 -0.12773974 0.21759902 0.043622755 0.2814959 -0.22267164 -0.1283054 0.21063966 -0.052400984 -0.07022621 -0.071821965 0.23368087 0.10772798 -0.13305892 0.01887301 0.1043009 -0.03970793 0.13991801 0.34566396 -0.041016486 -0.2080466 0.23682873 -0.29088995 -0.17910156 0.102553345 -0.007986041 0.06448284 0.12012815 0.21436007 0.090759255 0.04724927 0.09434886 0.068835355 0.35085166 -0.00910505 -0.083174445 0.13868071 0.3520847 -0.30747926 -0.17575784 0.22597796
公 0.5069582 -0.0024673129 -0.21373169 -0.13367511 -0.0969296 0.0676657 -0.40190226 0.3951977 -0.20418917 0.038823303 0.047370218 -0.038655758 -0.2415344 -0.35224035 0.14298774 -0.03492786 0.05794357 0.05737315 -0.22076517 0.13658246 0.3649649 0.37039864 -0.10616672 0.21107003 -0.08250335 0.0019897402 0.2409832 -0.04527209 0.265468 -0.28043842 0.015629185 -0.13063417 -0.33490998 -0.06557266 0.2196705 0.42559636 -0.039303485 -0.2212287 -0.013628702 -0.6328302 0.06891145 0.36288136 0.17755195 0.2279975 -0.09071103 -0.6021337 0.005837697 -0.18818949 -0.094585896 -0.10634134 0.34158313 -0.10209244 0.3775125 0.13721009 -0.20649938 -0.063094445 0.51604193 0.08551009 0.017615383 -0.028598128 0.14680636 -0.11363248 0.11612734 -0.17132384 0.047632966 0.44995698 -0.03993339 0.04626489 0.31037807 0.6852798 0.35348582 0.3400992 -0.24468134 0.076012924 -0.30479446 0.27967438 -0.12849697 0.1673124 -0.09064612 0.23716567 0.17157362 -0.04236965 0.28733826 -0.24721767 -0.091214776 -0.0032249622 -0.06926209 0.06423836 0.08579339 -0.38746274 0.18465838 -0.22249287 0.37164673 0.12734322 -0.13498035 0.25181484 0.071645685 -0.4285598 0.15154767 0.19983679
好 0.1793186 -0.08702896 -0.3689259 -0.015975658 0.25050703 0.07653946 0.09951133 -0.028015357 0.09865432 0.25102225 -0.14408736 0.16731276 -0.013084596 0.07910424 -0.17452428 0.0035570383 -0.23624595 0.06154798 0.26509696 0.07082678 0.119960785 0.08286029 -0.26148134 -0.2677147 -0.21994935 0.07485745 -0.0731316 0.35623297 -0.33532426 -0.26547787 -0.070855446 0.14631547 0.19408756 -0.106787086 -0.01480925 0.117026664 0.14153706 -0.13714261 0.089956135 -0.2244887 -0.11516779 -0.21476072 0.1827533 -0.42439455 0.4892336 -0.2076156 0.586567 0.2361266 -0.05132229 -0.05150081 -0.31986317 0.39692834 0.2325547 -0.045208707 0.025325542 0.02815199 -0.5220379 -0.24008429 -0.10775879 -0.165962 -0.21042015 0.3621904 0.16005972 0.060314994 0.050919197 -0.5457278 0.053112954 -0.0737933 0.25233027 0.21022494 -0.21371324 -0.23574845 -0.130554 0.43779555 0.25889778 0.14409 0.41812918 0.9200905 0.046562057 -0.2757748 -0.12249718 -0.22703907 0.16795099 0.27450427 0.14519662 -0.24472648 -0.08740962 0.17213058 0.24358368 -0.1192811 0.11387574 0.15453288 -0.06488034 0.26464695 0.17991307 -0.04515693 0.10739926 -0.036026325 -0.072750345 0.093136914
我 0.22744875 0.10049257 -0.35185814 0.055705305 0.14152217 0.09515974 0.21135823 -0.0026211494 -0.011233709 0.18503694 0.3129957 0.16263735 0.027527457 0.0334319 -0.18183596 0.12988947 0.07275622 0.31690994 0.0038433338 -0.07089384 -0.27809158 0.3162258 0.16842788 -0.057713382 -0.16896263 -0.17709117 0.17831884 -0.22960901 -0.24573682 -0.19693932 -0.28167447 0.032840364 -0.11862224 0.13502389 0.19844173 -0.26185894 -0.36476398 -0.18088852 0.124502026 -0.6066466 0.14100711 -0.02908601 0.34199527 -0.32199574 -0.16413344 -0.28565547 0.37532988 0.060282648 0.31616545 -0.049717646 0.2739215 0.33254522 -0.41367185 -0.027910192 0.11580687 0.25006413 0.15120655 0.07366603 -0.13751113 0.07498319 0.30979332 0.25016296 -0.02629064 -0.23914938 0.104955524 0.20192245 -0.05158135 0.10153451 0.123474665 -0.23609872 0.18815745 0.13820586 -0.25820082 0.43454656 0.2361198 0.2082862 -0.27911717 0.33998957 -0.08554494 0.28561375 -0.35859922 -0.052694377 -0.0068743913 0.18829046 -0.51925784 -0.011970087 0.25877917 0.16651033 -0.085798256 -0.2365992 -0.21677797 -0.22428401 -0.19957289 -0.11558626 0.47367188 0.05376508 -0.473984 0.09039391 -0.11431707 0.09033412
路 -0.06310543 0.034368288 0.042241033 -0.26717854 -0.11378435 0.48099428 -0.1799579 -0.0670956 0.45046225 0.2203844 -0.060928937 -0.26866052 0.17336793 0.06763822 -0.011875449 -0.36263376 0.32641226 0.08094095 0.08882831 -0.2784734 -0.19352096 -0.18979426 0.35601354 0.10297199 -0.09418748 -0.28657264 -0.338442 -0.087328956 0.19748837 -0.263843 0.16535537 -0.36882642 -0.17379431 -0.20416416 -0.23519576 0.030749803 0.053453118 0.07599636 0.05926235 -0.68365693 0.3213703 -0.0066850292 -0.05735143 -0.13046741 -0.1658063 -0.89954436 -0.12760407 -0.20933051 0.058917847 -0.010545372 0.11924858 0.12475268 0.18348034 0.0052721594 0.06995703 0.08199856 0.013369681 -0.3906527 -0.064753965 -0.029282734 0.20422752 0.010999836 -0.39834726 0.24929805 -0.30743408 0.05240243 0.042792037 -0.29054537 0.38995278 0.030528586 0.18107428 0.07073339 -0.3662034 0.120953456 -0.0028149253 0.07306753 -0.06383758 0.03623532 0.36861697 -0.13963655 -0.25553715 -0.17796542 -0.11700606 0.044356566 0.35173783 0.17049038 0.37818697 -0.045250807 0.121890284 -0.15691704 -0.3636123 0.099665955 0.46081153 0.2319311 0.35350266 0.14731424 0.27029273 0.104661494 0.304845 0.16988312
在 0.050892692 0.080242164 0.32375187 -0.08687591 -0.061378166 0.082154706 -0.11883216 0.08134323 -0.28259227 0.27354962 0.27232993 0.2397635 0.08604496 0.012295352 -0.29071212 0.30308026 -0.045231376 0.13178776 0.17830685 -0.11407872 -0.045105748 -0.063310765 -0.085327804 0.30864197 0.31094965 0.2228651 -0.02930549 0.26760826 -0.032760136 0.090635024 -0.4534972 0.27101168 -0.0017931843 0.041177843 -0.263887 0.3283644 0.03605373 -0.13437136 0.07733711 -0.23757474 -0.0005452604 -0.11209982 -0.07430352 0.38553423 -0.06408045 -0.3841763 0.27078238 0.077291116 0.018191552 0.09313494 0.16531739 -0.07199463 0.2532845 -0.036872737 0.10745952 0.2431278 0.41440582 0.094516754 -0.041540768 0.39180017 -0.18132208 0.31171364 0.19054976 0.29767448 0.08228277 0.120221645 0.072462484 0.48607045 -0.18857853 -0.32410887 0.26020336 -0.06349601 0.007801059 0.44367504 -0.07275071 -0.11462479 0.076288804 0.52950567 0.51381826 0.020415138 0.2781032 -0.015312243 0.029759506 -0.30476305 -0.24618615 -0.044994585 -0.22920687 -0.32513094 -0.05881456 -0.031144107 -0.17407326 0.53661364 0.09058903 -0.035528727 -0.12488842 0.0071791927 -0.2760766 0.35092244 0.14397737 0.20824377
已 -0.15910427 0.045031734 -0.055493757 0.14164843 0.37342557 -0.005713217 -0.1313172 0.34629303 -0.23884878 0.00020356356 -0.07861105 0.2828312 -0.25467908 -0.1318844 -0.10947766 0.13557015 0.118714355 -0.19644657 0.11134525 -0.055266034 0.07759146 0.21292812 0.15160042 0.2054463 0.14253311 -0.40255615 -0.09751505 -0.028472768 0.08153371 0.35110247 0.124309905 0.44401026 0.17734791 0.18699141 -0.06282055 -0.13739745 0.034523256 -0.3014661 0.21955112 -0.7703609 0.03883648 -0.34219077 -0.16032045 0.2039362 -0.005883809 -0.32215706 -0.0050440887 -0.039957847 0.32173824 0.21132901 -0.18804504 0.6485334 0.09666906 -0.36941344 0.20646946 0.12066516 -0.14920188 0.07914471 0.18897703 -0.045055065 -0.15221308 -0.10119615 -0.27008033 -0.077864304 -0.12149368 -0.4450168 0.77121013 0.06856681 0.32532194 0.37848637 0.058400158 0.0890556 -0.0016616489 -0.4016192 -0.056927294 -0.081251 -0.40795904 0.37261418 0.23492229 -0.15343435 -0.10047409 -0.31852978 -0.07882668 -0.187587 0.1020132 0.18745843 0.032170836 0.12007346 -0.051872004 -0.37298694 -0.013680399 0.5081485 -0.31955218 0.5932753 -0.67034763 0.085948035 0.2769281 -0.12773135 -0.07558228 -0.06931511
得 -0.18126501 -0.040647496 -0.056725055 0.38929942 0.00031369625 0.29079142 -0.10993412 0.16258675 -0.34628144 0.051751778 -0.14279598 -0.08939698 -0.16572258 -0.12777841 -0.022008138 0.11461583 -0.29500937 -0.13567597 -0.026047243 0.004607462 0.073292814 -0.14718728 0.30456364 -0.4184969 -0.27079162 -0.119513676 -0.060246237 0.10924534 0.049376447 0.12382196 -0.23530948 -0.21458192 -0.15118635 -0.109144285 -0.11806078 -0.18021739 0.32890743 -0.029955732 0.23268618 -0.086852625 -0.21243867 0.38036504 -0.08740723 0.2256653 0.08062054 -0.4437909 -0.081927866 0.04130698 -0.15646969 -0.045873456 0.25331742 0.18659842 -0.034453064 0.20017315 -0.33373708 0.24127471 -0.29049695 -0.060056593 0.1478736 0.042181395 0.061809357 -0.046043057 0.0144320475 0.25714317 0.23416108 0.119385615 0.3353252 0.3579965 0.014661105 -0.2530161 -0.3705691 0.06569561 -0.21464781 0.25866738 -0.17504911 -0.40424705 0.09683321 0.68194354 -0.11889779 -0.04163065 -0.061262216 -0.16518253 0.10333543 0.042310823 0.048598193 0.043821733 0.12023398 -0.14746654 -0.09730561 -0.109409146 0.10448745 -0.34513822 0.001476169 0.117132254 -0.4000574 0.4107924 0.43619218 0.33849066 0.22030355 -0.23624101
所 -0.37046936 -0.017237557 -0.22482234 0.1756685 -0.017892322 0.6252592 -0.009443991 0.28255862 0.14035681 0.45439935 0.3578633 0.2084095 0.22969922 -0.117377326 0.006089731 0.09986232 0.09633207 -0.12573276 0.10638019 -0.23567866 -0.16290282 -0.2419955 -0.058795948 0.1942206 0.0433722 0.1311846 -0.1065049 -0.1231369 0.23548712 0.08517701 0.01996925 0.16383485 0.1401864 0.01777765 -0.3196918 0.22320822 -0.09636454 -0.27216315 0.0855023 -0.07831409 0.02818227 -0.15511703 -0.21415475 -0.08823208 -0.3815517 -0.4365582 0.35340863 0.015412531 -0.31240144 0.26356652 0.14568011 0.33350614 0.008690379 0.25477892 0.22138982 0.22832103 0.12960835 0.19020897 0.0154972365 -0.03477727 0.09723173 0.2125908 0.30741256 -0.10255365 0.25462672 0.15892912 0.13254736 -0.030737836 -0.072595894 -0.09111952 0.19813849 0.29013288 -0.4207227 0.059875462 0.15502287 -0.15634054 -0.10782853 0.78315777 -0.068664625 0.03341241 -0.15149656 0.39465618 0.56665957 -0.34105185 0.18408094 0.10500611 -0.31794125 0.48086774 -0.12928782 0.06844494 0.13445345 0.06921791 -0.36877272 0.12696762 -0.30838275 -0.20447597 0.014029744 0.24266136 0.119700216 -0.09694508
民 0.04537753 -0.4587051 -0.4190038 -0.07899534 -0.4248053 0.21874166 -0.14108543 -0.20699972 0.010773086 0.118768394 -0.07981725 -0.171498 -0.17939977 0.17833027 -0.023601722 0.18909825 0.2285307 -0.08498443 0.30818522 0.010191895 0.09164324 0.101742 0.081114575 0.10758269 -0.30111217 -0.10894757 -0.15268214 -0.0114420485 0.03971263 -0.04705155 0.066496566 0.18525305 -0.044206537 -0.048255637 0.20571645 0.16940205 0.24073793 0.056810603 -0.43231162 -0.022099279 0.112383775 0.21079431 0.3155611 -0.10907109 0.19951604 -0.39959723 -0.2960952 0.18189992 0.2695615 0.18438585 -0.054205637 0.13536668 -0.024243258 -0.070788406 0.08258715 -0.23596506 0.08333929 0.003524162 -0.18539175 -0.3255002 -0.03730546 0.09892489 0.22292905 0.046812735 0.20189497 0.26799667 -0.0035424142 -0.12525432 -0.17057942 -0.41020697 -0.1629632 -0.060333896 -0.10258252 -0.37151912 -0.26600927 0.06357152 -0.5551309 0.69199824 0.15252173 -0.17345208 0.03425433 0.000106403364 -0.2386177 -0.3484905 -0.16894682 -0.28996685 -0.26975828 0.01190145 -0.718428 -0.18978433 0.2261921 -0.18888938 -0.10571193 -0.31406525 0.11587095 -0.13463213 -0.14413957 0.11448902 -0.34126753 -0.60016453
小 0.09917286 0.22392865 0.04471447 -0.14228386 0.058022108 -0.3893193 -0.17572887 0.5448942 0.5703895 0.23873368 0.30627754 -0.19219294 0.49365556 0.056771766 -0.2250398 0.09724389 -0.14149278 0.051891867 -0.096144795 -0.28506246 0.2661132 0.12592657 -0.29764944 -0.18930492 -0.16410205 0.09033874 0.09062719 0.00742288 -0.43962422 0.0033696436 0.023099504 -0.14265895 -0.090976454 0.27387777 -0.1882448 0.13006145 -0.16361049 0.046358734 0.3044915 -0.40870923 -0.06157923 0.027333984 -0.1925107 0.19531548 -0.46712723 -0.1615992 -0.53819263 0.26830173 0.21934305 0.21256132 0.20249447 -0.0627937 0.30169624 -0.06137306 0.10961069 0.024791636 -0.120642945 0.25826034 0.23445451 0.22230463 -0.25425962 0.15997796 0.06108536 -0.04375658 0.24894953 0.0765898 -0.052176252 -0.14432974 0.39401838 0.32768282 -0.46825445 0.1416683 0.15486269 -0.24908566 -0.072757 0.014212976 0.09234086 0.67750084 0.02495591 -0.2005043 0.08585536 0.07174493 -0.0992187 0.030433612 0.38782012 0.26368773 -0.072835125 -0.29017046 0.11204894 0.0011669728 -0.11458623 -0.07263837 -0.3709991 -0.20474645 0.21734159 0.2907228 -0.093205765 0.010509533 -0.2814727 -0.15584178
天 0.022463346 -0.13615607 -0.2314352 -0.26463026 -0.0070863725 0.30342293 0.08230012 -0.34527808 -0.08145148 0.20394826 0.3148888 0.26094642 0.2326616 -0.24193321 -0.3363231 0.38782755 -0.06684242 0.16952144 -0.27642578 0.092589065 0.07430909 0.22289866 0.05094604 -0.27016357 -0.14023723 0.15445833 -0.4624264 -0.25646052 -0.0939188 0.1405661 0.08561757 0.12466411 -0.23371196 -0.085692026 -0.34862712 -0.35475785 -0.04889035 -0.007427198 0.29788378 -0.50625163 0.28979632 0.2513416 0.01875117 0.036592446 0.36756304 -0.22311342 -0.37218732 0.066260494 -0.17731026 0.060768694 -0.15884137 0.1905074 -0.376775 -0.03958471 0.14430177 -0.14221369 0.40853584 0.59245056 0.014518149 0.1411712 -0.09801982 -0.27020457 -0.011540993 -0.35774207 0.20299551 0.009693138 -0.109102696 0.218847 -0.18984626 -0.011708688 0.2742296 -0.1385444 0.31572816 -0.20966607 0.29826972 -0.11803565 -0.032015402 0.52295077 0.0062187347 0.19732222 0.17507966 0.24652632 -0.053835932 -0.18643798 0.016524285 0.41168997 -0.090345815 -0.19045226 0.23894855 -0.10370781 0.058672644 0.009391206 -0.49149764 0.2660877 0.16235042 -0.31883618 0.22957821 0.02671504 -0.04946712 0.21495102
乐 0.2510804 -0.1549265 0.041715905 0.47878525 -0.18607268 -0.35704148 0.19234717 -0.1145821 0.37337917 0.21344906 -0.044781618 -0.26943558 -0.1522452 -0.103976145 -0.1865792 0.14360464 -0.36284846 0.01510123 -0.11287014 -0.070421554 0.11095166 0.035360187 0.022246279 -0.14004573 0.314498 0.057127696 0.14965281 -0.39731354 0.0094053205 -0.11938711 -0.17391123 0.14588946 0.23634866 0.13613828 -0.07423161 0.093851686 -0.546669 0.50248426 -0.077515416 -0.035731673 -0.1206119 -0.35624784 -0.23907436 -0.023052242 0.36678803 -0.27581647 0.09331489 0.043068755 -0.026169894 -0.29745507 -0.19745441 0.3515508 -0.1307713 0.26562595 -0.09156548 0.22099575 -0.2774097 -0.23799571 -0.047061395 0.12641913 0.08339499 -0.14535077 -0.31183013 0.43149373 -0.13204215 0.066925615 0.102526516 0.18292288 0.064431384 0.01936213 -0.51056963 0.26564053 0.06355364 0.082522064 -0.38718224 0.022841576 -0.1544588 0.7213089 -0.08589944 0.15642369 0.19985212 0.20993645 0.28437275 -0.09491041 -0.012055021 -0.018032745 -0.14660543 0.4507813 0.13326788 0.18369903 0.24426669 0.31833294 -0.24101295 -0.5712623 -0.058703385 -0.2412695 -0.2818955 -0.18140864 -0.2176687 -0.31807855
邦 -0.37556356 0.36088625 0.04530881 -0.037218362 0.09536447 -0.12934944 -0.4595778 0.12900232 -0.13105819 -0.17376472 0.27601504 0.004900956 0.3133975 -0.16398236 0.271441 0.016925862 -0.03714876 -0.013637458 0.04402335 -0.56069 0.2994345 0.30856296 0.07730292 -0.16982704 -0.034609284 0.16572066 -0.35676026 -0.23868963 0.019911231 0.10312767 0.032897934 -0.14466992 -0.035069034 -0.24824926 0.2930109 0.18696631 -0.66801953 0.13859703 -0.05109161 -0.22637247 -0.28037447 -0.15228906 -0.120953366 0.22798598 -0.13962269 -0.48220438 0.046231017 0.0066449028 0.30155462 0.2621547 0.043941405 0.11188107 0.6939839 0.17979263 0.625377 0.0718819 0.24728318 0.04796589 -0.019788625 -0.08405728 -0.02674439 -0.2672228 -0.1345321 -0.17274843 0.063353725 -0.11609251 -0.09840137 -0.034925472 -0.2620377 0.132692 -0.054286923 0.25428006 0.05691496 0.28742003 -0.36753213 0.12663996 -0.020230785 0.5503425 -0.17113602 0.011692919 -0.15739205 0.022230964 0.43887994 0.17749055 0.20948842 0.23957963 0.0965767 0.13010944 0.47713637 0.13870162 -0.041497324 -0.09248687 0.2940241 -0.17000423 -0.1428333 0.013363641 -0.11506457 -0.008142846 -0.19340807 0.26719585
亦 -0.18452483 -0.109843455 0.0012895513 0.058369923 0.06409229 -0.07168194 -0.015767101 -0.30276954 -0.061612017 -0.33612305 0.1662789 0.07987138 -0.1474891 0.13837326 0.10366919 -0.11740051 0.1174755 -0.032660782 -0.14709982 -0.21443993 -0.3544543 0.06550874 0.08154659 -0.20273279 -0.22032124 -0.21013042 -0.7612657 -0.1610996 0.11346591 0.12771635 0.50028515 -0.09326658 -0.25391257 0.061206535 -0.19136809 0.3350741 0.08008302 0.07770248 0.047374297 -0.2658237 0.03789866 -0.22431186 -0.012448208 -0.0040824 -0.19975115 -0.23392525 -0.1899924 -0.21663561 -0.039577086 0.23452991 -0.31873262 -0.030188816 -0.03136265 0.47582087 -0.17388141 0.14056905 -0.14372714 -0.071277395 -0.46044675 0.026575029 -0.37790623 -0.16703837 0.17457753 -0.18937984 0.021250553 0.21587126 -0.6656389 -0.2911847 -0.043075997 0.14753003 -0.28754494 -0.048362862 -0.005510489 0.26512498 0.108976565 -0.03877398 -0.5388277 0.7315277 0.18573727 0.16767244 0.10626841 0.09912717 -0.14980404 -0.28539774 -0.32321626 0.09807895 0.14080836 -0.084178135 0.22614779 0.3556893 -0.15976578 -0.25603762 -0.29085684 -0.15254049 0.11222305 -0.07161747 -0.00948018 0.20410076 0.36963892 0.12387646
使 -0.17128786 -0.34917158 -0.2998774 -0.076860294 0.0043050754 -0.24167971 0.15719607 -0.0986735 0.3426592 0.25187916 0.034787975 0.17304052 0.08424126 -0.13591968 -0.20868108 -0.32943034 0.14244078 0.19663434 -0.0681208 -0.002387121 0.13507181 -0.20121713 0.19331223 0.25827146 0.12764347 -0.2751137 -0.36182398 0.21711145 0.15967369 0.14095409 0.22493562 -0.3424409 -0.21573724 0.011143758 0.35131302 0.13004772 -0.33619562 0.04249215 -0.14107537 -0.36443684 -0.0362757 0.2188966 -0.036107168 0.12525779 -0.077613704 -0.18733776 0.058054272 0.09686837 -0.03311192 -0.043387957 0.4770979 0.27239025 0.118459985 0.27866304 0.08514344 -0.034115575 0.12314738 0.20321086 -0.03894155 -0.08168145 -0.25615174 -0.26502773 0.28652713 0.3576586 0.117668994 -0.08645479 0.037347846 -0.33720323 -0.120441325 0.030306555 -0.6400529 -0.0491737 0.3913088 0.3328862 -0.09369252 0.07122329 0.046199158 0.5151299 -0.2155654 -0.10038072 0.06063589 -0.038795765 -0.4741088 -0.4350157 0.21798337 -0.47307524 0.255312 -0.22051068 -0.0003967093 0.2934413 0.43472904 -0.08990184 0.14715879 -0.117271155 -0.22472014 -0.09391866 -0.4629719 -0.12228568 0.031240981 0.010180977
大 0.34272608 -0.021635842 -0.021382302 -0.11161394 -0.013262563 -0.18803594 0.2631264 -0.13453291 -0.004284964 0.4016818 0.020140056 0.040491167 -0.14754678 -0.48788142 0.018256113 -0.07522139 0.090763025 -0.24742661 -0.22993328 0.04870093 -0.03488969 -0.05046878 -0.23407644 0.018268483 -0.08480227 -0.015722036 0.07631817 -0.06405689 -0.25324258 -0.17433113 -0.03673404 -0.26767 -0.35741663 0.10828928 -0.09604933 0.34817943 0.20908672 -0.07207205 -0.45122394 -0.42135608 0.1265398 0.4796302 -0.18351085 0.2100442 0.08885753 -0.1575055 -0.043670006 -0.24819359 0.23173577 -0.10664762 0.17447701 0.10684693 -0.1346887 -0.125699 -0.15054016 0.16786078 0.37522897 0.082916275 0.40673408 -0.31676054 -0.002454714 0.33227193 -0.21648918 0.10571633 0.11003743 -0.26674357 0.0018830808 0.19581634 0.062278003 0.042564586 -0.044594847 0.24050282 -0.007266384 0.19302745 0.28173858 -0.12925442 0.11779287 0.47768837 0.3542536 0.19612975 -0.13954972 -0.42991814 -0.32318595 0.12593292 0.071196884 0.1186215 -0.36439276 0.06797634 0.059296716 0.47997367 -0.0045056175 -0.19289377 -0.082815304 -0.2783698 -0.027680552 0.17369686 0.08135519 -0.25762388 -0.16392852 0.36377108
下 -0.1726429 -0.30541506 -0.40878558 -0.23394914 -0.44339463 -0.04730215 -0.17095238 -0.34317154 -0.27105826 -0.0045852093 0.27429715 -0.066308916 -0.0050652563 -0.11287051 0.15325293 0.5127107 -0.06937374 0.18701307 -0.09842549 -0.03038186 -0.21500336 0.12491015 -0.13762705 -0.4116868 0.23666418 0.3816092 0.013539718 -0.06632208 -0.05672263 -0.22997715 -0.506083 0.013340249 -0.15975413 0.075060576 -0.08458647 -0.00091679435 0.3081245 -0.060365546 -0.03531575 -0.3678017 0.71515393 -0.26784843 -0.15553717 0.120836854 0.30262056 -0.21289301 -0.19899905 -0.09466814 -0.58805776 0.16795698 0.2012896 0.11363512 0.40935147 0.5627107 0.46809146 -0.10734151 0.020697346 -0.07495374 0.19532081 -0.48464987 0.13265613 -0.34483695 -0.018063456 0.2473635 0.17572783 0.04987825 -0.021136537 -0.14565292 -0.28247726 -0.010126047 0.06167235 0.024982387 0.2239338 -0.044947628 -0.12490189 -0.092828155 -0.13454577 0.7078194 -0.33002508 0.16123164 0.15684812 0.026364377 0.16318962 0.3454557 0.2921618 0.21598445 -0.35987502 0.16794267 -0.24951045 -0.079203926 -0.004707345 0.039383218 -0.17869422 0.14043078 0.048058406 0.013992053 -0.12161612 0.24148937 0.14044513 0.11340979
贡 0.13984193 -0.083028466 -0.31169897 0.029191222 0.29905057 0.17773367 -0.08821291 -0.039361965 0.54291975 0.2318745 -0.1557103 0.24228866 0.015534132 0.16780302 -0.035504825 -0.23744488 0.2992912 -0.15151131 0.14105089 -0.12849084 0.099436894 -0.07881475 -0.09657135 -0.12291316 -0.11195579 -0.29567257 0.030547455 -0.29410562 0.08536609 -0.30966818 -0.45199785 -0.5433676 0.27232414 0.25962278 0.22772036 -0.26800564 -0.29850277 -0.3410796 0.2811226 -1.1163698 0.04526756 -0.07828858 -0.074272454 0.009127738 -0.10840409 -1.0692654 -0.27861622 -0.24323039 0.16050053 -0.14067738 0.079774804 0.3292103 0.3995241 0.27087194 0.036112275 0.053541735 -0.2426089 -0.108172044 0.16768916 -0.034316413 -0.06254833 0.3344271 -0.043495744 0.10069463 0.15338479 0.087790675 0.048406124 0.26873103 0.3549549 0.6275846 0.19717175 0.38568258 0.06469479 -0.3925253 0.1287136 -0.20165752 -0.17471547 -0.23905101 -0.1560884 -0.47512367 -0.04306258 -0.1601398 -0.007423527 -0.0542513 -0.064680845 -0.014339965 -0.10971686 -0.12179103 -0.11468506 0.10409944 -0.061186653 0.30301413 -0.23068213 0.26746523 0.35592616 -0.23353738 -0.29336664 0.038513865 -0.18618804 -0.33817464
欲 0.031714294 0.16561912 -0.02904727 0.12226127 -0.068392545 0.16313763 0.44641894 0.50019217 0.03631237 -0.10432113 0.24354471 -0.19996412 0.161056 0.08404531 -0.021637259 0.29339108 0.12640887 0.33558947 -0.3080639 0.038078066 0.12610823 -0.06668734 0.22328427 0.42263845 0.25134963 -0.07803432 -0.15840194 0.16354641 -0.17644282 -0.08896431 -0.10087805 0.31484917 -0.20243554 -0.10459141 -0.07042304 0.0026861157 0.22557782 -0.3061744 -0.055557955 -0.13745698 -0.27861094 0.27688476 0.13711338 -0.07988396 -9.8686665e-05 -0.64970016 -0.0021507556 -0.31439364 0.0365895 0.13650614 0.2545953 -0.1897739 -0.2933524 -0.02988981 0.60482395 0.007920582 -0.28479642 -0.2778214 0.07761582 -0.16344278 0.1707478 0.15990625 0.037300333 0.21712908 -0.33238766 0.25403047 0.17262618 0.1893313 -0.16030237 0.070979364 -0.07042101 0.06440469 0.13118878 0.33689624 0.09233768 -0.37801635 0.05686617 0.5404192 0.47066465 -0.27281764 -0.16386399 -0.0043586227 0.17528728 0.0839395 -0.056425564 0.09847469 0.1694237 -0.058194466 0.1830379 -0.0316145 -0.2320183 -0.5744331 0.02867931 0.22980142 0.3595825 -0.18922974 0.10463234 0.17110744 -0.075072065 0.023815308
诸 0.34964353 -0.1708426 0.044496622 0.30786026 0.31683716 -0.124899864 -0.15233338 -0.14435977 -0.114738286 0.23256092 -0.09320576 -0.026734984 0.08302919 -0.34263727 -0.105440974 -0.54240227 0.15507925 0.13205768 0.043975275 0.17531976 0.22008322 -0.22422688 0.0017771018 0.23395416 -0.07364716 -0.060235962 0.22330548 -0.12289314 0.35676554 0.17110425 0.05169127 0.4819531 -0.510408 0.32336405 -0.24639691 -0.28311098 0.10073329 -0.023050472 -0.065968275 -0.43476918 -0.47437128 -0.012177707 0.010501211 -0.45046183 0.07800854 -0.57460403 -0.12473225 -0.36081862 0.1588109 0.16455255 -0.09337563 0.04873963 0.47824857 -0.5496468 0.12674078 -0.011707851 -0.11236506 0.23451847 0.4298906 -0.033185527 0.13531432 0.17560214 -0.2547956 0.006554802 0.040584907 0.31049377 0.15119714 -0.49384055 -0.4280704 0.14784469 -0.26996768 0.35282987 -0.3076969 0.087588966 -0.10457124 0.12872726 -0.095807664 0.25937983 0.43931162 0.12595206 -0.073490694 0.2634479 0.05282884 0.30483493 -0.17201863 -0.29988268 0.1369558 -0.59266883 0.080521315 -0.26366022 0.18211956 -0.13548881 0.12262533 -0.19641642 -0.12952292 0.34064084 -0.12168928 0.038384467 -0.02794553 0.23466797
从 -0.07078818 0.2868261 0.26643416 0.03849096 0.014207801 0.24904513 0.21981525 0.1447553 0.06931296 0.07988966 -0.1080647 0.18043807 -0.39184263 0.24145448 0.14950322 0.32127663 0.31365642 -0.28470612 -0.2207875 0.27048674 -0.13264433 0.070759036 -0.24803206 -0.09679102 -0.06355857 0.170271 -0.18462892 -0.48907733 -0.026409404 0.24802813 -0.14739287 0.13128522 -0.18508282 0.0047980268 -0.20146655 -0.085353784 -0.04838394 0.2636604 -0.10247144 -0.28008485 0.21087857 -0.15071769 0.4416596 -0.124425374 -0.029488318 -0.26653746 -0.25789344 -0.18201062 -0.15239842 -0.21602029 -0.15397377 0.15633838 0.13084804 0.43937194 0.099508956 0.13663912 0.2959203 -0.043276217 0.23962465 0.100111164 -0.20920445 -0.17450441 -0.033237476 0.08346052 -0.16603777 -0.11878523 0.42442772 -0.2655888 -0.12114221 0.086233765 -0.17326336 0.2663722 0.12810703 0.4361951 0.26166466 -0.056668226 0.17185254 0.57616055 -0.312999 -0.019451462 0.30454713 -0.021885613 -0.01891456 -0.4788134 -0.5428991 -0.12245507 -0.027699266 -0.2804095 -0.3967488 0.19915335 -0.42961827 -0.5653427 0.10714175 0.07904134 -0.046640076 0.13112634 0.2221387 -0.07816923 0.033118654 0.029645966
文 0.10542169 0.14481446 -0.42343006 -0.13446766 0.33002177 -0.19577892 -0.32821777 -0.123564824 -0.46761313 -0.1002763 0.19392645 -0.07988827 0.1748007 -0.15405151 0.17335215 -0.29115066 -0.35468963 0.13458405 0.2529366 0.022408782 -0.23380718 -0.04849007 0.11489328 -0.05155011 -0.104285434 0.07301286 0.3017759 -0.485521 -0.12404929 0.117856726 -0.25743786 0.19083616 0.03555156 0.08103419 0.3614113 -0.17698327 -0.06469461 0.11912802 -0.31055188 -0.69056433 -0.00023789438 0.25896794 -0.3774245 -0.29894963 -0.1217706 -0.11966558 0.05549176 -0.012847054 0.056509525 -0.26532066 -0.36854613 -0.0465474 -0.2727101 0.2869063 -0.097250916 0.060738873 0.4808452 -0.012997655 0.09192468 0.0007846335 0.10880947 0.041649513 0.11866969 -0.2301031 -0.092167996 -0.10995123 0.30711967 -0.46579903 0.02796612 -0.23045474 -0.35081345 0.012989231 0.26365063 0.034317385 -0.1358826 0.27299893 -0.05511654 0.31707576 0.044367597 -0.0021813775 -0.026969971 -0.32222697 -0.04984489 0.22809173 -0.122614026 -0.27741426 0.030443326 0.0646509 -0.25323045 0.16824423 0.0074521843 -0.31659073 -0.027613038 0.13562785 0.031648565 -0.21456741 -0.31827563 0.0044434723 -0.3975112 0.1934317
政 0.052992053 -0.07731364 0.13070709 0.05543756 0.15856096 -0.29778323 -0.17476407 -0.1533544 -0.07198119 -0.30624908 0.043527883 -0.087258436 0.36632586 -0.19355984 -0.21034966 -0.0713436 0.60928947 -0.34890887 0.3160705 0.44254524 -0.23160453 0.43311164 -0.23793691 0.26456767 -0.04441251 -0.10735081 0.26250383 -0.3734129 -0.14648561 -0.11882511 0.18882221 0.110694565 -0.25660416 -0.2877819 0.21704556 -0.17075202 -0.043456174 0.2828132 -0.25107688 -0.62691474 0.18039787 0.23510541 0.092636384 -0.51550907 0.07333164 -0.42472792 0.12715201 -0.37113672 0.15668575 -0.28652847 0.07042186 0.17420584 -0.4367591 -0.06295928 -0.14448732 -0.122534834 0.2692101 0.16521513 -0.082520075 -0.28843904 0.20537624 0.035802618 0.1688652 0.26774096 0.30944335 0.13576232 -0.15678208 -0.29278454 -0.2608319 -0.15012553 0.18247344 -0.042284746 0.6356257 0.06635954 0.105553105 0.26422054 0.011876261 0.24437314 -0.43757433 -0.22371596 -0.22271767 -0.08051521 0.07722486 -0.10558546 -0.034333102 -0.34556794 -0.3514435 0.111425556 0.270451 0.15773936 -0.2178106 -0.09192909 -0.10506336 0.21127343 -0.2530336 0.5639812 -0.041440934 0.23560959 0.29412422 -0.07163512
食 0.05699082 -0.33269444 0.13565125 0.1772463 0.0437873 -0.18382703 -0.1380986 0.36790204 0.20029138 0.089343816 0.29486746 0.09818767 0.3315719 0.37461188 -0.22403665 0.07003336 -0.45591494 -0.19388753 -0.01632847 0.24308993 -0.60889965 -0.1518926 -0.13999817 0.43127346 -0.015631864 0.04293779 -0.15130593 0.19178991 -0.14265408 0.20999882 0.32049426 -0.2609241 0.44286358 -0.17968573 0.033306614 -0.19169849 -0.44467393 0.20000823 -0.34681585 -0.095207155 0.16233067 -0.032871224 -0.20103157 -0.35850596 0.15639247 -0.57027966 -0.2297167 -0.377986 0.27697596 0.16766779 -0.12187442 0.3322292 -0.19617121 -0.11173969 0.16855405 -0.15837874 0.33888683 -0.16399585 0.14097746 0.092366904 0.58879787 -0.23344505 -0.29990587 -0.35839745 -0.43322214 -0.02410495 0.06355278 0.51041657 0.032314073 -0.13351068 -0.19904467 -0.07268524 0.13993068 -0.123426 0.022451743 0.12273442 -0.15507878 0.7635162 0.11397497 0.60225266 0.38625214 -0.24791001 0.061627742 -0.44614884 0.09266318 0.080627665 0.046134494 -0.13537101 -0.21844979 -0.019070452 0.03369658 0.11207483 0.3231543 0.21561038 0.06889297 -0.17332195 0.28871423 -0.04302732 0.18582825 0.15542938
善 0.10837869 -0.24057905 -0.35633716 0.24405918 -0.49185625 0.2847455 0.05909174 0.11342476 -0.04079081 0.04928906 -0.22339423 -0.13961245 0.14301841 0.20573768 0.3815343 0.013103845 0.07378493 0.46740982 -0.25977767 -0.035122845 0.39961168 -0.26730713 -0.40959322 0.26734555 0.18910606 -0.05387235 0.002255598 0.2591922 0.26231512 0.0640078 -0.2504434 0.24729602 0.17393343 -0.5279285 0.1872325 -0.35108143 -0.05057416 -0.26659945 -0.25789666 -0.36015695 0.12913147 -0.31549716 -0.10505991 -0.3011825 0.26688188 -0.2680068 -0.16471766 -0.014484585 -0.14076686 -0.0076963096 -0.008014421 0.4795987 -0.3147332 -0.036494676 0.39629593 -0.1464324 -0.020034313 -0.112952486 0.12163097 0.02174229 -0.08412535 0.06436784 0.02388911 -0.20700757 0.11564147 -0.28280216 -0.07469407 0.011542685 -0.17373864 0.22080137 0.032052778 0.04390503 0.46976936 -0.15128617 -0.19634917 0.49427232 -0.11521066 0.48485407 0.23143573 0.14089608 0.1380783 0.25545 0.21709776 0.062100153 -0.62893957 -0.25452307 0.44946098 -0.10547004 0.20077816 0.33617258 -0.16130847 -0.13338551 -0.089675546 0.037995543 -0.053671874 0.030246638 0.032358877 0.04778791 0.20970505 -0.21110319
后 -0.12776984 0.0047905436 0.09590051 -0.21587382 0.28236055 -0.10872547 -0.28514367 -0.5411878 0.010511918 -0.40544987 -0.16200331 0.02911589 -0.1508249 0.03148284 -0.07001996 -0.024228297 0.13243744 -0.1827134 -0.32164127 -0.04260508 0.021979421 -0.1393988 -0.158928 -0.19934642 -0.3657868 -0.2072551 0.2820709 -0.112113275 -0.07158726 -0.4300929 0.15713738 0.116526745 0.029981233 -0.1474269 0.009227581 0.06006521 0.108519696 -0.012800606 0.123919114 -0.33986393 0.3757945 0.2248263 0.40893087 0.3832236 -0.28354338 -0.5130001 -0.31090674 -0.21809985 -0.14238031 -0.12321538 0.28316718 0.09876671 -0.47834378 -0.24604502 -0.26890123 -0.5142766 -0.41463616 -0.2979403 0.2778082 0.25653645 0.031398393 0.20841119 -0.3785896 0.15862526 0.0025910926 -0.4888116 0.067446776 0.2300562 -0.06578209 -0.4460998 -0.18458264 0.061352942 -0.16761585 -0.40941906 -0.24477157 -0.32821697 0.036256243 0.37697473 0.39076358 -0.03733616 0.02611319 0.10947028 -0.04541745 0.004071919 0.70206183 -0.39241168 -0.044980228 -0.017077945 -0.014027395 0.2651448 -0.21535388 0.038419075 -0.37481922 -0.28386354 -0.28677648 0.4509714 0.07709172 -0.2638686 0.31942478 0.1525379
德 -0.10552721 -0.17841347 -0.3713774 0.031252153 -0.41765246 0.0006162327 -0.22395332 -0.010558637 -0.23220561 0.09086626 0.08908052 -0.14423956 0.31820047 -0.22667174 -0.4493996 -0.1495901 0.013201014 0.07024176 0.12530081 0.12641007 0.052203294 -0.032542296 -0.30527154 -0.45416525 0.1504778 0.14507098 -0.30763614 0.30219388 -0.21135052 0.30020747 -0.09634499 0.44923955 0.11925081 0.07203728 0.13136126 0.2853127 -0.13681279 -0.19644362 -0.117100716 -0.6221808 -0.44086733 -0.10439064 -0.18099478 0.43685922 0.1912974 -0.02526869 -0.18183975 0.065126315 -0.17869967 -0.2532858 0.058209013 0.06537392 -0.28806666 0.33147565 -0.14072335 -0.18704234 -0.43013626 0.12064268 -0.6179628 -0.2092145 -0.29607177 0.11306886 -0.15011959 -0.03897913 0.07883471 0.124706976 0.09749405 -0.06076288 0.15470706 0.3580063 -0.2442137 0.10618395 0.03466227 0.36090904 -0.03150296 0.066531256 0.2027686 0.48030138 -0.014739853 0.12688506 -0.20585296 -0.28582337 -0.2825177 -0.42823458 0.1732174 0.27556536 -0.15091686 0.0642624 -0.06761642 -0.081245005 0.06479402 0.19126822 0.07885998 2.982786e-06 0.036581673 -0.057896823 -0.11885596 0.10182529 -0.24189085 0.032453164
求 0.009681963 0.15992112 0.22149749 -0.26302537 -0.032258235 -0.33362716 0.35081628 -0.3896931 0.0626858 0.09140025 -0.37010047 -0.27449575 -0.011066683 -0.2800192 0.14171663 0.5368794 0.35977975 -0.037788104 0.07913366 -0.07274678 0.65727216 0.066492796 -0.08244371 -0.07675351 0.072205245 0.36132848 0.41948408 -0.3866217 -0.0731308 -0.3029702 -0.11565009 0.013369014 0.3226338 0.26542848 -0.087751046 -0.1600268 0.24356207 -0.5278248 0.21004558 -0.5460384 -0.4132694 -0.18630739 0.29220104 -0.15718411 0.09732515 -0.43470922 -0.04631965 0.035488985 0.22449811 -0.13490295 -0.20309338 0.31265336 0.29158935 -0.15136145 0.110762626 -0.17104074 0.17500882 -0.15093416 0.037182108 -0.35434902 0.24015653 0.15176381 -0.042460408 -0.09257235 -0.22808768 -0.1829599 0.13128704 0.17126437 -0.2667532 -0.20038773 -0.21631175 0.2110181 -0.19794282 0.03901608 0.108307086 -0.12247519 -0.14871433 0.31808633 -0.4333598 -0.17677887 0.12533788 0.0890668 -0.09921658 -0.22553141 -0.020987572 0.42929256 -0.0066513326 -0.22155455 0.13511305 -0.0683939 -0.11773164 -0.2762287 0.5195892 -0.35022947 0.2728413 -0.10491894 0.40150338 -0.4031032 0.22209409 -0.08173667
对 -0.43885463 0.13590842 -0.00065758324 0.1089266 0.072161414 -0.3243174 -0.30591467 -0.18504386 0.26886925 0.4066526 0.12104319 0.36350086 -0.3311097 0.14682554 -0.305446 -0.46306822 -0.07785875 -0.34740663 0.037810657 0.42863557 0.16172731 0.34411523 0.41425687 -0.39345 0.08481641 -0.06700861 -0.314928 -0.30840707 -0.094938986 0.10008865 0.055683695 -0.041294347 -0.15265273 0.40633455 -0.027218783 -0.34527358 -0.17411026 0.088852 0.17302047 -0.6583085 -0.18442339 0.27171686 0.19393848 -0.17233087 -0.109960265 -1.0402114 -0.025063436 0.48770836 0.0036899424 0.20168673 -0.013879584 -0.38829398 -0.16780508 -0.092058316 0.16310315 -0.052027326 -0.13310695 0.058807716 -0.106828645 -0.22619128 0.5217125 -0.50797254 -0.1305528 0.55753934 0.15495083 0.063699484 -0.22188133 0.17860878 0.2145655 -0.014651085 -0.2170353 -0.2699526 -0.1556433 0.39059547 0.14235927 0.44216904 -0.1851922 0.00070178113 0.006372141 -0.15715748 -0.08079871 -0.19784139 0.7529419 -0.30751657 -0.23629409 -0.05262002 0.23407832 0.016026555 0.20164649 0.31787476 0.017381517 -0.31701487 -0.1557911 -0.1328804 -0.28762963 0.01330452 0.07723988 0.07688952 0.30277938 -0.18087499
恶 -0.047612026 0.058033798 0.074984245 -0.17802672 -0.012937082 -0.11445148 0.40619585 0.14693396 0.07515804 -0.04747424 -0.21489054 0.1690589 -0.059106454 -0.077633634 -0.04431779 0.34890166 0.062129714 -0.3641832 0.31123227 -0.1890265 0.03202042 -0.13809837 -0.3156672 -0.1550319 -0.038179915 0.16926032 -0.15080145 -0.137298 -0.5138367 0.07637688 0.028584938 0.12359496 0.08291188 0.09757548 0.087724134 -0.17906258 0.27488607 0.3774672 -0.057318326 -0.26913145 -0.14444083 -0.44675902 0.2125376 0.4401606 0.08725396 -0.1532752 0.41279063 0.005925034 -0.23859125 -0.15796842 -0.030234735 -0.06331932 0.20267807 0.60314494 0.012057238 -0.24588135 -0.38091975 -0.013854364 0.25916126 -0.11320517 -0.08521377 -0.39682794 -0.13946858 0.145037 0.5044183 0.5235687 0.04078999 -0.09557719 -0.33708435 -0.034942757 -0.38227433 -0.5738218 -0.0858364 0.04383688 -0.14286737 0.16693676 -0.13028914 0.7610855 0.12135293 0.21192807 -0.07077574 0.46110147 -0.11847619 0.2829102 -0.08638304 -0.02326071 -0.008510991 0.06421034 -0.19232298 0.2704707 0.47734815 -0.50245684 -0.08319735 0.06501471 0.2570872 -0.2912572 0.20078455 0.47069463 -0.5078517 0.3703205
信 0.2229034 -0.18921904 0.13510525 0.13553642 -0.14837237 0.18948036 0.07253668 0.10505833 -0.40708604 0.040460076 -0.35792646 0.26707557 0.19810371 0.32878095 0.03610588 0.012699978 -0.073900506 0.049000468 0.28064814 -0.18742168 -0.06319924 0.13180953 -0.2546695 -0.07186462 -0.33275107 -0.041178454 -0.19595037 0.33535314 -0.14631157 -0.5310243 -0.09115385 0.40440065 -0.082049415 -0.23892647 -0.100214586 0.36415297 0.41496482 0.020854564 -0.23383957 0.11705034 -0.055108137 0.064924315 -0.018701376 -0.0036131586 0.2976092 -0.5569173 0.10493763 0.06915341 -0.2261027 0.5842062 0.047908273 0.2576767 -0.09797643 -0.101495124 -0.14557283 0.009736227 0.15543981 0.04554095 -0.12129638 0.007351814 0.45437747 0.58502674 -0.5977551 -0.43821257 -0.19999518 -0.07904392 0.2126502 -0.14789826 0.37971076 0.013707256 0.10514661 0.19031624 0.28368622 0.28919122 -0.19234581 -0.16392836 0.12151212 0.71968174 0.47222364 -0.041391846 0.30330223 -0.07723248 -0.108099 -0.108170465 -0.56973785 -0.12188275 -0.16279352 0.11908817 -0.17414042 0.031025695 -0.13191539 -0.040688545 -0.29201493 0.03562078 0.28687683 -0.25682792 -0.15368228 -0.20616716 -0.08509591 0.15980755
死 -0.42605025 -0.33070573 0.040858537 -0.035411913 0.17188957 0.70000714 -0.1853472 0.06770034 0.13024135 -0.2955255 -0.0909372 -0.27833703 -0.094075225 0.15099223 -0.2316597 -0.059581354 0.47627696 0.3702396 -0.031032862 -0.06557001 0.2385108 0.14523381 -0.16591325 -0.23394172 0.108268596 -0.023349816 -0.035487182 -0.13920213 0.02320845 -0.07356811 0.031660035 0.0274876 0.047447756 -0.12034058 0.29632404 -0.10266019 -0.16404809 -0.31086442 0.02586745 -0.16687272 0.019725775 -0.0006048159 -0.060273096 0.22219974 0.42687222 -0.4171283 0.4120711 0.0934024 -0.34055868 -0.10407297 -0.28542954 0.20381442 -0.50584114 -0.1318264 -0.017376935 -0.15349528 0.0564159 -0.33469832 0.16311917 -0.12396763 0.060693868 -0.24140011 -0.07742255 0.5637683 0.42056507 -0.04986388 0.30687687 0.072782785 0.10307968 -0.6136304 0.3136688 0.18148728 -0.09258796 -0.27568132 0.1785923 -0.15524773 0.0263798 0.5710638 -0.03790651 -0.14849263 0.21557799 -0.39029342 0.18560557 -0.03993601 0.35861695 -0.15481536 0.044082988 0.14828375 -0.24113655 0.30489737 -0.21040991 0.002430223 -0.2991835 -0.09089658 0.09319368 -0.05293929 0.42323798 -0.019564744 -0.16655675 -0.08334952
然 -0.011321876 -0.10954746 0.38332933 0.29516327 0.30194885 -0.15961511 -0.12982222 0.20875205 0.01323951 -0.13608097 0.11926208 -0.09806691 0.11566813 0.13625942 0.0721348 -0.28635463 -0.31050307 -0.07431063 -0.15108903 0.069128804 -0.011865695 -0.10457608 -0.038851637 -0.10842712 -0.19465098 -0.19342642 -0.33489653 -0.25356928 0.09722661 -0.2024733 0.09518624 -0.034468297 -0.038591146 -0.054303955 0.010739344 -0.077118985 -0.27010256 -0.3015492 0.18641801 -0.33776307 0.24481684 0.17553331 -0.10751677 0.48107538 -0.090894505 -0.47567853 0.094191395 -0.297898 -0.4721314 0.18879804 0.01332785 0.40923682 -0.4748644 -0.37470585 -0.18086183 0.29605317 0.4416416 -0.24012452 0.23965926 0.1438412 -0.1465601 0.14339402 -0.10376429 0.35840043 0.39432526 -0.54099697 -0.021709472 0.21879396 0.28717965 -0.14806256 -0.10568486 0.02132368 0.2284253 0.07800324 -0.070578165 -0.0064901346 0.031027189 0.2824783 0.117799476 -0.015830414 0.4449618 0.29533073 0.05321321 -0.03362752 0.07993257 -0.28881666 0.07880645 0.15459292 -0.4005907 0.08162209 -0.026405456 -0.1988902 0.24181989 -0.6889359 0.33831656 -0.1595741 -0.24131353 0.14577766 0.035493065 -0.13029198
