1352 50
， -0.012448776 0.13235529 -0.15617035 0.20485827 -0.06355941 0.13221534 -0.07111922 -0.15703556 0.14419052 -0.045629326 0.038240846 -0.46140707 0.2274306 -0.07860747 -0.09196428 -0.09121795 0.055239584 0.0012818084 -0.08922063 -0.095960155 0.059292763 0.10825043 -0.025545571 0.01583681 0.113644436 -0.028235402 0.0055474183 0.034745354 -0.010979503 -0.07003287 -0.13607228 0.1196736 -0.16339912 -0.11852664 0.098534875 0.22011109 0.06418099 0.6014023 -0.06532018 0.021954209 -0.18995605 -0.17579746 -0.2530819 -0.08639545 -0.05463171 -0.1085498 -0.004846447 -0.10057865 0.07771576 -0.058302198
子 0.001146885 0.08903755 -0.093091 -0.029018706 0.0025060289 0.10676573 -0.09317886 -0.23135076 0.06556337 -0.10162183 -0.07204403 -0.1766545 0.0002337669 0.015332539 -0.086297706 0.03603097 0.104498856 -0.15215874 0.04473075 -0.13801774 -0.009540153 0.07922381 0.08472169 0.07946085 0.14259893 -0.09167927 -0.09755986 0.09269151 -0.014063708 -0.1630111 -0.06972885 0.1798616 -0.05036821 0.10068349 0.00864511 -0.012866703 -0.06723915 -0.18233572 -0.6462375 0.12519701 -0.093624935 0.027503585 0.026304552 -0.077060044 -0.06074621 -0.14451236 0.07517497 0.013458385 0.07953087 -0.15692692
。 0.12863678 0.09748776 -0.06855641 0.011763456 -0.09417496 0.13114862 0.014635356 0.032589145 0.031968787 -0.16824841 -0.035627156 0.05304595 0.015657498 -0.008234679 0.0379058 -0.059433434 -0.03596461 0.050625924 -0.1009169 0.021208882 0.06310941 -0.024291817 -0.0044940533 -0.04612219 0.041967124 -0.121340595 0.04384723 0.17132996 0.06748187 -0.015632449 -0.06409658 0.05165015 -0.066384345 -0.020049257 -0.027895033 0.08336321 -0.056876425 0.043510456 -0.52177525 0.014383851 -0.1856629 -0.06669566 0.06529622 -0.08843362 -0.08298757 -0.019673055 -0.018294448 -0.056977876 0.07931162 -0.085520595
： 0.04948011 -0.0054363916 -0.11439822 0.03194397 -0.031100336 0.10535052 -0.06665804 -0.12164895 0.108232275 -0.05849491 -0.009362524 -0.01197722 0.08930415 -0.06552248 -0.010479465 -0.09300211 0.011577327 -0.05355219 -0.06645109 0.03451324 0.10762097 0.060982987 -0.052593287 -0.028434886 0.1943841 -0.04548843 0.108050644 0.0041859616 0.009415972 -0.056612976 -0.037729293 0.11083692 -0.020302938 -0.043959424 0.06990002 0.14937614 0.011509987 -0.17245997 -0.60389656 -0.035287976 0.012733808 -0.13651629 -0.028146679 0.006832208 -0.07603215 -0.058532424 0.0022827438 -0.06959313 0.049563248 -0.10754152
曰 0.07111991 -0.0014537044 -0.07852579 0.001663729 -0.025704738 0.09747033 -0.040783823 -0.100197576 0.11509587 -0.036711697 -0.0355886 0.0071877553 0.07273858 0.002309171 -0.03274536 -0.11176748 0.061200857 -0.0480613 -0.07393133 0.014123761 0.060045753 0.0142624555 -0.07309711 -0.042185586 0.14601906 -0.043899264 0.050252452 -0.008339109 0.06406653 -0.028043661 -0.026459824 0.10956443 -0.061209474 -0.005138999 0.0785998 0.111475825 0.018112047 -0.19339924 -0.6338975 -0.0045612585 0.024256395 -0.15110011 0.0131736 0.0021396559 -0.1144323 -0.049739383 0.0037674627 -0.04084722 0.040871408 -0.114270195
之 0.21936713 0.17118919 0.086751364 0.26642337 0.020854257 0.017434435 -0.16333668 0.09750333 -0.1465221 0.009074597 0.11545705 -0.0875377 0.08250106 -0.15990415 0.1336614 -0.17973308 0.15764482 -0.09174033 -0.2174777 -0.20040075 0.1298608 -0.023397584 0.12685096 -0.016393684 -0.009284334 -0.11780979 -0.1733445 0.058684237 0.024097778 0.065394804 -0.2375711 -0.0033186085 -0.08608713 0.15896413 0.0094755925 -0.1494159 0.029640049 0.15594032 -0.39963585 -0.017775964 0.011039647 -0.14614029 -0.026661783 -0.052671682 0.02663419 -0.045926634 0.01586157 -0.18672192 0.019545656 -0.1739406
不 0.39424428 -0.13602228 -0.013554458 0.02615113 0.12628548 0.214283 -0.13988587 0.073275045 -0.021041399 -0.20164901 -0.080759004 0.044425137 0.03239197 0.10609886 -0.085651 -0.08159026 -0.00672329 -0.04001716 -0.0792828 -0.22803223 0.17415711 0.027026368 -0.036743037 0.11677436 0.25037745 -0.14739142 0.07869485 -0.025090965 0.21620956 0.010636508 0.11209835 0.085450344 0.20414688 -0.13399598 0.14919928 -0.08299463 0.15780047 0.31937096 -0.3316644 0.19543603 0.0087530585 0.30111974 -0.08349136 -0.052110966 -0.19964278 -0.08502558 -0.054603107 -0.091313764 0.2500953 0.04337529
也 0.05257639 -0.029497221 0.02055321 0.012042417 -0.066818126 -0.0021877522 -0.09009121 0.052595794 0.015779965 -0.26316026 0.05803153 0.025547322 0.033167686 -0.16485168 0.006004877 -0.025963446 0.013407793 0.006138355 -0.11572457 0.02102221 0.05456504 0.029918158 0.11985408 0.07616461 -0.16266015 -0.22782755 0.022438427 -0.1670078 0.15935072 0.027500344 -0.15317531 0.15421794 -0.25118825 -0.02496726 0.122465804 0.05123802 0.11020149 0.113394715 -0.45812026 -0.038177446 -0.011709553 -0.026793588 -0.0517043 -0.07679465 0.01062431 0.023390504 -0.0781458 -0.11876533 0.04120323 -0.17076467
而 0.10496419 0.10975558 0.050053235 -0.0041271383 -0.036766123 0.010136821 -0.20650686 0.14062592 0.088305734 -0.07056486 -0.026180964 -0.040680364 0.22117461 0.027904041 -0.035659708 -0.106004365 0.13241923 -0.014308739 -0.06719873 -0.18258509 0.03280845 0.015800264 -0.1078311 0.016157089 0.24968162 -0.06435853 -0.10574547 0.17255996 0.3413443 -0.036233176 -0.033123806 0.039281193 -0.15680104 0.13286674 0.087213784 0.093160905 0.066714875 0.21938454 -0.4168865 -0.0061463094 0.032150332 0.0066973977 0.11482244 -0.016199708 -0.10185215 0.10466899 -0.010171721 0.24451068 0.10308013 -0.1292805
？ 0.006598218 -0.12551865 0.020139901 0.21328227 -0.13488871 0.00782785 -0.16686669 0.1204932 0.04357656 0.1863257 -0.070899636 -0.22974303 0.09652206 0.023786375 -0.07097497 0.0138997175 0.0722627 -0.069761835 0.011456092 -0.12006764 0.07195201 0.09244834 0.04705847 0.08797267 -0.061912287 0.08863635 -0.0129389055 -0.16477308 0.03421536 -0.0008547538 0.061130885 0.075096294 0.04927214 0.0029883266 0.11146471 0.025720388 0.06533857 -0.17413776 -0.5897139 -0.010085378 0.37274462 -0.16784544 -0.07849432 -0.060845774 -0.11689656 -0.0116739515 -0.07507257 0.097738296 -0.008190303 0.10057493
其 -0.110520095 -0.18611191 -0.017865222 -0.006538937 -0.023519788 -0.056618005 -0.071359575 0.20327714 -0.09461335 -0.21519059 0.029185053 0.03166259 -0.040691584 -0.030677319 0.2150772 -0.18674667 0.017857928 0.06670025 -0.053904545 -0.07088892 -0.00788505 -0.031698585 0.035502553 0.074752696 -0.20948033 -0.09577745 0.021125669 -0.04618585 0.19783744 -0.057364814 -0.12211099 -0.012559627 -0.15758665 -0.06600712 -0.10095478 0.09092698 -0.042368937 0.20312947 -0.4110434 0.081238575 0.120480895 0.10954298 -0.267298 -0.085510574 -0.26183897 -0.19476573 -0.17063543 0.050126888 -0.060538422 0.011873672
人 0.11657853 -0.10243923 -0.047085516 0.03155853 -0.051102094 0.13372391 0.15065551 -0.010521728 0.084660456 0.032385204 0.074231446 -0.07960704 0.18997791 0.039686922 -0.054185428 0.21231394 0.12672171 0.026089186 -0.08587711 0.05357485 -0.05432814 -0.08600741 -0.006914331 -0.08649045 0.055570167 -0.060681865 -0.06417379 0.17335224 0.2959759 -0.03735242 -0.27793422 -0.025897678 -0.066840544 -0.061696336 -0.07905906 -0.21050003 0.103052914 0.15875752 -0.42822307 -0.13396187 0.11945044 -0.2018934 0.10243573 -0.17106962 -0.036043566 -0.23504105 -0.14601046 -0.035326213 0.079780005 -0.11619814
者 0.080891766 0.22689342 -0.008025403 0.36931017 -0.10013317 0.035907593 0.052506223 0.10353282 0.11535387 -0.036537 0.0709579 -0.034884624 0.0039947336 -0.24008697 -0.08273659 -0.011882882 -0.008115513 -0.14586867 -0.07698358 0.087431796 0.10962162 -0.15205702 0.008251102 0.030006124 -0.058996182 -0.055964507 0.036837973 -0.058585607 0.3845547 -0.03210951 0.1559617 0.07241172 -0.08379784 -0.2897085 -0.1582435 0.08579014 -0.111818515 0.16425547 -0.42406723 -0.12473689 0.17011447 0.09541655 0.1676422 0.09467604 -0.0695343 -0.08328253 0.22516374 -0.05138983 -0.06856776 0.00046363485
以 0.2059642 0.12026243 -0.14309193 0.21651363 -0.06622498 0.039307456 0.07752237 0.026508037 0.160879 -0.098690845 0.08208444 0.0040344535 -0.24569587 0.0126154665 -0.03488967 0.12064739 0.110215634 -0.08630015 0.11070829 0.08736119 -0.00814127 0.16916054 0.12048469 -0.24226214 0.02954974 0.07229357 -0.0065897666 -0.20536487 0.06899497 -0.0086472165 -0.18644965 0.090219475 0.27855363 0.0747435 -0.022958754 -0.12615491 0.013657915 0.19736333 -0.48959044 0.16995418 -0.18311584 -0.17202003 -0.1866778 -0.1746471 -0.20121469 0.15108252 0.0042875446 -0.018633991 -0.22063355 0.041312438
有 -0.013307271 0.022386909 -0.10291346 0.16014127 -0.20463368 -0.040634643 -0.018551955 -0.0009262997 0.040603645 0.11575324 0.09580727 -0.17611977 -0.030152837 -0.37512466 -0.2804378 0.12284118 -0.06422592 0.011305601 -0.024477672 0.3201753 -0.047308657 0.09726439 0.0009922602 0.048704956 0.33607283 0.07298194 0.106240205 0.20510073 0.11038565 0.006244556 0.030288132 -0.14920132 0.085225575 -0.138632 0.07945644 0.081936195 0.083537854 0.06922443 -0.45986354 -0.109779894 0.10216137 0.045209303 0.12191334 -0.052099064 -0.033365298 0.025730891 -0.05807413 -0.16450681 0.14724101 -0.07556155
于 0.033318542 -0.0118836295 -0.0449355 0.10122996 0.009916895 0.035809066 -0.1579388 0.065620065 0.17940044 -0.029430304 0.07212426 -0.33174473 0.063116625 0.060458805 -0.14275593 0.10446566 -0.24634573 0.0692832 -0.07940205 -0.0386968 -0.017888796 0.20405702 0.045929816 0.0740243 0.019490583 -0.18587624 -0.07817514 0.24117208 0.056030564 -0.031617716 0.032198783 -0.22650363 -0.15008725 -0.044327807 -0.07853385 0.021265438 -0.22591342 0.08548105 -0.55139613 -0.068579555 -0.15195584 0.058144312 0.18900153 -0.216021 0.13350199 -0.05614551 -0.14439517 0.20226955 -0.18700194 0.042506196
矣 0.00233334 0.10683809 -0.13318127 0.060812082 0.11132735 -0.060947727 -0.020453231 -0.002073489 0.104494095 -0.15473452 0.05833701 0.13759097 0.05075126 0.054396708 0.07113091 -0.37961406 -0.014735673 0.09896949 0.079215184 -0.05646022 0.004111596 -0.13200109 -0.014405275 -0.08050533 -0.031297036 0.07191139 0.08263873 0.3061423 -0.024170823 0.048360422 -0.043171063 0.06584271 0.058587193 -0.1765313 0.16979891 0.09137727 -0.035376217 0.06257445 -0.52619255 0.15438484 -0.05343936 -0.015240599 -0.16478775 0.119414344 -0.021809444 0.08480052 -0.044171944 0.1523622 -0.04655528 -0.092455454
为 0.031796046 0.18004121 0.16522236 0.18339254 0.049847547 0.19348703 0.02437245 -0.058218244 0.2160122 -0.0996611 -0.14612795 -0.14697924 -0.08970575 -0.043600433 -0.207838 -0.11203138 0.03963074 -0.25232035 0.07458349 0.041992474 -0.10847653 0.21841173 0.05101048 -0.168412 -0.021274272 0.13029571 -0.009126378 -0.09245669 0.07736847 0.21421666 -0.044987783 0.064889 0.07416137 0.0015586743 -0.13577685 0.009058686 0.2537343 0.048241083 -0.5151576 -0.09985277 0.05696382 0.02772639 0.1826774 0.0007429894 -0.068790145 -0.023254514 -0.18784603 0.042632617 -0.092902295 -0.00770737
君 -0.18044873 -0.10576317 0.17551063 -0.07590876 0.024144143 0.05622921 0.034196105 -0.1785469 -0.036991943 -0.06620352 0.048982646 -0.10658732 -0.15220155 -0.17292173 0.09758795 0.047782082 0.01175336 -0.15639919 0.17512071 0.050869346 -0.21315409 -0.09039231 0.107209705 -0.11783336 0.33769643 -0.05036831 -0.05376338 0.086850844 0.03434895 -0.1609536 -0.1926041 0.0104529 0.15674974 -0.028818205 -0.042941254 -0.043878376 0.1232169 0.033909123 -0.5494525 0.101242445 -0.012215694 0.11688502 -0.10747642 -0.010565878 -0.05553399 -0.054442644 -0.22228856 -0.029361997 0.18806072 -0.16186537
乎 0.0028307436 0.01621936 0.096784554 -0.09638154 0.1106228 -0.15749016 -0.15371677 0.09605429 0.06314088 0.1745173 -0.16247359 -0.22488439 0.17831197 -0.022905387 -0.08252443 -0.03075357 0.094667636 -0.07738919 0.10270666 -0.11258034 -0.17177807 0.000956132 -0.026475286 0.022029443 0.1766328 -0.044871435 0.16142818 -0.15992641 0.13575175 -0.13481717 0.009722311 -0.14486748 0.08941105 -0.1573888 0.08216099 -0.0039313007 0.16862337 -0.070300885 -0.5980091 0.016112449 0.23378 -0.09783723 -0.22559652 -0.11070603 0.007025514 -0.03310156 -0.043945286 0.14158632 -0.21067075 0.0006404802
可 0.12067419 0.15652372 -0.023313887 0.08092611 -0.02967775 -0.09041244 0.08711535 -0.0681747 0.06836894 -0.10498748 0.0025664696 0.014756404 -0.11955303 0.03076812 0.162137 -0.021873826 0.041806716 0.21247931 0.14742056 -0.1577036 0.22174308 0.06015586 0.06969813 -0.03724135 -0.060973145 -0.22080973 0.13940704 -0.043428574 0.37070838 0.032205414 -0.14186737 0.2724065 0.2937018 -0.11760834 0.34807357 -0.2048605 0.08840614 0.17552781 -0.47033352 0.08108888 0.03189 -0.18162997 -0.09692697 0.019867525 0.11060604 0.27230415 -0.1751688 0.011634105 -0.041167513 -0.018696157
如 0.46295384 -0.00568361 0.19708489 -0.02646265 -0.047061376 -0.2325399 -0.06365207 0.033831168 -0.055677228 -0.1563884 0.19561373 -0.2714052 -0.108436145 0.09698552 -0.018298913 0.012506367 -0.026530607 -0.063161924 -0.04809227 0.08449657 -0.027213523 -0.015042421 -0.110291675 0.1789375 -0.27970996 0.23652287 -0.14301124 -0.060723957 -0.034049142 0.11186839 0.087003686 -0.043572173 -0.20759858 -0.09635802 0.22664113 0.20460173 0.14143027 0.119621865 -0.4864636 -0.014881418 0.16135521 0.012452514 -0.20135203 0.13122305 -0.0041807876 -0.031690087 -0.09155056 -0.18753809 0.27839866 -0.18183081
与 -0.18825707 -0.08291197 0.2093275 0.30743638 0.029693555 0.1295007 -0.0044452273 0.10986804 -0.13319336 0.18031672 -0.16081837 -0.123753384 -0.15519471 -0.009628078 0.12924796 0.12158584 0.07574702 -0.08518272 -0.09635603 -0.013464784 0.10791599 -0.10888263 0.021130076 0.3255 -0.14019705 -0.28165668 0.2982272 0.122837834 0.057078823 0.00023737794 -0.13848424 0.11920673 -0.19497761 0.019655803 0.13305575 -0.039825074 0.064281225 0.10018592 -0.4406164 -0.10661386 0.2403152 -0.107579246 0.06934493 0.11015826 -0.068213075 0.28466594 0.023295064 -0.031924713 -0.1474222 -0.08784832
； 0.04358736 -0.07068071 0.028245252 0.09619943 0.15866455 -0.026967116 -0.14264128 0.40236396 -0.22466536 0.05499166 0.24117386 0.06336163 -0.053847536 -0.068033785 0.026102047 -0.13280173 0.04117424 0.12030756 0.18554956 0.012794343 -0.08546587 -0.07584288 0.018208219 -0.18893874 -0.026667504 0.0073544057 0.06387901 0.030255448 0.23269281 0.17993924 0.008223367 0.18117392 -0.09854195 0.061846282 -0.084018074 -0.1083372 0.24978812 0.51690143 -0.30345312 0.041395303 0.012179462 0.09618532 -0.042084698 -0.24312541 -0.030152299 0.00047110493 -0.05452976 0.067973636 0.045384508 -0.084566526
言 -0.06975132 -0.11914073 -0.08932556 0.14304745 0.23575057 0.049274575 0.087163985 0.17541774 -0.09642749 0.0351485 -0.3327315 0.17398189 0.05573202 0.04217676 -0.0011082694 -0.054265097 -0.24672845 -0.05618486 -0.06522328 0.023175506 0.22882017 0.073350444 -0.22882801 0.017417155 -0.07038265 -0.13016044 -0.088281274 0.010413605 0.22561334 -0.26010248 0.0039188415 0.07807831 0.070691936 0.15264702 0.23702677 0.11892829 -0.03570934 0.24246345 -0.47933498 0.21404883 0.038520467 -0.30646974 -0.20433244 -0.099707216 0.035261337 -0.055349898 -0.05689574 -0.060074985 -0.016579738 -0.22804023
无 -0.258253 0.2487227 0.096487716 -0.21978961 -0.1377408 0.070824936 0.10375287 0.2188492 0.17136796 0.17343779 -0.11257187 0.074812084 -0.037009697 -0.019856434 -0.22029552 -0.021167519 0.112834185 0.019988123 0.12627636 0.14436333 0.08958495 0.16168423 -0.08370792 0.055851664 0.15761559 -0.18616001 0.120882995 0.19495185 0.045392353 0.13736647 0.14625347 0.21477 0.033787735 0.10194001 -0.015758913 0.04319777 -0.00051209773 0.2791047 -0.42331475 0.17412573 0.016344303 -0.0056186225 -0.056190617 0.08015903 -0.21512356 0.025210207 -0.16405113 -0.14013095 -0.057706483 -0.03616213
则 0.14879465 -0.002832105 0.050339475 -0.07679428 0.073714815 -0.12396564 -0.018452853 0.16436994 0.028045243 -0.14246444 -0.09594593 0.15913852 0.4801705 0.02088346 -0.16015416 0.38269114 0.1054893 0.13731231 -0.025850393 0.23386644 -0.017860243 0.08037614 0.18687215 -0.17959982 0.055357713 -0.0033647905 0.00229988 0.13675588 -0.16639443 0.122677416 -0.055093262 0.1986858 -0.08035585 -0.14592029 -0.017374055 -0.06533057 -0.027378773 0.32293755 -0.47209778 0.13617861 -0.09265153 0.13499407 -0.042507045 0.009993125 0.052693214 0.2811776 -0.24216706 -0.17375234 -0.10414143 0.041782808
！ 0.08601379 0.06743719 -0.019733882 0.059899323 0.15169106 -0.116624236 0.065651916 0.083042376 0.009640699 -0.0634426 -0.18669118 -0.39481708 0.2284308 -0.03799893 -0.10123336 -0.26230422 0.10211598 -0.039579865 0.027339507 0.13184091 -0.11014971 -0.003913297 0.049156543 0.2255924 -0.0707661 -0.061161987 0.13506374 -0.055089034 -0.09901299 -0.033101786 -0.20578028 -0.009862378 -0.012690617 -0.17865494 -0.15481494 -0.079349466 0.099403515 -0.1072682 -0.65493 0.155848 0.10017507 0.1094598 -0.095758855 0.2181922 0.13220768 -0.18529426 0.09585909 -0.06504146 -0.13376035 -0.13374004
问 -0.105311535 0.019465327 -0.10504126 -0.0122005725 0.007422713 -0.08064898 0.05149064 -0.28043824 0.08929034 -0.03770294 -0.2177224 -0.03991505 0.16589333 -0.019670976 9.647237e-05 -0.09537335 -0.07091428 -0.2118617 -0.15950555 -0.073263094 -0.20399456 0.009885971 0.122241564 0.016694501 -0.06292345 0.00496378 0.18956144 0.29359248 0.04245189 0.09354491 -0.02626977 -0.0013715934 -0.13931164 -0.0066863964 -0.023509132 0.20363726 -0.3014747 -0.05872528 -0.6680062 0.09109553 -0.19431911 -0.30880648 0.08753257 -0.14713605 0.046322435 0.025227915 0.09998288 -0.052023556 -0.07343324 0.13076921
知 0.044853292 0.021743907 -0.22357936 0.09103941 -0.0026708366 0.19995224 0.053601634 -0.029369775 0.22224239 -0.07224085 0.09574697 0.3844985 0.022969736 0.21675508 -0.10119968 0.17500946 0.06948579 0.1656151 -0.0598086 -0.010760059 0.018953176 0.12856866 0.042869575 0.12838107 -0.034294568 -0.16677928 -0.053829163 -0.2900891 0.27034336 0.0465527 -0.06576256 -0.08115528 -0.02280215 -0.056070313 -0.0058135646 0.08436817 0.12257682 0.185952 -0.40925565 0.27653754 0.19240412 -0.07939321 -0.0018542162 0.15111378 0.12270225 -0.020497523 0.017623864 -0.21784261 0.0061839134 0.090472184
何 0.07968508 -0.09273436 -0.076149866 0.06613592 -0.09598041 -0.21325414 0.09434579 0.016453078 0.088829294 -0.03187645 -0.00026889466 -0.33311594 0.032176044 0.09932246 0.17171563 -0.042829692 0.017048232 -0.16203524 0.08025746 0.013389212 0.15759973 -0.26743394 0.3080683 0.11041271 -0.11655287 0.1178494 -0.22996604 -0.31691468 0.0073954263 0.04342535 0.17335103 0.05148911 -0.004419234 0.03724233 0.12253101 -0.02705254 -0.03658798 -0.08375409 -0.6374656 -0.12924393 0.22978339 -0.2052861 -0.054104783 0.011020538 0.083689004 -0.09854828 0.12323265 -0.1435069 0.12535793 0.14102241
吾 0.26369035 -0.09825132 0.00247809 -0.23817554 -0.20699893 0.18367295 -0.1526355 0.05533344 0.04930035 -0.019067196 -0.14563194 0.14341953 -0.07783906 -0.05167697 -0.1447208 -0.22342636 -0.025529353 0.12943514 0.012058672 0.017736692 0.026702385 -0.11481495 0.039732367 -0.037615772 -0.18878506 0.05464835 0.06588839 -0.17101969 -0.12058294 0.12923184 -0.035427913 -0.039262388 -0.12065261 -0.32198983 0.047718894 0.08073865 0.007758131 0.11878754 -0.51862293 0.00031744607 -0.06431167 0.13723923 -0.20698018 0.3890137 -0.026657874 0.14029752 0.15772037 0.1544229 0.0066934978 -0.06552859
仁 0.004600835 0.17562047 -0.18347223 0.06242399 0.118182555 0.042786554 0.09602323 -0.0634666 0.26146102 -0.08808127 0.11196192 0.0907032 0.20005082 -0.056515403 -0.025112469 -0.07488146 -0.10353325 -0.09553588 0.19034395 -0.091316074 -0.15743119 0.028326109 0.014494537 0.1424443 -0.18277235 0.012543376 0.13502885 0.019763578 0.105409555 0.033303928 0.10884436 0.051976904 0.0062445747 -0.091823794 -0.17594044 0.27102315 -0.015661221 0.10763867 -0.42909613 0.18148012 0.2781475 -0.044506706 0.1802061 -0.21818304 -0.18680732 0.015269576 0.15485312 -0.082612015 -0.16682997 0.3624162
夫 -0.10210051 0.09483754 0.02392437 0.08706724 -0.019738102 -0.06760618 -0.14820422 -0.052072804 0.10915858 0.11501582 -0.10516417 -0.1616914 0.088354275 0.08466238 -0.05331241 0.15391846 -0.130683 -0.1684005 -0.18964857 -0.094823614 0.15254429 -0.15060914 -0.15329674 -0.19516674 -0.07716749 0.0337431 -0.08409683 0.052805755 0.055690937 0.23117581 -0.075886555 -0.089890994 -0.12526459 -0.16848125 0.0023686446 -0.18313587 0.11792847 -0.014545823 -0.6210993 0.17217147 -0.0751241 0.06347817 0.004782366 0.0782036 0.013547454 0.057061188 0.10941423 0.093905 0.030604329 -0.4020104
、 -0.04069976 0.21323258 0.056317773 0.21692875 0.30627027 0.22130217 -0.18054302 0.22401379 -0.2641741 -0.22116147 -0.09315972 -0.046857163 -0.054963086 0.21063322 0.24405691 0.17752558 -0.2070388 -0.1397112 0.028589318 0.05468202 0.1246811 -0.24897322 -0.11657295 -0.032663856 0.25058803 0.5042031 0.18199827 0.19870569 -0.0068148277 0.08573799 -0.010798053 -0.0388016 -0.09825007 0.060251042 -0.041999746 0.036844302 -0.004794936 0.065337755 -0.7243352 -0.24836348 -0.343844 0.087650746 -0.081992656 -0.33051223 0.18289359 -0.049835324 0.048234906 -0.30571765 -0.08273189 0.16405028
道 0.039886795 -0.19341135 -0.07830501 -0.052881207 -0.040978972 -0.03287874 0.09801128 0.18048486 0.012699753 -0.015898902 0.04649309 -0.030699443 -0.071012124 -0.120149896 -0.16972792 -0.06812485 0.11708331 -0.012066376 0.110467434 0.082435496 0.14784579 0.061965004 0.060259797 -0.12422646 0.3110956 -0.19934863 0.14421266 0.091112524 -0.26127067 -0.00010527781 -0.10017721 0.26835838 -0.0014415687 0.36699802 0.19943109 -0.1763031 -0.06298036 0.26614627 -0.4074067 0.06619754 0.16756001 -0.032762673 0.082262665 0.0038990786 0.22415178 0.18272775 -0.26796284 -0.06650782 0.084670916 0.093790054
焉 -0.08759836 0.010720793 0.046587784 -0.07166653 -0.06347671 0.101059616 0.10045208 0.17428209 -0.15302908 0.08079705 -0.10991664 -0.16032672 0.25500768 -0.0127064055 0.014284608 0.06898055 0.21661288 0.20873947 0.048928764 -0.054575223 0.13673013 0.050759222 0.12335857 -0.14018163 0.30755305 0.20734835 -0.07337227 0.096905716 -0.097113475 -0.12066773 -0.07996436 0.015028719 0.009436663 -0.013843451 -0.108779304 0.23871985 0.10585374 0.07929982 -0.450741 -0.16589789 0.3336593 -0.14259551 0.18451087 -0.08507869 -0.24715342 0.095342875 -0.013283385 0.028363016 0.38310748 0.3049627
行 -0.0935496 -0.27721938 0.17980546 0.17559776 0.0973711 -0.22689983 0.0077561955 0.029366784 0.13515052 0.19458282 -0.022847902 0.01707064 -0.1176416 0.07973428 -0.01221813 0.043727368 0.13946679 0.07495153 0.0702777 -0.24463974 0.1943747 0.20312779 -0.07747496 0.05349004 0.04530463 0.23370343 0.09987893 0.16424465 -0.11002212 -0.14514078 -0.123212144 0.21098071 -0.09129829 0.070858665 -0.21890639 -0.10799467 -0.21933848 0.21909186 -0.43329525 0.062278014 -0.00021041936 -0.19220066 0.009526729 0.019748893 -0.051969115 0.10496198 -0.09866654 0.09600255 -0.026772462 -0.20192598
谓 0.0025691395 0.2993069 -0.13842203 0.20031357 0.08947507 0.08243966 -0.19625765 -0.1725943 -0.10547784 0.034623962 0.15165412 -0.024088236 0.102164716 -0.14666381 0.12881882 -0.027745707 0.017282695 0.13754249 0.05335738 -0.16741976 -0.0752177 -0.062450867 0.16655178 0.04066466 -0.124027885 -0.14342429 0.13864234 0.114385426 0.075531945 -0.046525557 -0.094311684 0.1717272 0.21328042 0.13238373 -0.01089613 0.24100833 -0.11357383 -0.123311214 -0.56416136 -0.07333774 0.22797877 0.006000239 -0.23072462 -0.10756568 0.22900982 0.10961143 -0.2332065 -0.14595884 0.27570203 0.048704494
必 0.121818475 0.028450659 0.18169272 0.15529561 -0.06733674 -0.23392946 -0.056576457 0.0009859352 0.22369428 0.11940004 -0.20822385 0.040524736 0.07799315 -0.24714087 0.19681771 0.019739144 -0.12295896 -0.05093822 0.15008269 0.0050374977 0.12633812 -0.06285055 0.08231609 -0.18594836 0.048170142 -0.033824686 -0.035055436 0.13146284 0.20733877 -0.3029162 0.33844215 -0.17922032 -0.12862223 0.10179537 -0.2657942 -0.113103226 0.2395849 0.30002457 -0.4067894 -0.16040723 0.012907933 -0.10319581 0.10665669 -0.15169205 -0.052121975 -0.003366749 0.25706276 -0.21106528 0.047249686 -0.28889874
礼 0.13660543 -0.05252032 0.06270601 -0.1189008 -0.08532003 0.1344524 -0.07946301 0.093228556 0.07620743 0.12625058 0.2597345 0.21698616 0.13448273 0.24467471 -0.08999163 0.21916394 -0.13328135 -0.1856488 0.13207065 0.39787558 -0.20040397 0.2558837 0.060501672 -0.08277469 0.111010075 0.20690429 0.034925934 -0.40441152 -0.21455799 -0.028122868 0.19547279 0.06854604 -0.048462465 0.25457653 -0.118329585 -0.30044416 0.19097571 0.36548716 -0.42709157 0.041263778 0.070081584 -0.045469992 0.14720432 -0.119370334 0.10623833 0.15779345 -0.032204796 0.14303917 -0.2966991 0.049029212
孔 0.08914624 -0.17033757 0.030749634 0.12374273 0.034733098 0.38646224 -0.00016702536 -0.3677577 0.20646931 -0.036700655 0.16105504 -0.20546399 -0.14337134 -0.05036133 -0.17471437 0.1081779 -0.11437764 0.22101983 -0.38508102 -0.07613879 -0.1342332 0.17199925 0.0020124323 0.07836914 0.13116068 -0.025915986 0.06390282 0.13823944 0.025312003 -0.30118853 0.07347777 -0.084150195 -0.17585795 0.18065049 -0.058239426 0.21729234 -0.20881358 -0.16600686 -0.60760903 -0.017730994 0.11766061 0.028218562 0.047691017 -0.03129447 -0.08666622 0.01524603 0.33025086 -0.031250272 -0.060614154 -0.045179214
斯 0.04444427 0.035631295 -0.261047 0.19337885 0.041626554 -0.40497655 0.26980403 -0.0058962572 -0.21155538 0.004281282 0.30478877 -0.09927219 0.11754559 -0.018317923 -0.054773334 -0.25195774 0.010049785 -0.05627675 0.10199962 -0.32048464 -0.029254152 -0.21288681 0.09022401 -0.010258146 -0.07825557 -0.045192834 0.17131677 0.07573485 0.015951108 0.027491773 -0.009765382 0.056605827 0.09096397 -0.28057536 -0.0259093 0.012322222 -0.27292228 0.14643927 -0.49092907 -0.25481296 0.21493678 0.013278481 0.09525761 -0.057015166 0.10160107 0.20400082 -0.19489309 0.25097346 0.27105516 -0.0922406
三 -0.22504064 0.15666091 -0.26539156 0.3507214 -0.001016412 -0.07839388 0.010757161 0.024247672 -0.11551693 -0.16556157 0.1423061 -0.1506963 -0.17767859 -0.034453064 0.07195971 -0.27699766 -0.35667664 -0.17995064 0.123483084 0.16213349 0.33788934 0.2697688 -0.08761551 -0.165107 0.30109832 -0.15024026 -0.06618767 -0.15351368 0.0067641693 -0.30830008 0.07557705 0.06741738 0.1349094 0.19707504 -0.10560471 0.04471309 0.10215829 0.15601109 -0.52619916 0.07403871 -0.066520184 0.10320991 0.2264033 0.17185503 0.2635778 0.00092682766 0.10192775 0.043756273 -0.18398562 0.07620277
能 0.077348284 -0.1050081 0.10481864 0.17175923 0.124223 -0.039837003 -0.2032261 0.18132986 0.01958938 0.29946065 -0.07823224 0.16793147 0.13714387 -0.15956156 -0.04014105 0.14953 0.075513154 0.09535183 -0.044398285 0.05512793 -0.014819824 0.08344352 0.056428283 0.004869289 0.18291497 -0.15423289 0.008080618 -0.36920974 -0.07568766 -0.14721687 -0.016959378 0.09278283 -0.20300189 0.052577652 -0.023960803 0.08989122 -0.13020778 0.22995645 -0.42818245 -0.05267974 0.056805637 0.3482271 0.010386414 0.06822215 -0.08308116 0.009183319 -0.070199996 0.17894192 0.08208115 0.44712928
见 0.057812776 -0.19599323 0.039827004 -0.20642897 -0.06365324 0.106700644 -0.11644791 -0.002764704 0.15723677 -0.20260252 0.08432782 -0.033896293 0.081116974 -0.15753135 -0.0983297 -0.14331713 0.008332778 0.32794014 -0.038891006 -0.0438263 -0.14479873 -0.13985538 -0.10246351 0.119443975 -0.28275847 0.0499165 0.1240083 0.21314523 0.14631745 -0.14943156 0.08226076 0.03829582 -0.3230337 -0.124994375 0.24729964 0.046149496 -0.18467645 0.21760246 -0.41358992 0.11985875 0.17137477 0.13467695 -0.012899843 -0.13250291 -0.043539874 -0.17387412 0.49291816 0.11021152 0.020823885 -0.28253797
学 0.032999616 0.17576021 0.11971843 0.106421076 -0.17482859 -0.16828029 -0.077617995 -0.16008978 0.03687683 -0.22530662 -0.092492945 0.42597514 0.08796852 0.2017741 -0.15285593 -0.09529362 0.08398704 0.22586155 0.1958449 -0.08165312 0.009823556 0.024164401 0.08648695 -0.05417921 0.26004195 0.041471396 -0.15532018 -0.21364409 0.04009516 -0.21301894 0.08142716 0.34746686 -0.34775034 0.059372153 0.20367219 0.055231534 0.35569376 0.22406442 -0.399603 -0.22119842 0.07716905 0.11526134 0.18258756 -0.12210077 0.08891186 -0.17609666 -0.264165 0.00069808937 -0.059707377 0.023492247
事 -0.09585714 -0.22780271 0.12223473 -0.2385239 -0.005683858 -0.0710879 0.13577509 -0.117430724 -0.11797858 0.014544029 -0.029255638 0.14413893 0.06691423 -0.23180257 0.08703663 0.046333216 -0.026564363 -0.056933187 -0.17754146 -0.2022308 -0.024708102 -0.17622636 0.40457335 -0.31036568 0.025455367 0.1346088 0.24567732 -0.15613319 -0.04143078 0.18090092 0.17245308 0.10402656 -0.15152694 0.043149102 0.23957442 -0.11752697 -0.23740393 0.2829187 -0.52141315 -0.073602475 -0.31561193 0.13112599 -0.1265443 0.0038675666 -0.15992874 0.13274422 -0.04686927 0.25519046 0.055792224 0.15736985
是 -0.036974296 -0.11028344 0.19609672 0.13459073 0.09618152 0.008006942 0.21385127 0.021502204 0.07720172 -0.11700646 0.025646884 -0.047554716 -0.046004113 -0.22437577 -0.17395301 -0.036756918 -0.20947407 -0.08971538 -0.3315696 0.03016958 0.16772775 0.21068276 0.25654247 -0.09449458 -0.1506815 -0.27643922 -0.24432929 0.20438717 0.21003869 -0.15976548 -0.100860916 -0.14314173 -0.2509457 -0.0070314337 0.08027836 0.16933177 -0.040286038 0.07904421 -0.50945544 -0.06412051 0.08770351 -0.04266154 -0.10014545 0.2275707 -0.080168225 0.17127667 -0.15222615 -0.17526904 -0.022455439 0.00756639
哉 0.034405578 0.03613711 0.18332529 0.03948703 0.1750182 -0.17023404 0.21036348 0.04729341 0.13086464 0.21080717 -0.24619648 -0.1859186 0.33633366 -0.2604679 -0.17898987 0.09755296 -0.08481403 0.15229493 0.21243304 0.27582142 -0.12226314 -0.00087977527 0.010797179 0.11123408 -0.1233165 0.20535077 0.121627256 -0.007085361 -0.13402914 0.0026876864 -0.21474159 0.01564743 0.06911127 0.020939516 0.07181465 -0.15652923 0.18469623 -0.116841435 -0.7324967 0.08633476 0.24058294 -0.08111725 -0.14885737 0.39174756 0.25466236 -0.3348843 0.12564786 0.2708402 -0.0065398514 -0.052894797
闻 0.06470406 0.29052547 -0.14581844 0.22387955 -0.2919061 -0.262909 -0.03024028 -0.088336624 -0.18824235 0.1754913 0.050692424 0.14252195 -0.24612962 -0.015369168 -0.25611925 0.045524135 -0.17465672 -0.03620518 0.017848715 -0.46664566 -0.08233035 -0.06645256 -0.027891565 -0.03330024 -0.00074761035 -0.0015461828 0.107718974 -0.12635578 -0.01147882 -0.27037564 0.04709043 -0.016303448 -0.27890033 0.078759804 -0.005955531 -0.13482529 -0.099843405 0.14987011 -0.52797514 -0.2191847 -0.1500886 -0.19024694 -0.04374436 0.094586365 0.023578992 0.076918855 -0.14472316 0.14594097 -0.18409131 -0.32636222
未 0.20352273 -0.09847865 0.022242175 0.0410862 -0.27211627 -0.21751228 -0.24140865 -0.14524491 0.05209652 0.005893192 0.11497567 0.25221914 0.04407452 -0.14406589 -0.11132029 -0.1015942 -0.11309188 0.26593783 0.10751721 0.104470976 -0.14234774 -0.24285996 0.12957993 -0.045749474 -0.13893263 -0.004442083 0.20574474 -0.1814925 0.065674506 -0.08288228 -0.116375685 0.103192896 -0.054902356 0.088500805 0.23348357 0.074624866 0.0013785529 0.19110405 -0.40205234 0.16325332 0.20893578 0.033290207 -0.01699795 0.057139654 -0.014643893 0.16937974 -0.03257954 0.079290256 -0.090800695 -0.028958514
公 0.12648062 -0.08185907 0.010819986 0.016145214 0.14576298 0.260535 -0.26198933 -0.21879022 -0.33416116 0.12937757 0.23930487 -0.11528744 -0.0748348 0.080078356 -0.08319103 -0.08740676 -0.1522631 0.14153066 -0.5057523 0.07287951 -0.07139364 -0.0942637 0.17576055 0.1647146 0.30320406 0.06022923 0.1716921 0.0801968 -0.03783309 0.094840005 -0.08187964 -0.30591896 0.13269334 -0.035098746 -0.011514526 0.042559873 -0.29401293 -0.024851313 -0.6643276 0.17060475 -0.27616903 -0.2581126 -0.17036472 -0.18012911 0.16948026 0.10029069 0.027230699 0.07135649 0.08102016 0.029429147
好 0.24238111 0.06103832 0.28050157 -0.059781294 0.070101865 -0.25105682 -0.118789114 -0.14284267 -0.13516562 -0.22146063 0.030227268 0.5278069 0.07979229 -0.13879189 -0.009571016 0.023780027 0.3215696 0.16106637 0.13807963 0.12542799 -0.13046935 0.098353945 -0.02700267 -0.081372656 -0.17418712 0.12402203 0.2763858 -0.3544194 0.22993664 -0.025344832 0.3013402 0.17596042 -0.33427075 -0.036843237 0.05396811 0.14983788 0.23473112 0.45988923 -0.30969486 0.020947855 0.27611127 0.27835453 0.26809862 0.098745756 -0.02639006 -0.44364136 -0.14713213 -0.121869184 0.29512873 -0.14866255
我 0.16965964 0.21224348 -0.07044385 0.01671631 -0.1465306 -0.19674179 0.08248247 0.050402936 0.15285489 0.018999532 0.050845746 -0.23857799 0.23589316 -0.09727551 -0.1746883 0.10752555 -0.2846861 -0.025348604 -0.15272646 0.13664672 0.16812098 -0.08640278 0.0308256 0.12769295 -0.32881293 -0.10530775 0.02155836 -0.007657251 0.015180315 -0.1361853 -0.020271158 -0.23753443 -0.13387701 -0.115514494 0.02858647 -0.10599312 0.010443336 0.022050815 -0.5860859 0.010103859 0.08091012 0.09905636 0.23830399 0.25738364 0.058453158 -0.18423826 -0.0331927 -0.017476209 -0.009985232 0.31406802
路 0.04952892 0.029265575 0.10449033 0.054384407 0.006988997 -0.15766463 -0.18089642 -0.2685434 -0.108657844 0.14633217 -0.11990737 -0.25901988 -0.12497477 0.03000334 -0.18220429 0.07052348 0.33999863 0.047089495 -0.13574478 0.05510188 0.047395922 0.09411312 0.10616208 0.0002923648 0.1934752 0.13552386 -0.09154896 0.20580043 0.027783813 -0.19275633 -0.03710105 0.08940628 -0.052728888 -0.004911989 0.07807512 0.12221441 -0.17323014 -0.09135981 -0.66797805 0.2999824 -0.19339906 0.1424707 0.19814827 -0.01734832 -0.004722411 0.07785966 0.29099002 0.22349672 0.0045562363 0.17461857
在 0.09586386 -0.24280243 -0.1584631 0.24951665 -0.093054466 -0.166772 0.087455764 0.11369883 -0.32940555 -0.048492927 -0.12771493 0.16704331 -0.1961767 -0.23138453 -0.24263416 -0.15435775 -0.16448572 0.43638378 0.31519657 -0.33495098 -0.010186792 -0.20081669 0.03862638 0.10963527 0.14106213 0.087801434 -0.19509692 0.1393285 -0.2034213 -0.008456473 0.24739563 -0.120664604 -0.37760904 -0.12391404 -0.34418896 -0.02727138 -0.09738116 0.2904505 -0.46896976 -0.10825987 -0.13380168 0.043851007 -0.28916994 -0.21303111 0.1307544 -0.14375512 -0.23258305 -0.064548455 -0.09123756 -0.16821039
已 -0.032001052 0.29136005 -0.041565817 0.025704112 0.30108088 -0.41294318 -0.04295007 -0.42242095 0.10854247 -0.41396487 0.043067 0.18460973 0.09522299 0.26151478 0.15735646 -0.22511175 0.12136183 0.22446616 -0.001407223 -0.03555867 0.02694638 -0.10415135 0.03961943 0.23366661 0.04054763 -0.10044281 0.08057319 -0.004943259 0.13070111 -0.12015631 -0.13938843 -0.084162265 -0.018240321 -0.08187272 -0.020059805 0.29870385 -0.11485092 -0.001911314 -0.56476253 -0.17864573 0.18126757 0.11949752 -0.2755579 0.09240894 -0.0015651821 0.45000288 -0.028604863 0.02962881 0.029163774 -0.17664808
得 -0.12513891 0.029968249 0.15264726 -0.19003361 -0.16756707 0.24004179 -0.11141127 0.1835674 -0.3951664 -0.1743668 -0.04231086 0.028464003 0.3359459 -0.072750285 0.074144326 -0.0953036 0.075346984 0.1081936 0.10829855 -0.2680808 -0.097130835 -0.20084319 0.022736486 0.099206015 0.17740268 0.06479271 0.044377785 0.09103697 -0.11733039 0.072612904 0.19733204 -0.021432104 0.06047926 0.056160923 -0.15623268 -0.08062381 -0.04958096 0.29939276 -0.3549836 0.318321 0.46455586 -0.100447305 -0.15457986 -0.0754309 -0.13350311 0.14506486 0.29874 -0.1245424 -0.021596134 -0.12692569
所 0.015523421 0.34572992 0.084023714 -0.09305358 0.022673305 -0.12223565 0.13306406 0.24139632 0.095569834 0.20191735 0.293033 0.11857635 -0.14551122 0.08404264 0.17629907 0.07136686 -0.0883325 0.087831736 -0.2297741 0.12416647 -0.006762278 0.20376506 0.01100651 0.22566688 0.13064054 -0.23900501 0.12938479 0.19087288 -0.05916603 -0.37092167 0.08188208 -0.103015 0.001184227 -0.119488455 -0.24538282 0.09585118 0.16370375 0.32136047 -0.37069896 0.23961842 0.19844808 0.08290717 -0.14983286 0.37215528 -0.178979 -0.10559617 -0.07889158 0.0072561535 -0.11538563 0.026653385
民 -0.15186264 0.1691567 0.045248564 -0.25422227 0.28813767 -0.21292654 0.011611377 0.28156585 0.048570327 -0.2918096 0.294049 0.20601031 0.25846463 0.18798947 -0.020461557 0.11118174 0.34160545 -0.17972514 -0.10518411 0.06452493 0.10949797 0.13565156 0.18116947 -0.2745873 0.13012965 0.25418276 0.10996713 0.051843375 -0.12331164 -0.12165158 -0.21890453 -0.12533459 0.118365385 -0.16123359 -0.06559109 0.14927416 -0.44872344 0.39313412 -0.43715477 0.14636299 0.079824835 0.06516006 0.12933233 0.019599177 0.21702826 -0.10851884 -0.061415393 -0.25196785 0.0958139 0.031084498
小 -0.101573415 -0.13477793 -0.039944418 -0.31979704 0.026363168 0.2330842 0.43955043 -0.09174294 0.06863713 0.18333945 -0.13118109 0.0950392 0.16572756 -0.04455575 -0.07322227 0.2008841 0.57039905 0.23307388 0.09638679 -0.19699086 -0.046834487 -0.069068894 -0.013058042 -0.09205224 0.10518833 -0.013267157 -0.13136445 0.19959836 0.2762139 -0.06412399 -0.25745538 0.29688752 -0.032014795 -0.20375593 -0.3233314 -0.19909894 0.21020666 0.22672614 -0.45885244 -0.08391954 0.07300149 -0.04486844 -0.0074717957 0.10453381 0.24545464 -0.09515851 -0.28494245 -0.2828929 0.2179153 -0.103000656
天 -0.10364608 0.112775214 -0.22436368 -0.12212355 0.11657865 0.03551803 0.17218688 0.34867567 0.017976642 0.007337928 0.18169923 -0.22520122 -0.028627442 0.20699592 -0.25164074 -0.2827344 -0.021504825 0.0863105 -0.19180033 0.17548615 0.19273582 0.047192592 -0.02117774 0.04522977 0.34889224 0.02907576 -0.11079856 -0.05703081 -0.27455103 0.014736211 -0.25391263 -0.25044236 -0.020143345 -0.21533297 0.09120311 -0.22584099 0.23524493 0.22050938 -0.46083826 0.09375853 0.35776865 0.04510494 0.14068381 -0.1149253 0.2758694 0.14917603 -0.05094013 0.058422558 -0.05330065 -0.18506604
乐 0.099151626 0.16852872 0.22476305 -0.004367384 -0.027888736 0.6210229 0.17890821 0.19666184 -0.122206025 -0.22550072 0.3560439 0.2808647 0.030440735 0.24462649 -0.23175853 0.1389551 -0.5462254 -0.19407307 0.2540984 -0.033783656 -0.13787548 -0.034618314 -0.039733328 -0.10982618 -0.066501975 0.35257402 0.0076133 -0.025446743 0.040875386 -0.029895332 0.15134972 -0.077752866 0.18412982 0.08842355 -0.025136143 -0.19935158 -0.24441038 0.44887927 -0.4190015 -0.14069118 0.34603238 -0.0684216 -0.10457461 0.15437956 0.120958045 -0.3196642 -0.22279915 -0.0043400354 -0.36609253 0.011585431
邦 -0.008101656 -0.009122839 0.11904695 -0.030257612 -0.14590345 -0.03155538 -0.028761232 0.34336793 -0.0398625 0.17304654 -0.27650854 -0.04967631 -0.020076891 -0.27666664 -0.31787276 -0.079050526 -0.014494481 0.39377928 -0.08582585 0.031612016 -0.3888694 -0.029034937 -0.26668873 -0.1754488 0.21181858 -0.16297622 -0.0010907885 0.06904028 -0.06350781 -0.058960997 0.0107621765 0.10201884 -0.16378212 0.1564267 -0.029334689 -0.3546501 -0.23395665 0.27014327 -0.50355744 0.03162596 0.109070204 -0.3046799 -0.06939281 -0.0849085 0.15134552 0.12423801 -0.3331941 -0.05091725 0.13498063 0.0671236
亦 -0.13991547 -0.2965202 0.016177071 -0.027172145 -0.18863451 -0.13980967 0.16369833 -0.067065954 -0.07356705 -0.12195975 0.2209641 -0.09503103 -0.24819337 0.14364485 -0.31271017 -0.0498028 -0.018048558 -0.26832002 -0.0709234 -0.2721456 -0.040001985 0.21821034 -0.119946435 -0.4171906 -0.04006031 -0.11104996 0.05448093 -0.021131199 0.30888292 -0.043429323 -0.3575634 -0.30359516 0.42078707 0.025060687 0.17170858 -0.18216509 0.3255858 0.12726776 -0.4581427 -0.14895302 0.19706286 -0.031451188 -0.20504613 -0.14534098 -0.108622655 -0.008196305 -0.03322928 -0.070620805 0.33035967 0.12104713
使 -0.28629375 0.07451185 0.009473678 -0.05997808 0.0418993 -0.12780279 0.011530273 -0.046513975 -0.13301441 -0.04861578 0.08476498 -0.060207445 -0.31923404 0.08864791 0.13615575 0.09727309 0.33123007 -0.019075744 -0.118397556 0.14445353 -0.18313228 0.4128304 -0.07820294 -0.08057054 -0.23444197 0.16757905 0.04967216 -0.1466356 0.28863314 0.021619247 0.068189405 -0.018198084 0.042880986 -0.0028691047 0.0713031 -0.013759379 -0.23333058 0.21885161 -0.47811073 -0.1952106 -0.07070054 0.12674615 0.2747534 0.11018609 0.06812926 -0.09275201 -0.15369478 -0.051179644 0.10723498 0.13579164
大 -0.12883791 0.0020030902 0.00635615 -0.009383593 -0.10019334 0.18001169 0.18834756 0.068069376 0.01761381 0.09931582 0.03731182 0.14634123 -0.25270855 0.04351026 -0.0013414383 0.29924208 0.12437997 0.08029275 0.2045288 -0.09449103 0.25920063 0.13669734 -0.3230762 -0.10473418 -0.18506914 -0.02741478 -0.290538 0.15423816 -0.06747502 0.26412025 -0.11896581 -0.21501546 0.054857038 -0.48143858 0.09695617 -0.32403278 0.071515255 0.24900869 -0.44453186 0.074260674 -0.011371889 0.0705272 0.10788676 -0.008181977 0.21544598 -0.12653299 0.055137258 -0.20233126 -0.1424888 -0.080298714
下 0.033535883 0.23646367 -0.35171798 -0.04537592 0.2623393 0.1721551 0.03985535 0.39384475 0.165891 -0.1143832 0.07763812 -0.016626846 -0.1786023 0.04960584 -0.08182402 -0.037102185 0.08852187 -0.07761803 -0.16011629 0.37155944 0.08087979 -0.106163606 -0.121543534 -0.00036800312 -0.013865963 0.03289699 0.11294628 0.2544384 -0.32369673 -0.07520459 -0.0841505 -0.07797442 -0.31260052 0.04457645 0.30043456 -0.21994689 0.091635734 0.39509547 -0.37447122 -0.07663636 0.20783868 0.051568784 0.24317108 -0.09212583 0.34002602 0.077532575 0.19617495 0.04117996 0.053098504 0.24187101
贡 0.061302323 0.15458086 -0.1727224 -0.036617517 -0.20833088 0.025322333 -0.04753643 -0.20709814 0.1715664 -0.029025301 0.020687072 -0.16606218 0.03943256 0.028854016 -0.07435554 0.0056063756 -0.10319569 -0.11836085 0.24306557 -0.086663865 -0.0635449 0.14529654 0.038469832 0.08071993 0.09190693 -0.28224713 0.16478212 -0.0064312657 -0.06194525 0.2608644 -0.015643694 0.112978704 -0.042621326 0.019985322 0.1972644 -0.07349481 0.0439409 -0.2430748 -0.71211725 0.21512629 0.0512531 -0.095262244 0.15947191 -0.29836893 -0.13553499 -0.109302536 0.23177269 -0.25176442 -0.031093031 -0.1313408
欲 -0.08500896 0.042832952 0.045397934 -0.10848271 -0.12816748 0.18423353 -0.04715974 0.012937609 0.028874999 0.14324452 0.31053934 0.059896518 0.033572327 0.14170018 -0.13141918 0.16493851 0.18706979 0.16825654 -0.08571396 0.017973505 0.067279 -0.35861802 0.052175924 0.29953325 -0.055411424 0.24625999 -0.3182843 0.11480826 0.21225391 -0.065968476 -0.18473175 -0.12442016 -0.13178024 0.11378301 0.030383794 -0.09663623 0.0521435 0.19519489 -0.42490956 0.14746894 0.06649106 -0.011956089 0.056132287 -0.048907552 -0.3950979 -0.12974992 0.48978668 -0.06790289 0.11492339 0.25773653
诸 0.03917476 -0.118638 -0.22027643 -0.023329072 -0.12475428 -0.07277038 -0.0606211 0.012999414 -0.26935744 0.36173835 0.11975787 -0.12776847 0.1522743 0.25217754 -0.050662607 0.06617049 0.2768866 -0.23220359 -0.14930254 -0.06621275 -0.18710327 -0.16789709 -0.36292437 -0.08755301 0.07109251 0.28139937 -0.074460275 -0.4015316 -0.10112842 -0.036324535 -0.14074218 0.03179874 -0.094961 -0.18474936 -0.3984511 -0.08564763 -0.5843847 0.018872207 -0.6900894 -0.05719328 0.0086693615 0.008732589 -0.0086079035 -0.061644018 0.14565374 0.13148229 -0.10946466 0.4177182 0.036940347 -0.010250504
从 0.07465407 0.2768723 0.21894296 -0.030482175 0.094880596 -0.16754843 -0.10624193 -0.035105046 0.2812109 0.11096987 0.13114625 0.012198386 -0.13264264 -0.2438892 0.1746253 -0.0015790553 -0.13511331 -0.09200263 0.103652835 -0.32469204 0.120117724 0.03778879 0.056303848 0.04633967 -0.46096525 0.26494986 0.14845192 0.034910984 0.26224974 0.2406086 -0.040904537 -0.4901179 -0.06471756 0.16986889 0.20796083 -0.00863652 -0.064589545 0.20971991 -0.4554447 0.003258275 0.22371899 0.12587495 0.17942475 0.1612149 -0.016067563 0.14083616 -0.16623567 0.36218604 0.04097525 -0.116001025
文 0.18064877 -0.07783231 0.19180478 0.007981048 -0.077478334 -0.08281337 -0.23279017 -0.31122437 0.021227196 -0.11382139 0.2260484 0.13272718 -0.029221727 -0.3612291 -0.36662066 0.035260372 0.005219132 -0.16071904 -0.12063223 -0.085612506 -0.038987868 0.052859887 -0.058055542 0.22492118 0.041418273 0.32320663 0.16131504 -0.3067682 -0.3462058 0.26874474 -0.23310228 0.0343065 0.20289804 0.024985308 -0.19425154 -0.27361637 -0.22320962 0.121121414 -0.53200454 -0.22110091 -0.018533252 0.19328974 -0.08068705 -0.100549884 0.56594086 0.2778028 0.050506063 -0.011478463 -0.2965752 0.024592541
政 0.13855344 -0.09343169 0.30867353 0.117657706 0.15481463 -0.019589258 -0.014306605 -0.36572057 0.50357866 -0.10367276 0.18208653 -0.15559079 -0.35924587 -0.28852805 -0.07064855 -0.065140344 -0.051847484 -0.086716495 0.015418932 -0.08181229 -0.10310528 0.36917627 0.37751317 0.1078349 -0.2533691 0.18362434 0.107992366 -0.0009325379 -0.112485744 0.14428537 0.35388604 -0.1885307 -0.04245412 -0.10497632 0.15289353 0.15778981 -0.24198082 0.020515036 -0.5421096 0.14263003 0.10030409 0.009750538 -0.18721837 0.04946694 0.22849931 0.10850586 -0.02200217 0.04470834 0.0730688 0.19981113
食 -0.026938628 0.026420243 0.16310848 -0.066816136 -0.09749377 0.13523398 -0.12737936 0.23007688 -0.1829197 0.025156075 -0.11133758 0.069915876 -0.28298733 0.034148045 0.04226446 -0.40153068 -0.33358935 -0.27491572 0.36516055 0.26667523 -0.0573382 0.016671065 0.25866288 -0.018240176 0.4378219 0.016663512 0.098813035 -0.12995619 0.074084066 -0.21242331 -0.06286166 -0.28186154 0.20746794 0.16163713 -0.022395534 0.2204717 -0.08891521 0.42741695 -0.44068947 -0.040793758 -0.008447128 0.10017268 -0.20664626 0.042175967 -0.39072692 -0.13934627 0.25177962 0.07868138 0.19083 -0.4505498
善 0.22241421 -0.013362153 0.21466312 -0.10569899 0.16127828 0.06124607 -0.22992618 0.043384783 -0.21403846 0.320667 0.25342882 0.0017446534 0.02739552 -0.054876655 0.062425233 0.096949436 -0.16691534 -0.24103738 0.052094463 -0.16324018 0.17376892 -0.10724022 -0.29871598 -0.014435304 -0.047241095 0.057163898 0.01047786 0.100804254 0.09396723 0.04739828 0.14550537 0.07062501 -0.14734565 0.19270359 0.045031834 -0.014404781 -0.041336473 0.19376934 -0.4492878 0.10372279 0.12158313 0.20531198 0.10826492 0.1542186 -0.010413247 -0.29796782 0.1685087 0.12825021 -0.06760758 0.123673044
后 -0.14215037 -0.23195772 0.053005945 -0.091315165 -0.16996445 0.21716236 -0.1791566 -0.21877342 -0.11592715 -0.10499874 0.16687056 0.28511342 0.40939286 -0.13416216 0.11104069 0.063216545 0.0804264 -0.07328565 0.14470893 0.27439585 0.37195393 0.21703242 0.39727166 -0.028331319 0.040923513 0.23314051 -0.25490105 0.004348604 0.09123862 0.07998031 0.13513759 -0.21245322 0.1623 -0.119847454 -0.3244907 -0.17174892 0.026778955 0.250024 -0.47285518 0.27202043 0.02623734 -0.33155224 0.06908421 0.009246324 0.12439801 0.0195907 0.08078949 0.36705378 -0.10364957 -0.16472024
德 0.37456295 0.16415574 0.0027957319 -0.22578792 0.07861449 -0.15077762 0.16625918 -0.098496825 0.058722187 0.07589451 -0.19103163 0.24273723 0.15053333 0.059335027 -0.016689686 -0.1386467 0.3858899 0.1538104 -0.1771872 0.15078202 0.28032294 -0.21212158 0.04014644 -0.07838261 -0.17980553 -0.035798527 -0.04306488 -0.11901762 -0.118012555 -0.17554724 -0.2604268 0.34216914 0.02552745 0.085600145 -0.17319101 0.0064921184 -0.18203442 0.13192314 -0.49388367 -0.12926604 0.072277755 -0.12643816 -0.1441648 -0.2798181 0.022829922 -0.2607435 0.13598514 -0.21379855 -0.036322974 0.18708047
求 -0.31948122 0.0803791 -0.024024626 0.04303477 0.033441115 0.13898423 -0.0005841721 -0.0005756638 0.23029889 0.17268108 0.18988685 0.045638237 -0.29043442 0.15881018 -0.006410414 0.12764615 -0.04978712 -0.33258843 -0.13363516 -0.059333418 -0.10031021 -0.036396082 -0.08713703 -0.02212025 -0.40588576 0.043414395 0.14993764 -0.11361617 0.05074495 0.22242951 -0.0340561 -0.081065506 -0.12296287 -0.0046920995 -0.001979635 0.08255888 0.008437475 0.111024596 -0.5434426 0.06503874 -0.018653452 -0.19020861 0.011631333 0.21967189 0.079150274 0.26123297 -0.46650648 -0.031280827 0.073248535 -0.003932758
对 0.07905325 -0.012883985 0.09744598 0.20027862 -0.08924039 -0.17762016 0.058606427 -0.46809846 -0.13743497 0.32144985 -0.049664024 0.18969707 0.12608802 0.11602861 -0.30220833 0.09919455 -0.060448576 0.093924314 -0.21588106 0.016891181 -0.24769191 0.3447174 0.19345254 -0.18235685 -0.07409847 0.21400145 -0.06744971 -0.23954314 0.32194042 -0.27634144 0.1964608 0.02899293 -0.031722456 -0.07466268 0.20771709 0.14032112 0.08639771 -0.24363765 -0.6915534 -0.23530212 0.27725866 -0.047793493 -0.3118161 -0.031078732 -0.042482037 0.11647895 0.069209754 -0.23620564 0.038117882 -0.1768651
恶 -0.14574133 0.20346962 0.01019294 -0.1082839 0.19346936 0.14848123 0.13768134 0.12573904 0.17570075 0.06912552 0.19774508 0.17731659 -0.26943392 -0.26797056 -0.09636257 0.13215216 0.43162757 -0.30070537 -0.0127808945 0.2966613 -0.09379899 0.0684944 -0.13153017 -0.14929302 -0.12258122 -0.055419326 0.007852976 0.02181567 0.12489143 -0.062049646 0.15611608 -0.22182848 0.19745596 0.16772181 0.0049056252 -0.020217266 -0.04216404 0.33735254 -0.32771373 -0.32252032 0.49892977 -0.048669577 0.011392616 -0.356457 -0.25904498 -0.33250868 0.18165563 0.070473745 0.09784515 -0.11588509
信 0.06474539 -0.10068646 0.47627088 0.0011709736 0.04818752 -0.30969745 0.0670378 0.12110232 -0.030967608 -0.30655804 -0.40305388 0.27899358 0.32738468 -0.20671816 0.054158594 0.19402581 -0.0635966 -0.2592988 -0.018940512 -0.1058973 0.29089794 0.1499508 -0.053301167 -0.21451905 0.043273985 0.24189591 0.16055119 0.09645536 -0.061134122 0.02883068 -0.16487947 0.27777165 0.124091774 0.11674081 0.10831241 0.1180335 0.05426485 0.44595575 -0.41628203 -0.010192303 0.0016743067 0.015473625 0.19331671 -0.07986829 -0.10932455 -0.26814732 0.029696647 0.06578674 0.19252738 -0.123129725
死 -0.30192 -0.1393339 0.12439213 0.036914505 -0.10344183 0.13171908 -0.19652312 0.011617887 -0.25723094 -0.18727364 0.2261047 0.01461031 0.18614754 0.06169886 -0.15042242 -0.320578 0.03192364 0.1136677 0.13539056 0.13587283 0.2274968 0.04654764 0.1999574 0.19108425 0.138523 -0.062490977 0.025719829 -0.023834223 -0.1071614 0.13824491 -0.19302431 0.058925975 -0.43777302 0.08529242 0.15683194 -0.16521865 0.018456427 0.22042805 -0.38794193 0.15391213 0.06639395 -0.25136504 0.11878274 0.0652279 -0.2642248 -0.005655219 0.25620106 0.08417025 -0.001972312 0.29755
然 -0.23952976 -0.30006257 -0.105770595 -0.26879457 -0.0410359 0.42123386 -0.07266801 -0.14694498 -0.050011165 0.040644817 -0.04683883 0.13461974 0.038182985 -0.29545084 0.057843316 0.026845222 -0.0017220408 0.025914727 0.034648903 0.0032105406 0.54740465 -0.023367615 0.3523649 0.1738378 0.13545173 0.12160089 -0.025627226 0.05739926 -0.030339696 0.08859434 -0.010451412 0.0077544022 -0.07736852 -0.1756975 -0.12523139 -0.22620185 0.54461324 0.10456453 -0.464195 0.06277008 0.09564593 -0.32401493 -0.028320042 -0.1832646 -0.10033017 0.042395804 0.07998365 0.23726115 -0.2146007 -0.2406384
《 -0.053141896 0.27013427 0.13521208 0.17256232 -0.3728835 0.12569597 -0.03403351 -0.17066234 -0.33438262 -0.046116896 -0.018180957 0.20656784 0.255342 0.09597174 0.20610386 -0.048714295 -0.17656516 0.17572139 0.3709 0.15204811 -0.13236351 0.09914811 -0.07733543 -0.072839424 0.0025462538 0.1261556 0.17840225 -0.08296124 -0.05756074 -0.33146036 0.20818388 -0.11781297 0.05915823 0.08546507 0.29252827 0.18204284 0.041838698 0.11679288 -0.61221653 -0.011677674 0.08836163 -0.15531205 -0.19281244 -0.3472305 0.33418557 0.13749754 -0.21789028 0.066055484 -0.37157038 -0.09237023
》 0.15967344 0.32187507 0.18358706 0.031062018 -0.27173245 -0.012093451 0.048937615 -0.17648964 -0.4494889 0.016036252 0.0024760545 0.058948584 0.14932506 0.30633125 0.22118507 0.09702817 -0.13577482 0.26730272 0.27216864 0.07783956 -0.071982495 0.08592131 -0.20703533 -0.02961874 0.03765921 0.06646913 0.39318013 -0.046739925 0.04290669 -0.4075752 0.15104331 -0.088925414 -0.04752969 0.043386824 0.25877768 0.022351535 0.16847125 0.16489807 -0.5968081 -0.1397161 0.061010595 -0.22782849 -0.21868715 -0.28219515 0.20596762 -0.024926865 -0.105689734 0.23482515 -0.60309124 -0.01586122
由 -0.17561387 0.13335896 -0.11930649 0.21908136 0.14113268 -0.09856505 -0.08270028 -0.17861067 0.13084368 -0.17739886 0.05535825 -0.0056767385 -0.14074138 0.16170828 -0.036328394 0.27133802 0.28882954 -0.18987437 -0.00522367 0.0069821794 0.005580176 -0.1751183 0.16421047 0.12734881 -0.38542476 0.23778647 -0.023340758 0.119922824 0.048822798 0.017969798 -0.032783654 0.121789984 -0.049983054 0.0073356875 -0.03971456 0.073143475 -0.03662572 0.09778997 -0.54584926 0.06628402 0.15775515 -0.21125548 0.07783038 0.4755451 0.121967785 0.3263453 -0.2276671 0.23257174 -0.09003498 -0.008144295
仲 -0.27170935 -0.069516234 -0.1291618 0.08611586 -0.10649763 0.1894191 -0.2149142 0.122059226 -0.028556108 0.06733292 -0.2691084 0.16741681 -0.12699732 0.19874343 0.38271216 -0.100042604 -0.08918363 -0.009906121 0.21002267 -0.14826967 0.045758624 0.17658828 -0.0791041 0.10639529 -0.033930533 0.036012642 0.32434466 -0.12483337 0.04545039 0.48505422 -0.27489293 -0.20844746 0.055477016 -0.13922794 -0.008745645 0.1765087 -0.118199304 -0.093235545 -0.7288557 0.0240977 -0.08880323 -0.2670971 -0.05934954 0.17300734 0.29739422 -0.3634932 0.23827735 -0.04808534 -0.08434422 0.30004355
非 -0.0009750888 -0.17591497 -0.28011048 0.12852988 -0.026335353 0.06516755 0.3880591 0.12868342 -0.23775762 0.42257458 0.104734495 0.22094898 0.020122642 0.1641456 -0.31396553 0.011755395 0.022101063 -0.14262974 -0.14753076 0.3218466 -0.021554615 -0.20036955 -0.0106625 0.46704075 -0.021681225 0.018390648 0.3911758 -0.26651883 0.02819847 0.0997782 0.08902208 0.3516197 -0.20551704 0.11053589 -0.17709954 -0.1601966 -0.06457937 0.23726894 -0.50588936 0.06246725 0.16546816 -0.65009457 -0.16877583 0.10139717 -0.02892305 0.16534005 0.16897364 -0.12577787 0.1560353 -0.113677934
出 -0.15808488 0.28353488 -0.06090661 -0.06631367 -0.27691567 -0.0793701 0.06287332 -0.051168833 -0.05814055 -0.08319614 -0.034625284 0.20024781 -0.3091709 0.23741014 -0.090077445 -0.23899955 -0.23319943 0.40321076 -0.32581338 0.2537398 -0.017922482 -0.066468544 -0.36490837 0.095318824 -0.14276128 0.12580924 -0.26560652 -0.0020336062 -0.038658183 0.35121614 0.1777993 0.11967153 0.094483346 -0.3960842 -0.14180629 0.09060916 -0.27485767 0.2878164 -0.5457718 -0.20227428 -0.32497883 0.23935516 0.31606346 0.09408772 0.03518946 -0.06733044 0.062007386 0.29739144 0.16042209 -0.13130483
过 -0.0125611285 -0.15098839 -0.073629335 0.120756075 -0.3149519 -0.085760765 0.06487984 -0.17474222 -0.053704128 0.045927677 -0.19405088 0.07145734 -0.25997546 -0.0066602533 0.01578992 0.055482253 -0.034562677 0.24395594 -0.16961862 0.26345724 0.037426185 0.1207957 -0.084256925 0.378935 -0.036053866 -0.040635005 -0.54250836 0.16520223 0.23549838 -0.08314481 0.23315862 0.24113624 -0.40917417 0.043916997 -0.03555435 0.25917897 0.11099759 0.22812489 -0.39950874 -0.11257859 0.10504033 0.23190315 0.28742564 0.07274899 -0.3122215 0.053179342 0.099310204 -0.0960341 -0.081677236 -0.17285824
一 0.23034658 0.07818633 -0.10544255 0.08626682 0.012532838 -0.07657587 -0.050193753 0.06481745 -0.15461072 0.15492508 -0.1266197 0.14471446 -0.34652066 0.15480019 -0.2858482 0.06449189 0.029067054 0.37781852 0.114310525 0.46246746 -0.20193358 0.086468585 -0.022278156 -0.04479413 0.18221751 -0.27142584 0.1719179 -0.17048468 0.05127184 -0.28442922 0.0012339116 -0.3965839 0.14367169 -0.16581796 -0.107936196 0.21337202 -0.10540285 0.33060935 -0.42050105 0.16889392 0.102692865 -0.53515005 -0.15388525 -0.078080386 -0.05402429 0.14933306 -0.10800061 -0.15409313 -0.483136 0.1630686
虽 0.24305043 -0.11862883 0.3894466 0.31519887 -0.03763246 -0.10136698 -0.042724356 0.20271978 -0.041131575 0.45559454 -0.17712553 0.26214287 -0.08989884 -0.01595387 0.064843476 -0.17406537 -0.10672402 -0.09345679 0.28517744 -0.18064 -0.09197107 -0.007352862 0.07941007 -0.20111111 -0.25005436 0.037083067 0.023121266 0.018196203 0.04406494 0.060431607 -0.11858821 0.019961033 0.24094427 -0.17814572 0.17093576 0.015661204 -0.2739458 0.5170312 -0.32418373 0.21790946 -0.04682404 -0.24963067 0.14388974 0.21466625 -0.24447776 -0.3011405 0.2682164 -0.5184183 0.12829283 0.10909827
足 -0.057006765 -0.11973251 0.2999373 -0.05628683 -0.06574202 0.2610757 0.23372547 0.0692887 -0.38776764 -0.49886364 -0.076486446 -0.115968086 -0.18931785 -0.20823416 -0.012887591 0.038902793 -0.018460974 -0.45468014 -0.36358002 0.2932819 0.2474385 0.13368738 -0.05189434 0.17978069 -0.12526748 0.07703648 -0.06407703 -0.25069296 -0.16618125 -0.32457918 -0.09881415 0.23502372 0.22243506 0.07947685 -0.14981581 0.41331193 -0.015560209 0.20149875 -0.4952298 -0.032179847 0.16919595 0.14272319 -0.35555053 -0.0025325366 -0.106556885 0.093292564 -0.0014919139 -0.34219676 0.07298536 0.28175765
居 0.05377692 0.036848217 -0.079835184 -0.2427822 0.414563 0.24867861 0.06468379 0.25548983 0.10475654 -0.06674549 -0.085843146 0.002165285 -0.16250105 -0.23778659 0.28227124 -0.004655979 -0.05375415 -0.121222794 0.2616218 -0.01460695 0.026520887 -0.043670658 -0.06635857 -0.09107541 0.023153096 0.037027474 0.14275996 -0.036536865 -0.14177126 0.09020052 0.25575837 -0.08278759 0.054985337 0.040451676 -0.07074216 -0.04169681 -0.15200923 0.27157405 -0.5185791 -0.23695423 -0.112581536 -0.24640208 -0.09866099 0.17009838 -0.24209708 -0.3034821 0.2654504 -0.073784515 -0.1374211 -0.25034136
尔 -0.20593742 0.011539346 -0.3719684 0.15258943 -0.024630532 -0.16360106 0.19541702 0.06054603 -0.039312888 0.44683707 0.05860234 -0.14744271 0.14424379 0.13034126 0.011923726 0.37346834 -0.050848518 0.32405627 -0.19083391 0.16436867 0.30800194 0.018458785 -0.18347181 -0.0016892051 -0.08639466 -0.19517341 -0.30685768 0.094037406 0.24044277 -0.017332926 0.0042079915 -0.3333407 0.08510708 0.014321683 0.22455834 0.27445117 0.020052986 -0.08688206 -0.6619345 0.16538666 0.25285426 -0.2628182 -0.22107632 0.45457396 0.03205842 0.019297138 0.03750291 -0.30948815 0.056774016 -0.29816604
夏 0.2254211 -0.041300632 -0.10050973 0.045674972 -0.21740481 0.124813974 0.016105821 -0.25332907 -0.019084793 -0.11517556 -0.18127978 0.13301715 -0.0637542 -0.034346253 0.13241349 0.036397018 -0.06092751 -0.022379914 0.1387832 -0.059805002 -0.06665988 0.427954 0.09450801 -0.04193079 0.12642425 0.012676445 -0.06977325 -0.0065732594 0.07592137 2.9656963e-05 -0.25772175 0.24744295 -0.24693759 0.15267307 0.29922497 -0.12881729 -0.007878499 -0.14777741 -0.6475272 -0.3098062 0.008706548 -0.024189988 -0.12919438 0.1369973 -0.20908053 -0.3244068 -0.032208275 -0.30562097 0.07548531 -0.061348904
父 -0.41797873 0.16059706 0.05958577 -0.0050819274 0.16015361 -0.15789375 0.013626913 -0.34686857 -0.1722903 -0.15937617 -0.08511917 -0.18574756 -0.1739056 -0.32043818 0.09591686 -0.104493484 -0.24967569 -0.07716317 -0.00800735 0.041871946 0.120134935 0.14897326 0.30572656 0.26481718 0.0074299504 -0.2524263 0.10685475 0.2631773 0.08558422 0.17248863 0.23521976 0.10153504 -0.21960199 0.18475159 0.053251687 -0.67868066 -0.06673511 0.18906626 -0.5302126 -0.036291838 -0.041411437 0.2103862 -0.44847235 -0.16575567 -0.21352679 -0.2518684 -0.14126463 -0.16200435 0.007733125 0.02438081
及 0.07343981 -0.03847684 0.13169727 0.06208899 0.097125255 -0.042426333 -0.12538631 -0.029096682 0.054785553 0.038353566 0.118522495 0.16497359 -0.1397518 -0.22871248 0.24298038 -0.19355033 -0.33125132 0.3279525 -0.30310184 -0.15530947 0.049536377 0.3743038 -0.22465765 0.45243874 -0.1282991 -0.34075287 0.019206287 -0.53863406 0.02754387 -0.1070669 -0.12096447 0.32407564 -0.068393104 0.30062678 -0.10889334 -0.26835823 -0.04909918 0.40691325 -0.35149944 0.3146407 0.0927307 0.2496273 0.2017015 -0.028903088 0.13398135 -0.10630456 -0.14418235 -0.17442806 0.11097146 -0.14595285
己 0.25813815 -0.050104637 0.041117184 0.19679856 -0.12196963 -0.12660593 0.5022422 0.059409343 0.33414793 -0.31899697 -0.12923935 -0.085296266 -0.068417765 0.40919563 0.20962495 0.49913505 0.25721914 0.094311275 0.028219275 0.06962865 -0.2767482 -0.011329693 0.049580093 0.25949442 0.032648955 0.14036389 0.13982788 -0.056789316 0.06547171 0.08719412 -0.12314304 -0.13667747 0.109377354 -0.15682018 -0.25142866 0.0060942345 0.2995505 0.28231195 -0.43497008 0.08248782 0.32757753 0.15137693 0.062841 -0.07051731 -0.20578565 0.07355608 -0.038049053 0.16220868 -0.11528912 0.09094997
予 -0.04874329 0.041615907 -0.07103201 -0.16514742 -0.21242054 -0.05705032 0.28055656 -0.031704184 -0.20700163 -0.082287304 -0.17092425 -0.14241384 0.02514863 0.20164178 -0.067304626 -0.19369923 0.18963945 -0.25068662 -0.07513644 0.22243617 0.07758001 0.4714646 -0.04561756 0.63776153 -0.01288266 -0.38290876 0.08781018 -0.22955063 -0.21665105 0.050729908 -0.11247744 -0.24063507 -0.12225394 0.110282294 0.024109447 -0.3271866 0.037376255 0.102990374 -0.5678057 -0.11032264 0.13260047 -0.12908237 -0.08989902 -0.14200377 0.0010778696 0.3080896 -0.1625449 -0.121560656 -0.43367526 -0.18932517
色 0.024503903 0.15696572 -0.06286318 -0.032670673 0.27597603 -0.2997923 0.13832493 0.02635049 -0.4507501 -0.28088763 -0.38726738 0.07226262 -0.33911023 -0.37442404 -0.018591369 0.0054101306 -0.15195118 0.081864096 0.074341774 0.38066468 -0.099333726 0.2749819 -0.07381603 -0.16479282 -0.23091163 0.3348861 -0.1100744 0.1713666 0.31192356 -0.13654214 0.27816576 0.24603452 0.054907657 0.0980625 -0.15280803 0.6599828 0.07193755 0.3999445 -0.46836004 0.09788643 0.112947136 -0.050219145 -0.12266285 -0.01562096 0.24541959 -0.18847203 0.24885736 -0.179162 0.10735494 -0.22751501
友 -0.09175349 0.20033391 0.05189661 0.25178614 -0.23011054 -0.35806578 0.13375096 0.14098121 -0.27343354 0.1534573 0.071235195 0.055396874 -0.3361767 0.1461757 0.21373715 0.32564563 -0.58461046 -0.54527164 0.097481966 -0.15499347 -0.0044534416 -0.15831314 -0.10838113 -0.47519374 -0.24707153 0.39796475 0.29822677 0.566671 0.04321336 0.10402807 0.07085985 0.2756147 0.004042379 0.23055409 -0.07821824 -0.009602337 -0.2011098 0.41096914 -0.54515654 -0.27379048 0.032814056 0.37811118 -0.16023725 0.43487662 -0.1404413 -0.08616541 0.047267027 0.3444569 -0.3138711 0.2616665
成 -0.1971571 0.06067544 0.012465558 -0.036072515 0.033135105 0.13326359 0.16230726 -0.26203936 0.08492657 -0.01929714 0.53241056 0.18919492 -0.3348412 -0.4787292 -0.2484602 0.046288166 0.16365933 0.03503589 -0.07231817 -0.16035286 0.009505979 -0.24132515 0.2679725 -0.03502839 -0.02704891 -0.008335782 0.29378676 -0.08674667 -0.0962999 0.091363326 0.05687332 0.18048485 0.2750001 -0.054747317 0.037702493 -0.23291007 0.10379211 0.26697084 -0.35190812 0.06554363 -0.014743643 0.049579877 0.07048034 -0.33046982 -0.088377394 -0.14532499 0.1210793 0.09059226 0.15544562 0.25998095
远 -0.13261017 0.07971875 -0.37470147 0.10390117 0.34909093 -0.43561912 0.22219902 -0.15043041 0.06587148 -0.28726858 0.047685347 0.17321607 0.26852185 -0.011713668 -0.27186608 0.057424195 -0.23249647 -0.05460692 -0.122291744 -0.2068756 -0.099816665 0.109473035 -0.030836502 -0.47667912 -0.005926183 -0.12450178 -0.061749514 0.27523354 -0.20753771 0.15915753 0.12170048 -0.27071562 0.12143391 -0.01668112 0.09172682 -0.097930744 0.07704447 0.2065969 -0.48246592 0.029326482 0.22928093 -0.006147843 -0.31144157 -0.49946365 -0.12750079 0.16011782 0.038474403 0.036183175 0.23364538 -0.057627764
上 0.09219525 0.16402821 -0.066031426 -0.12830248 0.13404216 -0.113080576 -0.063597426 -0.031613555 0.40298998 0.0033348375 0.033770267 0.53973687 -0.030183738 0.08296932 -0.13222407 0.34716043 0.40018722 0.027210359 0.35522997 0.24317245 0.0145534435 -0.067673095 0.2189282 0.1738183 -0.32905972 0.12355697 0.29524845 -0.11631438 -0.0150548285 -0.25185573 -0.1396903 -0.067527644 -0.1977379 -0.08780741 0.15742663 0.021217564 0.05959155 0.4577274 -0.35723642 0.10883813 -0.058911383 0.2153924 0.34971866 -0.11674985 0.3682608 -0.21797177 -0.06575103 -0.051354427 0.23229986 -0.16824682
立 0.26285997 0.024453692 0.14838119 0.08374002 -0.63318604 -0.5733257 0.16675101 0.16072473 0.05561142 -0.07904022 -0.14429918 0.043542076 -0.41706142 0.32545805 0.3779756 0.2483119 0.19799821 0.18800029 0.01430484 0.06890564 0.12575819 -0.119066074 -0.040295873 0.4131833 0.0354299 -0.05000911 0.17191204 0.2259926 0.20497322 -0.46076256 0.05711765 -0.04790846 -0.07803046 0.16685332 0.21420999 -0.0861511 -0.009042375 0.6150549 -0.34623465 0.36675212 0.07963966 -0.12195284 0.3456493 -0.031994708 0.2245951 0.25478128 0.12659514 0.46991253 -0.08161581 0.045545775
今 -0.29685155 0.1444937 -0.16668515 0.13841352 0.2795201 0.095932566 -0.22538036 0.045309015 0.00066306797 -0.03822682 0.2531112 0.25564188 0.11731979 -0.22544679 0.12639928 0.07668249 0.25836906 0.11239806 -0.083183594 0.035478026 -0.10424985 0.098464444 0.25073937 -0.15444863 -0.3566454 -0.30985114 -0.122586764 0.155448 -0.20727794 0.42644975 -0.13295016 0.24287029 -0.0803585 -0.18470372 -0.116613664 0.041126896 0.05005301 0.3148662 -0.36059958 -0.32605004 0.10491156 0.22358252 0.3496553 0.11445979 -0.013778635 0.16983198 0.13523369 0.043830935 0.11224678 -0.029580325
张 0.038264494 0.14956915 -0.025961183 -0.08053178 0.08649014 0.06777962 -0.024286356 0.05274927 0.29981712 -0.2228908 -0.06518567 0.016726302 0.21095648 0.0069383928 0.23271152 0.22731335 -0.07576917 0.00061769347 0.080451496 -0.22032899 -0.117105134 -0.119960316 -0.09465741 0.21295881 -0.03136367 0.010954155 0.1741329 0.38538262 -0.12434306 -0.23386219 0.23615329 0.24025194 -0.22818604 0.1772634 0.04300114 -0.019668102 -0.39982533 -0.27436328 -0.810312 -0.22773097 0.13908663 -0.15182613 -0.12760472 -0.18907925 0.21664537 -0.052394215 0.04847133 -0.0077871466 0.12813032 0.13549693
中 0.2386308 -0.24230804 -0.17364244 0.23526265 0.36750042 -0.08488052 0.18755825 0.109209515 0.21614419 -0.12163535 -0.08384954 0.19753514 -0.105571814 0.06758853 -0.003381164 -0.27182418 -0.19263072 0.2167339 0.23545162 0.16737998 -0.2014875 -0.36508128 0.026992423 0.2878146 -0.034744304 0.35486096 -0.4750741 0.26523018 0.18356054 -0.18722712 -0.191764 0.06533802 -0.17283742 -0.16581112 0.05686478 -0.14699912 -0.56848836 0.48413667 -0.46345323 0.062001668 -0.114353225 -0.28147215 0.0020957014 -0.3168147 -0.2087013 0.020147465 -0.3162152 -0.20232336 0.09291127 -0.01643983
季 -0.053443264 0.02310469 0.16333358 0.23170377 -0.09881513 0.04635504 0.13016 -0.33342713 -0.06822661 -0.22271565 -0.2119396 -0.0022221229 0.22493236 0.16351554 -0.23878509 -0.08457341 -0.07916257 -0.0025242965 0.21054327 -0.25498304 0.1031927 0.32124132 0.29338235 -0.036654256 0.109858185 -0.029261593 0.15269141 0.26959366 0.034513623 0.2066599 -0.13320808 -0.44041333 -0.43534058 0.24095736 0.0069869156 -0.4148551 -0.34160984 -0.05828149 -0.67885065 -0.14920543 -0.06490497 0.31170118 0.2612655 -0.03976033 0.254111 0.09892807 0.2728001 -0.22372141 0.16297644 0.48791954
臣 -0.36776164 -0.14329296 0.34329626 0.028282166 0.022979202 0.013730291 0.28513464 -0.14934972 -0.2233793 0.17897165 0.19627437 -0.14987054 -0.36995396 -0.20962569 0.20180863 0.12099192 0.09568862 0.020300684 -0.1801146 0.10999964 0.22503977 0.13668357 0.16589126 0.033365533 0.13287582 0.29032832 -0.042207133 -0.17544128 -0.13267548 0.29663765 0.0024692877 -0.12768856 -0.025551772 -0.21384595 0.20666845 -0.5684622 0.124322094 0.26142377 -0.45712313 0.1552907 -0.07937044 0.31383857 -0.06309589 -0.16560009 -0.10907546 0.081169516 -0.08499939 -0.041440625 -0.07383876 -0.049922816
贤 -0.017488966 -0.08325238 -0.21866372 0.23084494 -0.17491677 -0.009586722 -0.040876247 0.039212313 -0.23015906 -0.044949275 -0.07145275 -0.03504383 -0.022615312 -0.16562104 0.26765195 0.16547981 -0.114213735 -0.17158313 0.113662064 -0.085486166 0.17019835 0.16735792 -0.056634717 -0.17050505 0.07331253 -0.05382854 -0.14922234 0.098883115 0.29851314 -0.03644215 -0.043720007 -0.053707443 -0.4590352 -0.33106056 0.020408988 -0.07957999 0.05992428 0.050273277 -0.49880424 -0.18898441 0.44848603 0.13531585 -0.011816905 0.13742273 0.16519004 -0.16737151 0.14627925 0.36496553 -0.23785765 -0.08947526
思 -0.311113 -0.28429744 -0.03681336 -0.28566268 0.10307386 -0.4395586 -0.16558929 -0.21020044 -0.080162294 -0.18023586 -0.39294642 0.3397561 0.42390484 -0.030883618 0.049123168 -0.12795517 -0.06283667 0.1440378 -0.16203527 0.013289561 -0.1110202 0.09651551 -0.29421178 0.084056 0.23686816 0.22710282 0.36706695 0.17195182 -0.18036576 0.05171406 0.29383886 0.0068298164 -0.074990615 0.34490448 -0.07726144 0.002016055 0.1476427 0.38174865 -0.46369094 0.093017645 0.058608904 -0.053594995 -0.14200497 0.059701677 -0.36295143 -0.06416448 0.36563715 -0.19110064 -0.22459573 -0.3324915
齐 0.13759586 -0.14658362 0.15891254 0.14365685 -0.22256652 0.33619878 -0.16975686 -0.016944744 -0.12731166 -0.18839031 -0.08163805 -0.2219002 -0.25137156 -0.15240514 0.11348375 0.06717368 -0.051117644 0.4006086 0.1706508 0.154604 0.04777415 -0.24539906 0.13292809 0.014858211 -0.050925415 0.073883586 0.03651992 0.35599312 -0.27921593 -0.080250055 0.21644424 -0.390002 0.051876187 -0.04157626 -0.05783063 -0.18094635 -0.2848814 0.14484157 -0.5617657 -0.1721512 -0.078806855 -0.05091747 -0.17618614 -0.30008253 0.38260174 0.14938594 0.4209132 -0.26294547 0.15499173 0.16231515
义 -0.015999338 -0.47621545 -0.14184111 -0.33462858 0.16395721 0.12714806 -0.006870834 -0.1591884 0.0075761494 0.019429587 0.13079752 0.15765743 0.21241537 -0.06651305 0.14844935 0.07811851 0.2910692 0.005710677 0.2028442 0.070974916 0.13729966 0.2441252 0.1484363 0.059796132 0.16613233 0.22519116 0.12115674 0.164674 0.11853648 -0.10546488 0.101743214 0.21627408 -0.09485326 0.46981272 -0.34017062 0.07678931 0.28166708 0.38641265 -0.354077 0.13440034 -0.025895527 0.12808768 -0.06142376 -0.20393647 0.00022484288 -0.00424224 -0.37654763 -0.26531047 -0.027672632 -0.2648358
正 0.11718407 -0.23671357 0.26065412 0.2161764 0.15016611 -0.22835587 -0.11740305 -0.032763787 -0.19128808 0.17621975 -0.044210225 0.108920895 -0.3511638 0.044710193 -0.03231114 -0.16254386 -0.15827902 -0.17101602 0.34306628 -0.058085416 -0.13649611 -0.03165204 0.036315233 0.30697042 -0.16376065 -0.12923703 0.19868612 -0.0018728725 -0.016231243 -0.08122439 0.1467714 -0.1361916 0.12944743 0.44046822 -0.0046976614 0.27040154 -0.13196877 0.24388714 -0.43980306 0.0061654723 0.2353453 0.36170688 -0.25859648 -0.39991525 0.21537729 0.07420166 0.2072399 0.34142643 0.15026824 0.10129953
命 -0.056853436 -0.5176343 0.20700324 0.114961155 0.21706854 0.22864947 0.24102043 0.122081526 0.25040883 -0.35109058 0.30253983 -0.08585288 -0.005220609 0.17320675 0.13984224 -0.3583472 0.21333311 0.30380607 0.07005318 -0.20750955 0.062421206 0.07302868 -0.2615178 -0.14330597 -0.083545685 -0.02167241 -0.1397829 0.104033016 -0.23036672 -0.31087932 -0.2559191 -0.019415954 0.21721202 -0.050905667 0.28087553 0.25145257 0.1802501 0.24662948 -0.42131725 -0.043486126 0.010910621 0.08265998 0.16686176 -0.17233483 0.2157247 -0.007983522 0.17513521 0.065234564 0.08776888 0.032949984
曾 -0.07423695 0.16989928 0.016967054 -0.06590424 0.16737457 -0.12013554 -0.0707148 -0.21624868 -0.051972006 -0.10697843 -0.08170423 0.0070160017 0.17999561 -0.02025144 0.2868143 0.1412679 -0.40338832 -0.263326 0.12369665 0.14814368 -0.10386068 -0.15639395 0.009141745 -0.08404755 0.007802985 0.029733557 0.091466375 0.053338412 -0.19486165 -0.044358246 0.0187263 0.042980913 0.12871383 -0.25891078 -0.0002906493 -0.023772115 -0.33358553 -0.0496043 -0.80884194 0.5290786 -0.2685272 0.036085196 0.21233562 0.22763783 0.12940857 0.2540296 -0.13129991 -0.07528105 0.19965017 0.01851476
伯 -0.42864698 0.21507592 -0.00010459346 0.09931122 0.18908635 0.080218315 -0.23734689 -0.09188622 0.1277851 0.04513542 -0.13426633 -0.03232627 -0.050296664 0.05651426 0.19589715 0.034578234 -0.19667448 0.29033613 0.10824857 0.23877297 -0.20614742 0.25329614 0.13019878 0.09826837 0.13883312 0.0810452 0.29719362 0.1694236 -0.0020173772 0.03898668 -0.425294 -0.17144702 0.36954346 -0.11453642 -0.20177428 0.03524034 -0.23982556 -0.07352918 -0.6878662 -0.15518047 -0.017533677 0.14701687 0.19582412 -0.3583228 0.2583892 -0.19830933 0.1634083 -0.20573577 0.3555328 0.24531716
门 0.035543825 -0.5312819 -0.07332156 0.1914134 -0.40701112 0.20080516 0.049532373 -0.3878986 -0.16148582 0.10782738 0.15122867 -0.07393768 -0.19071494 0.035803486 0.17039447 -0.025473794 0.30665675 0.1424356 -0.38759434 -0.20410024 -0.0037129608 0.17589046 -0.20873493 0.16954388 -0.15667762 -0.115221985 -0.36771563 0.29474398 -0.14076075 0.24494529 -0.104198135 0.00050416583 0.02267005 -0.000108405126 0.057604812 -0.34795287 -0.14395389 0.18164964 -0.42079967 0.13222359 -0.06504048 0.113779224 0.5257919 -0.059474748 -0.30533743 -0.18935637 0.014182692 0.000644142 0.2931492 0.008064165
敢 0.22434443 -0.42507836 -0.10303514 -0.081365414 -0.20368975 -0.32422206 0.3231855 -0.25352246 -0.16008158 -0.03543908 0.22987352 0.27475825 -0.061124887 0.09358355 -0.3402015 -0.08132056 0.07236866 -0.42707166 0.124571554 0.10097076 0.43769804 0.35923925 0.32245737 -0.08299973 -0.03953907 -0.011284017 0.15092577 -0.015878828 -0.08293317 0.4444138 0.11532408 -0.18145482 -0.27966812 -0.03649738 -0.106554896 0.17349842 -0.030623669 0.23011726 -0.45967498 -0.030386008 -0.018676497 0.21698247 -0.1355878 -0.20521255 0.024567222 0.08709547 0.17727005 -0.023259882 0.28078255 0.09667937
犹 0.31847733 0.04778099 0.05518136 0.045993846 -0.33322668 -0.11367133 0.1738574 -0.1374337 -0.43816465 -0.009696206 -0.26716396 0.16713706 0.12522866 0.0999244 0.047639105 0.010650077 0.15487644 0.4501646 -0.012199161 -0.022528838 0.11374741 0.330061 -0.5096741 0.37040314 -0.29692915 -0.2631237 0.12726875 -0.5049819 -0.04972344 0.18211804 -0.38882485 -0.04200118 -0.30495253 0.02951445 -0.25008705 -0.2806893 -0.23686221 0.14131601 -0.5516838 -0.10967368 0.12701775 0.5025999 -0.48758435 -0.12782353 0.18008327 0.038613774 0.18225907 -0.13114768 -0.022473088 -0.12316612
生 -0.17160149 -0.22769178 0.10541586 -0.05104805 -0.13225281 0.06288707 0.025413895 0.13916686 -0.081369095 0.05983691 0.26501417 -0.00074395596 0.2543911 -0.039347395 0.39503762 -0.46473584 0.24075024 -0.14234631 -0.20214367 0.18353282 -0.1987387 0.18871091 0.27892128 -0.016828958 0.1599066 -0.22872895 -0.12919012 -0.1114552 0.06449359 -0.42406693 -0.16772597 0.10179083 -0.11094965 0.22928129 -0.19518155 0.287152 0.025411839 0.23104315 -0.37487277 0.09654379 0.47288248 -0.17094848 0.06521487 0.20177062 0.00992487 0.034070347 -0.019577192 0.027670301 -0.09836602 -0.01418579
日 0.16598988 0.2515875 -0.02373581 -0.10600093 -0.03670381 -0.06405396 0.14165998 0.016753385 0.14840122 -0.12632748 -0.25031266 0.0032081858 -0.11891491 0.3659199 -0.01759714 -0.09065196 -0.44644868 0.41932493 0.23326626 0.045314897 0.36772332 0.29295516 0.09397756 0.24935494 0.064625286 0.13343011 0.17933531 -0.19135997 -0.16690502 0.008002582 -0.041412037 -0.1051161 0.08977365 0.012069112 -0.115284115 0.13406403 -0.06545191 0.21366365 -0.5238129 0.06309772 -0.04117958 -0.0556019 0.057165932 -0.042748503 -0.36581954 0.14396757 0.12268534 0.2387553 0.038492743 -0.019008106
敬 -0.26533422 -0.16808486 0.29551446 -0.28209978 0.1760043 -0.45759794 -0.024835687 -0.076179944 -0.029062314 0.1950534 -0.00791826 0.40376848 0.14346701 -0.06378172 0.2822586 0.29860908 0.046771407 -0.050396074 0.034169283 -0.35327035 -0.050785203 0.22514553 -0.060245164 -0.022734502 0.011368191 0.45312202 0.12463367 -0.097686686 -0.26072788 0.40315133 -0.07725957 -0.19484553 0.031003715 0.2721146 0.11221 -0.16540724 -0.25518218 0.5561998 -0.37220243 0.08599933 -0.14298786 0.16311926 0.2982226 0.052860193 -0.2638971 0.08694103 0.12460874 -0.14075491 -0.07700294 -0.04862872
难 -0.36360297 -0.16836177 0.26237324 -0.11431911 0.09842404 0.059222814 0.33169866 -0.15614675 0.16437015 -0.01649157 -0.047190018 0.11636591 -0.06798958 -0.59389275 0.014893994 -0.08491689 0.0039702477 0.09373048 -0.044005655 -0.12774932 0.048204042 -0.21883826 0.018399175 -0.03545036 -0.040732972 0.11213762 0.0696173 0.063522056 0.14637522 0.2827475 -0.07957484 0.11222169 -0.065836534 0.19369514 0.26056635 0.12292675 0.08254095 0.16410865 -0.4665501 0.020083254 0.0838796 0.19122961 -0.013272295 0.18708804 0.0075761545 -0.12472306 -0.23357601 0.083429754 -0.28325918 0.038968354
直 -0.057783037 0.24494235 -0.24691068 0.19840847 -0.31601855 -0.272978 0.16954744 -0.03450482 -0.14897808 0.080463454 -0.0721308 0.1757766 0.000722741 -0.14759053 0.15751487 0.10658868 0.32850206 0.1623055 -0.01681944 0.35683608 -0.04461659 0.16486335 -0.014565037 -0.27330756 -0.06412338 -0.037244968 0.17452033 -0.37054616 0.06349674 0.06268848 0.036516972 0.45949155 -0.06666763 0.21866426 -0.20231092 -0.05880295 -0.25201485 0.23114023 -0.47558522 -0.2665728 0.15965857 0.3821893 0.0053881197 0.15150884 -0.18387753 0.13006167 -0.047830474 0.16338256 0.012144506 -0.11859304
丧 0.033522166 0.023238009 0.052922044 -0.16974832 0.23067756 -0.23724301 -0.23302707 0.0026944722 -0.28997436 -0.07108136 0.10117401 -0.15686452 -0.13342075 0.10938786 -0.43533203 -0.38381022 -0.11514595 -0.6483271 -0.3767421 0.17942454 -0.097429864 0.07422434 0.18147944 0.026441408 0.28887 -0.035319418 0.14468846 -0.030445639 -0.11538743 -0.050891005 0.14887793 -0.26176026 -0.063564435 -0.116938256 0.36923787 -0.1660276 -0.19921349 0.29490203 -0.45718917 0.23993011 0.24124774 0.0661338 -0.3266676 -0.022077756 -0.104109995 0.3178554 0.053517934 -0.037348453 -0.46757925 -0.21063422
说 0.061750874 -0.03296958 0.31081662 -0.33746466 0.1560564 -0.13789368 -0.18839827 -0.24787155 -0.047137763 -0.044829167 -0.20114708 0.08052752 -0.33333308 -0.28153682 -0.31692842 0.15887971 0.25039706 0.059502523 -0.508361 -0.26851782 0.2019399 -0.12659529 0.23156203 -0.17822245 0.38247502 -0.21717837 -0.014701057 -0.2704588 0.027460942 0.22830604 -0.043795858 0.099851586 0.07827886 0.41152442 0.24872236 -0.1094148 -0.23328032 0.2871811 -0.45683807 0.033650413 0.059273407 -0.061008997 -0.13843603 0.3425155 -0.042582233 0.05523118 -0.0868559 -0.123376645 0.21718971 -0.023927778
自 -0.16442055 -0.16694035 0.12684591 -0.29053134 -0.30273965 0.14896443 -0.013421593 -0.1622541 0.20601928 -0.22914487 0.2892021 0.20074612 -0.0036590977 0.1887578 -0.34589756 -0.085422605 -0.28848857 0.14426994 -0.44272813 -0.021997515 0.09636454 -0.088188514 -0.36793453 -0.13016865 0.069911785 0.16713081 -0.24692333 0.11890748 -0.08129132 -0.104521684 -0.03461242 0.04749239 -0.17558473 -0.5678492 -0.018838048 -0.28179672 -0.025419943 0.13090685 -0.4995948 0.024762467 0.10217681 0.014428569 -0.027554784 -0.048741512 -0.14964896 -0.07241174 0.07078597 0.3748536 -0.068908624 0.1019895
用 -0.037063237 -0.13738842 -0.019542187 0.053269092 0.13993171 -0.046823427 0.17613325 0.0017396358 -0.08930998 0.14701132 0.09853763 -0.03166705 0.16902779 0.2629832 -0.31305674 -0.052696485 0.112851284 0.040466327 0.14305423 0.10725746 0.37291786 0.23481171 0.39531225 0.09542844 -0.11286164 0.25184458 -0.27952057 -0.020822035 -0.15717344 0.056371406 0.250917 0.027112411 -0.044905752 -0.0041867583 0.035052266 0.51029915 -0.099483855 0.08411703 -0.53793085 0.1739002 0.09190127 0.06518157 -0.018401422 0.28712487 -0.3709402 -0.10942438 -0.042789705 0.028656915 0.11939095 0.3428834
周 0.26390028 -0.13988438 0.07566957 -0.033893093 -0.24324183 0.23348297 0.3472323 -0.13508202 -0.12933147 -0.14627157 0.16656816 0.38990027 -0.06395577 -0.010819612 0.41390657 0.24280511 -0.15248732 0.31770113 -0.10661386 0.260297 -0.2908459 0.14199167 0.15390728 -0.20741524 -0.11689725 0.00892083 0.145994 0.07299902 -0.08328842 -0.05895147 0.0671499 -0.37116235 0.048077445 0.13037634 0.14918105 -0.14860041 -0.2231027 0.22112538 -0.5336981 -0.22396536 -0.10032746 0.07275325 0.11976453 0.1274852 0.35154173 -0.30230656 -0.403419 0.06266655 -0.09625682 0.16205707
颜 0.10967668 0.0936714 0.21868445 0.1572781 0.048121337 -0.20707345 -0.17503332 -0.29673594 -0.33831105 0.09625238 -0.30265963 0.324963 -0.09431494 -0.40300843 -0.5295156 -0.4292389 0.17623119 0.0056133154 0.11447562 0.34340215 0.17154154 0.30685773 -0.07496419 0.32933655 -0.15271147 -0.060373716 -0.012186729 0.2433598 -0.13609369 -0.035046987 -0.2074648 0.30592078 -0.24908541 -0.24474217 0.044905223 0.123941645 0.15891737 0.08806574 -0.42180157 -0.2563043 0.28129423 -0.51829094 0.3102731 0.049670562 -0.22427978 0.17899059 -0.13896593 0.013781331 -0.015160535 0.38325217
年 -0.038229752 0.20904335 -0.08680195 -0.42524752 0.19778362 -0.35560894 0.0091004465 -0.23157744 -0.05534812 -0.16386642 0.35914508 -0.21419601 -0.16700153 0.14040296 0.073029116 -0.15873411 -0.16003777 0.11088411 -0.13383685 0.20627928 0.24934135 0.39451033 0.17819251 0.20386429 0.055025917 -0.20869963 -0.061758302 -0.068684235 -0.030507851 -0.2836297 0.20138448 0.19371526 0.36767483 0.17890264 -0.20470808 -0.57233196 0.28097612 0.26740128 -0.48420888 -0.106522754 0.02996715 0.08189058 0.15957323 -0.13357468 0.22433421 -0.13991776 -0.24400936 -0.030639581 -0.29916096 0.10079025
告 0.16244766 -0.113224745 -0.21005961 0.16193943 -0.3852997 -0.3951456 -0.056480385 -0.6723342 0.20455405 -0.06104942 0.27352226 -0.08195266 -0.28401554 -0.093616165 -0.3235555 -0.2887444 -0.11974815 -0.30769938 0.24410011 -0.1397688 0.28672376 0.1668784 0.12599029 -0.10110154 0.27516785 -0.001199132 -0.32039586 -0.22775331 0.15584514 0.14949612 0.14968623 -0.13245559 0.151028 -0.037296496 -0.0027997764 0.08109636 -0.52053505 0.09584506 -0.62362593 0.38042507 -0.2925197 0.06028706 -0.19918081 -0.2662144 0.027486024 0.2160801 0.73249626 -0.12463798 -0.3025861 0.06297062
十 -0.38415593 0.017593063 -0.1309227 -0.068792924 0.29453254 -0.019979244 -0.10432525 -0.074672125 -0.05390032 0.40130958 0.41908726 -0.09298129 -0.22278096 0.4375475 0.033470552 0.4238338 -0.039864935 0.36558005 -0.14118789 0.019134328 0.0055506434 0.041790444 -0.33150584 0.055802908 0.048634052 0.18964973 -0.13925019 -0.2858064 0.26670292 -0.10643828 0.5261273 -0.16572481 -0.13301139 0.14890178 0.25581133 0.10383956 -0.21303959 0.26461348 -0.51117444 0.1072698 0.24300365 0.14618121 0.110005565 -0.15168709 0.60002536 0.46709678 -0.16905612 -0.17075422 0.09903596 -0.17977557
怨 -0.14068468 0.3810089 -0.17977697 -0.13409309 -0.13498953 -0.047385085 0.35658863 0.084151894 0.037440192 -0.04216669 -0.23809302 0.26808527 0.09696254 -0.11944956 -0.09319985 0.032318734 0.04428857 0.09389514 -0.23986968 -0.260622 0.33931258 0.1469003 -0.24133635 0.09793397 -0.12831809 0.2150024 -0.053581268 0.17617577 -0.2120849 0.4169441 0.2562314 0.22392315 0.14455949 0.14473239 0.065652534 -0.2907147 0.05595041 0.20871174 -0.47618553 0.2264243 0.20580706 -0.13927785 -0.28087774 -0.3683014 -0.44387895 -0.29054263 -0.011652982 0.11336642 -0.0063420106 0.28964522
达 -0.003800055 -0.25522992 -0.41399062 0.11444984 -0.1220768 -0.13146038 0.15149538 -0.171027 0.18777505 0.12893426 0.18374488 0.35917822 -0.29151878 -0.18654001 -0.01521674 0.3007262 0.26634267 0.26010835 0.12737158 -0.16894434 -0.0833175 -0.13950068 0.06358016 -0.06805565 -0.24520592 0.07599338 0.49485675 0.39557913 -0.098166436 -0.23711693 -0.023968758 0.10827332 -0.33552665 0.071887925 -0.19341236 -0.12874112 0.121667154 0.20788124 -0.32569247 -0.27957955 0.3672462 0.3422068 0.021645077 -0.0067321938 0.29040897 0.040953785 0.0292916 -0.09806565 0.09678934 0.06384587
孝 -0.23498319 0.08087976 0.21620852 -0.022272192 -0.08747916 -0.20098776 -0.10568413 -0.49320507 -0.20100842 0.3110828 -0.23319814 0.15286565 0.43348163 0.20523103 0.28718188 -0.070149705 -0.138328 -0.17260188 0.11906464 0.40202183 -0.43699968 -0.014612471 0.43265012 -0.17642504 0.4384997 -0.2025689 0.25069618 0.14202501 -0.05932142 0.28888747 -0.06604691 0.023876682 -0.18099208 -0.04603244 -0.019853938 0.07107107 -0.28884342 0.17850646 -0.5542647 -0.39699933 0.017191436 -0.140465 -0.048804067 0.6653329 -0.09324615 -0.12906818 -0.026091943 0.20096311 -0.0011550959 0.25043997
弟 0.115658365 -0.028179383 0.3117809 0.082112156 -0.36461923 -0.1474956 -0.27058682 -0.38352427 -0.16898173 -0.24102426 -0.30936897 -0.17575401 0.20546712 0.22153842 0.20711026 0.164972 -0.1972985 0.2765646 -0.017050609 0.081923224 0.060518127 0.04228587 0.27065873 -0.17013419 0.2111053 -0.17797755 0.06286799 0.39703882 0.16149887 0.22080436 0.014827459 0.1751676 -0.5948695 0.308673 -0.2701281 0.22375877 -0.094846725 0.074784346 -0.583542 0.18911754 0.0866954 -0.10057456 0.049424227 -0.13847749 0.14926422 -0.33919773 -0.38606164 0.32414722 0.7828164 0.09903721
至 -0.016032705 0.0048103384 0.0246232 -0.1843319 0.38138533 0.07476138 -0.01006475 -0.2094619 0.10819201 -0.22145014 0.12137912 -0.061420392 0.0648787 0.29058746 -0.21817285 -0.39243102 -0.106025845 0.25562933 -8.5291715e-05 0.24381153 0.14505789 -0.030817287 0.08513432 0.07499542 -0.17316982 -0.19601743 -0.014441406 0.17282496 0.11319727 0.08223444 0.057108477 0.23042814 0.22398342 -0.14134485 -0.007529207 0.18607582 -0.35401368 0.16277869 -0.50305504 -0.13654745 0.095068395 -0.18404238 0.09314661 0.01319656 0.04817331 0.07509773 -0.2223387 -0.10645915 -0.116475195 -0.06610478
先 -0.10781602 -0.26158464 0.3707758 -0.035292834 -0.29943123 0.24945012 0.13495165 -0.056599893 -0.13243492 0.35505515 0.12811054 -0.113918796 0.04259144 -0.31688732 0.15357877 -0.34223354 -0.31374168 -0.22125502 -0.055178102 -0.029902136 -0.24631004 0.35185212 0.41345814 -0.112119675 -0.1786108 0.21569696 0.058924805 -0.115735516 0.10680859 -0.064774476 0.18450752 0.015316335 -0.15236254 -0.19789398 -0.046992198 0.20472164 -0.13975199 0.16576478 -0.48155406 0.006707554 0.14715457 0.17431995 0.112945765 0.16161853 -0.1003372 0.106391326 0.27228418 0.228604 0.23518266 -0.10056924
师 -0.22471614 -0.09555735 -0.28395462 0.12317838 -0.20759471 0.26239985 0.23443836 -0.015977928 0.32429296 -0.36120048 -0.117695674 -0.18995139 0.047147356 -0.3405502 0.33696258 -0.025630623 -0.26961306 -0.03714646 -0.031767663 -0.33872044 -0.07980579 0.009501014 0.08013934 -0.017659957 -0.030168524 -0.026355531 0.11522163 0.13032985 -0.17402035 0.03871461 0.24805264 0.23680745 -0.016394008 -0.061770752 0.050839342 -0.23228654 0.09168316 0.12404458 -0.5478866 -0.07594872 0.036770605 -0.1591449 0.31376916 -0.004132793 0.45788726 0.18741885 0.114659555 0.16367498 -0.25820315 0.21915235
女 0.29617965 -0.031292006 0.27761325 0.36420247 0.19191499 0.21289845 0.021474523 -0.07496151 0.10452282 -0.0012948872 -0.1929468 0.10862594 0.13236667 0.05485002 0.01804278 -0.04530775 0.17203233 0.03443332 0.013227388 0.09996524 -0.5992074 0.07728833 0.02590891 0.040484983 -0.12694378 -0.18176448 0.13102944 -0.14206415 -0.18915202 -0.16384163 -0.07924889 -0.029427912 -0.007493949 -0.05906438 0.013077247 -0.09707879 0.08130832 -0.1412039 -0.6323771 -0.13031611 0.20606248 0.020627072 -0.019476956 0.06282953 -0.029256396 -0.06738478 -0.024908343 -0.15585306 -0.061675794 -0.11643106
多 0.016289642 -0.17903529 0.048580755 -0.008762147 0.236907 -0.034545027 0.11749785 0.31282246 -0.13653222 0.2842063 -0.28481987 0.24661791 -0.17394003 0.059004515 -0.22021385 0.22474986 -0.4999064 0.11463506 -0.048745796 -0.23882335 -0.25449818 -0.055525165 0.22198136 -0.3433281 -0.1834194 0.08587531 -0.14702068 -0.02784291 0.05054785 -0.09952261 0.03175395 0.032309458 0.12239974 -0.29170114 0.011729867 -0.03543207 -0.093410894 0.3344925 -0.53949475 -0.30406317 -0.10300343 0.16436368 -0.1131204 0.023506358 -0.1867156 -0.247383 0.29858303 0.454329 -0.25381067 0.13782275
忠 0.0919537 -0.30082163 0.31225413 0.13982056 0.12721027 -0.19641379 0.100182645 -0.19569993 -0.21432754 0.24899817 0.007375785 0.3509523 0.3001088 -0.20414387 0.24440265 0.656708 0.11156256 -0.1657182 0.23584618 0.06632464 0.12973846 -0.004218752 -0.038854796 -0.13912627 0.5010669 0.21515828 0.06849601 0.267741 -0.3388791 0.020799633 0.022211956 0.18271305 0.28224796 0.09145855 0.14886087 0.25771502 -0.15749788 0.3307561 -0.42955694 0.09558343 0.14564449 0.12718345 -0.1930622 0.28297922 -0.22971578 -0.054445747 0.08649619 -0.1287491 -0.02646606 -0.10046651
四 0.00047764365 -0.25119254 -0.14168985 0.02610231 0.14919746 -0.05873913 -0.10114144 0.23664318 0.43022725 0.19332145 0.4384029 -0.19724303 -0.28204212 0.08425122 0.3388941 0.075519845 0.19337675 0.14541009 -0.13370788 0.12622909 0.19484444 -0.021129409 -0.016005022 0.1081535 0.19073878 0.3992286 -0.15069757 -0.001169676 -0.114609934 -0.4815179 -0.009749117 0.1587876 0.06618511 0.05542491 0.18370557 -0.08932304 -0.12628242 0.26797143 -0.4586409 -0.33753175 0.052514162 0.2008858 0.07825367 -0.20283103 0.32800514 0.2091037 -0.06843446 -0.031663734 0.2404739 0.025500046
疾 0.08510762 -0.10252746 -0.033653807 0.0027452765 0.310145 0.0059071286 0.19713624 -0.41070876 -0.2783782 -0.08167903 -0.020756671 -0.14612553 0.16106983 -0.14254054 0.20001197 -0.0867829 -0.06779242 -0.19472346 -0.012556774 -0.21170303 -0.10490036 -0.12386736 0.097482145 0.03251333 -0.062039725 -0.071800046 0.16689114 0.24106418 -0.12678124 -0.09579717 -0.30667418 0.0073555415 -0.05831171 0.13904743 -0.18788414 0.20015904 0.092875734 0.16316731 -0.5399759 0.18616197 -0.31654668 0.1815695 0.42432094 -0.023900216 -0.05785428 0.03758627 -0.02893482 0.00018556739 0.22461745 -0.20381838
服 0.26178932 0.09967829 -0.13177595 0.09263806 -0.10680034 -0.22106658 0.17484218 0.04467309 -0.32233515 -0.06635476 0.015249523 0.09810407 0.0057776542 0.14890686 0.041956183 0.36807406 0.32553238 0.022986285 0.11707203 0.2891764 -0.285584 0.031248145 0.3099174 -0.52528167 0.42171496 -0.0057646846 -0.08062044 -0.10735905 0.20305406 -0.11389872 0.23258731 -0.13171902 0.2888601 -0.08506105 -0.12488121 -0.30376443 -0.77030045 0.5131519 -0.52071774 -0.32370126 -0.19296224 0.07048161 0.20703761 -0.34239942 0.20775872 -0.29208606 0.5419471 0.050153747 0.17971103 0.27160648
氏 -0.1431958 -0.29132074 0.045547973 0.0023999973 -0.23514797 0.3205378 0.1336593 -0.45508716 0.3209436 -0.19208251 0.04619078 0.06312502 -0.07496913 -0.34145704 -0.07053271 -0.027086308 -0.072805814 0.2247167 -0.4389161 -0.20479417 -0.056605168 0.55381787 0.13904227 -0.20542617 0.0065337145 0.17784254 0.034194365 -0.1858375 0.11117435 0.38862562 -0.22105202 -0.38221365 -0.11261928 0.13552605 0.049914885 -0.06673707 -0.09504081 0.084400065 -0.5073038 -0.3363453 -0.0044201245 0.14421497 0.47610882 0.21410346 0.1942051 -0.1697645 0.19638713 -0.24773815 0.31820008 0.42312545
冉 -0.3088675 0.117909856 0.03491374 0.25517353 0.10815007 -0.09217332 -0.097159825 -0.364294 0.0052326275 0.38905284 0.039017577 -0.015637826 -0.21030816 -0.097965546 -0.27937326 -0.11870464 0.025849016 0.061289046 -0.17973739 0.014843035 0.039688926 -0.06781164 0.018917019 0.33040768 -0.39748368 0.49832755 0.099700645 0.2083334 -0.26892173 0.35234317 -0.04286097 -0.15665175 -0.11249099 -0.16813353 0.22535698 -0.15989225 -0.030920185 -0.14414364 -0.61987984 -0.1964879 0.0065980866 0.053866915 0.20918456 0.01860572 0.009185269 0.11664803 0.034357198 -0.18797821 -0.040811643 0.30600208
将 -0.16832812 -0.33993474 -0.16268568 0.13972637 0.07046908 0.24364421 -0.3512629 0.029676422 0.058593906 0.20336625 -0.039875403 -0.09564907 0.0337161 0.0919775 -0.11191142 -0.34677213 0.0340009 0.15335377 -0.05865045 -0.32404304 0.08082964 0.1850898 -0.12876943 -0.03812332 -0.19091351 -0.34296116 -0.15548173 0.16402677 -0.5082666 0.13984174 -0.5555164 0.1081504 -0.38865066 0.0026256589 0.45892057 0.08089598 -0.16002427 0.17020948 -0.42085034 -0.069155395 -0.011452335 0.33132672 0.13808261 0.13197803 -0.1541996 0.18459712 -0.0127210375 -0.113451235 0.026242498 -0.053074542
士 -0.31911105 0.03319472 -0.22871125 -0.10539672 0.037495792 0.14680822 -0.32889694 -0.2201158 -0.1194016 -0.1227051 0.08011248 0.31130266 -0.3767328 0.014745525 0.32915643 0.1526803 -0.119510435 -0.16296837 0.18120074 -0.28789923 0.10002522 0.045902118 0.19997576 -0.29178447 -0.27447933 -0.057426326 0.21651097 0.42613736 -0.2988098 0.03443802 -0.19017872 0.2647291 0.12846716 0.018667651 0.09571542 0.24227391 0.30639386 0.1479718 -0.3695293 -0.20967942 0.40946338 0.16276616 0.33647648 0.11217879 0.3144099 -0.00637617 -0.18935865 0.07922862 -0.04059255 0.347035
丘 0.05254075 -0.18909405 0.34376937 0.32620552 -0.49763402 -0.028821401 0.10527574 -0.21052767 0.14621541 -0.04822463 0.022981813 0.25299522 -0.48490754 0.02289869 -0.28406042 -0.08997298 0.41980094 -0.20951591 -0.44229802 0.14523925 0.17926675 0.13510989 -0.15531 0.004179977 -0.25076866 0.0488648 -0.17193137 0.5503232 -0.20173205 -0.04021459 -0.21665215 0.07982716 -0.044075724 0.10223464 0.08666936 0.10133258 0.17438385 0.12438855 -0.35857114 -0.51805824 0.41323623 0.10241863 0.17927547 0.13444914 0.22905076 0.26814535 0.20533888 -0.18649335 0.04073271 0.08800061
身 -0.029329315 -0.07262115 -0.42981017 0.120767295 0.18139264 0.3397639 -0.52792215 0.09139739 -0.08651179 0.26945674 -0.024151793 -0.23173876 -0.58198315 -0.13591851 0.45874652 -0.28891364 -0.17722678 -0.14120731 0.348626 -0.1815813 -0.24966507 0.16745354 -0.41345704 0.13888693 -0.061419744 0.005341651 0.09678209 0.09114487 0.33733636 -0.09066252 0.11556421 -0.004754169 0.4289389 0.375911 0.13117944 0.2937611 -0.5604461 0.37213907 -0.3832496 0.09653619 0.320128 -0.066354565 -0.17610778 -0.07684714 -0.3831271 -0.2811639 -0.12988538 0.23945504 -0.0030538726 0.22245453
入 0.01851304 -0.41574788 -0.3629291 -0.0818048 -0.29028013 0.2873602 -0.40545687 -0.19292204 -0.10565269 -0.12514839 0.15183581 -0.088327095 0.0546953 0.119472064 -0.02240065 0.38400596 -0.12539744 0.44417402 -0.17139383 -0.0389303 -0.18895994 -0.1917499 -0.028113011 0.009657683 -0.042722132 0.031471077 0.18388739 0.24824402 -0.23491482 0.38570863 0.19769265 0.36878666 -0.013830166 -0.07122436 0.22896028 -0.37570548 -0.2871883 0.24399182 -0.62848455 -0.22924174 -0.54888797 -0.027960487 0.012913576 0.13923289 0.0315082 -0.21751371 -0.0950686 0.13206756 0.3872366 0.09134446
志 -0.10857536 -0.13408716 -0.26233473 -0.20626067 0.40327334 -0.093692034 -0.20366754 -0.1828617 -0.00081150274 -0.0895829 -0.07195676 0.24801305 -0.22612026 -0.09081482 0.04632874 -0.011722183 -0.27396294 0.24149482 -0.16637857 -0.056912076 0.22880828 0.12558457 -0.3468251 0.057451595 -0.090394035 -0.033417154 0.21409994 0.13266647 0.25252527 -0.0823458 0.18084872 0.08200954 0.051332437 0.33879948 0.26989603 -0.026670206 0.14231807 0.082601205 -0.57644206 -0.124297395 -0.18203452 -0.07462721 -0.07684211 -0.011045698 -0.08553669 -0.24176902 -0.35865265 0.12624602 -0.1565671 0.27144107
耻 -0.045004014 -0.15631026 0.32515472 0.0040989066 -0.21172813 -0.27524272 0.12544566 0.124494255 0.10392008 -0.1842165 -0.08361414 0.25791585 -0.5100236 -0.06000327 -0.2503985 0.04679002 0.25346678 -0.0063643414 -0.2707378 0.3111115 0.15399832 0.114480495 -0.4323276 -0.13703181 -0.076548815 0.005016149 -0.17177135 0.35325924 -0.4026593 -0.009128159 0.15130001 0.029923182 0.24090302 0.29997832 0.08602957 0.06493714 0.16182941 0.3642472 -0.35213444 -0.33319727 0.27257988 -0.08755054 0.12963083 -0.28496015 -0.11054929 0.09826648 -0.09005242 -0.015899835 -0.085392505 -0.0060745818
失 -0.024382079 0.35301018 0.097041346 -0.022183958 0.20842531 0.5888194 -0.07499508 0.20443477 0.13339905 0.13475809 0.03624344 0.57819384 -0.33949485 -0.3864993 0.16628286 -0.16008054 -0.0384641 0.18437909 -0.26226723 -0.31229198 -0.18888682 0.1698658 -0.0038035791 0.052590977 0.0058952 0.16372807 -0.08361667 0.047896106 0.18028876 -0.14142242 -0.0075580264 0.0013817895 0.390326 -0.1346548 0.3220695 -0.14169465 0.0837467 0.5926248 -0.27945065 0.45884877 0.27832612 0.21686977 0.0044138734 0.07824204 0.13716106 0.3228191 0.119637564 0.19179498 0.33351737 -0.39824146
安 -0.29633033 0.20742789 0.19799843 0.2474052 -0.0813844 0.020632459 0.389003 0.30129486 0.47891256 -0.28769475 0.11722847 0.17220975 -0.13077238 0.24044265 -0.016310574 0.32266638 0.19101134 0.13090539 -0.056155298 -0.038236525 -0.37710437 -0.11645047 -0.22675382 0.036889844 -0.16624968 0.13570157 0.0074612587 -0.18339501 -0.22402857 0.1717385 0.15462008 0.1635936 0.094741836 0.019591628 0.022425584 0.25354916 0.048861533 0.16329378 -0.53512174 -0.17360763 0.301076 0.21914332 -0.33018237 0.2532148 0.097342946 0.08226379 -0.23077598 0.04111593 0.0052408995 0.18418406
富 -0.12992802 -0.18161385 -0.10215942 -0.20622176 -0.29306808 0.21240433 0.2970901 -0.023450451 -0.13346429 -0.047300488 -0.03502789 0.27519733 -0.049649835 -0.21301992 -0.007033608 -0.22515826 0.06422701 0.17814945 -0.14130595 0.008398872 -0.2611999 0.03917074 -0.12023689 0.028106026 0.120979615 0.065624036 -0.16585387 0.3132222 0.032977827 0.23061267 0.090561025 -0.3486334 0.2260532 0.17245594 0.036410004 0.10855653 0.19200204 0.26725197 -0.38465917 -0.18061905 0.14784807 0.16696756 -0.01610097 0.07901797 0.07109506 -0.08371868 -0.17358825 -0.00036684793 -0.04054408 0.1601204
赐 0.055103045 -0.257245 -0.094500154 -0.100022145 0.111691594 -0.06942495 0.009699972 0.016855976 0.00060360954 0.16933025 -0.052977215 -0.01532252 -0.24735999 0.033126045 0.23064809 0.016183147 0.12926386 -0.09042447 0.24121453 0.20367393 -0.2336811 0.2111516 0.27449563 -0.032006368 -0.38759157 -0.20720036 0.104545854 -0.3146412 0.018907042 -0.2647894 -0.2379645 -0.48394492 -0.20833093 0.116671905 -0.07654899 0.14503166 0.10875463 0.068456955 -0.60842025 -0.15241511 0.1432746 -0.2622456 -0.2860283 -0.05640422 0.5424766 0.18336391 0.123850666 0.071515 0.14513241 -0.23750658
患 0.03348097 0.37173173 0.24401565 0.2003388 -0.17645304 0.16011353 -0.07108651 0.1732287 0.45440575 -0.017448021 -0.24586979 0.3004511 -0.286308 0.26038027 -0.09875507 0.1350975 0.3121478 0.11712872 -0.20593572 -0.0879719 -0.27156448 -0.05822168 0.10732532 0.26247662 0.25502807 -0.13776597 -0.09916991 -0.17069742 0.05642753 0.24548054 0.3761204 -0.25459906 -0.029369742 0.29113695 -0.20178393 -0.097608276 -0.16214867 0.48657978 -0.37000638 0.47449204 0.34447438 0.35520977 -0.15828648 0.17045821 0.22570853 0.0014768107 0.21661536 -0.0088291615 -0.119218044 0.14203884
百 -0.12965931 -0.09074471 -0.051879182 0.41521 -0.16242582 0.11022294 0.33578613 0.03242478 -0.066621386 0.19066188 -0.00435742 0.07606904 -0.41276783 0.10062255 0.64939153 -0.030369 0.10897069 0.26383513 -0.086857095 0.020685155 -0.17797568 0.19798896 -0.17542455 -0.1797054 0.27222508 0.2616724 0.11796943 -0.44075906 -0.23900557 -0.05139555 -0.102818936 -0.028165266 0.22440264 0.08840114 0.06928814 0.05810777 0.1970536 0.2691767 -0.43514985 -0.052396905 -0.08267969 0.055966787 0.0069156913 -0.0581349 -0.10624222 0.14278151 0.0069385795 -0.4300698 -0.20552912 -0.07868035
回 0.26025003 -0.16460401 -0.52020246 0.27683634 -0.0090173725 -0.21999104 0.048237436 -0.12918043 -0.11409338 -0.2899063 -0.36498868 0.29546762 -0.021465193 0.1052277 -0.08095539 -0.21936525 -0.1523331 -0.25868562 0.052575458 0.18638195 -0.035386525 0.22296001 0.16601561 0.2353294 -0.10936679 -0.00073104474 0.13595952 -0.386335 -0.06712101 -0.42141885 0.064003155 0.050471134 -0.20300153 -0.33514607 -0.2123981 -0.04547762 0.3706332 0.032091208 -0.5490435 -0.18809222 0.20266142 -0.06753813 -0.16933513 0.13292074 -0.1733864 -0.0071039596 0.17313083 0.122035466 -0.0698763 0.1716427
宰 -0.19282402 -0.17624764 -0.07631476 0.08145977 0.02885895 -0.03780234 0.056446593 -0.5338983 0.055594753 -0.16980526 -0.36783665 -0.4566143 -0.012238879 0.18495831 0.18414064 -0.41225517 -0.13208386 -0.12653722 -0.2179774 0.1883705 -0.37590855 0.25186414 0.18185362 0.31264687 -0.07365755 0.13712978 0.33151957 -0.39073563 -0.19818777 0.24041602 0.2102136 -0.037337374 -0.1531016 -0.31800225 -0.16560417 -0.5116362 -0.22521275 -0.027620781 -0.7426441 0.08618777 -0.14895082 -0.01117025 0.28244072 0.5187754 -0.2381509 -0.24597579 -0.08360025 -0.2795163 -0.34524798 0.34919828
朝 0.020253511 -0.1634027 -0.22307152 0.24510843 -0.42640296 0.045617767 0.049699042 0.015042541 -0.26710078 0.2844528 -0.3159117 0.07773557 -0.43288183 0.5190959 0.058904577 0.21929032 0.07572498 0.24226765 -0.35152128 -0.16111006 -0.3024826 -0.12650786 0.08304177 -0.0054185702 -0.007617147 -0.1940902 0.13783048 0.23380929 -0.10164385 -0.1275524 0.06642313 -0.12217496 -0.010908241 0.009373699 0.35686854 0.035770394 -0.5335498 0.3154561 -0.4849668 -0.2880292 -0.10885099 -0.26390776 0.13600883 -0.27491257 0.09785628 -0.07771334 0.46793717 0.15409914 -0.29593375 -0.16238442
莫 -0.041809157 -0.034096487 0.23413983 -0.21984462 0.17852978 -0.32633063 -0.017913079 -0.15205473 0.25979713 0.24401875 -0.0055391965 0.1892119 -0.10255511 0.3963024 -0.10678361 0.27274856 0.17857853 0.053241808 0.21830535 -0.29643068 0.14565991 -0.030794876 -0.17244214 0.24320665 -0.2647841 -0.091020614 -0.027804859 -0.2553943 -0.09924758 0.22370806 0.18352218 0.044622704 -0.4821809 -0.00809068 -0.18282025 -0.10529962 -0.026339006 0.3026051 -0.38408715 0.08367804 0.31286573 0.43375257 0.07830774 -0.07355099 0.41964382 0.20800857 -0.18881623 -0.19101596 -0.38203824 0.24043384
若 0.12931661 0.042002887 0.124357276 -0.085546464 -0.12861772 0.078255266 0.101952925 -0.042077906 -0.2174847 -0.05730633 -0.14424103 -0.18150467 -0.060800467 -0.338799 -0.11331908 0.18348856 0.11918803 -0.051785305 -0.006672469 0.1575142 0.25923193 -0.16050582 0.043699887 0.19880725 -0.07107507 -0.17778431 -0.25414056 0.25898895 0.19151966 0.23832479 -0.18029118 0.040048715 0.22395685 0.2570398 0.096007094 0.13795526 0.10940109 -0.012454468 -0.61176676 0.40673533 0.2281567 0.016491711 -0.019750696 0.2111806 0.31045926 -0.16462673 -0.023188496 0.080334514 -0.4634139 0.28557414
