1352 50
， -0.026387084 -0.0060766465 0.044800438 -0.006047051 -0.040587205 -0.030755252 0.0055937627 -0.014484104 -0.07305988 0.85145587 -0.0111036 0.12368951 0.07395407 -0.027622383 0.04597863 -0.086709365 0.0417576 -0.05577912 0.23625292 -0.06412805 -0.04031779 0.049669676 -0.03004458 0.0919873 -0.14250484 0.049282573 0.006866584 -0.10809214 0.02877191 -0.06982165 0.019736513 -0.002031308 0.015976561 0.121152215 -0.036312986 0.061788812 -0.058097333 0.03651539 -0.15121943 -0.08635723 -0.03001436 -0.050815154 -0.10000015 0.058556613 -0.040082335 0.0074591064 0.03218582 0.02339114 -0.037707523 -0.20911556
子 0.046830837 -0.07298346 0.05089633 -0.05441573 -0.03417654 0.13141069 -0.35729626 0.0008285373 -0.022183586 0.39450297 0.044425946 0.16761188 0.0162856 -0.0060313074 -0.087779075 -0.20713359 -0.040815815 0.031272218 -0.8106122 0.05806545 0.019614123 -0.05088299 -0.035122387 0.028073102 -0.079179466 -0.019276692 -0.011569594 -0.06401089 -0.09458953 -0.118308954 0.03631023 -0.017853534 -0.03413857 0.05052909 -0.08225592 0.08071538 -0.08385016 -0.052232545 -0.08964965 -0.124321096 0.07025486 0.08323353 -0.08887088 -0.0036933569 -0.030115072 0.011723982 -0.022422127 0.0032913208 -0.06883524 0.017263737
。 0.05340983 0.07422585 0.0108687105 -0.16423647 0.13009247 0.15195888 0.009868429 -0.0058739553 -0.06393604 0.76142234 -0.017367536 0.05448466 0.15253553 0.062439524 -0.08293287 -0.27954277 -0.143154 0.13194942 -0.2010178 0.0018459611 0.10922531 -0.032461323 -0.11183217 0.08550299 0.049890578 -0.12009584 -0.22570935 -0.184634 -0.0023576003 -0.07015002 0.1572436 0.088382415 0.023433344 -0.0058527477 -0.054703277 0.10494985 -0.013790337 0.066764794 -0.102803975 0.02932471 0.24854678 -0.053397376 0.19981216 0.0027625381 -0.40463787 -0.06935977 -0.014980125 -0.006176618 -0.09065787 -0.048568767
： 0.026298484 -0.09557005 0.08928077 0.016706677 0.076424226 0.0012695148 0.010553724 -0.054486696 -0.049448892 0.4544647 0.0140854735 -0.0048445244 -0.0042659626 0.104301706 0.16439573 0.06611625 0.13959002 0.03789815 -0.72116566 -0.091422506 0.011067437 0.09502315 0.13056599 0.042823803 -0.12235249 0.04194953 0.09152165 -0.08523654 0.074099295 0.029579595 0.17150182 -0.019043192 -0.016359536 -0.07099439 0.034804083 -0.07200471 -0.29637828 0.17966837 -0.051783264 0.034793682 0.100813106 0.041938927 0.026469985 -0.036695834 -0.18862125 0.051346432 0.018849706 0.018300569 -0.07503634 0.0040948805
曰 -0.062400192 -0.14463364 0.021953238 -0.02145774 0.15594588 0.07473324 -0.16576935 -0.10406176 -0.05703511 0.49145797 0.12848054 0.025957875 -0.007197779 0.13917485 0.01659509 0.08491553 0.0949729 0.010689407 -0.7882931 -0.035489094 -0.007336795 0.11914614 0.07291237 -0.02635862 -0.1021446 -0.023749985 0.04060083 0.0043785335 0.036005 -0.02950534 0.09840247 -0.0794686 0.020639503 -0.064696856 0.033566926 0.023993187 -0.20621009 0.16854715 0.0018405421 0.039585095 -0.0038676108 0.06852647 0.09923614 -0.017342685 -0.19869603 0.07716389 0.033754136 0.06257979 -0.13890323 -0.014414953
之 0.07590691 0.094581366 0.0068366085 0.114988 -0.14115953 0.117594935 -0.22566941 -0.118891686 -0.157027 0.7487477 -0.021909202 0.13448045 0.046454504 0.040491283 0.0061767465 0.31017554 -0.13560702 -0.1557013 -0.0833741 -0.08664551 0.13829644 0.03258956 -0.038649566 -0.06659689 -0.017424067 0.114233606 -0.010721117 -0.11339099 -0.09843937 0.040736772 -0.045078926 0.08183338 0.04090161 0.08242252 0.120737 -0.0043263277 0.13127294 0.114977114 -0.040926144 -0.05486475 -0.13713013 0.07779147 0.021279898 0.022732189 0.014970768 -0.0632796 -0.14450905 -0.069413126 0.023994317 0.058920834
不 -0.024883728 -0.08661952 -0.04532445 -0.012014582 0.16520959 0.14816323 -0.25796014 0.3359855 0.058269467 0.7267953 0.06848865 0.11110072 -0.0547547 0.0657349 -0.067722365 -0.012871283 0.10842553 0.010210498 0.0053482484 -0.15709275 0.04742728 -0.1514573 -0.13297506 0.14828487 -0.065178104 0.0317852 0.027101126 -0.04735605 0.026195478 -0.07294222 0.090170234 -0.02508417 -0.02929874 -0.002325529 0.0723387 -0.012023055 -0.15501276 -0.070078336 -0.18394637 -0.020617887 0.27207887 -0.0004835173 0.003233237 0.07913785 0.5778627 0.040662363 0.113927394 -0.0035904301 0.043317527 0.070439905
也 -0.116711624 0.2824778 0.107758045 0.04122105 0.25298747 0.062355317 -0.2331603 -0.05219289 -0.041830253 0.7297123 0.19561802 0.015519412 -0.0033249094 0.09093371 -0.09733677 0.13787802 0.049344655 0.27059644 -0.19017848 0.15607461 0.080946535 0.05361351 0.06915581 0.007188246 -0.0025016572 0.004603756 0.16304843 -0.07131565 -0.084743716 0.21073996 -0.124989755 0.10157962 0.032462344 0.13198428 0.0131431185 -0.11838769 0.20263706 0.19967446 0.0036396508 -0.03334777 -0.0265119 -0.023975197 0.04744963 -0.06826865 0.021697706 -0.023604823 -0.10866268 -0.06329887 -0.0026926068 0.026756296
而 -0.033874467 -0.29009873 -0.05572547 0.00991038 -0.13625965 0.30367175 -0.022252737 -0.10338794 -0.03139064 0.82353663 -0.17923757 0.1342304 0.13833104 0.109327205 -0.031330936 -0.045134 0.081466325 -0.08876248 0.10818054 0.116804555 0.062154252 -0.0040970077 -0.10546498 -0.09716944 -0.0053069615 0.04879393 -0.00070892327 0.11410659 -0.3944063 0.12452201 -0.047417 -0.015602981 -0.15582044 0.0059401626 -0.05776352 0.05278908 -0.2917248 -0.022191925 -0.08289482 -0.13920116 0.15639353 0.019718302 -0.17582205 -0.08922935 0.15231872 0.057999276 0.2601413 -0.019283198 -0.1351763 0.10527515
？ -0.2947738 -0.32203677 -0.07552724 0.029788004 -0.04217179 0.04281274 0.1821032 0.10845641 0.045754842 0.6568777 0.07254363 -0.006951264 -0.0020501823 0.0054962863 0.2150888 -0.21046765 0.10791701 -0.006419677 -0.3878228 0.0022523652 0.22728203 -0.19242395 -0.081408806 -0.14492618 -0.021922948 0.15716863 -0.072004765 0.09206523 0.06139938 0.06418183 -0.08511798 0.09746112 0.050744757 0.045197777 -0.15981731 0.24703069 0.14612478 -0.30975878 -0.57872045 0.047133554 -0.039427884 -0.0055094794 0.041762482 0.034307554 -0.48630705 0.19900388 0.16863297 -0.118847005 0.02336523 -0.5046736
其 -0.20901008 0.055214312 0.07311043 0.11546927 0.040804096 -0.018634973 -0.20542957 -0.07366426 -0.058853548 0.83389956 0.08125616 -0.0062306486 -0.099563785 0.066581674 -0.15447995 0.034284435 -0.0794871 0.21127711 0.08190412 -0.13164699 -0.14245483 0.11588682 0.006924912 -0.101977974 -0.18962935 0.25237662 0.17243858 0.18457684 -0.07946218 0.07132434 -0.2083754 -0.050515775 0.1872275 -0.17665389 -0.3344768 -0.17680638 0.24704434 -0.2177656 -0.02333432 -0.14356571 0.22342709 0.040046934 0.08702654 -0.018994479 0.1087308 0.09090755 0.2023172 0.04589053 -0.074486785 0.22806953
人 -0.20669112 0.03577395 -0.05741065 -0.22297454 -0.28257027 -0.075947955 -0.15225507 -0.14813697 -0.23045205 0.6978452 0.29414108 0.0851792 0.2289492 -0.31834543 0.0020313347 0.015572843 -0.03730456 -0.08260727 -0.17928119 0.06786698 0.06360904 -0.038661372 -0.10563575 0.010357266 -0.007818893 0.060388245 0.06835629 0.12184687 0.12043001 0.14219192 0.08915983 -0.00297192 -0.12498181 0.072629996 0.1574831 0.09853612 0.032264017 0.0010169002 0.12247634 -0.11385945 0.26938316 0.012525971 0.18965869 0.11426988 0.14596255 -0.14957158 0.00875238 0.28625476 0.16254401 0.030773515
者 -0.06758612 -0.39483565 0.0038927223 -0.00051196304 -0.010059398 0.035992347 0.010710465 0.25384456 -0.18881932 0.7428174 0.047563422 -0.17302988 -0.21170774 0.009536851 0.060963098 0.26821217 -0.23670788 0.06819749 0.01700539 -0.082080185 0.17261906 -0.16823405 -0.06670876 -0.10490699 -0.010677871 0.19582398 -0.09197848 0.034308176 -0.019168133 -0.09207586 -0.3147168 0.23819771 -0.12132649 -0.075838774 -0.21095383 0.11847176 0.011793007 0.29312757 0.016331159 0.005465789 0.03949306 0.37351698 0.07429645 -0.21442653 0.04156964 0.18784624 -0.2773546 0.19710697 -0.0011405459 0.03333336
以 -0.0414946 0.14242435 -0.079264164 -0.35592017 0.08725898 -0.10775169 0.093544506 -0.25050622 0.021287037 0.78443134 -0.22898878 -0.03865375 0.019287845 0.39015716 0.10019629 0.2963835 -0.11272264 0.07339194 -0.09052836 0.013352284 0.0036456955 0.09404534 -0.08807039 -0.07004554 0.105363704 0.09213484 0.0007632711 -0.1704244 0.122400366 -0.068986565 0.49544734 0.004903693 -0.15174875 -0.023788124 -0.059575852 0.10636892 -0.25271606 -0.27271944 -0.086641744 -0.0856096 -0.1889505 0.2946224 -0.20510738 0.2064621 0.22116742 -0.094765656 0.08393453 0.10992211 0.10677283 -0.12444327
有 0.25247043 -0.19928649 -0.22942945 -0.13101396 -0.26643634 -0.024472127 0.30561882 0.11624013 -0.15586829 0.5328287 -0.1016989 -0.016238077 -0.14625579 -0.21129224 -0.049471635 0.34960118 0.119019434 0.31876403 -0.33617944 -0.3432746 0.2735732 0.08296815 -0.18772216 -0.14469732 -0.0006238623 0.06849246 0.085489996 -0.10689192 -0.14490236 -0.17837945 -0.14554366 -0.29004002 0.1759116 -0.11199588 -0.051666148 0.21354546 -0.16016549 0.21867664 0.11859965 0.003587205 -0.1958296 -0.119972445 0.07446303 -0.08536924 -0.09234327 -0.13703886 -0.14876856 0.20698312 0.09410642 -0.06722902
于 -0.035710566 0.024529293 0.23316385 0.14778343 -0.2579596 -0.14902435 0.11140333 -0.101182625 -0.42708874 0.70639914 0.038906664 -0.06859519 -0.07003658 -0.023343693 -0.35832754 -0.016568603 -0.0249149 -0.1287675 -0.11630413 0.021809915 -0.18726672 0.09874456 -0.030187046 0.028887229 -0.35135892 -0.16862395 0.031292487 -0.11842533 -0.24653636 -0.14533971 -0.051990632 -0.12513071 0.18371952 0.011326505 -0.08480742 0.24766219 -0.05005061 -0.16321425 0.33486676 -0.14162584 0.051366046 -0.087372854 -0.40399215 0.08334241 -0.13555436 -0.08961107 -0.16509084 -0.062095504 0.07491651 -0.09112178
矣 0.12865289 0.31058776 0.18889606 0.024750762 0.14345963 -0.06417307 0.22524676 0.074638866 0.037119087 0.6138408 -0.036184248 0.17578033 -0.0922419 0.20549831 -0.1494866 -0.084291756 -0.22168913 -0.2178271 -0.35178626 0.16613796 0.11605479 -0.17529573 0.24479832 -0.12907606 0.12350821 0.01121041 0.14670172 -0.20674974 0.17157435 -0.27837816 -0.1504309 0.19121449 0.16086447 0.38204613 -0.14542882 -0.15848859 -0.1751147 0.011155372 0.34203395 -0.040439114 0.2091718 0.02680109 -0.11914423 0.0276979 -0.21986909 -0.16671602 0.39072293 0.2701885 -0.032554984 0.27842268
为 -0.18195693 0.031276964 -0.10929107 -0.3298864 -0.30483773 -0.099864885 0.0071270275 -0.018376248 -0.36680323 0.61622965 0.18017875 0.046778727 0.05028406 0.13094793 0.16672374 0.18305962 -0.12569144 0.19382712 -0.37162897 0.21098952 0.12800202 -0.20147668 -0.081396766 0.1577218 0.08506729 0.013249926 -0.34962958 0.032218236 0.20016797 0.091919035 -0.014613629 0.17798403 -0.105583325 -0.15997638 0.17160562 -0.12518528 -0.26354435 0.26506048 0.0902901 0.07816995 -0.37798628 -0.0028797314 -0.18050648 -0.112987295 0.2260937 0.17770535 0.15512788 -0.08748564 0.07535076 -0.39189625
君 0.32792124 0.19208397 -0.14335056 0.12168729 -0.11282758 0.10985752 -0.1069886 -0.15087037 -0.21986492 0.42860457 -0.17697997 -0.035352293 -0.097882 -0.07947976 0.18732868 -0.19534115 0.05676323 0.2002256 -0.66763186 -0.015370207 0.10629135 -0.00045274963 0.11914294 0.014901595 0.264295 -0.037051998 -0.14678451 0.0855338 -0.077601165 -0.2422421 0.24790469 0.033779137 0.007533002 -0.17282444 -0.28983805 -0.18342765 0.036359042 0.14607745 -0.26435423 -0.36596978 0.07889685 -0.08517123 -0.0027655407 0.06408723 0.2323567 0.14235333 0.04398663 -0.07715382 0.007608605 -0.10432447
乎 0.0020648106 -0.34285218 0.09885905 0.029264646 0.06070354 -0.54815304 0.13713206 0.111503474 0.07576941 0.5780566 -0.10702755 0.13481306 -0.038288165 -0.23096429 -0.16939116 0.25392377 0.055187568 0.16556834 -0.4115674 0.3154643 0.15936847 -0.1711496 -0.12003493 -0.35106462 0.040657606 0.21458784 0.054056287 0.039470967 -0.23880312 0.068066604 0.13192317 -0.17121592 0.29482237 0.03677547 0.10589506 -0.06076686 -0.17991516 -0.41020367 -0.2207042 0.16146894 0.14542608 -0.25440702 -0.14896353 -0.32756305 -0.09161991 0.18085665 0.116658404 0.01439407 0.14569855 -0.27988526
可 0.12665355 -0.17074278 0.4693442 -0.17195813 0.2266798 0.3112363 -0.2143863 0.08911933 0.10843491 0.752424 -0.37430483 0.14258686 0.16461173 0.06298144 -0.35106736 0.08276704 0.0003287943 -0.043326274 -0.05518589 -0.0013224368 0.005791629 0.0053709676 0.16147746 -0.08484585 0.37680095 0.11651026 -0.03396122 -0.16120455 0.10463454 0.26102102 0.11200416 -0.03260475 -0.05340792 0.16962443 0.11501008 -0.031703472 0.3764703 0.093102306 -0.05668909 0.05202446 -0.035483707 0.1734 -0.111331426 0.023307562 0.19066675 -0.104053125 0.3666059 0.21880515 -0.014052418 -0.25408235
如 0.1081613 0.31104046 -0.11787303 0.14808398 0.062992625 -0.18965554 -0.053159133 0.3390227 -0.16468391 0.7051962 0.15978889 -0.17065449 0.07011391 0.36873057 0.25181472 0.17137168 0.4305819 -0.020674385 -0.2215755 0.094968244 0.17050381 0.109164305 -0.10027106 -0.3980393 0.07737312 -0.18147494 0.14437033 -0.20475467 0.083537795 0.09450272 -0.6058485 -0.19774361 -0.16110824 0.0071437964 0.11593203 -0.119085774 0.20111248 0.26042023 -0.006999733 0.065566204 0.0836355 -0.016211202 -0.20864387 0.06443523 0.04728858 0.23274554 0.27779692 -0.18349363 -0.2727682 -0.09598654
与 -0.014195144 -0.07924751 -0.054685578 0.13385378 -0.003457581 -0.14239796 -0.002076973 -0.09850208 0.12961859 0.63033926 0.2818977 -0.27033368 -0.013647089 0.026996037 0.06107679 0.26638526 0.030425547 -0.2759438 -0.2746163 -0.13285984 0.24587435 -0.09180711 -0.021161474 -0.016181344 -0.056525778 -0.085998595 0.083778225 0.07777631 0.1490485 0.63442165 -0.12343716 0.060618408 0.007932379 0.24687834 0.11221321 -0.21009132 0.22612481 0.0777256 -0.18383524 -0.22379507 0.16186355 0.12984957 -0.013044987 -0.23318383 0.016741116 -0.17392674 -0.0651179 0.12730646 0.13907711 -0.086846
； 0.08974978 -0.037876025 -0.07452679 0.05834253 0.16728096 0.19638456 0.06512064 -0.059755966 -0.20705073 1.1308317 -0.0769087 0.22982611 0.12665287 -0.005410623 0.003599593 -0.12392226 0.19285806 0.18535894 0.5088716 0.20429045 -0.031513143 0.060975105 -0.11496586 -0.02438855 -0.14009182 -0.076347746 0.028597869 -0.10217305 0.050367173 0.050558668 0.26245683 0.041775547 -0.065202914 -0.048619095 0.09629366 -0.12853526 0.3282758 0.09098676 -0.026907336 -0.028723875 0.34535766 -0.021574864 -0.030870479 0.25910577 -0.20629762 0.3514068 -0.28875193 -0.05024885 -0.013225398 -0.17239463
言 -0.13072334 -0.18031055 0.44180277 -0.2959189 -0.03186279 -0.27346513 0.31986973 -0.020435441 0.016497253 0.6810023 -0.1702554 0.10389906 -0.014202071 0.28926387 0.13910303 0.007856502 0.04174403 -0.017043978 -0.070799164 -0.42413253 -0.0040156017 0.105388604 -0.19723861 -0.0008314072 -0.29922727 -0.13572875 0.40721354 0.022804296 -0.2864547 0.14384818 0.32352236 -0.21701653 -0.1820906 0.2275715 0.1162371 -0.41814002 0.11826659 0.09757325 -0.111572586 0.024992224 0.23761985 0.2081231 0.100468725 0.011984607 0.009861694 0.055685204 0.018140197 0.117920674 0.11208198 0.12190066
无 0.15971391 -0.24960957 0.03158801 -0.073195845 -0.21365651 0.19813342 0.27365005 0.09690382 0.119768366 0.68435925 -0.07298206 -0.015950952 0.14816889 0.07615639 -0.27695742 0.105523564 -0.14722058 0.15381582 -0.110805705 -0.0007961776 -0.04025564 -0.17130691 0.0550959 -0.018250188 0.16824175 0.034545086 0.33751443 0.12156731 -0.058202595 -0.031116934 0.083201505 -0.119682856 -0.088881284 -0.060362045 -0.011460038 0.0672747 -0.17159066 0.046635523 0.0058444887 -0.35916182 -0.118639484 -0.33022302 0.13098043 0.39631462 0.27618098 0.27882 0.32546943 -0.05484936 0.061971974 -0.02470801
则 -0.13929127 0.12998937 0.098326184 0.048417423 -0.104797296 0.24659385 0.23250058 0.038852002 -0.29278734 0.82755095 0.22983527 -0.2063308 0.16517279 -0.20552222 -0.25783634 -0.16198006 0.22872214 0.38256735 0.008631696 0.023096368 -0.021857265 0.063398145 0.10395371 -0.005790281 -0.08076492 -0.052933678 0.3775418 0.024728412 0.30415544 0.1834455 0.0035730188 0.101984754 -0.018494723 0.15603332 0.14815187 0.033909857 -0.27106124 -0.20905292 0.07963402 0.1431154 -0.093410954 0.01575797 -0.18439518 0.39795023 0.2856881 -0.028557329 0.14286168 -0.30382922 -0.027437989 0.09920541
！ -0.2459683 -0.10370069 -0.06077157 -0.05278072 0.17854442 -0.24766982 0.09765233 -0.0883304 -0.20077945 0.67935073 0.23501377 -0.015875803 0.024362504 -0.14227822 -0.19275849 0.20909654 0.06356258 0.45851478 -0.42407227 0.106940515 0.123246804 -0.18930532 0.2893022 0.0852569 -0.035057347 0.22958165 -0.08615029 0.19901271 -0.21952534 -0.29975274 0.14474307 -0.30365893 -0.041419894 0.032786995 -0.04186872 -0.12070569 0.30432433 0.10683866 -0.1480356 -0.09231765 0.22488695 -0.16451712 -0.020647911 -0.021830365 -0.51058614 0.024796885 0.21287218 -0.0027367116 0.20348185 -0.17061727
问 -0.24923299 0.36079317 -0.34495294 0.05114439 -0.4515684 -0.03466154 -0.0025257866 -0.07078691 0.122100934 0.6369828 0.21274245 -0.009317073 0.05332014 -0.065922074 -0.14801115 0.07868591 -0.09675574 -0.2520041 -0.70830667 0.050149478 -0.1041819 0.071045525 0.055956703 0.3507089 -0.12493535 0.03449171 0.10367666 -0.18871792 -0.124543026 0.015214419 0.05898536 0.10297648 0.23363557 -0.2775284 -0.49871373 -0.20382911 -0.20734423 -0.26241735 0.49579635 -0.123217635 0.005263603 0.17335464 -0.14302135 -0.21087289 -0.1265997 -0.2257495 -0.03638075 0.13882107 -0.049610123 -0.20304862
知 -0.2722276 0.16281714 -0.023667237 -0.2640462 0.09928288 0.18255658 0.11200428 0.15576357 0.1014048 0.69097805 0.08628209 -0.18260616 0.19987637 0.43023285 0.23019364 0.2600422 0.29363292 0.0457205 -0.1709499 0.009503427 0.07198415 -0.24545632 0.045403935 0.19619395 0.27757806 0.11883726 -0.19289677 0.041897953 -0.02463013 0.045293882 -0.077307425 -0.08884228 -0.037285734 0.026348045 -0.0960818 0.0601377 0.093382314 0.16199392 0.061861444 0.19322419 0.3582739 -0.007153724 0.2765716 -0.20203039 0.28321794 0.042844206 0.020652212 -0.18158047 0.19262753 -0.082313985
何 -0.22018154 0.05079799 -0.13098314 0.17257172 -0.004669621 -0.12972055 -0.028712595 0.06936749 0.16143897 0.54558975 0.057019252 0.09256291 -0.37923893 0.19715545 0.40128788 0.09073358 0.23415335 -0.29870656 -0.45190582 0.17346174 -0.10239776 -0.44130626 -0.6275439 -0.12767649 0.02069225 0.17758508 -0.041552253 -0.11960288 0.13532615 0.17802304 -0.12567528 -0.005467242 0.14560504 -0.13022284 -0.104667544 0.15784457 0.40712845 -0.07087858 -0.15972014 0.2557617 -0.19821082 -0.08876752 -0.021986607 0.21454635 -0.08960371 -0.026992088 0.019450272 0.05259185 0.07926759 -0.22014496
吾 -0.06954112 -0.25903404 0.34112757 0.39508727 0.42032766 -0.11876969 0.19460656 0.26817513 -0.24521774 0.5746819 0.23351772 -0.09409676 0.061479412 -0.078075886 -0.10110038 0.15792306 -0.09157789 0.1549773 -0.23153146 -0.09027981 0.1258219 0.13413881 -0.056772567 -0.13508318 0.07983523 0.02545721 0.09530027 0.25144672 0.39691105 -0.2568878 0.15069884 0.112563655 0.009174592 0.10345692 0.171232 0.2286639 0.21852544 0.09883295 -0.101783365 -0.18252939 -0.14189525 -0.062641874 -0.009622688 -0.15664509 -0.08654562 0.24883868 0.081916176 0.08844903 -0.22355905 0.296296
仁 -0.20483677 0.14921838 0.13304068 -0.12577848 -0.14978899 -0.035503276 0.28235304 0.21195866 0.23046882 0.56086147 0.075777635 0.19884647 -0.097256914 0.1842255 -0.083866894 -0.08809938 -0.35618088 0.122484945 -0.2621922 -0.0015637665 0.122093804 -0.37707046 0.23568681 -0.08047732 -0.051976524 -0.011479275 -0.12219608 0.22684965 0.08401776 0.05805095 -0.17132108 0.13856703 0.025147848 -0.03502955 -0.31209624 0.27821934 -0.009604689 -0.16831595 0.23988006 0.3185531 -0.012421801 0.22869077 0.15476865 0.0037858686 0.1857064 0.12292243 -0.11823477 0.054847453 0.08466295 -0.14633143
夫 0.081410624 0.17384715 -0.058116637 0.08526303 0.20879315 0.12766995 0.29879975 0.24888597 -0.40254372 0.48220345 -0.15510719 0.09018936 -0.033859033 -0.20272008 0.068435095 0.17783113 -0.2004367 -0.17744029 -0.554376 0.17483091 -0.17776823 -0.0883513 -0.17781901 0.05392259 -0.04562003 -0.10160347 0.061455496 0.06646142 0.18866523 0.095235914 0.004585902 -0.36334956 0.12521227 0.49802822 0.039169457 0.16156913 0.12330083 0.026818987 -0.34705922 -0.5786638 0.025527257 0.13016097 0.049346913 0.05712312 -0.16470672 0.046747953 -0.070810966 0.03599085 0.11172963 0.30100277
、 0.4199774 0.22699808 0.14888361 0.13524623 0.034218244 -0.13346559 0.56664336 -0.072166115 0.09113512 0.70669454 0.4269722 0.16594048 0.04870695 -0.24817672 0.33074087 0.3661992 -0.07844034 -0.080047466 -0.3307734 -0.115623884 0.29409662 0.150457 -0.10068617 0.36816856 -0.48211077 -0.0697449 -0.41232178 -0.47728348 0.05226873 0.031902283 0.24832423 0.17234774 0.1294873 -0.5548773 0.47000498 -0.15846775 -0.11629525 -0.24373184 -0.09498662 -0.09479757 0.1432519 0.27780318 -0.3761937 0.35364673 -0.3265633 0.12909591 0.17811514 -0.22823355 0.15871143 0.29474083
道 0.33186573 -0.020733386 0.10864862 0.18624151 -0.20298466 0.44714835 0.19946092 -0.012735771 -0.4149298 0.5426932 0.007687846 -0.0015641586 -0.26855218 -0.11791829 0.05801221 -0.02513053 0.33871454 0.22335444 -0.23520678 -0.2423826 0.107941784 -0.10793747 0.19497252 0.10401334 -0.049981296 -0.21200235 0.18844587 -0.14988291 -0.03634276 -0.15798737 0.15023452 0.38919425 -0.09365506 0.21855442 -0.15370066 -0.14846486 0.20685868 0.07777737 0.08972062 -0.16955233 -0.3371157 -0.25893077 0.2517384 0.14987104 0.20476046 0.033696644 0.05399011 0.043887857 -0.059928767 -0.1099485
焉 0.09970688 -0.058064833 0.21227516 -0.08022533 -0.12913576 -0.2818754 0.08451929 0.09826443 0.11857454 0.7182679 -0.07781631 0.4702729 0.16300142 -0.08989211 -0.05794545 0.30889294 0.12907334 0.21021308 -0.21123552 -0.20779704 0.0048076366 -0.07782695 0.22883084 0.10704858 0.14303829 0.06309158 0.23102495 0.042261746 0.10736935 0.32264468 -0.57690716 0.033215564 0.0893846 0.18065746 -0.33949134 0.50169146 -0.3358647 -0.021899575 -0.104895264 -0.18813083 0.040296804 -0.09046927 0.29072797 -0.010616819 0.08515671 -0.058981158 -0.026758011 -0.15636832 -0.18828201 -0.06511993
行 0.09639034 0.22189729 0.16883057 0.038427778 -0.042088445 0.24598522 0.15231355 -0.10723863 0.31059772 0.52134115 -0.07956787 0.34727058 -0.0463993 -0.06925959 0.17967966 -0.25512007 0.1701046 -0.15651806 -0.33360627 -0.20264262 -0.16672456 0.4101677 0.080968685 -0.052390918 -0.057888303 0.31647858 0.0419814 -0.23563217 -0.023035828 0.01940202 0.20776388 -0.009715724 -0.18803518 0.41586787 -0.44336006 0.027028522 0.21795511 0.019484915 0.30419582 -0.09717056 -0.27281544 0.14917439 0.04225086 0.46548828 0.096602775 0.025008902 -0.028232502 -0.0104003465 -0.30504665 -0.12635846
谓 0.05772224 0.12704279 0.0713366 -0.0466026 -0.69463557 0.22707361 -0.027990188 0.044128023 0.33888552 0.599032 -0.21377401 0.11116877 0.021040414 0.27175334 0.393621 0.008053141 -0.20341532 0.3546729 -0.45261836 -0.16333142 -0.16878563 -0.22690241 -0.27795577 0.04418146 0.26466724 0.057618476 0.16067225 -0.13335668 -0.45030618 0.2810058 -0.23347205 0.33362052 0.12669021 0.12372087 0.27551237 -0.25381282 0.20471475 -0.046865605 0.23310648 -0.15370739 0.048140217 0.05642881 -0.08009822 -0.11012275 -0.42472753 -0.051408377 0.2313208 0.082777366 0.024272924 0.009597779
必 0.3310676 0.024831394 -0.13318191 0.15721649 -0.1448188 0.3936611 0.2703393 -0.2982042 0.15986033 0.7159391 -0.060370017 0.13671264 -0.015961923 0.07790212 -0.04284715 0.17885634 0.17844944 0.03067976 0.046966415 0.016741162 -0.05885298 -0.24413219 -0.025337957 0.2609756 -0.06691954 -0.60035473 0.00341092 -0.3161081 -0.04814034 -0.08220323 -0.39734676 -0.124590375 -0.23572727 0.008836218 -0.07069121 0.03851576 0.017851872 0.044133525 0.12657851 -0.1759638 -0.15179484 0.33078593 -0.09754575 -0.23333637 0.03144691 0.512277 0.150485 0.28968155 -0.16446926 0.00570866
礼 0.18139434 0.03498561 0.43954584 -0.17189889 -0.4444908 -0.10741612 0.24287921 0.11618316 -0.010335634 0.6297044 0.13466737 -0.4033931 0.007433703 -0.2134986 0.09839187 -0.14112866 0.2648628 0.19833596 -0.12666759 0.1978499 -0.17417642 0.1914676 0.19302842 -0.157479 0.24264857 0.16106506 0.0028326064 -0.2579211 -0.05477741 0.058080144 0.19345528 0.18509114 -0.042374406 -0.062628575 0.22654141 0.25576323 0.022860577 -0.24724607 -0.10467624 0.08154186 -0.027163059 -0.090027496 0.102476954 -0.089594044 0.313229 -0.02391597 0.026189037 -0.26383573 0.3725177 0.3086347
孔 -0.24646693 -0.07447231 -0.13839741 -0.5623758 -0.24289916 0.36323687 -0.02541328 0.20523342 -0.002554671 0.5517241 -0.1975586 -0.20435925 0.39163274 -0.23539107 0.20250754 -0.29840642 0.037303735 -0.40978432 -0.8785984 -0.44111168 -0.11365326 -0.30396518 -0.0056924396 -0.005164491 -0.35669377 0.054813046 0.32061473 -0.21832101 -0.35952058 0.23371178 0.0021955024 -0.17265953 -0.3336076 0.5375494 -0.20391352 0.013297098 -0.11381649 -0.3064664 0.33836684 0.000877229 0.40851438 0.243494 0.14630216 -0.44883958 -0.30655688 -0.17515324 0.08637041 0.16833651 0.09373775 0.038095385
斯 0.029513722 0.0028343599 -0.3749582 0.34669757 -0.12742908 0.21368414 -0.051012576 -0.031387947 -0.11384478 0.7435555 -0.29249066 0.090658545 0.046738952 0.3032964 -0.23011495 0.034252014 -0.04313868 0.052028775 -0.14789261 0.1326403 -0.19175741 -0.4595171 0.06494093 -0.44514972 -0.007565907 0.3324302 -0.07195953 0.25119218 0.17211027 0.076652996 -0.0053479327 -0.34749067 0.023551676 0.025770172 -0.35806626 -0.002242858 0.32582957 -0.17724933 0.17049932 0.15966922 -0.35208547 0.09367886 -0.25738806 -0.05288209 -0.024387427 -0.29275966 0.13724677 0.21519412 0.014856369 0.2350909
三 0.506695 -0.327928 0.036531035 0.032460555 0.0777194 0.45746422 0.14323509 -0.10452939 0.0048895073 0.51952195 -0.13833278 -0.26970807 -0.120964 -0.33484536 -0.07900746 0.24294446 -0.07605394 -0.1736947 -0.30624998 0.13654675 -0.033678476 -0.4441337 0.10563246 -0.12855735 0.013590986 0.046528798 0.14003472 -0.42189726 0.29372197 -0.22528839 0.30183387 -0.40695062 -0.009005318 0.18731022 -0.23470826 0.2515905 0.12575245 0.20029962 -0.11725174 0.065309785 0.049955633 0.1731805 -0.41816327 -0.14444949 0.24236798 -0.046892073 -0.12626119 -0.24387068 -0.056330588 0.05204482
能 -0.16645755 -0.11080837 -0.3617331 0.018669236 -0.21047087 -0.27241883 0.3111531 0.009017436 -0.081836626 0.6325962 0.023845544 0.20075832 -0.05076312 0.18436527 -0.14130084 -0.24485438 0.075591564 0.19509721 -0.13958865 0.0950056 -0.14436948 -0.066723205 -0.16533652 -0.12360603 -0.20798904 0.22065045 0.31123194 0.047932755 0.075744934 0.22245409 0.0093293395 0.049893394 0.0018249783 0.23486678 0.24219038 0.23304658 -0.17300917 -0.3490557 0.03487035 0.0898586 0.19827971 0.28951702 0.14900643 0.16499928 0.35968363 -0.110630944 -0.22506882 -0.16555329 0.02735396 0.11975377
见 0.052839343 0.2225053 -0.01527274 0.12305804 0.35128897 0.21797779 0.32741886 0.30024585 0.01368396 0.61118734 0.5260318 0.36914134 -0.08898397 -0.28816703 -0.083747506 -0.35956872 -0.19591115 0.019563382 -0.13115053 -0.04729775 -0.043532323 -0.12229318 -0.1429219 -0.08735109 -0.2855686 0.22792467 -0.08546356 0.07748748 -0.5191823 0.22852488 0.014581206 -0.022842757 0.03200638 -0.30121073 0.22997 0.19010372 0.022919457 0.17954615 0.23113495 -0.31881922 -0.11485791 -0.267089 0.13460547 -0.53878677 0.07614228 -0.07827385 -0.032012157 0.23581482 0.056916278 0.16368894
学 0.045912452 0.27380255 0.19752793 0.003934455 0.073622815 0.16702333 0.0078114388 0.58778226 0.12421437 0.6691834 -0.07289245 0.22172832 0.1948749 0.0026203075 0.4912508 -0.26903245 0.15710622 0.27440745 -0.2545639 -0.037179533 -0.008837195 0.26896843 -0.10667092 0.12283234 -0.11947046 -0.07932664 0.05789962 -0.007844916 -0.032678094 0.29318556 0.12326366 -0.12655675 0.031531453 0.30296835 -0.52521044 -0.020424083 0.007259096 -0.054111063 0.14452982 0.2815988 0.30411053 0.2714253 0.040753484 -0.3824114 0.25231344 -0.030116785 0.094490826 -0.38317344 0.3082067 -0.053592674
事 0.14653711 0.28954166 -0.07236425 0.27743113 0.092962004 -0.16254006 0.3243463 0.16574365 -0.47341 0.63280815 0.07420981 -0.15973768 -0.2186993 -0.15000856 -0.3608037 -0.48775804 -0.10836277 -0.2755994 -0.3280663 -0.22679669 -0.060590547 0.22949918 -0.13279872 -0.19722219 0.14764802 0.022407565 -0.4394121 0.21220219 -0.05731248 0.51756 0.15201414 0.0581631 -0.11988924 -0.18012469 -0.027853405 -0.038128175 -0.20099251 0.030229514 0.10127525 -0.00766641 -0.15760101 0.3457856 -0.0667304 0.1651695 0.39429805 -0.26511925 -0.16394988 0.13131034 0.15760033 -0.30175287
是 -0.0034420963 -0.11157767 -0.09834268 0.15076198 -0.053244483 -0.3669909 -0.31970066 0.023711598 -0.22059622 0.6710398 0.11989888 0.2007582 -0.22098754 0.26562476 -0.43151867 0.20877232 0.0954765 -0.076266244 -0.32364407 0.047667123 -0.004763298 -0.19938737 -0.1518891 0.29370442 0.04834367 -0.10044583 0.44230363 -0.015765022 0.23240252 -0.034491133 -0.07311965 0.14564475 -0.20112944 0.36831293 -0.031930625 0.39504677 0.49185523 0.13151155 0.44024152 0.041343503 -0.047502395 -0.06361306 0.106046945 0.074512646 0.06552072 0.0074648326 -0.14759754 0.09201825 0.015289946 -0.28414458
哉 -0.31706548 -0.4264789 -0.16589643 0.2240913 -0.2127368 -0.030161455 0.26340792 0.031195097 -0.0053969133 0.51431984 0.21403836 0.11739615 -0.06274866 -0.064079195 0.120715424 0.29873595 0.4109972 -0.01065121 -0.6663609 0.15800668 0.20886 0.025362011 -0.06103573 0.3087499 0.30259618 0.69352406 -0.10631191 0.2540657 0.1263226 -0.09775431 0.2827613 0.10039862 -0.40793937 0.08430008 0.07774718 0.04873849 0.11166313 -0.19230756 0.32101974 -0.10146088 -0.029914472 -0.2967208 0.061520603 -0.1121786 -0.42962772 0.073586605 0.30969757 0.17286058 0.31366983 -0.041663986
闻 0.30475643 0.09992139 -0.1414379 0.113266654 -0.16162917 0.07374454 0.45076105 0.20207311 0.22169337 0.5164857 0.25422326 0.068137765 0.62898827 -0.05597161 -0.09237761 -0.24152608 0.086857624 0.21113317 -0.4527077 0.09805111 -0.4161004 -0.15434948 -0.11319104 -0.1427212 0.11367515 -0.027638132 -0.031778164 -0.1588182 -0.12870328 0.25500134 0.059616316 -0.15905522 -0.2276508 0.49034733 -0.051088016 -0.10746823 0.06872304 0.42087057 -0.12798499 0.24964234 -0.11495997 0.43876868 -0.17248872 -0.094471455 0.015878908 -0.019555692 -0.08414248 0.18566129 0.22638161 0.067448385
未 -0.25437656 -0.0368947 -0.16611518 0.16725042 0.5769637 0.35635635 0.53009677 0.19373505 0.09862463 0.5836879 -0.01351425 0.1525239 0.01248221 0.014770677 -0.1795355 -0.046340983 -0.010164558 0.16127682 -0.26620793 -0.026397878 -0.052715566 -0.19528322 0.19151498 -0.095438175 0.048374012 -0.17184365 0.5721266 0.40966845 -0.113857575 0.13680477 0.11478014 0.2626952 -0.14924471 0.13374953 0.03037186 -0.014038786 0.005190828 0.29791042 0.30099872 0.0012442349 0.056353666 0.07508137 -0.052705117 -0.26063046 -0.039011575 -0.047524765 -0.20572554 0.06722314 -0.0087173 -0.21354552
公 -0.1768732 0.09942947 0.1906328 -0.066355966 0.03273726 -0.051765867 -0.15056166 0.203394 0.20355473 0.7648 -0.30721268 -0.49833935 0.31246278 0.29764065 -0.088498764 0.20579608 0.71447957 -0.31480387 -0.49720192 -0.4201783 -0.44015595 0.17656924 0.04989961 -0.14594086 -0.115664214 -0.11611567 -0.2430256 -0.11594142 -0.6835518 -0.55130094 -0.07571903 0.053300664 0.3717114 0.05084119 0.09475408 0.023236804 -0.039977 -0.2144082 0.1656855 -0.40434754 -0.08231782 0.18004923 -0.1252026 0.008271244 -0.22795665 -0.049424913 -0.15813243 -0.09059477 -0.15130731 0.12353701
好 -0.19184352 0.11383121 -0.30173242 -0.06635528 -0.20446195 0.37508577 0.054225612 0.3289201 -0.036134694 1.0100716 -0.26445225 -0.26250497 -0.1175862 0.44354913 0.14844936 -0.41643524 0.11424402 0.1577303 0.13504061 0.18193844 0.4987476 0.43237603 -0.13437994 -0.21468855 0.16376182 0.050137427 0.22197416 0.05443907 0.116427965 0.41813532 -0.03874226 -0.048308466 0.1845609 0.120853476 0.3284639 0.09317141 -0.05298023 0.3828224 0.5119753 -0.02293703 0.106094584 0.22254606 -0.017660331 -0.31293142 0.25334468 0.47705814 -0.017330864 -0.029716713 -0.07609679 0.1735283
我 -0.0069844904 -0.010923126 0.084605485 -0.0063616717 0.21137011 -0.16214302 0.44358972 0.3098805 -0.42147484 0.6422151 0.21427481 -0.49960718 -0.0945559 -0.06195921 -0.30855215 0.33826986 0.2889253 -0.06994946 -0.29990205 -0.013962658 0.0023647214 0.19314344 -0.10268791 0.022530587 0.2863479 0.12252622 0.16669622 0.08318473 -0.037860345 0.059945986 -0.37337595 -0.31136832 -0.05957312 0.024894932 -0.15979783 0.18994851 -0.0043541603 0.04154885 0.17039815 -0.16441618 0.026091812 0.06657377 -0.23917419 -0.14587812 -0.20037876 0.16505331 -0.2888887 -0.24954773 -0.09368168 -0.29153928
路 0.053951684 0.023969507 -0.18343131 0.059060514 0.29302928 0.37540707 -0.053482812 0.086489014 0.011020689 0.46877384 -0.068237126 0.13214989 -0.24631356 0.008929032 -0.6947304 0.0019296699 0.09402476 -0.066041276 -0.8508024 -0.27792725 -0.13919204 -0.024238314 0.03326149 -0.10338408 -0.1482029 0.4434467 -0.30937585 -0.18744369 -0.09672526 -0.06937836 -0.27123466 0.36254206 -0.33168235 0.08166278 -0.251679 0.39969605 0.010470738 -0.36574164 -0.09739161 -0.42364022 0.07330678 0.19495964 -0.2965975 -0.025608066 0.022711355 -0.072750695 -0.11850889 -0.13814436 -0.36301744 0.035869494
在 0.37641352 0.16963929 0.10676485 -0.06412364 0.26745546 -0.14526917 0.15157399 0.17788088 -0.46794763 0.83446676 0.23302273 0.21390465 0.07276345 -0.11255232 0.2617203 0.07034685 0.1634257 -0.09497465 -0.1457737 -0.03306213 -0.27097267 0.39486492 -0.3117812 -0.24024399 0.04186436 -0.11913529 -0.10518074 0.23423058 -0.5420422 -0.14411122 -0.39630523 -0.15663236 -0.16453439 -0.0060240794 -0.5708345 -0.07962559 -0.061426036 0.45156488 -0.09883438 0.13384485 -0.06415124 0.48215812 0.33044317 0.5035051 0.120510966 -0.10018362 -0.12823267 0.4869842 0.20547049 0.21325958
已 -0.005566846 0.19124137 0.18241079 0.030298408 0.19094561 -0.009234641 0.09233923 0.25081912 0.51973236 0.54841036 -0.2065994 0.42880908 0.0131997205 0.42063323 0.081773125 -0.03564699 -0.28003183 0.36054376 -0.5092775 0.37550315 0.053237364 -0.39714435 -0.021284407 -0.36561063 0.033166785 0.1557486 -0.5300268 -0.055596557 -0.48345658 -0.014244289 -0.3732837 -0.36519858 0.13503583 0.5672941 -0.34877196 -0.2777175 0.35410044 0.09094131 0.13638 0.17485625 0.051560663 -0.30980897 -0.24443205 0.18956226 0.035870437 -0.038594082 0.2484835 -0.0498676 -0.25908852 0.25378558
得 -0.123894684 0.08387991 -0.11388963 0.0644217 -0.08577559 -0.029449478 0.46428934 0.039154723 0.13473861 0.6624144 0.33276635 0.34046018 -0.02354552 -0.12631387 0.021050425 -0.050036542 -0.22420897 -0.037074685 -0.10999627 -0.32818842 -0.048700884 -0.31692848 -0.23259121 -0.2739806 0.19140391 0.09001794 -0.042077057 0.35725757 -0.3041771 0.23352444 0.09002352 -0.08152108 0.3485294 0.20829283 -0.08887929 -0.3746632 0.023658821 0.04214404 -0.123902105 0.12041872 0.043775845 0.020412464 0.25700557 0.09302136 0.38786432 0.19388615 -0.29783782 -0.15398322 -0.11569315 0.42959616
所 0.26550698 -0.24221976 0.4051084 -0.1767456 0.1356353 0.13528967 0.39849195 -0.046825334 -0.25581345 0.72968954 -0.10068229 -0.3505136 0.09465907 0.30399036 -0.48117772 0.1261672 -0.00850903 -0.12187771 -0.031011954 0.006165713 0.28493282 -0.09739525 -0.019447774 -0.37929496 0.16089489 0.12481893 0.3220158 -0.17464277 -0.22886609 0.10428007 -0.2068642 -0.11676474 -0.16044874 0.059762336 -0.09732143 0.5044885 0.19357099 0.030058809 -0.031967804 0.25493386 0.2533924 -0.0132230725 0.048188537 0.35947978 0.22714353 0.3140526 0.35522547 -0.21451756 -0.20210765 0.3174367
民 0.14562994 0.38215533 0.008082415 -0.35857874 -0.23252086 0.39358294 0.43879652 0.40195578 -0.21098076 0.7556219 -0.28108132 0.107438095 0.036497865 0.10420662 -0.3085121 0.1225867 0.1642691 0.2636399 -0.09342875 0.1597961 0.12996987 -0.093106106 -0.12286818 0.44882217 0.057495758 0.12778944 -0.18645029 0.10807122 0.07354649 -0.17436583 0.57410336 -0.031207183 -0.6749286 -0.3051244 -0.14540553 0.07249085 0.23721448 -0.4534943 0.5679198 0.01712509 0.18363445 -0.19325988 0.07974763 0.28494266 0.14033635 0.35488132 -0.057369757 0.056048688 -0.37060717 -0.03246564
小 -0.18175273 0.43753207 0.109549105 -0.23497286 -0.34305787 0.035589483 -0.13416368 -0.33016357 0.05746857 0.81205195 -0.034758803 -0.16321287 0.33483145 -0.10100419 0.10812784 0.14898711 0.3315801 -0.20824371 -0.211498 0.081267215 0.19356765 -0.16878891 0.08031876 -0.16573347 0.12183005 -0.37056437 -0.02234578 0.18082486 0.16306052 0.07071799 0.012640368 -0.30964962 0.009564122 0.4912003 0.30107796 0.18232104 0.045778167 -0.2632202 0.12785165 -0.33234978 0.22814205 -0.54767066 0.18811819 0.26617837 0.17118871 0.29845092 0.012967057 0.27861094 0.1084578 -0.18185183
天 0.5619987 0.01951887 -0.060711246 -0.24660842 -0.2355501 -0.3490768 0.29663154 -0.18836853 -0.10316154 0.5461566 -0.080702476 -0.10369511 -0.034715783 -0.34196526 0.20075718 0.58084524 0.0905563 0.0796546 -0.3853209 0.008974192 -0.086212926 -0.435309 0.36610645 0.08135629 -0.30979612 0.29214513 0.4087921 0.035315003 0.056764692 0.13039812 -0.20269693 -0.21594484 0.44964623 0.053730976 0.035522662 -0.11526584 0.25423077 0.3898162 -0.0752881 0.3208379 0.4205432 -0.51321554 -0.05257305 0.2341217 0.114082694 -0.1713202 0.06594157 0.14369585 -0.15411612 -0.10528153
乐 0.12313432 -0.15969259 0.6707497 0.23313276 -0.20726779 -0.06420187 0.30061665 -0.08929448 0.04548714 0.6017148 -0.22090898 -0.020792427 -0.008532419 0.021909127 0.16503476 0.29688373 -0.06904954 -0.03422295 -0.13268845 0.18733385 -0.09063033 -0.095339656 0.22181787 0.15452245 0.38622037 0.14133146 -0.23018754 -0.07513103 0.32542214 0.082211755 0.025484355 -0.048710622 -0.36275294 -0.18640281 0.3016843 0.53215283 0.09034313 -0.12303957 0.028272746 0.37482637 0.28684014 -0.048808698 -0.47505715 0.036830023 0.36353028 0.24163339 -0.13696362 0.04548995 0.45025843 0.27302682
邦 0.22750942 -0.020968404 -0.08314826 0.1502123 -0.13569099 0.10324384 0.13507728 -0.16101535 -0.2326616 0.64623785 0.08265773 0.29515976 0.6980158 0.07600269 -0.24023785 -0.053036038 0.51221 0.4524075 -0.29419816 -0.3334571 -0.018727394 0.15594138 -0.100347996 -0.5345622 0.14089374 0.14689392 -0.0018059005 -0.06559664 -0.4318222 -0.28206664 0.13499387 -0.032224037 0.43237755 0.115918085 -0.18395004 -0.1648293 0.17971148 0.015477102 0.20903935 -0.21827571 -0.29228854 -0.34079704 0.164949 0.18866077 0.21626945 0.06574391 -0.08399637 -0.04499761 0.42664325 0.13425414
亦 0.17481017 -0.42607057 -0.34364375 -0.17379318 0.22851534 -0.25724643 -0.15577859 -0.18251982 -0.6378031 0.6434817 -0.17308503 0.0018674536 -0.25142908 0.16004007 -0.021135721 0.27517262 0.53316104 0.037266534 -0.19169232 -0.11409361 -0.07716078 -0.14286026 0.25935453 -0.041501008 0.020234931 0.22111237 -0.10828578 -0.32948533 0.6412761 -0.033448238 0.058683433 0.17674652 -0.06838691 0.1317829 -0.19908825 -0.46375737 0.26295274 -0.4414342 -0.14965273 0.4032717 -0.15550289 -0.14879505 -0.06913445 -0.36842328 0.3548092 0.14318527 0.32489648 0.22996171 -0.09653295 -0.14167853
使 0.36153728 0.26461363 -0.14178157 -0.46255037 0.33131307 0.2507468 0.25878942 -0.17492561 -0.06547358 0.45975977 0.031006925 -0.24327894 -0.27765355 -0.44505525 -0.03753644 -0.2261656 0.18128404 0.34294713 -0.24632257 0.29163674 -0.014716423 -0.0492703 0.04381979 0.029130787 -0.18666445 0.41534045 -0.31944847 -0.09498698 -0.27996984 0.014980688 0.010084428 0.13765785 -0.24715827 -0.2715879 0.43895873 -0.10091666 0.14617245 -0.28016183 0.2484401 -0.1473008 -0.10778073 0.51093054 -0.44296113 -0.030166863 0.148086 -0.0582013 -0.057077564 -0.026806489 0.11979118 -0.16279277
大 -0.21469776 0.27489448 0.022577692 -0.044078812 -0.14708096 -0.005307462 0.1678964 0.32944843 -0.3224952 0.7464359 0.019225053 0.010609193 -0.17168862 -0.23563664 -0.10838028 0.2112233 -0.10525766 -0.27340633 -0.16331986 0.17438741 0.038503658 -0.0861428 -0.0208766 0.18095723 0.041651238 -0.15399806 -0.22794805 -0.1740825 -0.2372527 0.12069462 0.17852439 0.30291626 -0.22042981 0.37589383 0.52281255 -0.10089731 0.21519636 0.3799882 -0.1653285 -0.13729149 -0.08906048 -0.26335838 -0.02342837 0.10020011 0.035554137 -0.13135447 0.18471082 -0.021858092 0.14718147 0.025412938
下 0.3248504 -0.24844836 -0.18639286 -0.17095119 0.0053977356 -0.07727422 0.35758153 -0.27507016 -0.5173974 0.66507286 0.11271779 0.27796268 -0.03133104 -0.059717983 -0.07203295 0.3760741 -0.12669858 -0.03594609 -0.09739896 0.08999009 0.014007553 -0.2574412 0.22173604 0.15421672 -0.24904323 -0.13865198 0.19677272 -0.31746107 -0.5720271 -0.0011013085 -0.13814554 -0.032067563 0.19296576 -0.17235659 -0.027880572 0.4216666 0.437444 0.45984828 0.46539563 0.32054713 0.44451588 0.17529179 0.23143636 0.28036255 0.16325995 -0.29717863 0.15658581 0.16184315 -0.06342366 -0.3113049
贡 -0.03183771 -0.1657229 0.3192448 -0.03783286 -0.009699478 -0.13003856 0.033997755 0.40610537 -0.18106724 0.46632946 -0.031055206 0.13366455 0.21809812 0.19764434 -0.6266682 0.108055964 0.06460264 -0.022654284 -1.1829896 0.08665007 -0.17509298 -0.5111027 -0.29636917 -0.06495868 0.17917481 -0.4313233 0.20239788 -0.1307689 0.29782137 0.19331034 0.13790825 -0.18367983 0.19861415 0.14491893 0.04931534 0.17646086 0.016956134 0.16584525 0.28601143 -0.40162882 0.007124309 0.2732075 -0.19062795 0.21247801 -0.12320766 0.14899077 -0.2491746 -0.13653016 -0.3510569 -0.024588246
欲 -0.03847693 0.13835193 0.06695855 -0.04258382 0.05627951 -0.00375284 0.28453904 -0.11150081 0.13682823 0.6827106 0.08186066 0.24351771 -0.00973441 -0.1495548 0.09183327 0.25272018 -0.25281194 -0.27781373 -0.23217909 -0.22847205 -0.006216201 0.092598885 -0.08610818 -0.12822902 -0.05234063 0.46369457 0.036548864 -0.20579827 -0.33847454 -0.13650297 -0.38670394 0.22301267 -0.2669847 -0.013358717 0.040448032 0.14584044 -0.1727198 -0.17292823 -0.20254552 -0.37824607 0.40398842 -0.010305972 0.521754 0.29587603 0.15853177 -0.010946666 -0.39651957 -0.11511357 -0.07868372 0.22888407
诸 0.013674977 -0.06575987 0.3230994 0.4391862 0.24102104 -0.21695167 -0.024309117 -0.07281656 -0.029241083 0.56685287 0.41519082 0.25298133 0.39157048 -0.30054918 0.35556942 -0.18304487 0.4047957 -0.14607187 -0.47080648 0.42703295 -0.1502702 -0.20934716 0.10344441 -0.07406267 0.4012788 0.026207253 -0.06873223 0.18066914 0.045498382 -0.05837712 -0.23028347 -0.16431612 -0.36708534 0.23331386 0.18644366 0.14022389 -0.10184161 -0.93139076 -0.033230368 -0.16728558 -0.59667134 0.15193345 -0.073797315 0.03760203 0.040068712 -0.1417304 -0.79205394 0.2320926 -0.3657015 0.13079695
从 -0.18675898 0.15133013 0.019475235 0.44379798 -0.2679753 -0.23300394 0.5370695 0.37181944 -0.13708226 0.6458851 -0.10916009 -0.36621132 -0.24210866 -0.018424187 0.16308011 0.09418155 -0.08859685 0.15147728 -0.17438081 0.56816846 -0.24109218 -0.13566792 -0.24925117 0.031956904 -0.53170335 0.24441747 -0.07237019 0.38121182 -0.13463326 0.085749075 -0.27052572 0.40175003 -0.42076206 0.039789822 -0.04230987 -0.05764339 0.29635268 -0.13551503 0.21168007 -0.25834543 0.07733263 0.28572986 0.37187207 -0.19364518 -0.09084186 -0.120721735 0.15622783 -0.1286127 -0.508573 0.21761443
文 -0.1276168 0.082079515 -0.14808178 0.35050276 -0.11826011 -0.10886862 0.023960896 0.21665098 0.0014869744 0.5743582 0.04431432 -0.3107107 -0.21816324 0.1880457 0.16605166 -0.040462576 0.021757973 0.47197872 -0.41620815 -0.29578164 -0.3619142 -0.22718292 0.14971891 0.20068818 0.08412311 0.02740523 0.4713556 -0.74680144 -0.048660837 -0.2935325 0.060651444 0.024884943 0.18866354 -0.08032602 0.080328576 -0.059786066 0.18266775 -0.107570186 0.030329712 0.0854413 0.06179204 0.16601251 -0.24679652 0.27608845 0.060428627 -0.033663947 -0.33474204 -0.28778014 0.3072688 -0.21273655
政 -0.08068706 0.3229845 0.20681663 -0.2568333 -0.38169214 -0.23854896 0.23294798 0.08065803 -0.020149099 0.45242906 -0.59747803 -0.18014419 -0.3262338 -0.018012032 -0.18569106 -0.20146587 0.29176947 0.32763925 -0.5768193 0.3015222 -0.0532467 -0.08630486 -0.343654 0.23609774 -0.62520474 0.18988478 -0.09099423 -0.1770895 0.20735319 -0.08993053 -0.18899573 0.041680053 -0.098458886 0.1642132 -0.043090906 0.04442261 0.49427265 -0.21749043 -0.03452402 -0.29128858 -0.36160943 0.3127266 0.19566941 -0.067875765 0.0010491342 -0.30192962 -0.22868688 0.13637824 -0.16298431 -0.3517067
食 -0.015876027 0.2668097 -0.3533953 0.24354485 0.02538637 0.23627883 0.15364172 -0.119013704 0.15473787 0.662023 0.26254448 0.582852 0.04112977 0.10921933 0.07582749 0.43860278 -0.28929484 0.113589026 -0.42706367 -0.18603791 -0.38458017 -0.21735996 0.069129616 -0.3093987 -0.11668901 -0.5893234 0.23734331 -0.15872173 -0.18877195 -0.28304186 0.19695152 -0.17871037 -0.46730378 -0.23228574 -0.3590368 0.026351118 0.049450632 0.22582611 -0.4244842 0.47858202 0.65521675 -0.39489427 0.050827596 0.07077294 0.66283494 0.0724485 0.1918478 0.30833417 0.038248885 0.005364593
善 0.029531702 0.3142248 -0.0851066 0.4910201 0.17834954 -0.34315223 0.10752683 0.021005293 -0.08309104 0.5173559 -0.36024162 0.1944154 0.09981529 -0.02966341 0.42069763 -0.19712836 0.17135225 0.11883823 -0.41423208 -0.19560209 0.08769491 -0.37098697 -0.09600339 -0.30067852 -0.23092154 0.21402606 0.15109845 0.40632313 0.12910175 0.4559522 0.15274125 -0.07708937 -0.09185221 -0.2552968 0.035180975 0.5445917 0.00018909154 -0.17755207 0.16195096 -0.33309966 0.5971586 0.027070075 0.06262137 0.30887815 0.2496633 0.038652383 -0.16737059 -0.23565125 -0.19087194 0.38761967
后 -0.313097 0.34053493 0.38655257 -0.13310614 -0.42479953 0.16928528 0.2582206 -0.33741575 0.16040023 0.6298613 0.07272565 0.35743484 -0.21506092 -0.4502352 0.019329717 -0.10520445 0.033597816 -0.5528138 -0.30576986 0.4180307 -0.3838152 -0.010912196 -0.0646439 0.25165325 -0.082518 0.23961228 -0.2080838 -0.0076550413 0.1847516 0.2193911 0.2141031 0.28004602 -0.25158706 0.11158129 0.07839802 -0.36025545 -0.0091168005 0.19150496 0.18856038 -0.013632398 0.02466055 0.07848587 0.07880146 -0.5281647 0.2695734 0.018198293 0.12094079 0.00036659068 -0.16147357 0.10718228
德 0.053889684 0.1548325 0.11838728 -0.6038806 -0.06547531 -0.20851827 -0.08081776 0.38903216 0.053866338 0.60922587 0.16202593 0.24612369 0.09203424 0.5253479 -0.03533138 -0.32288587 0.10073842 0.046203274 -0.30320305 -0.06914112 0.27604696 -0.2930001 0.06391729 -0.32839754 0.16800568 0.20283285 0.35318178 0.1980927 0.0039792075 0.25876254 0.12990598 0.11663635 0.3771218 -0.12565771 0.41024825 -0.11088428 0.46044195 -0.06684349 0.40507585 -0.2788825 -0.2315399 -0.07639774 -0.064437754 0.18773897 0.04066626 -0.18230915 0.05116857 0.22352605 0.022678567 -0.3357728
求 -0.1808768 -0.12700498 0.31624523 0.07044719 -0.08610888 -0.12010315 0.06798825 0.16497459 0.31266782 0.54773724 -0.010482954 0.050361615 0.4424227 -0.01988694 0.2301048 -0.08253857 0.10287864 0.10293225 -0.35362878 0.33898333 0.14762802 0.13487987 0.052436214 0.023734428 -0.0659892 -0.038970686 -0.03999037 0.24215123 -0.057122905 0.43267366 -0.20664503 0.23368955 -0.31888026 -0.28049216 0.18307668 0.15407827 0.3768867 0.22236341 -0.25581098 -0.25673488 -0.49713778 0.2596676 0.17640646 0.18074575 0.07189983 -0.18359613 0.26712894 -0.10196018 0.2095375 0.042595003
对 -0.029575206 -0.39069954 0.31183317 0.011762813 -0.07992791 -0.11462197 0.22553915 0.38844472 -0.038078234 0.61941284 0.57413465 -0.051284652 -0.20959759 -0.08071607 -0.063518055 -0.08051913 0.03868898 -0.32080558 -0.8678511 -0.20531353 -0.07756506 0.49191687 0.011039953 -0.36908633 -0.27130517 0.34197184 -0.05615469 -0.09453602 0.33908394 0.36431417 -0.08478459 -0.5387472 -0.23056784 -0.028650053 0.14279467 0.09822488 -0.11118898 -0.23203363 -0.06672704 0.30297932 -0.12437628 0.4470963 0.3902404 -0.43225518 -0.35659513 0.054361694 -0.010512372 -0.08507898 0.05557489 -0.2606467
恶 0.2353671 -0.37974733 -0.41067803 -0.4354883 -0.16901454 0.22013985 0.19609964 -0.39834258 -0.3207283 0.55029804 0.042087834 0.124449395 -0.013541104 -0.009709021 0.6958821 -0.10812631 -0.58121556 0.1825586 -0.17166232 0.29850543 0.6001773 -0.11924006 0.00073790335 0.034055423 0.30540895 0.1744175 0.35031286 -0.08370436 -0.2072256 0.1903152 -0.13895011 0.15045759 0.03518907 -0.77312046 0.2526285 0.05592956 -0.09028812 -0.32208708 -0.040218942 0.10714582 -0.22908598 0.027785866 -0.020886807 -0.015862608 0.4632801 0.07804128 -0.0903132 0.27704996 -0.055838127 -0.15891665
信 0.36197764 -0.22247672 -0.10023115 -0.049117174 0.27784863 -0.3057743 0.30880547 0.26514214 -0.14609358 0.67933404 -0.25392514 0.51969045 0.18519889 -0.17552103 -0.019531127 -0.14022693 0.30834082 -0.11568631 -0.09203581 -0.28813222 0.1746151 0.319108 -0.040261753 -0.35885137 0.2525436 -0.26418966 0.20508566 -0.03527416 0.36238694 0.21179986 0.31170464 0.18524428 -0.3473304 0.114254445 -0.122577704 0.033012703 -0.15412071 0.36605585 0.49032077 -0.11996234 0.5901376 0.113921404 0.035386883 0.009547585 0.43486604 -0.17937185 -0.051764514 -0.13200271 -0.33328676 0.046608265
死 -0.12561917 0.16433719 0.013597417 -0.08123489 -0.13133179 -0.3460342 0.45559615 -0.008890246 0.49475884 0.68298805 0.2539057 0.29138905 0.18407643 0.2057105 -0.3623893 0.16970308 0.024722217 0.03616589 -0.14314696 -0.12518573 -0.04472722 0.16307463 0.12354491 0.40868703 -0.104859665 0.6160102 -0.18912847 0.077345334 0.1153181 0.027322136 -0.046022307 0.25581482 0.39490435 0.25638533 -0.23010021 0.061695505 0.031108188 0.26429036 0.19002959 -0.0461523 0.14785616 -0.23932236 -0.19516729 -0.07077986 0.20758918 0.33903646 -0.112379216 -0.24486612 -0.49489433 -1.9915642e-05
然 -0.36135763 0.198704 0.13144964 0.38833213 -0.026276698 -0.23948097 0.50487065 -0.36847264 -0.13032024 0.54118407 0.13707969 -0.0040896595 -0.15680051 -0.17139794 -0.052389994 0.15401934 0.084036715 -0.19670816 -0.53209656 -0.24310172 -0.5868311 0.07098161 -0.32952824 0.10919875 -0.1038954 0.17270747 0.2537087 0.08693312 0.19733056 0.015990263 0.14026462 -0.076415576 -0.037966467 -0.034929167 0.3514457 0.11051002 -0.2215708 0.22439207 0.046015244 -0.17352684 -0.044923678 -0.54334885 0.14663516 -0.25862604 0.058375955 0.48408717 -0.3105147 -0.27092162 -0.19932504 0.13882852
《 0.06853338 -0.37842453 0.32509935 0.021477517 -0.3725914 0.43722498 0.46277815 0.23743664 0.25467125 0.7327375 -0.2561582 0.07101952 -0.11432442 0.33209583 -0.0353662 0.35397476 0.1517736 0.1793704 -0.45725566 -0.16108526 -0.07325088 0.57845265 -0.14045843 0.001753979 0.029204732 -0.5636996 -0.23615614 -0.5092684 -0.19055627 0.2829954 -0.016331514 -0.12530255 0.11206372 0.1627809 -0.376401 -0.20995626 0.11992865 0.040912602 -0.3263215 0.16101632 0.10212342 0.19816911 -0.27203003 -0.371472 -0.12864247 0.071237825 0.37351966 -0.09475756 0.54354876 0.20396993
》 0.39475343 -0.28230318 0.5146578 -0.039891772 -0.17208318 0.20852609 0.6948681 0.38686627 0.108048595 0.8359073 -0.030617468 0.34038728 -0.055705164 0.5664267 -0.2289924 0.42938057 -0.076547 -0.070316225 -0.37364984 -0.0081383465 -0.21331783 0.39848605 -0.06536978 -0.2059205 -0.29500505 -0.34421262 -0.050194107 -0.28439075 -0.05059705 0.24570097 0.033349976 0.40076232 -0.07924863 -0.23160028 -0.3185066 -0.45075724 0.046146367 -0.021207565 -0.1551207 0.6352777 -0.49977565 0.014861396 -0.5018919 -0.21669145 -0.2225937 -0.19059384 0.469132 -0.48065972 0.42198104 0.021501135
由 -0.24444814 -0.13364519 0.20875861 -0.030953463 0.17136 0.038124062 0.021457443 0.022993 0.49346316 0.55616045 0.25830796 -0.27493832 0.23573194 0.26510462 0.07673426 0.14038487 0.24285033 0.16756463 -0.43637016 0.45698017 -0.0842957 0.16568492 0.32407027 -0.17610069 0.042405736 0.5734188 -0.28027117 -0.08071209 0.2040356 0.11721464 -0.116241515 -0.28134146 -0.048382316 -0.20617111 0.110953294 0.2974141 0.63394123 -0.030709019 0.12132837 -0.4546059 0.07677372 0.29628778 0.29319283 -0.15021461 0.011767944 -0.108732164 -0.3057872 -0.10675333 0.09806976 0.07648823
仲 -0.46785223 0.027074574 0.13690087 0.050831027 0.091406286 0.14727837 0.12536778 0.27838045 0.5047535 0.59656435 -0.22300148 -0.044556696 0.14284422 -0.32001486 -0.14809929 0.31384563 -0.11835367 -0.10370056 -0.6816901 -0.120321766 -0.13445175 0.23649602 0.26252738 0.12055851 0.26250252 -0.080200665 0.15720712 0.049471464 -0.01051398 0.25614163 0.19341719 0.30737194 0.49206874 -0.49830794 0.23173264 0.36892426 0.27386242 -0.11590956 0.15672013 -0.08860913 0.053826068 0.21844268 -0.069937825 0.45710114 -0.24225523 0.34472018 0.17969877 -0.18915038 -0.101360634 0.27729473
非 -0.1837949 0.046783283 0.067528225 -0.14322461 -0.122621775 0.06490567 0.0072081885 -0.19830053 0.052614827 0.7663286 0.712674 -0.23717108 0.5017962 0.3186288 0.06415096 -0.37053233 0.278383 -0.22391735 -0.32880545 -0.31271625 -0.1017982 0.0009573887 0.17991929 -0.2775647 -0.14971465 -0.011465329 0.5413046 -0.09504428 0.18344116 0.25081092 0.20818402 -0.051593453 0.109221116 -0.3699459 -0.20836057 0.132908 0.23677416 0.12366387 -0.4718352 0.102255866 -0.47415036 0.06971908 0.43764782 -0.12761948 0.20535445 0.21341246 0.0460836 -0.013355132 0.38844573 0.14087163
出 -0.28825992 0.042489905 -0.11444672 -0.19621152 -0.07045801 0.11495162 0.18863958 0.22067213 0.07399092 0.61462975 0.38391414 0.102862775 0.08950571 -0.21749176 0.5247697 0.03556574 -0.19169813 -0.31631875 -0.24280493 0.2727382 -0.02279044 -0.047775943 -0.028617607 0.38809067 -0.10448972 -0.20729783 0.5230969 0.11070175 0.16556892 -0.43688953 -0.23169957 -0.019933833 0.10975631 -0.07119001 -0.1413508 0.170018 -0.0941301 0.11964727 -0.043595858 0.0052229767 0.06840335 -0.046064734 -0.47882956 -0.017957617 0.08296083 -0.6157989 -0.3602225 0.19667077 -0.2958268 0.2829222
过 -0.0211716 -0.47205523 0.14123768 -0.05753723 0.06554926 -0.17267732 -0.019442705 -0.11658599 0.046740033 0.6270769 0.020763334 0.0073783733 0.39653015 0.06411107 0.23377225 -0.16752878 -0.40854627 -0.18112116 -0.2001844 -0.37267968 -0.30362812 -0.0910218 0.17513135 0.07318302 0.11029497 0.2840969 0.1625799 -0.09706401 -0.12336829 0.17583711 -0.32976866 -0.69889647 -0.32013172 0.32915792 0.208004 0.23927334 0.089084946 0.5201493 0.2909302 0.14819527 0.13295199 0.061820194 0.14503834 0.062977165 0.1447616 0.30442953 -0.07866942 -0.16137972 -0.1100906 -0.1651502
一 -0.16714711 -0.52880746 0.6487683 0.0022767873 -0.016449517 -0.030474009 0.3606754 -0.77452236 0.49027976 0.60313654 0.4072432 0.10201821 0.019842366 0.067376345 -0.054205243 0.09324537 0.40296763 0.3096764 -0.027666925 -0.26096597 0.24483955 -0.45133293 -0.17962141 0.014480076 -0.0658806 -0.2177981 0.2789506 0.08808077 0.1381779 -0.45988354 0.2920319 0.009363375 0.14041036 0.043704137 -0.27053836 0.18978122 0.32766044 0.03216678 0.06106718 0.055719305 -0.04419155 -0.07076581 -0.23973498 -0.0077528637 0.26108143 -0.60115135 0.22741185 0.32718825 -0.075922035 0.038847346
虽 0.06476265 -0.47339696 -0.28833213 0.29753482 0.0152569255 -0.20681442 0.1420212 -0.30372217 0.6493916 0.7934714 -0.4605414 -0.02097427 0.08292522 0.14062062 0.09139264 -0.10942555 0.45784092 -0.120683536 -0.03462142 -0.2572321 0.36925292 0.3283626 -0.61539423 0.1469282 -0.535083 -0.10653153 -0.004088763 0.041197952 -0.24623272 -0.025552385 0.25661212 0.47654924 0.030593755 -0.14806952 0.15964489 0.22926526 -0.14910504 0.7388235 -0.025770294 0.25982803 -0.19078507 0.3215232 0.1798282 0.3463148 0.5853688 0.060889892 -0.18172248 0.39787403 -0.18589981 -0.007842243
足 -0.25390646 -0.20378254 -0.26962033 -0.04623408 0.44251254 -0.3828852 -0.3459244 0.22550347 0.05848349 0.85109454 0.25444588 -0.26747763 -0.71358263 -0.09824665 0.10751407 0.2581171 -0.6892867 0.49871972 -0.1266039 -0.15119423 0.22738303 -0.11352309 -0.1714045 -0.17721102 0.252801 -0.30569595 0.4705371 -0.45269194 0.2394527 0.3244473 0.3956029 0.0031354923 -0.17331702 -0.31743786 0.017272158 -0.006711854 0.4041409 0.115191124 0.19661942 0.09983941 -0.0015773542 0.30202273 -0.12247345 0.0010862562 0.5521933 -0.10360859 0.32460502 -0.43162715 -0.08820457 0.25812703
居 0.031890582 0.23984808 0.09602515 -0.04141186 -0.017499754 -0.039433915 0.036937352 -0.01679415 0.26936448 0.6620626 -0.0009682459 0.026802355 0.51125115 -0.053793017 0.1601121 0.350742 -0.46329635 0.22647819 -0.3432445 -0.030535987 0.11552158 -0.1276538 0.38486508 -0.12602165 0.03736114 -0.28852054 -0.15582894 0.1968206 -0.05462468 -0.06462093 0.41843274 0.015013781 -0.5449729 -0.21675186 0.31600654 -0.08891209 0.097072355 -0.09871716 -0.385754 0.27494058 0.04018148 -0.19190751 -0.036639016 0.26532835 0.22482695 0.6945913 0.16571362 0.48287684 -0.21491723 0.09108456
尔 0.15532699 -0.35524735 0.44826466 -0.049271327 0.3097132 -0.16245152 0.10502443 0.09841144 0.2533017 0.7067507 -0.07815701 0.29795036 -0.067859046 -0.06535458 -0.12320065 0.588535 0.31958228 -0.43414193 -0.39814314 0.14051753 0.2545576 -0.15874274 -0.09147722 0.3266492 0.23904592 -0.24040693 0.6935719 0.26809484 -0.122860216 0.16605479 -0.67646533 -0.3064714 -0.021713002 -0.07522704 -0.24761273 -0.23623328 -0.06516603 -0.09147164 -0.005293421 -0.1914686 -0.28764555 -0.22540812 0.3457199 0.078917526 -0.28066996 -0.14018291 0.20515147 -0.049482156 0.103580005 0.15806757
夏 -0.15961319 0.13767803 0.117014855 0.12943503 0.2035003 0.1628585 -0.17237097 -0.12978455 -0.315438 0.37965706 -0.17196582 -0.14854333 0.5202163 -0.22028278 -0.3872688 0.3584352 0.07077206 0.09401271 -1.1832099 -0.49568588 -0.266741 0.18262069 -0.16894346 0.22078034 -0.0568068 -0.09147362 -0.1162822 0.08745438 0.23975322 -0.03731336 -0.111247174 -0.009933589 -0.3740099 0.48016408 0.030155038 0.26744208 0.31216744 -0.091550514 -0.062276106 0.107315 -0.0741275 0.061171725 -0.012096064 0.015575914 -0.01673135 -0.15957166 0.31157753 -0.44730154 0.16766386 0.03912064
父 0.3281323 0.44466278 0.45241028 0.31882912 -0.28708383 -0.16004606 0.2356708 -0.2934157 -0.2694526 0.56697214 -0.19466826 0.077530876 -0.09796646 -0.54484254 -0.23811708 -0.10370713 0.06680443 -0.050754752 -0.50073475 -0.31844744 0.10733811 0.098610476 -0.33836287 -0.07617813 0.22867592 -0.09776964 0.27899656 0.2589761 -0.378254 -0.3256494 -0.09136308 0.042503253 0.15079494 -0.25891304 -0.13609818 -0.36328843 0.54284227 -0.004400283 -0.6691161 -0.10473715 0.26516235 0.29799262 -0.28336188 0.10460666 0.20448466 0.18166135 0.09675602 -0.09420868 0.26765677 -0.38924155
及 0.52289367 -0.14944637 0.1089346 0.076923646 -0.13324839 0.3105013 -0.6050464 -0.15528822 -0.16546407 0.83537275 0.21424606 -0.28957063 0.021157831 0.11783895 -0.11719513 -0.1577923 -0.1522169 0.29950142 -0.15456757 -0.13740858 0.09651514 0.04094757 -0.83600116 0.21371306 0.018066255 0.51187503 0.27303633 0.089662395 0.21041292 -0.18536974 -0.14692205 0.3032399 0.007907558 -0.06787232 0.5808296 -0.4995548 0.33238968 0.2578598 0.2869187 0.39467674 -0.13416527 -0.16689074 0.14767921 -0.48357525 0.5002025 0.28728008 -0.16507265 0.0549857 0.07249309 0.3609752
己 -0.22464934 -0.3638992 0.09934519 -0.14388002 0.4188776 0.21845187 0.268474 -0.3233043 0.4268701 0.70819134 0.39383933 -0.32484943 0.31267285 0.050274752 0.18766077 0.35239884 0.33812836 0.22003934 -0.10288098 0.08864174 0.66370493 -0.10150302 0.11268224 -0.08539071 0.11797747 0.17018211 -0.10953248 -0.0621869 0.27480608 -0.13407737 -0.047726836 0.50083107 -0.48133868 -0.17778328 -0.062255193 0.26681468 0.050626364 -0.6584542 0.060113676 -0.13505438 -0.23437461 0.24334979 0.37843457 0.012468758 0.38464513 -0.04025763 0.45637083 -0.34818235 -0.12273333 -0.07406612
予 -0.19679098 -0.18514569 -0.34777105 0.26630956 -0.39215788 -0.13300523 0.056814197 -0.16104344 0.1525413 0.6385804 0.33010346 -0.51800525 -0.30048725 0.21305272 -0.29559532 0.26052445 0.094683856 0.22648871 -0.42354128 -0.6806252 -0.18693137 0.0032034975 -0.1839351 0.07604971 0.011224498 0.30439624 -0.13645016 -0.22967811 -0.097286604 0.06572363 0.2096369 -0.06309203 -0.28807846 0.23207326 0.1295301 -0.07963315 0.6109654 0.24093798 -0.1647158 0.1622888 0.10289458 -0.4274557 0.21274497 0.06464582 0.07381807 0.34768465 0.23685575 -0.09439786 -0.047281764 0.031034946
色 0.039580375 -0.15700056 0.19664788 0.1010965 -0.04858091 -0.2676876 0.11784514 0.1381061 0.06288645 0.836983 0.1448514 0.24015814 -0.29584938 0.40882376 0.06933181 0.14994395 -0.7837405 0.19702837 0.09858035 -0.04447973 -0.27089563 0.09122926 0.15065104 -0.30613932 -0.4345625 -0.15840916 0.3098941 -0.24319589 -0.0492084 -0.28623357 -0.16835722 -0.23685236 -0.33608812 -0.5803451 -0.21053103 -0.4123702 0.16156332 0.03252785 0.5046822 -0.16482425 0.01913538 0.3549948 -0.16982025 -0.124732554 0.14035645 0.47989404 0.10449329 -0.10510781 -0.46759796 0.012975576
友 0.47018254 -0.36117128 0.20648009 0.076814875 0.4768413 -0.55509174 0.4283433 0.45180672 -0.16759439 0.59377974 -0.3126541 -0.24383344 0.2060741 0.19848688 0.1605683 0.33295295 -0.52462405 -0.37960306 -0.25070542 0.21572566 0.22065811 0.25015813 -0.07352058 0.43266344 -0.14072853 -0.088775076 -0.15465873 0.05852918 0.5411179 0.36420867 -0.09375167 0.044170287 -0.2979994 -0.5241551 -0.54451674 0.11001133 0.18809287 -0.011151558 0.25488272 -0.7018317 0.14257175 0.2521666 -0.54637206 0.20964874 0.2636612 0.074489065 -0.26888722 -0.056411397 0.14580858 -0.11723868
成 -0.21544756 0.3695953 -0.045733154 -0.19917646 0.043004904 0.119951904 0.2897312 0.12071722 -0.4136171 0.5442298 -0.33820572 -0.075365596 -0.63911206 0.12085417 0.2605197 -0.19679038 -0.143496 0.32921794 -0.29237545 -0.29339236 -0.14531785 -0.16171682 -0.04630894 0.2283313 -0.022904163 0.021706488 0.14405374 -0.1110493 -0.075637795 -0.39855283 -0.07818404 0.35935196 0.19006974 0.2062442 0.017872784 -0.12202978 -0.11842877 -0.33306262 -0.026363168 -0.27169034 -0.26083428 0.66561604 0.11008007 -0.09341728 0.34075215 0.24461104 -0.44558567 0.3460489 -0.0652789 0.123722985
远 0.52718604 0.060103457 -0.38100833 0.11674653 0.27166432 0.01770503 0.123195216 0.35473466 -0.5427022 0.6457718 -0.47319114 0.3716293 -0.03832506 0.51997596 -0.32915974 -0.2129807 -0.2642564 -0.040699355 -0.32813615 0.1590733 -0.11535572 0.004532077 -0.21893805 0.54918367 -0.050502036 0.12398262 0.24913688 0.0051941914 -0.029103516 0.21155564 -0.45022592 0.2589907 0.03735282 0.088539094 0.25899372 0.2588537 -0.259851 0.066908434 -0.026245786 0.23594126 -0.5962962 -0.092462555 -0.3872552 0.23900764 0.22220479 0.2664303 0.24862735 0.39255077 -0.16569863 -0.0024855875
上 0.2731205 0.18111558 -0.41669545 -0.349878 -0.27868086 0.27725878 -0.04821258 0.19387893 -0.2870433 0.7494745 0.3472868 -0.059667896 0.2506936 0.58237046 0.24557075 -0.46182862 0.29064533 0.011736639 -0.15082814 0.27918005 -0.040001098 0.40508816 0.02917665 0.09850707 0.19413517 -0.30252177 0.21968135 -0.030846864 -0.1539281 -0.038355127 0.13785401 0.14342436 -0.14876604 -0.4857683 0.40169615 -0.05326203 0.31934896 0.06323921 0.3482434 0.100924514 0.55087495 0.4195282 0.14677627 -0.0522127 0.2385964 0.0208828 0.6447392 0.8626985 -0.2391792 -0.294696
立 0.2306564 -0.16796587 0.22193548 -0.4612295 0.49324554 0.77112025 0.48882088 -0.09919406 0.3874789 0.7283375 0.56387794 -0.4475702 -0.028900675 0.12568049 -0.04840895 -0.3948057 -0.20105457 -0.5554755 -0.010622534 0.35814613 -0.14333884 0.14593565 0.05671686 -0.016347969 -0.0017442687 0.13388385 0.26776302 -0.48246956 -0.59923863 0.4011014 -0.024592787 0.12562886 0.0106713185 -0.0409889 -0.50784576 -0.17776231 0.26744062 -0.2004419 -0.00321909 0.16614148 0.11688008 -0.1910922 -0.04433133 0.24223739 0.51469433 -0.39946038 0.011924043 0.34463862 0.12876628 -0.15913212
今 -0.44207588 -0.0063076653 -0.28212282 -0.34824207 0.08592078 0.28945163 0.08952329 0.0046369038 -0.2571796 0.835064 -0.2739219 -0.3160939 0.47056717 0.17072025 -0.42310306 0.11361794 -0.09643918 0.2098187 -0.26271406 0.53204674 -0.12092619 0.047238365 -0.30121207 -0.51858103 -0.26271203 0.044383436 -0.43202224 0.5494359 -0.099714175 -0.18976752 -0.06350735 0.4587424 -0.13490692 0.42458567 -0.1319681 0.12548031 0.28095376 0.46715003 0.031281423 -0.6697502 -0.17879544 -0.03812424 0.05931827 -0.13323852 0.19944514 -0.13487655 0.07552312 -0.4003865 0.15645753 0.11997884
张 0.07503991 -0.49067974 -0.14401773 0.04943381 0.08940235 -0.35343775 -0.30845493 -0.12254209 0.3613812 0.33689958 -0.0007494222 -0.029393235 0.2072246 0.19330996 -0.14441673 -0.10699285 0.037636064 -0.080951564 -1.0584022 0.29908654 0.16564344 0.12996142 -0.08859222 -0.006439597 -0.61546826 -0.19642192 -0.36451203 -0.05943802 0.2002296 0.16674258 -0.28336683 0.094354965 -0.33601388 0.13823119 -0.4745309 -0.45717034 0.25857097 -0.39044487 0.23906362 0.023706727 0.19583142 -0.23336223 -0.54971695 0.2462393 -0.11355578 -0.1414672 0.21720646 0.22944061 0.25172544 -0.006766867
中 0.16373739 0.077116676 -0.13935459 -0.11348653 0.05077947 -0.17473948 0.32469028 -0.52214795 -0.22113422 0.8060147 -0.21934499 -0.07078887 0.8256092 0.0074602845 -0.49079633 -0.34088925 -0.22663464 0.03159947 -0.20244797 0.21196808 0.3209869 0.65522915 -0.539524 -0.07475908 0.1936208 0.06980916 0.12430575 -0.011693387 0.056683462 -0.3639688 -0.09353638 0.25477603 0.086263746 0.3203145 0.14787975 -0.2956737 -0.08495296 0.4751489 0.18203382 0.19800751 0.04473842 -0.15066484 -0.30857345 0.45076177 0.16199826 -0.09853089 0.8481982 0.4976671 -0.07530545 0.20768629
季 -0.5395001 0.3130825 -0.14984377 -0.15624014 -0.0048147314 0.32400626 0.21299775 -0.11491337 0.3147592 0.5493097 -0.15591012 -0.21632402 -0.2888684 -0.24932271 -0.7096421 0.13450298 0.2614456 0.36400026 -0.747093 -0.14436887 -0.019277476 -0.17063113 0.17572172 0.57979184 -0.11178642 0.20360558 -0.75440335 -0.5402557 0.2481751 0.052109733 -0.05409586 0.29058087 0.4872499 0.10841606 0.0068427366 0.059347283 0.22000504 -0.0745129 0.36608994 0.49033475 0.045822583 -0.083318725 -0.353794 0.10740591 0.06407782 0.058079597 -0.4449682 -0.09674231 0.2849655 0.10625735
臣 0.16019645 0.43859047 -0.34166875 -0.47624823 -0.07964189 -0.3004732 0.14784895 0.41308242 -0.5896747 0.5803516 -0.24080731 0.40598464 -0.5568624 -0.011021564 -0.14395635 -0.059740417 0.048686966 0.13361716 -0.3674795 -0.5208372 0.28047377 -0.07335138 0.070285834 0.044581737 -0.10090438 0.29445374 -0.13478638 -0.031603843 -0.29223266 0.601698 0.03750961 0.15497257 0.0009351576 0.20150039 0.18864419 -0.12939411 0.586155 0.14448515 -0.0990783 0.022514384 0.08394342 0.19966553 -0.36641136 0.20791097 0.23557615 0.3613288 0.3740396 -0.12861247 0.58396333 0.0029067243
贤 -0.3339764 -0.008806838 0.08598241 0.22817922 -0.22166719 -0.048051212 0.31781203 0.02081419 -0.22174469 0.6391691 0.29585782 -0.18315673 0.1820795 -0.2372146 0.44304106 0.43672997 0.05754518 0.031370297 -0.34399703 0.036512718 -0.040804565 -0.14544693 0.093590215 -0.09113431 0.03119264 -0.024384206 -0.11869773 0.02141429 -0.15889996 0.026896222 -0.0957234 -0.17961787 -0.018071676 -0.07527863 -0.60466295 0.031146789 0.09615377 0.23089372 -0.16635363 -0.07798161 0.7688601 0.40041453 -0.08383821 -0.52684397 -0.10369397 0.38476515 0.25667828 -0.27821788 -0.17975067 0.14873047
思 -0.21736394 -0.17815806 0.15639068 0.2077172 -0.056322806 -0.02207351 0.26507875 -0.26757038 0.22574982 0.75877774 0.27259395 0.015126663 0.13827966 -0.031818286 -0.17877325 -0.50448626 -0.08938399 -0.4303613 -0.24196222 -0.56147593 -0.055485588 0.44274235 -0.19843565 -0.15457113 -0.52086437 -0.28068683 -0.051526483 0.2514639 -0.47454906 -0.028354008 0.05261162 -0.009995062 -0.3561987 -0.12293051 -0.04103558 -0.44700858 -0.5899556 0.29134056 0.1155564 -0.12957554 -0.4445416 -0.27290154 -0.51365966 -0.17627873 0.461482 0.035752278 0.15489763 -0.41325128 0.11371567 -0.31098577
齐 -0.024472192 0.18044247 -0.07468163 0.48940185 0.08486051 0.1995053 0.32480314 -0.018932454 0.35221872 0.56907415 0.6329886 -0.42403153 0.09557919 -0.35327023 -0.045548752 0.3966393 -0.011195146 -0.4227193 -0.38616788 -0.17737684 0.04296117 -0.19463941 0.07848526 -0.25253543 0.1108418 -0.6030464 -0.31869012 -0.42330742 -0.12535883 -0.5296866 0.19668476 -0.46603957 0.5113209 0.017379064 0.34132046 0.059335288 0.53524244 -0.2884417 0.42370006 -0.052455977 -0.4668269 0.06235408 -0.47544304 0.06431134 -0.038875394 0.15737213 -0.01877746 0.25801045 -0.23837319 -0.07493394
义 -0.10219672 -0.028011872 0.37738556 0.328122 -0.32186794 0.0699948 -0.187562 -0.14812773 -0.24284512 0.78766096 0.15333903 -0.1678908 0.22998853 -0.049118243 -0.035408087 -0.5109273 0.2978971 -0.13699682 -0.07532558 -0.10639144 0.3792768 -0.20429486 0.51407886 0.10148148 -0.44132257 -0.17077672 0.19836096 0.088465 0.020486496 0.18900737 0.46887863 -0.11721313 0.058931448 0.08936028 -0.08629112 -0.292722 -0.055422544 0.0014188649 0.14699985 -0.42117056 -0.0011600545 -0.0527286 -0.07832665 0.068355836 0.5538915 0.1383911 0.3213471 0.061509673 0.02937358 0.03603413
正 -0.019179218 0.21363045 0.25105354 -0.2008491 0.07037618 0.24767691 0.24728812 -0.14169666 0.78993547 0.56078213 0.34951895 0.22455531 -0.713961 0.24966158 -0.13127081 -0.008129448 -0.4655105 0.3808692 -0.46371913 0.019133642 -0.09557142 0.5257577 -0.52366525 -0.14636731 -0.013172876 0.10231918 -0.13030948 -0.3690818 0.20628779 -0.09551544 -0.005906606 0.15932973 0.17750631 -0.45953724 -0.11466508 -0.13792005 0.025185255 -0.20661391 -0.28977886 0.34860912 -0.29506025 -0.2578871 0.11559721 -0.07889045 0.54866403 0.20842712 -0.59583724 0.06954723 -0.22536364 -0.028139606
命 0.3345703 -0.006224359 0.3455674 -0.34864113 0.35591674 -0.10412426 -0.15830386 0.38196355 0.18898763 0.65320086 -0.10576146 0.029631816 -0.0655525 0.070862904 0.10387404 0.25215587 0.11239102 -0.28612337 -0.20276783 -0.0816502 0.22222316 -0.17860796 0.5339521 0.20292437 -0.17546953 0.13219571 -0.6983511 0.078855455 -0.3864316 0.2588869 0.18074322 -0.12534365 0.03469116 0.1393498 -0.119109586 0.15762141 0.2596449 0.3529814 0.013314649 -0.3017177 -0.09636398 -0.5042981 -0.46987945 -0.14738515 0.3150179 -0.45104495 -0.12867387 0.25981516 -0.12443906 -0.031130875
曾 -0.21289507 0.5392819 -0.068493925 -0.25053748 -0.044468682 0.1375633 0.08058802 -0.009689297 0.31441152 0.49254835 -0.32683182 0.20908487 0.061185066 0.06906574 -0.29876667 -0.044291344 -0.32442212 0.21497674 -1.068093 -0.06553829 -0.20173262 -0.618553 -0.44002655 -0.2028863 -0.051670685 0.030166069 -0.23088387 0.51184916 -0.32503983 -0.19981062 0.029107524 -0.052302588 -0.093177296 -0.22916298 0.37384087 0.24326506 0.22156869 0.43347794 0.17841108 0.33221287 -0.092401676 -0.08678716 0.29764184 0.018443087 -0.18344714 -0.72110265 0.15478395 0.4496725 -0.012496507 0.004457609
伯 -0.046923846 0.048777916 -0.8020552 -0.27741545 -0.17612658 0.09627766 -0.104963124 0.19838242 -0.14461389 0.5686149 -0.34458843 0.051341306 0.2622055 -0.09756161 -0.073638625 0.099748746 0.29129708 -0.06144016 -0.7714806 0.0026554652 0.06364187 0.21177396 -0.113218576 -0.28740108 0.029234098 0.07660268 -0.07425671 -0.34284 -0.203475 -0.22548519 0.25355312 0.36237893 0.076529406 -0.5084498 0.14754525 -0.060988955 0.12122702 -0.2596351 0.45226175 -0.30338937 0.26521987 0.2553719 -0.56383497 0.62663096 -0.26936713 -0.06909909 -0.18590112 0.4736041 0.2189169 0.27843833
门 -0.32227662 0.50690866 -0.37868163 -0.45512536 0.27892283 0.12177055 -0.0978222 -0.3759302 -0.39966908 0.758793 0.028445734 -0.32221422 0.15216577 -0.16381103 0.040907707 -0.18110648 0.34292004 -0.8033572 -0.3614467 -0.26819888 0.4519808 0.47707304 0.17903738 -0.37367523 0.41738415 0.42243454 -0.41502982 -0.3722324 -0.24426126 0.1954833 -0.33996984 0.060330104 0.3868667 0.39987436 -0.11753574 0.34115657 0.13519403 -0.10440974 -0.19746867 0.003386645 0.069644734 -0.31546718 -0.27950063 0.05283095 0.32652214 -0.007808862 -0.4760888 0.1798879 -0.3470845 0.018002825
敢 -0.6887339 0.31883252 -0.27446935 -0.46204102 0.2230126 0.22085208 0.40241453 0.21182403 0.13543747 0.76686215 0.17887 -0.5643547 -0.16184266 -0.6779939 -0.414559 0.21992972 -0.092466824 0.5367364 -0.49179158 -0.5855055 -0.28174034 0.08243607 -0.5080156 -0.01052889 -0.35403743 0.060571007 -0.17681481 -0.121153995 0.40463373 0.6040935 -0.21648757 -0.26447093 -0.21538872 -0.20156558 -0.5405955 -0.24111162 -0.31988633 0.24009047 0.028836828 -0.37007776 0.074035324 -0.15697536 0.39101154 0.5609461 0.50548834 -0.0046973894 0.26363575 0.25301445 -0.38011977 -0.06123226
犹 -0.3945365 0.27764094 -0.058032747 0.203208 0.68583727 -0.19660364 -0.1674173 -0.30636716 0.2541334 0.79680234 -0.35884523 -0.05264945 -0.10304174 0.21634483 0.13086088 0.46697333 -0.0331108 0.49906054 -0.25945812 -0.4013624 -0.16475242 0.008925278 0.09325232 -0.17479956 -0.192416 0.28551105 0.2642673 -0.015228547 -0.26029432 0.3056237 0.14248145 -0.23119381 -0.21961688 0.5400751 0.163305 -0.100926846 0.6058367 -0.30571538 -0.32173735 -0.23471247 0.239024 0.3731386 -0.33035687 0.31076166 0.07122616 0.25920278 -0.09209627 -0.13942501 0.3019748 0.6676976
生 -0.058054708 -0.29204282 0.41613027 -0.35183498 -0.21333268 0.0027905696 0.18184747 -0.36857784 0.5045101 0.6888152 0.06357544 0.2457684 0.18667415 -0.00423464 0.15063986 0.07511446 -0.11193726 -0.38517874 -0.25651053 0.08646627 0.28905827 -0.10197215 0.1610708 0.1190109 0.19508047 0.36370417 0.42923656 0.34430256 -0.4262348 0.57154113 0.32937413 0.21001318 -0.028979735 -0.292861 -0.49835265 -0.20279402 0.30839953 0.1353116 -0.12291023 0.1665922 -0.18864714 -0.15881531 -0.03930958 0.122350216 0.058942575 -0.2913381 -0.5260355 -0.026316801 -0.15150827 -0.017442698
日 -0.36332753 -0.33542717 0.47471297 -0.12092842 0.78901464 0.054871134 0.5722951 0.3228435 0.6250157 0.6578083 0.017833533 -0.27042222 -0.103812225 -0.17420605 -0.3541109 0.021465868 0.048308637 -0.023499161 -0.280893 0.088069744 -0.70194733 0.0081105335 -0.38354152 0.22640578 -0.21655583 0.033194177 0.2149811 -0.041577205 -0.16682753 -0.49484769 -0.07007398 0.33722314 0.037293583 0.49971843 -0.11058094 -0.017322311 -0.18312618 0.38080746 -0.24731787 0.45768017 -0.02830262 -0.13979836 0.015458448 0.3667833 0.4112756 0.13543499 0.4732004 -0.045611512 0.19472255 -0.02187344
敬 0.108307704 0.7136282 -0.25335404 0.08553699 0.16658291 -0.044396058 0.21902105 -0.007936715 0.05389272 0.6950487 -0.025924878 0.14579757 0.09174887 -0.18127276 -0.010783645 -0.17617556 0.054677416 0.05183032 -0.27383855 -0.13249423 0.4164391 0.4700703 0.18825799 -0.003894205 -0.3099118 0.016152857 -0.37383044 0.25782993 -0.18385665 0.17056608 0.52953863 -0.10127829 0.0011356544 -0.16555886 -0.6485642 -0.15018986 0.15469441 0.010267548 0.0806045 0.038439635 -0.0069494047 0.12697607 -0.10730211 0.12050758 0.70113283 -0.3631397 -0.053205106 -0.5878808 0.00280422 -0.1818357
难 -0.52197576 0.029847994 0.011370565 -0.07396332 -0.1898512 -0.2251969 0.3895056 0.16299006 -0.29344973 0.6324438 -0.46441212 0.39764312 -0.42103347 0.38078195 -0.08953854 -0.32007208 -0.21890621 -0.08569397 -0.17974353 -0.2916938 0.56968284 -0.05821893 -0.15237665 -0.19931006 0.32034248 0.43515822 0.11918449 0.4579437 0.031003475 0.016100748 -0.070595905 0.32943413 -0.22973605 0.10362581 -0.34328583 -0.18678726 0.27383086 -0.013479093 0.4105325 -0.6385947 0.13240664 0.10063027 -0.055432413 -0.045928255 0.15301663 -0.20419158 0.30648535 0.07299624 0.39375192 -0.12778243
直 0.16502662 -0.0029166788 -0.054785486 0.30333942 -0.3276203 -0.043829434 0.115286574 0.26140425 0.023477502 0.71300876 -0.032616455 -0.012945505 0.8688512 0.19328557 0.44522 -0.105061255 0.1701616 0.16487585 -0.218889 0.4900246 0.1828983 0.15722823 0.3724642 -0.34257725 -0.44578448 0.64180744 0.25317135 0.07642953 0.04580909 -0.3874754 0.13908531 -0.02004133 0.07192414 0.009423487 -0.31214502 -0.44546518 -0.012889547 -0.27622387 -0.12106012 -0.18730225 -0.13116352 0.2153852 -0.17296197 -0.071025535 0.13293785 0.1758947 -0.08302651 -0.23211282 0.08239836 0.042166464
丧 -0.1739419 0.090618476 0.064424984 0.3366333 -0.16582565 -0.015202742 0.53398514 -0.113724716 -0.18749589 0.6117784 0.3809253 -0.054134727 -0.27780145 0.22313555 -0.042071495 0.39139825 -0.34341776 -0.20048232 -0.3307817 -0.076557346 0.31370217 -0.06393134 -0.11463735 0.15322798 -0.28649202 0.10605145 0.45657986 -0.02863708 -0.55046517 -0.5081269 0.61637324 -0.057555158 0.34625477 -0.13442042 -0.25564155 -0.30099976 0.25179914 -0.040475313 0.10603831 0.43386653 -0.22332765 -0.096846215 -0.4423255 -0.045659613 0.2339826 0.15618604 -0.031356413 -0.0726283 -0.22982712 -0.4119217
说 0.52410114 -0.0047171935 0.19599128 -0.11769392 0.048185278 -0.05490526 -0.016847577 0.2117395 -0.56017053 0.5334853 -0.256516 -0.41065696 -0.46333602 0.27987105 -0.30140832 -0.42730314 -0.37840027 -0.02625814 -0.69665223 0.31121844 0.12791248 -0.1264835 0.20038722 -0.12538232 -0.06963631 -0.022983475 -0.1565241 -0.31254345 -0.024168724 0.37262604 0.36330873 0.16490628 -0.32436475 0.4606103 -0.05169321 -0.40890384 0.11774335 -0.07639039 -0.5095981 0.116232984 -0.4333394 -0.2714797 0.29931423 -0.1261609 0.8080867 -0.17960294 -0.6621055 0.019715162 -0.25622898 -0.114743195
自 0.00400947 -0.50193924 0.05997031 -0.15386 0.5366249 -0.03459157 -0.2279092 -0.3409982 -0.15309705 0.6852749 -0.15973833 0.29964685 -0.12341432 -0.1954623 0.028994432 0.072946966 -0.0078008086 0.1163585 -0.23477112 0.017552223 -0.014616828 0.26027045 0.01739041 -0.18576945 -0.35500133 -0.1439737 -0.25060686 -0.20276679 0.03919202 -0.21492416 -0.28264257 -0.22924404 -0.22377703 -0.23402849 0.10432307 0.48629755 0.008934428 -0.1534383 0.28403786 0.44669625 -0.050032165 -0.15187918 0.21643041 0.037379265 -0.18694742 -0.120822065 -0.5664866 0.09180459 -0.5012244 0.3082589
用 -0.12849368 0.15925175 -0.177321 -0.02362608 -0.32202205 0.05332646 0.23677467 0.12694284 0.2462037 0.83541363 0.09486142 -0.10440435 -0.1503191 0.16202617 0.054102447 0.26431113 0.27076 0.0063220654 -0.23807983 -0.02179039 -0.047136858 -0.028885063 -0.52223974 -0.0421976 0.5043118 0.36040342 0.24985506 -0.34005913 0.59748787 0.050384883 -0.49557218 0.022539793 0.01865428 0.1022778 -0.24823438 0.038012642 -0.59919167 -0.26187757 0.3139184 -0.108129844 -0.0063039074 -0.07009493 0.31734174 0.18323466 0.07863148 0.17173493 -0.18448529 -0.15660456 -0.19865721 -0.15129055
周 0.22024381 0.088965274 0.13541584 0.017799893 -0.34011197 0.02938417 0.22487801 0.24687982 -0.060788054 0.7696597 -0.37583005 -0.4547911 0.3041944 0.004446916 -0.3314354 0.31929088 0.3362793 -0.32131436 -0.26907304 -0.016557861 0.30854115 -0.036076564 0.14184943 -0.26138422 -0.01870917 0.050039798 -0.5555717 -0.41241196 0.3115525 -0.02474496 0.42498153 0.29134727 0.25978848 -0.21462646 -0.049033877 0.1264865 -0.16489449 -0.078657694 -0.043434706 0.2135438 -0.0209964 -0.07990146 0.12317553 -0.624096 0.13699846 -0.17413841 -0.14224635 0.47972175 0.4153843 0.32103977
颜 -0.6535189 0.256643 0.26169774 -0.049402807 -0.0084497845 -0.043846674 0.36775362 -0.22485673 0.5120574 0.5269627 -0.39206317 0.20005815 -0.48295915 -0.19826655 -0.11439765 -0.06741453 -0.20857523 0.44218355 -0.56338745 -0.48327538 0.15861732 0.15415683 0.1284523 -0.5299016 0.07683487 0.16035566 0.20608035 -0.029525599 -0.06157195 -0.15405364 -0.23625128 0.31371546 0.103203185 0.16373605 -0.22779866 0.3230013 0.1740109 0.59056365 0.47097638 -0.2186282 0.02228352 0.065027475 -0.08801873 -0.48105624 -0.014194696 -0.0009829619 0.38830757 -0.49792343 -0.12156569 -0.035305332
年 0.14403225 0.1932956 0.02443126 -0.44221988 -0.13038242 0.6648859 0.028328918 -0.06303169 -0.328379 0.6239163 -0.76008624 -0.391136 -0.20693502 -0.78137267 -0.03064417 -0.071961075 -0.0055964254 0.0037334268 -0.40925172 -0.0028477989 -0.3459976 -0.040502913 -0.07426995 0.20020372 -0.35676947 0.44731623 0.46651247 -0.14769998 0.21616733 -0.07897695 0.085723706 -0.5107053 -0.5546855 -0.32643336 0.055668645 -0.2820532 0.22016259 -0.03216497 -0.22244622 -0.073772386 -0.0030169885 -0.030799102 -0.17678557 -0.13979392 0.18562184 0.025559261 0.063784756 -0.3282444 0.4438152 0.07333266
告 0.05846638 0.07393486 -0.21064892 -0.0018429538 -0.14837092 -0.015486395 -0.15707831 0.3411632 0.2780213 0.55096835 -0.14482334 0.06995614 0.2116439 -0.29928923 -0.102051206 -0.08176577 -0.30964053 -0.08049574 -0.6306544 -0.091496736 -0.060319304 0.4051612 -0.27423194 0.07491772 -0.07979141 -0.07992048 -0.29119778 -0.14561422 0.14739001 -0.8923595 0.28019348 0.09590497 -0.2441601 0.41338694 -0.1748443 -0.43804118 0.20998266 -0.34020323 -0.2916389 0.037563235 -0.09133587 0.32116485 -0.47455454 -0.19602065 0.18479457 0.29987884 -0.149217 0.38503486 -0.8767613 -0.20096225
十 0.40198556 -0.23022532 -0.12188604 -0.4942027 0.094929986 0.53953874 -0.12019991 0.54423606 0.29844332 0.6703627 0.2865782 0.018963361 0.21396717 -0.41960153 0.5125156 0.044987973 0.38355196 -0.18781368 -0.0797679 -0.17577294 0.4585249 -0.08760054 -0.3447906 -0.14688498 -0.39413717 0.13517548 -0.15345666 -0.38433155 0.015410448 -0.18113859 -0.18571937 -0.22714418 0.1109869 -0.25020564 0.34134308 -0.107302226 0.35015222 -0.29630074 0.6845662 0.23904411 -0.03473731 -0.64819694 -0.09845231 0.0024108535 0.062482085 -0.19177878 0.16468737 -0.0762577 0.48765203 0.12960038
怨 0.36651152 -0.36055425 0.17377731 -0.04484264 -0.43407455 -0.22510026 0.38710475 0.2621536 0.31851244 0.40838292 -0.3569153 0.19481802 0.2734912 -0.08005675 0.03079255 -0.13961212 -0.028235598 0.15416193 -0.44999525 -0.114800304 0.06361711 -0.32112032 -0.0053566047 -0.18600309 0.013044859 0.44291615 -0.15465672 -0.4155805 0.11821406 0.20613594 -0.21703501 0.6825051 0.017496074 -0.06782737 0.2099469 -0.41008174 -0.16877557 -0.10597422 -0.37755254 -0.3629897 0.029098306 -0.064867996 -0.1284699 0.7363532 0.2985017 0.2571304 0.11712439 0.35071817 -0.2277749 0.19978844
达 0.37957993 -0.27111137 0.121232696 0.31506225 0.27955317 0.28004578 0.054380484 -0.15557943 -0.004765633 0.46573958 0.13247171 0.0490357 0.28971437 -0.3344199 0.22148497 -0.030004883 0.12142122 -0.16198221 -0.32302436 0.20454799 0.26030347 -0.027427675 -0.34902436 -0.0015603747 0.32727432 -0.32042235 0.05109672 0.06546937 0.032100033 0.023820201 -0.29119703 0.15517887 -0.11063247 -0.154421 -0.14699258 -0.20723219 0.26386872 -0.023533275 0.78321505 -0.10967512 0.27852508 0.06308614 0.18765453 -0.101104245 -0.040481236 0.31194374 -0.047690563 0.41795796 0.22298265 -0.14395855
孝 0.04222907 0.12168892 -0.01679043 -0.05932181 0.1474633 -0.26065305 0.6050425 -0.11820374 -0.3269458 0.40373284 -0.27406994 -0.09318055 0.8632938 0.32850194 -0.11021767 -0.26250565 -0.028593812 0.061061632 -0.6696125 0.08342983 -0.1437258 0.5081794 0.1422995 0.29804766 0.17430016 -0.094248615 0.029869078 0.45684972 -0.15450473 0.2860538 -0.31600899 0.22614531 0.43779022 -0.21379115 -0.102484964 0.6073863 0.020281445 -0.3787452 0.07513502 -0.05601132 -0.36763215 0.018489398 -0.56464744 -0.2916081 -0.08704749 -0.38550442 -0.19379711 -0.03755099 0.31092057 -0.6056041
弟 -0.25224966 -0.16383737 0.15204942 -0.5378625 -0.09547403 -0.20334558 -0.0067514833 -0.018528298 -0.35259935 0.687183 0.14904182 -0.28504813 0.27261266 -0.07067237 -0.40824062 -0.38044003 -0.1166835 -0.24923138 -0.41785872 -0.025111135 0.0699219 0.70191664 -0.00984047 -0.067747414 0.13843499 -0.4111968 0.2755814 -0.30563733 -0.24013324 0.25166073 -0.5610221 0.11578259 0.28827882 -0.111373164 -0.310344 0.008426897 0.009075747 -0.19203925 -0.27759337 -0.2561489 0.30614167 0.090965346 -0.09661385 -0.21974383 0.31337285 0.19587189 -0.27328455 0.026805181 0.013966962 -0.10180842
至 -0.29771045 0.091328956 0.027384643 0.34492546 -0.14550275 0.05352227 0.117775686 0.312149 0.46533257 0.780758 -0.027267667 -0.0430866 0.2025472 0.28279224 -0.2754764 -0.0026202507 -0.35725805 0.35502034 -0.17823297 0.18822585 -0.15248926 -0.34059647 -0.123293534 0.23934531 0.031807195 -0.34358475 0.011234832 -0.15071869 -0.25251767 0.0504685 0.027153239 0.011139499 -0.078612246 0.34485367 -0.1257399 -0.43182078 0.17773212 0.21542647 0.32515797 0.039336305 -0.13262393 -0.621263 -0.43475133 0.15693133 -0.05445608 -0.07205974 -0.27237555 0.49992916 0.15641768 -0.4960681
先 -0.15518919 0.20260191 -0.034706358 0.23499894 -0.38202262 -0.14476694 0.27896115 0.13226923 0.29686162 0.62326616 -0.16680321 -0.34184027 -0.040904664 0.21981701 -0.47941947 0.0542071 -0.17706974 -0.11031358 -0.6321866 -0.04883192 0.088656895 0.3856006 0.34528828 -0.15634549 -0.30588642 0.068975106 0.16677538 0.27749437 0.21944918 0.1576022 -0.017991986 -0.16235402 -0.37786 0.0026916414 -0.11118513 0.5999738 -0.06635431 0.45609784 -0.6047209 0.2631913 -0.1892638 -0.68020797 -0.08542547 -0.20084956 0.36102396 0.1087133 -0.4664058 0.12985437 -0.25111258 -0.3139044
师 0.19598374 -0.15092182 0.38711566 -0.2758628 0.002298541 -0.056969956 -0.19087507 -0.23263334 -0.18144323 0.58810246 -0.043339666 -0.3021247 -0.073540755 -0.07095202 -0.20395933 0.35213083 -0.057830233 0.14293563 -0.46013722 -0.077657744 -0.6842506 -0.34842083 0.03527779 -0.24513157 -0.1008244 -0.13027577 -0.22035621 0.07269478 0.48383737 -0.04630929 0.15950009 0.03399522 0.33507872 0.15503706 0.532961 0.56769216 0.59434175 0.07599352 0.24260207 0.1670126 -0.013771642 0.5722816 -0.2101885 -0.31480277 -0.16377333 -0.18050064 -0.021749178 0.31543198 -0.24619147 0.028893378
女 -0.67390025 -0.22664773 0.01616116 -0.38087147 0.023382904 0.0041203974 0.038823605 0.08678185 -0.10442623 0.5962374 0.68031055 -0.10676521 0.15245946 -0.0709969 -0.12915277 0.20595023 0.2781329 0.37573293 -0.49204403 0.04384296 0.38872746 0.0074178125 0.08768167 -0.31133252 0.036580246 -0.719348 -0.288489 0.291281 -0.11173135 -0.075676054 0.3725721 0.126556 0.273304 0.1514751 -0.17771666 0.21639805 0.6559016 -0.118923746 -0.14106964 -0.14309324 -0.08282835 0.05980213 0.10026337 -0.24282573 0.07324476 -0.22779068 0.28459 -0.19501081 0.28585216 0.35565436
多 0.14594497 -0.34568453 -0.123690926 0.5339853 -0.03434059 -0.5998455 0.00069001963 -0.015084208 -0.29195675 0.6232523 0.33211803 -0.19902158 0.4161492 0.22368316 -0.19806409 0.27544647 -0.44959655 0.23351277 -0.3719839 0.7665601 -0.34010842 0.27450702 0.20029962 -0.15879673 -0.31726995 0.26628354 -0.083646536 -0.05090319 -0.06949149 -0.06316772 -0.21593413 0.1704374 -0.329082 -0.32082498 -0.28845283 0.020538876 0.12391629 0.14476818 -0.36476922 -0.21824943 0.44253802 -0.25812966 0.016558124 -0.035926726 0.5546318 -0.3619851 -0.09137074 -0.018899761 0.36542037 0.09064528
忠 0.32514358 -0.057253994 -0.59991664 0.6583669 -0.35912105 -0.048425637 0.5981893 -0.0079379855 0.08228765 0.5300559 0.2089407 0.54318506 0.47329676 0.47926265 -0.19748257 -0.014006367 0.91365415 -0.41646755 -0.5996743 -0.24070923 0.0863656 0.108949006 0.16743743 -0.14387366 -0.30362627 -0.4892238 -0.032848407 0.23679042 0.31117213 -0.098906666 0.6083222 0.2145166 -0.40206063 0.23778756 0.12061729 -0.6355656 0.08989896 0.046578545 0.023193382 -0.40541637 0.11591584 0.20663041 0.40172735 -0.029662214 0.59312147 -0.26984942 0.20879738 -0.098799735 -0.7996014 0.079551436
四 0.6674476 0.044138387 -0.21645589 -0.44825834 0.092440315 0.023133174 -0.22023532 0.12459146 -0.21285236 0.48859668 -0.39883736 0.19770582 0.45552114 -0.5879966 0.26727033 -0.11867673 -0.07325198 -0.013781198 -0.31303957 -0.06397015 -0.3091697 -0.0068449182 -0.39424273 0.16689669 -0.36644354 0.13687223 0.2376357 -0.19028275 0.27619267 -0.39087734 -0.14703374 0.017083291 0.006419587 -0.3914416 0.25507453 0.0040020286 0.36770713 -0.75912595 0.43622985 0.070087925 -0.23156248 -0.32333988 0.36077553 -0.55601573 0.11584243 0.07141285 0.62916094 0.13710427 -0.097126536 0.17017446
疾 -0.042350058 -0.08841605 -0.373441 0.23319934 -0.21150802 0.22592847 -0.2701877 -0.0475223 -0.11713008 0.47608417 -0.3073417 0.27188155 -0.16766195 0.06663332 0.20061344 -0.47992805 0.17908196 0.39752012 -0.46274596 -0.25473225 0.085924536 -0.10844585 0.44519427 0.35157222 -0.003649436 0.05785841 -0.43643758 -0.28878176 0.34969863 -0.15103154 -0.4792873 -0.189766 -0.08505238 0.1275934 -0.15813403 -0.25952482 0.23480855 0.23866251 0.2722355 -0.106998 -0.17836405 -0.20897673 -0.3782999 0.03692091 0.047193658 0.24755083 -0.094391234 0.34841588 -0.37030187 0.5824158
服 0.21395099 0.028306874 -0.2844403 -0.122982934 -0.029420784 0.047371566 0.02931591 0.012684126 -0.18459803 0.8886171 -0.19979368 -0.13256006 0.41516617 -0.23564327 -0.1896265 0.09991134 -0.21479411 -0.14229982 -0.017974878 0.04028923 0.116339065 -0.2557741 0.21702738 0.12891714 -0.3768916 -0.464589 0.0041927956 -0.27390608 0.09748916 -0.34777167 0.6543725 0.54493946 0.10468277 -0.17212997 -0.015513522 0.08891645 -0.5199963 -0.89914846 -0.0743659 0.28702706 -0.13990635 0.24259956 0.02299656 -0.3766948 0.77970046 -0.10977366 -0.47434604 0.62697744 0.049322233 0.15675275
氏 -0.31085163 0.05259615 -0.28206742 -0.5667637 -0.031047579 0.045941953 -0.2465528 0.13901329 -0.3127429 0.733854 -0.6191086 -0.06861216 0.15017584 -0.49559754 -0.25742337 0.31308568 0.15662743 -0.14763592 -0.61826164 -0.5690138 -0.052416615 0.0009550685 -0.053248864 0.17890665 -0.05919266 -0.056695458 -0.32101288 -0.024421796 0.1767475 0.282682 0.08588327 0.36414492 0.34587604 0.00049256766 0.10079321 0.18207231 -0.07800284 0.0643537 0.3319485 0.37624872 -0.15803042 0.06384263 -0.20411915 -0.26742712 -0.13208677 0.14340025 -0.82882255 0.0075947326 -0.16167907 0.010854109
冉 0.1334019 0.056701813 0.0894864 -0.23893501 -0.18740566 0.049576323 -0.11969936 0.25513095 0.26518518 0.55996275 -0.07538971 -0.029755585 0.302643 -0.26461127 0.081550576 0.08853887 0.26844564 -0.094988994 -0.71687317 -0.6392843 0.13227352 -0.18223993 -0.103941746 -0.40419835 -0.38811067 0.37052467 0.1202377 0.108587496 0.048291475 0.1391802 -0.059792418 0.33136544 -0.03717465 -0.028531728 -0.13977471 0.49641985 0.4129277 -0.18020792 0.20693344 -0.1963695 -0.011161478 0.42795253 0.15148729 0.15458192 -0.52448153 0.046607617 -0.21349268 0.48784032 0.4304734 0.30975378
将 0.22440375 -0.17989574 -0.42935845 -0.24082252 -0.14474666 -0.03582392 -0.06544303 -0.069458514 -0.3013808 0.6833949 0.14186372 -0.2625089 0.2851887 0.24808227 -0.19161344 0.2118386 0.10488848 -0.383892 -0.3574329 -0.25522912 -0.42599568 -0.13266711 -0.03174241 -0.004731352 -0.12219763 0.26277703 0.09173769 0.09685954 -0.12775254 0.06662157 -0.1344248 0.28916997 -0.12592645 0.55771035 -0.06709575 0.08528336 0.15493122 0.14509977 -0.17329097 -0.38992268 -0.03667056 -0.6118875 -0.29178208 0.3916597 0.038820118 -0.31684846 -0.20005748 -0.03998884 0.3247041 0.10912665
士 0.057914075 -0.31933036 0.055749718 -0.2528574 0.30653426 -0.07785402 0.10593806 -0.11505367 -0.31459466 0.35757554 -0.64489204 0.25129956 0.1417436 -0.0529325 0.7365688 -0.058004856 -0.20989904 0.28237575 -0.58985096 0.15891437 -0.001981598 -0.6614633 -0.54140645 0.30227908 -0.51176417 -0.39209318 0.2724441 0.043576933 0.1409941 0.43806684 -0.066172734 0.5164932 0.6627266 -0.26100436 -0.40994334 0.092320345 0.24747427 0.07304372 0.1063059 0.08253677 0.16744137 0.20404576 -0.41817486 0.08402451 -0.024083361 -0.07280365 0.185916 0.2788945 -0.025774341 0.027247524
丘 0.05976699 0.2219258 2.3239838e-05 -0.3122192 0.17893074 -0.035761297 -0.25478557 -0.36308277 0.018287499 0.6594128 -0.09771761 -0.29150832 -0.25196955 0.36824772 0.8461992 -0.06778122 0.45417663 -0.037930258 -0.57950985 -0.28524747 0.3935761 0.5462148 0.022643354 0.073069 0.015997857 0.116521075 0.343754 0.41154125 0.022778917 0.20743144 -0.2553961 -0.030252278 -0.24872763 0.57552046 -0.26144293 0.32991648 0.19170791 0.50840616 0.3224657 -0.42904234 -0.28705922 0.39916828 0.1697912 -0.36442634 0.09742426 -0.3834053 -0.09526905 -0.1366069 -0.58999133 -0.57571346
身 -0.381693 -0.09864668 0.5106794 0.07904448 0.2648467 -0.32417855 0.29928344 -0.3397548 0.16314054 0.6835547 -0.92499214 0.075497866 -0.03044421 0.24871017 -0.32653877 -0.012901081 0.14702421 0.32252488 0.033844635 -0.51601595 0.39524427 0.024067586 0.08834922 0.28486276 -0.17698085 -0.07009841 -0.039102927 -0.045619644 0.0079435 -0.5629721 -0.4345852 -0.14641215 -0.3609317 -0.3421489 0.12137588 0.26221618 0.35997713 -0.697244 -0.300253 0.2897415 0.047300145 -0.14710651 -0.3386415 -0.07014041 0.2592049 0.5027034 0.17708452 0.642842 -0.38776997 0.09888285
入 -0.43296272 0.2909348 0.10277618 0.02431382 0.09018405 0.16289108 -0.15664779 0.8095926 -0.4240734 0.8129765 -0.27280656 3.5886085e-05 0.5373497 -0.0009898159 -0.4945488 -0.39683905 0.31684458 0.011507169 -0.4155651 -0.3324517 -0.3501297 0.5259495 -0.050567467 0.24710989 -0.102724396 0.1842494 -0.23032857 0.48502496 -0.39636523 -0.18861426 -0.3603626 0.15169619 0.61728495 -0.27596182 0.3185487 -0.02460638 -0.004015083 -0.32473618 -0.08334833 0.02632759 -0.6506842 -0.41543654 -0.2977331 0.059131663 0.24650486 -0.47085628 -0.12134555 0.758322 0.20245083 -0.012997782
志 0.31473807 0.37993553 0.15440495 -0.07978929 0.18934031 0.25415078 0.044601273 -0.114894405 0.041019317 0.5565825 -0.56604195 0.352096 0.18449894 0.40138227 -0.48529392 -0.34232023 -0.15772533 -0.21551894 -0.5691969 -0.44527113 -0.042781718 -0.046836946 -0.18913706 -0.24362814 -0.33072668 0.20667247 -0.16908477 -0.0771836 0.3687467 0.23059495 -0.21633834 0.09534227 0.113436475 -0.28661683 0.11425308 -0.56133413 0.30715215 0.2849976 -0.095010325 0.40871286 0.55601233 0.018885769 -0.51872414 -0.08456774 0.20119226 0.07218835 -0.20188454 0.43553948 -0.5839139 -0.3377292
耻 0.3848167 -0.38635477 0.069942035 -0.7642455 -0.42671683 0.12399324 -0.39684826 0.107802175 -0.051803 0.6945124 0.15419143 0.13369088 0.015046169 -0.19273432 -0.2283705 -0.17883167 0.15876737 -0.014175761 -0.2222477 -0.12751262 0.25478485 -0.19942047 0.11871311 -0.07312111 -0.021230387 0.10468381 0.028486658 -0.008077952 0.061609957 -0.11502243 -0.42687312 0.17686208 -0.53309035 0.45353192 -0.34090123 -0.037902873 0.21938887 0.39862624 0.1582223 -0.38940245 -0.027073078 -0.34516588 -0.022020495 -0.17526047 0.4704736 -0.3559832 -0.28535318 0.35079113 -0.12028887 -0.16980791
失 0.17053893 0.014182066 0.29964343 -0.1398651 0.13211693 0.32413283 0.049411662 -0.01676291 -0.03653052 0.8726955 -0.43083236 0.40076864 -0.16685411 0.44923347 -0.18531749 0.15532614 0.18337941 -0.46361047 -0.015429712 0.44567963 0.33182812 0.17406198 0.17426164 0.55855805 -0.12452381 0.6710572 0.052031994 0.17358652 -0.5590948 -0.5237308 0.29808813 0.0016029523 -0.17344978 0.11965998 0.06014645 0.10759474 0.2073597 0.2703096 0.16672578 0.3501067 0.05538292 0.54455715 -0.008755887 0.4350861 0.5192364 0.14486958 -0.023493415 0.3632474 -0.21895248 0.46544802
安 0.33768845 0.1350734 0.13064069 -0.22686772 0.10625782 0.093014374 0.3520945 0.24696344 0.21379271 0.66074824 0.29364935 -0.092363685 0.46433282 0.22313583 0.038744338 0.3373887 -0.38855648 0.24844418 -0.37516928 0.015964132 0.6191663 -0.2243136 0.09808131 -0.1296125 0.11785717 0.28768203 -0.14085208 -0.14860597 0.17539907 0.02016889 0.16381064 0.3058466 -0.07025419 0.10496994 0.015791286 0.38832745 -0.28954592 -0.09303572 0.0755154 0.029766444 -0.32932466 -0.2579937 0.49062747 -0.2826942 0.5147729 -0.090398245 0.12504832 -0.30217403 0.5276061 -0.032579415
富 0.24847792 0.094467774 -0.14919062 -0.010741618 -0.47870472 -0.16616979 0.58945405 -0.3024302 -0.07175852 0.6831755 -0.31858745 0.26466426 -0.31289297 0.11229367 0.40491912 0.41216272 0.027169693 -0.38817313 -0.3942763 -0.38009733 0.18540461 -0.2950337 0.1355297 0.17638193 -0.18882737 0.12757155 -0.22855587 0.32880008 0.12115258 -0.23772305 -0.16328347 0.32012823 -0.002581222 -0.17747086 -0.25000572 -0.45557868 -0.4671824 0.047160827 -0.08259839 0.3654884 -0.044656765 -0.50819117 1.0146002 0.12059441 0.16648765 -0.17706448 -0.06047939 -0.42509097 0.40482605 -0.014755113
赐 0.22976069 -0.07658494 -0.139331 -0.7179962 0.46980813 0.116270006 0.013530863 -0.29397255 0.47549987 0.39228696 0.34205157 -0.09097675 0.22314021 -0.1862106 0.10336764 0.10009228 0.26983082 -0.26733387 -0.6945592 0.23102224 0.1745322 0.35990286 -0.14678757 0.25039998 0.27500573 -0.16655216 0.27758428 -0.022121241 0.1939897 0.0727914 -0.035116285 -0.19837864 0.37300715 -0.38868588 0.091698684 -0.4125733 0.52048 0.46208394 -0.24791989 -0.27527413 -0.12600575 0.16300751 -0.29839116 -0.1385307 0.23230882 -0.107245356 -0.2781401 -0.048998997 -0.18448386 -0.17972708
患 -0.5291447 -0.04026052 -0.13502343 0.028683709 0.30416584 0.3529141 0.17825876 -0.012496492 0.09098213 0.8270921 0.17661382 -0.32897964 -0.31137764 0.011708003 -0.21720134 0.1893559 -0.24984635 -0.2715145 -0.17238303 0.36374754 0.40908095 -0.19595823 0.14665696 0.40878868 0.18238711 -0.1434629 -0.6071182 0.20336449 -0.64581615 -0.05327937 0.042803846 0.065479085 0.17212152 0.061356626 -0.30684 -0.18741624 -0.05149554 -0.13185522 -0.2523424 -0.4612281 0.10837331 -0.21121238 0.27589116 0.53158927 0.75038254 0.15680416 -0.060401663 -0.300527 -0.0013523791 0.005072134
百 0.19009613 -0.21270321 -0.25576264 -0.40952358 0.2682046 -0.08687834 0.46739843 -0.48647663 0.43815118 0.75830877 -0.4617576 -0.14786841 0.40652904 0.08382834 0.50719666 0.83436817 0.11286565 0.24608694 -0.23846938 -0.56816643 -0.023875225 -0.03040229 -0.06602174 -0.09938947 -0.23064671 0.08992469 -0.3557861 -0.032731563 -0.006967301 -0.056043077 0.39791256 0.01644864 -0.23614788 0.4951231 0.23424052 0.099538304 -0.52460086 0.41984138 -0.27439347 0.070249535 -0.3753946 0.12483594 -0.36698726 -0.03173121 0.36414975 -0.030378083 0.49675754 0.007296718 0.40951583 -0.38656884
回 -0.50204176 -0.048710983 0.24269004 0.21929878 -0.1770319 -0.21391188 0.12393216 0.1635988 0.1773892 0.53145313 0.44938594 -0.21188009 -0.23797546 -0.15975858 0.27667573 -0.043336235 0.059831105 0.09002621 -0.5164724 -0.32834795 0.21248542 0.27044773 0.04631958 0.2581395 -0.1931038 0.07560359 0.35184255 0.09817539 0.19735326 0.027578777 -0.088076256 -0.039810866 -0.24450073 0.043647427 -0.056870602 0.011121457 0.35876697 0.5511521 0.050987903 0.5738418 -0.1387487 0.19117714 0.11166567 -0.20925249 0.058409836 0.36755663 0.42322958 -0.30758297 -0.3142957 0.06907954
宰 -0.5554991 0.041056972 0.037501343 -0.55843425 0.51925087 -0.29099715 0.082214266 -0.24876603 -0.51270396 0.7190642 0.16034597 -0.74233586 0.052128278 -0.41899222 -0.53550506 0.0018295128 0.270639 -0.39349273 -0.61611116 -0.102134354 -0.38051918 -0.33851004 -0.071308486 0.509644 0.19889341 0.16607118 -0.023778643 0.32111388 0.19883335 -0.28923467 -0.16296412 -0.16360956 0.24379398 -0.009668665 -0.29858297 -0.29297376 -0.0006707561 -0.089445926 -0.12370037 -0.0030777059 -0.3502659 0.6215351 -0.66853476 -0.31093886 0.046221554 -0.4009675 0.34524685 -0.06968754 0.5645722 -0.04514189
朝 0.39791942 -0.56885344 0.22284658 -0.48283854 0.01793988 0.16693038 0.22867899 -0.067526534 0.22666447 0.46638045 0.033251263 -0.3471387 0.4461095 -0.4216412 -0.016776318 -0.23142022 -0.3155605 -0.70402193 -0.36202198 0.051594917 -0.28315467 0.31331423 0.18620935 0.011982568 -0.86182904 -0.6336408 -0.31973886 -0.07051695 -0.033751976 -0.19694093 -0.30408588 0.025310613 0.08294589 0.0890637 -0.03337532 0.30452263 0.1085404 -0.5802747 -0.010605704 -0.34249893 -0.23937061 0.26903513 0.20440474 -0.5987931 0.31402355 -0.45603156 -0.09931797 0.31690103 -0.2078669 0.017293008
莫 -0.11698532 -0.3936094 0.0679401 -0.025742492 -0.06379325 0.28410378 -0.04720226 0.4686296 -0.4452934 0.6609238 0.40663168 -0.1437677 0.09983829 0.11035647 -0.16843405 0.1090776 0.00659201 -0.04741049 -0.34761488 0.39133415 -0.06438315 -0.049066477 -0.13849905 0.016680446 0.17715828 0.5365112 -0.09175952 0.17607392 0.45626754 -0.1017611 0.2914216 -0.30378056 -0.24727233 0.1828759 0.14820452 -0.08635463 0.526459 -0.25587362 0.046949245 0.50392574 0.33537593 0.14283903 0.12766908 0.8080463 0.48050007 0.49814916 0.2034941 -0.54192275 -0.18274917 -0.11670564
若 -0.45401332 -0.29385826 -0.04048225 0.2073928 0.08409871 0.007819919 0.06953126 -0.19222254 -0.63301575 0.50909686 -0.28127334 -0.38106707 -0.33614913 0.014387045 0.27215976 -0.07955594 0.009359501 0.22565368 -0.64154625 0.29295358 -0.27269903 -0.20557494 0.03668627 0.17092487 0.2421825 0.38976637 0.2066858 -0.06171489 0.10822867 0.060306408 0.011662975 0.090980925 -0.07537988 -0.35006145 0.21889827 -0.2980656 -0.14234981 0.30161092 0.32494012 0.18179578 0.26272437 -0.1281663 -0.079141885 0.37703186 -0.08842323 0.2019971 -0.20137155 0.21728446 0.3881373 -0.05684165
云 -0.19826804 -0.2820026 0.5747646 -0.05068181 0.108826 -0.067837335 0.38662437 0.38610455 -0.33892363 0.5944772 -0.18028964 -0.036248073 -0.08193827 0.41971415 0.11773214 0.10334035 0.41306645 -0.43680593 -0.8414589 0.013853449 -0.53642577 0.20282286 0.05923093 0.26556814 0.32922193 -0.26709664 0.06326227 -0.14696117 0.14709452 0.53428406 -0.2429278 -0.46399534 -0.2276198 0.028694369 -0.21871023 0.011781912 0.09050448 -0.36356163 -0.5148896 0.75504094 -0.29884413 -0.81827694 -0.35674113 -0.19232929 -0.28019515 -0.26998267 -0.21810031 -0.41946468 0.38895488 0.13934457
孙 -0.23096964 -0.43303785 -0.0012343139 0.0643447 -0.42469752 -0.049990963 0.023324965 0.45678768 -0.015069722 0.5288988 0.20815524 -0.22498813 -0.19733222 -0.8256988 -0.06671429 -0.3082665 0.21106695 0.02022582 -0.44869584 -0.7807696 -0.31880563 0.14862181 0.19853836 0.06401686 -0.09260655 0.0063401116 -0.029504415 -0.078714356 -0.68584526 -0.13449796 0.09641552 0.44092807 0.32151717 0.016626619 0.19049698 0.32459134 -0.10008246 0.057227287 0.17711383 0.2676732 0.10906632 0.32875797 -0.20439479 0.08151298 0.23653287 -0.55351794 0.08627126 0.5010101 -0.05999827 0.20517318
